~o
<STREAMINFO> 1 39
<VECSIZE> 39<NULLD><MFCC_D_A_0><DIAGC>
~h "a"
<BEGINHMM>
<NUMSTATES> 5
<STATE> 2
<NUMMIXES> 2
<MIXTURE> 1 5.249795e-001
<MEAN> 39
 -1.784792e+000 -7.611352e+000 -3.394594e+000 -9.856789e+000 -5.516576e+000 -5.740460e-001 -6.499976e+000 3.392661e-001 1.941444e+000 2.058437e+000 -2.692151e+000 -6.055658e+000 7.039195e+001 9.753202e-001 -1.315370e+000 -5.794021e-001 -9.259233e-001 6.421895e-002 8.735059e-001 -4.092672e-001 6.738943e-001 2.922287e-001 2.906600e-001 -3.462677e-001 -9.516237e-001 8.625134e-001 -3.939542e-001 4.192680e-001 2.486474e-001 4.731137e-001 2.576590e-001 -9.776859e-002 2.752461e-001 -1.593165e-001 -1.840357e-001 -9.119818e-002 1.188043e-001 3.115079e-001 -4.456987e-001
<VARIANCE> 39
 4.584791e+001 5.895053e+001 5.020989e+001 8.289412e+001 7.593506e+001 8.886847e+001 8.096928e+001 6.518625e+001 6.322279e+001 6.161843e+001 6.968793e+001 5.024688e+001 1.156417e+002 3.142992e+000 3.735995e+000 2.956835e+000 4.790409e+000 4.549644e+000 4.446504e+000 4.345859e+000 4.271524e+000 4.488934e+000 3.789728e+000 3.895761e+000 3.727272e+000 3.593611e+000 6.082435e-001 8.296589e-001 5.389017e-001 9.177706e-001 8.137443e-001 8.556979e-001 9.290796e-001 8.934296e-001 9.197493e-001 7.509890e-001 8.277300e-001 7.113858e-001 9.305031e-001
<GCONST> 1.414036e+002
<MIXTURE> 2 4.749555e-001
<MEAN> 39
 -3.645842e+000 -7.714023e+000 -4.798914e+000 -1.050244e+001 -4.203462e+000 -2.375622e+000 -6.108817e+000 7.790758e-001 -4.167016e-001 -5.975698e-001 -5.769223e+000 -4.131507e+000 6.939912e+001 1.575888e+000 -2.298570e+000 -1.145943e+000 -2.021179e+000 8.100175e-002 5.581406e-001 -1.172458e+000 2.864267e-001 -7.638263e-001 -3.006374e-001 -1.676247e+000 -1.203461e+000 2.421901e+000 -2.507338e-001 2.925861e-001 2.369786e-001 3.823990e-001 9.059805e-002 3.125088e-002 2.104881e-001 -1.450338e-001 -4.769029e-003 3.121768e-002 2.013721e-001 8.263321e-002 -3.244358e-001
<VARIANCE> 39
 4.673935e+001 6.183251e+001 4.787381e+001 7.851688e+001 7.510371e+001 9.213988e+001 8.229692e+001 5.895060e+001 5.955037e+001 5.294395e+001 7.330367e+001 4.794780e+001 1.518830e+002 3.617254e+000 4.099160e+000 3.712205e+000 5.299499e+000 5.586653e+000 5.994202e+000 5.483448e+000 5.863198e+000 6.155431e+000 4.691979e+000 5.718618e+000 4.441148e+000 5.418737e+000 6.418782e-001 1.000364e+000 5.999790e-001 1.117053e+000 8.828609e-001 9.365910e-001 9.135462e-001 8.903634e-001 8.998060e-001 7.584326e-001 9.903842e-001 6.568654e-001 1.489813e+000
<GCONST> 1.457431e+002
<STATE> 3
<NUMMIXES> 2
<MIXTURE> 1 4.678111e-001
<MEAN> 39
 1.222069e+000 -1.053992e+001 -4.634354e+000 -1.169179e+001 -4.921493e+000 3.107213e-002 -8.554564e+000 1.249349e+000 8.152448e-001 1.096654e+000 -5.411712e+000 -8.144058e+000 7.612164e+001 1.409480e-001 5.395818e-001 2.365577e-001 3.103011e-001 2.270007e-001 -1.362805e-001 1.277358e-001 -1.250807e-001 -2.039260e-001 8.295789e-002 1.098985e-001 2.322045e-001 -4.835917e-001 -4.192001e-001 9.658008e-001 4.011278e-001 7.430608e-001 1.209105e-001 -3.157895e-001 3.915354e-001 -3.752568e-001 -4.622982e-002 -4.040403e-002 3.912698e-001 4.538856e-001 -8.012879e-001
<VARIANCE> 39
 1.579140e+001 3.622972e+001 3.592815e+001 6.504920e+001 5.705220e+001 7.997128e+001 6.523949e+001 5.578482e+001 5.822626e+001 6.316759e+001 7.726066e+001 4.476169e+001 3.596520e+001 6.916953e-001 2.360732e+000 1.964821e+000 2.220311e+000 2.904531e+000 3.429122e+000 2.752357e+000 3.257694e+000 2.782746e+000 2.611273e+000 2.843698e+000 2.163466e+000 1.134552e+000 3.384503e-001 4.012938e-001 3.546835e-001 5.283862e-001 6.063432e-001 6.374381e-001 6.890634e-001 6.822415e-001 7.913439e-001 6.248137e-001 7.028788e-001 5.605018e-001 3.155409e-001
<GCONST> 1.245659e+002
<MIXTURE> 2 5.320935e-001
<MEAN> 39
 -6.542622e-001 -1.195339e+001 -6.886419e+000 -1.421910e+001 -3.696345e+000 -1.070595e+000 -8.292374e+000 2.826917e-001 -1.659057e+000 -1.885562e+000 -8.096745e+000 -7.351869e+000 7.604682e+001 6.284554e-002 1.595844e-001 -1.251533e-002 7.437883e-002 1.627332e-001 1.634524e-002 -1.249969e-002 -1.931438e-001 -3.677581e-002 -2.737984e-003 -8.090499e-002 -6.105606e-002 -1.599150e-001 -2.719809e-002 6.505551e-001 4.053746e-001 4.018174e-001 -2.302749e-001 -2.925942e-001 3.808375e-002 -2.863750e-001 -2.348918e-003 9.941294e-002 3.022394e-001 1.836012e-001 -5.155042e-001
<VARIANCE> 39
 1.649339e+001 3.874020e+001 4.041718e+001 5.464104e+001 5.915042e+001 9.954409e+001 8.337125e+001 6.300084e+001 5.740787e+001 5.900868e+001 7.020619e+001 4.756593e+001 3.684786e+001 5.000312e-001 1.562405e+000 1.624994e+000 1.590788e+000 2.323476e+000 2.645237e+000 2.201061e+000 2.536485e+000 2.234486e+000 2.229715e+000 2.208135e+000 1.922333e+000 7.385998e-001 1.285872e-001 2.710921e-001 2.708809e-001 3.638965e-001 3.821028e-001 4.295101e-001 4.363476e-001 5.350899e-001 5.070723e-001 4.506969e-001 4.451430e-001 4.109769e-001 1.662909e-001
<GCONST> 1.160155e+002
<STATE> 4
<NUMMIXES> 2
<MIXTURE> 1 4.994919e-001
<MEAN> 39
 2.804547e-001 -4.681399e+000 -3.389479e+000 -8.562711e+000 -2.902057e+000 -3.523178e+000 -6.302465e+000 -3.415113e-001 -4.496763e-001 5.155062e-001 -5.699825e+000 -5.310004e+000 7.090433e+001 -1.064090e+000 2.752172e+000 1.042658e+000 2.385252e+000 1.031240e+000 -2.631865e-001 1.350151e+000 -2.769839e-001 5.746326e-001 1.200473e-001 1.095116e+000 8.193274e-001 -2.911767e+000 -5.680810e-001 5.298301e-002 6.536515e-003 2.637976e-001 1.031622e-001 2.708188e-001 4.124881e-001 1.470917e-001 2.958201e-001 3.045407e-002 3.077650e-001 1.317685e-001 -3.937179e-001
<VARIANCE> 39
 1.580904e+001 3.670226e+001 3.953405e+001 5.801661e+001 6.332382e+001 8.575791e+001 6.286401e+001 5.878650e+001 5.211222e+001 6.520896e+001 7.522097e+001 4.525753e+001 4.932450e+001 2.128911e+000 2.522162e+000 2.396243e+000 3.390468e+000 3.787440e+000 4.389919e+000 4.553995e+000 4.460184e+000 5.034672e+000 3.670042e+000 4.025316e+000 3.202913e+000 2.919526e+000 4.104620e-001 5.797541e-001 4.584596e-001 6.364303e-001 6.530322e-001 8.005331e-001 7.108351e-001 7.998632e-001 7.547125e-001 7.330323e-001 7.888877e-001 5.694183e-001 4.972604e-001
<GCONST> 1.329264e+002
<MIXTURE> 2 5.004553e-001
<MEAN> 39
 2.594056e-001 -6.496163e+000 -4.577195e+000 -1.061784e+001 -5.400465e+000 -8.865675e-001 -9.181233e+000 -1.002724e+000 -1.237195e+000 5.110047e-001 -4.887589e+000 -6.108028e+000 6.966692e+001 -1.545589e-001 2.036278e+000 8.067390e-001 1.527341e+000 -2.219305e-001 -6.482564e-001 6.142220e-001 -1.082420e+000 -3.629843e-001 -1.825949e-001 6.176553e-001 5.048765e-001 -2.108258e+000 -2.147794e-001 9.296108e-002 9.831082e-002 1.600710e-001 5.084390e-002 -1.097034e-002 1.377834e-001 -6.978530e-002 -2.372249e-002 -8.867788e-002 -2.213915e-002 -1.442242e-002 -1.135695e-001
<VARIANCE> 39
 2.295442e+001 4.614283e+001 5.679365e+001 6.808820e+001 7.073701e+001 9.841949e+001 7.855294e+001 6.688227e+001 6.013441e+001 6.476646e+001 7.308430e+001 4.044945e+001 7.194117e+001 1.392704e+000 2.491638e+000 3.396995e+000 3.506956e+000 3.722383e+000 3.862067e+000 3.762465e+000 4.110134e+000 4.435894e+000 3.668609e+000 3.267860e+000 3.063582e+000 1.997946e+000 2.187313e-001 4.109753e-001 4.768793e-001 5.651546e-001 5.942271e-001 6.651909e-001 6.563824e-001 7.315661e-001 6.936086e-001 6.283908e-001 6.124598e-001 4.986975e-001 3.804539e-001
<GCONST> 1.313989e+002
<TRANSP> 5
 0.000000e+000 1.000000e+000 0.000000e+000 0.000000e+000 0.000000e+000
 0.000000e+000 5.433608e-001 4.566392e-001 0.000000e+000 0.000000e+000
 0.000000e+000 0.000000e+000 6.921689e-001 3.078312e-001 0.000000e+000
 0.000000e+000 0.000000e+000 0.000000e+000 5.410656e-001 4.589344e-001
 0.000000e+000 0.000000e+000 0.000000e+000 0.000000e+000 0.000000e+000
<ENDHMM>
~h "b"
<BEGINHMM>
<NUMSTATES> 5
<STATE> 2
<NUMMIXES> 2
<MIXTURE> 1 5.127711e-001
<MEAN> 39
 1.011930e+000 7.977653e+000 4.697992e+000 2.461305e+000 -1.470169e+000 -1.350383e+000 -3.908873e+000 -5.776554e+000 -4.133581e+000 -1.603224e+000 -1.129792e-001 -4.277799e+000 5.791470e+001 -1.022670e-001 1.468227e+000 4.943446e-001 1.302485e+000 1.134847e+000 8.658552e-002 7.254374e-001 -1.470780e-001 -1.246563e-001 -3.319707e-001 -2.612552e-001 -9.333283e-002 -1.574539e+000 -2.967867e-001 -6.030272e-001 -7.986828e-002 -4.678763e-001 -3.854981e-001 -1.368281e-001 -2.245523e-001 1.738223e-001 1.220695e-001 8.208478e-002 -9.171014e-003 1.146019e-001 7.571430e-001
<VARIANCE> 39
 2.419698e+001 2.273279e+001 2.833558e+001 3.857936e+001 3.209064e+001 3.606573e+001 3.883978e+001 3.215643e+001 3.581404e+001 2.739549e+001 3.019206e+001 2.339624e+001 4.785467e+001 1.306645e+000 2.102059e+000 1.557494e+000 3.134907e+000 2.464877e+000 2.162526e+000 2.605458e+000 2.376768e+000 2.954352e+000 2.287679e+000 2.171895e+000 1.924452e+000 2.398881e+000 2.197330e-001 3.664212e-001 2.830246e-001 4.054630e-001 4.016605e-001 3.941967e-001 4.555557e-001 4.516867e-001 5.088677e-001 4.245922e-001 4.032986e-001 3.478663e-001 3.544749e-001
<GCONST> 1.141523e+002
<MIXTURE> 2 4.871916e-001
<MEAN> 39
 2.301493e+000 6.761452e+000 2.407123e+000 -9.888229e-001 -4.631502e+000 -3.968919e+000 -6.948183e+000 -7.061453e+000 -5.956140e+000 -4.063365e+000 -4.805764e+000 -7.599932e+000 5.853237e+001 -2.321527e-001 1.472849e+000 4.950094e-001 1.228495e+000 7.968637e-001 -8.109538e-004 7.570769e-001 -2.009645e-001 1.804060e-002 -6.840105e-001 -3.427584e-001 -2.650792e-001 -1.527503e+000 -4.318760e-001 -8.392149e-001 -1.088470e-001 -5.853457e-001 -3.811371e-001 -1.486986e-001 -2.617463e-001 2.250425e-001 1.592012e-001 2.755427e-001 1.836422e-001 3.929691e-001 1.041476e+000
<VARIANCE> 39
 2.008395e+001 2.702138e+001 3.297750e+001 3.865805e+001 3.826013e+001 5.221772e+001 4.173980e+001 3.377226e+001 3.836730e+001 3.494052e+001 5.006789e+001 2.851774e+001 4.113387e+001 8.820059e-001 1.882424e+000 1.472259e+000 2.693577e+000 2.299164e+000 2.090822e+000 2.488027e+000 2.370594e+000 2.623029e+000 2.604208e+000 2.288428e+000 2.262280e+000 1.740552e+000 2.351713e-001 4.109452e-001 3.710036e-001 5.383789e-001 5.516014e-001 4.984541e-001 5.846600e-001 5.916213e-001 6.126961e-001 5.506759e-001 5.384843e-001 4.766754e-001 4.233689e-001
<GCONST> 1.179000e+002
<STATE> 3
<NUMMIXES> 2
<MIXTURE> 1 5.130951e-001
<MEAN> 39
 1.118542e-001 9.881555e+000 6.210699e+000 3.785048e+000 5.933372e-001 -1.596343e+000 -2.784296e+000 -5.734236e+000 -4.152193e+000 -2.959006e+000 -1.003137e+000 -4.010425e+000 5.565761e+001 -1.506714e+000 -1.861750e+000 -4.323190e-001 -3.768826e-001 -1.994509e-001 -6.361880e-001 -1.726983e-001 4.833548e-001 9.179422e-001 3.393630e-001 3.991843e-002 5.725152e-001 2.193758e+000 8.156298e-002 -1.229543e+000 -3.466536e-001 -9.902301e-001 -1.016359e+000 -2.997289e-001 -5.903207e-001 1.315696e-001 1.273500e-001 3.795666e-001 1.884449e-001 4.146146e-002 1.564106e+000
<VARIANCE> 39
 1.983894e+001 1.750747e+001 1.873163e+001 2.609333e+001 2.659726e+001 3.070015e+001 3.187512e+001 2.966623e+001 3.193161e+001 2.543619e+001 2.717427e+001 2.134251e+001 4.393077e+001 1.893987e+000 2.877674e+000 2.363315e+000 3.417200e+000 3.131934e+000 3.205369e+000 3.449282e+000 3.023356e+000 3.270063e+000 2.779149e+000 2.658221e+000 2.085846e+000 3.692790e+000 3.700719e-001 4.116933e-001 6.142375e-001 6.132025e-001 6.003115e-001 6.472164e-001 6.156589e-001 7.001360e-001 8.067713e-001 6.372837e-001 6.102584e-001 5.024776e-001 3.690997e-001
<GCONST> 1.202945e+002
<MIXTURE> 2 4.868848e-001
<MEAN> 39
 8.156046e-001 8.473051e+000 3.471099e+000 6.261843e-001 -2.991474e+000 -3.581120e+000 -6.277104e+000 -7.589064e+000 -5.768337e+000 -4.531363e+000 -4.352711e+000 -6.503319e+000 5.631596e+001 -1.614680e+000 -2.068490e+000 -6.520746e-002 -3.714416e-001 -5.028029e-001 -1.094885e+000 -3.907510e-001 3.664322e-001 8.150246e-001 2.778807e-001 3.176691e-001 8.289179e-001 2.699493e+000 -8.192988e-003 -1.247028e+000 -1.233199e-001 -9.699664e-001 -9.169595e-001 -2.510049e-001 -5.064322e-001 2.868092e-001 3.183097e-002 4.846927e-001 2.393034e-001 2.687057e-001 1.485713e+000
<VARIANCE> 39
 2.289973e+001 2.525163e+001 3.283416e+001 3.980597e+001 3.832622e+001 4.865238e+001 3.981221e+001 3.385033e+001 3.767652e+001 3.437376e+001 4.591294e+001 2.957749e+001 4.799421e+001 2.525721e+000 3.979532e+000 3.789056e+000 4.989784e+000 5.227059e+000 4.788469e+000 4.756575e+000 4.074619e+000 4.192459e+000 3.819709e+000 3.873055e+000 3.214306e+000 3.524848e+000 3.982243e-001 5.884824e-001 8.703684e-001 7.885512e-001 8.678654e-001 8.409095e-001 7.712219e-001 8.543668e-001 9.815285e-001 8.088769e-001 7.522327e-001 7.053003e-001 4.167512e-001
<GCONST> 1.318880e+002
<STATE> 4
<NUMMIXES> 2
<MIXTURE> 1 5.043864e-001
<MEAN> 39
 -4.978888e+000 5.429369e-001 2.806523e+000 4.523994e-001 -1.849146e+000 -4.828900e+000 -4.771280e+000 -4.334982e+000 -3.859597e-001 -7.114546e-001 -6.717958e-001 -2.309700e+000 6.694184e+001 1.930888e-001 -3.109541e+000 -5.863811e-001 -2.467260e+000 -2.664105e+000 -8.609024e-001 -1.677718e+000 3.234135e-001 4.531287e-001 9.143582e-001 7.011061e-001 2.633770e-001 4.156511e+000 7.863508e-001 2.885411e-001 2.550229e-001 -4.332552e-001 -6.858294e-001 3.390538e-001 -2.964419e-001 -1.339799e-001 -5.032706e-001 -5.908379e-002 3.786345e-002 -2.624328e-001 -3.227893e-001
<VARIANCE> 39
 2.646230e+001 2.779257e+001 3.203322e+001 4.654077e+001 3.530481e+001 3.584929e+001 4.717788e+001 3.146297e+001 3.179807e+001 3.072938e+001 2.687173e+001 1.922336e+001 7.340501e+001 3.046855e+000 4.014049e+000 6.089892e+000 6.703816e+000 5.624649e+000 5.936286e+000 5.239607e+000 5.468922e+000 6.242994e+000 5.259931e+000 4.413895e+000 3.839696e+000 2.899087e+000 4.407917e-001 7.608705e-001 5.587445e-001 8.847066e-001 8.602067e-001 7.863716e-001 9.239557e-001 7.718042e-001 8.539394e-001 7.531193e-001 8.422647e-001 4.991795e-001 7.303153e-001
<GCONST> 1.337734e+002
<MIXTURE> 2 4.955965e-001
<MEAN> 39
 -4.592923e+000 -1.351589e+000 2.637421e+000 -1.613142e+000 -5.767612e+000 -8.519518e+000 -7.572267e+000 -5.125241e+000 -1.819236e+000 -2.834846e+000 -2.740992e+000 -3.578133e+000 6.918967e+001 -1.582949e-001 -3.270756e+000 -5.823865e-003 -2.753109e+000 -3.081224e+000 -1.083749e+000 -1.601893e+000 8.173113e-001 -3.223750e-001 1.271243e+000 3.772238e-001 8.654526e-001 4.289800e+000 6.697295e-001 4.977997e-001 1.990521e-001 -5.367201e-001 -3.743147e-001 4.908042e-001 -1.536229e-001 -8.713418e-002 -5.662048e-001 1.610211e-001 -1.832040e-001 -2.164990e-001 -5.780512e-001
<VARIANCE> 39
 2.613488e+001 2.929251e+001 4.438905e+001 4.979885e+001 4.333987e+001 4.929301e+001 5.003039e+001 3.428450e+001 3.548825e+001 3.515964e+001 3.407792e+001 2.434393e+001 5.741235e+001 2.956830e+000 4.507483e+000 9.017301e+000 6.612560e+000 6.282596e+000 6.896356e+000 5.459821e+000 6.504597e+000 7.539111e+000 6.032096e+000 5.319443e+000 4.769924e+000 2.752785e+000 3.949626e-001 7.734495e-001 5.531893e-001 9.953291e-001 9.854252e-001 8.970878e-001 9.470533e-001 7.912404e-001 7.970515e-001 8.244043e-001 8.334867e-001 5.536451e-001 6.953499e-001
<GCONST> 1.373624e+002
<TRANSP> 5
 0.000000e+000 1.000000e+000 0.000000e+000 0.000000e+000 0.000000e+000
 0.000000e+000 7.023608e-001 2.976392e-001 0.000000e+000 0.000000e+000
 0.000000e+000 0.000000e+000 5.016662e-001 4.983339e-001 0.000000e+000
 0.000000e+000 0.000000e+000 0.000000e+000 4.454980e-001 5.545020e-001
 0.000000e+000 0.000000e+000 0.000000e+000 0.000000e+000 0.000000e+000
<ENDHMM>
~h "d"
<BEGINHMM>
<NUMSTATES> 5
<STATE> 2
<NUMMIXES> 2
<MIXTURE> 1 5.144859e-001
<MEAN> 39
 -1.011667e+000 5.457084e+000 6.188563e+000 3.551767e+000 -3.678666e+000 -4.884267e+000 -6.161133e+000 -4.117786e+000 3.805694e-001 -6.949433e-001 -2.875144e+000 -4.557931e+000 5.959832e+001 -1.300649e-001 1.400320e+000 2.803341e-001 1.210091e+000 1.468876e+000 3.604183e-001 1.126374e+000 1.063136e-001 7.376017e-002 -2.651704e-001 -3.447886e-001 -1.139528e-001 -1.993310e+000 -3.832967e-001 -8.111765e-001 -1.315987e-001 -7.360666e-001 -4.579540e-001 5.831948e-002 -9.637137e-002 1.031356e-001 -2.295812e-001 -1.231736e-002 2.313713e-001 2.565621e-001 1.080264e+000
<VARIANCE> 39
 2.853966e+001 3.470086e+001 4.199930e+001 3.870873e+001 5.117326e+001 4.404996e+001 4.771739e+001 4.488895e+001 3.970920e+001 3.737222e+001 3.552163e+001 3.014854e+001 5.785583e+001 2.019180e+000 3.302317e+000 2.543060e+000 3.193344e+000 3.877211e+000 3.282492e+000 3.665272e+000 3.358490e+000 3.387514e+000 2.806273e+000 2.935748e+000 2.396049e+000 3.350872e+000 3.564925e-001 6.463415e-001 3.906116e-001 6.840971e-001 8.989793e-001 6.801049e-001 7.133389e-001 6.699278e-001 6.718817e-001 6.064441e-001 5.607758e-001 4.799592e-001 7.752771e-001
<GCONST> 1.276708e+002
<MIXTURE> 2 4.854760e-001
<MEAN> 39
 -3.075323e-001 3.958926e+000 4.497645e+000 3.305246e-001 -6.566096e+000 -6.199990e+000 -8.486151e+000 -5.479459e+000 -1.600139e+000 -3.610173e+000 -6.586177e+000 -6.345348e+000 5.990451e+001 -2.215859e-001 1.219139e+000 5.569942e-001 1.306158e+000 1.092527e+000 1.245081e-001 9.935058e-001 -2.194741e-001 -1.550664e-001 -6.889035e-001 -2.823665e-001 -4.127214e-001 -1.520879e+000 -5.104024e-001 -9.945520e-001 -1.172917e-001 -9.071240e-001 -4.154789e-001 1.356109e-002 -1.446639e-001 1.823209e-001 -1.448510e-001 2.067440e-001 4.292206e-001 4.694531e-001 1.325874e+000
<VARIANCE> 39
 3.522338e+001 4.467025e+001 5.744022e+001 4.642853e+001 6.183883e+001 5.622122e+001 5.893412e+001 5.217640e+001 4.782271e+001 5.396261e+001 5.367947e+001 3.619598e+001 6.045514e+001 2.735539e+000 4.062796e+000 3.278403e+000 4.156690e+000 4.983073e+000 4.607691e+000 4.751948e+000 4.644279e+000 4.250031e+000 3.636948e+000 3.886752e+000 3.293474e+000 3.900714e+000 4.884251e-001 8.308387e-001 5.835419e-001 9.523199e-001 1.133680e+000 8.334998e-001 9.419950e-001 9.225571e-001 9.032488e-001 9.274284e-001 7.748040e-001 6.659050e-001 8.648113e-001
<GCONST> 1.378679e+002
<STATE> 3
<NUMMIXES> 2
<MIXTURE> 1 5.199412e-001
<MEAN> 39
 -2.993669e+000 5.921239e+000 6.618512e+000 3.843896e+000 -1.342056e+000 -3.673668e+000 -4.026050e+000 -3.830754e+000 -5.111797e-001 -1.553945e+000 -2.732411e+000 -3.761969e+000 5.862751e+001 -1.536220e+000 -2.171791e+000 -1.579199e-001 -1.148249e+000 -3.930142e-001 -2.332091e-002 3.228062e-001 2.573774e-001 3.547516e-002 -2.200761e-001 6.481673e-001 1.058895e+000 2.533268e+000 1.315427e-001 -8.926517e-001 -8.041660e-002 -8.641005e-001 -1.177580e+000 -4.239784e-001 -8.187006e-001 1.341840e-002 -2.955430e-002 1.823313e-001 2.340363e-001 7.733747e-002 1.486071e+000
<VARIANCE> 39
 3.123538e+001 3.693052e+001 3.468444e+001 3.659937e+001 3.963324e+001 3.831975e+001 3.915704e+001 3.487958e+001 3.271508e+001 3.123186e+001 2.837690e+001 2.425715e+001 6.350670e+001 2.387672e+000 3.810972e+000 3.405850e+000 4.094769e+000 5.037055e+000 4.735151e+000 4.638378e+000 4.153165e+000 4.211884e+000 3.578289e+000 3.158658e+000 2.777534e+000 3.737200e+000 4.909508e-001 7.262090e-001 5.475789e-001 7.956998e-001 8.910658e-001 8.465894e-001 8.319620e-001 8.316944e-001 8.113292e-001 6.716723e-001 7.342108e-001 5.663185e-001 6.456026e-001
<GCONST> 1.307758e+002
<MIXTURE> 2 4.800309e-001
<MEAN> 39
 -2.899607e+000 2.674496e+000 5.886166e+000 5.552278e-001 -4.638474e+000 -4.996414e+000 -6.341357e+000 -5.267284e+000 -2.046670e+000 -4.263865e+000 -5.286450e+000 -5.186315e+000 6.110973e+001 -1.516401e+000 -2.191646e+000 4.358886e-001 -1.223122e+000 -8.276934e-001 -3.854403e-001 -1.832942e-001 1.643066e-001 -5.505754e-002 -9.486048e-002 9.919055e-001 1.087141e+000 2.801070e+000 2.097533e-001 -8.343546e-001 -2.286856e-001 -9.766147e-001 -1.063773e+000 -3.378162e-001 -8.448784e-001 2.071140e-001 -4.859324e-002 4.437194e-001 2.063787e-001 2.516494e-001 1.290890e+000
<VARIANCE> 39
 3.798899e+001 5.241803e+001 5.065566e+001 5.287848e+001 5.607533e+001 5.245093e+001 5.256916e+001 4.552549e+001 4.353735e+001 4.194603e+001 4.046593e+001 2.995533e+001 6.328473e+001 2.694194e+000 4.359254e+000 4.318482e+000 5.232327e+000 6.212646e+000 5.262024e+000 5.417566e+000 5.861437e+000 4.961191e+000 4.649316e+000 4.397134e+000 3.387366e+000 3.900373e+000 5.291495e-001 8.634011e-001 7.435215e-001 1.048323e+000 1.238160e+000 1.171709e+000 1.129464e+000 1.075049e+000 1.055778e+000 9.226326e-001 1.043702e+000 7.813948e-001 6.324424e-001
<GCONST> 1.402637e+002
<STATE> 4
<NUMMIXES> 2
<MIXTURE> 1 5.079461e-001
<MEAN> 39
 -5.803026e+000 -2.540400e+000 5.622328e+000 -1.130022e+000 -6.602943e+000 -6.436922e+000 -7.313980e+000 -4.460244e+000 7.802543e-001 -1.622382e+000 -9.837399e-001 -1.014900e+000 7.029054e+001 5.298377e-001 -1.307225e+000 -1.604611e-001 -1.339918e+000 -2.020043e+000 -6.519486e-001 -1.947747e+000 -1.662502e-002 2.343263e-001 5.228567e-001 7.729868e-001 -4.971820e-002 2.409351e+000 6.550162e-001 5.122824e-001 -8.569622e-002 -1.891952e-002 -8.286552e-002 2.846325e-001 -2.779401e-001 1.597411e-002 -2.135333e-001 2.106900e-001 -4.540420e-002 -5.068386e-001 -6.123753e-001
<VARIANCE> 39
 4.178783e+001 4.465511e+001 4.372154e+001 5.835177e+001 6.405914e+001 5.589412e+001 7.803338e+001 5.141489e+001 4.370487e+001 3.429090e+001 3.057829e+001 2.700464e+001 5.918653e+001 3.299038e+000 4.962695e+000 3.567296e+000 4.796868e+000 6.244728e+000 5.176212e+000 6.349184e+000 5.686084e+000 5.146184e+000 4.228258e+000 4.177269e+000 3.871774e+000 4.789503e+000 5.236773e-001 8.109329e-001 6.328377e-001 9.492097e-001 1.260711e+000 1.122012e+000 1.349602e+000 8.535548e-001 8.944175e-001 7.429878e-001 8.237413e-001 6.124719e-001 6.799890e-001
<GCONST> 1.394138e+002
<MIXTURE> 2 4.920206e-001
<MEAN> 39
 -5.510918e+000 -5.154629e+000 6.100774e+000 -4.808985e+000 -1.025746e+001 -7.896644e+000 -9.390789e+000 -3.515912e+000 -7.476383e-001 -3.824008e+000 -2.088615e+000 -1.230514e+000 7.189445e+001 5.232291e-001 -1.936734e+000 -5.717431e-001 -2.247357e+000 -2.304629e+000 -1.210203e+000 -2.160499e+000 8.302421e-001 -2.395761e-001 1.002633e+000 5.935235e-002 3.832807e-001 3.016639e+000 7.025686e-001 6.516855e-001 -3.945703e-001 -1.460095e-002 1.939583e-001 1.900635e-001 -1.516176e-001 -3.365212e-002 -2.431592e-001 3.600933e-001 -4.588991e-001 -5.171101e-001 -7.521512e-001
<VARIANCE> 39
 3.520761e+001 4.178225e+001 4.448834e+001 6.428307e+001 7.532539e+001 6.142943e+001 8.186642e+001 5.512849e+001 4.688974e+001 3.972651e+001 3.827964e+001 2.812274e+001 4.588285e+001 3.020535e+000 4.839301e+000 4.656115e+000 5.228681e+000 6.825802e+000 5.990391e+000 7.278944e+000 7.273611e+000 5.660072e+000 5.291986e+000 6.062893e+000 4.681577e+000 4.198677e+000 4.641110e-001 8.036812e-001 7.106619e-001 1.170944e+000 1.601645e+000 1.283024e+000 1.467046e+000 1.059204e+000 9.581813e-001 9.348350e-001 1.116108e+000 7.347954e-001 6.701739e-001
<GCONST> 1.431387e+002
<TRANSP> 5
 0.000000e+000 1.000000e+000 0.000000e+000 0.000000e+000 0.000000e+000
 0.000000e+000 5.319499e-001 4.680502e-001 0.000000e+000 0.000000e+000
 0.000000e+000 0.000000e+000 3.881654e-001 6.118346e-001 0.000000e+000
 0.000000e+000 0.000000e+000 0.000000e+000 4.901872e-001 5.098128e-001
 0.000000e+000 0.000000e+000 0.000000e+000 0.000000e+000 0.000000e+000
<ENDHMM>
~h "e"
<BEGINHMM>
<NUMSTATES> 5
<STATE> 2
<NUMMIXES> 2
<MIXTURE> 1 5.299653e-001
<MEAN> 39
 -1.928813e+000 -5.893961e+000 5.589771e+000 -6.428517e+000 -1.353104e+001 -9.105275e+000 -1.032361e+001 1.829022e+000 -4.515602e-001 -4.258794e-001 -2.946329e+000 -3.439245e+000 7.482700e+001 1.164484e+000 -1.375299e+000 7.742825e-002 -5.752420e-001 -1.117852e+000 -3.956111e-001 -8.780945e-001 1.311803e+000 7.615275e-002 1.524203e-001 -3.870963e-001 -2.172345e-001 8.121201e-001 -7.285596e-001 6.779116e-001 -1.467557e-001 4.518811e-001 8.550335e-001 4.024588e-001 7.032791e-001 -3.545868e-001 1.385369e-002 4.097617e-002 2.235526e-001 1.798156e-001 -7.424332e-001
<VARIANCE> 39
 1.607008e+001 3.719309e+001 6.422364e+001 6.351118e+001 6.774535e+001 5.586249e+001 6.181070e+001 4.833010e+001 6.619392e+001 4.971336e+001 6.018956e+001 3.515091e+001 4.130898e+001 2.930310e+000 2.514064e+000 2.927193e+000 2.742674e+000 4.290388e+000 3.417361e+000 4.747986e+000 3.949567e+000 3.695903e+000 3.403318e+000 3.339053e+000 2.702976e+000 1.220418e+000 6.849185e-001 4.820231e-001 4.865720e-001 5.521541e-001 8.351104e-001 6.919877e-001 8.081074e-001 8.272344e-001 8.612273e-001 6.770457e-001 7.545614e-001 5.258496e-001 2.936045e-001
<GCONST> 1.306666e+002
<MIXTURE> 2 4.699819e-001
<MEAN> 39
 -4.220065e+000 -4.890007e+000 4.064133e+000 -1.028942e+001 -1.315909e+001 -1.179884e+001 -7.756241e+000 -2.070409e-002 -3.065414e+000 -2.316026e+000 -5.726191e+000 -1.936720e+000 7.425679e+001 2.055743e+000 -1.771669e+000 -4.481383e-002 -1.449857e+000 -1.556717e+000 -1.194396e+000 -1.205253e+000 1.046238e+000 -6.973833e-001 -5.322040e-002 -1.344199e+000 -2.919896e-001 1.377296e+000 -6.822025e-001 3.252266e-001 -1.350889e-001 4.672886e-001 6.777709e-001 6.074404e-001 4.235058e-001 -4.379777e-002 2.343336e-001 1.769095e-001 3.486565e-001 3.037951e-002 -5.729095e-001
<VARIANCE> 39
 2.013433e+001 4.766399e+001 6.733717e+001 6.385583e+001 6.367534e+001 5.889949e+001 7.042703e+001 5.444657e+001 5.848050e+001 4.796528e+001 5.140096e+001 3.242307e+001 4.888485e+001 4.928766e+000 2.888579e+000 3.450807e+000 4.820789e+000 5.454263e+000 6.111938e+000 7.395134e+000 5.130739e+000 5.005555e+000 4.345199e+000 5.491172e+000 3.330737e+000 1.996829e+000 6.760731e-001 5.554681e-001 4.766587e-001 6.197613e-001 7.941493e-001 8.098642e-001 7.886680e-001 9.311842e-001 7.154109e-001 7.257972e-001 7.217355e-001 4.711312e-001 4.608692e-001
<GCONST> 1.364688e+002
<STATE> 3
<NUMMIXES> 2
<MIXTURE> 1 4.665976e-001
<MEAN> 39
 -1.768918e+000 -6.758017e+000 5.204716e+000 -7.523137e+000 -1.336500e+001 -9.776701e+000 -9.317589e+000 3.497928e+000 -1.516013e+000 -8.385561e-001 -4.548120e+000 -2.844838e+000 7.522746e+001 9.830038e-002 7.744560e-001 -9.738217e-003 7.595375e-001 7.493526e-001 4.294780e-002 2.995478e-001 -3.198850e-001 6.865412e-002 3.673406e-002 2.064469e-002 6.654332e-002 -9.444138e-001 -5.291294e-001 9.248526e-001 -4.795037e-002 6.486983e-001 8.126749e-001 3.465585e-001 5.662820e-001 -6.252558e-001 1.341853e-001 -3.481197e-003 3.417276e-001 5.302458e-002 -8.394285e-001
<VARIANCE> 39
 1.477775e+001 3.503362e+001 5.589572e+001 6.408576e+001 6.149152e+001 5.971550e+001 7.033439e+001 5.237147e+001 6.878594e+001 5.039747e+001 6.529385e+001 3.876269e+001 3.693126e+001 8.786965e-001 2.066711e+000 2.388423e+000 2.298066e+000 3.187917e+000 2.548296e+000 2.935718e+000 3.145289e+000 3.263184e+000 2.826186e+000 2.628197e+000 2.001225e+000 1.359212e+000 5.423331e-001 4.306601e-001 4.206707e-001 5.702364e-001 7.140556e-001 7.661791e-001 9.209287e-001 8.289254e-001 9.004622e-001 6.527239e-001 7.869331e-001 5.482668e-001 3.035649e-001
<GCONST> 1.266131e+002
<MIXTURE> 2 5.333237e-001
<MEAN> 39
 -3.199159e+000 -9.159765e+000 3.766345e+000 -1.183338e+001 -1.346959e+001 -1.047574e+001 -7.071006e+000 4.086641e+000 -3.775902e+000 -2.887896e+000 -7.099142e+000 -2.622560e+000 7.579478e+001 1.779164e-001 3.029790e-001 -8.282287e-002 4.172864e-001 2.940932e-001 2.950758e-002 -6.480591e-003 -2.064665e-001 -4.956724e-002 -1.081039e-001 -1.328259e-001 -1.291094e-001 -5.168061e-001 -1.605649e-002 6.670134e-001 7.019759e-002 5.168573e-001 3.536048e-001 1.158325e-001 -7.780417e-002 -6.682691e-001 8.534700e-002 9.843025e-002 2.140617e-001 -1.151848e-001 -5.969827e-001
<VARIANCE> 39
 1.695401e+001 4.142571e+001 5.580946e+001 5.723630e+001 5.696780e+001 7.623382e+001 9.363373e+001 5.466353e+001 6.898166e+001 5.274270e+001 5.682533e+001 3.532920e+001 3.857225e+001 6.062848e-001 1.615004e+000 2.041808e+000 1.923705e+000 2.568753e+000 2.268181e+000 2.726535e+000 2.767928e+000 2.727888e+000 2.552361e+000 2.207409e+000 1.824271e+000 9.036140e-001 1.755077e-001 2.701944e-001 3.045006e-001 3.981179e-001 4.683139e-001 5.587030e-001 6.240228e-001 5.938724e-001 5.643395e-001 5.453002e-001 4.902795e-001 3.747287e-001 1.783608e-001
<GCONST> 1.189479e+002
<STATE> 4
<NUMMIXES> 2
<MIXTURE> 1 4.962254e-001
<MEAN> 39
 -2.297955e+000 -1.906870e+000 5.447394e+000 -4.190587e+000 -1.011053e+001 -1.036638e+001 -6.995008e+000 4.986785e-001 -1.595176e+000 -9.092425e-001 -4.263648e+000 -2.240778e+000 6.982723e+001 -9.608666e-001 2.425989e+000 -1.062156e-001 2.108954e+000 2.212718e+000 7.527489e-001 1.516820e+000 -7.509206e-001 8.758694e-001 8.929605e-002 8.380392e-001 2.255924e-001 -2.817142e+000 -5.883521e-001 5.549476e-002 -1.809467e-001 9.041390e-003 2.394462e-001 3.868935e-001 3.954281e-001 1.113127e-001 2.211913e-001 9.958011e-002 3.456491e-001 1.243173e-001 -2.305181e-001
<VARIANCE> 39
 1.662325e+001 3.374784e+001 4.841102e+001 5.384751e+001 6.019965e+001 5.752280e+001 7.122707e+001 5.542207e+001 6.252755e+001 5.223370e+001 5.411882e+001 3.649667e+001 5.092150e+001 2.315335e+000 2.428343e+000 2.486244e+000 3.401486e+000 3.418591e+000 3.818988e+000 4.108346e+000 4.216817e+000 4.943415e+000 3.429806e+000 4.026097e+000 2.874990e+000 3.167892e+000 4.593996e-001 5.125344e-001 4.412516e-001 5.206425e-001 6.873375e-001 6.334826e-001 6.470515e-001 7.474577e-001 8.174260e-001 6.787143e-001 6.429436e-001 5.038408e-001 4.117162e-001
<GCONST> 1.305503e+002
<MIXTURE> 2 5.037075e-001
<MEAN> 39
 -2.313578e+000 -4.513408e+000 4.018917e+000 -6.926959e+000 -1.164773e+001 -8.521047e+000 -9.581728e+000 7.896603e-001 -1.880606e+000 -1.920269e+000 -4.744697e+000 -3.669014e+000 6.942964e+001 1.143440e-001 1.668858e+000 -2.660828e-001 1.343294e+000 1.000695e+000 3.774341e-001 4.370416e-001 -1.567107e+000 -6.836737e-002 1.079767e-001 2.491239e-001 -3.517120e-001 -2.019631e+000 -1.608499e-001 1.112003e-001 2.246442e-003 1.951722e-003 3.479368e-002 9.768184e-002 2.004932e-001 -1.498165e-001 -1.480110e-001 3.956325e-002 7.875295e-002 2.290871e-002 -6.121489e-002
<VARIANCE> 39
 2.416732e+001 4.613973e+001 6.846977e+001 6.784270e+001 6.773523e+001 6.734848e+001 8.146042e+001 6.055159e+001 7.633450e+001 6.227064e+001 6.441296e+001 4.066048e+001 6.715561e+001 1.493358e+000 2.494704e+000 3.071597e+000 3.706326e+000 4.121815e+000 4.118577e+000 4.329207e+000 4.500994e+000 4.498803e+000 3.842469e+000 3.576416e+000 2.984118e+000 2.168035e+000 2.218903e-001 3.794320e-001 4.552827e-001 5.140078e-001 6.004393e-001 5.985454e-001 6.396170e-001 6.835797e-001 7.569652e-001 6.401773e-001 5.610148e-001 4.732484e-001 3.185534e-001
<GCONST> 1.311789e+002
<TRANSP> 5
 0.000000e+000 1.000000e+000 0.000000e+000 0.000000e+000 0.000000e+000
 0.000000e+000 3.741427e-001 6.258574e-001 0.000000e+000 0.000000e+000
 0.000000e+000 0.000000e+000 5.620740e-001 4.379261e-001 0.000000e+000
 0.000000e+000 0.000000e+000 0.000000e+000 4.319299e-001 5.680701e-001
 0.000000e+000 0.000000e+000 0.000000e+000 0.000000e+000 0.000000e+000
<ENDHMM>
~h "f"
<BEGINHMM>
<NUMSTATES> 5
<STATE> 2
<NUMMIXES> 2
<MIXTURE> 1 5.179890e-001
<MEAN> 39
 -8.719795e+000 7.211652e-001 1.941261e+000 -1.765680e-001 1.005711e-001 -2.178029e+000 4.581941e-001 4.881773e-002 7.664343e-001 -8.335022e-001 -9.895179e-001 -1.215558e+000 6.612032e+001 -3.789217e+000 1.298659e-001 -2.237144e-001 2.167652e+000 1.697867e+000 6.517697e-001 1.659954e+000 1.483609e+000 2.147088e+000 8.528114e-001 1.493411e+000 1.157231e+000 -6.793099e-001 -1.710424e-001 -5.799960e-001 -2.689635e-001 -6.449448e-001 -5.804686e-001 -1.388715e-001 -3.277880e-001 7.274387e-002 -2.878923e-002 2.703502e-001 6.596257e-003 6.717809e-002 3.474561e-001
<VARIANCE> 39
 3.974844e+001 1.637416e+001 3.215792e+001 3.385178e+001 3.295469e+001 3.804422e+001 3.719138e+001 3.346701e+001 3.370110e+001 3.313468e+001 3.243314e+001 2.395867e+001 5.147205e+001 2.918719e+000 3.539727e+000 3.455056e+000 4.743987e+000 4.172644e+000 5.015687e+000 4.413590e+000 4.083881e+000 3.822920e+000 3.615463e+000 4.783510e+000 2.940802e+000 1.698514e+000 6.026529e-001 4.168831e-001 3.731080e-001 6.198456e-001 4.475245e-001 5.601214e-001 6.071423e-001 5.926610e-001 5.903785e-001 5.598784e-001 5.245065e-001 4.282356e-001 2.747532e-001
<GCONST> 1.247443e+002
<MIXTURE> 2 4.820081e-001
<MEAN> 39
 -1.129894e+001 1.669187e-001 5.402630e-001 6.981203e-001 -1.395073e+000 -3.172585e+000 -1.889750e+000 -8.381640e-001 7.618889e-001 -5.809427e-001 -1.630459e+000 -1.314213e+000 6.624590e+001 -3.545779e+000 -5.646396e-001 -8.624545e-001 1.279797e+000 9.975652e-001 -2.385778e-001 8.292785e-001 7.510821e-001 1.483122e+000 3.375251e-001 6.262750e-001 7.479424e-001 -1.920233e-001 2.410230e-001 -4.423846e-001 -6.725882e-002 -6.997980e-001 -6.746292e-001 -6.388237e-002 -4.970678e-001 -6.604177e-002 -3.041848e-001 1.437439e-001 -1.320187e-002 -9.147820e-002 2.968368e-001
<VARIANCE> 39
 3.395145e+001 2.549679e+001 4.077963e+001 4.397820e+001 3.984748e+001 4.143113e+001 4.216676e+001 3.663033e+001 3.733131e+001 3.201134e+001 2.988987e+001 2.338293e+001 6.670945e+001 2.683336e+000 2.783916e+000 3.179021e+000 3.671770e+000 4.042379e+000 4.238252e+000 3.661296e+000 4.245420e+000 3.612924e+000 3.485208e+000 3.502979e+000 2.598887e+000 1.445116e+000 4.926180e-001 4.659351e-001 4.312923e-001 6.342003e-001 6.128960e-001 5.890163e-001 6.194709e-001 6.374384e-001 6.082572e-001 5.947024e-001 5.408812e-001 4.742522e-001 2.657835e-001
<GCONST> 1.252641e+002
<STATE> 3
<NUMMIXES> 2
<MIXTURE> 1 5.213511e-001
<MEAN> 39
 -1.776971e+001 -2.825154e+000 -1.559398e+000 1.607344e+000 5.554143e-001 -1.060055e+000 1.847279e+000 3.006743e+000 5.057828e+000 3.178239e+000 2.654259e+000 2.243003e+000 6.567790e+001 -5.796282e-001 -3.099686e-001 -1.871447e-001 1.711740e-002 1.898680e-001 3.204725e-001 3.566874e-001 4.462075e-001 4.823236e-001 4.960967e-001 4.861235e-001 4.086484e-001 -7.699265e-002 6.338298e-001 1.727229e-001 1.892543e-001 -1.701582e-001 -9.250610e-002 -7.582008e-002 -9.968393e-002 -1.839860e-001 -2.862626e-001 -1.807740e-001 -1.898563e-001 -1.792378e-001 -9.036049e-002
<VARIANCE> 39
 1.588416e+001 1.672398e+001 2.319000e+001 2.656825e+001 2.018418e+001 2.017731e+001 2.604394e+001 2.169121e+001 2.191182e+001 2.189395e+001 2.077696e+001 1.657401e+001 5.277850e+001 1.838369e+000 1.124142e+000 1.276955e+000 1.244710e+000 1.480984e+000 1.730429e+000 1.742683e+000 1.794838e+000 1.914643e+000 1.906067e+000 1.815343e+000 1.572971e+000 1.367425e+000 3.713723e-001 2.634780e-001 2.884842e-001 3.042440e-001 3.407198e-001 3.812579e-001 4.103525e-001 4.360242e-001 4.313161e-001 3.837050e-001 3.980713e-001 3.406060e-001 3.151850e-001
<GCONST> 1.044667e+002
<MIXTURE> 2 4.786337e-001
<MEAN> 39
 -1.760523e+001 -3.377313e+000 -1.911508e+000 1.081109e-001 -2.175975e+000 -3.714062e+000 -1.629973e+000 3.575303e-001 2.855982e+000 9.515266e-001 -3.406258e-001 1.819308e-001 6.564095e+001 -8.912295e-001 -5.560163e-001 -4.605379e-001 -1.937383e-001 -1.291449e-001 -1.829489e-001 -1.362315e-001 -5.561993e-003 6.818253e-002 4.175327e-002 6.874741e-002 1.094174e-001 3.310217e-002 7.887129e-001 1.422020e-001 1.979048e-001 -2.868081e-001 -2.053085e-001 4.838654e-003 -1.348777e-001 -1.717728e-001 -3.346931e-001 -7.517736e-002 -1.128528e-001 -1.663509e-001 3.881747e-002
<VARIANCE> 39
 1.855410e+001 2.562398e+001 2.729321e+001 2.705477e+001 3.257486e+001 3.273372e+001 4.275020e+001 3.119296e+001 3.090704e+001 2.480999e+001 2.884982e+001 2.102518e+001 6.343828e+001 2.871189e+000 1.324595e+000 1.614106e+000 1.424824e+000 1.771245e+000 2.000768e+000 1.981912e+000 2.124273e+000 2.137420e+000 1.961453e+000 1.849051e+000 1.741322e+000 1.184569e+000 3.836747e-001 3.321919e-001 3.333549e-001 4.206131e-001 4.871700e-001 5.083348e-001 5.374651e-001 5.495649e-001 5.786573e-001 4.604173e-001 4.872652e-001 4.091041e-001 2.738911e-001
<GCONST> 1.125866e+002
<STATE> 4
<NUMMIXES> 2
<MIXTURE> 1 5.531225e-001
<MEAN> 39
 -1.607888e+001 -1.876716e+000 -9.533615e-002 8.804497e-001 1.014084e+000 -1.258286e+000 1.356154e+000 2.779761e+000 4.588122e+000 3.418920e+000 2.795407e+000 2.058323e+000 6.339374e+001 5.657158e-001 7.442937e-001 5.272070e-001 4.099578e-002 1.923071e-001 3.258913e-001 3.342623e-001 9.012055e-002 -9.345286e-002 1.025851e-001 2.767893e-001 3.708177e-002 -1.292673e+000 2.512537e-001 1.876747e-001 9.059821e-002 -8.509994e-003 -8.451110e-002 5.957826e-002 1.822788e-002 -1.083450e-001 -1.209652e-001 -1.100639e-001 -6.603020e-002 -8.308717e-002 -2.632820e-001
<VARIANCE> 39
 3.734615e+001 3.010261e+001 4.025119e+001 3.811058e+001 3.937561e+001 3.548645e+001 3.872483e+001 3.148171e+001 3.071269e+001 2.894717e+001 2.622535e+001 2.218239e+001 7.962000e+001 4.836111e+000 2.515055e+000 2.567445e+000 2.526926e+000 3.216171e+000 2.723420e+000 2.675205e+000 2.596540e+000 2.729275e+000 2.328278e+000 2.045223e+000 1.912610e+000 7.464867e+000 6.637930e-001 4.747560e-001 4.866260e-001 5.418584e-001 5.862823e-001 5.587572e-001 5.961695e-001 6.142873e-001 6.140735e-001 5.001584e-001 4.445660e-001 4.254807e-001 8.694675e-001
<GCONST> 1.240254e+002
<MIXTURE> 2 4.468750e-001
<MEAN> 39
 -1.458990e+001 -2.961753e+000 -1.378590e+000 -3.519619e-001 -8.638878e-001 -2.446108e+000 -3.505696e-002 1.136500e+000 2.768520e+000 8.412212e-001 2.546035e-001 5.171682e-001 6.284229e+001 3.132365e+000 2.423260e-001 3.350527e-001 -1.647938e+000 -1.559996e+000 -8.080462e-001 -1.303323e+000 -1.132352e+000 -1.726906e+000 -6.916432e-001 -8.958818e-001 -1.049015e+000 7.606711e-001 6.111270e-001 -3.321236e-002 7.594902e-002 -6.099911e-001 -6.528956e-001 -1.658310e-001 -5.078150e-001 -2.780785e-001 -4.427046e-001 -1.212669e-002 -1.208991e-001 -2.442036e-001 4.445807e-001
<VARIANCE> 39
 3.968993e+001 2.690898e+001 4.348585e+001 3.808566e+001 4.288400e+001 4.034289e+001 5.419893e+001 3.921727e+001 3.665868e+001 3.214845e+001 3.405585e+001 2.741912e+001 8.547187e+001 6.776417e+000 3.726214e+000 4.051825e+000 5.060274e+000 4.245310e+000 5.089384e+000 4.629127e+000 4.562218e+000 4.469758e+000 3.168756e+000 4.320866e+000 2.738659e+000 4.228045e+000 7.012390e-001 5.665073e-001 5.079695e-001 7.277605e-001 6.671497e-001 7.132814e-001 8.031327e-001 7.751902e-001 7.650504e-001 5.755996e-001 7.667084e-001 5.112365e-001 5.687518e-001
<GCONST> 1.330202e+002
<TRANSP> 5
 0.000000e+000 1.000000e+000 0.000000e+000 0.000000e+000 0.000000e+000
 0.000000e+000 5.194880e-001 4.805119e-001 0.000000e+000 0.000000e+000
 0.000000e+000 0.000000e+000 7.562445e-001 2.437555e-001 0.000000e+000
 0.000000e+000 0.000000e+000 0.000000e+000 6.152702e-001 3.847298e-001
 0.000000e+000 0.000000e+000 0.000000e+000 0.000000e+000 0.000000e+000
<ENDHMM>
~h "g"
<BEGINHMM>
<NUMSTATES> 5
<STATE> 2
<NUMMIXES> 2
<MIXTURE> 1 5.221838e-001
<MEAN> 39
 -2.660110e+000 3.749053e+000 6.690034e+000 2.082295e+000 -6.496431e+000 -5.955999e+000 -2.513596e+000 -1.118925e+000 -4.669780e+000 6.456667e-001 5.593228e-001 -4.132316e+000 5.912508e+001 1.091846e-001 1.618556e+000 -1.554392e-001 1.349780e+000 1.240850e+000 3.145567e-001 7.780372e-001 -3.304734e-001 5.777214e-001 -2.762000e-001 -9.775054e-002 -3.045804e-002 -2.023035e+000 -2.752853e-001 -5.890270e-001 -2.205857e-001 -3.688588e-001 1.935631e-002 5.543681e-002 -2.552933e-001 1.234655e-001 1.528890e-001 -4.141682e-002 -1.217535e-001 1.613290e-001 7.237567e-001
<VARIANCE> 39
 3.631732e+001 3.867070e+001 5.623295e+001 4.374158e+001 7.639768e+001 6.774756e+001 6.444104e+001 6.269764e+001 6.691179e+001 4.322935e+001 4.825283e+001 3.749912e+001 6.081556e+001 1.783476e+000 2.431503e+000 2.619238e+000 3.045735e+000 3.914237e+000 3.144467e+000 3.296804e+000 3.251296e+000 4.602851e+000 3.414191e+000 2.956607e+000 2.576669e+000 3.228951e+000 3.650943e-001 6.312528e-001 4.821545e-001 5.487046e-001 6.605332e-001 7.029790e-001 6.845924e-001 6.456182e-001 9.561390e-001 6.441544e-001 5.290638e-001 5.102603e-001 6.156527e-001
<GCONST> 1.308898e+002
<MIXTURE> 2 4.778169e-001
<MEAN> 39
 -4.810431e+000 2.993019e+000 2.944088e+000 -4.748608e-001 -8.551476e+000 -4.913850e+000 -4.903799e+000 -2.902076e+000 -5.425639e+000 -1.740282e+000 -2.270380e+000 -4.641777e+000 5.518294e+001 1.277302e-001 1.015542e+000 -7.096272e-002 1.045784e+000 6.441032e-001 -3.421628e-002 3.345139e-001 -2.182788e-001 2.756783e-001 -5.954632e-001 -1.721642e-001 -3.115496e-001 -1.312267e+000 -3.038193e-001 -5.269629e-001 -1.317575e-001 -2.678202e-001 3.744891e-002 -5.311581e-002 -2.259834e-001 1.104177e-001 4.249481e-002 1.460635e-001 -3.279061e-002 1.853719e-001 7.522643e-001
<VARIANCE> 39
 8.618048e+001 3.589440e+001 7.326240e+001 4.966778e+001 7.224286e+001 9.294887e+001 5.114200e+001 6.788687e+001 5.426368e+001 4.218353e+001 6.920723e+001 3.936904e+001 1.569080e+002 1.297974e+000 2.119783e+000 2.010552e+000 2.783046e+000 3.174308e+000 2.928911e+000 3.341598e+000 3.260081e+000 3.295120e+000 3.413422e+000 2.664342e+000 2.568785e+000 2.425843e+000 4.132847e-001 5.444807e-001 4.476409e-001 4.937040e-001 6.968141e-001 6.641421e-001 7.003694e-001 6.861722e-001 6.795298e-001 6.358683e-001 5.567060e-001 5.431767e-001 5.950683e-001
<GCONST> 1.311029e+002
<STATE> 3
<NUMMIXES> 2
<MIXTURE> 1 5.140741e-001
<MEAN> 39
 -2.199628e+000 6.869766e+000 6.792274e+000 4.115532e+000 -2.999256e+000 -5.048042e+000 -2.639038e+000 -2.574973e+000 -3.464997e+000 -2.910170e-001 -2.214362e-001 -3.993844e+000 5.698235e+001 -1.120757e+000 -1.491951e+000 -9.611478e-001 -9.700245e-002 1.199836e+000 -7.082890e-002 -1.248683e-001 4.090867e-001 1.800400e-001 2.522780e-001 -2.787294e-001 7.134168e-001 1.414642e+000 -1.863472e-001 -8.737595e-001 -3.163337e-002 -7.348680e-001 -6.834144e-001 -2.499564e-001 -4.200467e-001 4.276837e-002 -2.440892e-001 1.394457e-001 8.915855e-002 7.038730e-002 1.344388e+000
<VARIANCE> 39
 2.321004e+001 3.028007e+001 4.064476e+001 3.361723e+001 5.063293e+001 4.391776e+001 4.158382e+001 3.856729e+001 3.966581e+001 3.134372e+001 3.413108e+001 2.432075e+001 5.083671e+001 2.406052e+000 5.181921e+000 4.395945e+000 4.526512e+000 5.455123e+000 5.465232e+000 4.432089e+000 4.101612e+000 4.760437e+000 3.983802e+000 3.384089e+000 2.935550e+000 4.294550e+000 4.611951e-001 7.211840e-001 6.783710e-001 6.469206e-001 8.473539e-001 7.324434e-001 6.692876e-001 6.789442e-001 8.783035e-001 7.193276e-001 6.279266e-001 5.248863e-001 5.221966e-001
<GCONST> 1.314108e+002
<MIXTURE> 2 4.859254e-001
<MEAN> 39
 -2.211326e+000 5.516939e+000 5.056997e+000 3.750646e-001 -6.208572e+000 -7.020567e+000 -4.137373e+000 -4.630501e+000 -5.453268e+000 -1.978251e+000 -4.646421e+000 -5.838937e+000 5.763056e+001 -1.258214e+000 -1.457888e+000 -6.534316e-001 3.358483e-001 7.618064e-001 -5.739208e-001 -3.094277e-001 4.464525e-002 -1.225075e-001 6.413524e-002 -1.562779e-001 5.321022e-001 1.978674e+000 -1.930997e-001 -7.544304e-001 4.729043e-002 -7.134871e-001 -6.361448e-001 -2.346733e-001 -4.445317e-001 -5.602718e-003 -2.757232e-001 3.580293e-001 1.791742e-001 2.554360e-001 1.251989e+000
<VARIANCE> 39
 2.903518e+001 3.226172e+001 4.491125e+001 3.998557e+001 6.938010e+001 5.431304e+001 4.807697e+001 5.217522e+001 4.738037e+001 4.444658e+001 6.301196e+001 3.594088e+001 5.306033e+001 3.736601e+000 5.088428e+000 4.759462e+000 5.299870e+000 8.410422e+000 6.068002e+000 5.820503e+000 5.705201e+000 5.078753e+000 5.039543e+000 4.859312e+000 4.585045e+000 4.121739e+000 5.636289e-001 6.495121e-001 6.181271e-001 6.983694e-001 1.163745e+000 8.187089e-001 8.873308e-001 8.237728e-001 8.717532e-001 9.172603e-001 8.543792e-001 7.286466e-001 5.575151e-001
<GCONST> 1.393057e+002
<STATE> 4
<NUMMIXES> 2
<MIXTURE> 1 4.980447e-001
<MEAN> 39
 -4.651402e+000 -1.383640e+000 7.031823e+000 9.703436e-002 -9.052485e+000 -1.040439e+001 -6.488134e+000 -1.637033e+000 -6.491043e+000 -4.131994e-001 2.218657e-001 -2.588384e+000 6.810612e+001 5.675310e-001 2.202609e-001 5.298970e-001 -2.478852e-001 -9.854363e-001 -3.064356e-001 -7.911047e-001 3.696031e-003 6.115195e-001 -4.747366e-001 3.679290e-001 -1.180269e-001 6.294054e-001 1.143736e-001 5.186034e-001 2.738229e-002 1.110902e-001 3.307235e-001 5.097397e-001 3.533889e-001 -6.234126e-002 3.787675e-001 -9.901673e-002 -1.505654e-001 -1.873997e-001 -7.866300e-001
<VARIANCE> 39
 2.808198e+001 4.551834e+001 8.663995e+001 6.501577e+001 1.093889e+002 6.916132e+001 5.934995e+001 5.708923e+001 5.076845e+001 5.169103e+001 5.392464e+001 3.226606e+001 6.154990e+001 3.307737e+000 5.339819e+000 4.348135e+000 4.589909e+000 8.765675e+000 5.202731e+000 4.295484e+000 4.599433e+000 5.291412e+000 4.286271e+000 3.803864e+000 2.852934e+000 6.734585e+000 6.082036e-001 8.560849e-001 9.607505e-001 8.834526e-001 2.093204e+000 1.109847e+000 1.015801e+000 9.386165e-001 9.684111e-001 9.788601e-001 8.781815e-001 6.149340e-001 1.110990e+000
<GCONST> 1.434763e+002
<MIXTURE> 2 5.019527e-001
<MEAN> 39
 -7.883447e+000 -3.057913e+000 2.396606e+000 -1.043316e+000 -3.792452e+000 -8.012704e+000 -4.091628e+000 -3.547458e+000 -5.006756e+000 8.625731e-001 -3.365433e+000 -2.213924e+000 6.740686e+001 -1.291983e-001 -1.205134e+000 2.946984e-001 -1.604131e+000 -2.052121e+000 -1.129457e+000 -1.342913e+000 -3.014070e-001 -7.550578e-001 5.563368e-001 4.988722e-002 2.650924e-001 3.010172e+000 7.516352e-001 7.056855e-001 5.023099e-001 -3.086580e-001 -8.161485e-001 6.318180e-002 -2.218051e-001 -7.812784e-004 -5.170555e-002 -2.154130e-001 1.113480e-001 -3.095581e-001 -5.082831e-001
<VARIANCE> 39
 3.360045e+001 4.596183e+001 7.767215e+001 5.689646e+001 9.941862e+001 7.307102e+001 6.536556e+001 6.773483e+001 5.342868e+001 4.738784e+001 5.419975e+001 3.390826e+001 7.224279e+001 3.827595e+000 4.936742e+000 5.002255e+000 5.412649e+000 8.734109e+000 5.670547e+000 5.574524e+000 5.615185e+000 5.672532e+000 5.824097e+000 5.591119e+000 3.744382e+000 4.095340e+000 5.461434e-001 9.426895e-001 7.822054e-001 1.037273e+000 1.836621e+000 1.159559e+000 1.093691e+000 1.036680e+000 1.031214e+000 9.875021e-001 1.017396e+000 6.930104e-001 8.406204e-001
<GCONST> 1.453691e+002
<TRANSP> 5
 0.000000e+000 1.000000e+000 0.000000e+000 0.000000e+000 0.000000e+000
 0.000000e+000 5.863112e-001 4.136888e-001 0.000000e+000 0.000000e+000
 0.000000e+000 0.000000e+000 5.033867e-001 4.966133e-001 0.000000e+000
 0.000000e+000 0.000000e+000 0.000000e+000 6.264971e-001 3.735029e-001
 0.000000e+000 0.000000e+000 0.000000e+000 0.000000e+000 0.000000e+000
<ENDHMM>
~h "h"
<BEGINHMM>
<NUMSTATES> 5
<STATE> 2
<NUMMIXES> 2
<MIXTURE> 1 5.079790e-001
<MEAN> 39
 -2.436971e+000 -2.007889e+000 1.117568e+000 -4.349510e+000 2.603253e-002 -7.657205e-001 -2.748240e+000 1.557193e+000 -6.314936e-001 1.265692e+000 -4.429255e+000 -3.826758e+000 6.950324e+001 -3.065132e-001 4.125770e-001 -4.937429e-001 4.421095e-001 2.098434e+000 1.088017e+000 9.547729e-001 -3.388349e-001 4.385612e-001 4.399521e-001 -6.663355e-002 6.786918e-003 -6.441984e-001 8.444246e-002 -7.337529e-002 8.983690e-002 -3.378366e-001 -5.656976e-001 8.954490e-002 -1.921895e-001 -3.469379e-001 -3.125726e-001 -1.247786e-001 3.200440e-001 -1.293610e-002 1.217137e-001
<VARIANCE> 39
 2.412151e+001 4.196164e+001 4.838785e+001 7.962070e+001 6.323626e+001 7.191627e+001 7.019862e+001 5.901525e+001 5.858712e+001 5.625569e+001 6.144873e+001 4.057211e+001 5.892849e+001 1.288947e+000 2.083468e+000 3.214548e+000 2.705972e+000 3.941870e+000 3.875094e+000 3.859915e+000 4.107820e+000 4.005205e+000 3.769261e+000 3.446582e+000 2.730804e+000 9.064894e-001 1.464984e-001 2.663985e-001 2.756599e-001 4.099819e-001 5.567330e-001 5.230971e-001 6.596192e-001 6.274611e-001 7.140985e-001 5.838152e-001 5.441235e-001 4.803205e-001 1.152025e-001
<GCONST> 1.251847e+002
<MIXTURE> 2 4.920200e-001
<MEAN> 39
 -3.633942e+000 -2.893207e+000 5.011376e-001 -5.399395e+000 -1.041577e+000 -5.083907e+000 -5.960154e+000 -2.844665e+000 -4.556043e+000 -4.855174e+000 -9.626899e+000 -3.273955e+000 7.103353e+001 8.415961e-002 7.479329e-002 -8.320559e-001 3.610744e-001 2.198601e+000 1.096809e+000 -1.992590e-001 -6.775729e-001 6.112670e-001 2.494277e-001 -3.133648e-001 -6.073087e-001 -3.821394e-001 1.080964e-001 4.151821e-002 -1.799898e-002 -6.577629e-001 -5.733871e-001 2.606645e-001 3.035330e-002 -2.788873e-001 -2.433140e-001 3.660373e-001 3.857495e-001 -9.816354e-002 8.560736e-002
<VARIANCE> 39
 1.941655e+001 3.445692e+001 4.558583e+001 6.929988e+001 6.688300e+001 6.483630e+001 8.474294e+001 6.750253e+001 5.825989e+001 6.824680e+001 6.729912e+001 4.380478e+001 3.983495e+001 1.253382e+000 1.555857e+000 3.950064e+000 3.620126e+000 4.501470e+000 3.767142e+000 4.557306e+000 4.108807e+000 4.115784e+000 4.084350e+000 3.454077e+000 2.583737e+000 6.263540e-001 1.425525e-001 2.262431e-001 3.066359e-001 6.523306e-001 6.846129e-001 6.680493e-001 7.669314e-001 8.800593e-001 7.504045e-001 7.359831e-001 6.173362e-001 5.149347e-001 8.375562e-002
<GCONST> 1.264225e+002
<STATE> 3
<NUMMIXES> 2
<MIXTURE> 1 5.235460e-001
<MEAN> 39
 -2.909252e+000 -9.632779e-001 -5.896517e-001 -4.683456e+000 3.490565e+000 3.715424e+000 -5.824500e-001 -7.520114e-001 -7.155165e-001 2.339762e+000 -2.633744e+000 -3.706505e+000 6.760083e+001 2.692212e-001 4.106480e-001 -1.620749e-001 -4.932874e-001 -1.182283e-001 5.201631e-001 2.862372e-001 -5.924076e-001 -5.238927e-001 -3.311585e-003 4.856692e-001 2.478690e-001 -2.001709e-001 2.759812e-001 -6.477327e-002 6.168211e-002 -3.373384e-001 -7.979789e-001 -3.106447e-001 -4.102423e-001 -4.435797e-002 -2.272165e-001 -1.648082e-001 4.970140e-002 6.758882e-003 2.332948e-001
<VARIANCE> 39
 2.480273e+001 3.667978e+001 3.812331e+001 7.359703e+001 6.092635e+001 6.336780e+001 5.816646e+001 5.355057e+001 4.619026e+001 4.863927e+001 5.481861e+001 3.531223e+001 6.360163e+001 1.039290e+000 1.299524e+000 1.667025e+000 2.474244e+000 2.907083e+000 3.140721e+000 2.767857e+000 2.836585e+000 3.024903e+000 2.575293e+000 2.602646e+000 2.300529e+000 6.249489e-001 1.609402e-001 2.669451e-001 3.049610e-001 3.468121e-001 4.949580e-001 4.509967e-001 5.277758e-001 5.190481e-001 5.002025e-001 5.426852e-001 4.653445e-001 4.381190e-001 1.072189e-001
<GCONST> 1.182172e+002
<MIXTURE> 2 4.764512e-001
<MEAN> 39
 -3.557338e+000 -2.065769e+000 -1.269964e+000 -6.936840e+000 3.898396e+000 4.715431e-001 -3.514033e+000 -5.830790e+000 -4.960527e+000 -3.621166e+000 -7.274403e+000 -5.386993e+000 6.970530e+001 6.004512e-001 3.928326e-001 -4.823434e-001 -1.009284e+000 -5.530702e-001 2.687649e-001 -2.965422e-001 -7.431825e-001 -5.423263e-001 2.065670e-001 3.448241e-001 -1.309155e-001 -8.909520e-002 2.625885e-001 -3.260231e-002 -1.235170e-001 -5.447432e-001 -8.843688e-001 -3.820615e-001 -2.492673e-001 1.522808e-001 -8.867235e-002 7.411257e-002 1.030425e-001 1.527615e-001 2.111347e-001
<VARIANCE> 39
 1.949773e+001 3.324351e+001 4.116544e+001 5.269754e+001 7.067264e+001 6.394613e+001 8.109488e+001 6.277332e+001 5.435758e+001 6.863963e+001 6.606959e+001 4.230153e+001 4.040302e+001 8.964897e-001 1.143872e+000 1.974980e+000 3.010003e+000 3.258867e+000 3.494905e+000 3.178448e+000 2.787928e+000 2.986628e+000 3.045138e+000 2.902803e+000 2.176962e+000 4.781447e-001 1.268871e-001 2.012742e-001 3.167019e-001 3.926600e-001 5.192141e-001 5.331580e-001 6.544391e-001 5.605445e-001 5.830514e-001 5.886014e-001 5.125266e-001 4.391371e-001 8.884019e-002
<GCONST> 1.193580e+002
<STATE> 4
<NUMMIXES> 2
<MIXTURE> 1 5.099536e-001
<MEAN> 39
 1.067016e+000 7.031053e-001 -2.995802e+000 -1.145457e+001 -2.798728e+000 2.702345e+000 -2.280511e+000 -3.499519e+000 -4.336655e+000 1.798415e+000 -1.032074e+000 -2.565600e+000 6.955438e+001 4.475224e-001 -8.854246e-002 -8.823083e-002 -8.092454e-001 -1.182690e+000 -4.088713e-002 -4.985927e-001 -3.077596e-001 -2.039117e-001 -6.643260e-002 4.520723e-001 2.059291e-001 2.402368e-001 -7.842327e-002 -1.380032e-001 1.647874e-001 2.294838e-001 -7.408440e-002 -1.167369e-001 -2.204186e-001 2.046498e-002 1.532633e-001 -4.090241e-002 6.654908e-003 -9.684823e-002 6.045222e-003
<VARIANCE> 39
 1.961223e+001 3.103005e+001 4.297309e+001 1.079445e+002 5.740939e+001 6.498067e+001 5.821058e+001 6.282593e+001 4.393442e+001 4.794090e+001 6.592082e+001 3.749374e+001 5.666222e+001 7.168713e-001 1.266072e+000 1.339115e+000 2.468678e+000 2.809001e+000 2.281097e+000 2.633952e+000 2.356582e+000 2.377696e+000 2.421386e+000 2.090071e+000 1.895191e+000 6.724978e-001 8.821036e-002 1.925593e-001 2.186705e-001 3.209168e-001 3.995214e-001 3.666492e-001 3.761262e-001 3.881386e-001 3.690128e-001 3.969407e-001 3.694529e-001 3.316924e-001 1.176724e-001
<GCONST> 1.132366e+002
<MIXTURE> 2 4.900367e-001
<MEAN> 39
 -2.446562e-001 -1.775948e-001 -4.081763e+000 -1.250178e+001 -1.968997e+000 2.473413e-002 -4.919161e+000 -6.058068e+000 -6.161791e+000 -1.129231e+000 -3.895692e+000 -4.866561e+000 6.914141e+001 6.559383e-001 -1.822978e-001 -5.995067e-001 -1.348752e+000 -1.522125e+000 -2.775913e-001 -6.329010e-001 -1.857041e-001 -1.929447e-001 2.639173e-001 3.564444e-001 1.842072e-002 4.498909e-001 -9.332637e-002 -2.308346e-001 1.505065e-001 1.550870e-001 -1.627258e-001 -1.010232e-001 -1.095666e-001 1.965543e-001 2.145535e-001 3.482603e-002 1.058736e-002 1.374491e-002 8.735657e-002
<VARIANCE> 39
 2.137857e+001 3.529383e+001 4.727564e+001 8.176477e+001 5.794133e+001 7.178272e+001 7.661603e+001 6.784850e+001 5.024359e+001 6.233484e+001 8.255927e+001 3.800583e+001 5.695286e+001 7.801903e-001 1.472824e+000 1.905241e+000 3.241041e+000 3.307862e+000 3.039274e+000 3.117103e+000 2.938047e+000 3.029014e+000 3.115162e+000 2.603426e+000 2.161056e+000 7.052540e-001 9.413734e-002 2.022884e-001 2.761170e-001 3.799219e-001 4.360047e-001 4.307148e-001 4.513888e-001 4.773182e-001 4.439155e-001 4.842793e-001 4.427415e-001 3.575161e-001 1.089903e-001
<GCONST> 1.186797e+002
<TRANSP> 5
 0.000000e+000 1.000000e+000 0.000000e+000 0.000000e+000 0.000000e+000
 0.000000e+000 4.691795e-001 5.308205e-001 0.000000e+000 0.000000e+000
 0.000000e+000 0.000000e+000 5.774825e-001 4.225175e-001 0.000000e+000
 0.000000e+000 0.000000e+000 0.000000e+000 6.206618e-001 3.793382e-001
 0.000000e+000 0.000000e+000 0.000000e+000 0.000000e+000 0.000000e+000
<ENDHMM>
~h "i"
<BEGINHMM>
<NUMSTATES> 5
<STATE> 2
<NUMMIXES> 2
<MIXTURE> 1 5.322189e-001
<MEAN> 39
 -3.704170e+000 -2.498369e+000 1.158776e+001 -3.009322e+000 -1.567975e+001 -9.743164e+000 -9.343164e+000 -1.579638e+000 -5.760741e+000 -2.272835e+000 1.520338e-001 -1.979514e+000 7.158217e+001 8.189858e-001 -5.893595e-001 1.432706e+000 -4.090293e-001 -2.326582e+000 -5.156887e-001 -3.708881e-001 5.017422e-001 -1.337099e+000 -1.346152e-002 5.705697e-001 1.127578e-001 7.072846e-001 -4.382600e-001 4.265359e-001 -5.737277e-001 1.990717e-001 9.293262e-001 4.676757e-001 5.387419e-001 -1.921792e-001 3.381945e-001 2.973636e-001 -2.703047e-002 -3.836839e-002 -5.829158e-001
<VARIANCE> 39
 2.185167e+001 4.578142e+001 6.071709e+001 7.273498e+001 5.980541e+001 6.229620e+001 6.811607e+001 5.780930e+001 5.590561e+001 4.546347e+001 5.019193e+001 3.083684e+001 5.179346e+001 3.512640e+000 2.682136e+000 3.623812e+000 3.424201e+000 4.541214e+000 4.197294e+000 5.703136e+000 4.367290e+000 4.162872e+000 3.852990e+000 3.247334e+000 2.694636e+000 1.573311e+000 6.091473e-001 5.775437e-001 6.665500e-001 6.550627e-001 1.063851e+000 8.263667e-001 9.032797e-001 1.065733e+000 9.520997e-001 6.958584e-001 6.308190e-001 5.352668e-001 4.246523e-001
<GCONST> 1.345395e+002
<MIXTURE> 2 4.677436e-001
<MEAN> 39
 -5.993220e+000 -1.560499e+000 1.039725e+001 -7.514453e+000 -1.591739e+001 -1.161152e+001 -8.017808e+000 -4.543843e+000 -7.859333e+000 -1.222686e+000 -2.811824e+000 -1.849005e+000 7.138509e+001 1.707837e+000 -8.168983e-001 1.772724e+000 -1.529832e+000 -3.090390e+000 -1.106123e+000 -1.505150e+000 -3.323235e-001 -2.235466e+000 4.692330e-001 -4.606262e-001 -3.332712e-001 1.443555e+000 -4.103816e-001 1.527062e-001 -5.206120e-001 2.914854e-001 7.765386e-001 5.640471e-001 3.915817e-001 2.162022e-001 5.028666e-001 1.592645e-001 1.182165e-001 1.987198e-003 -5.115386e-001
<VARIANCE> 39
 2.606528e+001 5.208056e+001 5.988165e+001 7.452973e+001 5.620701e+001 5.736288e+001 6.285992e+001 6.493433e+001 5.394949e+001 4.828012e+001 4.541348e+001 3.027025e+001 5.395163e+001 5.223202e+000 3.393467e+000 4.569883e+000 5.522414e+000 5.302361e+000 6.225558e+000 7.377991e+000 6.227215e+000 5.444650e+000 4.769923e+000 5.792885e+000 3.427288e+000 2.802557e+000 6.438057e-001 6.875684e-001 6.457708e-001 8.023576e-001 9.865842e-001 8.197070e-001 8.964143e-001 1.134228e+000 9.023360e-001 7.177604e-001 7.164857e-001 5.299143e-001 6.352185e-001
<GCONST> 1.399446e+002
<STATE> 3
<NUMMIXES> 2
<MIXTURE> 1 4.762477e-001
<MEAN> 39
 -3.947694e+000 -1.779959e+000 1.385126e+001 -5.444257e+000 -1.823881e+001 -9.753702e+000 -8.158126e+000 -2.894907e+000 -9.580160e+000 -2.879376e-001 -6.879516e-001 -2.172399e+000 7.237358e+001 8.549980e-003 8.870327e-001 -3.178401e-001 7.791371e-001 8.399269e-001 -7.707326e-003 7.471866e-001 -9.276637e-002 3.484680e-001 7.684238e-002 3.614644e-002 8.559895e-002 -9.800193e-001 -4.772440e-001 5.173360e-001 -7.495975e-001 5.609773e-001 1.323646e+000 3.215552e-001 5.352588e-001 -3.306733e-002 8.358846e-001 -4.889532e-002 1.886910e-002 4.953928e-002 -7.175486e-001
<VARIANCE> 39
 1.584769e+001 3.976248e+001 5.089827e+001 8.063383e+001 4.821180e+001 6.286631e+001 5.763925e+001 6.902724e+001 4.943658e+001 4.694654e+001 6.079154e+001 3.143924e+001 3.734248e+001 1.421263e+000 2.334001e+000 2.449928e+000 3.011595e+000 3.683063e+000 3.091844e+000 3.408219e+000 3.271646e+000 3.302586e+000 2.882833e+000 2.425385e+000 1.893396e+000 1.757360e+000 5.386479e-001 5.059542e-001 5.216203e-001 6.926246e-001 7.968305e-001 8.811215e-001 8.559474e-001 9.841417e-001 8.157368e-001 7.365510e-001 8.039438e-001 5.346159e-001 3.455790e-001
<GCONST> 1.287972e+002
<MIXTURE> 2 5.236765e-001
<MEAN> 39
 -4.677581e+000 -3.984477e+000 1.236306e+001 -9.939312e+000 -1.940100e+001 -1.002079e+001 -8.942144e+000 -2.434766e+000 -1.008641e+001 4.711650e-001 -2.964779e+000 -2.298209e+000 7.292210e+001 1.114562e-001 3.840334e-001 -2.795759e-002 1.920103e-001 6.092880e-002 1.751898e-001 2.208588e-001 -1.890602e-001 -1.072553e-001 6.942321e-002 -1.890036e-001 -1.652016e-001 -4.791914e-001 -1.306185e-002 3.921345e-001 -4.338403e-001 5.689408e-001 7.994626e-001 7.472468e-002 1.394846e-001 -1.884563e-001 4.888839e-001 -2.078976e-001 -3.244011e-002 -7.037178e-002 -5.373359e-001
<VARIANCE> 39
 1.883034e+001 4.762333e+001 5.244675e+001 7.645413e+001 4.788203e+001 5.915346e+001 6.751061e+001 7.663270e+001 5.687197e+001 5.309526e+001 6.491258e+001 3.211818e+001 3.918057e+001 7.992904e-001 1.577231e+000 2.035958e+000 2.526804e+000 2.685830e+000 2.466849e+000 2.503337e+000 2.789636e+000 2.721165e+000 2.634640e+000 2.091153e+000 1.644900e+000 1.033411e+000 2.287475e-001 3.215189e-001 3.557673e-001 5.252190e-001 6.170460e-001 5.920372e-001 6.574930e-001 6.928983e-001 6.124732e-001 5.802660e-001 5.352929e-001 3.931576e-001 2.225402e-001
<GCONST> 1.213622e+002
<STATE> 4
<NUMMIXES> 2
<MIXTURE> 1 5.112311e-001
<MEAN> 39
 -4.931762e+000 3.267793e+000 1.109729e+001 -1.261409e+000 -1.172012e+001 -8.928515e+000 -3.535066e+000 -3.975540e+000 -5.985893e+000 -3.805003e-001 -9.163655e-001 -1.675990e+000 6.510123e+001 -9.108406e-001 1.312225e+000 -1.429983e+000 1.680865e+000 2.916389e+000 7.736276e-001 1.468261e+000 2.749839e-001 1.833679e+000 9.766933e-002 5.893857e-001 3.647629e-001 -2.422696e+000 -4.207444e-001 -2.504828e-001 -3.528437e-001 -1.545153e-001 2.517918e-001 3.388762e-001 5.819065e-002 1.947707e-001 2.698449e-001 1.488143e-001 1.784520e-001 1.383251e-001 -4.335845e-003
<VARIANCE> 39
 1.922694e+001 3.206979e+001 3.823285e+001 5.646495e+001 5.089793e+001 6.461947e+001 6.186873e+001 5.705437e+001 4.191827e+001 4.070705e+001 4.190737e+001 2.835036e+001 6.153466e+001 2.490368e+000 3.114524e+000 2.653678e+000 3.847489e+000 3.537078e+000 4.199196e+000 3.775137e+000 4.176252e+000 3.867852e+000 3.444266e+000 4.214056e+000 2.823294e+000 3.471416e+000 3.954672e-001 4.461739e-001 4.525852e-001 5.083942e-001 7.518849e-001 6.629755e-001 6.455250e-001 6.942606e-001 6.538408e-001 5.863509e-001 5.419577e-001 4.199993e-001 4.058699e-001
<GCONST> 1.287828e+002
<MIXTURE> 2 4.887152e-001
<MEAN> 39
 -4.204679e+000 -4.202459e-001 8.008970e+000 -3.046423e+000 -1.401261e+001 -9.284171e+000 -7.357237e+000 -2.486488e+000 -5.379928e+000 -1.848548e+000 -1.513974e+000 -2.362338e+000 6.537346e+001 -2.695067e-002 8.653476e-001 -1.461137e+000 8.387825e-001 1.739477e+000 4.168580e-001 3.974010e-001 -5.800499e-001 8.099318e-001 -8.526076e-002 -2.956921e-001 -1.907925e-001 -1.602379e+000 -1.831200e-001 -2.760858e-002 -4.274722e-002 -1.554118e-001 1.246750e-001 2.276905e-001 -1.390849e-002 -1.494687e-001 -5.921005e-002 1.017636e-001 2.393187e-002 -2.221784e-002 8.255136e-002
<VARIANCE> 39
 2.789787e+001 5.158392e+001 5.437693e+001 7.121187e+001 6.166028e+001 7.040268e+001 8.308735e+001 6.017112e+001 5.947935e+001 5.610661e+001 5.474167e+001 3.597715e+001 9.156421e+001 1.992138e+000 2.927363e+000 3.090885e+000 3.875523e+000 4.570030e+000 4.300807e+000 4.494981e+000 4.296728e+000 4.466096e+000 3.816943e+000 3.328328e+000 2.883873e+000 2.563312e+000 2.787003e-001 4.562774e-001 4.360721e-001 5.449837e-001 7.122605e-001 7.330812e-001 7.781377e-001 7.326090e-001 7.247388e-001 6.452304e-001 5.643470e-001 4.882275e-001 3.961075e-001
<GCONST> 1.328572e+002
<TRANSP> 5
 0.000000e+000 1.000000e+000 0.000000e+000 0.000000e+000 0.000000e+000
 0.000000e+000 3.912600e-001 6.087400e-001 0.000000e+000 0.000000e+000
 0.000000e+000 0.000000e+000 5.996528e-001 4.003471e-001 0.000000e+000
 0.000000e+000 0.000000e+000 0.000000e+000 5.309876e-001 4.690124e-001
 0.000000e+000 0.000000e+000 0.000000e+000 0.000000e+000 0.000000e+000
<ENDHMM>
~h "j"
<BEGINHMM>
<NUMSTATES> 5
<STATE> 2
<NUMMIXES> 2
<MIXTURE> 1 5.000000e-001
<MEAN> 39
 -6.244314e+000 7.803201e-001 2.643240e+000 -1.195041e+000 -4.180832e+000 3.062991e-001 -3.848104e+000 5.745257e-001 4.024421e-001 1.661255e+000 1.285535e+000 -1.335625e+000 6.235790e+001 3.575984e-001 3.341734e-001 3.376191e-001 3.631932e-001 3.927144e-001 3.707156e-001 3.977938e-001 3.682512e-001 3.665080e-001 3.260781e-001 3.160962e-001 3.067530e-001 3.469097e-001 1.333247e-001 1.360537e-001 1.335072e-001 1.513417e-001 1.620845e-001 1.555541e-001 1.686994e-001 1.589049e-001 1.572243e-001 1.412536e-001 1.385013e-001 1.336351e-001 1.343096e-001
<VARIANCE> 39
 9.382297e+001 6.561708e+001 8.554286e+001 8.949753e+001 8.775438e+001 7.374645e+001 8.604665e+001 5.887415e+001 5.858043e+001 4.554563e+001 4.403375e+001 4.203986e+001 1.737772e+002 3.147308e+000 2.809297e+000 2.839018e+000 3.337057e+000 3.796423e+000 3.465490e+000 3.963683e+000 3.428154e+000 3.401368e+000 2.648895e+000 2.526839e+000 2.389405e+000 2.903376e+000 4.450465e-001 4.624774e-001 4.444506e-001 5.723900e-001 6.585924e-001 6.063358e-001 7.105762e-001 6.283799e-001 6.195698e-001 5.015171e-001 4.802391e-001 4.423477e-001 4.518719e-001
<GCONST> 1.337118e+002
<MIXTURE> 2 5.000000e-001
<MEAN> 39
 -1.011880e+001 -2.459855e+000 -1.056336e+000 -4.979167e+000 -7.927924e+000 -3.128731e+000 -7.558558e+000 -2.494654e+000 -2.659072e+000 -1.038246e+000 -1.368782e+000 -3.929151e+000 5.708492e+001 -3.520277e-001 -3.362649e-001 -3.363564e-001 -3.675114e-001 -3.866620e-001 -3.739175e-001 -3.985662e-001 -3.723598e-001 -3.712039e-001 -3.249389e-001 -3.197452e-001 -3.115550e-001 -3.346622e-001 -1.335225e-001 -1.359691e-001 -1.331613e-001 -1.512841e-001 -1.625303e-001 -1.559162e-001 -1.684833e-001 -1.581767e-001 -1.576267e-001 -1.420179e-001 -1.386958e-001 -1.324018e-001 -1.345761e-001
<VARIANCE> 39
 9.382297e+001 6.561708e+001 8.554286e+001 8.949753e+001 8.775438e+001 7.374645e+001 8.604665e+001 5.887415e+001 5.858043e+001 4.554563e+001 4.403375e+001 4.203986e+001 1.737772e+002 3.147308e+000 2.809297e+000 2.839018e+000 3.337057e+000 3.796423e+000 3.465490e+000 3.963683e+000 3.428154e+000 3.401368e+000 2.648895e+000 2.526839e+000 2.389405e+000 2.903376e+000 4.450465e-001 4.624774e-001 4.444506e-001 5.723900e-001 6.585924e-001 6.063358e-001 7.105762e-001 6.283799e-001 6.195698e-001 5.015171e-001 4.802391e-001 4.423477e-001 4.518719e-001
<GCONST> 1.337118e+002
<STATE> 3
<NUMMIXES> 2
<MIXTURE> 1 5.000000e-001
<MEAN> 39
 -6.244314e+000 7.803201e-001 2.643240e+000 -1.195041e+000 -4.180832e+000 3.062991e-001 -3.848104e+000 5.745257e-001 4.024421e-001 1.661255e+000 1.285535e+000 -1.335625e+000 6.235790e+001 3.575984e-001 3.341734e-001 3.376191e-001 3.631932e-001 3.927144e-001 3.707156e-001 3.977938e-001 3.682512e-001 3.665080e-001 3.260781e-001 3.160962e-001 3.067530e-001 3.469097e-001 1.333247e-001 1.360537e-001 1.335072e-001 1.513417e-001 1.620845e-001 1.555541e-001 1.686994e-001 1.589049e-001 1.572243e-001 1.412536e-001 1.385013e-001 1.336351e-001 1.343096e-001
<VARIANCE> 39
 9.382297e+001 6.561708e+001 8.554286e+001 8.949753e+001 8.775438e+001 7.374645e+001 8.604665e+001 5.887415e+001 5.858043e+001 4.554563e+001 4.403375e+001 4.203986e+001 1.737772e+002 3.147308e+000 2.809297e+000 2.839018e+000 3.337057e+000 3.796423e+000 3.465490e+000 3.963683e+000 3.428154e+000 3.401368e+000 2.648895e+000 2.526839e+000 2.389405e+000 2.903376e+000 4.450465e-001 4.624774e-001 4.444506e-001 5.723900e-001 6.585924e-001 6.063358e-001 7.105762e-001 6.283799e-001 6.195698e-001 5.015171e-001 4.802391e-001 4.423477e-001 4.518719e-001
<GCONST> 1.337118e+002
<MIXTURE> 2 5.000000e-001
<MEAN> 39
 -1.011880e+001 -2.459855e+000 -1.056336e+000 -4.979167e+000 -7.927924e+000 -3.128731e+000 -7.558558e+000 -2.494654e+000 -2.659072e+000 -1.038246e+000 -1.368782e+000 -3.929151e+000 5.708492e+001 -3.520277e-001 -3.362649e-001 -3.363564e-001 -3.675114e-001 -3.866620e-001 -3.739175e-001 -3.985662e-001 -3.723598e-001 -3.712039e-001 -3.249389e-001 -3.197452e-001 -3.115550e-001 -3.346622e-001 -1.335225e-001 -1.359691e-001 -1.331613e-001 -1.512841e-001 -1.625303e-001 -1.559162e-001 -1.684833e-001 -1.581767e-001 -1.576267e-001 -1.420179e-001 -1.386958e-001 -1.324018e-001 -1.345761e-001
<VARIANCE> 39
 9.382297e+001 6.561708e+001 8.554286e+001 8.949753e+001 8.775438e+001 7.374645e+001 8.604665e+001 5.887415e+001 5.858043e+001 4.554563e+001 4.403375e+001 4.203986e+001 1.737772e+002 3.147308e+000 2.809297e+000 2.839018e+000 3.337057e+000 3.796423e+000 3.465490e+000 3.963683e+000 3.428154e+000 3.401368e+000 2.648895e+000 2.526839e+000 2.389405e+000 2.903376e+000 4.450465e-001 4.624774e-001 4.444506e-001 5.723900e-001 6.585924e-001 6.063358e-001 7.105762e-001 6.283799e-001 6.195698e-001 5.015171e-001 4.802391e-001 4.423477e-001 4.518719e-001
<GCONST> 1.337118e+002
<STATE> 4
<NUMMIXES> 2
<MIXTURE> 1 5.000000e-001
<MEAN> 39
 -6.244314e+000 7.803201e-001 2.643240e+000 -1.195041e+000 -4.180832e+000 3.062991e-001 -3.848104e+000 5.745257e-001 4.024421e-001 1.661255e+000 1.285535e+000 -1.335625e+000 6.235790e+001 3.575984e-001 3.341734e-001 3.376191e-001 3.631932e-001 3.927144e-001 3.707156e-001 3.977938e-001 3.682512e-001 3.665080e-001 3.260781e-001 3.160962e-001 3.067530e-001 3.469097e-001 1.333247e-001 1.360537e-001 1.335072e-001 1.513417e-001 1.620845e-001 1.555541e-001 1.686994e-001 1.589049e-001 1.572243e-001 1.412536e-001 1.385013e-001 1.336351e-001 1.343096e-001
<VARIANCE> 39
 9.382297e+001 6.561708e+001 8.554286e+001 8.949753e+001 8.775438e+001 7.374645e+001 8.604665e+001 5.887415e+001 5.858043e+001 4.554563e+001 4.403375e+001 4.203986e+001 1.737772e+002 3.147308e+000 2.809297e+000 2.839018e+000 3.337057e+000 3.796423e+000 3.465490e+000 3.963683e+000 3.428154e+000 3.401368e+000 2.648895e+000 2.526839e+000 2.389405e+000 2.903376e+000 4.450465e-001 4.624774e-001 4.444506e-001 5.723900e-001 6.585924e-001 6.063358e-001 7.105762e-001 6.283799e-001 6.195698e-001 5.015171e-001 4.802391e-001 4.423477e-001 4.518719e-001
<GCONST> 1.337118e+002
<MIXTURE> 2 5.000000e-001
<MEAN> 39
 -1.011880e+001 -2.459855e+000 -1.056336e+000 -4.979167e+000 -7.927924e+000 -3.128731e+000 -7.558558e+000 -2.494654e+000 -2.659072e+000 -1.038246e+000 -1.368782e+000 -3.929151e+000 5.708492e+001 -3.520277e-001 -3.362649e-001 -3.363564e-001 -3.675114e-001 -3.866620e-001 -3.739175e-001 -3.985662e-001 -3.723598e-001 -3.712039e-001 -3.249389e-001 -3.197452e-001 -3.115550e-001 -3.346622e-001 -1.335225e-001 -1.359691e-001 -1.331613e-001 -1.512841e-001 -1.625303e-001 -1.559162e-001 -1.684833e-001 -1.581767e-001 -1.576267e-001 -1.420179e-001 -1.386958e-001 -1.324018e-001 -1.345761e-001
<VARIANCE> 39
 9.382297e+001 6.561708e+001 8.554286e+001 8.949753e+001 8.775438e+001 7.374645e+001 8.604665e+001 5.887415e+001 5.858043e+001 4.554563e+001 4.403375e+001 4.203986e+001 1.737772e+002 3.147308e+000 2.809297e+000 2.839018e+000 3.337057e+000 3.796423e+000 3.465490e+000 3.963683e+000 3.428154e+000 3.401368e+000 2.648895e+000 2.526839e+000 2.389405e+000 2.903376e+000 4.450465e-001 4.624774e-001 4.444506e-001 5.723900e-001 6.585924e-001 6.063358e-001 7.105762e-001 6.283799e-001 6.195698e-001 5.015171e-001 4.802391e-001 4.423477e-001 4.518719e-001
<GCONST> 1.337118e+002
<TRANSP> 5
 0.000000e+000 1.000000e+000 0.000000e+000 0.000000e+000 0.000000e+000
 0.000000e+000 6.000000e-001 4.000000e-001 0.000000e+000 0.000000e+000
 0.000000e+000 0.000000e+000 6.000000e-001 4.000000e-001 0.000000e+000
 0.000000e+000 0.000000e+000 0.000000e+000 7.000000e-001 3.000000e-001
 0.000000e+000 0.000000e+000 0.000000e+000 0.000000e+000 0.000000e+000
<ENDHMM>
~h "k"
<BEGINHMM>
<NUMSTATES> 5
<STATE> 2
<NUMMIXES> 2
<MIXTURE> 1 5.133932e-001
<MEAN> 39
 -8.401680e+000 2.192930e+000 9.450321e-001 1.741326e+000 1.051154e+000 -2.761932e+000 1.907099e+000 2.594935e+000 3.481547e+000 3.446666e+000 2.971408e+000 8.463174e-001 5.525840e+001 -4.441938e-001 3.304748e-001 -2.752088e-001 6.971276e-001 7.930746e-001 9.613854e-001 1.020392e+000 7.043569e-001 1.113154e+000 5.300055e-001 9.210355e-001 8.088145e-001 -2.369334e+000 -5.089448e-002 -5.737121e-001 -2.562090e-001 -6.158795e-001 -3.888251e-001 -1.058252e-001 -2.541169e-001 -1.407135e-001 -4.192890e-001 -8.109859e-002 -2.786269e-001 -8.888791e-002 1.093179e+000
<VARIANCE> 39
 3.589538e+001 2.781170e+001 3.805048e+001 4.589156e+001 6.073933e+001 5.258377e+001 4.352250e+001 4.530831e+001 4.741386e+001 3.417732e+001 4.107972e+001 3.003021e+001 4.583422e+001 2.304860e+000 2.220734e+000 2.518199e+000 3.195192e+000 3.573258e+000 3.439154e+000 3.157026e+000 3.390875e+000 4.762623e+000 3.022832e+000 3.368591e+000 2.326898e+000 4.064096e+000 3.136746e-001 5.340242e-001 5.588459e-001 6.722836e-001 7.083775e-001 7.788714e-001 6.833211e-001 6.657816e-001 7.940065e-001 6.320879e-001 6.073142e-001 4.860131e-001 8.619396e-001
<GCONST> 1.285570e+002
<MIXTURE> 2 4.865317e-001
<MEAN> 39
 -1.025010e+001 9.644700e-001 -1.729359e+000 -2.687035e-001 -3.872366e+000 -3.667650e+000 -1.997267e+000 6.921621e-001 2.071661e-001 1.092708e+000 2.342619e-001 -1.344748e+000 5.236682e+001 -4.418947e-001 -2.368371e-001 -7.640556e-001 1.196770e-002 2.520031e-001 3.195462e-001 1.833699e-001 -3.420540e-002 1.954753e-001 -6.498832e-002 1.828968e-002 2.758678e-001 -1.032945e+000 -5.564176e-002 -5.102736e-001 -1.447670e-001 -4.060914e-001 1.779123e-002 -1.022308e-001 -2.173375e-001 -1.466479e-002 -3.127578e-001 1.083121e-001 -1.511997e-001 -1.114466e-002 1.123284e+000
<VARIANCE> 39
 6.422014e+001 3.633074e+001 5.171977e+001 4.619315e+001 6.694360e+001 6.671774e+001 5.569728e+001 5.247338e+001 5.236378e+001 4.075000e+001 4.357703e+001 3.179992e+001 1.204547e+002 1.704270e+000 2.048402e+000 2.624379e+000 2.355416e+000 3.599902e+000 3.342865e+000 2.911026e+000 3.171500e+000 3.463563e+000 2.811138e+000 2.529592e+000 2.141868e+000 3.403961e+000 3.720612e-001 5.407362e-001 6.449547e-001 7.010265e-001 8.858348e-001 8.468482e-001 7.676961e-001 7.678784e-001 8.438317e-001 7.157996e-001 5.956647e-001 5.155754e-001 8.912196e-001
<GCONST> 1.312460e+002
<STATE> 3
<NUMMIXES> 2
<MIXTURE> 1 5.345983e-001
<MEAN> 39
 -9.879409e+000 8.090436e-001 -4.268362e-001 2.084984e+000 2.061042e+000 -1.559045e+000 2.154745e+000 2.242036e+000 2.718156e+000 3.304350e+000 3.093984e+000 2.030469e+000 5.489212e+001 -4.774383e-001 -2.648571e+000 -2.224157e+000 -1.568376e+000 1.284090e-001 -3.722413e-001 -3.045686e-001 2.622342e-001 -5.833192e-001 7.792499e-001 -3.853821e-001 4.260740e-001 3.446239e+000 1.967139e-001 -4.128196e-002 1.803640e-002 -5.401500e-001 -4.770391e-001 -3.858889e-001 -3.867635e-001 -2.495311e-001 -3.688636e-001 -2.686246e-002 -3.134553e-001 -2.854211e-001 1.128743e+000
<VARIANCE> 39
 2.497535e+001 3.488886e+001 3.710017e+001 4.151186e+001 5.010816e+001 4.547835e+001 4.015257e+001 3.367798e+001 3.620262e+001 2.818303e+001 3.110573e+001 2.209482e+001 5.424731e+001 3.063244e+000 3.694533e+000 6.488369e+000 6.986443e+000 7.601748e+000 6.962098e+000 5.114806e+000 5.169907e+000 5.266752e+000 4.632745e+000 3.919506e+000 3.379939e+000 4.066245e+000 3.731269e-001 7.127083e-001 8.309217e-001 6.983846e-001 7.404404e-001 7.240631e-001 6.401915e-001 6.362695e-001 6.537091e-001 6.035101e-001 5.853826e-001 4.478188e-001 8.799199e-001
<GCONST> 1.330602e+002
<MIXTURE> 2 4.653720e-001
<MEAN> 39
 -1.128194e+001 -5.886582e-001 -2.157012e+000 3.051181e-001 -4.142477e-001 -2.961428e+000 4.555502e-001 1.763159e+000 1.805053e+000 2.592002e+000 1.955915e+000 1.003972e+000 5.388328e+001 -2.913704e-001 -2.638050e+000 -1.884224e+000 -1.821491e+000 4.755672e-001 -2.257150e-001 -7.653754e-001 -2.408362e-001 -1.149777e+000 3.828041e-001 -7.704541e-001 4.999926e-002 3.535513e+000 3.906513e-001 -4.974787e-002 1.697877e-001 -6.393285e-001 -4.218098e-001 -3.421990e-001 -5.048472e-001 -3.323388e-001 -5.125498e-001 -6.656239e-002 -3.492695e-001 -3.508275e-001 1.259121e+000
<VARIANCE> 39
 3.987904e+001 4.585325e+001 4.771931e+001 5.218251e+001 7.245373e+001 5.825247e+001 6.659760e+001 4.555847e+001 5.813145e+001 3.883195e+001 4.146411e+001 3.114543e+001 7.616522e+001 4.075726e+000 4.829051e+000 7.688271e+000 7.275150e+000 1.110134e+001 8.285506e+000 6.634201e+000 6.607548e+000 6.072828e+000 5.158490e+000 4.787070e+000 3.762378e+000 5.025410e+000 4.453149e-001 7.936838e-001 8.336616e-001 8.160704e-001 1.137082e+000 8.830843e-001 8.720670e-001 8.753337e-001 8.327761e-001 7.336798e-001 8.208653e-001 5.535826e-001 9.255109e-001
<GCONST> 1.427982e+002
<STATE> 4
<NUMMIXES> 2
<MIXTURE> 1 5.100001e-001
<MEAN> 39
 -1.036515e+001 -5.468264e+000 -6.675456e+000 -5.183558e+000 4.619909e-001 -4.205728e+000 -2.259788e+000 1.550233e+000 -1.224407e+000 5.161032e+000 7.103902e-001 4.334919e-001 6.650603e+001 6.039892e-001 6.363099e-001 9.319446e-001 -4.442838e-001 -5.960578e-001 -5.815149e-002 -3.027995e-001 -2.611212e-001 -3.554361e-001 -1.282114e-001 9.244200e-002 -4.467425e-001 1.355696e+000 6.051564e-001 8.139535e-001 1.045761e+000 3.857355e-001 -5.880362e-001 7.605811e-002 -7.269929e-002 -2.708267e-001 1.199104e-003 -5.387586e-001 1.117136e-001 -2.877177e-001 -8.091111e-001
<VARIANCE> 39
 3.417061e+001 4.315340e+001 8.591899e+001 8.891675e+001 7.098129e+001 7.491046e+001 6.865497e+001 4.929112e+001 5.942038e+001 4.551810e+001 4.246893e+001 3.373644e+001 5.468386e+001 4.676367e+000 4.646174e+000 7.329232e+000 5.317986e+000 6.452756e+000 4.798362e+000 4.490033e+000 4.449181e+000 4.882777e+000 4.602777e+000 3.677578e+000 3.339942e+000 6.088094e+000 5.361353e-001 8.697124e-001 1.224542e+000 1.140896e+000 1.457000e+000 1.171743e+000 1.121919e+000 9.623438e-001 1.030061e+000 9.582466e-001 8.367103e-001 7.166800e-001 9.654109e-001
<GCONST> 1.440107e+002
<MIXTURE> 2 4.899285e-001
<MEAN> 39
 -1.105057e+001 -5.256499e+000 -4.525756e+000 -5.418474e+000 -4.040062e-001 -4.405035e+000 -1.100079e+000 -8.891467e-002 -1.415816e+000 3.422473e+000 -8.563045e-001 8.207357e-001 6.621266e+001 1.920086e+000 2.424954e-001 8.881292e-001 -2.091925e+000 -2.174812e+000 -9.710044e-001 -1.802489e+000 -1.311421e+000 -1.949791e+000 -7.496755e-001 -1.235574e+000 -1.235489e+000 2.619813e+000 6.470155e-001 4.928507e-001 6.728828e-001 -1.593281e-002 -6.700417e-001 9.855471e-003 -3.417269e-001 -7.814910e-002 -1.093964e-001 -3.149401e-001 3.664985e-002 -3.819358e-001 -4.624092e-001
<VARIANCE> 39
 4.203340e+001 5.890504e+001 1.010164e+002 8.484476e+001 9.365211e+001 8.946149e+001 7.395831e+001 5.798126e+001 5.814571e+001 5.249611e+001 4.683737e+001 3.651928e+001 6.985419e+001 3.777835e+000 5.340171e+000 7.996890e+000 7.023804e+000 8.696334e+000 6.172576e+000 5.603550e+000 6.198102e+000 5.960028e+000 5.254737e+000 6.318727e+000 3.880556e+000 5.272544e+000 5.568666e-001 1.108801e+000 1.322102e+000 1.254738e+000 1.682707e+000 1.313430e+000 1.166471e+000 1.137243e+000 1.165485e+000 9.759117e-001 9.756672e-001 7.523954e-001 7.893969e-001
<GCONST> 1.492118e+002
<TRANSP> 5
 0.000000e+000 1.000000e+000 0.000000e+000 0.000000e+000 0.000000e+000
 0.000000e+000 7.136894e-001 2.863106e-001 0.000000e+000 0.000000e+000
 0.000000e+000 0.000000e+000 4.475994e-001 5.524006e-001 0.000000e+000
 0.000000e+000 0.000000e+000 0.000000e+000 6.664144e-001 3.335856e-001
 0.000000e+000 0.000000e+000 0.000000e+000 0.000000e+000 0.000000e+000
<ENDHMM>
~h "l"
<BEGINHMM>
<NUMSTATES> 5
<STATE> 2
<NUMMIXES> 2
<MIXTURE> 1 5.116878e-001
<MEAN> 39
 8.863823e-001 -3.768017e+000 -6.635062e-001 -7.888972e+000 -8.445820e+000 -4.958092e-001 -8.862685e+000 -8.509722e+000 -4.358702e-002 2.291127e+000 -4.000302e-001 -3.997932e+000 7.029250e+001 1.064286e+000 -1.122630e-001 1.440287e-001 -8.602394e-001 -5.146306e-001 9.333014e-001 -9.802533e-001 -1.256827e+000 5.393472e-003 5.847625e-001 2.578071e-001 -1.600594e-001 1.208350e-001 -3.256325e-001 -2.385872e-003 8.528444e-002 -1.069574e-001 1.230821e-001 -2.622077e-002 6.735548e-002 5.607483e-001 -6.365878e-002 -1.512922e-001 -4.476226e-002 6.360250e-002 -5.653090e-003
<VARIANCE> 39
 3.214882e+001 4.717516e+001 4.510385e+001 8.975321e+001 6.684923e+001 8.661617e+001 8.768919e+001 7.743888e+001 5.878960e+001 5.177457e+001 6.470579e+001 3.743467e+001 6.111043e+001 2.774762e+000 2.646075e+000 2.861042e+000 5.195961e+000 5.007347e+000 5.717485e+000 5.302184e+000 4.900861e+000 4.342628e+000 3.915164e+000 3.584282e+000 3.079352e+000 1.971696e+000 4.065108e-001 4.883596e-001 4.484201e-001 7.208380e-001 9.258879e-001 8.117923e-001 9.606411e-001 1.065122e+000 9.646202e-001 7.272112e-001 6.597731e-001 5.712975e-001 2.789542e-001
<GCONST> 1.363231e+002
<MIXTURE> 2 4.882957e-001
<MEAN> 39
 -5.708515e-001 -3.976438e+000 -1.059049e+000 -1.033467e+001 -8.209565e+000 -3.084460e+000 -1.117885e+001 -8.491148e+000 -9.959518e-001 -2.177671e-001 -2.575730e+000 -4.167316e+000 7.030247e+001 1.519579e+000 -3.409882e-001 -8.032343e-002 -1.506973e+000 -4.439517e-001 5.318978e-001 -1.829594e+000 -1.016825e+000 6.728230e-003 4.427182e-001 -3.225838e-001 -5.715520e-001 5.788074e-001 -4.271281e-001 -1.030118e-001 -1.518881e-002 2.304380e-002 1.433309e-001 6.094137e-002 3.286210e-001 6.700674e-001 -1.351636e-002 -5.623192e-003 -7.610412e-003 1.157688e-001 -2.854333e-002
<VARIANCE> 39
 3.392499e+001 6.272733e+001 5.979696e+001 8.842928e+001 6.535456e+001 9.786624e+001 8.476369e+001 8.804549e+001 5.709193e+001 5.740785e+001 7.896777e+001 3.884523e+001 5.474971e+001 4.021544e+000 3.487083e+000 4.108586e+000 7.562560e+000 6.086279e+000 7.544648e+000 7.291189e+000 6.557888e+000 5.979112e+000 4.949452e+000 5.622678e+000 3.662177e+000 2.888378e+000 4.798622e-001 6.937806e-001 5.909355e-001 9.474510e-001 1.017686e+000 1.004469e+000 1.191739e+000 1.382555e+000 1.086433e+000 8.989344e-001 8.555355e-001 6.498127e-001 4.451978e-001
<GCONST> 1.443865e+002
<STATE> 3
<NUMMIXES> 2
<MIXTURE> 1 5.201029e-001
<MEAN> 39
 3.784665e+000 -5.082309e+000 -1.192705e-001 -1.051450e+001 -1.189197e+001 5.200419e+000 -1.053691e+001 -1.105751e+001 1.866984e-002 3.412662e+000 1.527453e+000 -3.653128e+000 7.179626e+001 -1.557577e-002 1.754192e-001 5.030829e-002 -5.176592e-001 3.303926e-001 2.080238e-001 -3.781884e-001 3.034697e-001 -4.903701e-002 6.133368e-003 -4.422462e-002 1.490872e-002 -6.376884e-002 -3.258032e-001 1.051058e-001 -5.263630e-002 1.132334e-001 3.683749e-001 -4.332256e-001 1.209613e-001 6.776569e-001 -8.633544e-003 -1.971468e-001 -1.884853e-001 -7.584812e-002 3.777776e-002
<VARIANCE> 39
 1.523575e+001 3.527106e+001 3.784755e+001 8.454495e+001 6.242688e+001 7.999342e+001 8.388066e+001 6.136972e+001 5.103027e+001 4.940853e+001 6.157812e+001 3.723642e+001 4.066536e+001 8.150582e-001 1.689820e+000 1.646471e+000 3.538837e+000 3.057169e+000 4.107565e+000 3.841240e+000 4.649971e+000 3.506708e+000 2.850723e+000 2.622010e+000 2.631037e+000 9.286644e-001 1.723810e-001 2.961979e-001 2.773783e-001 5.952610e-001 6.357360e-001 6.209525e-001 7.789484e-001 7.013137e-001 6.905167e-001 5.517064e-001 5.423371e-001 5.104095e-001 1.568361e-001
<GCONST> 1.236157e+002
<MIXTURE> 2 4.798855e-001
<MEAN> 39
 1.584184e+000 -5.865219e+000 -1.178116e+000 -1.412970e+001 -1.048031e+001 2.489657e+000 -1.432640e+001 -9.688765e+000 -6.797452e-001 1.448147e+000 -1.790121e+000 -4.520981e+000 7.113036e+001 -1.380742e-001 -2.001720e-001 -1.035338e-001 -5.821571e-001 3.709711e-001 -1.146964e-001 -5.722279e-001 9.590999e-001 9.886242e-002 3.952054e-002 -3.773986e-001 -3.603354e-001 3.250456e-001 -3.453973e-001 -1.158691e-002 -6.335361e-002 2.783909e-001 1.543692e-001 -4.174158e-001 4.831450e-001 6.503797e-001 -8.438605e-002 -2.047977e-001 -1.842987e-001 2.482858e-002 8.248509e-002
<VARIANCE> 39
 2.521284e+001 4.718032e+001 5.515483e+001 9.074727e+001 6.845110e+001 1.158128e+002 8.278426e+001 7.836754e+001 5.280203e+001 6.322957e+001 8.330094e+001 4.326245e+001 4.337617e+001 9.873619e-001 2.285267e+000 2.489266e+000 3.984051e+000 3.709862e+000 4.739010e+000 4.311966e+000 5.831509e+000 4.216186e+000 3.495340e+000 3.388821e+000 2.929573e+000 1.198544e+000 2.178830e-001 4.124450e-001 3.806625e-001 8.117018e-001 8.276550e-001 7.795287e-001 9.913411e-001 8.757105e-001 8.981348e-001 7.989656e-001 7.439106e-001 6.368481e-001 2.238118e-001
<GCONST> 1.327324e+002
<STATE> 4
<NUMMIXES> 2
<MIXTURE> 1 4.987455e-001
<MEAN> 39
 8.885934e-001 -3.690972e+000 -1.349625e+000 -1.101516e+001 -5.759640e+000 -1.341591e+000 -1.103195e+001 -4.101978e+000 7.341283e-001 1.477806e+000 -2.869387e+000 -4.574478e+000 7.091967e+001 -5.288810e-001 4.210950e-001 3.265181e-001 6.536636e-001 2.739445e-001 -9.424169e-001 6.739008e-001 1.127275e+000 -2.957848e-001 -5.391407e-001 -2.513428e-001 3.356680e-001 -2.982443e-001 -1.683735e-001 1.415680e-001 1.606411e-001 2.461290e-001 -1.401977e-001 3.769790e-002 3.405585e-001 -9.945352e-002 -2.070381e-001 -3.126495e-002 1.913974e-001 1.408553e-001 -1.714266e-001
<VARIANCE> 39
 1.732506e+001 4.175552e+001 5.379663e+001 1.015232e+002 5.806495e+001 9.472533e+001 8.134383e+001 6.190798e+001 5.363059e+001 5.517833e+001 7.143090e+001 4.232246e+001 5.557525e+001 9.173074e-001 2.408342e+000 2.250884e+000 4.042355e+000 4.216929e+000 4.212190e+000 3.882315e+000 4.394901e+000 3.937100e+000 3.318323e+000 3.331412e+000 2.600298e+000 1.791056e+000 2.354043e-001 3.102592e-001 3.075748e-001 6.313843e-001 5.914415e-001 6.148166e-001 7.353240e-001 6.857471e-001 7.019845e-001 5.637239e-001 5.474989e-001 4.735479e-001 2.065872e-001
<GCONST> 1.282485e+002
<MIXTURE> 2 5.012304e-001
<MEAN> 39
 -6.887134e-001 -5.928829e+000 -3.265350e+000 -1.512111e+001 -6.087931e+000 -1.819534e+000 -1.303187e+001 -3.778143e+000 1.549024e-002 2.198710e-001 -4.099409e+000 -5.927212e+000 7.265313e+001 -4.650671e-001 -1.999563e-001 -2.345447e-005 2.955866e-001 6.372938e-002 -8.401772e-001 5.105906e-001 1.359349e+000 -2.303401e-001 -4.948263e-001 -6.510756e-001 2.495114e-002 3.011782e-001 -4.094606e-002 1.013552e-001 2.024514e-001 3.104301e-001 -2.432957e-001 -5.939161e-002 3.225611e-001 -1.565458e-001 -2.248157e-001 -9.101275e-002 1.063324e-001 2.039338e-001 -1.427653e-001
<VARIANCE> 39
 2.105655e+001 5.103297e+001 6.502942e+001 8.173034e+001 5.337957e+001 1.115681e+002 8.348292e+001 6.372044e+001 5.369529e+001 5.944147e+001 8.999555e+001 4.345105e+001 4.787241e+001 6.851597e-001 2.015273e+000 2.431554e+000 3.293237e+000 3.843855e+000 4.045314e+000 3.923852e+000 4.804136e+000 4.045871e+000 3.477641e+000 3.384717e+000 2.946121e+000 1.126985e+000 1.166651e-001 2.573087e-001 2.757905e-001 4.946988e-001 4.900890e-001 5.408114e-001 6.937252e-001 5.815943e-001 6.002806e-001 5.874940e-001 5.186860e-001 4.488226e-001 1.470666e-001
<GCONST> 1.257115e+002
<TRANSP> 5
 0.000000e+000 1.000000e+000 0.000000e+000 0.000000e+000 0.000000e+000
 0.000000e+000 3.655907e-001 6.344093e-001 0.000000e+000 0.000000e+000
 0.000000e+000 0.000000e+000 5.618607e-001 4.381393e-001 0.000000e+000
 0.000000e+000 0.000000e+000 0.000000e+000 5.598522e-001 4.401478e-001
 0.000000e+000 0.000000e+000 0.000000e+000 0.000000e+000 0.000000e+000
<ENDHMM>
~h "m"
<BEGINHMM>
<NUMSTATES> 5
<STATE> 2
<NUMMIXES> 2
<MIXTURE> 1 5.216001e-001
<MEAN> 39
 8.350645e-001 1.992608e+000 3.086013e+000 2.172287e+000 -4.683989e+000 -2.437350e+000 -4.660630e+000 -6.013282e+000 -6.977874e+000 -1.458037e+000 1.145239e+000 -5.794794e+000 6.421511e+001 3.524058e-001 1.183793e+000 4.737881e-001 2.116295e+000 6.888649e-001 -5.799296e-001 4.445142e-001 -1.918959e+000 -2.139771e+000 1.674475e-001 5.392426e-001 -7.450002e-001 -8.493541e-001 -1.769756e-001 -3.074563e-001 1.619786e-001 -4.973934e-001 -3.343400e-001 1.052099e-001 -2.001457e-001 2.522415e-001 2.171032e-001 -1.449919e-002 -2.163849e-001 1.065601e-001 4.126952e-001
<VARIANCE> 39
 2.706948e+001 4.013538e+001 3.569690e+001 5.215675e+001 5.476947e+001 6.473226e+001 5.644100e+001 5.255248e+001 5.800860e+001 5.270161e+001 5.017598e+001 3.493842e+001 6.554908e+001 1.788259e+000 2.289444e+000 4.250551e+000 3.406866e+000 3.943794e+000 4.418990e+000 4.039812e+000 4.065338e+000 4.758989e+000 4.263538e+000 3.830172e+000 2.899992e+000 1.986228e+000 2.343410e-001 3.219664e-001 4.707260e-001 4.794134e-001 5.285456e-001 5.432994e-001 5.366133e-001 6.537410e-001 7.955463e-001 5.208908e-001 5.590245e-001 4.443623e-001 1.646878e-001
<GCONST> 1.274404e+002
<MIXTURE> 2 4.783856e-001
<MEAN> 39
 1.072622e+000 1.003330e-001 1.811484e+000 -3.670518e+000 -7.468526e+000 -8.081902e+000 -9.365462e+000 -8.260237e+000 -9.740323e+000 -1.947459e+000 -5.390611e+000 -9.249139e+000 6.580312e+001 5.941575e-001 1.188546e+000 6.525522e-001 1.693160e+000 1.863338e-001 -9.502049e-001 -2.958944e-001 -2.069094e+000 -1.681207e+000 6.103938e-001 -2.539499e-001 -1.277724e+000 -8.583385e-001 -3.516905e-001 -3.411334e-001 3.164434e-002 -5.226018e-001 -1.869515e-001 3.346026e-001 1.135908e-001 4.385206e-001 2.530890e-001 -5.519239e-002 -9.502344e-003 3.578327e-001 3.984169e-001
<VARIANCE> 39
 1.682137e+001 4.439209e+001 3.647171e+001 5.523204e+001 5.564542e+001 8.232883e+001 6.898226e+001 5.314531e+001 5.465491e+001 5.579599e+001 8.219150e+001 3.740046e+001 4.359268e+001 2.161797e+000 2.739975e+000 4.345824e+000 3.760159e+000 4.939672e+000 4.685899e+000 5.326149e+000 4.766946e+000 4.629015e+000 5.252347e+000 4.756672e+000 3.837443e+000 2.396148e+000 2.297759e-001 3.678332e-001 5.417691e-001 4.638451e-001 5.838435e-001 5.830524e-001 7.110089e-001 7.290730e-001 7.675875e-001 7.349929e-001 6.582058e-001 5.646807e-001 1.824993e-001
<GCONST> 1.314343e+002
<STATE> 3
<NUMMIXES> 2
<MIXTURE> 1 5.132967e-001
<MEAN> 39
 1.600884e+000 2.606946e+000 4.852054e+000 3.285547e+000 -6.073941e+000 -3.097072e+000 -5.657300e+000 -8.070359e+000 -9.107638e+000 -1.604297e+000 -3.633644e-002 -6.815159e+000 6.492863e+001 -3.161106e-002 2.028463e-001 5.363134e-002 1.120824e-001 3.494158e-002 5.953574e-002 1.143915e-001 -1.363753e-001 3.798086e-003 -5.283017e-002 -1.328806e-001 1.936499e-001 -1.369641e-001 -1.181531e-001 -1.904344e-001 -1.479031e-001 -5.871644e-001 -1.162062e-001 1.406016e-001 -4.182672e-002 4.486986e-001 5.116028e-001 -5.996252e-002 -1.149510e-001 1.992874e-001 2.036219e-001
<VARIANCE> 39
 1.139162e+001 3.331391e+001 3.105348e+001 5.735152e+001 5.357081e+001 7.926096e+001 5.647974e+001 5.526883e+001 5.105669e+001 5.672181e+001 6.489221e+001 3.765104e+001 4.181596e+001 3.682911e-001 1.000792e+000 1.034983e+000 1.492700e+000 1.593089e+000 1.695695e+000 1.719664e+000 1.793642e+000 2.204160e+000 1.829246e+000 1.912395e+000 1.629304e+000 5.967761e-001 1.459713e-001 2.242615e-001 4.105809e-001 4.831396e-001 4.151044e-001 5.049284e-001 4.494523e-001 5.617924e-001 6.678847e-001 5.107889e-001 5.295048e-001 4.192517e-001 1.337652e-001
<GCONST> 1.120098e+002
<MIXTURE> 2 4.866439e-001
<MEAN> 39
 5.582282e-001 3.636994e-001 3.560777e+000 -2.798633e+000 -7.881752e+000 -7.208544e+000 -8.549635e+000 -9.556658e+000 -1.163191e+001 -1.228124e+000 -5.156821e+000 -9.425406e+000 6.556625e+001 -1.550211e-002 1.284936e-001 2.304236e-002 3.086417e-002 -9.181457e-002 4.397416e-002 5.691690e-002 -9.685553e-002 -5.963529e-002 -1.664151e-001 -1.638763e-001 -2.022577e-002 -2.479121e-002 -9.782696e-002 -2.914238e-001 -2.388121e-001 -5.783787e-001 -1.562631e-001 2.311419e-001 2.117012e-002 5.722097e-001 5.759205e-001 -2.350957e-001 5.647970e-002 3.440186e-001 3.146589e-001
<VARIANCE> 39
 1.505370e+001 3.821672e+001 3.446674e+001 5.971856e+001 5.510500e+001 1.005917e+002 7.277765e+001 5.112671e+001 5.845981e+001 6.448391e+001 1.100156e+002 4.522532e+001 4.256515e+001 3.243473e-001 1.033332e+000 1.175359e+000 1.566946e+000 1.550832e+000 1.838726e+000 1.858270e+000 2.002108e+000 2.418264e+000 2.313041e+000 2.231182e+000 1.974104e+000 5.566080e-001 1.594711e-001 2.761623e-001 4.945270e-001 4.861788e-001 4.538329e-001 5.622849e-001 5.812849e-001 6.662188e-001 6.983377e-001 7.322186e-001 6.945618e-001 6.124653e-001 1.535244e-001
<GCONST> 1.172377e+002
<STATE> 4
<NUMMIXES> 2
<MIXTURE> 1 5.062890e-001
<MEAN> 39
 6.253688e-001 2.505881e+000 3.090726e+000 4.337133e-001 -5.355398e+000 -2.771658e+000 -5.027040e+000 -6.786049e+000 -6.896028e+000 -2.948418e+000 -1.757540e+000 -5.307282e+000 6.493633e+001 -5.228187e-001 -4.656017e-001 -3.700562e-001 -1.568369e+000 -7.678153e-002 5.591743e-001 7.663935e-002 1.491249e+000 1.721537e+000 -1.445745e-001 -3.142308e-001 7.862099e-001 3.809067e-001 -2.206619e-001 -1.846817e-001 5.339386e-002 -3.178587e-001 -1.940041e-003 1.936901e-001 -5.972510e-002 2.890814e-001 1.672025e-001 1.412658e-001 1.005452e-001 5.460102e-002 9.950329e-002
<VARIANCE> 39
 1.830997e+001 3.811954e+001 3.676744e+001 6.688060e+001 6.007125e+001 7.427335e+001 5.392367e+001 5.791055e+001 6.530034e+001 5.519134e+001 6.028283e+001 3.480345e+001 5.919741e+001 1.600330e+000 2.888926e+000 4.209230e+000 5.689118e+000 4.951384e+000 4.465481e+000 4.357002e+000 4.684788e+000 5.370714e+000 4.477349e+000 4.731647e+000 3.273286e+000 2.901597e+000 3.258332e-001 3.899143e-001 5.132308e-001 7.221610e-001 6.831395e-001 6.705540e-001 6.225358e-001 8.162532e-001 1.003230e+000 6.726525e-001 6.785188e-001 5.067576e-001 2.923614e-001
<GCONST> 1.330024e+002
<MIXTURE> 2 4.936758e-001
<MEAN> 39
 9.539702e-001 -7.593829e-001 1.078902e+000 -3.943131e+000 -7.763754e+000 -6.745084e+000 -9.421050e+000 -7.811851e+000 -8.715276e+000 -2.840168e+000 -4.435822e+000 -8.582970e+000 6.716021e+001 -3.921891e-001 -1.269510e+000 -7.072520e-001 -2.036724e+000 -5.655423e-001 8.304350e-001 -4.604724e-002 1.988041e+000 1.759668e+000 -1.073633e+000 -3.293633e-001 9.508542e-001 1.307862e+000 -2.063697e-001 -1.452122e-001 1.307390e-001 -3.381450e-001 -4.522860e-002 2.984552e-001 1.071393e-001 3.946291e-001 8.270442e-002 -2.059441e-002 -3.998370e-002 2.075445e-001 1.244854e-001
<VARIANCE> 39
 1.593780e+001 4.571442e+001 3.850109e+001 6.568661e+001 5.209214e+001 8.360284e+001 6.567607e+001 5.563083e+001 7.126090e+001 6.086224e+001 8.598430e+001 4.033714e+001 4.734620e+001 1.192352e+000 3.136566e+000 5.180214e+000 4.681622e+000 4.148194e+000 4.705491e+000 4.760513e+000 5.335408e+000 5.966531e+000 5.373769e+000 5.033442e+000 4.374197e+000 1.842258e+000 2.030156e-001 4.292582e-001 5.795828e-001 7.422780e-001 6.209990e-001 6.396695e-001 7.164184e-001 8.067479e-001 1.055824e+000 7.869653e-001 7.188287e-001 6.258536e-001 2.562654e-001
<GCONST> 1.338538e+002
<TRANSP> 5
 0.000000e+000 1.000000e+000 0.000000e+000 0.000000e+000 0.000000e+000
 0.000000e+000 4.537009e-001 5.462990e-001 0.000000e+000 0.000000e+000
 0.000000e+000 0.000000e+000 6.965854e-001 3.034146e-001 0.000000e+000
 0.000000e+000 0.000000e+000 0.000000e+000 5.322803e-001 4.677198e-001
 0.000000e+000 0.000000e+000 0.000000e+000 0.000000e+000 0.000000e+000
<ENDHMM>
~h "n"
<BEGINHMM>
<NUMSTATES> 5
<STATE> 2
<NUMMIXES> 2
<MIXTURE> 1 5.359992e-001
<MEAN> 39
 -1.519531e+000 2.691060e+000 4.603038e+000 2.782052e+000 -6.389944e+000 -2.798568e+000 -3.435867e+000 -5.356735e+000 -3.874317e+000 2.393640e-001 -2.623173e+000 -4.346765e+000 6.242246e+001 5.390308e-001 8.945188e-001 5.593967e-001 1.064035e+000 -3.224118e-001 -4.119953e-001 3.784312e-001 -1.424928e+000 -8.714507e-001 4.519666e-001 -4.147517e-001 -2.699253e-001 -4.723721e-001 -7.071273e-002 -4.106345e-001 -1.074781e-001 -5.672097e-001 -1.170095e-001 2.131868e-002 -3.024308e-001 4.886483e-001 2.451670e-001 -1.361573e-001 -1.721300e-002 4.531938e-002 4.879014e-001
<VARIANCE> 39
 3.751868e+001 3.217804e+001 3.467757e+001 4.766288e+001 6.633473e+001 6.054288e+001 5.914460e+001 5.960557e+001 5.175660e+001 4.754697e+001 4.381723e+001 3.863325e+001 8.292152e+001 1.774332e+000 2.110328e+000 3.012787e+000 2.659464e+000 3.439644e+000 3.965140e+000 3.416621e+000 4.119692e+000 3.745090e+000 3.219186e+000 2.548493e+000 2.327504e+000 2.127858e+000 3.188097e-001 4.755054e-001 5.386117e-001 5.842925e-001 6.894341e-001 7.468699e-001 6.100616e-001 9.306368e-001 7.905966e-001 6.146973e-001 4.967157e-001 4.346128e-001 3.146391e-001
<GCONST> 1.283098e+002
<MIXTURE> 2 4.639709e-001
<MEAN> 39
 -1.206858e+000 2.429131e+000 3.908489e+000 -2.637429e+000 -8.907496e+000 -8.541075e+000 -5.613216e+000 -7.622280e+000 -6.733694e+000 -2.498702e+000 -7.648842e+000 -4.975796e+000 6.401913e+001 1.226778e+000 7.657929e-001 5.326414e-001 6.722672e-001 -9.719551e-001 -1.237840e+000 -2.069064e-001 -1.662464e+000 -9.346352e-001 3.513993e-001 -1.240221e+000 -4.715151e-001 -8.670143e-002 -3.404076e-001 -7.008144e-001 -2.043702e-001 -5.975747e-001 7.570764e-002 3.548967e-001 -1.875065e-001 7.436458e-001 3.392337e-001 -9.848474e-002 2.494188e-001 1.138169e-001 5.979894e-001
<VARIANCE> 39
 2.841445e+001 4.625181e+001 3.965804e+001 5.517385e+001 6.802538e+001 8.296838e+001 7.361625e+001 5.765574e+001 5.714784e+001 5.493676e+001 7.406093e+001 3.731850e+001 6.370455e+001 3.404973e+000 3.298727e+000 3.758433e+000 4.240740e+000 5.613354e+000 5.512287e+000 5.816955e+000 4.866056e+000 5.019948e+000 5.006331e+000 4.660949e+000 3.271356e+000 4.162575e+000 4.137745e-001 6.292105e-001 6.469213e-001 6.973050e-001 8.338635e-001 8.935179e-001 8.360927e-001 9.070796e-001 9.241565e-001 8.376886e-001 7.462644e-001 5.314824e-001 4.237837e-001
<GCONST> 1.382566e+002
<STATE> 3
<NUMMIXES> 2
<MIXTURE> 1 5.137055e-001
<MEAN> 39
 1.313467e+000 2.145063e+000 5.817799e+000 2.497007e+000 -9.375098e+000 -5.203128e+000 -4.689415e+000 -8.438382e+000 -6.181673e+000 1.085584e+000 -4.636520e+000 -5.614320e+000 6.595415e+001 -1.514938e-001 -9.813637e-001 -2.467352e-001 -9.138581e-001 1.833605e-001 1.794500e-001 -8.063920e-001 1.036642e+000 7.963404e-001 -4.349436e-001 -6.153712e-002 6.933148e-002 9.212598e-001 -3.320044e-001 -6.018779e-001 -3.314187e-001 -8.642694e-001 2.247139e-001 4.057922e-001 -3.623835e-001 1.077271e+000 5.575346e-001 -4.054060e-001 1.713324e-001 1.124052e-001 5.040293e-001
<VARIANCE> 39
 1.107344e+001 3.569063e+001 3.110826e+001 6.072582e+001 5.218882e+001 7.819077e+001 5.694979e+001 5.143231e+001 5.061342e+001 4.952108e+001 5.489905e+001 3.662454e+001 4.067405e+001 1.051077e+000 2.629291e+000 2.397862e+000 2.925846e+000 3.179138e+000 3.738097e+000 3.337614e+000 4.242238e+000 3.893771e+000 3.028776e+000 2.459757e+000 2.154228e+000 1.884911e+000 2.764534e-001 4.292214e-001 6.388489e-001 6.357099e-001 8.147303e-001 1.060330e+000 7.174887e-001 8.564042e-001 9.028997e-001 7.392185e-001 6.099318e-001 5.303334e-001 2.757674e-001
<GCONST> 1.270074e+002
<MIXTURE> 2 4.862637e-001
<MEAN> 39
 1.041461e-001 1.159292e+000 4.667194e+000 -3.356880e+000 -1.116216e+001 -1.155186e+001 -6.271582e+000 -8.610317e+000 -7.468869e+000 -1.225941e+000 -1.069657e+001 -5.007128e+000 6.616970e+001 -1.037702e-001 -1.488851e+000 -3.879299e-001 -1.155754e+000 1.906851e-001 2.426838e-001 -9.461696e-001 1.337950e+000 4.583000e-001 -6.650773e-001 1.023927e-002 -1.805938e-001 1.414209e+000 -4.260824e-001 -8.312013e-001 -4.278646e-001 -8.025105e-001 4.191258e-001 8.120684e-001 -2.035685e-001 1.137870e+000 3.476269e-001 -4.441107e-001 5.419562e-001 7.051266e-002 6.205444e-001
<VARIANCE> 39
 1.430127e+001 3.895855e+001 3.666860e+001 4.915030e+001 5.909452e+001 8.719906e+001 7.372295e+001 5.774523e+001 5.576621e+001 5.328805e+001 8.726021e+001 4.430278e+001 3.888886e+001 1.666455e+000 3.344479e+000 3.004991e+000 3.536191e+000 4.186802e+000 4.292809e+000 4.053498e+000 4.913467e+000 4.226025e+000 4.216226e+000 4.039665e+000 2.695449e+000 2.430973e+000 3.281550e-001 5.322427e-001 7.140511e-001 7.105063e-001 9.317825e-001 9.911316e-001 8.767214e-001 9.125763e-001 9.649308e-001 9.779954e-001 9.800161e-001 6.891099e-001 3.218200e-001
<GCONST> 1.341257e+002
<STATE> 4
<NUMMIXES> 2
<MIXTURE> 1 4.959270e-001
<MEAN> 39
 -5.254099e-002 -1.707060e+000 3.793620e+000 -2.212561e+000 -7.035455e+000 -3.425068e+000 -9.018436e+000 -2.728701e+000 -1.468728e+000 -2.696224e+000 -4.192526e+000 -5.464456e+000 6.900254e+001 -4.266708e-001 -1.438109e+000 -7.899447e-001 -1.877918e+000 4.642496e-001 9.778166e-001 -9.276823e-001 2.373877e+000 1.236864e+000 -6.999936e-001 2.695803e-001 1.273023e-001 1.217500e+000 -1.925463e-001 1.202069e-001 -6.085309e-002 -3.977204e-002 -3.651493e-003 1.757075e-001 3.877940e-001 1.243334e-002 -1.854686e-001 2.007712e-001 1.511565e-001 9.682414e-002 -1.569772e-001
<VARIANCE> 39
 1.640311e+001 5.101598e+001 4.338343e+001 5.935648e+001 5.695198e+001 5.961841e+001 5.855300e+001 6.433273e+001 6.626125e+001 5.583442e+001 4.934149e+001 3.445073e+001 5.879175e+001 2.120631e+000 4.201870e+000 4.225695e+000 4.781809e+000 5.540486e+000 6.012052e+000 5.522556e+000 5.836315e+000 5.677453e+000 4.576255e+000 4.424136e+000 3.348702e+000 3.115250e+000 3.419914e-001 4.761322e-001 4.411167e-001 5.695798e-001 6.787238e-001 7.128306e-001 6.490014e-001 8.488187e-001 8.818333e-001 6.664106e-001 5.339233e-001 4.786749e-001 2.929009e-001
<GCONST> 1.339719e+002
<MIXTURE> 2 5.040511e-001
<MEAN> 39
 -1.383395e+000 -5.504748e+000 2.231270e+000 -8.515606e+000 -8.818398e+000 -8.068031e+000 -1.066043e+001 -7.342356e-001 -4.133385e+000 -5.708406e+000 -8.078578e+000 -5.125754e+000 7.215719e+001 -4.822735e-001 -2.570389e+000 -1.317020e+000 -2.397506e+000 8.241931e-001 1.671795e+000 -1.009475e+000 2.976128e+000 6.406747e-001 -1.231754e+000 4.313354e-001 6.456956e-002 2.111854e+000 2.739711e-002 2.703492e-001 -9.414009e-002 1.239195e-001 1.127108e-002 2.995898e-001 3.694056e-001 -2.724380e-001 -2.293992e-001 3.046094e-001 3.017016e-002 1.552976e-002 -3.015739e-001
<VARIANCE> 39
 1.496325e+001 4.091220e+001 4.144662e+001 4.929808e+001 5.940149e+001 6.853526e+001 6.611672e+001 6.422626e+001 6.355152e+001 5.275291e+001 5.549226e+001 3.512243e+001 3.812164e+001 1.130262e+000 2.997580e+000 4.303469e+000 3.348825e+000 5.129700e+000 5.406322e+000 4.488951e+000 5.280225e+000 6.428734e+000 5.223258e+000 4.978485e+000 3.593851e+000 1.407563e+000 1.844160e-001 5.036178e-001 4.179507e-001 5.818616e-001 7.090082e-001 7.091168e-001 6.547365e-001 9.031810e-001 7.490854e-001 7.456393e-001 6.298496e-001 5.237546e-001 2.306558e-001
<GCONST> 1.306703e+002
<TRANSP> 5
 0.000000e+000 1.000000e+000 0.000000e+000 0.000000e+000 0.000000e+000
 0.000000e+000 5.027094e-001 4.972906e-001 0.000000e+000 0.000000e+000
 0.000000e+000 0.000000e+000 4.841111e-001 5.158889e-001 0.000000e+000
 0.000000e+000 0.000000e+000 0.000000e+000 3.639635e-001 6.360365e-001
 0.000000e+000 0.000000e+000 0.000000e+000 0.000000e+000 0.000000e+000
<ENDHMM>
~h "o"
<BEGINHMM>
<NUMSTATES> 5
<STATE> 2
<NUMMIXES> 2
<MIXTURE> 1 5.163388e-001
<MEAN> 39
 3.325277e-001 -1.879789e+000 -2.225804e+000 -1.232984e+001 -7.706291e+000 1.188070e-001 -8.789490e+000 -5.068192e+000 -1.609387e+000 2.135348e+000 1.173578e+000 -2.759274e+000 6.891698e+001 1.632356e+000 8.169799e-002 -1.689070e-001 -1.974964e+000 -1.084219e+000 1.380015e+000 -8.270629e-001 -5.751824e-001 -6.864761e-001 2.078691e-001 8.639208e-001 -1.387398e-001 4.805761e-001 -4.328307e-001 1.417878e-001 1.781325e-001 4.857390e-001 3.689974e-001 -4.378036e-002 3.927140e-001 1.205590e-001 -9.219411e-002 -8.964668e-002 -3.123312e-003 1.478960e-001 -3.992457e-001
<VARIANCE> 39
