~o
<STREAMINFO> 1 39
<VECSIZE> 39<NULLD><MFCC_D_A_0><DIAGC>
~h "a"
<BEGINHMM>
<NUMSTATES> 5
<STATE> 2
<NUMMIXES> 16
<MIXTURE> 1 5.815232e-002
<MEAN> 39
 2.413130e+000 -1.120935e+001 -2.190088e+000 -6.826922e+000 -8.755562e+000 1.401252e-001 -9.416410e+000 1.640247e-001 8.656797e+000 4.041447e-001 -7.014257e-001 -1.175689e+001 7.913248e+001 1.261372e+000 -1.914788e+000 -4.365309e-001 -7.754888e-001 -4.295447e-001 1.678440e+000 -4.183278e-001 4.920966e-001 3.527856e-001 -5.707552e-001 4.298406e-001 -1.372004e+000 6.196629e-001 -8.886938e-001 1.160690e+000 2.696324e-001 5.860144e-001 7.087451e-001 -4.076231e-001 6.486049e-001 -2.358313e-001 -8.194368e-001 1.316580e-001 1.408166e-001 1.032857e+000 -9.060217e-001
<VARIANCE> 39
 1.091887e+001 2.844489e+001 2.182992e+001 2.990416e+001 3.031578e+001 4.483520e+001 4.291464e+001 3.879578e+001 2.727476e+001 5.492100e+001 4.547416e+001 2.100593e+001 2.743182e+001 1.348765e+000 1.614577e+000 1.757173e+000 1.657682e+000 2.867916e+000 3.295854e+000 2.671524e+000 3.401175e+000 2.578871e+000 2.800292e+000 2.737201e+000 2.305537e+000 7.350048e-001 4.166125e-001 3.685924e-001 3.249968e-001 3.685564e-001 5.733678e-001 5.204661e-001 5.677420e-001 6.957778e-001 5.090528e-001 6.777630e-001 6.189655e-001 4.794473e-001 2.491332e-001
<GCONST> 1.160239e+002
<MIXTURE> 2 5.200439e-002
<MEAN> 39
 -1.163754e+001 -1.174818e+001 1.383617e+000 -1.265884e+001 1.795522e+000 1.264071e+000 -2.211467e+000 2.881156e+000 4.281836e-001 1.501300e+000 -1.063683e+000 -2.228806e+000 6.051299e+001 -1.006851e-001 3.970514e-001 -4.101053e-001 4.485620e-001 1.772198e-001 5.163628e-002 2.149418e-001 -3.978106e-002 -5.104038e-002 2.017206e-002 -1.763089e-001 -9.908654e-003 -4.434511e-001 1.221926e-001 2.270962e-001 1.433908e-001 1.755968e-001 -2.579623e-001 -1.666870e-003 -1.170619e-001 -6.034169e-002 -1.167095e-001 -7.049605e-002 1.324466e-001 8.081440e-003 -1.240957e-001
<VARIANCE> 39
 1.064703e+002 1.247432e+002 1.453878e+002 1.504386e+002 1.443288e+002 1.880549e+002 1.252569e+002 1.030121e+002 1.055908e+002 7.036604e+001 7.504233e+001 6.259827e+001 2.062582e+002 2.717965e+000 3.355309e+000 3.782977e+000 3.745669e+000 5.457606e+000 5.845077e+000 4.630203e+000 4.100664e+000 4.674061e+000 3.464937e+000 3.416814e+000 2.657073e+000 4.589530e+000 3.897412e-001 6.178209e-001 6.851841e-001 7.963356e-001 9.598593e-001 9.491795e-001 8.454615e-001 7.780554e-001 9.824749e-001 7.406628e-001 6.592387e-001 5.607202e-001 4.066058e-001
<GCONST> 1.465632e+002
<MIXTURE> 3 8.013191e-002
<MEAN> 39
 1.518728e+000 -8.042917e+000 -2.086529e+000 -1.797566e+001 1.115435e+000 -2.394227e+000 -6.815021e+000 3.097489e+000 -1.232116e+000 8.741991e+000 -7.976885e+000 -5.115490e+000 7.525260e+001 1.753030e-001 -6.297975e-001 -2.766937e-001 -1.061762e+000 9.763052e-001 1.748928e-001 2.695832e-001 4.146652e-001 -2.699063e-001 5.939557e-001 -8.440027e-001 -1.169879e-001 4.566092e-001 -4.627008e-001 7.200454e-001 2.027770e-001 1.145853e+000 -2.943809e-001 -7.947426e-002 3.217269e-001 -5.556604e-001 2.934456e-001 -7.349632e-001 6.854450e-001 2.309995e-001 -6.684572e-001
<VARIANCE> 39
 1.158337e+001 3.084662e+001 2.579385e+001 6.501064e+001 3.202202e+001 5.654817e+001 5.777331e+001 4.537492e+001 4.239191e+001 3.275470e+001 3.412799e+001 2.509948e+001 1.981414e+001 8.571954e-001 1.712163e+000 1.533515e+000 2.695087e+000 2.400730e+000 2.926568e+000 3.005037e+000 2.744650e+000 2.705900e+000 2.351140e+000 2.390381e+000 1.616199e+000 6.812494e-001 3.098723e-001 3.596480e-001 3.126831e-001 5.406802e-001 4.323302e-001 5.260125e-001 6.268595e-001 5.493963e-001 6.130105e-001 4.570440e-001 4.178170e-001 3.342987e-001 1.869345e-001
<GCONST> 1.145726e+002
<MIXTURE> 4 7.458062e-002
<MEAN> 39
 1.639030e+000 -6.441416e+000 -5.776317e+000 -8.537058e+000 -5.071570e+000 1.185822e+000 -5.246840e+000 -2.722725e+000 1.560737e+000 6.175273e+000 -1.775128e+000 -8.759819e+000 7.054356e+001 2.864222e+000 -2.117438e+000 -2.400469e-001 -1.844954e+000 -1.739348e+000 1.335788e+000 -1.232736e+000 -1.814729e-001 -2.261313e-001 5.932120e-001 4.135460e-002 -1.779770e+000 2.189429e+000 -8.649578e-001 2.561134e-001 3.074705e-001 4.838974e-001 2.598808e-001 -1.549014e-001 2.533742e-001 3.883922e-001 1.161593e-001 -2.648190e-001 2.692183e-001 6.596518e-001 -6.223820e-001
<VARIANCE> 39
 1.838171e+001 3.505102e+001 2.517479e+001 6.113796e+001 5.125880e+001 6.269507e+001 4.631111e+001 3.748944e+001 3.367306e+001 3.270845e+001 4.050981e+001 2.288041e+001 6.803349e+001 2.639269e+000 3.236921e+000 2.685454e+000 3.696651e+000 3.999880e+000 4.005333e+000 3.910100e+000 3.636275e+000 3.442285e+000 3.517130e+000 3.340339e+000 3.709821e+000 1.901984e+000 4.404411e-001 5.249048e-001 4.286125e-001 5.540242e-001 6.665188e-001 5.954638e-001 5.848031e-001 5.037137e-001 5.515609e-001 4.789946e-001 5.402300e-001 4.418466e-001 4.418075e-001
<GCONST> 1.259686e+002
<MIXTURE> 5 9.461080e-002
<MEAN> 39
 3.730764e+000 -1.007583e+001 -4.598876e+000 -1.314495e+001 -8.987701e+000 8.333094e+000 -7.539022e+000 -3.232722e+000 1.002621e+000 2.635941e+000 6.883245e-001 -7.552240e+000 7.308887e+001 -7.573148e-002 -1.032421e+000 -1.876145e-001 -1.292294e-001 5.962235e-001 3.159841e-001 -4.530160e-001 6.612261e-001 5.970088e-001 2.757258e-001 -6.664562e-001 -1.047470e+000 6.543490e-001 -2.545467e-001 6.185299e-001 3.387929e-001 5.609616e-001 1.991030e-001 -6.539638e-001 4.516717e-002 -8.309566e-002 -2.214643e-001 -4.323222e-002 -1.154071e-001 2.535686e-001 -4.065120e-001
<VARIANCE> 39
 1.562807e+001 4.433372e+001 3.065128e+001 8.282217e+001 6.033715e+001 6.732847e+001 6.037414e+001 4.760658e+001 4.063102e+001 5.039198e+001 5.365633e+001 3.219130e+001 5.059789e+001 4.216757e-001 1.167543e+000 1.303494e+000 1.843067e+000 1.915562e+000 2.485277e+000 2.350573e+000 2.103081e+000 2.280047e+000 2.077270e+000 2.012955e+000 1.683707e+000 5.449399e-001 1.128767e-001 2.291128e-001 2.352459e-001 4.488930e-001 4.144121e-001 4.529423e-001 4.338001e-001 4.505812e-001 4.372655e-001 4.190949e-001 3.464316e-001 3.238075e-001 1.090031e-001
<GCONST> 1.115188e+002
<MIXTURE> 6 6.018374e-002
<MEAN> 39
 -8.054294e-001 -1.013894e+001 -6.503163e+000 -9.994391e+000 -1.126955e+001 -4.465537e+000 -6.776551e+000 6.620477e+000 -7.550823e+000 -3.427687e+000 -1.456775e+001 -4.415165e-001 7.522730e+001 7.140986e-001 -1.333863e+000 -1.066328e+000 -2.951128e-001 5.080801e-001 8.470446e-001 -3.700029e-001 7.433234e-001 -1.428304e+000 6.139430e-002 -1.422702e+000 -1.532981e-004 5.053715e-001 -7.050700e-001 1.013139e+000 7.332013e-001 6.380666e-001 6.959012e-001 -1.009165e-001 4.570858e-001 -8.436630e-001 7.062034e-001 2.629886e-001 1.191025e+000 -8.665069e-002 -8.215502e-001
<VARIANCE> 39
 1.042778e+001 3.328530e+001 3.256347e+001 3.255587e+001 4.372133e+001 3.760652e+001 4.864645e+001 3.515998e+001 5.140410e+001 3.301850e+001 2.992571e+001 4.064013e+001 2.544035e+001 1.176355e+000 1.664702e+000 2.636491e+000 2.128427e+000 4.146389e+000 3.121749e+000 3.013822e+000 2.809027e+000 3.509036e+000 3.096165e+000 3.072036e+000 2.840907e+000 8.257556e-001 4.060217e-001 5.184947e-001 4.044878e-001 5.559784e-001 7.111527e-001 7.396816e-001 7.559463e-001 6.593706e-001 8.306959e-001 6.898579e-001 8.238929e-001 5.783483e-001 2.761779e-001
<GCONST> 1.215994e+002
<MIXTURE> 7 5.947097e-002
<MEAN> 39
 -1.141998e+000 -1.329376e+001 -9.255555e+000 -1.557417e+001 -8.447765e-001 1.514422e+000 -7.336453e+000 -2.098276e+000 -3.043694e+000 4.222883e-001 -9.206981e+000 -8.222167e+000 7.710747e+001 1.389901e+000 -1.692037e+000 -8.352773e-001 -1.722308e+000 -4.850191e-001 8.557343e-002 -1.188558e+000 -6.859959e-002 -8.916590e-001 -2.774488e-001 -1.809651e+000 -1.375041e+000 2.873125e+000 -6.851281e-001 1.459006e+000 8.513857e-001 1.437623e+000 -1.215254e-002 -3.479056e-001 7.193543e-001 3.431768e-001 5.888005e-001 -4.885209e-002 8.637576e-001 8.224254e-001 -1.907964e+000
<VARIANCE> 39
 1.577722e+001 3.539198e+001 2.757253e+001 4.196575e+001 4.475855e+001 6.467413e+001 6.414254e+001 5.553342e+001 5.780334e+001 5.709820e+001 5.314083e+001 4.017619e+001 3.520296e+001 1.596254e+000 3.914971e+000 2.733470e+000 3.683807e+000 3.538794e+000 4.752042e+000 3.347749e+000 4.397097e+000 3.892930e+000 3.923805e+000 3.818735e+000 2.877603e+000 4.536542e+000 4.425372e-001 6.382139e-001 5.028844e-001 6.423900e-001 8.188435e-001 9.105963e-001 9.318879e-001 9.363261e-001 1.095806e+000 1.046697e+000 8.664039e-001 6.405730e-001 6.048204e-001
<GCONST> 1.330441e+002
<MIXTURE> 8 4.545337e-002
<MEAN> 39
 -7.977162e+000 -2.558608e+000 -6.095322e+000 -2.983341e+000 -2.781193e+000 1.151617e+000 -2.861044e+000 1.572919e+000 2.347569e+000 2.222814e+000 -2.753087e+000 -5.111634e+000 5.462133e+001 2.832706e-001 -5.088829e-001 -4.447617e-001 -4.379330e-001 5.610180e-001 8.894849e-001 2.180526e-002 -1.754555e-001 -3.609408e-001 1.416755e-001 -1.048059e-001 -6.415662e-001 4.394545e-001 2.175898e-001 -2.677987e-001 1.236521e-001 -2.881437e-001 -1.912824e-001 -1.544506e-002 -2.839954e-001 -2.989453e-002 -8.911048e-002 -2.148218e-002 3.102649e-002 -6.799408e-002 5.102819e-001
<VARIANCE> 39
 3.763329e+001 2.769364e+001 2.242904e+001 6.850333e+001 4.942406e+001 4.172881e+001 4.179398e+001 3.625872e+001 3.640068e+001 5.014469e+001 3.953748e+001 3.920677e+001 1.279380e+002 1.185149e+000 1.688770e+000 1.744895e+000 2.207909e+000 2.163498e+000 2.427675e+000 2.543063e+000 2.368624e+000 2.704202e+000 2.362889e+000 2.174083e+000 2.522063e+000 1.639389e+000 1.821148e-001 2.569194e-001 2.888696e-001 3.793221e-001 3.824590e-001 3.656589e-001 4.380492e-001 4.443503e-001 4.669469e-001 4.124801e-001 4.120447e-001 4.035807e-001 2.544850e-001
<GCONST> 1.164867e+002
<MIXTURE> 9 7.503714e-002
<MEAN> 39
 -4.883212e-001 -8.988787e+000 -8.874103e+000 -1.380402e+001 -6.524449e+000 5.731361e+000 -1.185895e+001 -1.077446e+000 -3.089785e-001 -1.232112e+000 1.633361e+000 -1.309531e+001 7.294291e+001 -4.008442e-001 -1.037640e+000 -4.018904e-001 -1.028637e-001 9.543623e-001 6.008480e-002 -2.025049e-001 7.512382e-001 6.608846e-001 2.035544e-004 -8.562305e-001 -1.080623e+000 9.542958e-001 -7.155861e-002 5.229700e-001 5.605653e-001 5.532039e-001 -4.662239e-002 -6.353891e-001 1.876178e-001 -2.743612e-001 -1.990549e-001 8.113676e-002 -3.590928e-001 7.574505e-001 -5.191092e-001
<VARIANCE> 39
 2.208689e+001 3.054046e+001 3.630256e+001 6.075076e+001 3.877745e+001 6.594106e+001 5.738629e+001 5.100122e+001 6.939761e+001 5.750583e+001 7.945007e+001 3.181385e+001 3.621155e+001 5.287994e-001 1.214307e+000 1.641190e+000 2.605396e+000 2.133708e+000 3.140390e+000 2.684015e+000 3.068601e+000 2.963331e+000 2.381846e+000 2.711146e+000 2.312674e+000 6.940405e-001 1.418589e-001 2.200096e-001 3.022018e-001 4.730556e-001 4.541194e-001 4.712417e-001 4.448883e-001 5.425971e-001 5.915896e-001 5.493032e-001 5.049773e-001 4.335965e-001 1.596480e-001
<GCONST> 1.170268e+002
<MIXTURE> 10 9.469901e-002
<MEAN> 39
 -1.337803e+000 -1.026012e+001 -9.413100e+000 -1.432444e+001 -1.100175e+000 -1.673860e+000 -1.004865e+001 -4.314462e-001 -1.635603e+000 -3.079706e+000 -1.291399e+001 -5.958524e+000 7.756227e+001 -3.068987e-001 -1.089160e+000 -6.632143e-001 -2.928292e-002 8.700996e-001 4.135809e-001 3.899514e-001 4.526483e-001 2.098064e-001 -7.724211e-001 -8.436568e-001 2.749553e-001 7.814957e-001 -3.785675e-002 8.113105e-001 7.377508e-001 6.597649e-001 -4.089282e-001 -4.225690e-001 2.050944e-001 -5.302252e-001 -1.684097e-001 1.591789e-001 5.901955e-001 1.625898e-001 -6.937729e-001
<VARIANCE> 39
 9.954717e+000 2.816273e+001 2.618412e+001 4.393243e+001 4.107268e+001 6.589999e+001 6.072022e+001 4.973621e+001 4.428745e+001 6.076713e+001 3.078080e+001 2.722814e+001 2.393567e+001 5.854060e-001 1.207273e+000 1.900915e+000 1.973292e+000 2.368924e+000 3.274706e+000 2.785570e+000 3.423405e+000 2.625759e+000 2.828301e+000 2.376216e+000 2.556164e+000 5.679147e-001 1.876935e-001 2.465481e-001 3.406725e-001 4.516022e-001 4.194908e-001 6.049483e-001 5.022168e-001 6.451359e-001 5.701981e-001 7.043048e-001 5.183822e-001 3.836015e-001 1.356248e-001
<GCONST> 1.146351e+002
<MIXTURE> 11 6.398638e-002
<MEAN> 39
 -6.061614e-001 -7.419232e+000 -6.108232e+000 -1.293695e+001 -4.570926e+000 -5.167692e+000 -5.520638e+000 -2.777546e+000 7.300166e-001 -9.938574e-002 -2.945633e+000 -8.444283e+000 7.263586e+001 2.726263e+000 -2.439091e+000 -1.028310e+000 -3.056699e+000 -5.083664e-001 6.146896e-001 -1.214701e+000 -7.491475e-002 -2.803462e-001 -4.297183e-002 -6.685458e-001 -2.498477e+000 2.859313e+000 -8.879902e-001 1.577411e-001 3.031838e-001 7.614639e-001 3.721104e-001 2.499885e-001 3.316657e-001 3.148773e-001 7.419301e-002 9.407999e-002 1.796257e-001 5.391960e-001 -8.373754e-001
<VARIANCE> 39
 2.241422e+001 2.717740e+001 3.923616e+001 5.781507e+001 5.157233e+001 1.344241e+002 1.003218e+002 5.937083e+001 5.426641e+001 4.161225e+001 7.673822e+001 3.393434e+001 4.369993e+001 2.367920e+000 3.370385e+000 4.542789e+000 3.555533e+000 5.339135e+000 8.944740e+000 6.810226e+000 5.703183e+000 5.345590e+000 4.739807e+000 5.927011e+000 3.903661e+000 3.367918e+000 4.266842e-001 4.259864e-001 5.703558e-001 6.505070e-001 6.398060e-001 1.258593e+000 7.837799e-001 6.966481e-001 7.574923e-001 6.395080e-001 9.636716e-001 5.045133e-001 5.796319e-001
<GCONST> 1.371799e+002
<MIXTURE> 12 5.986994e-002
<MEAN> 39
 -3.076902e+000 -1.344853e+001 -2.984328e+000 -1.677890e+001 -6.820470e+000 -1.177538e+001 -4.759179e+000 5.271879e+000 -3.585730e+000 -5.658364e+000 -1.458881e+001 4.391157e-002 8.021581e+001 9.093207e-001 -2.095443e+000 -9.056081e-001 -1.500233e+000 8.407527e-001 5.951953e-001 -3.157152e-001 5.660043e-001 -9.492887e-001 -3.906821e-001 -2.157848e+000 -2.359797e-001 9.114070e-001 -4.892904e-001 1.071116e+000 1.924200e-001 1.168696e+000 2.484496e-001 5.371289e-001 1.621579e-001 -7.417701e-001 2.566644e-001 4.112124e-001 1.030354e+000 -1.812291e-001 -1.005174e+000
<VARIANCE> 39
 9.180467e+000 3.481683e+001 2.768786e+001 2.288550e+001 5.876566e+001 3.565067e+001 5.195647e+001 4.483935e+001 4.264076e+001 3.556033e+001 2.836411e+001 2.726593e+001 1.653683e+001 1.508956e+000 2.240561e+000 2.426841e+000 3.651782e+000 4.144078e+000 3.655140e+000 4.095124e+000 3.370715e+000 4.174086e+000 3.082397e+000 3.766912e+000 2.856471e+000 1.021928e+000 4.738002e-001 5.559142e-001 3.790838e-001 5.365591e-001 8.761907e-001 7.508547e-001 7.700161e-001 7.321125e-001 6.317303e-001 6.447255e-001 6.991075e-001 4.463200e-001 3.974817e-001
<GCONST> 1.228678e+002
<MIXTURE> 13 7.476758e-002
<MEAN> 39
 -1.945665e-001 -1.153927e+001 6.082791e-001 -8.561345e+000 -1.043766e+001 -4.557153e+000 -1.539344e+001 6.855963e+000 3.107740e+000 3.142828e+000 -2.296177e+000 -9.785698e+000 7.458097e+001 1.229463e+000 -1.742748e+000 -5.606479e-001 -1.609224e+000 -2.693964e-001 1.503658e+000 -1.007006e+000 1.357183e+000 -1.288551e-001 6.762787e-001 -2.127815e-001 -1.672473e+000 1.042668e+000 -7.364522e-001 7.567971e-001 -1.282062e-001 5.305787e-001 7.060761e-001 6.917594e-002 1.093487e+000 -8.143610e-001 -3.039763e-001 -1.391639e-001 9.153511e-002 6.948723e-001 -7.625734e-001
<VARIANCE> 39
 1.722428e+001 4.847587e+001 3.596991e+001 5.510376e+001 4.282375e+001 5.240670e+001 3.860620e+001 4.423064e+001 4.640345e+001 4.534427e+001 4.261203e+001 2.594071e+001 4.688172e+001 1.424643e+000 1.953498e+000 2.650327e+000 2.141529e+000 3.697811e+000 3.551377e+000 3.621150e+000 3.775086e+000 3.347151e+000 2.938873e+000 2.695600e+000 2.561512e+000 9.799238e-001 3.294411e-001 4.904677e-001 4.479123e-001 4.488013e-001 5.695443e-001 7.208166e-001 5.523635e-001 6.475632e-001 7.020005e-001 5.636593e-001 5.618832e-001 4.503222e-001 1.981784e-001
<GCONST> 1.225454e+002
<MIXTURE> 14 3.632069e-002
<MEAN> 39
 -3.328834e+000 -1.242553e+001 -6.506806e+000 -1.161767e+001 5.527034e-001 -5.950075e-001 -6.187089e+000 7.670194e-001 -3.244178e+000 -1.786216e+000 -9.709847e+000 -1.512372e+000 7.267949e+001 2.513875e+000 -3.508293e+000 -1.673270e+000 -3.431640e+000 -5.755695e-001 -1.729037e-001 -2.884976e+000 -6.254317e-001 -2.883063e+000 -1.053238e+000 -3.839407e+000 -1.683565e+000 5.458924e+000 -3.653437e-001 9.404893e-001 3.278883e-001 5.671982e-001 -3.312047e-001 -5.070869e-002 6.040359e-001 2.013224e-001 5.213383e-001 1.638374e-001 6.259772e-001 5.719867e-003 -1.007912e+000
<VARIANCE> 39
 1.374366e+001 4.731683e+001 2.953383e+001 3.955220e+001 5.558939e+001 5.566937e+001 4.149647e+001 4.304257e+001 4.048512e+001 3.982236e+001 3.084876e+001 4.252502e+001 4.443995e+001 2.182525e+000 3.844564e+000 3.448155e+000 4.130147e+000 5.943141e+000 5.047210e+000 4.164191e+000 5.294320e+000 4.994645e+000 4.723048e+000 3.779187e+000 3.954378e+000 5.345661e+000 3.978508e-001 9.203114e-001 4.663925e-001 6.229538e-001 8.965647e-001 6.950885e-001 6.796135e-001 7.457913e-001 7.896529e-001 7.212113e-001 6.836753e-001 5.590838e-001 8.486723e-001
<GCONST> 1.328387e+002
<MIXTURE> 15 4.104176e-002
<MEAN> 39
 -8.639906e+000 -1.730060e+000 -4.855767e+000 -4.896557e+000 -5.309006e+000 -8.789840e-001 -5.385576e+000 -4.176843e-001 1.046482e+000 1.520561e+000 -1.341599e+000 -3.692480e+000 5.405371e+001 1.015675e+000 -2.258415e+000 -9.022365e-001 -1.550537e+000 1.548219e+000 1.774235e+000 -4.879673e-001 -1.901039e-001 -1.741295e-001 1.244713e-001 -8.392785e-001 -1.379059e+000 2.474465e+000 4.985015e-001 -7.591736e-001 1.429575e-001 -7.236826e-001 3.706910e-003 2.648084e-001 -2.798814e-001 2.823722e-002 -2.889643e-001 -4.879102e-002 -1.798679e-001 -3.334889e-001 1.277553e+000
<VARIANCE> 39
 4.629308e+001 5.737580e+001 5.681230e+001 7.990323e+001 8.379490e+001 9.866296e+001 6.582985e+001 5.725613e+001 6.914738e+001 6.159637e+001 5.953668e+001 4.725999e+001 1.244839e+002 4.939751e+000 6.537433e+000 5.979807e+000 7.393138e+000 7.013091e+000 8.605748e+000 5.960442e+000 6.361533e+000 6.531919e+000 6.032844e+000 5.513742e+000 5.422889e+000 8.741846e+000 5.318120e-001 9.353535e-001 8.068972e-001 9.029163e-001 1.200945e+000 1.321327e+000 9.574627e-001 9.114720e-001 1.096028e+000 9.447505e-001 9.098311e-001 8.993648e-001 9.711760e-001
<GCONST> 1.497153e+002
<MIXTURE> 16 2.965636e-002
<MEAN> 39
 -2.538882e+001 2.077567e+000 -1.024964e+001 3.953117e+000 -7.467430e+000 4.984325e+000 -4.319792e+000 1.194537e+000 1.033647e+000 -1.736824e+000 7.403696e-001 -3.463131e-001 2.661357e+001 -4.079326e-002 4.877729e-002 -2.275315e-002 7.986247e-002 -9.601123e-002 2.555620e-002 -9.265351e-002 -1.011973e-001 2.949947e-002 -3.527082e-002 2.752509e-002 -3.886455e-002 -9.993180e-002 1.215174e-002 -1.591498e-002 1.820179e-002 -3.138383e-002 2.511315e-002 3.515104e-003 2.012793e-002 3.044090e-002 7.145832e-003 2.477281e-002 -9.266493e-003 -7.775650e-003 3.355222e-002
<VARIANCE> 39
 1.941975e+001 5.260186e+000 9.444164e+000 9.347335e+000 1.130129e+001 1.267392e+001 1.313571e+001 1.468372e+001 1.692350e+001 1.369947e+001 1.196796e+001 1.182652e+001 2.054533e+001 1.185562e-001 2.283317e-001 4.652264e-001 6.945055e-001 8.683041e-001 1.050164e+000 1.326828e+000 1.374176e+000 1.495183e+000 1.207749e+000 1.157195e+000 1.260768e+000 8.545343e-002 1.990045e-002 3.901254e-002 8.465911e-002 1.130107e-001 1.507303e-001 1.633083e-001 2.639035e-001 2.563502e-001 2.796025e-001 2.410500e-001 2.341972e-001 2.552424e-001 1.120610e-002
<GCONST> 7.049655e+001
<STATE> 3
<NUMMIXES> 16
<MIXTURE> 1 3.921834e-002
<MEAN> 39
 3.332698e+000 -1.137977e+001 -3.213307e+000 -9.517319e+000 -5.554075e+000 1.557029e+000 -6.371916e+000 -1.477414e+000 5.678788e+000 -5.284229e-002 3.588408e+000 -1.293409e+001 7.678247e+001 2.566053e-002 1.031340e+000 3.696860e-002 2.973891e-001 1.049926e+000 -2.275223e-001 1.854794e-001 -6.320315e-002 -6.385064e-001 5.626785e-001 1.323100e-001 2.548352e-001 -7.500537e-001 -1.103127e+000 1.522837e+000 2.581679e-001 9.259211e-001 6.749229e-001 -5.582108e-001 5.554921e-001 3.191243e-002 -3.534560e-001 3.463090e-001 -4.067960e-001 1.233162e+000 -1.170040e+000
<VARIANCE> 39
 1.259951e+001 2.655107e+001 2.172261e+001 4.333765e+001 2.762090e+001 5.098759e+001 5.003145e+001 4.685234e+001 4.678083e+001 7.244865e+001 4.512140e+001 2.347775e+001 4.088371e+001 9.883178e-001 2.268979e+000 1.585194e+000 1.943152e+000 2.890591e+000 3.238860e+000 2.841710e+000 3.692248e+000 2.522774e+000 2.877091e+000 3.435575e+000 2.256391e+000 1.594852e+000 4.875366e-001 3.605961e-001 3.168617e-001 5.609186e-001 4.981771e-001 5.555912e-001 7.457585e-001 7.763703e-001 7.887520e-001 9.488938e-001 6.351727e-001 4.808047e-001 4.275648e-001
<GCONST> 1.215460e+002
<MIXTURE> 2 6.902835e-002
<MEAN> 39
 3.712094e+000 -9.604668e+000 -4.131791e+000 -6.739879e+000 -8.130818e+000 3.419364e+000 -1.178476e+001 2.389170e+000 4.130851e+000 1.477281e+000 1.570749e+000 -1.268892e+001 7.592814e+001 1.157019e-001 4.247544e-001 4.449286e-002 9.920304e-002 2.831207e-001 1.158819e-001 1.673629e-001 -3.437414e-001 -4.524301e-001 2.459765e-001 2.177238e-001 2.796138e-001 -4.389077e-001 -3.290323e-001 8.540075e-001 3.540164e-001 4.340404e-001 2.845522e-001 -5.261739e-001 4.422024e-001 -5.800066e-001 -2.989866e-001 1.779539e-001 -7.348670e-002 7.997937e-001 -6.056514e-001
<VARIANCE> 39
 8.823468e+000 3.093301e+001 2.384453e+001 5.587203e+001 2.962890e+001 5.062271e+001 5.363411e+001 3.141341e+001 3.120575e+001 3.701395e+001 3.661850e+001 2.076834e+001 5.080543e+001 3.425962e-001 9.707124e-001 1.265576e+000 1.370973e+000 1.931746e+000 2.437780e+000 1.986408e+000 2.134582e+000 1.720920e+000 1.771018e+000 2.071561e+000 1.436532e+000 3.464889e-001 1.221879e-001 2.012165e-001 2.163033e-001 2.573454e-001 3.377850e-001 3.369606e-001 4.248424e-001 3.939139e-001 3.599418e-001 3.052998e-001 3.198068e-001 2.764943e-001 1.186054e-001
<GCONST> 1.031062e+002
<MIXTURE> 3 7.656626e-002
<MEAN> 39
 -5.778309e-001 -8.899916e+000 -6.512767e+000 -1.520306e+001 2.905741e+000 -4.262223e+000 -8.218558e-002 -6.218743e+000 3.534303e+000 -9.810985e-001 -7.528150e+000 -6.129572e+000 7.811838e+001 3.051363e-001 1.030790e+000 3.349915e-001 6.504257e-001 -1.584106e-001 -4.878545e-002 -7.025908e-002 -1.391381e-001 -1.020131e-001 2.253807e-001 5.078918e-001 1.399332e-001 -8.508303e-001 -1.755536e-001 7.880207e-001 4.338607e-001 1.000631e+000 -4.631080e-001 2.350867e-001 -3.887124e-001 4.179509e-001 -3.511235e-001 1.133909e-001 5.055839e-001 2.010861e-001 -9.756520e-001
<VARIANCE> 39
 1.303193e+001 2.151715e+001 2.269744e+001 4.990525e+001 3.245116e+001 8.880540e+001 4.134306e+001 3.802908e+001 3.871585e+001 7.419746e+001 4.800365e+001 3.489728e+001 3.596107e+001 8.597254e-001 1.762157e+000 1.470755e+000 2.483027e+000 2.613627e+000 3.205506e+000 3.121292e+000 2.834004e+000 2.683633e+000 2.641805e+000 2.521570e+000 1.707453e+000 1.517278e+000 2.867098e-001 2.970127e-001 3.207716e-001 4.463862e-001 4.096068e-001 6.015497e-001 4.514408e-001 4.797462e-001 5.939404e-001 5.731006e-001 4.289775e-001 4.149010e-001 3.128778e-001
<GCONST> 1.171899e+002
<MIXTURE> 4 5.079384e-002
<MEAN> 39
 2.700339e-001 -8.507029e+000 -6.225338e+000 -1.381403e+001 -2.936517e+000 -2.873425e+000 -7.862481e+000 1.928506e+000 -5.476077e+000 2.244951e+000 -1.323380e+001 -2.229867e+000 7.412044e+001 -2.034829e-001 2.152864e+000 4.065516e-001 1.196355e+000 5.762141e-001 -5.164503e-001 7.831889e-001 -7.836283e-001 6.235459e-001 -4.782890e-001 4.955198e-001 1.688015e-001 -1.308258e+000 -9.499924e-001 1.092491e+000 6.090332e-001 1.251872e+000 1.887161e-001 3.912708e-002 9.214248e-001 -1.895072e-001 9.742761e-001 -3.004035e-001 1.427852e+000 5.883582e-002 -1.129199e+000
<VARIANCE> 39
 1.122722e+001 3.958141e+001 4.318195e+001 5.778753e+001 6.134929e+001 6.567495e+001 5.967100e+001 5.193844e+001 4.963458e+001 7.749953e+001 3.852523e+001 4.704659e+001 2.613362e+001 1.155114e+000 2.307983e+000 2.223861e+000 2.911670e+000 3.853894e+000 3.520592e+000 3.585507e+000 3.047785e+000 3.454374e+000 3.379867e+000 3.256167e+000 2.277922e+000 1.533937e+000 4.528126e-001 5.860179e-001 6.130584e-001 7.089387e-001 9.716502e-001 8.578994e-001 9.665484e-001 8.594748e-001 9.205506e-001 1.028088e+000 6.729952e-001 7.132050e-001 6.004920e-001
<GCONST> 1.298671e+002
<MIXTURE> 5 8.133680e-002
<MEAN> 39
 2.972625e+000 -1.038175e+001 -5.829432e+000 -1.465413e+001 -4.039435e+000 4.940988e+000 -8.920269e+000 2.075732e+000 -2.211997e+000 3.137092e+000 -3.259570e+000 -8.493495e+000 7.499203e+001 -5.832724e-002 1.730000e-001 -7.517267e-003 -6.627404e-002 3.091929e-001 1.232836e-001 2.631494e-002 -1.227592e-001 -1.020536e-001 4.556385e-002 -1.433203e-001 1.612707e-001 -1.788368e-001 -3.458453e-002 2.720387e-001 1.910352e-001 2.060126e-001 -1.497610e-001 -2.337777e-001 -7.391964e-002 -1.592104e-001 1.509915e-001 -8.154557e-002 1.017074e-001 1.599135e-001 -1.877499e-001
<VARIANCE> 39
 1.294886e+001 3.933423e+001 2.617471e+001 9.674960e+001 3.933158e+001 5.255951e+001 7.421776e+001 3.326578e+001 4.240971e+001 3.487303e+001 5.889577e+001 3.233429e+001 3.352170e+001 2.430668e-001 6.561049e-001 6.343479e-001 9.676827e-001 1.221240e+000 1.408034e+000 1.323629e+000 1.207147e+000 1.244883e+000 1.195139e+000 1.178745e+000 1.029982e+000 2.629366e-001 4.043080e-002 1.071327e-001 1.109948e-001 1.776038e-001 1.890680e-001 2.105843e-001 2.210523e-001 2.152458e-001 1.910565e-001 1.694889e-001 1.902529e-001 1.527196e-001 4.395690e-002
<GCONST> 9.176778e+001
<MIXTURE> 6 7.432517e-002
<MEAN> 39
 -6.488675e-001 -9.982691e+000 -8.322975e+000 -9.128552e+000 -6.848347e+000 -1.155892e+000 -7.928480e+000 4.525511e+000 -7.903955e+000 -4.933228e+000 -1.437167e+001 -3.876817e-001 7.475797e+001 4.667898e-002 5.606794e-001 2.826872e-001 2.988226e-001 1.574568e-001 -3.566051e-001 2.819077e-001 -3.931532e-001 3.635148e-002 1.623128e-002 1.388901e-001 3.516527e-002 -4.165513e-001 -1.556842e-001 9.424522e-001 7.451844e-001 2.349226e-001 -4.234927e-002 -5.222111e-001 1.843699e-001 -6.468217e-001 5.472884e-001 2.732670e-001 7.384176e-001 -3.024209e-001 -6.505469e-001
<VARIANCE> 39
 8.858748e+000 2.086334e+001 2.440788e+001 3.525192e+001 5.205704e+001 3.748569e+001 4.850587e+001 3.768344e+001 4.734538e+001 3.653710e+001 2.698506e+001 4.150782e+001 2.849116e+001 5.149230e-001 1.243044e+000 2.063636e+000 1.461032e+000 3.136569e+000 2.965646e+000 2.901200e+000 2.726243e+000 3.006115e+000 2.759840e+000 2.137083e+000 2.283825e+000 4.094682e-001 1.541341e-001 2.467979e-001 2.489148e-001 3.643664e-001 4.855831e-001 5.073823e-001 5.424245e-001 5.352871e-001 6.302207e-001 5.681180e-001 5.002773e-001 4.379681e-001 1.360103e-001
<GCONST> 1.114845e+002
<MIXTURE> 7 7.195389e-002
<MEAN> 39
 -7.619781e-001 -8.621198e+000 -1.008464e+001 -1.252363e+001 1.562455e+000 1.006942e+000 -7.073298e+000 -4.849678e+000 -2.089162e-001 -3.891434e+000 -1.118602e+001 -4.083138e+000 7.708198e+001 1.188269e-001 1.123845e-001 -3.608214e-003 1.570850e-001 1.393975e-001 4.789905e-002 9.595751e-002 -2.676949e-001 1.423448e-001 -4.593722e-002 8.861133e-002 3.240242e-002 -2.372711e-001 9.849305e-002 2.911107e-001 3.699641e-001 7.353579e-002 -4.650062e-001 -1.444225e-001 -1.834740e-001 2.416765e-001 -1.486506e-001 1.440129e-001 2.910232e-001 -1.252345e-001 -2.897060e-001
<VARIANCE> 39
 9.562736e+000 2.236540e+001 2.456026e+001 5.186930e+001 3.682530e+001 4.996321e+001 4.808651e+001 3.424090e+001 4.278258e+001 5.920640e+001 4.692702e+001 2.839658e+001 3.360261e+001 3.070338e-001 6.736035e-001 7.539876e-001 1.176065e+000 1.667119e+000 1.868583e+000 1.679773e+000 2.023626e+000 1.544576e+000 1.761566e+000 1.478340e+000 1.330559e+000 2.506622e-001 7.019086e-002 1.368922e-001 1.825057e-001 2.214108e-001 2.467925e-001 2.795452e-001 3.400177e-001 3.006171e-001 3.200124e-001 3.088638e-001 2.856116e-001 2.357964e-001 6.769872e-002
<GCONST> 9.810738e+001
<MIXTURE> 8 6.357757e-002
<MEAN> 39
 8.863298e-001 -1.297000e+001 -3.088161e-001 -1.066148e+001 -6.436074e+000 -4.092934e+000 -1.203113e+001 7.813148e+000 1.655645e+000 3.755428e+000 -4.887574e+000 -1.009055e+001 7.631683e+001 -2.418773e-001 4.498959e-001 1.232110e+000 1.077366e+000 -4.013610e-001 -1.243730e+000 -2.048217e-001 8.495551e-001 -1.774421e-001 -6.329451e-001 -1.597468e-001 9.218501e-001 -3.748983e-001 -5.261399e-001 1.297847e+000 1.759018e-001 7.928521e-001 1.595246e-001 -8.183146e-002 7.620890e-001 -1.040453e+000 -1.300944e-001 -3.077570e-001 5.172768e-001 7.145703e-001 -9.549866e-001
<VARIANCE> 39
 1.457113e+001 4.180650e+001 2.971816e+001 4.798729e+001 4.049411e+001 5.337824e+001 3.990032e+001 3.537784e+001 4.307676e+001 4.108033e+001 3.715808e+001 2.429824e+001 2.957336e+001 6.567816e-001 1.866709e+000 2.412847e+000 2.028155e+000 3.320908e+000 3.371258e+000 3.326578e+000 4.040289e+000 3.343437e+000 2.881967e+000 3.134015e+000 2.189138e+000 1.022164e+000 2.786230e-001 3.259065e-001 3.419749e-001 4.478847e-001 5.201212e-001 5.350568e-001 5.005143e-001 4.899879e-001 7.257923e-001 4.815924e-001 4.499540e-001 3.747979e-001 2.359930e-001
<GCONST> 1.177378e+002
<MIXTURE> 9 7.192810e-002
<MEAN> 39
 -2.035636e+000 -1.612365e+001 -5.514843e+000 -1.570065e+001 -2.315798e+000 -5.443365e+000 -8.701105e+000 4.365558e+000 -7.008046e+000 -7.155204e+000 -1.489463e+001 -1.579198e+000 7.993701e+001 1.281892e-001 2.886476e-001 -1.955926e-001 6.913865e-002 1.712335e-001 7.274397e-002 -1.362742e-001 -5.928053e-001 1.667942e-001 1.046365e-001 -8.701882e-002 -1.707923e-001 -2.157639e-001 1.473356e-001 8.925635e-001 3.801303e-001 2.893323e-001 -5.122311e-001 -3.538175e-001 1.923224e-002 -4.192211e-001 3.349534e-001 4.051164e-001 4.390884e-001 -2.703666e-001 -5.897457e-001
<VARIANCE> 39
 8.018109e+000 3.668136e+001 2.860819e+001 3.341731e+001 5.465785e+001 3.373447e+001 4.397053e+001 3.741294e+001 3.865302e+001 3.173189e+001 2.579223e+001 2.795358e+001 1.317811e+001 4.991251e-001 1.027240e+000 1.497992e+000 1.095245e+000 2.485022e+000 2.191219e+000 2.374721e+000 2.114274e+000 2.181489e+000 2.482696e+000 1.668715e+000 1.893215e+000 3.437163e-001 9.450435e-002 2.212803e-001 2.109889e-001 2.893282e-001 3.252093e-001 3.373984e-001 3.715557e-001 4.194387e-001 4.515943e-001 3.999763e-001 4.312486e-001 3.145506e-001 1.225895e-001
<GCONST> 1.037872e+002
<MIXTURE> 10 5.365415e-002
<MEAN> 39
 -1.303875e+000 -1.407644e+001 -1.985324e+000 -1.348039e+001 -1.017354e+001 5.227395e+000 -1.121510e+001 -1.472199e+000 3.167147e+000 2.978528e+000 -2.640121e+000 -1.154899e+001 7.033099e+001 -6.733768e-002 -1.023972e-001 7.018449e-002 1.392218e-001 9.547312e-002 -7.998838e-002 -2.616725e-002 1.374072e-001 1.629625e-002 1.758811e-002 -2.442188e-001 -9.660176e-002 1.949192e-002 1.375834e-002 4.265758e-001 1.860042e-001 2.822907e-001 -1.283342e-001 -2.881043e-001 -1.650084e-002 -1.818709e-001 -2.463451e-001 -4.974656e-002 2.486943e-001 3.435442e-001 -2.868356e-001
<VARIANCE> 39
 3.509977e+001 6.304749e+001 5.099051e+001 6.993483e+001 4.548025e+001 6.955947e+001 4.753084e+001 6.272936e+001 4.578794e+001 6.367691e+001 8.609170e+001 3.218038e+001 1.041137e+002 1.716486e-001 6.094110e-001 7.085952e-001 1.017282e+000 1.075038e+000 1.720417e+000 1.297644e+000 1.662270e+000 1.216912e+000 1.324153e+000 1.454520e+000 1.200900e+000 1.628126e-001 3.422252e-002 1.204040e-001 1.222282e-001 1.736591e-001 1.779761e-001 2.056009e-001 2.218518e-001 2.503633e-001 2.387977e-001 2.369734e-001 2.378471e-001 2.179608e-001 4.433591e-002
<GCONST> 9.769643e+001
<MIXTURE> 11 5.980006e-002
<MEAN> 39
 -2.003541e+000 -1.179692e+001 -9.375536e+000 -1.648140e+001 3.487291e+000 -1.574675e+001 6.377761e+000 -8.408333e+000 3.345984e+000 -2.976562e+000 -6.072840e+000 -1.224296e+001 7.775182e+001 7.257422e-004 8.738112e-002 -1.775072e-001 7.174151e-002 1.847432e-001 -2.378935e-001 1.579196e-001 -1.654115e-001 1.108784e-001 -2.721791e-001 -2.618035e-002 -2.976963e-001 3.179009e-002 -8.429112e-002 6.647643e-001 6.535676e-001 5.879461e-001 -4.723169e-001 2.518391e-001 -4.717322e-001 2.765996e-001 -2.608663e-001 2.365216e-001 2.328212e-001 5.620470e-001 -6.449810e-001
<VARIANCE> 39
 6.149199e+000 1.339882e+001 1.813817e+001 2.337031e+001 1.971975e+001 8.666934e+001 4.328402e+001 3.305800e+001 2.175487e+001 2.798615e+001 3.249311e+001 2.329218e+001 1.263617e+001 4.984568e-001 1.511152e+000 1.845158e+000 1.615316e+000 2.139697e+000 2.388235e+000 2.131350e+000 2.325086e+000 1.760217e+000 1.884475e+000 2.000638e+000 1.602136e+000 8.319272e-001 1.897794e-001 2.118000e-001 3.317928e-001 3.693712e-001 3.004126e-001 5.013577e-001 3.600241e-001 3.901771e-001 2.978891e-001 3.277407e-001 3.704217e-001 2.637950e-001 1.572598e-001
<GCONST> 1.029744e+002
<MIXTURE> 12 8.375534e-002
<MEAN> 39
 -6.185621e-001 -1.220870e+001 -5.288321e+000 -1.126254e+001 -6.492665e+000 1.257669e+000 -1.324352e+001 3.971916e+000 2.006356e+000 1.003366e+000 -5.495975e+000 -1.199282e+001 7.456053e+001 3.947451e-001 5.275219e-001 -6.705299e-001 -3.983599e-001 6.229280e-001 8.575688e-001 3.766457e-001 -1.166634e+000 -5.080300e-001 5.605072e-001 7.224251e-001 -3.032979e-001 -5.064096e-001 -2.073890e-002 7.639971e-001 3.745432e-001 4.744219e-001 -2.176138e-001 -4.306992e-001 2.835733e-001 -5.844516e-001 -2.572503e-001 -2.236721e-002 3.653548e-001 6.540889e-001 -6.056100e-001
<VARIANCE> 39
 1.735636e+001 2.962798e+001 3.547259e+001 4.514202e+001 4.136464e+001 4.908238e+001 4.111958e+001 4.193894e+001 5.397127e+001 5.966104e+001 4.452359e+001 2.144275e+001 3.879621e+001 3.547340e-001 9.437541e-001 1.291691e+000 1.557863e+000 2.028647e+000 2.667642e+000 2.166918e+000 2.219435e+000 2.110186e+000 2.000258e+000 2.254136e+000 1.670103e+000 3.480278e-001 8.838656e-002 1.679059e-001 2.135151e-001 3.242110e-001 3.215115e-001 3.384961e-001 3.372406e-001 4.302896e-001 5.109537e-001 4.230429e-001 3.726604e-001 2.816836e-001 9.492249e-002
<GCONST> 1.063688e+002
<MIXTURE> 13 6.701461e-002
<MEAN> 39
 -1.382004e+000 -1.413438e+001 -5.832760e+000 -1.727307e+001 -3.756076e+000 -5.599385e+000 -9.746489e+000 4.064837e+000 -5.364477e+000 -1.459584e+000 -1.649033e+001 -3.064830e+000 7.913750e+001 6.669907e-001 1.908797e+000 4.466060e-001 8.512378e-001 -2.112518e-001 -5.597657e-001 -1.977180e-001 -1.008270e+000 5.901646e-001 3.245878e-001 6.721859e-001 -2.680796e-001 -1.500619e+000 -1.445984e-001 1.298270e+000 4.722623e-001 1.164215e+000 2.410938e-002 -8.303308e-002 4.587495e-001 -5.733120e-001 5.141370e-001 -1.559709e-001 1.036847e+000 -6.747322e-002 -1.245320e+000
<VARIANCE> 39
 9.039372e+000 3.362657e+001 3.305035e+001 2.929437e+001 5.172861e+001 4.639158e+001 4.397451e+001 4.092692e+001 3.955993e+001 5.211872e+001 2.461715e+001 2.965329e+001 1.295177e+001 7.124929e-001 1.783162e+000 2.233643e+000 2.163945e+000 2.919764e+000 3.288179e+000 2.919988e+000 3.102315e+000 3.272765e+000 3.829584e+000 2.764621e+000 2.508266e+000 1.079033e+000 1.878581e-001 3.310717e-001 3.087060e-001 3.771889e-001 5.243084e-001 5.929326e-001 5.666130e-001 7.026561e-001 6.115755e-001 6.445650e-001 4.510562e-001 3.957960e-001 2.709377e-001
<GCONST> 1.161782e+002
<MIXTURE> 14 5.285427e-002
<MEAN> 39
 -2.169312e-001 -1.430790e+001 -6.092565e+000 -1.735913e+001 -4.243936e+000 6.574544e+000 -1.544925e+001 2.099021e+000 -3.180317e+000 6.783482e-001 -3.556987e+000 -1.260301e+001 7.585168e+001 -4.636980e-002 2.545248e-001 7.323447e-001 7.291340e-001 -1.309136e-001 -1.120149e+000 -3.611107e-001 6.327282e-001 2.514073e-001 -5.991004e-002 -8.455919e-001 5.112506e-001 -8.284994e-002 -6.539033e-002 9.908807e-001 3.506437e-001 6.931758e-001 -2.155517e-001 -6.746147e-001 6.980405e-001 -5.653477e-001 5.827741e-002 -1.078495e-001 1.004658e-001 9.237844e-001 -9.558543e-001
<VARIANCE> 39
 2.634665e+001 6.164224e+001 6.683999e+001 7.666014e+001 3.060287e+001 5.454144e+001 5.306451e+001 4.121925e+001 5.616177e+001 5.110764e+001 7.008465e+001 3.220601e+001 1.776534e+001 7.319625e-001 2.137972e+000 1.580071e+000 2.879834e+000 3.122536e+000 4.383643e+000 3.083283e+000 3.553374e+000 3.314847e+000 3.071800e+000 3.698024e+000 2.992901e+000 1.175718e+000 2.171991e-001 3.311060e-001 5.792007e-001 5.615823e-001 5.301351e-001 6.786742e-001 5.632169e-001 6.699441e-001 8.516846e-001 6.201996e-001 5.955657e-001 5.605519e-001 3.114243e-001
<GCONST> 1.244892e+002
<MIXTURE> 15 3.599126e-002
<MEAN> 39
 -1.972315e+000 -1.049071e+001 -1.226254e+001 -1.527456e+001 2.553938e+000 -8.153094e+000 1.555430e+000 -9.676916e+000 1.521735e+000 -4.258365e+000 -6.377431e+000 -1.160172e+001 7.637346e+001 5.313285e-003 1.958110e-001 -2.006795e-001 9.935753e-002 1.909783e-001 6.411503e-002 -5.884366e-002 -2.543211e-001 6.176715e-002 -9.107117e-002 7.652536e-002 -1.594334e-001 -1.698465e-001 9.180079e-002 1.928228e-001 2.893787e-001 9.871634e-003 -2.131862e-001 -1.857676e-001 -1.653454e-001 1.979062e-001 -8.165047e-002 1.898265e-001 3.555968e-002 1.509284e-001 -2.086193e-001
<VARIANCE> 39
 7.003531e+000 1.674613e+001 1.763161e+001 2.884934e+001 3.563305e+001 1.475938e+002 1.153181e+002 3.768352e+001 2.785077e+001 3.003247e+001 3.344618e+001 2.552041e+001 1.808269e+001 2.413185e-001 4.779879e-001 6.504282e-001 6.790910e-001 9.177378e-001 1.000359e+000 8.332130e-001 1.062288e+000 8.109860e-001 9.704568e-001 9.825669e-001 7.430655e-001 2.169013e-001 5.483539e-002 7.873318e-002 1.330909e-001 1.220058e-001 1.712997e-001 1.658204e-001 1.805252e-001 1.739468e-001 1.576519e-001 1.675828e-001 1.417779e-001 1.345659e-001 4.646650e-002
<GCONST> 8.347546e+001
<MIXTURE> 16 4.815925e-002
<MEAN> 39
 2.782441e+000 -1.160953e+001 -5.003049e+000 -7.784304e+000 -1.255757e+001 7.597245e+000 -9.595493e+000 -3.781873e+000 2.618728e+000 4.563861e+000 -2.923588e+000 -7.720851e+000 7.353492e+001 3.021273e-001 6.161602e-001 1.383567e-001 1.004088e-001 4.057188e-001 8.812486e-002 1.892145e-001 -2.472929e-001 -4.025484e-001 2.335054e-001 7.677235e-002 2.209903e-001 -4.799751e-001 -7.913527e-001 1.261576e+000 4.440981e-001 5.688936e-001 9.737228e-001 -1.015681e+000 7.443436e-001 1.460675e-003 -2.494008e-001 -2.627570e-001 8.141576e-002 5.725939e-001 -9.309591e-001
<VARIANCE> 39
 2.304253e+001 4.568273e+001 4.338253e+001 6.274086e+001 6.614458e+001 9.229339e+001 7.037012e+001 5.247998e+001 4.181108e+001 6.581903e+001 5.774007e+001 3.363512e+001 7.089739e+001 1.224833e+000 3.073298e+000 2.220154e+000 3.112535e+000 4.790403e+000 4.795806e+000 4.021442e+000 3.639763e+000 3.609484e+000 2.687996e+000 3.054226e+000 2.346893e+000 1.800330e+000 4.095739e-001 4.795437e-001 4.919769e-001 6.828622e-001 7.108430e-001 8.046891e-001 9.578164e-001 6.852667e-001 7.473303e-001 6.679977e-001 6.003122e-001 5.459523e-001 3.134532e-001
<GCONST> 1.304673e+002
<STATE> 4
<NUMMIXES> 16
<MIXTURE> 1 3.620863e-002
<MEAN> 39
 -2.027250e+000 -1.895437e+000 -3.360117e+000 -6.294300e+000 -2.038560e+000 -1.088399e+001 -1.736766e+000 -1.559285e+000 -2.129237e-001 -4.481624e+000 -7.668040e+000 -4.499991e+000 6.859415e+001 -1.720614e+000 2.848951e+000 1.590936e+000 3.396984e+000 1.398137e+000 1.437188e+000 1.608028e+000 1.302997e+000 1.841958e+000 1.162261e+000 2.065801e+000 1.140037e+000 -4.238706e+000 -5.357403e-001 -6.619146e-001 -2.332304e-001 -2.251065e-001 1.292771e-001 9.264318e-001 3.460371e-001 5.925578e-001 3.952849e-001 5.379571e-001 4.609125e-001 2.768285e-001 -2.911285e-001
<VARIANCE> 39
 1.074924e+001 2.313996e+001 3.029932e+001 2.899442e+001 4.818138e+001 7.284804e+001 5.646505e+001 4.056655e+001 4.278180e+001 4.240590e+001 4.160342e+001 4.525086e+001 3.164765e+001 2.362462e+000 2.438354e+000 2.656825e+000 3.678519e+000 3.358992e+000 6.241745e+000 6.459476e+000 4.710797e+000 5.265153e+000 3.325297e+000 4.115593e+000 3.887452e+000 3.414082e+000 3.447719e-001 3.954431e-001 4.191200e-001 4.527937e-001 6.976233e-001 7.011063e-001 7.139986e-001 6.710399e-001 6.945532e-001 6.612690e-001 5.753544e-001 5.135320e-001 4.494569e-001
<GCONST> 1.278198e+002
<MIXTURE> 2 4.916906e-002
<MEAN> 39
 2.500205e+000 -6.195235e+000 -3.112467e+000 -8.561112e+000 -2.337344e+000 2.067443e+000 -8.332096e+000 -2.926340e-001 2.077970e+000 4.200918e+000 1.651824e-002 -1.061712e+001 7.392449e+001 -2.174988e+000 3.282666e+000 1.212365e-001 1.541561e+000 2.448444e+000 -1.404785e+000 2.034163e+000 -2.030036e-001 -8.489137e-002 7.841882e-001 -5.919299e-001 1.779275e+000 -1.910655e+000 -1.187017e+000 4.837663e-001 7.983989e-002 5.201430e-001 1.001845e-002 -3.718568e-001 6.379403e-001 1.307635e-002 3.181595e-001 -2.450836e-001 9.100603e-002 7.493985e-001 -3.956893e-001
<VARIANCE> 39
 1.219756e+001 3.250508e+001 2.333204e+001 4.458178e+001 3.671372e+001 5.272989e+001 5.716042e+001 4.555267e+001 3.756340e+001 4.975007e+001 4.512170e+001 2.513261e+001 4.444758e+001 1.907990e+000 2.232544e+000 1.932602e+000 2.663966e+000 3.050668e+000 3.529486e+000 4.195725e+000 4.320059e+000 3.271900e+000 3.525451e+000 2.968530e+000 2.416671e+000 2.228480e+000 4.920448e-001 4.211383e-001 2.849463e-001 4.086933e-001 4.966501e-001 6.245042e-001 6.628808e-001 6.376460e-001 5.391347e-001 5.866601e-001 4.738416e-001 4.303667e-001 3.201136e-001
<GCONST> 1.223436e+002
<MIXTURE> 3 4.435941e-002
<MEAN> 39
 4.001535e-001 -9.998709e+000 -3.558550e+000 -6.511865e+000 -5.491891e+000 -3.229333e+000 -5.147444e+000 -1.878835e+000 8.402840e+000 -4.056666e+000 -1.665197e+000 -1.070967e+001 7.723570e+001 -1.368309e-001 1.178132e+000 1.913110e+000 1.736844e+000 -8.644521e-001 -1.563696e+000 -7.453336e-001 8.038325e-001 -8.759634e-001 -1.805937e-001 4.456064e-001 1.122372e+000 -1.217360e+000 -1.725435e-001 6.366014e-001 4.487285e-001 2.058035e-001 4.362274e-002 1.212324e-001 -6.385572e-002 -1.056213e-001 -9.009129e-001 3.799313e-001 1.720888e-001 4.812129e-001 -6.273124e-001
<VARIANCE> 39
 1.759194e+001 1.895316e+001 2.952277e+001 4.325237e+001 5.248792e+001 1.013707e+002 7.626130e+001 6.205886e+001 3.700441e+001 8.391971e+001 6.043680e+001 2.925836e+001 4.606882e+001 8.416622e-001 1.915960e+000 2.182545e+000 2.224125e+000 3.069397e+000 4.574228e+000 3.570853e+000 4.582192e+000 3.841160e+000 4.153379e+000 3.149371e+000 3.013325e+000 1.642783e+000 1.946549e-001 2.441534e-001 3.377972e-001 3.979603e-001 5.056090e-001 8.150142e-001 6.456508e-001 6.599124e-001 5.559459e-001 7.033933e-001 6.294825e-001 4.522430e-001 3.001724e-001
<GCONST> 1.238486e+002
<MIXTURE> 4 5.361584e-002
<MEAN> 39
 3.090381e-001 -6.110586e+000 -5.250428e+000 -1.102316e+001 -5.242475e+000 -4.616795e+000 -8.697743e+000 3.283898e+000 -4.485492e+000 -1.869261e+000 -1.376390e+001 -1.657651e+000 7.140223e+001 -1.454965e+000 3.729053e+000 1.569765e+000 2.843529e+000 1.519961e+000 -6.113178e-001 2.513000e+000 -1.220173e+000 2.418291e+000 -4.159193e-001 2.396627e+000 4.045594e-002 -3.045200e+000 -9.644790e-001 1.475789e-001 2.540142e-001 5.270319e-001 3.773493e-001 3.545684e-001 8.826393e-001 1.819544e-001 6.819089e-001 2.178330e-001 1.100121e+000 1.781207e-002 -6.018069e-001
<VARIANCE> 39
 8.992577e+000 3.397769e+001 4.218366e+001 4.075851e+001 5.035593e+001 4.911776e+001 4.269932e+001 3.105472e+001 5.017489e+001 5.852094e+001 3.076418e+001 3.873923e+001 2.360452e+001 2.035164e+000 2.399680e+000 2.044847e+000 3.252416e+000 3.393320e+000 3.514734e+000 3.854334e+000 3.343976e+000 3.145473e+000 3.424160e+000 3.039158e+000 3.122979e+000 2.893578e+000 3.522181e-001 4.146661e-001 5.120564e-001 4.964937e-001 6.552874e-001 6.973804e-001 5.992874e-001 6.534542e-001 8.631805e-001 8.680398e-001 6.174390e-001 5.523770e-001 4.665018e-001
<GCONST> 1.251465e+002
<MIXTURE> 5 1.051438e-001
<MEAN> 39
 -1.163731e-001 -3.911308e+000 -7.310455e+000 -8.371759e+000 9.512919e-001 4.175101e+000 -3.832273e+000 -1.242452e+000 4.016315e-001 1.425528e+000 -3.851403e+000 -5.425363e+000 6.606173e+001 -2.567153e-001 7.002341e-001 4.048399e-001 5.649967e-001 1.494625e-001 -4.967141e-002 2.516223e-001 -5.127668e-002 -5.371787e-002 -1.921984e-001 3.477751e-001 3.968188e-001 -9.411706e-001 -1.017193e-001 5.967088e-002 2.616352e-001 1.260887e-001 -1.530293e-001 -1.507702e-001 -4.653246e-002 1.182200e-002 3.831329e-002 1.908366e-002 6.154552e-002 4.802766e-002 -1.904138e-002
<VARIANCE> 39
 1.929219e+001 2.301914e+001 2.501231e+001 7.682425e+001 6.651533e+001 4.680041e+001 5.440252e+001 4.696114e+001 4.249238e+001 5.439278e+001 4.600516e+001 3.647398e+001 5.047255e+001 4.980991e-001 1.117051e+000 1.262406e+000 2.007839e+000 2.504206e+000 2.188244e+000 2.199663e+000 2.506735e+000 2.419608e+000 2.044919e+000 2.016613e+000 1.760871e+000 6.218546e-001 1.015825e-001 1.506633e-001 2.222684e-001 3.074406e-001 3.471338e-001 3.202447e-001 3.892203e-001 3.987062e-001 3.941990e-001 3.575127e-001 3.468573e-001 3.106185e-001 1.341031e-001
<GCONST> 1.093394e+002
<MIXTURE> 6 6.906098e-002
<MEAN> 39
 4.242251e+000 -9.530793e+000 -3.402512e+000 -1.307469e+001 -7.923501e+000 6.758890e+000 -8.743633e+000 -3.212008e+000 9.766534e-001 4.284485e+000 5.912071e-002 -6.645170e+000 7.366194e+001 2.590297e-001 1.983270e+000 5.274889e-001 1.221323e+000 -2.644185e-001 -2.819314e-001 6.867847e-001 -1.423189e+000 -1.413042e+000 -4.420052e-001 1.184851e+000 1.240499e+000 -1.712758e+000 -3.242766e-001 6.087765e-001 2.443530e-001 7.789282e-001 2.742407e-001 -6.398942e-001 1.538798e-001 -1.763260e-002 -1.987279e-001 -2.865999e-001 -2.142284e-001 4.097292e-002 -4.510607e-001
<VARIANCE> 39
 1.278368e+001 3.550651e+001 2.374859e+001 6.512291e+001 5.818682e+001 6.274669e+001 5.271681e+001 4.011513e+001 3.518504e+001 3.821479e+001 5.434566e+001 2.848877e+001 3.868365e+001 4.395667e-001 1.523731e+000 1.335474e+000 3.810334e+000 2.264585e+000 2.811950e+000 2.739879e+000 2.428578e+000 3.682347e+000 2.499080e+000 2.639492e+000 2.002552e+000 8.948538e-001 8.547086e-002 2.123673e-001 2.672881e-001 3.575090e-001 3.651060e-001 4.316100e-001 3.647783e-001 4.034128e-001 4.715243e-001 3.811986e-001 4.710403e-001 3.467193e-001 1.425078e-001
<GCONST> 1.123508e+002
<MIXTURE> 7 8.623943e-002
<MEAN> 39
 1.882377e-001 7.729330e-001 -4.350014e+000 -4.782004e+000 2.359361e+000 2.430253e+000 -3.991077e+000 -2.792219e+000 5.944170e-001 3.543574e+000 -1.726998e+000 -5.466624e+000 6.372251e+001 -1.346128e+000 1.719226e+000 6.118447e-001 2.149128e+000 1.241142e+000 -1.413645e-001 1.794081e+000 6.234887e-001 9.186441e-001 1.492438e-001 6.361664e-001 1.048516e+000 -3.470109e+000 -3.182287e-001 -5.803062e-001 -1.464205e-001 -2.010385e-001 -3.258073e-001 3.618632e-002 1.228962e-001 3.891684e-001 3.042403e-001 -1.203491e-001 7.131228e-002 2.101721e-002 1.801700e-001
<VARIANCE> 39
 1.223494e+001 1.772677e+001 1.833238e+001 4.474908e+001 4.323360e+001 4.412616e+001 3.795862e+001 3.453142e+001 3.227361e+001 4.907833e+001 5.252505e+001 2.581294e+001 4.760644e+001 1.131982e+000 2.024306e+000 1.763775e+000 2.669970e+000 2.485960e+000 2.962922e+000 2.933665e+000 2.723973e+000 3.076211e+000 3.227890e+000 3.295037e+000 2.895927e+000 2.448942e+000 1.983429e-001 2.302741e-001 2.519290e-001 3.630706e-001 4.201644e-001 4.562187e-001 4.795318e-001 4.230052e-001 4.341970e-001 4.857980e-001 5.455322e-001 3.760320e-001 3.000169e-001
<GCONST> 1.157725e+002
<MIXTURE> 8 6.248824e-002
<MEAN> 39
 -7.045466e-002 -1.032120e+001 4.435610e+000 -4.560249e+000 -1.079958e+001 -8.278551e+000 -1.175946e+001 9.561663e+000 1.370167e-001 -8.705416e-001 -2.981360e+000 -5.535316e+000 7.384439e+001 -7.076156e-001 2.583891e+000 1.380081e+000 1.617947e+000 3.871106e-001 -7.779152e-001 7.186684e-001 -7.723968e-001 -8.341584e-001 -5.249006e-001 6.855420e-001 1.529680e+000 -2.190449e+000 -2.943114e-001 6.737880e-001 -4.585543e-001 7.964461e-002 5.354671e-001 5.520749e-001 6.227784e-001 -1.030802e+000 2.630811e-001 2.167006e-001 7.666947e-002 -1.033565e-001 -7.117383e-001
<VARIANCE> 39
 1.409038e+001 3.883671e+001 3.462216e+001 4.667308e+001 5.393663e+001 5.166438e+001 5.120428e+001 3.853912e+001 5.385970e+001 4.354843e+001 3.964167e+001 2.588734e+001 4.452556e+001 1.153057e+000 1.761911e+000 2.406757e+000 2.545684e+000 3.524342e+000 3.021120e+000 3.204255e+000 3.661483e+000 3.977385e+000 3.429052e+000 2.738443e+000 2.461946e+000 1.986086e+000 2.868312e-001 3.568871e-001 4.055035e-001 4.026851e-001 6.218352e-001 6.234214e-001 5.777580e-001 5.247470e-001 8.666956e-001 5.595521e-001 5.108454e-001 4.454970e-001 2.782025e-001
<GCONST> 1.222206e+002
<MIXTURE> 9 7.677948e-002
<MEAN> 39
 -3.530776e-001 -1.053094e+000 -7.943617e+000 -7.755474e+000 -7.490844e-001 2.224810e+000 -6.275443e+000 -2.672363e+000 1.266065e+000 4.620167e+000 -4.752022e+000 -6.723424e+000 6.271906e+001 -4.928519e-001 1.158748e+000 -5.023605e-001 1.297682e+000 -7.600003e-002 1.388662e-002 1.460859e+000 -2.263724e-002 6.398410e-001 -5.317117e-001 8.229733e-001 3.591130e-001 -2.869969e+000 -1.915946e-001 -5.435172e-001 4.257891e-002 -4.414049e-001 -2.761583e-001 -5.372952e-002 -2.423353e-001 1.724255e-001 -1.560451e-001 -2.546813e-001 -4.307951e-002 5.586556e-002 5.058991e-001
<VARIANCE> 39
 1.939321e+001 2.418327e+001 3.220095e+001 4.525774e+001 4.692097e+001 5.980026e+001 6.317427e+001 4.963257e+001 5.274289e+001 4.909576e+001 4.928492e+001 3.186166e+001 4.060485e+001 1.607742e+000 1.916527e+000 2.914201e+000 2.703866e+000 3.219276e+000 3.926706e+000 3.872606e+000 3.696543e+000 3.939598e+000 3.143655e+000 3.131014e+000 2.934658e+000 1.698863e+000 2.516652e-001 2.534109e-001 3.846867e-001 4.383520e-001 5.309014e-001 6.195716e-001 6.343318e-001 6.481567e-001 7.202591e-001 5.238739e-001 5.868255e-001 5.214847e-001 3.318943e-001
<GCONST> 1.238817e+002
<MIXTURE> 10 5.543365e-002
<MEAN> 39
 -2.040941e+000 -6.716369e+000 -1.224070e+001 -1.307585e+001 -3.062234e+000 4.665723e+000 -7.789845e+000 -4.751238e+000 -1.411339e-001 -1.041850e+000 -3.262958e+000 -8.144072e+000 6.953589e+001 4.896304e-001 9.944877e-001 3.394426e-001 -2.933040e-001 -7.568687e-001 3.333418e-001 -1.507575e-001 -3.602764e-001 -3.129445e-001 7.825261e-002 6.292846e-001 5.592765e-001 -1.005684e+000 1.104866e-001 1.264916e-001 5.716015e-001 8.313769e-002 -2.601477e-001 -2.288312e-001 -1.607336e-001 1.635867e-001 -1.843708e-001 -2.016975e-004 -2.783139e-002 2.195238e-001 -1.769368e-001
<VARIANCE> 39
 3.243206e+001 3.138658e+001 2.556405e+001 6.099583e+001 4.683697e+001 6.110414e+001 5.988087e+001 4.312387e+001 5.234461e+001 5.143562e+001 7.705002e+001 4.149767e+001 1.208145e+002 8.138089e-001 1.534343e+000 1.623201e+000 2.064413e+000 2.341494e+000 2.761067e+000 2.726441e+000 2.730649e+000 3.014414e+000 2.739426e+000 2.606057e+000 2.656744e+000 1.288256e+000 1.701540e-001 1.944457e-001 2.368119e-001 3.124942e-001 3.720242e-001 3.822835e-001 4.207099e-001 4.673192e-001 4.863061e-001 4.164426e-001 4.297146e-001 4.611430e-001 3.741341e-001
<GCONST> 1.183496e+002
<MIXTURE> 11 6.630336e-002
<MEAN> 39
 -2.387939e+000 -1.107834e+001 -5.480778e+000 -1.059425e+001 -7.032051e+000 -7.808147e+000 -5.045885e+000 2.425192e+000 -3.174647e+000 -7.631533e+000 -1.107493e+001 -4.197175e+000 7.750272e+001 -1.229030e-002 1.480341e+000 2.167167e+000 4.600495e-001 -1.679758e+000 -1.292678e+000 1.878138e-001 -1.955210e-001 -5.954255e-001 5.215124e-001 5.282314e-001 5.972815e-001 -1.001605e+000 2.725456e-002 6.262448e-001 5.127690e-001 1.020594e-001 -5.210752e-002 7.501923e-002 -1.977402e-001 -6.097575e-001 -1.519751e-001 5.815160e-001 2.486163e-001 -6.498457e-002 -5.373513e-001
<VARIANCE> 39
 9.548207e+000 2.714289e+001 3.784401e+001 3.798639e+001 6.240530e+001 6.898569e+001 7.125654e+001 4.684458e+001 4.705251e+001 4.421621e+001 3.176284e+001 3.695478e+001 2.464658e+001 7.676122e-001 1.573209e+000 1.716937e+000 1.969769e+000 2.721254e+000 3.143270e+000 3.481759e+000 3.773722e+000 3.575727e+000 3.466052e+000 3.043751e+000 3.043378e+000 8.237259e-001 1.622598e-001 2.627272e-001 3.134117e-001 3.559997e-001 5.573751e-001 5.248778e-001 5.612222e-001 5.938320e-001 5.177817e-001 5.507828e-001 5.371181e-001 4.060063e-001 1.395212e-001
<GCONST> 1.171542e+002
<MIXTURE> 12 6.482349e-002
<MEAN> 39
 8.948472e-001 -8.450644e+000 -7.355779e+000 -1.397725e+001 -6.042280e+000 3.279624e+000 -1.478079e+001 -1.370304e+000 -2.019822e+000 1.878544e+000 -4.560809e+000 -9.719846e+000 7.279845e+001 6.429070e-001 2.022782e+000 9.525726e-001 1.447233e+000 -6.256064e-001 -7.032315e-001 4.040785e-001 -1.928172e+000 -9.155275e-001 1.733528e-001 1.038662e+000 5.455319e-001 -2.037782e+000 -1.433893e-001 3.376846e-001 2.863562e-001 5.226714e-001 5.561294e-002 -4.200006e-001 3.545386e-001 -1.433387e-001 -1.045510e-001 -2.995911e-001 -1.447436e-001 2.183800e-001 -3.307755e-001
<VARIANCE> 39
 1.510192e+001 3.457629e+001 4.151009e+001 5.160971e+001 3.638794e+001 5.148457e+001 4.325738e+001 4.029004e+001 5.774746e+001 6.529456e+001 7.681589e+001 2.809900e+001 2.893287e+001 7.077691e-001 1.241117e+000 2.130648e+000 2.568864e+000 2.121296e+000 2.752392e+000 2.567191e+000 2.434388e+000 3.617332e+000 3.067012e+000 2.845905e+000 2.709844e+000 8.038693e-001 8.373757e-002 1.775795e-001 3.039609e-001 2.558092e-001 3.111401e-001 4.030283e-001 3.800684e-001 4.117526e-001 5.211393e-001 5.201934e-001 4.843930e-001 3.869809e-001 1.144692e-001
<GCONST> 1.134383e+002
<MIXTURE> 13 5.466523e-002
<MEAN> 39
 -1.208864e+000 -7.570300e+000 -3.171936e+000 -1.330079e+001 -6.867394e+000 -9.492068e+000 -8.570312e+000 3.256442e+000 -5.338928e+000 -9.147861e-001 -1.518824e+001 8.235143e-001 7.569196e+001 2.520654e-001 3.213789e+000 1.617530e+000 2.480858e+000 2.581320e-001 -8.576636e-001 1.706824e-001 -1.510018e+000 8.415388e-001 -1.669783e-001 1.559167e+000 -4.862807e-001 -3.110999e+000 -2.202464e-001 3.987990e-001 -5.279072e-002 6.139956e-001 4.067571e-001 6.450940e-001 3.975297e-001 -3.155924e-001 3.288657e-001 -2.683980e-001 6.939777e-001 -5.152409e-001 -7.474057e-001
<VARIANCE> 39
 9.670122e+000 2.753389e+001 3.752209e+001 3.207037e+001 5.779485e+001 5.317841e+001 6.372679e+001 3.552863e+001 4.891484e+001 5.298921e+001 3.133931e+001 3.603741e+001 2.207783e+001 1.180172e+000 1.545977e+000 1.729387e+000 2.294011e+000 3.057447e+000 3.030184e+000 3.532371e+000 3.736132e+000 3.400100e+000 3.261878e+000 2.863055e+000 2.695913e+000 1.721020e+000 2.232507e-001 3.629965e-001 4.409971e-001 4.315220e-001 6.255010e-001 6.736180e-001 6.519380e-001 6.937010e-001 7.281691e-001 6.716879e-001 5.456926e-001 4.607348e-001 2.832976e-001
<GCONST> 1.206856e+002
<MIXTURE> 14 7.032504e-002
<MEAN> 39
 2.536933e+000 -6.979836e+000 -4.965884e+000 -8.897808e+000 -6.985478e+000 1.068688e+000 -1.082897e+001 -1.843708e+000 4.605027e-001 4.896368e+000 1.288159e+000 -1.132034e+001 7.066147e+001 -4.449520e-001 3.118199e+000 6.927194e-001 2.077090e+000 1.471282e+000 -8.121867e-001 1.127034e+000 -1.190588e+000 -3.335125e-001 1.681371e-001 5.309523e-002 1.279072e+000 -3.091561e+000 -5.529676e-001 4.087080e-001 1.077137e-001 4.407894e-001 3.502118e-001 -6.135615e-002 6.363059e-001 1.555331e-001 2.263634e-001 -2.987724e-001 -3.315183e-001 4.777960e-001 -6.679234e-001
<VARIANCE> 39
 2.112164e+001 2.875439e+001 3.502865e+001 5.210355e+001 3.397332e+001 4.747350e+001 5.095313e+001 4.154739e+001 4.682129e+001 4.582168e+001 6.203594e+001 2.760986e+001 4.826729e+001 9.466850e-001 1.372184e+000 1.921867e+000 2.301359e+000 1.864460e+000 2.504443e+000 2.605832e+000 2.799796e+000 2.983080e+000 2.590749e+000 2.720798e+000 1.842811e+000 1.641760e+000 1.833466e-001 3.428373e-001 3.854546e-001 4.186960e-001 4.269747e-001 4.623469e-001 5.390969e-001 5.183845e-001 6.174395e-001 5.093393e-001 5.714890e-001 4.529504e-001 3.526558e-001
<GCONST> 1.180238e+002
<MIXTURE> 15 4.387723e-002
<MEAN> 39
 2.102117e+000 -1.190255e+001 3.996173e-001 -1.815719e+001 -2.719996e+000 1.182623e+000 -1.513639e+001 3.384608e+000 -4.773632e+000 -5.790800e-001 -3.666849e+000 -6.198277e+000 7.143652e+001 -1.453381e-001 2.847282e+000 -4.478530e-003 2.379944e+000 -8.534888e-002 -9.548429e-001 9.119260e-001 -1.800938e+000 6.226405e-002 1.313000e-001 1.340828e-001 1.412009e-001 -2.596356e+000 -1.828515e-001 2.756812e-001 -2.781266e-001 5.773879e-001 -2.799781e-001 -1.918940e-001 5.165813e-001 -5.469878e-001 2.291164e-001 8.773755e-002 -1.398896e-001 -7.995070e-002 -3.159421e-001
<VARIANCE> 39
 2.451895e+001 8.518581e+001 6.873085e+001 8.705123e+001 6.852119e+001 1.007353e+002 9.499802e+001 7.028869e+001 6.189347e+001 6.448160e+001 7.071405e+001 4.210253e+001 2.750244e+001 1.150826e+000 2.445777e+000 4.769215e+000 4.668348e+000 4.621393e+000 5.293999e+000 4.362552e+000 4.828212e+000 6.849951e+000 5.017454e+000 4.246413e+000 3.211000e+000 1.510067e+000 1.804732e-001 4.127620e-001 6.129670e-001 7.105989e-001 7.700996e-001 7.783304e-001 8.929610e-001 7.729104e-001 9.104455e-001 7.654716e-001 7.167028e-001 6.262187e-001 2.258798e-001
<GCONST> 1.352529e+002
<MIXTURE> 16 6.147857e-002
<MEAN> 39
 -2.858500e-001 -3.809109e+000 -6.652400e+000 -1.354998e+001 1.747880e+000 -8.334014e+000 -2.419245e+000 -7.327759e+000 1.584933e+000 -4.597310e-001 -8.024840e+000 -5.090410e+000 7.389660e+001 -6.828982e-001 2.950593e+000 1.232852e+000 3.399959e+000 -1.155087e-001 9.310099e-001 8.868933e-002 6.124477e-001 -2.158856e-001 5.559736e-002 1.400153e+000 3.022105e-001 -3.198139e+000 -6.392294e-001 -3.449472e-002 2.200282e-001 6.530324e-001 -9.198114e-002 6.118073e-001 2.424574e-001 7.232900e-001 2.302795e-002 -3.279965e-002 3.576640e-001 1.005186e-001 -5.668262e-001
<VARIANCE> 39
 1.157129e+001 2.373046e+001 2.999927e+001 3.998262e+001 3.595583e+001 8.980527e+001 6.716421e+001 3.874091e+001 3.635037e+001 7.421622e+001 5.521124e+001 4.353391e+001 2.656325e+001 2.163504e+000 1.786485e+000 2.414590e+000 2.795655e+000 2.612073e+000 3.440352e+000 4.145801e+000 3.376751e+000 3.512530e+000 3.236580e+000 2.566315e+000 2.610836e+000 2.765224e+000 4.124350e-001 3.791806e-001 4.357202e-001 5.883365e-001 5.615270e-001 7.376451e-001 6.897236e-001 5.948991e-001 6.131386e-001 7.711923e-001 6.909857e-001 5.109729e-001 4.223995e-001
<GCONST> 1.250962e+002
<TRANSP> 5
 0.000000e+000 1.000000e+000 0.000000e+000 0.000000e+000 0.000000e+000
 0.000000e+000 5.341211e-001 4.658789e-001 0.000000e+000 0.000000e+000
 0.000000e+000 0.000000e+000 5.669894e-001 4.330106e-001 0.000000e+000
 0.000000e+000 0.000000e+000 0.000000e+000 5.465174e-001 4.534826e-001
 0.000000e+000 0.000000e+000 0.000000e+000 0.000000e+000 0.000000e+000
<ENDHMM>
~h "b"
<BEGINHMM>
<NUMSTATES> 5
<STATE> 2
<NUMMIXES> 16
<MIXTURE> 1 5.245549e-002
<MEAN> 39
 -1.396345e+000 6.842742e+000 7.917050e+000 5.553719e+000 -8.440377e-001 -3.094471e+000 -5.490553e+000 -6.527209e+000 -2.874865e+000 -1.418622e+000 1.665314e+000 -2.606376e+000 5.975201e+001 6.920619e-001 2.507957e+000 -4.918752e-001 6.730566e-001 1.866137e+000 1.642594e+000 1.316936e+000 -8.439460e-001 -5.054919e-001 1.318517e-001 2.175065e-001 -2.913042e-001 -3.078098e+000 -5.698242e-001 -2.510239e-001 3.609747e-001 -3.106071e-001 -5.891472e-001 -2.672737e-001 1.213556e-001 2.998966e-001 -1.703890e-001 -1.148633e-001 -2.008314e-001 1.706738e-002 6.108199e-001
<VARIANCE> 39
 2.087371e+001 2.295255e+001 2.523921e+001 3.324020e+001 3.125837e+001 2.381609e+001 3.725581e+001 2.724396e+001 3.089989e+001 2.467606e+001 2.116966e+001 1.844902e+001 5.381797e+001 1.886302e+000 1.683602e+000 2.487196e+000 2.313243e+000 3.365398e+000 2.387701e+000 3.583288e+000 2.709630e+000 3.600371e+000 2.693437e+000 2.092345e+000 2.052609e+000 1.122293e+000 1.830868e-001 3.159891e-001 3.451575e-001 2.867007e-001 3.991696e-001 3.874721e-001 5.001558e-001 4.320860e-001 3.859008e-001 3.645994e-001 2.942747e-001 3.083723e-001 2.742872e-001
<GCONST> 1.115976e+002
<MIXTURE> 2 7.626537e-002
<MEAN> 39
 4.079093e+000 7.842594e+000 2.657564e+000 -1.904794e+000 -1.958914e+000 1.575841e+000 -3.856231e+000 -6.065274e+000 -3.702898e+000 -2.551495e+000 2.968083e-001 -3.737341e+000 5.955114e+001 -6.880829e-001 2.505499e+000 9.632664e-001 3.245874e+000 2.348646e+000 -7.395660e-001 1.627961e+000 2.165522e-001 1.482081e-001 -4.896774e-001 -1.042145e+000 -3.779275e-001 -2.766935e+000 -2.170985e-001 -6.645449e-001 -1.576806e-002 -6.354015e-001 -5.265880e-001 -5.492290e-002 -4.074431e-001 1.133067e-001 4.096635e-002 2.997366e-001 1.952450e-001 -2.639562e-002 7.520409e-001
<VARIANCE> 39
 9.593265e+000 1.724597e+001 1.893775e+001 2.773223e+001 2.237210e+001 2.930704e+001 4.014329e+001 2.600738e+001 2.582205e+001 2.394755e+001 2.168548e+001 1.863505e+001 3.415515e+001 5.462305e-001 1.494010e+000 1.464048e+000 2.928874e+000 2.041101e+000 1.935081e+000 2.005737e+000 2.207533e+000 3.251248e+000 2.330656e+000 2.437659e+000 1.848225e+000 6.866403e-001 8.342962e-002 1.948324e-001 1.339467e-001 3.590249e-001 2.535091e-001 2.674814e-001 3.091284e-001 3.158813e-001 3.549917e-001 3.350331e-001 3.723126e-001 2.636710e-001 1.324555e-001
<GCONST> 1.010711e+002
<MIXTURE> 3 6.530856e-002
<MEAN> 39
 1.028614e+000 1.098367e+001 6.563430e+000 4.690732e+000 -1.165906e-001 -9.312193e-001 -3.075036e+000 -7.116158e+000 -5.465217e+000 -5.211700e-001 1.855995e+000 -2.423331e+000 5.565015e+001 -1.284022e-001 4.054608e-001 3.062114e-001 4.392566e-001 5.146593e-001 4.105987e-002 6.731801e-002 9.033482e-003 2.191968e-002 -1.347930e-001 -1.005016e-001 3.605953e-002 -5.095915e-001 -1.477118e-001 -4.549030e-001 -2.307969e-001 -2.403174e-001 -2.309113e-001 -5.061397e-002 -7.495590e-002 1.717507e-001 1.517179e-001 -5.981391e-002 -1.432769e-001 -1.032005e-002 4.809876e-001
<VARIANCE> 39
 1.497895e+001 1.048362e+001 2.791962e+001 2.914205e+001 2.662326e+001 2.669405e+001 2.178031e+001 2.690150e+001 3.105197e+001 2.085204e+001 1.997313e+001 2.103319e+001 5.271204e+001 3.734861e-001 3.832423e-001 7.688991e-001 9.093783e-001 1.049006e+000 1.055201e+000 1.313976e+000 1.342601e+000 1.451198e+000 1.401613e+000 1.188192e+000 1.497330e+000 2.321132e-001 1.068643e-001 1.511183e-001 2.368257e-001 2.701149e-001 2.833931e-001 2.620643e-001 2.787364e-001 2.977962e-001 3.633101e-001 2.682603e-001 2.216138e-001 2.971013e-001 1.609453e-001
<GCONST> 9.220650e+001
<MIXTURE> 4 5.933246e-002
<MEAN> 39
 2.124872e+000 8.487030e+000 5.492918e+000 1.271003e+000 -2.183249e-002 -5.388986e+000 -4.933305e+000 -5.874847e+000 -1.791575e+000 -1.013336e+000 -2.304240e+000 -7.120603e+000 5.640014e+001 -8.679823e-001 2.021576e+000 1.048572e+000 2.026887e+000 1.275725e+000 3.284694e-001 9.878839e-001 3.904838e-002 3.519877e-001 -8.752057e-001 -1.494735e-001 -1.602413e-001 -2.280648e+000 -6.434396e-001 -1.461235e+000 -3.364138e-001 -9.894837e-001 -7.505373e-001 -1.824354e-001 -9.624445e-002 4.313254e-001 -9.217674e-002 1.261025e-001 -4.651150e-002 5.392297e-001 1.770565e+000
<VARIANCE> 39
 1.258115e+001 1.708352e+001 2.244736e+001 2.944616e+001 2.218842e+001 3.095567e+001 2.549418e+001 2.807972e+001 2.541829e+001 2.514026e+001 2.057693e+001 1.450334e+001 3.084772e+001 1.080385e+000 2.037222e+000 1.863513e+000 3.193714e+000 2.592821e+000 2.719717e+000 2.073323e+000 2.664057e+000 2.830455e+000 2.415154e+000 2.525614e+000 2.067160e+000 1.442769e+000 3.094776e-001 2.573215e-001 3.554012e-001 4.895442e-001 4.951603e-001 5.809521e-001 4.379192e-001 5.130558e-001 5.417735e-001 5.225976e-001 4.682345e-001 3.061899e-001 3.360433e-001
<GCONST> 1.110978e+002
<MIXTURE> 5 8.010364e-002
<MEAN> 39
 1.235045e+000 8.636026e+000 5.922535e+000 1.488140e+000 -3.131646e+000 -3.031887e+000 -1.779611e+000 -1.504099e+000 -2.043871e+000 -4.350354e+000 -4.072442e+000 -6.320682e+000 5.821665e+001 -3.292477e-001 6.194991e-001 2.184935e-001 6.170384e-001 6.036789e-001 4.220164e-002 3.971427e-001 7.595026e-002 1.578294e-001 -1.324500e-001 -2.039223e-001 1.242524e-001 -7.706785e-001 -1.517355e-001 -7.415585e-001 -2.739433e-001 -5.855350e-001 -3.035666e-001 -4.506228e-002 -6.254593e-001 -3.017843e-001 -8.042639e-002 3.136032e-001 4.996447e-001 2.762688e-001 8.715720e-001
<VARIANCE> 39
 1.393502e+001 2.138028e+001 1.929753e+001 2.784678e+001 2.887777e+001 2.699351e+001 3.604219e+001 1.924145e+001 2.863019e+001 1.675210e+001 1.486913e+001 1.668702e+001 2.720530e+001 2.469333e-001 5.073221e-001 6.970026e-001 9.323373e-001 1.090188e+000 1.167821e+000 1.478403e+000 1.385936e+000 1.873773e+000 1.510481e+000 1.609427e+000 1.402454e+000 2.414244e-001 1.236939e-001 1.778746e-001 2.482731e-001 3.889704e-001 3.744400e-001 3.493198e-001 3.490192e-001 2.774614e-001 4.117565e-001 3.559140e-001 3.037767e-001 3.099799e-001 1.655714e-001
<GCONST> 9.413103e+001
<MIXTURE> 6 1.004498e-001
<MEAN> 39
 4.815545e+000 5.928286e-001 -3.446649e-001 -5.329546e+000 -4.940765e+000 -8.619179e-001 -9.790385e+000 -6.717880e+000 -4.647935e+000 4.746184e-001 7.540631e-001 -5.560708e+000 6.413892e+001 1.612467e-001 3.560004e+000 1.223630e+000 3.397810e+000 2.145803e+000 -6.186849e-002 1.736161e+000 -1.088830e+000 -4.482448e-001 -1.423480e+000 -2.750537e-001 -3.371396e-001 -4.024033e+000 -4.566404e-001 -5.155658e-002 1.484378e-001 -1.264739e-002 -1.371326e-002 -1.524901e-001 2.709908e-001 4.533496e-001 2.396546e-001 -2.123317e-001 -5.436410e-001 -7.516446e-002 1.992052e-001
<VARIANCE> 39
 7.012394e+000 2.391946e+001 2.914478e+001 5.660091e+001 3.723727e+001 5.193674e+001 4.595746e+001 3.546441e+001 4.129429e+001 3.630397e+001 4.763018e+001 2.302212e+001 3.599490e+001 1.112787e+000 1.452189e+000 1.948004e+000 3.700345e+000 2.783647e+000 3.230803e+000 3.273628e+000 3.246987e+000 4.353851e+000 2.803868e+000 3.499830e+000 2.548495e+000 8.492676e-001 7.318068e-002 2.107130e-001 2.401678e-001 3.866119e-001 4.457979e-001 3.552321e-001 4.215797e-001 4.200532e-001 4.511241e-001 4.675755e-001 3.966255e-001 3.715557e-001 1.790276e-001
<GCONST> 1.132955e+002
<MIXTURE> 7 6.852343e-002
<MEAN> 39
 4.048557e+000 7.813941e+000 1.671842e+000 -3.372963e+000 -3.735377e+000 -6.112973e+000 -8.482607e+000 -8.240797e+000 -6.754744e+000 -6.305588e+000 -1.065593e+001 -1.100815e+001 6.179963e+001 -2.258574e-001 7.988430e-001 5.501104e-001 6.408364e-001 5.397148e-001 -3.953282e-002 6.348360e-001 1.459388e-001 4.314181e-001 -4.776931e-001 2.095330e-001 -8.296391e-002 -8.980467e-001 -6.772702e-001 -8.168921e-001 -1.627728e-001 -3.677013e-001 -5.379201e-001 -1.158158e-001 -2.771763e-001 1.606290e-001 5.094985e-002 4.796253e-001 5.477536e-001 8.002442e-001 1.156120e+000
<VARIANCE> 39
 5.090194e+000 1.866192e+001 1.928432e+001 1.969807e+001 2.917112e+001 3.216521e+001 2.164109e+001 3.275050e+001 3.135431e+001 3.306330e+001 2.260833e+001 1.706380e+001 1.057845e+001 6.379896e-001 6.034628e-001 6.954417e-001 1.139301e+000 1.551552e+000 1.379577e+000 1.583007e+000 1.654810e+000 1.735225e+000 1.939555e+000 1.806593e+000 1.791130e+000 5.825031e-001 1.543223e-001 1.958821e-001 2.631188e-001 4.309322e-001 4.962425e-001 4.347644e-001 4.658465e-001 4.668412e-001 4.906643e-001 5.225160e-001 3.476432e-001 3.166660e-001 2.577572e-001
<GCONST> 9.956194e+001
<MIXTURE> 8 3.059371e-002
<MEAN> 39
 -1.989824e+000 9.712146e+000 6.983229e+000 7.523559e+000 1.326160e+000 -1.567247e+000 -9.633999e-001 -4.918492e+000 -5.616896e+000 -3.108732e+000 -2.056733e+000 -5.205775e+000 5.444377e+001 2.081595e+000 1.426770e+000 1.014881e+000 4.831038e-001 -6.311057e-001 -1.145374e+000 -1.303269e+000 -1.608188e+000 -1.309264e+000 -3.182125e-001 -2.686849e-001 -1.039984e+000 9.324251e-001 -4.342495e-001 -5.271965e-001 -4.814994e-001 -4.256462e-001 1.528435e-002 1.605852e-001 1.778636e-001 3.923694e-001 6.355741e-001 4.415694e-001 3.289313e-001 3.993913e-001 7.181577e-002
<VARIANCE> 39
 1.954308e+001 1.645599e+001 1.724694e+001 2.475104e+001 2.700673e+001 3.393339e+001 2.739379e+001 2.618615e+001 3.244102e+001 2.788178e+001 3.044952e+001 1.896509e+001 4.878346e+001 1.425664e+000 1.609519e+000 1.501047e+000 1.847973e+000 2.020195e+000 2.549738e+000 2.412172e+000 3.097666e+000 3.630849e+000 2.744998e+000 2.801397e+000 2.131601e+000 1.369641e+000 2.929951e-001 2.544303e-001 1.939938e-001 2.677359e-001 3.282844e-001 5.175977e-001 3.888605e-001 5.008840e-001 5.616997e-001 3.982274e-001 4.904313e-001 3.495026e-001 2.918343e-001
<GCONST> 1.104033e+002
<MIXTURE> 9 8.604251e-002
<MEAN> 39
 3.047884e+000 5.681076e+000 2.051596e+000 1.105544e-001 -4.034095e+000 -4.458117e-002 -4.925097e+000 -7.669938e+000 -9.391939e+000 -4.679483e+000 -1.314806e+000 -6.216838e+000 5.908559e+001 -3.920560e-001 2.235084e+000 1.149484e+000 2.468071e+000 1.310894e+000 -3.444844e-001 1.526293e+000 -2.778820e-001 -1.891839e-001 -9.533869e-001 -8.738679e-001 -2.949263e-001 -2.480565e+000 -2.466366e-001 -6.487048e-001 -2.522635e-001 -8.528191e-001 -4.031317e-001 -1.416613e-001 -4.763069e-001 3.543230e-001 5.798950e-001 4.780655e-001 4.290223e-002 1.249174e-001 8.460234e-001
<VARIANCE> 39
 1.169454e+001 2.228702e+001 2.280908e+001 4.713314e+001 4.014112e+001 4.868544e+001 4.010792e+001 3.478999e+001 4.083656e+001 3.957140e+001 4.840858e+001 2.180060e+001 4.781855e+001 6.109942e-001 1.049220e+000 1.439250e+000 3.428055e+000 2.555304e+000 2.197661e+000 2.565544e+000 2.632184e+000 4.185457e+000 3.160619e+000 2.681524e+000 2.318647e+000 8.454028e-001 1.069908e-001 2.058056e-001 1.816965e-001 3.490106e-001 3.877690e-001 4.670620e-001 4.270000e-001 5.154308e-001 5.461830e-001 4.488283e-001 5.816637e-001 3.302232e-001 1.485516e-001
<GCONST> 1.115259e+002
<MIXTURE> 10 7.444470e-002
<MEAN> 39
 3.236790e+000 2.247734e+000 2.603508e+000 -4.168787e+000 -5.319795e+000 -7.162542e+000 -1.017238e+001 -7.171893e+000 -5.509906e+000 -3.860967e+000 -8.879565e+000 -8.923819e+000 6.289080e+001 5.564423e-001 3.381965e+000 2.929518e-001 2.959819e+000 1.878552e+000 6.917016e-001 8.978908e-001 -1.095499e+000 3.607360e-001 -1.562917e+000 -3.303002e-001 -1.871010e+000 -3.712121e+000 -5.984886e-001 -3.291647e-001 8.025777e-002 -6.714126e-001 -4.507362e-001 -7.699400e-003 2.955529e-001 3.075033e-001 -1.115258e-001 1.109425e-001 1.788445e-001 5.666194e-001 6.935169e-001
<VARIANCE> 39
 1.049511e+001 3.322649e+001 3.848180e+001 3.213280e+001 3.411816e+001 6.772016e+001 3.607907e+001 3.564774e+001 3.934332e+001 3.655787e+001 3.305322e+001 2.639578e+001 2.171828e+001 8.114321e-001 1.579407e+000 3.327924e+000 3.085071e+000 3.747747e+000 4.222996e+000 3.859983e+000 4.425747e+000 3.847201e+000 3.381794e+000 3.166634e+000 2.652843e+000 9.192255e-001 1.439791e-001 2.977555e-001 3.470956e-001 3.237103e-001 4.527225e-001 4.655726e-001 5.002652e-001 5.497798e-001 5.683520e-001 5.091051e-001 4.337050e-001 3.724445e-001 2.137336e-001
<GCONST> 1.166738e+002
<MIXTURE> 11 6.292830e-002
<MEAN> 39
 -3.033827e+000 4.626790e+000 2.227164e+000 1.505796e-001 -6.401434e+000 -2.322968e+000 -3.434541e+000 -5.504277e+000 -5.251496e+000 -3.297050e+000 -4.868884e+000 -5.710033e+000 5.759584e+001 -1.816205e-001 4.152402e-001 -1.085683e-001 3.806113e-001 6.110286e-001 1.591976e-001 6.930407e-001 4.368148e-001 -1.024236e-001 -4.567366e-001 -3.319284e-001 2.037378e-003 -5.138626e-001 -4.371785e-002 -3.948334e-001 4.351965e-002 -3.333268e-001 -3.227758e-001 -1.167624e-001 -5.245667e-001 -1.892237e-003 2.665959e-001 3.209968e-001 2.193174e-001 1.166445e-001 4.002388e-001
<VARIANCE> 39
 2.699566e+001 1.650651e+001 1.307619e+001 1.613791e+001 2.979848e+001 3.047344e+001 2.526548e+001 1.691492e+001 2.012778e+001 2.024239e+001 3.256876e+001 2.649169e+001 5.058346e+001 1.621700e-001 5.221562e-001 5.831528e-001 8.471723e-001 1.154850e+000 1.146702e+000 1.247100e+000 1.117992e+000 1.487959e+000 1.451340e+000 1.237198e+000 1.034457e+000 1.713220e-001 6.778540e-002 1.353177e-001 1.914189e-001 2.871214e-001 3.284602e-001 2.842601e-001 3.812594e-001 2.779411e-001 3.358774e-001 3.490250e-001 2.895866e-001 2.143813e-001 1.044243e-001
<GCONST> 8.999209e+001
<MIXTURE> 12 9.209080e-002
<MEAN> 39
 2.613931e+000 8.437834e+000 3.635764e+000 1.765344e+000 -1.779537e+000 -2.352996e+000 -7.272936e+000 -8.820739e+000 -4.852328e+000 3.718604e-001 3.980995e-001 -6.348034e+000 5.901994e+001 -2.717514e-001 7.612180e-001 2.791405e-001 4.878957e-001 5.442891e-001 -3.844775e-002 2.284715e-001 -5.660176e-002 1.508191e-001 -5.690102e-002 7.547854e-002 2.521097e-001 -8.549388e-001 -4.094903e-001 -9.133441e-001 3.279138e-003 -4.731554e-001 -4.919627e-001 -2.577738e-001 -1.437398e-001 4.285751e-001 7.221330e-002 -1.518348e-001 -1.916987e-001 3.174735e-001 1.054282e+000
<VARIANCE> 39
 1.151391e+001 1.717954e+001 2.523094e+001 4.028345e+001 2.981514e+001 3.992468e+001 3.209489e+001 2.296938e+001 3.173306e+001 2.352872e+001 2.203174e+001 2.151595e+001 4.602063e+001 2.721896e-001 5.021718e-001 5.658674e-001 8.422927e-001 9.724129e-001 1.165064e+000 1.204407e+000 1.269973e+000 1.560708e+000 1.521972e+000 1.384536e+000 1.248681e+000 2.307294e-001 1.572651e-001 1.883662e-001 2.914242e-001 4.161779e-001 3.816906e-001 4.092650e-001 3.978080e-001 3.564128e-001 4.747269e-001 3.294944e-001 2.928599e-001 3.423030e-001 1.751639e-001
<GCONST> 9.660793e+001
<MIXTURE> 13 4.167167e-002
<MEAN> 39
 2.014861e-001 5.055737e+000 5.813859e+000 3.922017e-002 -3.699070e+000 -1.006934e+001 -7.802292e+000 -8.493556e+000 -3.826906e+000 -4.927980e+000 -8.687025e+000 -1.178035e+001 5.644133e+001 -1.007622e+000 1.775132e+000 7.989926e-001 1.767933e+000 7.885255e-001 5.978937e-001 8.631997e-001 -7.102919e-001 1.260452e-002 -1.193982e+000 -3.494355e-002 -8.865613e-002 -1.759041e+000 -4.171293e-001 -1.520163e+000 -3.563113e-001 -1.401662e+000 -6.573573e-001 -2.507561e-001 -3.958471e-003 9.764323e-001 -3.256920e-002 4.239976e-001 3.416024e-001 1.035381e+000 1.924694e+000
<VARIANCE> 39
 6.073823e+000 1.446959e+001 1.538302e+001 1.285402e+001 1.874788e+001 2.170423e+001 2.806882e+001 3.040708e+001 2.753233e+001 2.705681e+001 2.981093e+001 2.230795e+001 1.043574e+001 7.384343e-001 1.949296e+000 1.102636e+000 2.623794e+000 1.672033e+000 1.880023e+000 2.353955e+000 2.775330e+000 2.719288e+000 2.214319e+000 2.263174e+000 2.412643e+000 2.043126e+000 2.629898e-001 2.693863e-001 3.774674e-001 3.938832e-001 5.211035e-001 4.833525e-001 5.572212e-001 6.846025e-001 5.837319e-001 5.984018e-001 6.195338e-001 4.804375e-001 3.182315e-001
<GCONST> 1.080081e+002
<MIXTURE> 14 5.943295e-002
<MEAN> 39
 1.632705e+000 5.213847e+000 5.436882e+000 2.969875e+000 -8.533227e+000 -4.749007e+000 -9.340611e+000 -5.359856e+000 -4.271058e+000 -1.208097e+000 -2.872627e-001 -6.049949e+000 5.952684e+001 6.033990e-001 1.684829e+000 -3.297976e-001 3.225612e-001 8.499479e-001 5.817959e-001 1.153606e+000 5.363354e-003 3.998081e-002 -6.267692e-002 -4.172672e-001 -1.192657e-001 -2.171218e+000 -6.197175e-001 -2.763408e-001 1.704809e-002 -1.983973e-001 6.530508e-002 -1.068466e-001 -8.205722e-002 -1.080427e-002 -8.380937e-002 -2.295541e-001 -1.459391e-001 2.789724e-001 6.548890e-001
<VARIANCE> 39
 2.113679e+001 3.937090e+001 5.493717e+001 4.984965e+001 5.425310e+001 4.610400e+001 5.331433e+001 3.822858e+001 3.629274e+001 3.051093e+001 2.985481e+001 2.992847e+001 4.827346e+001 1.228194e+000 1.046529e+000 1.814110e+000 1.721133e+000 2.347837e+000 2.347558e+000 3.053547e+000 2.863806e+000 3.032331e+000 2.803718e+000 2.103952e+000 2.358889e+000 1.102121e+000 2.248699e-001 4.112564e-001 4.594691e-001 3.908457e-001 5.639727e-001 5.260313e-001 5.427010e-001 5.748897e-001 4.963839e-001 4.725948e-001 3.739302e-001 4.107680e-001 4.313015e-001
<GCONST> 1.179049e+002
<MIXTURE> 15 3.025726e-002
<MEAN> 39
 5.987843e+000 7.045523e+000 -3.980772e+000 -4.296516e+000 -5.806097e+000 -8.679545e+000 -1.169200e+001 -7.455244e+000 -6.126951e+000 -7.019601e+000 -1.140826e+001 -9.702706e+000 6.111998e+001 -1.898759e-001 1.870381e+000 5.427248e-001 6.281362e-001 3.361947e-001 -9.692956e-002 6.203601e-001 -7.459936e-002 -1.592718e-001 -8.646250e-001 -3.128968e-001 -3.886020e-001 -1.464484e+000 -5.630006e-001 -8.386310e-001 2.232538e-001 -6.939332e-001 -5.245141e-001 2.549767e-001 6.591122e-002 7.589423e-002 1.132710e-003 4.833139e-001 6.494270e-001 5.612778e-001 9.485352e-001
<VARIANCE> 39
 1.786100e+001 2.599798e+001 5.838554e+001 2.841352e+001 3.223790e+001 4.052291e+001 3.377365e+001 4.332694e+001 3.241337e+001 4.142804e+001 2.418477e+001 2.699134e+001 1.231726e+001 5.588196e-001 1.738719e+000 2.160853e+000 2.497623e+000 3.449043e+000 2.436200e+000 3.078044e+000 2.525187e+000 2.616168e+000 2.594322e+000 2.714382e+000 2.541315e+000 6.989191e-001 2.583136e-001 5.397086e-001 7.588740e-001 6.189190e-001 8.618987e-001 6.728626e-001 5.729449e-001 6.589869e-001 6.765074e-001 7.654383e-001 4.862473e-001 6.082344e-001 4.649832e-001
<GCONST> 1.183273e+002
<MIXTURE> 16 2.006040e-002
<MEAN> 39
 -9.771524e-001 8.870472e+000 5.295343e+000 2.996186e+000 -3.940130e+000 -7.482593e+000 -7.233441e+000 -1.037028e+001 -7.409152e+000 -3.410801e+000 -5.660304e+000 -8.052900e+000 5.639203e+001 2.585961e+000 9.446670e-001 9.979353e-003 -1.967226e-001 -1.005914e+000 -1.261266e+000 -1.544617e+000 -1.330807e+000 -9.781314e-001 -3.485712e-001 -1.279689e+000 -1.977269e+000 9.716849e-001 -9.138470e-001 -7.785128e-001 -4.157743e-001 -3.865009e-001 3.491401e-001 6.339154e-001 6.894707e-001 1.064040e+000 9.433754e-001 2.881489e-001 6.159274e-001 7.504290e-001 1.651738e-001
<VARIANCE> 39
 3.176409e+001 5.023103e+001 3.028397e+001 3.602909e+001 5.506911e+001 4.614709e+001 4.492405e+001 3.865462e+001 5.243282e+001 4.808751e+001 4.928844e+001 5.113346e+001 6.641872e+001 4.085983e+000 3.527979e+000 2.079950e+000 3.739206e+000 5.084985e+000 4.715112e+000 4.788110e+000 6.321245e+000 6.526005e+000 3.778703e+000 4.545611e+000 4.149498e+000 6.836676e+000 6.989409e-001 8.169817e-001 5.565189e-001 5.997245e-001 8.796167e-001 6.586117e-001 7.312611e-001 9.971958e-001 8.105103e-001 8.844324e-001 8.694563e-001 1.020946e+000 9.227067e-001
<GCONST> 1.375272e+002
<STATE> 3
<NUMMIXES> 16
<MIXTURE> 1 7.050514e-002
<MEAN> 39
 3.152214e+000 1.154612e+001 6.136717e+000 1.699260e+000 2.139935e+000 9.737663e-001 -5.145699e-001 -7.042291e+000 -5.858631e+000 -4.884374e+000 1.319185e+000 -1.889305e+000 5.668707e+001 -6.984825e-001 7.312065e-001 6.956350e-001 1.169169e+000 7.911183e-001 -2.062783e-001 5.207020e-001 1.056024e-001 -2.159245e-001 -2.300503e-001 -2.963983e-001 3.356585e-001 -9.544804e-001 -5.396696e-001 -1.589287e+000 -4.150949e-001 -7.691627e-001 -7.922081e-001 -4.601893e-001 -7.011200e-001 2.578993e-001 6.884811e-001 5.991575e-001 5.492195e-002 -1.256879e-001 1.813466e+000
<VARIANCE> 39
 1.275075e+001 9.859743e+000 1.332648e+001 2.249571e+001 1.859240e+001 2.208265e+001 2.564964e+001 2.677494e+001 1.528556e+001 1.921189e+001 1.964742e+001 1.224351e+001 2.859988e+001 8.364236e-001 1.730742e+000 1.051739e+000 2.239496e+000 1.735477e+000 1.745873e+000 1.848198e+000 2.172947e+000 2.357270e+000 1.738188e+000 2.172415e+000 1.368309e+000 1.034298e+000 1.962220e-001 2.163239e-001 2.654848e-001 4.217000e-001 4.710731e-001 4.146235e-001 5.190588e-001 5.443113e-001 4.327394e-001 4.617259e-001 5.043758e-001 3.097943e-001 2.345665e-001
<GCONST> 1.023787e+002
<MIXTURE> 2 1.511283e-002
<MEAN> 39
 -6.692872e+000 -5.541030e+000 1.274647e+001 -9.106805e+000 1.490218e+000 1.256007e+000 -5.632440e+000 -1.058616e+001 -9.636970e+000 -1.068186e+000 7.744000e-001 -3.774439e+000 6.210024e+001 -1.012796e+000 -6.387110e+000 8.905858e-001 -3.831831e+000 2.903360e-001 -6.241392e-001 -3.641299e-001 -1.930707e-001 1.983095e+000 1.614626e+000 2.758259e+000 9.424827e-001 5.649514e+000 5.533530e-001 -5.037850e-001 -4.582174e-001 -2.516059e-001 -1.307356e+000 6.790606e-001 -8.310503e-001 6.075278e-001 4.699017e-001 -3.221564e-001 5.091407e-001 -3.252286e-001 3.575134e-001
<VARIANCE> 39
 3.484554e+001 1.229624e+002 7.078991e+001 1.435501e+002 8.242010e+001 1.124907e+002 1.051468e+002 6.622047e+001 1.691559e+002 5.287849e+001 8.490919e+001 4.030333e+001 6.530702e+001 3.163061e+000 1.064188e+001 7.480072e+000 1.391610e+001 1.069343e+001 1.147214e+001 1.220251e+001 7.557586e+000 1.188978e+001 6.976225e+000 1.122567e+001 4.097437e+000 4.571584e+000 5.642453e-001 2.096959e+000 6.609268e-001 1.833058e+000 2.153893e+000 1.885766e+000 1.704477e+000 1.295508e+000 1.826411e+000 1.016951e+000 1.853444e+000 8.412095e-001 1.098732e+000
<GCONST> 1.596387e+002
<MIXTURE> 3 8.338352e-002
<MEAN> 39
 1.558765e+000 1.204316e+001 7.477812e+000 4.173829e+000 2.259782e+000 1.080987e+000 2.178716e-001 -6.086835e+000 -6.381350e+000 -5.044097e+000 -7.921312e-002 -1.608663e+000 5.538274e+001 -1.926543e+000 -2.984143e+000 -1.077132e+000 -4.939577e-001 -3.301958e-001 -1.245414e+000 -1.102951e+000 2.184011e-001 1.731291e+000 1.220626e+000 6.511620e-002 1.729540e-001 3.411542e+000 1.996194e-001 -1.299105e+000 -5.146278e-001 -1.108062e+000 -1.173291e+000 -3.146947e-001 -8.462290e-001 4.552675e-002 4.531897e-001 6.730790e-001 2.677968e-001 -2.762448e-001 1.632719e+000
<VARIANCE> 39
 1.095511e+001 9.215383e+000 1.107762e+001 2.210323e+001 2.175679e+001 1.860465e+001 2.084899e+001 2.514537e+001 2.673585e+001 1.967130e+001 2.025911e+001 1.312897e+001 3.014161e+001 1.402408e+000 1.551276e+000 1.655664e+000 3.181522e+000 2.963885e+000 2.882688e+000 4.073946e+000 3.115016e+000 3.564511e+000 2.736964e+000 2.684033e+000 1.885504e+000 1.866822e+000 1.889601e-001 3.254563e-001 4.933497e-001 6.122009e-001 5.273421e-001 6.127973e-001 5.509933e-001 5.657165e-001 7.286152e-001 5.599216e-001 6.049358e-001 3.938811e-001 2.419209e-001
<GCONST> 1.109295e+002
<MIXTURE> 4 7.748608e-002
<MEAN> 39
 3.632528e+000 1.013199e+001 3.742741e+000 2.274849e+000 1.390775e+000 1.269240e-001 -5.662215e+000 -9.493688e+000 -4.887782e+000 3.545602e-001 1.949796e+000 -5.121783e+000 5.777709e+001 -2.364972e+000 -2.293235e+000 5.960830e-001 4.529412e-001 -8.022087e-001 -2.477845e+000 -6.174310e-001 1.390569e+000 1.154181e+000 -1.308402e-001 -8.688878e-001 6.156484e-001 3.042847e+000 -2.867588e-001 -1.308291e+000 3.479612e-001 -4.858009e-001 -1.427307e+000 -7.609063e-001 -4.907536e-001 6.181214e-001 -4.991702e-002 -1.277942e-001 -6.743947e-002 1.585576e-001 1.588179e+000
<VARIANCE> 39
 8.313317e+000 1.298121e+001 1.776639e+001 2.586664e+001 2.267576e+001 2.200389e+001 2.382922e+001 1.969155e+001 2.224218e+001 2.107997e+001 2.346442e+001 2.040268e+001 4.150636e+001 1.183404e+000 2.175222e+000 1.845778e+000 2.603712e+000 2.956963e+000 3.008881e+000 3.337096e+000 2.466817e+000 3.151624e+000 2.732375e+000 2.322508e+000 2.230857e+000 2.206994e+000 2.226849e-001 3.148550e-001 4.978781e-001 4.242256e-001 4.796092e-001 4.368107e-001 4.759734e-001 5.036796e-001 7.312883e-001 4.977171e-001 5.622503e-001 4.791800e-001 2.610850e-001
<GCONST> 1.114298e+002
<MIXTURE> 5 8.726682e-002
<MEAN> 39
 2.090468e-001 9.590551e+000 6.246780e+000 1.743434e+000 -7.571126e-001 -7.470368e+000 -6.771704e+000 -7.797849e+000 -2.686777e+000 -3.864513e+000 -5.625727e+000 -9.251319e+000 5.401308e+001 -2.452850e+000 -2.153008e+000 4.914220e-002 -1.658159e-001 -2.676078e-001 -1.140017e-001 1.120167e+000 1.308070e+000 4.391347e-001 -6.463810e-001 7.505836e-001 1.671947e+000 2.830836e+000 -8.776972e-002 -1.503921e+000 -3.776788e-001 -1.298469e+000 -1.118625e+000 -4.598581e-001 -1.178000e-001 5.497925e-001 -2.618312e-001 5.743474e-001 1.404139e-001 7.237703e-001 2.038730e+000
<VARIANCE> 39
 1.235166e+001 1.010115e+001 1.212603e+001 1.053263e+001 1.742651e+001 1.589822e+001 2.180229e+001 1.992453e+001 2.041946e+001 2.391903e+001 1.980732e+001 1.754957e+001 2.245166e+001 1.095522e+000 1.706899e+000 1.642009e+000 2.425861e+000 2.883366e+000 2.974134e+000 2.247776e+000 2.664092e+000 2.866859e+000 2.470648e+000 2.808835e+000 2.263045e+000 2.914723e+000 3.392752e-001 3.235019e-001 6.076882e-001 4.947520e-001 5.963360e-001 5.686938e-001 4.429573e-001 6.804443e-001 6.547825e-001 5.555506e-001 5.275961e-001 4.390276e-001 2.715009e-001
<GCONST> 1.095593e+002
<MIXTURE> 6 1.148884e-001
<MEAN> 39
 -1.228934e+000 9.437136e+000 6.622549e+000 4.666726e+000 -3.880454e-001 -3.156157e+000 -3.520860e+000 -2.932754e+000 -3.488811e-001 -3.263868e-001 -4.053129e-001 -3.972824e+000 5.471424e+001 -1.170950e+000 -9.010554e-001 -2.187166e-001 -4.683250e-002 4.498108e-001 -2.632476e-003 4.536943e-001 3.345364e-001 2.272115e-001 -2.471057e-001 -2.150763e-001 4.978201e-001 7.085744e-001 2.132208e-002 -1.166569e+000 -2.837861e-001 -8.073925e-001 -7.523901e-001 -1.443606e-001 -3.807618e-001 -1.198698e-001 -2.561850e-001 -7.054044e-002 1.735973e-001 1.521433e-001 1.474774e+000
<VARIANCE> 39
 1.691663e+001 2.127836e+001 2.260783e+001 2.763691e+001 2.601908e+001 2.988108e+001 3.460922e+001 2.241157e+001 2.399014e+001 2.162785e+001 2.031901e+001 1.964566e+001 4.492257e+001 1.043850e+000 1.386918e+000 1.381616e+000 1.673587e+000 1.665764e+000 1.907690e+000 1.773128e+000 2.062326e+000 1.979187e+000 1.947895e+000 1.799025e+000 1.490981e+000 1.553769e+000 2.424708e-001 2.892090e-001 5.778695e-001 5.439895e-001 5.410512e-001 5.856708e-001 5.251257e-001 5.075111e-001 5.121751e-001 4.904698e-001 4.913711e-001 3.846799e-001 2.435630e-001
<GCONST> 1.090481e+002
<MIXTURE> 7 3.964327e-002
<MEAN> 39
 7.893043e+000 1.235755e+001 -5.528829e+000 -5.794104e+000 -8.947899e+000 4.656090e+000 -3.545301e+000 -7.192866e+000 -9.498318e+000 -3.085868e+000 -1.959846e+000 -4.621251e+000 5.301868e+001 -6.482219e-001 6.561608e-001 2.191011e-001 8.808352e-001 5.360027e-001 -3.573161e-001 7.387185e-002 1.368780e-002 4.774705e-001 -5.187535e-001 -3.245650e-001 6.428674e-001 -8.206826e-001 -5.960788e-001 -1.183345e+000 3.647196e-001 2.408299e-001 1.868919e-001 -7.500281e-001 -1.104044e+000 -2.749652e-001 4.917325e-001 1.356830e-001 -1.139691e-002 2.525790e-001 1.055560e+000
<VARIANCE> 39
 9.153077e+000 2.461766e+001 2.856046e+001 5.441986e+001 3.514977e+001 4.872423e+001 4.490128e+001 4.300368e+001 3.334583e+001 4.546164e+001 3.666549e+001 3.119411e+001 1.435449e+001 8.633779e-001 2.217432e+000 1.498005e+000 2.126560e+000 3.165033e+000 3.091413e+000 3.736676e+000 4.079759e+000 3.947284e+000 4.061515e+000 2.620242e+000 2.616228e+000 9.506940e-001 2.560078e-001 4.668838e-001 4.525606e-001 4.721686e-001 5.947875e-001 6.391984e-001 7.448354e-001 7.064542e-001 7.648024e-001 1.044982e+000 6.388217e-001 6.588189e-001 2.780769e-001
<GCONST> 1.203010e+002
<MIXTURE> 8 3.201593e-002
<MEAN> 39
 -1.490018e+000 9.166741e+000 4.925155e-001 7.644361e+000 -4.155986e+000 -7.271409e-002 -8.507712e+000 -8.149722e+000 -1.343715e+001 -3.273515e+000 1.091733e+001 3.011527e-001 4.685260e+001 -4.351294e-001 1.215943e+000 9.541598e-002 8.425434e-001 5.372711e-001 -2.250437e-001 -1.584716e-001 -5.863861e-001 -3.216290e-003 1.098812e+000 -3.503412e-001 4.316232e-001 -1.102929e+000 -3.038882e-001 -9.837285e-001 1.281009e-002 -8.465587e-001 -1.983629e-001 -2.140000e-001 -1.294722e-001 2.025782e-001 1.131550e+000 -1.154305e-001 -6.407737e-001 -4.038085e-001 1.134921e+000
<VARIANCE> 39
 1.200260e+001 1.909848e+001 1.900614e+001 2.787007e+001 3.797801e+001 2.729807e+001 6.966752e+001 2.737251e+001 4.495995e+001 4.557767e+001 2.777485e+001 2.346510e+001 4.350232e+001 4.953266e-001 2.078969e+000 1.009658e+000 2.306274e+000 2.090684e+000 2.004469e+000 3.516935e+000 2.328512e+000 4.824159e+000 2.990323e+000 3.142973e+000 1.987351e+000 1.483470e+000 1.190337e-001 3.942110e-001 2.308515e-001 3.982153e-001 4.999812e-001 5.404849e-001 8.431824e-001 6.701182e-001 6.940203e-001 6.864650e-001 5.731784e-001 4.038009e-001 4.027887e-001
<GCONST> 1.146252e+002
<MIXTURE> 9 9.933674e-002
<MEAN> 39
 -3.816301e-001 5.898062e+000 2.936694e+000 1.012121e+000 -3.800363e+000 -2.691024e+000 -4.097516e+000 -4.136394e+000 -4.645555e+000 -3.745273e+000 -3.260843e+000 -5.597634e+000 5.975550e+001 -5.797286e-001 -8.561692e-001 -2.902950e-001 -6.238996e-001 -4.297863e-001 -2.649257e-001 -6.797082e-001 -3.600751e-001 4.429656e-001 3.878105e-001 4.544207e-001 6.091732e-001 1.124768e+000 1.004314e-001 -8.118794e-001 -6.669882e-002 -8.534478e-001 -8.647038e-001 2.305688e-002 -8.457000e-001 -1.849483e-001 3.738417e-002 4.298247e-001 4.509003e-001 1.156128e-001 1.051113e+000
<VARIANCE> 39
 2.560766e+001 2.517799e+001 1.992425e+001 2.912729e+001 2.914054e+001 3.324389e+001 4.194822e+001 2.738744e+001 3.034476e+001 2.150406e+001 3.209520e+001 2.177213e+001 3.898935e+001 1.013311e+000 1.273430e+000 1.656345e+000 2.480549e+000 2.424419e+000 1.983969e+000 2.963145e+000 1.986326e+000 2.637618e+000 2.125173e+000 1.949283e+000 1.609354e+000 8.681517e-001 1.754973e-001 3.079183e-001 6.062925e-001 5.303081e-001 5.457767e-001 5.458060e-001 6.006770e-001 5.330305e-001 6.314322e-001 5.576938e-001 5.152295e-001 3.985054e-001 1.835887e-001
<GCONST> 1.121380e+002
<MIXTURE> 10 9.419138e-002
<MEAN> 39
 -9.574265e-001 9.175068e+000 7.055984e+000 4.537076e+000 1.965720e-001 -3.571864e+000 -4.939528e+000 -8.114419e+000 -6.030668e+000 -4.008744e+000 -1.885235e+000 -4.425324e+000 5.617202e+001 -1.166488e+000 -3.328122e+000 -1.801923e+000 -2.246757e+000 -1.169802e+000 -5.870674e-001 -5.582193e-001 1.191083e+000 1.705797e+000 1.091781e+000 1.581695e-001 4.328476e-001 4.156507e+000 4.852559e-001 -1.202254e+000 -6.511382e-001 -1.341044e+000 -1.036400e+000 -1.038979e-002 -4.728346e-001 4.967969e-001 2.623020e-001 6.529720e-001 -4.323320e-002 -2.095684e-001 1.393160e+000
<VARIANCE> 39
 1.171579e+001 1.530471e+001 1.540119e+001 2.563808e+001 2.392724e+001 2.565991e+001 2.462053e+001 1.973926e+001 2.162142e+001 2.172488e+001 2.073327e+001 1.492584e+001 4.502255e+001 2.208783e+000 2.148225e+000 2.623815e+000 4.059234e+000 3.345531e+000 3.627321e+000 3.488904e+000 3.640716e+000 3.071227e+000 3.722880e+000 2.671169e+000 2.634066e+000 1.917232e+000 1.958571e-001 3.749766e-001 5.298728e-001 5.872040e-001 6.115686e-001 6.902347e-001 5.509695e-001 6.529413e-001 6.349433e-001 5.941139e-001 6.405664e-001 5.045481e-001 2.305742e-001
<GCONST> 1.159091e+002
<MIXTURE> 11 7.960615e-002
<MEAN> 39
 1.357518e+000 8.130865e+000 4.074688e+000 -1.337457e+000 -4.882442e+000 -8.429524e+000 -7.734438e+000 -8.105241e+000 -6.027265e+000 -8.292868e+000 -1.052284e+001 -9.903114e+000 5.988845e+001 -2.066108e+000 -2.053239e+000 -7.601765e-001 -1.007717e+000 -7.293828e-001 -3.389468e-001 5.832596e-002 6.677167e-001 5.982917e-001 9.092119e-001 1.647335e+000 1.804774e+000 3.436142e+000 -2.962889e-002 -1.115580e+000 -5.277077e-001 -1.237843e+000 -7.098599e-001 -2.345948e-002 -2.903493e-001 2.824849e-001 -1.401734e-001 9.066103e-001 3.480180e-001 7.493477e-001 1.381427e+000
<VARIANCE> 39
 1.281984e+001 1.980686e+001 1.884030e+001 1.571631e+001 2.188716e+001 2.326386e+001 3.042671e+001 3.050245e+001 2.615671e+001 3.047042e+001 2.290821e+001 1.878857e+001 1.851597e+001 1.597610e+000 2.513113e+000 3.424167e+000 4.441933e+000 4.780479e+000 3.679940e+000 2.865648e+000 4.153019e+000 3.452975e+000 3.263855e+000 2.840051e+000 2.505926e+000 2.047288e+000 2.932271e-001 3.894717e-001 6.460305e-001 5.529576e-001 7.864491e-001 6.744456e-001 6.451470e-001 8.434024e-001 8.393137e-001 7.232558e-001 7.284392e-001 4.546957e-001 3.275374e-001
<GCONST> 1.190302e+002
<MIXTURE> 12 8.021821e-002
<MEAN> 39
 2.570947e+000 8.226023e+000 6.189818e+000 3.259412e+000 -2.730841e+000 6.007803e-001 -3.250941e+000 -9.950222e+000 -9.405377e+000 -5.579926e+000 -1.371132e+000 -4.068157e+000 5.760556e+001 -1.282482e+000 -1.223815e-001 -1.099267e-001 5.359783e-001 1.000666e+000 -5.908191e-001 1.179769e-001 1.775314e-001 6.662139e-001 1.239049e-001 -2.685684e-001 1.759594e-001 2.991491e-001 -3.222677e-001 -1.556927e+000 -6.165062e-001 -1.070723e+000 -8.288665e-001 -4.013937e-001 -8.497184e-001 5.424855e-001 8.693068e-001 7.979809e-001 1.427264e-001 -2.282550e-002 1.839496e+000
<VARIANCE> 39
 1.045956e+001 2.188693e+001 2.244155e+001 4.621835e+001 3.202604e+001 5.123707e+001 2.943010e+001 3.111169e+001 2.861277e+001 2.542420e+001 2.931339e+001 1.918254e+001 3.497523e+001 1.141316e+000 1.614058e+000 1.504609e+000 2.168317e+000 1.830264e+000 2.237972e+000 1.717727e+000 2.011609e+000 2.405602e+000 1.957827e+000 1.881293e+000 1.270321e+000 1.456560e+000 2.306786e-001 2.810882e-001 4.078691e-001 6.882464e-001 6.578164e-001 5.210426e-001 5.226742e-001 5.809811e-001 5.602682e-001 4.963275e-001 5.275500e-001 4.541500e-001 2.314344e-001
<GCONST> 1.115531e+002
<MIXTURE> 13 5.219938e-002
<MEAN> 39
 4.992947e+000 8.954226e+000 -2.303648e+000 -4.171721e+000 -2.447074e+000 -1.509790e-001 -7.533219e+000 -7.835239e+000 -5.663572e+000 -3.678591e+000 -5.218253e+000 -6.973794e+000 5.740532e+001 -2.625129e+000 -2.024692e+000 1.421573e+000 1.729590e+000 -5.125414e-001 -2.333281e+000 -6.227598e-001 1.495268e-001 8.402456e-001 -1.855746e-001 3.151081e-001 1.057139e+000 2.294595e+000 -5.469517e-001 -1.210017e+000 4.819768e-001 -3.688705e-001 -1.081696e+000 -7.532782e-001 -6.587384e-001 1.571114e-001 -2.673741e-001 3.963772e-001 2.684135e-001 2.923910e-001 1.601245e+000
<VARIANCE> 39
 6.444556e+000 2.434117e+001 2.099465e+001 2.843910e+001 3.885609e+001 3.514169e+001 3.526359e+001 3.449747e+001 3.412836e+001 3.416194e+001 3.265857e+001 3.181327e+001 3.558414e+001 1.523985e+000 3.635118e+000 2.463922e+000 3.115059e+000 5.336365e+000 4.380532e+000 5.644588e+000 3.194279e+000 4.164056e+000 3.537691e+000 3.411159e+000 3.256999e+000 1.988407e+000 2.318835e-001 3.309277e-001 7.600413e-001 5.710416e-001 7.256160e-001 7.468932e-001 6.774294e-001 7.439706e-001 9.363648e-001 7.690172e-001 6.611079e-001 7.310895e-001 2.079415e-001
<GCONST> 1.232799e+002
<MIXTURE> 14 2.934710e-002
<MEAN> 39
 4.677736e+000 1.301339e+001 -7.522119e-003 -7.963610e+000 -1.394138e+001 -3.947253e+000 -8.380692e+000 -6.451409e+000 -9.531928e+000 -8.724276e+000 -6.228582e+000 -6.631289e+000 5.405151e+001 -6.494839e-001 6.106368e-002 3.965346e-001 8.480211e-001 -1.990635e-002 -4.927176e-001 3.467138e-001 8.506864e-002 2.731347e-001 -5.043128e-002 -4.671251e-002 3.648036e-001 -5.283054e-001 -2.061285e-001 -1.751884e+000 -6.896898e-002 -1.576672e-001 4.647104e-001 6.594302e-002 -5.177267e-001 -3.236624e-001 4.174437e-001 4.974830e-001 3.595060e-001 2.954928e-001 1.132263e+000
<VARIANCE> 39
 1.158350e+001 4.921856e+001 3.760232e+001 4.857602e+001 2.969445e+001 1.360589e+002 3.539478e+001 2.893833e+001 4.483999e+001 2.560044e+001 3.335757e+001 1.748410e+001 1.531582e+001 1.021644e+000 8.889504e+000 3.563203e+000 4.833776e+000 4.590600e+000 3.976714e+000 3.948809e+000 3.530172e+000 3.417531e+000 2.794163e+000 2.866173e+000 2.173631e+000 2.015024e+000 5.156696e-001 8.588902e-001 1.204420e+000 1.351865e+000 9.843593e-001 1.193292e+000 8.462830e-001 7.936245e-001 7.875766e-001 6.727542e-001 6.118905e-001 4.361351e-001 3.729238e-001
<GCONST> 1.287839e+002
<MIXTURE> 15 1.726598e-002
<MEAN> 39
 -5.074436e+000 1.256952e+001 7.903669e-001 9.187682e+000 -2.689790e+000 6.454996e-001 -1.087845e+001 -9.226154e+000 -1.052881e+001 -1.413909e+000 5.349120e+000 -2.499470e-001 4.104728e+001 -1.730582e+000 -3.117146e+000 2.212194e-001 -1.337361e+000 3.413626e-001 -1.236606e+000 1.109443e+000 6.171787e-001 2.779232e+000 2.470559e-001 -2.293124e+000 -8.742973e-001 2.802511e+000 8.885102e-002 -1.645479e+000 -1.345928e-001 -1.070963e+000 -7.369067e-001 -6.134078e-001 -1.123628e-001 3.932888e-001 8.971664e-001 -5.349469e-001 4.529748e-001 -3.255296e-001 2.078125e+000
<VARIANCE> 39
 1.388889e+001 1.270370e+001 1.418953e+001 2.724268e+001 2.525262e+001 1.826661e+001 3.557906e+001 3.223158e+001 3.774955e+001 3.310752e+001 4.880141e+001 2.319981e+001 1.172018e+001 9.993391e-001 4.225518e+000 1.711259e+000 4.510075e+000 3.448780e+000 4.013878e+000 3.679395e+000 2.623135e+000 4.930251e+000 3.479922e+000 3.773546e+000 2.583081e+000 5.549183e+000 2.334020e-001 3.780206e-001 3.998885e-001 3.607068e-001 5.687274e-001 5.992970e-001 7.061499e-001 6.570374e-001 9.496402e-001 8.357615e-001 1.034568e+000 6.084365e-001 2.460012e-001
<GCONST> 1.195173e+002
<MIXTURE> 16 2.751205e-002
<MEAN> 39
 -1.296552e+000 7.539241e+000 6.255482e+000 -1.458100e-001 -7.324123e+000 2.234620e+000 -9.312542e+000 -7.237140e+000 -6.424028e+000 -4.755905e+000 -3.610510e+000 -4.306481e+000 5.099490e+001 -1.653089e+000 -1.701484e+000 6.914448e-001 -4.699712e-001 2.175903e+000 -1.848214e+000 4.899533e-002 -7.931173e-001 6.245834e-001 5.010336e-001 -4.438330e-001 5.520450e-001 1.931767e+000 -1.818352e-001 -1.678157e+000 3.119928e-001 -1.169952e+000 -1.941984e-001 -1.191483e-001 6.301692e-002 -2.882585e-002 6.692034e-003 1.124387e-001 6.419140e-001 2.079010e-001 1.664817e+000
<VARIANCE> 39
 3.703738e+001 6.193917e+001 9.525501e+001 9.679868e+001 8.984313e+001 1.517853e+002 1.158118e+002 6.438423e+001 7.401695e+001 5.536992e+001 5.520704e+001 4.884966e+001 4.776515e+001 4.599940e+000 1.147502e+001 1.083366e+001 8.764364e+000 1.474475e+001 1.278646e+001 1.270962e+001 4.726945e+000 8.659662e+000 6.522504e+000 5.623676e+000 4.256148e+000 5.103721e+000 6.901836e-001 1.793202e+000 1.689987e+000 1.521168e+000 2.266689e+000 2.089370e+000 2.039737e+000 1.249199e+000 1.566917e+000 1.193148e+000 1.176448e+000 8.776710e-001 6.791486e-001
<GCONST> 1.576788e+002
<STATE> 4
<NUMMIXES> 16
<MIXTURE> 1 5.411710e-002
<MEAN> 39
 -5.971199e+000 6.095616e+000 5.555454e+000 4.124122e+000 2.387309e+000 -4.066491e-001 1.596645e+000 7.076575e-001 1.828124e+000 -1.529560e-001 2.667894e-001 -1.955681e+000 5.297481e+001 -8.686900e-001 -2.933902e+000 -8.550955e-001 -1.510414e+000 -1.337271e+000 -1.206599e+000 -6.793364e-001 -1.285347e-003 5.247818e-001 3.714134e-001 2.843826e-001 7.087106e-001 3.925204e+000 9.104624e-001 -3.986057e-001 -3.367252e-002 -9.812031e-001 -1.135163e+000 -3.883096e-001 -9.785278e-001 -6.080379e-001 -7.281027e-001 2.058858e-002 -1.678675e-001 -1.527960e-001 1.225904e+000
<VARIANCE> 39
 1.666205e+001 1.904539e+001 2.016609e+001 2.317987e+001 2.461201e+001 2.299214e+001 2.218509e+001 1.851235e+001 2.150703e+001 2.210712e+001 1.910706e+001 2.027024e+001 4.614029e+001 2.326253e+000 2.047732e+000 3.725566e+000 3.656448e+000 3.983753e+000 4.154222e+000 4.713854e+000 3.953707e+000 3.267174e+000 3.154801e+000 3.041589e+000 2.321135e+000 2.661564e+000 2.763948e-001 4.827195e-001 7.958029e-001 6.501215e-001 6.118218e-001 8.462098e-001 5.635865e-001 6.296993e-001 6.465140e-001 6.169398e-001 9.890378e-001 4.913574e-001 4.587322e-001
<GCONST> 1.202788e+002
<MIXTURE> 2 5.197446e-002
<MEAN> 39
 1.238917e+000 -6.567767e+000 1.615605e+000 -4.070673e+000 -1.067390e+001 -4.012977e+000 -1.552135e+001 -5.721988e+000 3.336654e+000 6.367665e+000 1.014939e+000 -6.651983e+000 7.507391e+001 1.177101e+000 -3.152130e+000 -6.957832e-002 -1.548526e+000 -3.367251e+000 -3.051088e-001 -2.692711e+000 1.218622e+000 2.056292e+000 1.176963e+000 -4.173850e-001 -9.722286e-001 2.738313e+000 -5.907142e-003 1.146997e+000 5.131073e-001 7.290348e-001 6.202660e-001 3.247544e-001 9.731083e-001 6.046834e-002 -6.317439e-001 -9.577859e-001 -4.430816e-001 2.730025e-001 -1.369830e+000
<VARIANCE> 39
 1.198049e+001 2.319704e+001 2.167181e+001 4.080523e+001 4.465667e+001 4.866442e+001 3.816830e+001 5.268826e+001 3.097696e+001 3.313141e+001 3.716398e+001 2.288016e+001 5.560480e+001 1.896562e+000 2.850688e+000 2.484436e+000 4.225845e+000 3.434366e+000 4.300678e+000 4.704327e+000 5.657171e+000 4.209777e+000 4.280762e+000 4.308275e+000 3.189281e+000 2.442566e+000 2.805167e-001 2.949680e-001 3.488966e-001 5.058874e-001 5.382912e-001 5.547665e-001 6.662899e-001 7.709768e-001 5.793785e-001 5.202476e-001 5.223812e-001 4.974695e-001 1.790629e-001
<GCONST> 1.231272e+002
<MIXTURE> 3 6.760846e-002
<MEAN> 39
 -9.120625e+000 -2.123816e+000 1.642064e+000 1.282625e+000 1.532500e+000 -2.741342e+000 -1.118312e+000 -2.908198e+000 1.536587e+000 -2.811574e-001 -8.553513e-001 -1.693240e+000 6.812542e+001 2.832758e-001 -2.338533e+000 -1.359012e+000 -2.313910e+000 -1.713892e+000 -5.038599e-001 -1.055995e+000 -3.596202e-001 7.293081e-002 6.624421e-001 5.534990e-001 3.721828e-001 4.111906e+000 1.368887e+000 9.103153e-001 2.477400e-001 -7.160521e-001 -9.958438e-001 1.403517e-001 -5.508636e-001 -4.678333e-001 -8.585008e-001 -2.027623e-001 4.487308e-002 -2.725089e-001 -6.719797e-001
<VARIANCE> 39
 1.682110e+001 1.724958e+001 2.145990e+001 2.556520e+001 1.714471e+001 1.888302e+001 3.090748e+001 2.555299e+001 2.600212e+001 3.020109e+001 1.894497e+001 1.935104e+001 3.905219e+001 3.092801e+000 2.960713e+000 4.632105e+000 5.259279e+000 4.630507e+000 4.354501e+000 4.051543e+000 4.017176e+000 4.798903e+000 5.084056e+000 4.249024e+000 2.955203e+000 2.875830e+000 3.411189e-001 6.012425e-001 6.590425e-001 1.122454e+000 5.916489e-001 9.141852e-001 7.824199e-001 7.529548e-001 8.431573e-001 8.520088e-001 1.029981e+000 5.363933e-001 3.356014e-001
<GCONST> 1.252788e+002
<MIXTURE> 4 4.731236e-002
<MEAN> 39
 -5.052826e+000 -1.849084e+000 5.192922e+000 5.022274e+000 -3.895912e+000 -1.094874e+001 -1.216103e+001 -5.213189e+000 1.407960e+000 5.900180e-001 -1.935165e+000 -4.010760e+000 7.190597e+001 -3.612497e-001 -2.840508e+000 2.309132e+000 -2.101928e-001 -4.511357e+000 -2.459523e+000 -2.362314e+000 8.230963e-001 -4.127358e-001 -6.791423e-001 7.195638e-001 1.398322e-001 3.758401e+000 5.295079e-001 9.746702e-001 5.950317e-001 -4.880564e-001 -6.607703e-001 9.933085e-001 6.385302e-001 -6.231954e-002 -1.002779e+000 -4.556965e-001 5.481043e-001 1.216968e-001 -9.733310e-001
<VARIANCE> 39
