~o
<STREAMINFO> 1 39
<VECSIZE> 39<NULLD><MFCC_D_A_0><DIAGC>
~h "zh"
<BEGINHMM>
<NUMSTATES> 5
<STATE> 2
<NUMMIXES> 16
<MIXTURE> 1 8.194185e-002
<MEAN> 39
 -2.826410e+000 -1.838291e+000 1.267282e+001 3.068640e+000 -1.012747e+001 -6.599761e+000 -5.708979e+000 1.351457e+000 2.258934e+000 -2.769937e+000 5.692644e-001 -2.756657e-001 7.236465e+001 -3.260371e+000 2.683878e+000 1.930087e+000 1.555975e+000 1.120907e+000 -1.406131e-001 3.701084e+000 -1.440793e+000 1.233125e+000 6.196232e-002 6.808484e-001 1.546633e+000 -1.002254e-001 -6.734064e-001 9.845469e-002 -1.585140e-001 -2.814847e-001 5.621354e-001 6.383989e-001 2.881394e-001 6.593651e-002 3.243367e-001 5.246633e-001 2.152270e-001 -2.790437e-001 2.509926e-001
<VARIANCE> 39
 2.282031e+001 3.034731e+001 3.419180e+001 4.591804e+001 4.402744e+001 3.274685e+001 4.919883e+001 3.808415e+001 3.999140e+001 2.982731e+001 3.071008e+001 2.314405e+001 3.953856e+001 2.417515e+000 2.058657e+000 2.179935e+000 2.339333e+000 3.160914e+000 4.069305e+000 3.759973e+000 3.118954e+000 3.740747e+000 3.842447e+000 3.368604e+000 3.014384e+000 7.042181e-001 2.866575e-001 4.492900e-001 2.956231e-001 3.472187e-001 4.025179e-001 4.922983e-001 7.066939e-001 6.415644e-001 5.294321e-001 5.189593e-001 5.121856e-001 4.143358e-001 9.252278e-002
<GCONST> 1.186382e+002
<MIXTURE> 2 5.624400e-002
<MEAN> 39
 -3.233718e+000 1.055163e+000 7.577311e+000 6.229185e+000 -2.180889e+000 -9.896779e+000 -9.293141e+000 -8.049248e+000 2.660882e+000 -3.302039e+000 -8.034635e-001 -2.652836e+000 7.014187e+001 -4.002213e+000 -1.047971e-002 3.211345e+000 3.164562e+000 8.728868e-001 -2.643089e+000 3.403802e+000 1.575002e+000 2.374998e+000 -1.446922e+000 -1.560609e-001 1.421174e+000 1.225011e+000 -4.833361e-001 2.244285e-001 7.199522e-002 -6.876308e-001 -2.217478e-001 1.241912e+000 1.045872e+000 4.566153e-001 -6.877552e-001 1.956603e-001 7.164053e-001 2.413594e-001 2.152358e-001
<VARIANCE> 39
 1.995557e+001 1.480620e+001 2.927801e+001 5.545398e+001 6.370844e+001 4.327283e+001 6.805742e+001 4.550110e+001 4.679309e+001 4.273320e+001 4.157886e+001 3.828297e+001 3.297969e+001 2.543089e+000 2.255765e+000 2.385625e+000 2.969496e+000 5.920557e+000 5.865253e+000 5.274920e+000 4.028813e+000 4.418650e+000 3.948961e+000 4.404723e+000 3.245311e+000 6.809685e-001 3.975945e-001 2.995694e-001 3.478590e-001 4.453421e-001 9.634930e-001 7.002285e-001 1.139244e+000 8.207174e-001 6.512761e-001 7.265894e-001 5.601224e-001 5.879096e-001 9.634681e-002
<GCONST> 1.259787e+002
<MIXTURE> 3 6.619390e-002
<MEAN> 39
 -1.057414e+001 5.805949e+000 1.539537e+001 -7.444659e+000 -1.187628e+001 -8.969289e+000 -6.561513e+000 -8.297403e+000 -5.738957e+000 -5.758012e+000 -1.379998e+000 -3.036914e+000 7.347173e+001 -4.339452e+000 2.289628e+000 1.113004e+000 2.189144e+000 2.444061e+000 1.901196e+000 1.708012e+000 7.012237e-001 1.945438e+000 -1.154028e+000 1.912070e+000 -6.604824e-001 6.599303e-001 -3.031865e-001 -5.156500e-001 -3.538321e-001 4.551557e-002 7.259976e-001 6.658202e-001 5.333920e-001 9.669734e-001 3.853116e-001 6.980563e-001 -3.949769e-002 3.185397e-001 1.601580e-001
<VARIANCE> 39
 1.384866e+001 1.832989e+001 2.762619e+001 2.848101e+001 2.982931e+001 2.500296e+001 2.940549e+001 3.252242e+001 2.831073e+001 3.638696e+001 2.490304e+001 2.158243e+001 2.373354e+001 1.953190e+000 2.266411e+000 3.441007e+000 3.133740e+000 3.123767e+000 4.497948e+000 4.250857e+000 4.531108e+000 3.845460e+000 3.100471e+000 3.065956e+000 2.434911e+000 5.588241e-001 2.870493e-001 3.030079e-001 3.265921e-001 4.111607e-001 5.088276e-001 4.918432e-001 6.293364e-001 5.526173e-001 5.498303e-001 5.325413e-001 5.194258e-001 3.717019e-001 1.508314e-001
<GCONST> 1.154681e+002
<MIXTURE> 4 5.626300e-002
<MEAN> 39
 -7.695742e+000 3.120230e-001 1.644919e+001 6.662585e-001 -1.014683e+001 -3.901324e+000 -1.870805e+000 -8.373840e-001 -1.384041e+000 -1.921184e+000 1.406693e+000 6.111900e-001 6.466058e+001 -1.265563e+000 5.865362e-001 2.435602e+000 1.659853e-002 -3.280507e-001 -1.753042e-001 3.380176e-001 -2.790536e-001 3.709949e-001 -5.707069e-001 5.138139e-001 1.109018e-001 2.766417e+000 -5.304015e-001 4.484447e-001 -5.219722e-001 3.568481e-001 1.033204e+000 5.405383e-001 6.708565e-001 3.048373e-001 6.652030e-001 3.201493e-001 2.689573e-001 1.741644e-001 -9.399768e-002
<VARIANCE> 39
 5.225172e+001 3.181042e+001 2.962974e+001 5.568604e+001 6.562388e+001 5.594378e+001 6.405230e+001 5.064266e+001 5.334022e+001 3.053007e+001 3.141892e+001 3.171679e+001 8.162172e+001 5.341676e+000 2.867965e+000 2.902076e+000 2.969453e+000 4.143699e+000 3.710144e+000 4.274439e+000 3.375951e+000 3.758889e+000 3.279973e+000 2.336166e+000 2.404382e+000 2.561285e+000 8.616924e-001 5.500549e-001 4.666670e-001 5.142259e-001 8.330623e-001 9.099267e-001 8.286246e-001 7.860529e-001 7.541113e-001 5.900667e-001 5.699967e-001 4.726381e-001 4.549861e-001
<GCONST> 1.311710e+002
<MIXTURE> 5 8.081315e-002
<MEAN> 39
 -8.390109e+000 1.632324e+000 1.262387e+001 2.996624e+000 -9.904203e+000 -5.003040e+000 -3.559781e+000 -1.653712e+000 3.394717e-001 -2.063000e+000 1.658352e-001 -7.855471e-002 6.557413e+001 -1.529095e+000 1.119750e+000 7.152443e-001 6.817250e-001 1.022980e+000 6.489378e-001 1.833103e+000 -1.819294e-001 6.146970e-001 5.135001e-001 2.247515e-001 5.889952e-001 1.475973e-001 -6.725372e-002 -1.170102e-001 9.030025e-002 -8.559091e-002 1.470240e-001 3.246447e-001 -2.219188e-002 2.296625e-001 1.470607e-001 2.220000e-001 1.470273e-001 -8.453781e-002 1.943589e-001
<VARIANCE> 39
 2.502964e+001 2.740427e+001 7.944694e+001 3.719991e+001 4.841561e+001 3.882442e+001 4.412533e+001 3.724135e+001 3.870967e+001 3.036676e+001 3.318724e+001 2.101219e+001 1.235771e+002 2.177811e+000 1.923320e+000 1.841977e+000 1.493372e+000 2.756698e+000 2.447143e+000 2.636908e+000 2.357625e+000 2.908528e+000 2.562658e+000 2.095593e+000 1.668024e+000 6.499525e-001 1.837660e-001 2.156428e-001 2.254271e-001 2.014479e-001 3.300748e-001 3.666760e-001 4.374501e-001 3.976336e-001 3.980730e-001 3.812904e-001 3.301236e-001 2.619141e-001 8.193777e-002
<GCONST> 1.115700e+002
<MIXTURE> 6 6.762305e-002
<MEAN> 39
 -2.344323e+000 -2.184050e+000 1.164925e+001 -9.627432e+000 -1.276685e+001 -1.026711e+001 -7.785376e+000 -1.796951e+000 -7.077285e+000 -2.309594e+000 -5.086117e+000 2.442478e-001 7.391951e+001 -2.028856e+000 2.644150e+000 2.603673e+000 1.686625e+000 2.722397e-001 8.823330e-001 1.082796e+000 -1.197093e+000 7.547900e-001 -1.107040e+000 2.152352e+000 -3.738319e-002 -3.797011e-001 -9.484110e-001 3.327028e-001 -2.777686e-001 3.419665e-001 8.719542e-001 7.422946e-001 5.503042e-001 3.024036e-001 7.195854e-001 4.334211e-002 2.923096e-001 -2.296795e-001 2.720588e-001
<VARIANCE> 39
 1.031608e+001 2.890571e+001 4.688616e+001 4.397202e+001 4.755399e+001 4.088030e+001 5.159525e+001 5.649483e+001 3.845313e+001 4.243411e+001 3.587998e+001 2.984576e+001 2.390787e+001 1.977245e+000 2.114536e+000 2.632154e+000 2.261226e+000 3.688516e+000 4.003586e+000 4.963869e+000 4.705287e+000 4.486460e+000 3.599733e+000 3.450634e+000 2.670757e+000 4.816667e-001 2.221612e-001 2.845212e-001 3.046369e-001 3.979512e-001 5.320898e-001 6.168259e-001 5.537649e-001 7.030224e-001 5.419658e-001 5.591922e-001 5.326531e-001 4.370126e-001 5.719716e-002
<GCONST> 1.189924e+002
<MIXTURE> 7 6.045945e-002
<MEAN> 39
 -1.500337e+001 -6.924340e-001 1.329216e+001 8.560481e+000 -5.269341e-001 -1.254628e+001 -1.593439e+000 -6.021480e+000 4.129911e+000 -7.243083e+000 8.787542e-001 -2.066625e+000 7.330536e+001 -3.898468e+000 -2.298717e-001 2.169981e+000 8.747399e-001 -1.643017e-001 8.326008e-001 2.984977e+000 1.750677e+000 7.441090e-001 -4.562965e-002 1.003359e+000 7.040653e-001 1.148537e+000 1.118386e+000 3.181228e-001 -5.200006e-001 -1.034833e+000 -2.886997e-001 1.415131e+000 -3.391019e-001 1.390118e-002 -5.098391e-001 7.695658e-001 3.013434e-001 4.670957e-002 -2.972526e-001
<VARIANCE> 39
 2.731945e+001 2.826964e+001 2.808909e+001 4.676744e+001 7.915766e+001 3.316981e+001 4.964622e+001 4.465174e+001 6.171468e+001 3.841956e+001 3.525604e+001 3.756815e+001 2.671621e+001 2.891405e+000 1.642214e+000 1.884257e+000 2.421460e+000 4.097092e+000 4.668232e+000 3.784454e+000 4.693578e+000 3.899588e+000 3.157163e+000 3.066750e+000 2.637223e+000 5.377994e-001 5.022060e-001 3.537349e-001 3.297378e-001 4.375452e-001 9.940548e-001 8.549957e-001 8.713112e-001 7.983931e-001 7.769946e-001 6.947151e-001 6.503693e-001 6.153663e-001 8.787169e-002
<GCONST> 1.240600e+002
<MIXTURE> 8 3.045482e-002
<MEAN> 39
 -8.844312e+000 -6.264177e-001 1.365844e+001 -3.468232e+000 -4.488972e+000 -6.941230e-001 -3.204224e-001 3.924592e-001 6.162548e-001 -2.672535e-001 2.590596e+000 7.416323e-001 6.082072e+001 -1.831972e-001 1.961790e-001 3.305552e+000 -2.487476e-001 -8.304222e-001 -8.063387e-001 4.024043e-001 -9.060813e-001 -1.027431e-001 -7.268106e-001 -1.203882e-001 -3.773349e-001 3.286262e+000 5.629558e-003 3.457464e-001 1.241974e-001 3.040099e-001 3.171700e-001 3.252140e-002 2.117791e-001 -7.983982e-003 2.898389e-001 4.199221e-002 3.149956e-001 7.904013e-002 5.994104e-001
<VARIANCE> 39
 5.455067e+001 6.774362e+001 1.055095e+002 1.050844e+002 1.347128e+002 9.848151e+001 1.026121e+002 7.502810e+001 8.671369e+001 1.082930e+002 5.913760e+001 4.320789e+001 1.104479e+002 8.062713e+000 4.781004e+000 6.270484e+000 7.478859e+000 1.281167e+001 1.303955e+001 1.073042e+001 7.438731e+000 1.185120e+001 8.551775e+000 6.435270e+000 4.394957e+000 6.330767e+000 1.150437e+000 1.028824e+000 1.403256e+000 1.451395e+000 2.198795e+000 2.137574e+000 1.771578e+000 1.463361e+000 1.844729e+000 1.716906e+000 1.293944e+000 8.474485e-001 1.058429e+000
<GCONST> 1.608314e+002
<MIXTURE> 9 8.194185e-002
<MEAN> 39
 -4.737234e+000 -4.041827e+000 1.033386e+001 3.581259e-001 -1.278159e+001 -8.888755e+000 -8.514654e+000 -1.117037e+000 -2.706165e-001 -4.954513e+000 -1.647403e+000 -2.199996e+000 6.984947e+001 -3.882305e+000 2.109958e+000 1.339503e+000 9.441794e-001 4.097483e-001 -9.475139e-001 2.925458e+000 -2.147215e+000 4.594845e-001 -7.221241e-001 -5.330192e-002 8.521534e-001 -4.358962e-001 -8.875680e-001 -1.696617e-001 -3.759990e-001 -5.171857e-001 3.083582e-001 3.577431e-001 -4.812098e-002 -2.544544e-001 3.328833e-002 2.365080e-001 -7.104158e-002 -5.365193e-001 1.293224e-001
<VARIANCE> 39
 2.282031e+001 3.034731e+001 3.419180e+001 4.591804e+001 4.402744e+001 3.274685e+001 4.919883e+001 3.808415e+001 3.999140e+001 2.982731e+001 3.071008e+001 2.314405e+001 3.953856e+001 2.417515e+000 2.058657e+000 2.179935e+000 2.339333e+000 3.160914e+000 4.069305e+000 3.759973e+000 3.118954e+000 3.740747e+000 3.842447e+000 3.368604e+000 3.014384e+000 7.042181e-001 2.866575e-001 4.492900e-001 2.956231e-001 3.472187e-001 4.025179e-001 4.922983e-001 7.066939e-001 6.415644e-001 5.294321e-001 5.189593e-001 5.121856e-001 4.143358e-001 9.252278e-002
<GCONST> 1.186382e+002
<MIXTURE> 10 8.081315e-002
<MEAN> 39
 -1.039129e+001 -4.616398e-001 9.058550e+000 5.569555e-001 -1.268746e+001 -7.495410e+000 -6.216857e+000 -4.094740e+000 -2.149212e+000 -4.267242e+000 -2.138499e+000 -1.912117e+000 6.112751e+001 -2.119391e+000 5.650145e-001 1.723665e-001 1.929106e-001 3.588482e-001 2.320386e-002 1.183561e+000 -7.961118e-001 -6.747925e-002 -1.268321e-001 -3.542950e-001 7.238719e-002 -1.748813e-001 -2.387255e-001 -3.027596e-001 -9.961641e-002 -2.651227e-001 -8.278455e-002 8.242955e-002 -2.867519e-001 -2.257030e-002 -1.053114e-001 -2.499487e-002 -8.279826e-002 -2.892480e-001 7.985985e-002
<VARIANCE> 39
 2.502964e+001 2.740427e+001 7.944694e+001 3.719991e+001 4.841561e+001 3.882442e+001 4.412533e+001 3.724135e+001 3.870967e+001 3.036676e+001 3.318724e+001 2.101219e+001 1.235771e+002 2.177811e+000 1.923320e+000 1.841977e+000 1.493372e+000 2.756698e+000 2.447143e+000 2.636908e+000 2.357625e+000 2.908528e+000 2.562658e+000 2.095593e+000 1.668024e+000 6.499525e-001 1.837660e-001 2.156428e-001 2.254271e-001 2.014479e-001 3.300748e-001 3.666760e-001 4.374501e-001 3.976336e-001 3.980730e-001 3.812904e-001 3.301236e-001 2.619141e-001 8.193777e-002
<GCONST> 1.115700e+002
<MIXTURE> 11 6.762305e-002
<MEAN> 39
 -3.629069e+000 -4.334611e+000 8.910311e+000 -1.227989e+001 -1.552523e+001 -1.282461e+001 -1.065857e+001 -4.803473e+000 -9.557709e+000 -4.915252e+000 -7.482113e+000 -1.941003e+000 7.196368e+001 -2.591314e+000 2.062492e+000 1.954717e+000 1.085130e+000 -4.959807e-001 8.197446e-002 1.916066e-001 -2.064760e+000 -9.246062e-002 -1.865958e+000 1.409316e+000 -6.910812e-001 -6.573100e-001 -1.136947e+000 1.193407e-001 -4.985442e-001 8.963296e-002 5.801762e-001 4.281415e-001 2.526427e-001 -3.298217e-002 4.251121e-001 -2.557745e-001 3.772219e-004 -4.941072e-001 1.763950e-001
<VARIANCE> 39
 1.031608e+001 2.890571e+001 4.688616e+001 4.397202e+001 4.755399e+001 4.088030e+001 5.159525e+001 5.649483e+001 3.845313e+001 4.243411e+001 3.587998e+001 2.984576e+001 2.390787e+001 1.977245e+000 2.114536e+000 2.632154e+000 2.261226e+000 3.688516e+000 4.003586e+000 4.963869e+000 4.705287e+000 4.486460e+000 3.599733e+000 3.450634e+000 2.670757e+000 4.816667e-001 2.221612e-001 2.845212e-001 3.046369e-001 3.979512e-001 5.320898e-001 6.168259e-001 5.537649e-001 7.030224e-001 5.419658e-001 5.591922e-001 5.326531e-001 4.370126e-001 5.719716e-002
<GCONST> 1.189924e+002
<MIXTURE> 12 6.619390e-002
<MEAN> 39
 -1.206270e+001 4.093412e+000 1.329295e+001 -9.579364e+000 -1.406092e+001 -1.096941e+001 -8.730587e+000 -1.057854e+001 -7.867270e+000 -8.170877e+000 -3.376116e+000 -4.895190e+000 7.152304e+001 -4.898479e+000 1.687444e+000 3.710057e-001 1.481050e+000 1.737093e+000 1.052862e+000 8.833079e-001 -1.502323e-001 1.161044e+000 -1.858354e+000 1.211676e+000 -1.284650e+000 3.609122e-001 -5.174944e-001 -7.358346e-001 -5.824251e-001 -2.109717e-001 4.406690e-001 3.852940e-001 2.160691e-001 6.696205e-001 8.870941e-002 4.061546e-001 -3.277825e-001 7.467028e-002 4.809925e-003
<VARIANCE> 39
 1.384866e+001 1.832989e+001 2.762619e+001 2.848101e+001 2.982931e+001 2.500296e+001 2.940549e+001 3.252242e+001 2.831073e+001 3.638696e+001 2.490304e+001 2.158243e+001 2.373354e+001 1.953190e+000 2.266411e+000 3.441007e+000 3.133740e+000 3.123767e+000 4.497948e+000 4.250857e+000 4.531108e+000 3.845460e+000 3.100471e+000 3.065956e+000 2.434911e+000 5.588241e-001 2.870493e-001 3.030079e-001 3.265921e-001 4.111607e-001 5.088276e-001 4.918432e-001 6.293364e-001 5.526173e-001 5.498303e-001 5.325413e-001 5.194258e-001 3.717019e-001 1.508314e-001
<GCONST> 1.154681e+002
<MIXTURE> 13 6.045945e-002
<MEAN> 39
 -1.709409e+001 -2.819202e+000 1.117220e+001 5.825012e+000 -4.085758e+000 -1.485001e+001 -4.411842e+000 -8.694359e+000 9.875632e-001 -9.722424e+000 -1.496318e+000 -4.518339e+000 7.123785e+001 -4.578634e+000 -7.424673e-001 1.620908e+000 2.522983e-001 -9.739527e-001 -3.164284e-002 2.206831e+000 8.840907e-001 -4.578599e-002 -7.563660e-001 3.028739e-001 5.448412e-002 8.551974e-001 8.349195e-001 8.022036e-002 -7.496918e-001 -1.299421e+000 -6.875089e-001 1.045267e+000 -7.124781e-001 -3.435102e-001 -8.624282e-001 4.361676e-001 -2.123856e-002 -2.670716e-001 -4.158252e-001
<VARIANCE> 39
 2.731945e+001 2.826964e+001 2.808909e+001 4.676744e+001 7.915766e+001 3.316981e+001 4.964622e+001 4.465174e+001 6.171468e+001 3.841956e+001 3.525604e+001 3.756815e+001 2.671621e+001 2.891405e+000 1.642214e+000 1.884257e+000 2.421460e+000 4.097092e+000 4.668232e+000 3.784454e+000 4.693578e+000 3.899588e+000 3.157163e+000 3.066750e+000 2.637223e+000 5.377994e-001 5.022060e-001 3.537349e-001 3.297378e-001 4.375452e-001 9.940548e-001 8.549957e-001 8.713112e-001 7.983931e-001 7.769946e-001 6.947151e-001 6.503693e-001 6.153663e-001 8.787169e-002
<GCONST> 1.240600e+002
<MIXTURE> 14 5.626300e-002
<MEAN> 39
 -1.058716e+001 -1.944006e+000 1.427187e+001 -2.318665e+000 -1.338717e+001 -6.893147e+000 -5.072113e+000 -3.683930e+000 -4.305417e+000 -4.131345e+000 -8.354105e-001 -1.641516e+000 6.104679e+001 -2.190045e+000 -9.086654e-002 1.754182e+000 -6.726855e-001 -1.142294e+000 -9.457736e-001 -4.889710e-001 -1.014004e+000 -4.045193e-001 -1.295135e+000 -9.756702e-002 -5.093410e-001 2.126257e+000 -9.017110e-001 1.517819e-001 -7.952244e-001 7.000991e-002 6.681149e-001 1.589779e-001 3.067412e-001 -4.980114e-002 3.178447e-001 1.288611e-002 -3.303526e-002 -1.008304e-001 -3.638083e-001
<VARIANCE> 39
 5.225172e+001 3.181042e+001 2.962974e+001 5.568604e+001 6.562388e+001 5.594378e+001 6.405230e+001 5.064266e+001 5.334022e+001 3.053007e+001 3.141892e+001 3.171679e+001 8.162172e+001 5.341676e+000 2.867965e+000 2.902076e+000 2.969453e+000 4.143699e+000 3.710144e+000 4.274439e+000 3.375951e+000 3.758889e+000 3.279973e+000 2.336166e+000 2.404382e+000 2.561285e+000 8.616924e-001 5.500549e-001 4.666670e-001 5.142259e-001 8.330623e-001 9.099267e-001 8.286246e-001 7.860529e-001 7.541113e-001 5.900667e-001 5.699967e-001 4.726381e-001 4.549861e-001
<GCONST> 1.311710e+002
<MIXTURE> 15 5.624400e-002
<MEAN> 39
 -5.020584e+000 -4.839903e-001 5.412944e+000 3.250488e+000 -5.373591e+000 -1.252806e+001 -1.259302e+001 -1.074743e+001 -7.533650e-002 -5.916864e+000 -3.382730e+000 -5.127766e+000 6.784475e+001 -4.640095e+000 -6.112479e-001 2.593527e+000 2.475273e+000 -1.004010e-001 -3.611821e+000 2.485114e+000 7.721259e-001 1.534174e+000 -2.241802e+000 -9.955583e-001 7.005841e-001 8.949273e-001 -7.355565e-001 5.496734e-003 -1.639231e-001 -9.545666e-001 -6.143786e-001 9.071937e-001 6.189305e-001 9.424151e-002 -1.010562e+000 -1.453006e-001 4.170401e-001 -6.534164e-002 9.107664e-002
<VARIANCE> 39
 1.995557e+001 1.480620e+001 2.927801e+001 5.545398e+001 6.370844e+001 4.327283e+001 6.805742e+001 4.550110e+001 4.679309e+001 4.273320e+001 4.157886e+001 3.828297e+001 3.297969e+001 2.543089e+000 2.255765e+000 2.385625e+000 2.969496e+000 5.920557e+000 5.865253e+000 5.274920e+000 4.028813e+000 4.418650e+000 3.948961e+000 4.404723e+000 3.245311e+000 6.809685e-001 3.975945e-001 2.995694e-001 3.478590e-001 4.453421e-001 9.634930e-001 7.002285e-001 1.139244e+000 8.207174e-001 6.512761e-001 7.265894e-001 5.601224e-001 5.879096e-001 9.634681e-002
<GCONST> 1.259787e+002
<MIXTURE> 16 3.045482e-002
<MEAN> 39
 -1.179865e+001 -3.918678e+000 9.549724e+000 -7.568660e+000 -9.131606e+000 -4.663637e+000 -4.372328e+000 -3.072291e+000 -3.108553e+000 -4.429811e+000 -4.854425e-001 -1.887676e+000 5.661696e+001 -1.318994e+000 -6.784412e-001 2.303914e+000 -1.342648e+000 -2.262158e+000 -2.250751e+000 -9.078885e-001 -1.997043e+000 -1.479766e+000 -1.896547e+000 -1.135102e+000 -1.215901e+000 2.279822e+000 -4.234042e-001 -5.997743e-002 -3.496390e-001 -1.778855e-001 -2.759634e-001 -5.522964e-001 -3.206234e-001 -4.918618e-001 -2.534443e-001 -4.821308e-001 -1.400111e-001 -2.891877e-001 1.878905e-001
<VARIANCE> 39
 5.455067e+001 6.774362e+001 1.055095e+002 1.050844e+002 1.347128e+002 9.848151e+001 1.026121e+002 7.502810e+001 8.671369e+001 1.082930e+002 5.913760e+001 4.320789e+001 1.104479e+002 8.062713e+000 4.781004e+000 6.270484e+000 7.478859e+000 1.281167e+001 1.303955e+001 1.073042e+001 7.438731e+000 1.185120e+001 8.551775e+000 6.435270e+000 4.394957e+000 6.330767e+000 1.150437e+000 1.028824e+000 1.403256e+000 1.451395e+000 2.198795e+000 2.137574e+000 1.771578e+000 1.463361e+000 1.844729e+000 1.716906e+000 1.293944e+000 8.474485e-001 1.058429e+000
<GCONST> 1.608314e+002
<STATE> 3
<NUMMIXES> 16
<MIXTURE> 1 5.478420e-002
<MEAN> 39
 -1.652757e+001 4.327676e+000 1.842641e+001 3.613401e+000 -6.895604e+000 -3.657131e+000 6.355089e-001 -3.782211e+000 2.697956e+000 -2.456291e+000 1.542395e+000 -5.393063e-001 7.202292e+001 -4.284658e+000 6.385376e-001 8.700481e-001 8.412861e-001 2.035847e+000 1.942352e+000 2.455798e+000 2.664415e-001 1.855327e+000 1.000308e+000 7.528353e-001 3.556051e-001 5.701824e-001 8.991999e-001 -7.011754e-001 -4.502872e-001 -2.868482e-001 -7.686583e-002 3.689628e-001 -4.470577e-001 6.410292e-001 -1.381086e-001 2.885987e-001 8.514475e-002 -8.511899e-002 2.013299e-002
<VARIANCE> 39
 2.409021e+001 1.665515e+001 2.592897e+001 4.499896e+001 3.298631e+001 3.691088e+001 3.165015e+001 2.749780e+001 3.216937e+001 2.650614e+001 2.578301e+001 1.944196e+001 4.363824e+001 1.647254e+000 2.405053e+000 2.306403e+000 2.134964e+000 2.347412e+000 2.915994e+000 2.858092e+000 3.378445e+000 2.584416e+000 2.545246e+000 2.764326e+000 2.034601e+000 8.239787e-001 4.231085e-001 2.394962e-001 3.299725e-001 3.295325e-001 4.702947e-001 6.105837e-001 6.501523e-001 4.456498e-001 5.099948e-001 5.450019e-001 5.350619e-001 4.451753e-001 1.209413e-001
<GCONST> 1.141057e+002
<MIXTURE> 2 6.880925e-002
<MEAN> 39
 -2.302431e+001 -5.625712e-001 1.628959e+001 4.686935e+000 -4.472665e+000 -2.223522e-001 5.036045e+000 -1.597325e+000 5.147024e+000 -3.937897e-001 2.222690e+000 -9.505475e-001 7.041890e+001 -1.535320e+000 -3.926693e-001 5.213148e-002 -2.067945e-001 4.356915e-001 1.398790e+000 1.216741e+000 7.014615e-001 7.615101e-001 5.791906e-001 4.181203e-001 1.854807e-001 6.211621e-001 1.656796e+000 3.250288e-001 -2.261964e-001 -7.930861e-002 -1.794540e-001 -3.732895e-001 -7.259675e-001 3.677376e-002 -3.470551e-001 -5.142454e-002 3.734564e-003 1.300426e-001 -1.782459e-001
<VARIANCE> 39
 2.561878e+001 2.093039e+001 2.901209e+001 5.667311e+001 3.350151e+001 3.628146e+001 3.068948e+001 2.525546e+001 2.610930e+001 2.309880e+001 2.806822e+001 1.756928e+001 6.676312e+001 2.310413e+000 1.229056e+000 1.596422e+000 1.877445e+000 2.031152e+000 2.976476e+000 2.572032e+000 2.204699e+000 2.112802e+000 1.975268e+000 1.790651e+000 1.530697e+000 1.146712e+000 4.182937e-001 2.768767e-001 3.363543e-001 3.941228e-001 4.795434e-001 5.536935e-001 5.417081e-001 3.955992e-001 3.823049e-001 4.059114e-001 3.681860e-001 3.133820e-001 1.493662e-001
<GCONST> 1.112096e+002
<MIXTURE> 3 5.287825e-002
<MEAN> 39
 -2.377196e+001 -9.170349e-001 1.618498e+001 4.003399e+000 -4.742877e+000 4.574150e-001 5.740195e+000 -1.625829e+000 4.766629e+000 -3.120500e-001 1.809034e+000 -1.296653e+000 7.236111e+001 2.368880e+000 9.441299e-001 4.339267e-001 1.734325e-001 -5.746220e-001 -9.936828e-001 -1.079554e+000 -2.735652e-001 -8.263710e-001 -3.795602e-001 3.292552e-003 2.010823e-001 3.347695e-001 1.935770e+000 3.903799e-001 1.054572e-001 -1.092477e-001 -5.638597e-001 -7.746174e-001 -1.099624e+000 -8.961624e-002 -4.723349e-001 -2.561918e-001 1.071736e-001 1.695142e-001 1.025368e-002
<VARIANCE> 39
 2.201508e+001 2.363657e+001 2.747956e+001 5.366245e+001 3.045650e+001 3.519276e+001 2.869064e+001 2.199606e+001 2.938762e+001 1.801663e+001 2.564043e+001 1.682565e+001 5.393841e+001 2.625103e+000 1.080236e+000 1.235164e+000 1.558879e+000 1.569914e+000 2.214862e+000 1.860112e+000 1.732131e+000 1.679150e+000 1.578279e+000 1.584777e+000 1.449797e+000 6.273485e-001 3.781778e-001 3.320687e-001 3.868734e-001 4.049115e-001 3.825374e-001 4.585274e-001 4.624908e-001 4.656579e-001 4.232740e-001 3.700329e-001 3.739713e-001 3.204011e-001 7.207982e-002
<GCONST> 1.066229e+002
<MIXTURE> 4 9.059530e-002
<MEAN> 39
 -1.612162e+001 3.535824e+000 1.744319e+001 5.073781e+000 -6.551772e+000 -6.609529e+000 1.833050e-001 -5.427173e+000 1.926904e+000 -2.352341e+000 2.343538e+000 2.880857e-001 7.397291e+001 -1.068951e+000 6.377963e-002 5.129959e-001 3.990243e-001 6.193675e-001 6.236520e-001 8.242190e-001 1.615594e-001 3.894307e-001 3.276977e-001 2.021173e-001 1.322016e-001 2.899128e-001 1.045627e+000 -1.119837e-001 -1.003088e-001 -1.739451e-001 -1.778041e-001 1.557632e-001 -4.439408e-001 2.792963e-001 -1.538668e-001 5.350427e-002 -8.945160e-004 1.241908e-002 -8.582365e-002
<VARIANCE> 39
 2.492550e+001 1.991397e+001 3.522720e+001 5.101648e+001 4.370731e+001 3.958002e+001 3.437465e+001 3.043230e+001 4.002612e+001 2.398657e+001 2.533379e+001 2.114148e+001 3.474817e+001 1.899087e+000 8.523530e-001 1.066813e+000 1.356766e+000 1.663362e+000 1.750464e+000 1.901338e+000 1.717254e+000 1.729396e+000 1.543992e+000 1.477552e+000 1.223258e+000 2.117763e-001 2.949643e-001 2.397690e-001 2.313755e-001 2.728241e-001 3.385479e-001 4.334825e-001 4.292033e-001 4.030067e-001 4.152212e-001 3.475998e-001 3.297377e-001 2.877631e-001 5.254102e-002
<GCONST> 1.032888e+002
<MIXTURE> 5 6.632340e-002
<MEAN> 39
 -2.731279e+001 1.026196e+000 1.421118e+001 -4.179205e+000 -1.611566e+000 -7.321721e-001 2.462004e+000 8.686485e-001 5.159868e+000 -2.660479e+000 4.284492e+000 -3.146701e-001 7.445374e+001 -2.302342e-001 -4.552470e-001 -3.868573e-001 -4.319768e-002 2.443809e-001 7.494450e-001 1.248010e+000 1.139269e+000 8.626559e-001 1.205455e+000 1.006121e+000 7.922172e-001 1.528336e-001 2.152292e+000 3.228102e-001 2.142573e-001 6.075417e-002 -6.317771e-001 -7.719857e-001 -6.849952e-001 -5.637183e-001 -8.238378e-001 -1.401395e-001 -5.049847e-001 -1.411828e-001 -8.961699e-002
<VARIANCE> 39
 1.410361e+001 4.037851e+001 3.789177e+001 3.345805e+001 4.421970e+001 4.725695e+001 3.545466e+001 4.144372e+001 4.710580e+001 3.987078e+001 2.686304e+001 2.260565e+001 2.817406e+001 2.665748e+000 1.302075e+000 1.452430e+000 1.810883e+000 2.313163e+000 2.363047e+000 2.364566e+000 2.681822e+000 2.880636e+000 2.385986e+000 2.226570e+000 1.903308e+000 5.154139e-001 5.567040e-001 3.829901e-001 4.565605e-001 5.148146e-001 7.302243e-001 8.440381e-001 5.905182e-001 6.739635e-001 5.630028e-001 5.222182e-001 4.979352e-001 4.182588e-001 1.208279e-001
<GCONST> 1.165506e+002
<MIXTURE> 6 6.529505e-002
<MEAN> 39
 -2.124502e+001 5.345224e+000 1.713614e+001 1.055468e-001 -5.794087e+000 -3.484823e+000 -2.282493e+000 -6.200112e+000 -3.491551e+000 -7.251037e+000 -1.394711e+000 -4.599146e+000 7.559805e+001 7.344867e-001 -6.956291e-004 -1.498396e-002 -1.615588e-001 -3.458221e-001 -1.714382e-001 3.673624e-002 2.020041e-001 4.890364e-003 6.044661e-001 3.605554e-001 4.293226e-001 2.382488e-001 1.727991e+000 -8.436748e-002 -2.983373e-001 -4.395747e-001 -7.128305e-001 -6.191314e-001 -5.000525e-001 1.553898e-002 -5.149264e-002 4.654112e-001 1.862852e-001 3.772291e-001 -1.210266e-001
<VARIANCE> 39
 1.285054e+001 2.633539e+001 2.266021e+001 4.554366e+001 3.079420e+001 2.982533e+001 2.812995e+001 2.995997e+001 3.785414e+001 3.249215e+001 2.812894e+001 2.376748e+001 2.077717e+001 2.902146e+000 8.113142e-001 1.031258e+000 1.561909e+000 2.355291e+000 2.515591e+000 1.998370e+000 2.201313e+000 1.763290e+000 1.614321e+000 1.730256e+000 1.431499e+000 2.088155e-001 4.133961e-001 3.351074e-001 3.133010e-001 3.752213e-001 4.685475e-001 5.095483e-001 4.476005e-001 4.871864e-001 3.962624e-001 3.892989e-001 4.768898e-001 3.297556e-001 5.246018e-002
<GCONST> 1.058948e+002
<MIXTURE> 7 6.655955e-002
<MEAN> 39
 -1.837700e+001 7.616373e+000 1.580626e+001 -4.891698e+000 -6.808750e+000 -4.728735e+000 -5.375365e+000 -4.970660e+000 -4.151304e+000 -7.431636e+000 -8.744307e-001 -4.087718e+000 7.513367e+001 -3.210449e+000 6.357483e-001 4.615711e-001 9.433269e-001 2.220192e+000 2.389874e+000 1.802538e+000 1.634463e+000 1.359894e+000 2.985974e-001 1.056849e+000 1.795737e-001 4.540805e-001 1.130807e+000 -6.059527e-001 -3.269390e-001 -1.972906e-001 -1.754303e-001 -7.001626e-002 1.363421e-001 2.698966e-001 1.078468e-001 7.937344e-001 -5.286461e-002 4.791821e-001 -1.092831e-001
<VARIANCE> 39
 2.301034e+001 2.417376e+001 2.982389e+001 2.701686e+001 4.074093e+001 2.989925e+001 2.708798e+001 4.062779e+001 3.349521e+001 3.103772e+001 2.758977e+001 2.150884e+001 1.968421e+001 2.390701e+000 2.103638e+000 1.999616e+000 2.264379e+000 2.625568e+000 2.904417e+000 2.489947e+000 2.959637e+000 2.793932e+000 2.767970e+000 2.596427e+000 1.983062e+000 6.121569e-001 4.676785e-001 3.438896e-001 3.769399e-001 4.674060e-001 6.334773e-001 6.795821e-001 6.322393e-001 6.092582e-001 5.610065e-001 5.148396e-001 4.847320e-001 3.987317e-001 1.634016e-001
<GCONST> 1.154015e+002
<MIXTURE> 8 3.473942e-002
<MEAN> 39
 -2.532683e+001 1.025242e+000 1.263079e+001 -4.272870e+000 -2.405193e+000 1.253114e-001 3.199962e+000 2.512312e+000 3.135205e+000 -1.734582e+000 4.451254e+000 -3.613240e-001 7.370055e+001 4.769569e+000 7.246636e-001 3.990185e-001 -3.212999e-001 -2.081174e+000 -2.465707e+000 -1.465355e+000 -1.650564e+000 -2.055434e+000 -2.583342e-001 -1.090738e+000 -4.248060e-001 2.435282e-001 1.852339e+000 2.597888e-002 8.891772e-002 -4.696667e-001 -7.845319e-001 -1.006790e+000 -7.365178e-001 -5.143063e-001 -6.139628e-001 7.824525e-002 -6.052908e-001 -2.232483e-002 1.870241e-001
<VARIANCE> 39
 1.388349e+001 1.767346e+001 2.185561e+001 2.138233e+001 2.155315e+001 2.823678e+001 2.268383e+001 3.080922e+001 3.769126e+001 4.038311e+001 2.481384e+001 2.343940e+001 2.653420e+001 2.804490e+000 1.519402e+000 1.960206e+000 2.548259e+000 2.675112e+000 2.528785e+000 2.732027e+000 2.700838e+000 2.936423e+000 2.139862e+000 2.770434e+000 1.694368e+000 7.303756e-001 4.553958e-001 3.569168e-001 3.601666e-001 4.505965e-001 5.043883e-001 5.214136e-001 6.557037e-001 6.570642e-001 6.389142e-001 6.318628e-001 4.757952e-001 4.152370e-001 9.465893e-002
<GCONST> 1.125990e+002
<MIXTURE> 9 9.059530e-002
<MEAN> 39
 -1.811864e+001 1.750821e+000 1.506909e+001 2.216749e+000 -9.196232e+000 -9.126035e+000 -2.161891e+000 -7.633792e+000 -6.037437e-001 -4.311385e+000 3.302304e-001 -1.551109e+000 7.161500e+001 -1.620181e+000 -3.055122e-001 9.984931e-002 -6.689690e-002 1.034819e-001 9.443161e-002 2.726630e-001 -3.626168e-001 -1.365953e-001 -1.693322e-001 -2.841011e-001 -3.102024e-001 1.058362e-001 8.283848e-001 -3.078485e-001 -2.927148e-001 -3.828754e-001 -4.105435e-001 -1.075944e-001 -7.059952e-001 2.536508e-002 -4.116174e-001 -1.823261e-001 -2.305857e-001 -2.021551e-001 -1.775110e-001
<VARIANCE> 39
 2.492550e+001 1.991397e+001 3.522720e+001 5.101648e+001 4.370731e+001 3.958002e+001 3.437465e+001 3.043230e+001 4.002612e+001 2.398657e+001 2.533379e+001 2.114148e+001 3.474817e+001 1.899087e+000 8.523530e-001 1.066813e+000 1.356766e+000 1.663362e+000 1.750464e+000 1.901338e+000 1.717254e+000 1.729396e+000 1.543992e+000 1.477552e+000 1.223258e+000 2.117763e-001 2.949643e-001 2.397690e-001 2.313755e-001 2.728241e-001 3.385479e-001 4.334825e-001 4.292033e-001 4.030067e-001 4.152212e-001 3.475998e-001 3.297377e-001 2.877631e-001 5.254102e-002
<GCONST> 1.032888e+002
<MIXTURE> 10 6.880925e-002
<MEAN> 39
 -2.504891e+001 -2.392561e+000 1.413507e+001 1.675673e+000 -6.787885e+000 -2.631716e+000 2.820121e+000 -3.607517e+000 3.103134e+000 -2.316238e+000 1.035120e-001 -2.627177e+000 6.715056e+001 -2.143322e+000 -8.361205e-001 -4.532669e-001 -7.548741e-001 -1.343825e-001 7.086917e-001 5.752392e-001 1.075323e-001 1.800909e-001 1.701365e-002 -1.171405e-001 -3.094047e-001 1.928235e-001 1.398094e+000 1.145526e-001 -4.581806e-001 -3.304254e-001 -4.564503e-001 -6.709319e-001 -1.020371e+000 -2.148129e-001 -5.943784e-001 -3.062693e-001 -2.389788e-001 -9.387948e-002 -3.328376e-001
<VARIANCE> 39
 2.561878e+001 2.093039e+001 2.901209e+001 5.667311e+001 3.350151e+001 3.628146e+001 3.068948e+001 2.525546e+001 2.610930e+001 2.309880e+001 2.806822e+001 1.756928e+001 6.676312e+001 2.310413e+000 1.229056e+000 1.596422e+000 1.877445e+000 2.031152e+000 2.976476e+000 2.572032e+000 2.204699e+000 2.112802e+000 1.975268e+000 1.790651e+000 1.530697e+000 1.146712e+000 4.182937e-001 2.768767e-001 3.363543e-001 3.941228e-001 4.795434e-001 5.536935e-001 5.417081e-001 3.955992e-001 3.823049e-001 4.059114e-001 3.681860e-001 3.133820e-001 1.493662e-001
<GCONST> 1.112096e+002
<MIXTURE> 11 6.655955e-002
<MEAN> 39
 -2.029576e+001 5.649700e+000 1.362181e+001 -6.970808e+000 -9.361895e+000 -6.915943e+000 -7.457209e+000 -7.520257e+000 -6.466306e+000 -9.660096e+000 -2.975469e+000 -5.942824e+000 7.335899e+001 -3.828925e+000 5.559134e-002 -1.040601e-001 3.414127e-001 1.572048e+000 1.708180e+000 1.171356e+000 9.463190e-001 6.912919e-001 -3.668913e-001 4.123121e-001 -3.837113e-001 1.411187e-001 8.572589e-001 -8.405211e-001 -5.725207e-001 -4.707590e-001 -4.937955e-001 -3.997633e-001 -1.817118e-001 -4.232338e-002 -1.917547e-001 5.067252e-001 -3.313554e-001 2.266013e-001 -2.709749e-001
<VARIANCE> 39
 2.301034e+001 2.417376e+001 2.982389e+001 2.701686e+001 4.074093e+001 2.989925e+001 2.708798e+001 4.062779e+001 3.349521e+001 3.103772e+001 2.758977e+001 2.150884e+001 1.968421e+001 2.390701e+000 2.103638e+000 1.999616e+000 2.264379e+000 2.625568e+000 2.904417e+000 2.489947e+000 2.959637e+000 2.793932e+000 2.767970e+000 2.596427e+000 1.983062e+000 6.121569e-001 4.676785e-001 3.438896e-001 3.769399e-001 4.674060e-001 6.334773e-001 6.795821e-001 6.322393e-001 6.092582e-001 5.610065e-001 5.148396e-001 4.847320e-001 3.987317e-001 1.634016e-001
<GCONST> 1.154015e+002
<MIXTURE> 12 6.632340e-002
<MEAN> 39
 -2.881498e+001 -1.515567e+000 1.174892e+001 -6.492922e+000 -4.271482e+000 -3.481920e+000 8.025177e-002 -1.706424e+000 2.414522e+000 -5.186212e+000 2.211310e+000 -2.216486e+000 7.233057e+001 -8.833189e-001 -9.116810e-001 -8.689245e-001 -5.814739e-001 -3.639825e-001 1.345568e-001 6.329246e-001 4.842186e-001 1.837584e-001 5.875892e-001 4.092535e-001 2.403755e-001 -1.343358e-001 1.853842e+000 7.526542e-002 -5.601970e-002 -2.262482e-001 -9.735897e-001 -1.139472e+000 -9.923759e-001 -8.920993e-001 -1.123972e+000 -4.291982e-001 -7.872429e-001 -3.998745e-001 -2.286582e-001
<VARIANCE> 39
 1.410361e+001 4.037851e+001 3.789177e+001 3.345805e+001 4.421970e+001 4.725695e+001 3.545466e+001 4.144372e+001 4.710580e+001 3.987078e+001 2.686304e+001 2.260565e+001 2.817406e+001 2.665748e+000 1.302075e+000 1.452430e+000 1.810883e+000 2.313163e+000 2.363047e+000 2.364566e+000 2.681822e+000 2.880636e+000 2.385986e+000 2.226570e+000 1.903308e+000 5.154139e-001 5.567040e-001 3.829901e-001 4.565605e-001 5.148146e-001 7.302243e-001 8.440381e-001 5.905182e-001 6.739635e-001 5.630028e-001 5.222182e-001 4.979352e-001 4.182588e-001 1.208279e-001
<GCONST> 1.165506e+002
<MIXTURE> 13 6.529505e-002
<MEAN> 39
 -2.267892e+001 3.292504e+000 1.523203e+001 -2.593895e+000 -8.013788e+000 -5.669326e+000 -4.404000e+000 -8.389540e+000 -5.952579e+000 -9.531112e+000 -3.516181e+000 -6.549222e+000 7.377478e+001 5.305926e-002 -3.609876e-001 -4.211875e-001 -6.614642e-001 -9.597003e-001 -8.058628e-001 -5.287187e-001 -3.914689e-001 -5.262654e-001 9.624233e-002 -1.656014e-001 -4.925844e-002 5.546343e-002 1.470807e+000 -3.159213e-001 -5.222305e-001 -6.845959e-001 -9.866327e-001 -9.046620e-001 -7.676643e-001 -2.636560e-001 -3.032902e-001 2.158359e-001 -8.994361e-002 1.475317e-001 -2.126434e-001
<VARIANCE> 39
 1.285054e+001 2.633539e+001 2.266021e+001 4.554366e+001 3.079420e+001 2.982533e+001 2.812995e+001 2.995997e+001 3.785414e+001 3.249215e+001 2.812894e+001 2.376748e+001 2.077717e+001 2.902146e+000 8.113142e-001 1.031258e+000 1.561909e+000 2.355291e+000 2.515591e+000 1.998370e+000 2.201313e+000 1.763290e+000 1.614321e+000 1.730256e+000 1.431499e+000 2.088155e-001 4.133961e-001 3.351074e-001 3.133010e-001 3.752213e-001 4.685475e-001 5.095483e-001 4.476005e-001 4.871864e-001 3.962624e-001 3.892989e-001 4.768898e-001 3.297556e-001 5.246018e-002
<GCONST> 1.058948e+002
<MIXTURE> 14 5.478420e-002
<MEAN> 39
 -1.849085e+001 2.695248e+000 1.638959e+001 9.301507e-001 -9.192952e+000 -6.087304e+000 -1.614830e+000 -5.879745e+000 4.292341e-001 -4.515655e+000 -4.886836e-001 -2.303028e+000 6.938055e+001 -4.798040e+000 1.820832e-002 2.625743e-001 2.568255e-001 1.422997e+000 1.259300e+000 1.779562e+000 -4.687803e-001 1.212283e+000 3.621553e-001 8.778486e-002 -2.149527e-001 2.070893e-001 6.390128e-001 -8.969288e-001 -6.800601e-001 -5.164679e-001 -3.511780e-001 5.640338e-002 -7.695858e-001 3.740012e-001 -4.237642e-001 -6.698288e-003 -2.074469e-001 -3.520048e-001 -1.189735e-001
<VARIANCE> 39
 2.409021e+001 1.665515e+001 2.592897e+001 4.499896e+001 3.298631e+001 3.691088e+001 3.165015e+001 2.749780e+001 3.216937e+001 2.650614e+001 2.578301e+001 1.944196e+001 4.363824e+001 1.647254e+000 2.405053e+000 2.306403e+000 2.134964e+000 2.347412e+000 2.915994e+000 2.858092e+000 3.378445e+000 2.584416e+000 2.545246e+000 2.764326e+000 2.034601e+000 8.239787e-001 4.231085e-001 2.394962e-001 3.299725e-001 3.295325e-001 4.702947e-001 6.105837e-001 6.501523e-001 4.456498e-001 5.099948e-001 5.450019e-001 5.350619e-001 4.451753e-001 1.209413e-001
<GCONST> 1.141057e+002
<MIXTURE> 15 5.287825e-002
<MEAN> 39
 -2.564876e+001 -2.861733e+000 1.408814e+001 1.073213e+000 -6.950374e+000 -1.915524e+000 3.597649e+000 -3.501827e+000 2.598215e+000 -2.009890e+000 -2.164213e-001 -2.937417e+000 6.942339e+001 1.720794e+000 5.283923e-001 -1.062507e-002 -3.259878e-001 -1.075807e+000 -1.588979e+000 -1.625098e+000 -8.000070e-001 -1.344699e+000 -8.820785e-001 -5.002592e-001 -2.805477e-001 1.794823e-002 1.689786e+000 1.598783e-001 -1.433394e-001 -3.637783e-001 -8.112581e-001 -1.045476e+000 -1.371650e+000 -3.625728e-001 -7.325729e-001 -4.995131e-001 -1.374392e-001 -5.690178e-002 -9.713706e-002
<VARIANCE> 39
 2.201508e+001 2.363657e+001 2.747956e+001 5.366245e+001 3.045650e+001 3.519276e+001 2.869064e+001 2.199606e+001 2.938762e+001 1.801663e+001 2.564043e+001 1.682565e+001 5.393841e+001 2.625103e+000 1.080236e+000 1.235164e+000 1.558879e+000 1.569914e+000 2.214862e+000 1.860112e+000 1.732131e+000 1.679150e+000 1.578279e+000 1.584777e+000 1.449797e+000 6.273485e-001 3.781778e-001 3.320687e-001 3.868734e-001 4.049115e-001 3.825374e-001 4.585274e-001 4.624908e-001 4.656579e-001 4.232740e-001 3.700329e-001 3.739713e-001 3.204011e-001 7.207982e-002
<GCONST> 1.066229e+002
<MIXTURE> 16 3.473942e-002
<MEAN> 39
 -2.681725e+001 -6.563509e-001 1.076079e+001 -6.122510e+000 -4.262208e+000 -2.000220e+000 1.294860e+000 2.920700e-001 6.794768e-001 -4.276490e+000 2.458714e+000 -2.297894e+000 7.164010e+001 4.099705e+000 2.316074e-001 -1.610109e-001 -9.598306e-001 -2.735404e+000 -3.101793e+000 -2.126509e+000 -2.307934e+000 -2.740874e+000 -8.434649e-001 -1.756522e+000 -9.454776e-001 -9.831984e-002 1.582407e+000 -2.129912e-001 -1.511378e-001 -7.381727e-001 -1.068613e+000 -1.295626e+000 -1.060420e+000 -8.385442e-001 -9.336913e-001 -2.397140e-001 -8.812025e-001 -2.800804e-001 6.395731e-002
<VARIANCE> 39
 1.388349e+001 1.767346e+001 2.185561e+001 2.138233e+001 2.155315e+001 2.823678e+001 2.268383e+001 3.080922e+001 3.769126e+001 4.038311e+001 2.481384e+001 2.343940e+001 2.653420e+001 2.804490e+000 1.519402e+000 1.960206e+000 2.548259e+000 2.675112e+000 2.528785e+000 2.732027e+000 2.700838e+000 2.936423e+000 2.139862e+000 2.770434e+000 1.694368e+000 7.303756e-001 4.553958e-001 3.569168e-001 3.601666e-001 4.505965e-001 5.043883e-001 5.214136e-001 6.557037e-001 6.570642e-001 6.389142e-001 6.318628e-001 4.757952e-001 4.152370e-001 9.465893e-002
<GCONST> 1.125990e+002
<STATE> 4
<NUMMIXES> 16
<MIXTURE> 1 5.525710e-002
<MEAN> 39
 -1.622915e+001 4.941127e+000 1.696860e+001 1.675832e+000 -5.978017e+000 -5.202281e+000 -9.029037e-001 -4.889195e+000 1.371848e+000 -4.522326e+000 1.460180e+000 -1.593160e-001 7.344495e+001 1.451627e+000 1.106183e+000 -3.642013e-001 3.408847e-001 1.284624e+000 1.472233e+000 -9.057533e-002 6.688016e-001 7.189508e-001 4.424269e-001 -4.177953e-002 2.905540e-001 -1.683846e+000 1.118153e+000 7.405343e-002 -3.882336e-001 2.832705e-001 3.241599e-001 2.577310e-001 2.868043e-002 2.715275e-001 3.755013e-002 3.169018e-001 -1.757945e-002 -1.209040e-001 -5.480700e-001
<VARIANCE> 39
 3.332610e+001 3.514993e+001 3.222596e+001 5.643322e+001 4.754396e+001 4.829079e+001 3.994728e+001 3.417992e+001 5.495732e+001 2.997917e+001 3.068394e+001 2.307616e+001 3.215862e+001 3.369878e+000 1.136459e+000 2.291587e+000 2.419373e+000 2.551097e+000 3.345394e+000 2.845970e+000 2.401718e+000 2.737581e+000 2.112576e+000 1.894453e+000 1.795247e+000 1.967471e+000 5.099266e-001 2.875645e-001 3.965578e-001 4.198714e-001 4.275616e-001 6.118510e-001 4.887494e-001 4.235176e-001 4.821652e-001 4.301709e-001 3.663043e-001 3.166938e-001 2.506067e-001
<GCONST> 1.176854e+002
<MIXTURE> 2 8.453070e-002
<MEAN> 39
 -3.562719e+000 -2.214865e+000 1.428936e+001 1.468005e+000 -1.313863e+001 -9.908131e+000 -6.207834e+000 7.471680e-002 1.342316e-001 -5.062092e+000 3.199763e+000 -1.794398e-001 7.454141e+001 3.493999e+000 -2.029812e+000 -9.276934e-001 -1.087717e+000 -1.040221e+000 2.859327e-001 -2.394779e+000 2.135876e+000 1.226024e-001 3.427735e-001 4.832113e-001 -3.943091e-001 6.515489e-001 -7.595227e-001 1.236222e-001 -6.694099e-002 1.440923e-001 8.157511e-001 7.229146e-001 4.494215e-001 1.059721e-001 4.977961e-001 6.186374e-001 -6.120317e-002 -1.696604e-001 -4.570469e-002
<VARIANCE> 39
 1.416674e+001 2.577119e+001 2.588035e+001 3.595334e+001 3.229109e+001 2.275000e+001 3.429031e+001 2.243377e+001 3.469502e+001 2.181033e+001 2.539959e+001 1.687366e+001 4.744513e+001 2.271673e+000 1.748352e+000 2.122931e+000 1.743928e+000 2.584450e+000 3.683445e+000 3.264913e+000 2.398486e+000 3.661642e+000 3.312423e+000 2.417444e+000 2.180804e+000 4.274708e-001 2.718804e-001 3.572683e-001 2.215971e-001 2.711897e-001 3.403588e-001 3.813184e-001 4.578828e-001 4.069200e-001 4.030213e-001 4.374136e-001 3.515010e-001 2.762337e-001 7.122482e-002
<GCONST> 1.089393e+002
<MIXTURE> 3 7.663130e-002
<MEAN> 39
 -1.367905e+001 3.658123e+000 1.803897e+001 5.119265e+000 -8.148290e+000 -6.862342e+000 -3.586479e-001 -4.709077e+000 5.096170e-001 -2.514332e+000 2.203011e+000 1.327457e-001 7.360093e+001 3.519300e+000 -9.645128e-002 -2.262100e-001 -7.559976e-001 -1.474402e+000 -8.441023e-001 -1.551587e+000 5.787291e-001 -7.239960e-001 -3.763937e-001 4.288792e-001 2.913943e-001 1.509889e-001 7.351990e-001 -4.401207e-001 -1.544975e-001 -1.634854e-001 -1.082310e-001 2.231721e-001 -3.566554e-001 5.215966e-001 1.109573e-001 2.150600e-002 1.618011e-001 -4.507060e-002 2.473383e-002
<VARIANCE> 39
 1.831688e+001 1.516991e+001 2.374346e+001 3.744252e+001 2.560188e+001 3.216474e+001 2.945776e+001 2.254975e+001 3.081902e+001 1.748975e+001 2.728098e+001 1.640408e+001 5.479900e+001 2.026570e+000 1.778053e+000 1.777285e+000 1.553506e+000 1.786160e+000 2.159484e+000 2.103981e+000 2.176665e+000 1.885886e+000 1.804916e+000 1.429239e+000 1.391785e+000 3.170331e-001 3.488182e-001 1.944502e-001 2.030337e-001 2.184677e-001 2.948636e-001 3.598671e-001 3.864061e-001 3.445621e-001 4.091893e-001 3.417942e-001 3.161069e-001 2.907086e-001 3.776279e-002
<GCONST> 1.019402e+002
<MIXTURE> 4 5.209615e-002
<MEAN> 39
 -1.152361e+001 6.441496e+000 1.600303e+001 -6.004872e+000 -1.388978e+001 -9.287095e+000 -7.462697e+000 -1.011839e+001 -5.949772e+000 -3.530792e+000 -5.022480e-001 -3.138125e+000 7.430196e+001 3.958244e+000 -8.251799e-001 -4.200262e-001 -1.486822e+000 -2.052687e+000 -1.166982e+000 -9.443666e-001 3.007161e-001 -7.683019e-001 1.537431e+000 1.701087e-001 7.499886e-001 -3.947002e-002 -4.038858e-002 -3.974722e-001 -1.680089e-001 1.614062e-001 5.454453e-001 5.042807e-001 4.596858e-001 8.845832e-001 2.485735e-001 2.472692e-001 -1.279319e-001 2.200263e-001 4.471518e-002
<VARIANCE> 39
 1.235373e+001 1.977495e+001 2.027158e+001 3.276266e+001 2.230426e+001 2.229987e+001 2.126083e+001 2.441052e+001 2.752929e+001 2.934567e+001 1.957487e+001 1.984865e+001 2.258362e+001 1.852200e+000 1.802669e+000 1.737197e+000 2.704684e+000 3.028520e+000 3.657701e+000 3.023501e+000 3.047028e+000 2.563427e+000 2.618855e+000 3.002421e+000 1.958168e+000 3.493093e-001 3.205599e-001 1.851206e-001 2.083024e-001 2.781629e-001 3.540092e-001 3.660536e-001 4.012095e-001 4.517972e-001 4.277755e-001 3.419831e-001 3.833640e-001 2.863304e-001 5.364576e-002
<GCONST> 1.054306e+002
<MIXTURE> 5 7.524380e-002
<MEAN> 39
 -4.901372e+000 -1.035654e+000 1.086659e+001 -9.843478e+000 -1.559992e+001 -1.314674e+001 -5.874443e+000 -4.419876e+000 -6.052437e+000 -1.960691e+000 -1.991980e+000 -9.825228e-001 7.557628e+001 3.545471e+000 -2.138512e+000 -1.642273e+000 -1.536930e+000 -7.356342e-001 -5.201862e-001 -1.849229e-001 2.112607e+000 -1.141479e-001 1.549754e+000 -1.299061e+000 8.829725e-001 7.447570e-001 -1.052060e+000 7.402804e-002 -1.094660e-001 6.736815e-001 1.286389e+000 1.047153e+000 5.766453e-001 7.182820e-001 6.914271e-001 6.642298e-002 3.148240e-002 7.904976e-002 -1.226587e-003
<VARIANCE> 39
 7.254444e+000 2.323784e+001 2.877835e+001 4.479700e+001 3.998747e+001 3.793458e+001 4.000790e+001 3.518375e+001 2.593567e+001 3.670850e+001 2.542248e+001 2.507822e+001 2.542859e+001 2.648604e+000 1.676290e+000 2.562313e+000 3.172940e+000 4.009141e+000 5.822347e+000 5.121737e+000 5.145586e+000 4.388855e+000 3.821476e+000 3.201444e+000 2.177721e+000 5.298762e-001 2.391633e-001 3.115844e-001 3.419512e-001 4.496566e-001 5.107353e-001 6.033944e-001 5.252073e-001 6.771094e-001 5.277636e-001 6.007171e-001 5.303648e-001 4.318021e-001 8.744127e-002
<GCONST> 1.174876e+002
<MIXTURE> 6 5.692650e-002
<MEAN> 39
 -1.520909e+001 1.684267e+000 1.653741e+001 3.672766e+000 -6.982631e+000 -7.336534e+000 -6.017312e-001 -4.141396e+000 2.349048e+000 -4.218490e+000 5.450683e-001 -2.629162e-001 7.200466e+001 5.230871e+000 1.002947e-001 -4.400811e-002 -7.249064e-001 -1.991661e+000 -1.375248e+000 -2.949731e+000 5.060291e-001 -1.125589e+000 -4.018442e-001 2.556083e-001 2.901015e-001 6.051333e-001 7.118375e-001 -5.256433e-001 -2.796236e-001 -3.987556e-001 -1.421271e-001 5.024780e-001 -4.561861e-001 5.671390e-001 9.195520e-002 3.706869e-001 2.359620e-001 -7.437863e-002 1.903902e-001
<VARIANCE> 39
 3.273121e+001 2.918766e+001 3.738212e+001 4.881711e+001 4.913443e+001 5.800892e+001 4.334002e+001 3.460054e+001 4.025364e+001 2.882044e+001 2.440572e+001 2.662089e+001 3.392607e+001 2.723100e+000 3.538368e+000 3.723771e+000 3.063421e+000 3.453821e+000 5.025198e+000 3.310013e+000 4.491953e+000 4.059041e+000 3.284259e+000 2.987422e+000 2.386870e+000 8.824058e-001 6.441711e-001 2.988088e-001 3.241343e-001 3.606465e-001 4.810072e-001 8.024130e-001 6.091279e-001 6.231126e-001 5.576880e-001 5.504869e-001 5.372685e-001 3.827481e-001 1.353427e-001
<GCONST> 1.225785e+002
<MIXTURE> 7 5.611810e-002
<MEAN> 39
 -1.686317e+001 1.669374e+000 1.279313e+001 1.570989e+000 -2.120492e+000 -1.146733e+000 5.329956e-001 -1.778454e+000 5.284874e+000 -1.709459e+000 6.842478e-001 -1.404204e+000 6.733332e+001 3.174244e+000 1.109475e+000 -9.043691e-001 1.457521e-001 6.327975e-001 8.367394e-001 -6.203205e-002 3.136383e-001 -6.107926e-001 8.143858e-001 -2.120882e-002 3.407230e-003 -1.530973e+000 1.123718e+000 1.319567e-001 9.827127e-002 1.278881e-001 -2.289934e-001 -2.213384e-001 -1.006103e-001 -7.695404e-002 -4.558212e-001 1.000084e-001 1.037596e-001 3.557101e-002 2.953398e-001
<VARIANCE> 39
 5.472418e+001 5.064252e+001 5.941096e+001 8.283530e+001 8.906483e+001 7.145781e+001 6.180197e+001 5.410156e+001 4.894237e+001 4.803689e+001 3.885315e+001 3.159085e+001 6.099423e+001 4.587247e+000 2.318127e+000 3.940899e+000 3.177818e+000 3.831463e+000 5.029511e+000 4.285193e+000 3.959326e+000 4.077581e+000 3.658950e+000 2.844302e+000 2.154427e+000 2.209054e+000 8.733879e-001 5.252118e-001 7.466893e-001 5.989802e-001 8.113586e-001 1.049086e+000 8.662100e-001 8.480759e-001 7.461222e-001 6.734865e-001 6.262811e-001 5.242311e-001 4.202395e-001
<GCONST> 1.352321e+002
<MIXTURE> 8 4.319001e-002
<MEAN> 39
 -1.567246e+001 5.107028e+000 1.456036e+001 -5.768593e+000 -8.876556e+000 -8.318553e+000 -4.574506e+000 -5.555241e+000 -5.347077e+000 -7.466168e+000 1.652641e-001 -4.431503e+000 7.461546e+001 5.716250e+000 -4.268239e-001 -2.031783e-001 -1.846963e+000 -3.011890e+000 -3.089616e+000 -1.722248e+000 -1.279647e+000 -1.789167e+000 1.063102e+000 -1.183806e+000 2.921564e-001 5.466451e-001 4.382721e-001 -6.828371e-001 -2.455664e-001 -3.080242e-001 1.003663e-001 1.721587e-001 3.380163e-001 6.971682e-001 4.550971e-001 7.362566e-001 -9.959530e-002 5.095792e-001 1.419721e-001
<VARIANCE> 39
 2.054097e+001 1.415198e+001 1.659885e+001 2.302913e+001 3.010694e+001 3.173445e+001 2.084387e+001 2.455975e+001 2.338741e+001 2.767736e+001 2.097418e+001 1.956716e+001 2.427283e+001 1.965927e+000 2.505583e+000 2.763460e+000 2.925089e+000 3.184205e+000 3.746785e+000 4.141284e+000 3.879372e+000 3.926319e+000 3.140384e+000 3.384245e+000 2.208049e+000 7.174456e-001 6.125752e-001 2.349248e-001 2.741339e-001 3.471073e-001 4.780298e-001 5.599985e-001 5.452464e-001 6.480671e-001 5.639233e-001 4.243917e-001 4.733419e-001 3.083819e-001 9.203424e-002
<GCONST> 1.128176e+002
<MIXTURE> 9 8.453070e-002
<MEAN> 39
 -5.068269e+000 -4.245479e+000 1.225445e+001 -9.304395e-001 -1.541164e+001 -1.181601e+001 -8.550152e+000 -1.819855e+000 -2.221868e+000 -6.930153e+000 1.183843e+000 -1.822542e+000 7.178619e+001 2.891117e+000 -2.558713e+000 -1.510505e+000 -1.615949e+000 -1.683270e+000 -4.817594e-001 -3.117541e+000 1.516394e+000 -6.428143e-001 -3.852291e-001 -1.387139e-001 -9.850109e-001 3.900239e-001 -9.680913e-001 -1.154655e-001 -2.552374e-001 -6.421123e-002 5.823900e-001 4.759107e-001 1.787533e-001 -1.491890e-001 2.438603e-001 3.540884e-001 -2.983533e-001 -3.798922e-001 -1.524566e-001
<VARIANCE> 39
 1.416674e+001 2.577119e+001 2.588035e+001 3.595334e+001 3.229109e+001 2.275000e+001 3.429031e+001 2.243377e+001 3.469502e+001 2.181033e+001 2.539959e+001 1.687366e+001 4.744513e+001 2.271673e+000 1.748352e+000 2.122931e+000 1.743928e+000 2.584450e+000 3.683445e+000 3.264913e+000 2.398486e+000 3.661642e+000 3.312423e+000 2.417444e+000 2.180804e+000 4.274708e-001 2.718804e-001 3.572683e-001 2.215971e-001 2.711897e-001 3.403588e-001 3.813184e-001 4.578828e-001 4.069200e-001 4.030213e-001 4.374136e-001 3.515010e-001 2.762337e-001 7.122482e-002
<GCONST> 1.089393e+002
<MIXTURE> 10 7.663130e-002
<MEAN> 39
 -1.539097e+001 2.100180e+000 1.608988e+001 2.671653e+000 -1.017222e+001 -9.130900e+000 -2.529648e+000 -6.608540e+000 -1.710978e+000 -4.187162e+000 1.137630e-001 -1.487332e+000 7.063987e+001 2.949869e+000 -6.298259e-001 -7.594694e-001 -1.254557e+000 -2.008991e+000 -1.431910e+000 -2.131791e+000 -1.141191e-002 -1.273306e+000 -9.137824e-001 -4.932397e-002 -1.805014e-001 -7.423389e-002 4.989556e-001 -6.165067e-001 -3.347345e-001 -3.504475e-001 -3.254364e-001 -1.678365e-002 -6.053016e-001 2.867990e-001 -1.449143e-001 -2.123467e-001 -6.309247e-002 -2.607402e-001 -5.299677e-002
<VARIANCE> 39
 1.831688e+001 1.516991e+001 2.374346e+001 3.744252e+001 2.560188e+001 3.216474e+001 2.945776e+001 2.254975e+001 3.081902e+001 1.748975e+001 2.728098e+001 1.640408e+001 5.479900e+001 2.026570e+000 1.778053e+000 1.777285e+000 1.553506e+000 1.786160e+000 2.159484e+000 2.103981e+000 2.176665e+000 1.885886e+000 1.804916e+000 1.429239e+000 1.391785e+000 3.170331e-001 3.488182e-001 1.944502e-001 2.030337e-001 2.184677e-001 2.948636e-001 3.598671e-001 3.864061e-001 3.445621e-001 4.091893e-001 3.417942e-001 3.161069e-001 2.907086e-001 3.776279e-002
<GCONST> 1.019402e+002
<MIXTURE> 11 7.524380e-002
<MEAN> 39
 -5.978735e+000 -2.963880e+000 8.720771e+000 -1.252070e+001 -1.812934e+001 -1.561038e+001 -8.404515e+000 -6.792512e+000 -8.089520e+000 -4.384193e+000 -4.008808e+000 -2.985649e+000 7.355920e+001 2.894489e+000 -2.656398e+000 -2.282562e+000 -2.249440e+000 -1.536548e+000 -1.485368e+000 -1.090173e+000 1.205251e+000 -9.521317e-001 7.678101e-001 -2.014765e+000 2.926884e-001 4.535866e-001 -1.247678e+000 -1.492509e-001 -3.433724e-001 4.054557e-001 1.000527e+000 7.364396e-001 2.867605e-001 3.891354e-001 4.008377e-001 -2.436008e-001 -2.598222e-001 -1.837968e-001 -1.195085e-001
<VARIANCE> 39
 7.254444e+000 2.323784e+001 2.877835e+001 4.479700e+001 3.998747e+001 3.793458e+001 4.000790e+001 3.518375e+001 2.593567e+001 3.670850e+001 2.542248e+001 2.507822e+001 2.542859e+001 2.648604e+000 1.676290e+000 2.562313e+000 3.172940e+000 4.009141e+000 5.822347e+000 5.121737e+000 5.145586e+000 4.388855e+000 3.821476e+000 3.201444e+000 2.177721e+000 5.298762e-001 2.391633e-001 3.115844e-001 3.419512e-001 4.496566e-001 5.107353e-001 6.033944e-001 5.252073e-001 6.771094e-001 5.277636e-001 6.007171e-001 5.303648e-001 4.318021e-001 8.744127e-002
<GCONST> 1.174876e+002
<MIXTURE> 12 5.692650e-002
<MEAN> 39
 -1.749753e+001 -4.767573e-001 1.409177e+001 8.779963e-001 -9.786469e+000 -1.038308e+001 -3.235057e+000 -6.494285e+000 -1.887822e-001 -6.365876e+000 -1.431018e+000 -2.326734e+000 6.967481e+001 4.570799e+000 -6.521273e-001 -8.158911e-001 -1.425012e+000 -2.735039e+000 -2.271926e+000 -3.677469e+000 -3.417400e-001 -1.931471e+000 -1.126745e+000 -4.357581e-001 -3.278784e-001 2.293875e-001 3.907964e-001 -7.442970e-001 -5.073548e-001 -6.389710e-001 -4.195459e-001 1.441680e-001 -7.683727e-001 2.513891e-001 -2.067588e-001 7.390768e-002 -5.723244e-002 -3.218452e-001 4.323440e-002
<VARIANCE> 39
 3.273121e+001 2.918766e+001 3.738212e+001 4.881711e+001 4.913443e+001 5.800892e+001 4.334002e+001 3.460054e+001 4.025364e+001 2.882044e+001 2.440572e+001 2.662089e+001 3.392607e+001 2.723100e+000 3.538368e+000 3.723771e+000 3.063421e+000 3.453821e+000 5.025198e+000 3.310013e+000 4.491953e+000 4.059041e+000 3.284259e+000 2.987422e+000 2.386870e+000 8.824058e-001 6.441711e-001 2.988088e-001 3.241343e-001 3.606465e-001 4.810072e-001 8.024130e-001 6.091279e-001 6.231126e-001 5.576880e-001 5.504869e-001 5.372685e-001 3.827481e-001 1.353427e-001
<GCONST> 1.225785e+002
<MIXTURE> 13 5.611810e-002
<MEAN> 39
 -1.982220e+001 -1.177168e+000 9.709991e+000 -2.069566e+000 -5.895458e+000 -4.528041e+000 -2.611574e+000 -4.720604e+000 2.486521e+000 -4.481805e+000 -1.809044e+000 -3.652434e+000 6.420937e+001 2.317530e+000 5.004596e-001 -1.698437e+000 -5.673053e-001 -1.501675e-001 -6.032342e-002 -8.900604e-001 -4.822839e-001 -1.418513e+000 4.925054e-002 -6.958112e-001 -5.837114e-001 -2.125489e+000 7.498974e-001 -1.579293e-001 -2.473735e-001 -1.816871e-001 -5.892952e-001 -6.310380e-001 -4.728919e-001 -4.453182e-001 -8.013346e-001 -2.282565e-001 -2.127921e-001 -2.540442e-001 3.603623e-002
<VARIANCE> 39
 5.472418e+001 5.064252e+001 5.941096e+001 8.283530e+001 8.906483e+001 7.145781e+001 6.180197e+001 5.410156e+001 4.894237e+001 4.803689e+001 3.885315e+001 3.159085e+001 6.099423e+001 4.587247e+000 2.318127e+000 3.940899e+000 3.177818e+000 3.831463e+000 5.029511e+000 4.285193e+000 3.959326e+000 4.077581e+000 3.658950e+000 2.844302e+000 2.154427e+000 2.209054e+000 8.733879e-001 5.252118e-001 7.466893e-001 5.989802e-001 8.113586e-001 1.049086e+000 8.662100e-001 8.480759e-001 7.461222e-001 6.734865e-001 6.262811e-001 5.242311e-001 4.202395e-001
<GCONST> 1.352321e+002
<MIXTURE> 14 5.525710e-002
<MEAN> 39
 -1.853831e+001 2.569632e+000 1.469788e+001 -1.329050e+000 -8.736102e+000 -7.981944e+000 -3.431058e+000 -7.227739e+000 -1.593480e+000 -6.712455e+000 -7.555438e-001 -2.080822e+000 7.117661e+001 7.173374e-001 6.797637e-001 -9.697208e-001 -2.812887e-001 6.457381e-001 7.406167e-001 -7.653754e-001 4.890255e-002 5.712536e-002 -1.389613e-001 -5.923361e-001 -2.453933e-001 -2.244912e+000 8.325166e-001 -1.404467e-001 -6.401250e-001 2.408053e-002 6.260711e-002 -5.515261e-002 -2.509620e-001 1.121453e-002 -2.402023e-001 5.455217e-002 -2.596718e-001 -3.460062e-001 -7.483125e-001
<VARIANCE> 39
 3.332610e+001 3.514993e+001 3.222596e+001 5.643322e+001 4.754396e+001 4.829079e+001 3.994728e+001 3.417992e+001 5.495732e+001 2.997917e+001 3.068394e+001 2.307616e+001 3.215862e+001 3.369878e+000 1.136459e+000 2.291587e+000 2.419373e+000 2.551097e+000 3.345394e+000 2.845970e+000 2.401718e+000 2.737581e+000 2.112576e+000 1.894453e+000 1.795247e+000 1.967471e+000 5.099266e-001 2.875645e-001 3.965578e-001 4.198714e-001 4.275616e-001 6.118510e-001 4.887494e-001 4.235176e-001 4.821652e-001 4.301709e-001 3.663043e-001 3.166938e-001 2.506067e-001
<GCONST> 1.176854e+002
<MIXTURE> 15 5.209615e-002
<MEAN> 39
 -1.292953e+001 4.662735e+000 1.420207e+001 -8.294419e+000 -1.577888e+001 -1.117601e+001 -9.307076e+000 -1.209467e+001 -8.048507e+000 -5.697658e+000 -2.271988e+000 -4.920198e+000 7.240107e+001 3.413862e+000 -1.362234e+000 -9.472373e-001 -2.144660e+000 -2.748793e+000 -1.931986e+000 -1.639895e+000 -3.975134e-001 -1.408730e+000 8.901155e-001 -5.229911e-001 1.902504e-001 -2.758796e-001 -2.668606e-001 -5.695748e-001 -3.505695e-001 -4.955844e-002 3.074506e-001 2.622713e-001 2.063214e-001 6.157198e-001 -1.304470e-002 1.335195e-002 -3.755975e-001 5.986900e-003 -4.793104e-002
<VARIANCE> 39
 1.235373e+001 1.977495e+001 2.027158e+001 3.276266e+001 2.230426e+001 2.229987e+001 2.126083e+001 2.441052e+001 2.752929e+001 2.934567e+001 1.957487e+001 1.984865e+001 2.258362e+001 1.852200e+000 1.802669e+000 1.737197e+000 2.704684e+000 3.028520e+000 3.657701e+000 3.023501e+000 3.047028e+000 2.563427e+000 2.618855e+000 3.002421e+000 1.958168e+000 3.493093e-001 3.205599e-001 1.851206e-001 2.083024e-001 2.781629e-001 3.540092e-001 3.660536e-001 4.012095e-001 4.517972e-001 4.277755e-001 3.419831e-001 3.833640e-001 2.863304e-001 5.364576e-002
<GCONST> 1.054306e+002
<MIXTURE> 16 4.319001e-002
<MEAN> 39
 -1.748534e+001 3.602264e+000 1.293070e+001 -7.688140e+000 -1.107135e+001 -1.057189e+001 -6.400710e+000 -7.537553e+000 -7.281499e+000 -9.570539e+000 -1.666639e+000 -6.200894e+000 7.264476e+001 5.155404e+000 -1.059985e+000 -8.681247e-001 -2.531079e+000 -3.725664e+000 -3.863880e+000 -2.536254e+000 -2.067491e+000 -2.581765e+000 3.542565e-001 -1.919658e+000 -3.022238e-001 2.078365e-001 1.252033e-001 -8.767133e-001 -4.549976e-001 -5.436874e-001 -1.761924e-001 -1.271735e-001 4.265309e-002 3.751577e-001 1.547178e-001 4.756752e-001 -3.747947e-001 2.874506e-001 2.062348e-002
<VARIANCE> 39
 2.054097e+001 1.415198e+001 1.659885e+001 2.302913e+001 3.010694e+001 3.173445e+001 2.084387e+001 2.455975e+001 2.338741e+001 2.767736e+001 2.097418e+001 1.956716e+001 2.427283e+001 1.965927e+000 2.505583e+000 2.763460e+000 2.925089e+000 3.184205e+000 3.746785e+000 4.141284e+000 3.879372e+000 3.926319e+000 3.140384e+000 3.384245e+000 2.208049e+000 7.174456e-001 6.125752e-001 2.349248e-001 2.741339e-001 3.471073e-001 4.780298e-001 5.599985e-001 5.452464e-001 6.480671e-001 5.639233e-001 4.243917e-001 4.733419e-001 3.083819e-001 9.203424e-002
<GCONST> 1.128176e+002
<TRANSP> 5
 0.000000e+000 1.000000e+000 0.000000e+000 0.000000e+000 0.000000e+000
 0.000000e+000 6.817193e-001 3.182807e-001 0.000000e+000 0.000000e+000
 0.000000e+000 0.000000e+000 7.521537e-001 2.478463e-001 0.000000e+000
 0.000000e+000 0.000000e+000 0.000000e+000 6.873966e-001 3.126034e-001
 0.000000e+000 0.000000e+000 0.000000e+000 0.000000e+000 0.000000e+000
<ENDHMM>
~h "a"
<BEGINHMM>
<NUMSTATES> 5
<STATE> 2
<NUMMIXES> 16
<MIXTURE> 1 6.392795e-002
<MEAN> 39
 2.543369e+000 -9.680799e+000 -5.468735e-001 -6.030023e+000 -8.231933e+000 -6.266355e-002 -1.003378e+001 3.779990e+000 6.991484e+000 4.169795e+000 4.774338e-002 -9.894790e+000 7.787623e+001 1.556156e+000 -1.652675e+000 -1.006123e-001 -7.970046e-001 -2.566978e-001 1.969009e+000 -4.263313e-001 1.240969e+000 4.314339e-001 3.304084e-001 5.522131e-001 -1.140327e+000 1.019304e+000 -8.018032e-001 1.144562e+000 2.554603e-001 7.043826e-001 8.938035e-001 -8.627975e-002 9.742712e-001 -2.188270e-001 -3.498206e-001 6.937835e-002 2.593437e-001 1.060090e+000 -7.396852e-001
<VARIANCE> 39
 1.471244e+001 3.716609e+001 2.841991e+001 4.196107e+001 3.652096e+001 5.457401e+001 4.773123e+001 5.059420e+001 3.866426e+001 4.778307e+001 4.107236e+001 2.337818e+001 4.366485e+001 1.372737e+000 1.940935e+000 2.019802e+000 1.973792e+000 2.948091e+000 3.298978e+000 2.979358e+000 3.458920e+000 2.646660e+000 2.869609e+000 2.620869e+000 2.373500e+000 9.219182e-001 3.522882e-001 4.660462e-001 4.191943e-001 4.099175e-001 5.491279e-001 6.259155e-001 6.177636e-001 7.226068e-001 6.148521e-001 6.150206e-001 5.573321e-001 4.631051e-001 2.349587e-001
<GCONST> 1.201440e+002
<MIXTURE> 2 3.855427e-002
<MEAN> 39
 -7.328132e+000 -5.224162e+000 -6.954326e-001 -6.824562e+000 8.204011e-001 2.374547e+000 -4.921453e-001 4.076911e+000 4.002088e+000 3.856319e+000 -2.798867e-001 -2.106431e+000 6.159378e+001 3.373404e-001 1.211433e-001 -1.909489e-001 4.878942e-001 1.237981e+000 1.136327e+000 6.200905e-001 2.036796e-001 3.189414e-001 4.224845e-001 7.261524e-002 4.117816e-002 5.887548e-001 3.750009e-001 1.696916e-002 3.842499e-001 3.762167e-002 2.404054e-002 2.947174e-001 -7.691477e-002 1.003782e-001 -1.081072e-001 9.059215e-002 2.167918e-001 1.096232e-001 5.817801e-001
<VARIANCE> 39
 7.364373e+001 9.619378e+001 1.128418e+002 1.161827e+002 1.282879e+002 1.422493e+002 9.516000e+001 9.342148e+001 9.329704e+001 7.237357e+001 6.979460e+001 6.320299e+001 1.485784e+002 2.707875e+000 4.197389e+000 3.969279e+000 4.106363e+000 5.200569e+000 5.894901e+000 4.383784e+000 4.588773e+000 4.965899e+000 3.958821e+000 3.700484e+000 3.443878e+000 5.050244e+000 4.117437e-001 8.339210e-001 6.740506e-001 8.305384e-001 9.223253e-001 9.743662e-001 8.277946e-001 8.426459e-001 9.954163e-001 8.203683e-001 7.495753e-001 7.523676e-001 8.942858e-001
<GCONST> 1.469251e+002
<MIXTURE> 3 8.284465e-002
<MEAN> 39
 8.678344e-001 -7.867194e+000 -4.822045e+000 -1.433353e+001 9.840488e-001 -5.160701e-001 -6.457616e+000 2.157916e+000 2.633776e-001 4.965923e+000 -9.565804e+000 -4.423044e+000 7.717898e+001 1.944574e-001 -7.725125e-001 -3.093302e-001 -4.204747e-001 1.312806e+000 6.433936e-001 6.497815e-001 8.389661e-001 3.040387e-001 3.938830e-001 -7.410336e-001 2.581177e-001 9.073191e-001 -2.321781e-001 8.819267e-001 6.473524e-001 1.130434e+000 -1.466392e-001 -4.762713e-002 4.413519e-001 -2.739286e-001 2.159901e-001 -2.080583e-001 8.671254e-001 3.460559e-001 -6.128572e-001
<VARIANCE> 39
 1.294057e+001 3.093272e+001 3.997155e+001 5.840751e+001 3.889614e+001 7.626187e+001 6.715039e+001 5.845527e+001 4.718863e+001 6.853214e+001 3.629617e+001 2.851273e+001 2.477782e+001 8.124503e-001 1.609733e+000 1.851253e+000 2.652132e+000 2.406993e+000 3.360850e+000 2.971772e+000 3.069350e+000 2.811335e+000 3.068877e+000 2.401467e+000 2.132464e+000 7.704759e-001 3.146393e-001 3.154268e-001 4.361916e-001 5.902889e-001 4.697029e-001 7.014001e-001 6.285617e-001 7.340826e-001 7.296986e-001 7.291628e-001 4.521554e-001 3.998468e-001 1.948311e-001
<GCONST> 1.200893e+002
<MIXTURE> 4 7.765240e-002
<MEAN> 39
 1.134536e+000 -5.474666e+000 -4.054294e+000 -9.034267e+000 -3.366700e+000 -4.019793e-003 -4.341857e+000 -1.013483e+000 2.589094e+000 4.565450e+000 -9.593930e-001 -7.344701e+000 7.340768e+001 3.266048e+000 -1.811566e+000 -1.187484e-001 -2.069912e+000 -7.773982e-001 1.513012e+000 -9.629790e-001 4.115316e-001 1.980339e-001 8.329498e-001 1.013212e-001 -1.795218e+000 2.812442e+000 -7.310464e-001 3.418707e-001 4.098183e-001 7.964043e-001 4.813620e-001 2.645884e-001 5.201514e-001 5.048040e-001 2.581052e-001 5.380328e-002 4.061723e-001 7.271449e-001 -6.383466e-001
<VARIANCE> 39
 1.998932e+001 3.381392e+001 3.734376e+001 6.630866e+001 5.234711e+001 9.816373e+001 7.179691e+001 5.140634e+001 4.537425e+001 4.586126e+001 5.306532e+001 2.790762e+001 5.826249e+001 2.457580e+000 3.520621e+000 3.939734e+000 4.036506e+000 5.049319e+000 6.251823e+000 5.230415e+000 4.946856e+000 4.592083e+000 4.499752e+000 4.652209e+000 4.037306e+000 2.562601e+000 4.293396e-001 5.457055e-001 5.642743e-001 7.171086e-001 6.506738e-001 9.495543e-001 7.309741e-001 6.483518e-001 6.939366e-001 6.157798e-001 7.037767e-001 4.966620e-001 6.217669e-001
<GCONST> 1.343431e+002
<MIXTURE> 5 9.571925e-002
<MEAN> 39
 2.285642e+000 -8.692389e+000 -4.674207e+000 -1.144099e+001 -6.468374e+000 7.691884e+000 -8.783492e+000 4.374609e-001 1.811702e+000 1.794468e+000 2.482668e+000 -8.956845e+000 7.429360e+001 1.802767e-002 -9.441628e-001 -2.245976e-001 -4.695469e-002 1.084703e+000 8.259431e-001 -3.526203e-002 1.151687e+000 9.869394e-001 4.492339e-001 -3.226208e-001 -8.559262e-001 1.060556e+000 -1.179216e-001 6.924146e-001 5.612348e-001 7.490134e-001 2.617439e-001 -4.989282e-001 3.609013e-001 -1.341662e-001 -7.660051e-002 1.947691e-001 -1.305330e-001 6.169599e-001 -4.069517e-001
<VARIANCE> 39
 2.381953e+001 4.376361e+001 4.280978e+001 7.682127e+001 5.419469e+001 7.603627e+001 6.600248e+001 5.753677e+001 5.760801e+001 6.199981e+001 6.869253e+001 3.795575e+001 4.451770e+001 5.661552e-001 1.332376e+000 1.761324e+000 2.483133e+000 2.188445e+000 3.041098e+000 2.750879e+000 2.953646e+000 3.168041e+000 2.498285e+000 2.569846e+000 2.102802e+000 7.384928e-001 1.457674e-001 2.419603e-001 3.267058e-001 5.130144e-001 4.861808e-001 5.176358e-001 4.945207e-001 5.717829e-001 5.797717e-001 5.339151e-001 4.606152e-001 4.601099e-001 1.498902e-001
<GCONST> 1.193745e+002
<MIXTURE> 6 6.592455e-002
<MEAN> 39
 -1.560949e+000 -1.049638e+001 -3.734550e+000 -1.244513e+001 -7.209620e+000 -6.866208e+000 -5.197716e+000 7.079504e+000 -3.586989e+000 -3.569408e+000 -1.325386e+001 4.442212e-001 7.901224e+001 1.096001e+000 -1.643420e+000 -7.965583e-001 -6.547799e-001 1.082410e+000 1.201068e+000 2.151251e-002 1.219579e+000 -7.074448e-001 1.156001e-001 -1.481803e+000 2.679931e-001 1.057979e+000 -4.197119e-001 1.164517e+000 6.008779e-001 1.059533e+000 6.156235e-001 4.130074e-001 5.411035e-001 -6.438481e-001 5.508705e-001 5.354484e-001 1.200440e+000 4.646753e-002 -8.125127e-001
<VARIANCE> 39
 1.030094e+001 3.865032e+001 3.387589e+001 3.340932e+001 5.650816e+001 4.582834e+001 5.655524e+001 4.084549e+001 5.059946e+001 3.823396e+001 2.989206e+001 3.521988e+001 2.345985e+001 1.439122e+000 2.052894e+000 2.571640e+000 3.194925e+000 4.145620e+000 3.495677e+000 3.614700e+000 3.377330e+000 3.984138e+000 3.326038e+000 3.593451e+000 3.184494e+000 9.637883e-001 4.800961e-001 5.199190e-001 4.557112e-001 5.769851e-001 8.674144e-001 8.403502e-001 8.063821e-001 7.020366e-001 8.059340e-001 6.898623e-001 8.106412e-001 5.228147e-001 3.698834e-001
<GCONST> 1.252828e+002
<MIXTURE> 7 4.557801e-002
<MEAN> 39
 -2.151981e+000 -9.899576e+000 -6.330695e+000 -1.143352e+001 8.449180e-001 3.700856e-001 -4.532480e+000 7.749031e-001 -1.223618e+000 -2.535193e-001 -8.345595e+000 -2.012392e+000 7.520707e+001 2.707288e+000 -2.343955e+000 -9.952525e-001 -2.723302e+000 -1.128566e-001 3.038299e-001 -1.646423e+000 2.512342e-002 -1.604154e+000 -4.567007e-001 -2.856439e+000 -1.213994e+000 4.955538e+000 -3.287057e-001 1.152181e+000 6.330664e-001 1.021072e+000 9.277256e-002 2.301186e-001 7.818853e-001 4.515422e-001 6.547555e-001 3.567799e-001 9.172375e-001 4.174594e-001 -1.031860e+000
<VARIANCE> 39
 1.632428e+001 5.227172e+001 3.063617e+001 4.574640e+001 5.899559e+001 8.542109e+001 5.745777e+001 4.748567e+001 5.103373e+001 4.537610e+001 4.043763e+001 4.762036e+001 5.738885e+001 2.375785e+000 4.910109e+000 3.524620e+000 4.569355e+000 5.525808e+000 6.396360e+000 4.732250e+000 5.438924e+000 5.497823e+000 4.764678e+000 4.696000e+000 3.899105e+000 6.141576e+000 4.870547e-001 1.056435e+000 5.311612e-001 8.051358e-001 1.006444e+000 1.008975e+000 7.955038e-001 7.756298e-001 9.394891e-001 8.078790e-001 7.691960e-001 6.775935e-001 1.147664e+000
<GCONST> 1.387345e+002
<MIXTURE> 8 2.977509e-002
<MEAN> 39
 -1.344066e+001 1.207767e+000 -6.503283e+000 2.214525e+000 -3.678448e+000 3.940886e+000 -2.958413e+000 1.707412e+000 2.069978e+000 1.297471e+000 7.812191e-002 -1.590740e+000 4.460551e+001 6.906025e-001 -2.671338e-001 -8.902638e-002 -2.585713e-001 5.653983e-001 9.328126e-001 8.722384e-002 1.485279e-001 1.331806e-001 3.644772e-001 1.666008e-001 -3.160035e-001 1.130967e+000 3.326548e-001 -1.821079e-001 1.091282e-001 -1.917237e-001 6.586625e-002 1.424921e-001 -2.237918e-002 1.440630e-001 1.543207e-001 1.345267e-001 6.712426e-002 -3.052508e-002 7.027566e-001
<VARIANCE> 39
 8.587516e+001 1.861571e+001 2.191058e+001 3.725702e+001 3.423765e+001 3.029477e+001 2.752921e+001 2.050461e+001 2.550503e+001 2.988587e+001 2.637795e+001 2.749097e+001 1.971154e+002 1.834627e+000 2.682726e+000 1.588272e+000 2.943339e+000 2.266041e+000 2.781197e+000 2.493466e+000 2.094318e+000 2.570771e+000 2.356799e+000 2.179648e+000 2.781611e+000 3.772846e+000 2.370699e-001 3.036573e-001 2.128387e-001 4.266514e-001 3.229149e-001 3.454691e-001 4.031604e-001 3.430950e-001 4.021460e-001 3.742377e-001 3.531381e-001 4.144496e-001 5.545372e-001
<GCONST> 1.155000e+002
<MIXTURE> 9 9.571925e-002
<MEAN> 39
 3.334319e-001 -1.133855e+001 -7.291375e+000 -1.494689e+001 -9.413055e+000 4.203932e+000 -1.203317e+001 -2.596659e+000 -1.224295e+000 -1.355131e+000 -8.325697e-001 -1.142117e+001 7.162473e+001 -2.829455e-001 -1.405877e+000 -7.554572e-001 -6.772731e-001 4.929676e-001 1.283933e-001 -6.986930e-001 4.642399e-001 2.749797e-001 -1.830047e-001 -9.638504e-001 -1.435968e+000 7.168136e-001 -2.706396e-001 4.956568e-001 3.326021e-001 4.625133e-001 -1.716274e-002 -7.867159e-001 7.961266e-002 -4.366315e-001 -3.811715e-001 -9.750891e-002 -4.020076e-001 3.456343e-001 -5.618143e-001
<VARIANCE> 39
 2.381953e+001 4.376361e+001 4.280978e+001 7.682127e+001 5.419469e+001 7.603627e+001 6.600248e+001 5.753677e+001 5.760801e+001 6.199981e+001 6.869253e+001 3.795575e+001 4.451770e+001 5.661552e-001 1.332376e+000 1.761324e+000 2.483133e+000 2.188445e+000 3.041098e+000 2.750879e+000 2.953646e+000 3.168041e+000 2.498285e+000 2.569846e+000 2.102802e+000 7.384928e-001 1.457674e-001 2.419603e-001 3.267058e-001 5.130144e-001 4.861808e-001 5.176358e-001 4.945207e-001 5.717829e-001 5.797717e-001 5.339151e-001 4.606152e-001 4.601099e-001 1.498902e-001
<GCONST> 1.193745e+002
<MIXTURE> 10 8.284465e-002
<MEAN> 39
 -5.710857e-001 -1.009188e+001 -7.350967e+000 -1.739053e+001 -1.510622e+000 -4.009192e+000 -9.735430e+000 -9.003256e-001 -2.484382e+000 1.654557e+000 -1.197566e+001 -6.558937e+000 7.518789e+001 -1.660867e-001 -1.280014e+000 -8.535733e-001 -1.071889e+000 6.922263e-001 -8.991122e-002 -3.977167e-002 1.381837e-001 -3.666428e-001 -3.068454e-001 -1.360900e+000 -3.260007e-001 5.562121e-001 -4.565490e-001 6.572752e-001 3.831732e-001 8.231134e-001 -4.207787e-001 -3.826257e-001 1.242243e-001 -6.166431e-001 -1.256995e-001 -5.496225e-001 5.981554e-001 9.312212e-002 -7.894160e-001
<VARIANCE> 39
 1.294057e+001 3.093272e+001 3.997155e+001 5.840751e+001 3.889614e+001 7.626187e+001 6.715039e+001 5.845527e+001 4.718863e+001 6.853214e+001 3.629617e+001 2.851273e+001 2.477782e+001 8.124503e-001 1.609733e+000 1.851253e+000 2.652132e+000 2.406993e+000 3.360850e+000 2.971772e+000 3.069350e+000 2.811335e+000 3.068877e+000 2.401467e+000 2.132464e+000 7.704759e-001 3.146393e-001 3.154268e-001 4.361916e-001 5.902889e-001 4.697029e-001 7.014001e-001 6.285617e-001 7.340826e-001 7.296986e-001 7.291628e-001 4.521554e-001 3.998468e-001 1.948311e-001
<GCONST> 1.200893e+002
<MIXTURE> 11 7.765240e-002
<MEAN> 39
 -6.538404e-001 -7.800656e+000 -6.498676e+000 -1.229147e+001 -6.260752e+000 -3.967124e+000 -7.731179e+000 -3.881411e+000 -1.053222e-001 1.856612e+000 -3.873231e+000 -9.457808e+000 7.035449e+001 2.638982e+000 -2.562098e+000 -9.126990e-001 -2.873554e+000 -1.676226e+000 5.128661e-001 -1.877783e+000 -4.781295e-001 -6.591319e-001 -1.555498e-002 -7.614380e-001 -2.598940e+000 2.172117e+000 -9.931424e-001 4.638314e-002 1.093455e-001 4.576752e-001 1.587046e-001 -1.251919e-001 1.781633e-001 1.827228e-001 -7.510617e-002 -2.600833e-001 7.060671e-002 4.452479e-001 -9.537554e-001
<VARIANCE> 39
 1.998932e+001 3.381392e+001 3.734376e+001 6.630866e+001 5.234711e+001 9.816373e+001 7.179691e+001 5.140634e+001 4.537425e+001 4.586126e+001 5.306532e+001 2.790762e+001 5.826249e+001 2.457580e+000 3.520621e+000 3.939734e+000 4.036506e+000 5.049319e+000 6.251823e+000 5.230415e+000 4.946856e+000 4.592083e+000 4.499752e+000 4.652209e+000 4.037306e+000 2.562601e+000 4.293396e-001 5.457055e-001 5.642743e-001 7.171086e-001 6.506738e-001 9.495543e-001 7.309741e-001 6.483518e-001 6.939366e-001 6.157798e-001 7.037767e-001 4.966620e-001 6.217669e-001
<GCONST> 1.343431e+002
<MIXTURE> 12 6.592455e-002
<MEAN> 39
 -2.844752e+000 -1.298316e+001 -6.062670e+000 -1.475717e+001 -1.021650e+001 -9.574073e+000 -8.205845e+000 4.523085e+000 -6.432321e+000 -6.042753e+000 -1.544080e+001 -1.929632e+000 7.707483e+001 6.161478e-001 -2.216537e+000 -1.438012e+000 -1.369754e+000 2.679785e-001 4.531984e-001 -7.389821e-001 4.844789e-001 -1.505857e+000 -6.138971e-001 -2.240059e+000 -4.458129e-001 6.652877e-001 -6.968678e-001 8.760952e-001 3.308523e-001 7.556945e-001 2.430832e-001 4.632497e-002 1.819083e-001 -9.789985e-001 1.917752e-001 2.032166e-001 8.402978e-001 -2.427562e-001 -1.055785e+000
<VARIANCE> 39
 1.030094e+001 3.865032e+001 3.387589e+001 3.340932e+001 5.650816e+001 4.582834e+001 5.655524e+001 4.084549e+001 5.059946e+001 3.823396e+001 2.989206e+001 3.521988e+001 2.345985e+001 1.439122e+000 2.052894e+000 2.571640e+000 3.194925e+000 4.145620e+000 3.495677e+000 3.614700e+000 3.377330e+000 3.984138e+000 3.326038e+000 3.593451e+000 3.184494e+000 9.637883e-001 4.800961e-001 5.199190e-001 4.557112e-001 5.769851e-001 8.674144e-001 8.403502e-001 8.063821e-001 7.020366e-001 8.059340e-001 6.898623e-001 8.106412e-001 5.228147e-001 3.698834e-001
<GCONST> 1.252828e+002
<MIXTURE> 13 6.392795e-002
<MEAN> 39
 1.009097e+000 -1.211936e+001 -2.679286e+000 -8.621118e+000 -1.064924e+001 -3.017632e+000 -1.279730e+001 9.348060e-001 4.504260e+000 1.404783e+000 -2.515765e+000 -1.182883e+001 7.523306e+001 1.087500e+000 -2.209945e+000 -6.690913e-001 -1.358971e+000 -9.434980e-001 1.242485e+000 -1.116764e+000 4.970419e-001 -2.193085e-001 -3.471884e-001 -9.535076e-002 -1.756573e+000 6.352381e-001 -1.039219e+000 8.714918e-001 -3.520532e-003 4.482834e-001 5.973908e-001 -4.027390e-001 6.598795e-001 -5.588521e-001 -6.634706e-001 -2.443146e-001 -3.927505e-002 7.878827e-001 -9.335753e-001
<VARIANCE> 39
 1.471244e+001 3.716609e+001 2.841991e+001 4.196107e+001 3.652096e+001 5.457401e+001 4.773123e+001 5.059420e+001 3.866426e+001 4.778307e+001 4.107236e+001 2.337818e+001 4.366485e+001 1.372737e+000 1.940935e+000 2.019802e+000 1.973792e+000 2.948091e+000 3.298978e+000 2.979358e+000 3.458920e+000 2.646660e+000 2.869609e+000 2.620869e+000 2.373500e+000 9.219182e-001 3.522882e-001 4.660462e-001 4.191943e-001 4.099175e-001 5.491279e-001 6.259155e-001 6.177636e-001 7.226068e-001 6.148521e-001 6.150206e-001 5.573321e-001 4.631051e-001 2.349587e-001
<GCONST> 1.201440e+002
<MIXTURE> 14 4.557801e-002
<MEAN> 39
 -3.768113e+000 -1.279154e+001 -8.544693e+000 -1.413896e+001 -2.227426e+000 -3.326856e+000 -7.564516e+000 -1.981491e+000 -4.081134e+000 -2.947991e+000 -1.088922e+001 -4.772692e+000 7.217686e+001 2.090744e+000 -3.230305e+000 -1.746211e+000 -3.578344e+000 -1.053138e+000 -7.078111e-001 -2.516573e+000 -9.077366e-001 -2.542052e+000 -1.329826e+000 -3.723249e+000 -2.003840e+000 3.964250e+000 -6.078629e-001 7.410486e-001 3.415432e-001 6.621544e-001 -3.085142e-001 -1.716724e-001 4.251212e-001 9.926279e-002 2.670465e-001 -2.748469e-003 5.664222e-001 8.819515e-002 -1.460376e+000
<VARIANCE> 39
 1.632428e+001 5.227172e+001 3.063617e+001 4.574640e+001 5.899559e+001 8.542109e+001 5.745777e+001 4.748567e+001 5.103373e+001 4.537610e+001 4.043763e+001 4.762036e+001 5.738885e+001 2.375785e+000 4.910109e+000 3.524620e+000 4.569355e+000 5.525808e+000 6.396360e+000 4.732250e+000 5.438924e+000 5.497823e+000 4.764678e+000 4.696000e+000 3.899105e+000 6.141576e+000 4.870547e-001 1.056435e+000 5.311612e-001 8.051358e-001 1.006444e+000 1.008975e+000 7.955038e-001 7.756298e-001 9.394891e-001 8.078790e-001 7.691960e-001 6.775935e-001 1.147664e+000
<GCONST> 1.387345e+002
<MIXTURE> 15 3.855427e-002
<MEAN> 39
 -1.076077e+001 -9.147299e+000 -4.944513e+000 -1.113609e+001 -3.710169e+000 -2.396185e+000 -4.394145e+000 2.107193e-001 1.384722e-001 4.534128e-001 -3.621613e+000 -5.286443e+000 5.671807e+001 -3.208845e-001 -6.983579e-001 -9.878709e-001 -3.226723e-001 3.257912e-001 1.651498e-001 -2.174090e-001 -6.531772e-001 -5.724306e-001 -3.733869e-001 -6.968505e-001 -7.011294e-001 -3.101552e-001 1.183319e-001 -3.483079e-001 5.584752e-002 -3.269139e-001 -3.601106e-001 -1.001226e-001 -4.408476e-001 -2.668048e-001 -5.071894e-001 -2.717046e-001 -1.295203e-001 -2.373333e-001 2.035133e-001
<VARIANCE> 39
 7.364373e+001 9.619378e+001 1.128418e+002 1.161827e+002 1.282879e+002 1.422493e+002 9.516000e+001 9.342148e+001 9.329704e+001 7.237357e+001 6.979460e+001 6.320299e+001 1.485784e+002 2.707875e+000 4.197389e+000 3.969279e+000 4.106363e+000 5.200569e+000 5.894901e+000 4.383784e+000 4.588773e+000 4.965899e+000 3.958821e+000 3.700484e+000 3.443878e+000 5.050244e+000 4.117437e-001 8.339210e-001 6.740506e-001 8.305384e-001 9.223253e-001 9.743662e-001 8.277946e-001 8.426459e-001 9.954163e-001 8.203683e-001 7.495753e-001 7.523676e-001 8.942858e-001
<GCONST> 1.469251e+002
<MIXTURE> 16 2.977509e-002
<MEAN> 39
 -1.714742e+001 -5.180695e-001 -8.375632e+000 -2.270159e-001 -6.018966e+000 1.739258e+000 -5.057145e+000 -1.038687e-001 4.987797e-002 -8.892480e-001 -1.976257e+000 -3.688014e+000 3.898959e+001 1.488089e-001 -9.222950e-001 -5.931330e-001 -9.448178e-001 -3.673670e-002 2.657358e-001 -5.444046e-001 -4.303425e-001 -5.081643e-001 -2.495975e-001 -4.239444e-001 -9.831300e-001 3.540141e-001 1.378955e-001 -4.025283e-001 -7.540957e-002 -4.529979e-001 -1.614362e-001 -9.261434e-002 -2.763588e-001 -9.023426e-002 -9.933919e-002 -1.101732e-001 -1.705774e-001 -2.880361e-001 4.048876e-001
<VARIANCE> 39
 8.587516e+001 1.861571e+001 2.191058e+001 3.725702e+001 3.423765e+001 3.029477e+001 2.752921e+001 2.050461e+001 2.550503e+001 2.988587e+001 2.637795e+001 2.749097e+001 1.971154e+002 1.834627e+000 2.682726e+000 1.588272e+000 2.943339e+000 2.266041e+000 2.781197e+000 2.493466e+000 2.094318e+000 2.570771e+000 2.356799e+000 2.179648e+000 2.781611e+000 3.772846e+000 2.370699e-001 3.036573e-001 2.128387e-001 4.266514e-001 3.229149e-001 3.454691e-001 4.031604e-001 3.430950e-001 4.021460e-001 3.742377e-001 3.531381e-001 4.144496e-001 5.545372e-001
<GCONST> 1.155000e+002
<STATE> 3
<NUMMIXES> 16
<MIXTURE> 1 4.577502e-002
<MEAN> 39
 3.738260e+000 -1.013891e+001 -2.362329e+000 -6.689983e+000 -6.742897e+000 3.834908e+000 -6.170233e+000 6.392705e-001 5.158025e+000 4.163340e+000 6.255932e-001 -8.904353e+000 7.693035e+001 2.403544e-001 1.468896e+000 3.691632e-001 6.374428e-001 1.328820e+000 1.778615e-001 7.907213e-001 1.954999e-001 -2.048076e-001 6.238565e-001 5.304672e-001 6.772040e-001 -5.360962e-001 -8.815993e-001 1.538791e+000 4.719712e-001 9.077873e-001 9.169793e-001 -4.161679e-001 8.511625e-001 7.092742e-002 -1.662603e-002 1.766417e-001 1.789897e-001 1.022639e+000 -9.183341e-001
<VARIANCE> 39
 1.516177e+001 3.418954e+001 3.261061e+001 4.996835e+001 5.821405e+001 8.270537e+001 6.324183e+001 5.942659e+001 4.827583e+001 7.310941e+001 5.270945e+001 2.974647e+001 5.636393e+001 1.297065e+000 2.493072e+000 2.179054e+000 2.490274e+000 3.847959e+000 3.814880e+000 3.496410e+000 3.865478e+000 3.054494e+000 2.885038e+000 3.231485e+000 2.149594e+000 1.429478e+000 4.818214e-001 4.322262e-001 4.242717e-001 6.267481e-001 6.866697e-001 7.915076e-001 9.095779e-001 8.554300e-001 8.482996e-001 9.063573e-001 6.537153e-001 5.469791e-001 4.172120e-001
<GCONST> 1.283005e+002
<MIXTURE> 2 6.734295e-002
<MEAN> 39
 3.281847e+000 -9.256848e+000 -3.658329e+000 -7.537952e+000 -5.613423e+000 4.685512e+000 -1.006262e+001 4.002043e+000 3.813470e+000 3.333384e+000 -3.369598e-001 -1.043303e+001 7.634843e+001 3.010067e-001 6.086349e-001 7.756174e-002 1.577311e-001 6.203396e-001 6.366051e-001 5.216906e-001 -2.343583e-001 -1.754070e-001 5.303653e-001 6.280036e-001 3.662140e-001 -3.126134e-001 -1.407386e-001 8.380675e-001 4.282694e-001 5.527028e-001 1.671302e-001 -3.714920e-001 4.260135e-001 -4.001825e-001 -7.334743e-002 1.566107e-001 2.552057e-001 7.048463e-001 -4.677817e-001
<VARIANCE> 39
 1.434824e+001 3.243312e+001 2.735882e+001 6.445389e+001 3.817684e+001 5.436303e+001 5.175586e+001 3.719113e+001 3.983654e+001 4.506456e+001 4.793777e+001 2.368216e+001 4.458693e+001 3.438120e-001 9.146582e-001 1.209236e+000 1.429388e+000 1.901951e+000 2.434759e+000 1.901576e+000 2.058030e+000 1.777493e+000 1.770871e+000 2.061237e+000 1.395743e+000 3.334645e-001 1.040154e-001 1.968945e-001 1.944034e-001 2.899606e-001 3.395315e-001 3.242534e-001 3.557590e-001 3.831766e-001 3.943907e-001 3.359770e-001 3.435693e-001 2.754128e-001 1.041283e-001
<GCONST> 1.046088e+002
<MIXTURE> 3 6.802565e-002
<MEAN> 39
 -2.154836e-001 -8.722775e+000 -6.759576e+000 -1.448497e+001 4.098246e+000 -4.426676e+000 2.894807e+000 -4.925360e+000 4.082938e+000 4.378722e-001 -5.463943e+000 -6.899931e+000 7.827572e+001 2.199865e-001 5.328544e-001 2.354682e-001 4.944537e-001 4.302969e-001 2.397500e-001 4.238917e-001 1.286833e-001 3.660155e-001 1.585606e-001 3.798943e-001 1.987073e-001 9.281923e-003 2.997902e-002 7.145783e-001 5.964147e-001 7.765510e-001 -4.103274e-001 2.849618e-001 -3.270747e-001 4.221572e-001 -1.203866e-001 2.401062e-001 4.850772e-001 4.127925e-001 -5.567733e-001
<VARIANCE> 39
 1.166888e+001 2.260744e+001 2.397508e+001 4.410465e+001 2.786207e+001 1.178625e+002 5.743712e+001 4.178596e+001 3.469612e+001 5.426836e+001 4.653312e+001 3.979934e+001 3.089579e+001 5.817787e-001 1.369059e+000 1.319243e+000 1.784371e+000 2.180634e+000 2.626760e+000 2.371359e+000 2.420293e+000 2.083717e+000 2.139705e+000 2.121222e+000 1.533050e+000 8.644223e-001 1.742342e-001 2.523474e-001 2.986451e-001 3.807001e-001 3.214378e-001 4.414864e-001 3.736241e-001 3.836581e-001 4.193628e-001 3.921840e-001 3.727008e-001 3.669819e-001 2.159387e-001
<GCONST> 1.107201e+002
<MIXTURE> 4 6.188715e-002
<MEAN> 39
 -4.421686e-002 -9.415113e+000 -5.221032e+000 -1.424569e+001 -1.236662e+000 -3.156901e+000 -6.429370e+000 3.076152e+000 -3.114563e+000 1.677167e+000 -1.411428e+001 -8.346690e-001 7.795832e+001 4.741724e-001 2.364985e+000 8.668905e-001 1.452275e+000 4.060341e-001 -2.110764e-001 6.015722e-001 -4.658651e-001 8.752555e-001 2.922810e-001 1.003330e+000 2.755108e-001 -1.214454e+000 -3.903455e-001 1.278853e+000 6.739380e-001 1.360990e+000 2.502544e-001 2.551341e-001 7.694471e-001 -5.890872e-002 7.898862e-001 -2.656963e-002 1.399964e+000 7.255431e-002 -1.057545e+000
<VARIANCE> 39
 1.032444e+001 3.814643e+001 3.556005e+001 4.305929e+001 5.711323e+001 6.090359e+001 5.615381e+001 4.930309e+001 4.693395e+001 6.702586e+001 3.016646e+001 3.723068e+001 2.497104e+001 1.085989e+000 2.188217e+000 2.159282e+000 2.581499e+000 3.383230e+000 3.305234e+000 3.458959e+000 3.216425e+000 3.554579e+000 3.626992e+000 3.021751e+000 2.374089e+000 1.555518e+000 4.028295e-001 4.726658e-001 4.365236e-001 5.406154e-001 6.969898e-001 7.028955e-001 8.299632e-001 8.244674e-001 8.668356e-001 8.128246e-001 5.507864e-001 5.216460e-001 4.522527e-001
<GCONST> 1.251526e+002
<MIXTURE> 5 6.934210e-002
<MEAN> 39
 1.735566e+000 -1.087795e+001 -2.867769e+000 -1.231597e+001 -5.772484e+000 6.725270e+000 -9.416850e+000 2.399525e+000 1.191972e+000 3.895684e+000 -1.489800e+000 -8.812970e+000 7.449981e+001 7.944904e-003 1.716138e-001 1.586096e-001 2.558291e-001 5.275810e-001 2.642050e-001 2.546289e-001 2.333334e-001 2.435273e-001 2.963877e-001 -2.278078e-002 1.930186e-001 6.562029e-002 4.069847e-002 4.390521e-001 2.605405e-001 3.451490e-001 -6.185397e-002 -1.927754e-001 9.025459e-002 -1.058453e-001 8.773154e-002 1.285200e-002 2.814878e-001 3.588641e-001 -2.116809e-001
<VARIANCE> 39
 2.783352e+001 5.610192e+001 4.227605e+001 8.426111e+001 4.987798e+001 6.461496e+001 5.917076e+001 5.314231e+001 5.660210e+001 5.291705e+001 7.793591e+001 3.497541e+001 6.852611e+001 2.317461e-001 7.138183e-001 8.092492e-001 1.144720e+000 1.315451e+000 1.762702e+000 1.466360e+000 1.659188e+000 1.420778e+000 1.368855e+000 1.484004e+000 1.236274e+000 2.528311e-001 3.812953e-002 1.253890e-001 1.275416e-001 1.913048e-001 2.006853e-001 2.255233e-001 2.356295e-001 2.599916e-001 2.872180e-001 2.237538e-001 2.460544e-001 2.081399e-001 5.226479e-002
<GCONST> 9.962196e+001
<MIXTURE> 6 7.508375e-002
<MEAN> 39
 -1.085557e+000 -1.232263e+001 -5.464239e+000 -1.196262e+001 -3.245964e+000 -2.578967e+000 -7.622153e+000 6.244605e+000 -5.934008e+000 -4.671463e+000 -1.389592e+001 -1.762260e-001 7.902436e+001 3.018070e-001 7.169603e-001 3.775930e-001 4.335757e-001 3.987457e-001 1.689048e-001 3.721609e-001 -2.143364e-001 4.072247e-001 4.477032e-001 3.582920e-001 2.432126e-001 -2.433828e-001 1.130382e-001 1.100983e+000 6.394076e-001 4.931300e-001 -1.543235e-001 -3.040830e-001 2.497890e-001 -5.258917e-001 5.730699e-001 4.837226e-001 7.571177e-001 -1.450142e-001 -6.272959e-001
<VARIANCE> 39
 8.311944e+000 3.558673e+001 2.898726e+001 3.982127e+001 5.716528e+001 3.668301e+001 4.545829e+001 3.677924e+001 4.338869e+001 3.820200e+001 2.629030e+001 3.554949e+001 2.215786e+001 5.685797e-001 1.332366e+000 2.113140e+000 1.323390e+000 2.926861e+000 2.839793e+000 2.800577e+000 2.551693e+000 2.751889e+000 2.920195e+000 2.045992e+000 2.363656e+000 4.766027e-001 1.319056e-001 2.326105e-001 2.609983e-001 3.429590e-001 4.552269e-001 4.390740e-001 4.514857e-001 4.959613e-001 5.605726e-001 5.161250e-001 4.895176e-001 3.943576e-001 1.484126e-001
<GCONST> 1.107967e+002
<MIXTURE> 7 5.343195e-002
<MEAN> 39
 -9.401177e-001 -9.010785e+000 -1.019080e+001 -1.243269e+001 2.328952e+000 -8.803260e-001 -2.125701e+000 -4.541692e+000 1.036765e+000 -3.474798e+000 -8.008466e+000 -6.055036e+000 7.805648e+001 1.670775e-001 2.819009e-001 4.588445e-002 2.932379e-001 4.290553e-001 3.509723e-001 2.109494e-001 -2.374052e-002 3.164575e-001 1.686873e-001 2.954317e-001 1.197702e-001 -8.117502e-002 1.623464e-001 3.353115e-001 4.559214e-001 8.173230e-002 -2.364136e-001 -9.982773e-002 -5.380585e-002 2.645421e-001 8.298430e-003 3.340591e-001 2.171428e-001 1.452132e-001 -2.187766e-001
<VARIANCE> 39
 8.726656e+000 2.347554e+001 2.257455e+001 4.077228e+001 4.032052e+001 1.178153e+002 9.600525e+001 4.447959e+001 3.854390e+001 4.120294e+001 4.520799e+001 4.059056e+001 2.507431e+001 2.903289e-001 5.853581e-001 7.966352e-001 9.200361e-001 1.342534e+000 1.423725e+000 1.253738e+000 1.531984e+000 1.184998e+000 1.380267e+000 1.196473e+000 1.116125e+000 2.422519e-001 6.157823e-002 1.170030e-001 1.730509e-001 1.672682e-001 2.125630e-001 2.179026e-001 2.555143e-001 2.491491e-001 2.417360e-001 2.460520e-001 2.162851e-001 2.254497e-001 6.389814e-002
<GCONST> 9.444265e+001
<MIXTURE> 8 5.908235e-002
<MEAN> 39
 8.326397e-001 -1.233535e+001 -2.028689e+000 -1.191002e+001 -4.327347e+000 3.774268e+000 -1.246472e+001 5.760978e+000 1.317578e+000 2.832181e+000 -2.082208e+000 -1.074631e+001 7.701719e+001 1.757646e-001 7.491003e-001 1.156075e+000 1.188596e+000 8.384166e-002 -5.416632e-001 1.684133e-001 8.696576e-001 3.309784e-001 1.442550e-001 3.150195e-002 9.754719e-001 -9.204030e-002 -1.496436e-001 1.283691e+000 4.487278e-001 9.053677e-001 1.691562e-001 -3.075079e-001 9.392892e-001 -6.138054e-001 8.582926e-002 3.952497e-002 3.971414e-001 1.015901e+000 -9.079080e-001
<VARIANCE> 39
 2.122324e+001 5.626419e+001 6.141968e+001 6.771920e+001 3.906404e+001 7.289555e+001 4.745952e+001 4.964041e+001 6.189988e+001 5.334613e+001 6.071815e+001 3.083178e+001 2.568825e+001 8.433702e-001 2.188423e+000 2.393165e+000 2.818277e+000 3.268498e+000 4.637368e+000 3.435495e+000 4.420883e+000 3.608784e+000 3.271604e+000 3.916664e+000 2.897840e+000 1.476987e+000 2.452257e-001 3.410595e-001 5.272569e-001 5.540994e-001 5.987917e-001 7.369113e-001 5.459259e-001 6.752978e-001 9.409034e-001 6.402630e-001 6.272784e-001 5.264774e-001 3.004408e-001
<GCONST> 1.266010e+002
<MIXTURE> 9 7.508375e-002
<MEAN> 39
 -2.238775e+000 -1.470881e+001 -7.617832e+000 -1.448678e+001 -6.270273e+000 -5.001627e+000 -1.031906e+001 3.818769e+000 -8.568811e+000 -7.143774e+000 -1.594688e+001 -2.561162e+000 7.714147e+001 1.901627e-004 2.552477e-001 -2.038727e-001 -2.657907e-002 -2.855772e-001 -5.051626e-001 -2.972361e-001 -8.532972e-001 -2.563280e-001 -2.358400e-001 -2.138607e-001 -3.717549e-001 -5.195284e-001 -3.223703e-002 9.080645e-001 4.350556e-001 2.588792e-001 -4.242055e-001 -5.691336e-001 -1.898177e-002 -8.075898e-001 2.735843e-001 1.963552e-001 4.772555e-001 -3.962058e-001 -7.813933e-001
<VARIANCE> 39
 8.311944e+000 3.558673e+001 2.898726e+001 3.982127e+001 5.716528e+001 3.668301e+001 4.545829e+001 3.677924e+001 4.338869e+001 3.820200e+001 2.629030e+001 3.554949e+001 2.215786e+001 5.685797e-001 1.332366e+000 2.113140e+000 1.323390e+000 2.926861e+000 2.839793e+000 2.800577e+000 2.551693e+000 2.751889e+000 2.920195e+000 2.045992e+000 2.363656e+000 4.766027e-001 1.319056e-001 2.326105e-001 2.609983e-001 3.429590e-001 4.552269e-001 4.390740e-001 4.514857e-001 4.959613e-001 5.605726e-001 5.161250e-001 4.895176e-001 3.943576e-001 1.484126e-001
<GCONST> 1.107967e+002
<MIXTURE> 10 6.934210e-002
<MEAN> 39
 -3.747337e-001 -1.387399e+001 -5.468571e+000 -1.598773e+001 -8.597458e+000 3.509933e+000 -1.249375e+001 -5.164257e-001 -1.817403e+000 9.859200e-001 -5.021053e+000 -1.117857e+001 7.118859e+001 -1.846152e-001 -1.663373e-001 -2.012235e-001 -1.721372e-001 6.880857e-002 -2.668621e-001 -2.297445e-001 -2.819045e-001 -2.332582e-001 -1.716046e-001 -5.100596e-001 -2.517328e-001 -1.355090e-001 -3.740867e-002 2.974109e-001 1.176887e-001 1.701954e-001 -2.410456e-001 -3.827326e-001 -1.039121e-001 -3.098027e-001 -1.266394e-001 -1.763585e-001 8.307235e-002 1.763747e-001 -3.031269e-001
<VARIANCE> 39
 2.783352e+001 5.610192e+001 4.227605e+001 8.426111e+001 4.987798e+001 6.461496e+001 5.917076e+001 5.314231e+001 5.660210e+001 5.291705e+001 7.793591e+001 3.497541e+001 6.852611e+001 2.317461e-001 7.138183e-001 8.092492e-001 1.144720e+000 1.315451e+000 1.762702e+000 1.466360e+000 1.659188e+000 1.420778e+000 1.368855e+000 1.484004e+000 1.236274e+000 2.528311e-001 3.812953e-002 1.253890e-001 1.275416e-001 1.913048e-001 2.006853e-001 2.255233e-001 2.356295e-001 2.599916e-001 2.872180e-001 2.237538e-001 2.460544e-001 2.081399e-001 5.226479e-002
<GCONST> 9.962196e+001
<MIXTURE> 11 6.802565e-002
<MEAN> 39
 -1.581873e+000 -1.062467e+001 -8.718150e+000 -1.714143e+001 1.986864e+000 -8.769257e+000 -1.366846e-001 -7.511043e+000 1.726802e+000 -2.508810e+000 -8.192551e+000 -9.423400e+000 7.605236e+001 -8.511122e-002 6.482720e-002 -2.239650e-001 -3.986770e-002 -1.603819e-001 -4.085413e-001 -1.920771e-001 -4.936083e-001 -2.113879e-001 -4.265486e-001 -2.026823e-001 -2.965583e-001 -3.626153e-001 -1.369865e-001 5.136415e-001 3.778210e-001 5.297474e-001 -6.371094e-001 1.918402e-002 -5.715739e-001 1.743966e-001 -3.794196e-001 -1.039219e-002 2.408803e-001 1.704763e-001 -7.426502e-001
<VARIANCE> 39
 1.166888e+001 2.260744e+001 2.397508e+001 4.410465e+001 2.786207e+001 1.178625e+002 5.743712e+001 4.178596e+001 3.469612e+001 5.426836e+001 4.653312e+001 3.979934e+001 3.089579e+001 5.817787e-001 1.369059e+000 1.319243e+000 1.784371e+000 2.180634e+000 2.626760e+000 2.371359e+000 2.420293e+000 2.083717e+000 2.139705e+000 2.121222e+000 1.533050e+000 8.644223e-001 1.742342e-001 2.523474e-001 2.986451e-001 3.807001e-001 3.214378e-001 4.414864e-001 3.736241e-001 3.836581e-001 4.193628e-001 3.921840e-001 3.727008e-001 3.669819e-001 2.159387e-001
<GCONST> 1.107201e+002
<MIXTURE> 12 6.734295e-002
<MEAN> 39
 1.766684e+000 -1.153485e+001 -5.750555e+000 -1.074928e+001 -8.084919e+000 1.736260e+000 -1.294028e+001 1.562661e+000 1.288822e+000 6.481781e-001 -3.106444e+000 -1.237961e+001 7.367749e+001 6.646473e-002 2.260839e-001 -3.622993e-001 -3.204969e-001 6.869464e-002 1.245653e-002 -2.989999e-002 -8.081917e-001 -7.086976e-001 -1.930960e-003 5.372322e-002 -1.063522e-001 -5.435989e-001 -2.697442e-001 6.605763e-001 2.519046e-001 3.373108e-001 -6.594715e-002 -5.992650e-001 1.874313e-001 -6.477876e-001 -3.245496e-001 -7.524341e-002 2.074652e-002 4.949272e-001 -5.968573e-001
<VARIANCE> 39
 1.434824e+001 3.243312e+001 2.735882e+001 6.445389e+001 3.817684e+001 5.436303e+001 5.175586e+001 3.719113e+001 3.983654e+001 4.506456e+001 4.793777e+001 2.368216e+001 4.458693e+001 3.438120e-001 9.146582e-001 1.209236e+000 1.429388e+000 1.901951e+000 2.434759e+000 1.901576e+000 2.058030e+000 1.777493e+000 1.770871e+000 2.061237e+000 1.395743e+000 3.334645e-001 1.040154e-001 1.968945e-001 1.944034e-001 2.899606e-001 3.395315e-001 3.242534e-001 3.557590e-001 3.831766e-001 3.943907e-001 3.359770e-001 3.435693e-001 2.754128e-001 1.041283e-001
<GCONST> 1.046088e+002
<MIXTURE> 13 6.188715e-002
<MEAN> 39
 -1.329484e+000 -1.188563e+001 -7.606322e+000 -1.687047e+001 -4.259594e+000 -6.278531e+000 -9.426805e+000 2.675058e-001 -5.854897e+000 -1.597606e+000 -1.631124e+001 -3.275347e+000 7.595948e+001 5.732920e-002 1.773280e+000 2.791107e-001 8.095931e-001 -3.297082e-001 -9.382885e-001 -1.423588e-001 -1.183241e+000 1.211119e-001 -4.695056e-001 3.080021e-001 -3.408124e-001 -1.713336e+000 -6.442209e-001 1.003851e+000 4.096583e-001 1.066884e+000 -8.368924e-002 -8.022134e-002 4.050379e-001 -4.221095e-001 4.174702e-001 -3.871968e-001 1.103104e+000 -2.163460e-001 -1.326543e+000
<VARIANCE> 39
 1.032444e+001 3.814643e+001 3.556005e+001 4.305929e+001 5.711323e+001 6.090359e+001 5.615381e+001 4.930309e+001 4.693395e+001 6.702586e+001 3.016646e+001 3.723068e+001 2.497104e+001 1.085989e+000 2.188217e+000 2.159282e+000 2.581499e+000 3.383230e+000 3.305234e+000 3.458959e+000 3.216425e+000 3.554579e+000 3.626992e+000 3.021751e+000 2.374089e+000 1.555518e+000 4.028295e-001 4.726658e-001 4.365236e-001 5.406154e-001 6.969898e-001 7.028955e-001 8.299632e-001 8.244674e-001 8.668356e-001 8.128246e-001 5.507864e-001 5.216460e-001 4.522527e-001
<GCONST> 1.251526e+002
<MIXTURE> 14 5.908235e-002
<MEAN> 39
 -1.010108e+000 -1.533573e+001 -5.163517e+000 -1.520168e+001 -6.827397e+000 3.591121e-001 -1.522036e+001 2.942740e+000 -1.829481e+000 -8.935667e-002 -5.199082e+000 -1.296737e+001 7.498985e+001 -1.915761e-001 1.573675e-001 5.372803e-001 5.170872e-001 -6.393179e-001 -1.403045e+000 -5.729902e-001 2.862179e-002 -4.288936e-001 -5.792480e-001 -7.601206e-001 2.945502e-001 -5.781657e-001 -3.477246e-001 1.050089e+000 1.582780e-001 6.076163e-001 -1.403703e-001 -6.508821e-001 6.437420e-001 -9.425114e-001 -3.021714e-001 -2.805408e-001 8.033778e-002 7.256664e-001 -1.127158e+000
<VARIANCE> 39
 2.122324e+001 5.626419e+001 6.141968e+001 6.771920e+001 3.906404e+001 7.289555e+001 4.745952e+001 4.964041e+001 6.189988e+001 5.334613e+001 6.071815e+001 3.083178e+001 2.568825e+001 8.433702e-001 2.188423e+000 2.393165e+000 2.818277e+000 3.268498e+000 4.637368e+000 3.435495e+000 4.420883e+000 3.608784e+000 3.271604e+000 3.916664e+000 2.897840e+000 1.476987e+000 2.452257e-001 3.410595e-001 5.272569e-001 5.540994e-001 5.987917e-001 7.369113e-001 5.459259e-001 6.752978e-001 9.409034e-001 6.402630e-001 6.272784e-001 5.264774e-001 3.004408e-001
<GCONST> 1.266010e+002
<MIXTURE> 15 5.343195e-002
<MEAN> 39
 -2.121754e+000 -1.094885e+001 -1.209130e+001 -1.498681e+001 -2.109858e-001 -5.222036e+000 -6.044991e+000 -7.209413e+000 -1.446585e+000 -6.042379e+000 -1.069794e+001 -8.603464e+000 7.605350e+001 -4.845119e-002 -2.413390e-002 -3.111332e-001 -9.043612e-002 -3.441573e-002 -1.263075e-001 -2.369324e-001 -5.188339e-001 -1.189730e-001 -3.012517e-001 -1.421019e-001 -3.028170e-001 -2.780514e-001 6.308658e-002 1.984887e-001 2.895238e-001 -8.186144e-002 -4.208318e-001 -2.865479e-001 -2.559995e-001 6.488273e-002 -1.883682e-001 1.356446e-001 3.111698e-002 -4.471299e-002 -3.198889e-001
<VARIANCE> 39
 8.726656e+000 2.347554e+001 2.257455e+001 4.077228e+001 4.032052e+001 1.178153e+002 9.600525e+001 4.447959e+001 3.854390e+001 4.120294e+001 4.520799e+001 4.059056e+001 2.507431e+001 2.903289e-001 5.853581e-001 7.966352e-001 9.200361e-001 1.342534e+000 1.423725e+000 1.253738e+000 1.531984e+000 1.184998e+000 1.380267e+000 1.196473e+000 1.116125e+000 2.422519e-001 6.157823e-002 1.170030e-001 1.730509e-001 1.672682e-001 2.125630e-001 2.179026e-001 2.555143e-001 2.491491e-001 2.417360e-001 2.460520e-001 2.162851e-001 2.254497e-001 6.389814e-002
<GCONST> 9.444265e+001
<MIXTURE> 16 4.577502e-002
<MEAN> 39
 2.180736e+000 -1.247779e+001 -4.646557e+000 -9.517515e+000 -9.794823e+000 1.972081e-001 -9.351222e+000 -2.444275e+000 2.378793e+000 7.431781e-001 -2.278458e+000 -1.108597e+001 7.392731e+001 -2.152006e-001 8.373178e-001 -2.213015e-001 6.218772e-003 5.441710e-001 -6.034071e-001 4.277372e-002 -5.909329e-001 -9.038920e-001 -5.555947e-002 -1.885860e-001 9.074423e-002 -1.014339e+000 -1.159253e+000 1.275815e+000 2.114266e-001 5.911176e-001 5.855171e-001 -7.720348e-001 4.696753e-001 -2.990304e-001 -3.850388e-001 -2.041695e-001 -1.444210e-001 7.268068e-001 -1.176702e+000
<VARIANCE> 39
 1.516177e+001 3.418954e+001 3.261061e+001 4.996835e+001 5.821405e+001 8.270537e+001 6.324183e+001 5.942659e+001 4.827583e+001 7.310941e+001 5.270945e+001 2.974647e+001 5.636393e+001 1.297065e+000 2.493072e+000 2.179054e+000 2.490274e+000 3.847959e+000 3.814880e+000 3.496410e+000 3.865478e+000 3.054494e+000 2.885038e+000 3.231485e+000 2.149594e+000 1.429478e+000 4.818214e-001 4.322262e-001 4.242717e-001 6.267481e-001 6.866697e-001 7.915076e-001 9.095779e-001 8.554300e-001 8.482996e-001 9.063573e-001 6.537153e-001 5.469791e-001 4.172120e-001
<GCONST> 1.283005e+002
<STATE> 4
<NUMMIXES> 16
<MIXTURE> 1 4.738424e-002
<MEAN> 39
 -4.232127e-001 -1.727771e+000 -4.335391e+000 -8.046374e+000 9.844318e-001 -6.469711e+000 -1.348974e+000 -2.807229e+000 2.123611e+000 -1.685423e+000 -6.480989e+000 -3.930409e+000 7.238030e+001 -1.403782e+000 3.419901e+000 1.834295e+000 3.772688e+000 1.293677e+000 1.406608e+000 1.823488e+000 1.311821e+000 1.347806e+000 9.583761e-001 2.153320e+000 1.199222e+000 -2.978227e+000 -6.570091e-001 -1.632700e-001 2.093233e-001 3.935610e-001 1.670056e-001 8.309832e-001 5.627828e-001 8.395096e-001 3.817954e-001 5.221317e-001 6.731690e-001 4.477063e-001 -2.181789e-001
<VARIANCE> 39
 1.226244e+001 2.521901e+001 3.222850e+001 4.144970e+001 4.189251e+001 8.276865e+001 6.389183e+001 4.813837e+001 3.938086e+001 5.935545e+001 5.554682e+001 4.492841e+001 3.588119e+001 3.116500e+000 2.316021e+000 2.575661e+000 3.565367e+000 3.850136e+000 5.515957e+000 6.536261e+000 4.455066e+000 5.522672e+000 3.684254e+000 4.249224e+000 3.596453e+000 4.006636e+000 5.032167e-001 5.014396e-001 4.643266e-001 6.586640e-001 6.322302e-001 7.948040e-001 7.380221e-001 6.676865e-001 6.655815e-001 8.107615e-001 7.073712e-001 5.203777e-001 4.820480e-001
<GCONST> 1.313955e+002
<MIXTURE> 2 5.431730e-002
<MEAN> 39
 4.169627e+000 -6.001177e+000 -2.896598e+000 -6.516704e+000 -4.455120e+000 3.360196e+000 -7.848463e+000 2.976433e-001 2.878494e+000 5.000515e+000 3.464672e+000 -9.832603e+000 7.389400e+001 -6.881121e-001 3.365408e+000 7.887757e-001 2.019343e+000 2.100738e+000 -7.061862e-001 1.585341e+000 -4.311390e-001 -1.188331e-001 9.355403e-001 7.877539e-002 1.810698e+000 -2.353017e+000 -6.326903e-001 6.312640e-001 2.329098e-001 6.004974e-001 4.362070e-001 -7.723334e-002 7.410353e-001 2.005962e-001 3.723853e-001 -4.158898e-003 -1.220907e-001 6.912007e-001 -4.945331e-001
<VARIANCE> 39
 1.465988e+001 2.903314e+001 2.856286e+001 5.581413e+001 3.936895e+001 5.019387e+001 5.589858e+001 4.314219e+001 4.024726e+001 4.532397e+001 4.740347e+001 2.828523e+001 4.894895e+001 1.462175e+000 1.734487e+000 1.763922e+000 2.453019e+000 2.448074e+000 2.730589e+000 3.291782e+000 3.373649e+000 2.917671e+000 2.912012e+000 2.788195e+000 2.039336e+000 2.079423e+000 2.896271e-001 3.243441e-001 3.199395e-001 4.057332e-001 4.441724e-001 5.053245e-001 5.705301e-001 5.317791e-001 5.576736e-001 4.786737e-001 4.986159e-001 4.882501e-001 3.215620e-001
<GCONST> 1.194332e+002
<MIXTURE> 3 6.443825e-002
<MEAN> 39
 2.806101e-001 -8.146319e+000 -3.810224e+000 -8.470119e+000 -1.655692e+000 -3.736079e+000 -1.462150e+000 -1.953016e-003 4.676756e+000 -1.480288e+000 -4.873361e+000 -6.005126e+000 7.716558e+001 1.176576e-001 1.571912e+000 2.045640e+000 1.548631e+000 -6.444941e-001 -5.177428e-001 -2.858263e-002 6.918529e-001 -3.604318e-001 3.619295e-001 1.041083e+000 1.132164e+000 -9.701880e-001 -5.893449e-002 6.453508e-001 5.986370e-001 4.691432e-001 6.024076e-002 3.519436e-001 -1.918528e-002 8.852301e-003 -3.344501e-001 4.223053e-001 4.319534e-001 3.152372e-001 -4.488283e-001
<VARIANCE> 39
 1.486626e+001 2.570914e+001 3.720213e+001 5.754830e+001 6.913145e+001 1.114190e+002 7.191565e+001 7.391279e+001 5.017372e+001 7.298831e+001 5.220092e+001 3.872139e+001 3.981190e+001 7.502344e-001 1.611480e+000 2.253027e+000 2.490085e+000 3.140026e+000 4.093962e+000 3.449173e+000 3.976827e+000 3.363968e+000 3.301957e+000 2.822333e+000 2.727765e+000 1.179625e+000 1.861517e-001 2.566235e-001 3.420752e-001 4.740176e-001 5.135180e-001 6.976175e-001 5.385323e-001 7.870148e-001 5.966918e-001 6.214738e-001 4.968789e-001 4.243035e-001 2.381554e-001
<GCONST> 1.232928e+002
<MIXTURE> 4 5.435585e-002
<MEAN> 39
 9.936927e-002 -6.389659e+000 -5.301692e-001 -9.552049e+000 -5.243732e+000 -7.339716e+000 -6.368215e+000 5.918391e+000 -3.513979e+000 5.884799e-001 -1.103541e+001 3.628343e-001 7.464451e+001 -4.908298e-001 3.739675e+000 1.753974e+000 2.951630e+000 1.333999e+000 -2.191359e-001 1.645330e+000 -8.127152e-001 1.873460e+000 -2.712151e-002 2.202514e+000 3.918574e-001 -2.780537e+000 -4.500258e-001 4.773465e-001 6.636532e-002 6.101201e-001 5.984308e-001 8.326526e-001 7.538105e-001 -4.488872e-002 8.089595e-001 1.731672e-001 9.332493e-001 -1.017138e-001 -6.133362e-001
<VARIANCE> 39
