~o
<STREAMINFO> 1 39
<VECSIZE> 39<NULLD><MFCC_D_A_0><DIAGC>
~h "a"
<BEGINHMM>
<NUMSTATES> 5
<STATE> 2
<NUMMIXES> 4
<MIXTURE> 1 3.559621e-001
<MEAN> 39
 1.699407e+000 -9.329922e+000 -3.517534e+000 -1.012527e+001 -7.467190e+000 1.257792e+000 -9.552093e+000 -3.351465e-001 3.228162e+000 3.197151e+000 -1.120681e+000 -9.752280e+000 7.435023e+001 1.030490e+000 -1.618785e+000 -3.656470e-001 -1.042065e+000 -2.008398e-001 1.017539e+000 -6.967458e-001 7.641568e-001 2.951234e-001 2.272088e-001 -2.384764e-001 -1.312003e+000 1.038163e+000 -6.616899e-001 7.296490e-001 2.755881e-001 6.530432e-001 4.037965e-001 -3.491761e-001 5.066300e-001 -1.705982e-001 -3.026810e-001 -1.437625e-001 5.563429e-002 6.774541e-001 -7.033967e-001
<VARIANCE> 39
 1.819819e+001 4.002988e+001 3.523903e+001 6.874593e+001 5.367853e+001 7.861942e+001 6.046391e+001 5.639182e+001 4.765399e+001 5.437487e+001 5.609781e+001 3.107048e+001 4.947049e+001 2.404565e+000 2.196463e+000 2.126825e+000 2.848660e+000 3.631395e+000 3.835547e+000 3.390527e+000 3.490306e+000 3.138654e+000 2.975085e+000 2.980702e+000 2.669086e+000 1.176869e+000 4.047837e-001 4.531707e-001 4.055979e-001 5.394918e-001 6.433627e-001 6.900110e-001 6.629115e-001 7.378536e-001 6.696578e-001 6.167908e-001 5.991161e-001 5.040106e-001 2.687175e-001
<GCONST> 1.266704e+002
<MIXTURE> 2 1.363178e-001
<MEAN> 39
 -1.088415e+001 -3.671172e+000 -2.452038e+000 -5.593256e+000 -1.263172e+000 -3.285900e-001 -1.352629e+000 1.320967e+000 3.661061e+000 1.788183e+000 -4.717118e-001 -2.061233e+000 5.562173e+001 5.121848e-001 -6.342667e-001 -4.337397e-001 -3.738918e-001 6.351693e-001 6.833165e-001 -1.064045e-001 -2.551722e-001 -1.455095e-001 7.280472e-002 -2.502928e-001 -5.256634e-001 6.651887e-001 3.637573e-001 -4.437274e-001 6.696634e-003 -3.765954e-001 -1.084865e-001 1.047290e-001 -3.588635e-001 -1.328420e-001 -3.611535e-001 -1.187066e-001 -1.985320e-001 -2.008316e-001 7.093869e-001
<VARIANCE> 39
 7.422234e+001 8.123943e+001 8.129908e+001 1.137221e+002 1.015833e+002 1.024550e+002 8.294110e+001 7.362974e+001 7.297330e+001 6.562977e+001 6.154072e+001 5.439987e+001 1.861626e+002 3.769505e+000 4.824733e+000 4.334466e+000 5.515127e+000 5.778912e+000 5.689569e+000 5.256816e+000 5.165808e+000 5.762169e+000 4.250834e+000 4.199192e+000 3.945829e+000 5.964915e+000 6.006043e-001 1.005391e+000 8.274807e-001 1.181051e+000 1.054609e+000 1.132420e+000 1.088407e+000 1.028368e+000 1.180525e+000 8.690338e-001 9.864311e-001 8.181126e-001 1.382522e+000
<GCONST> 1.498568e+002
<MIXTURE> 3 3.488001e-001
<MEAN> 39
 -1.034552e+000 -1.010122e+001 -5.985933e+000 -1.402574e+001 -5.411690e+000 -4.264887e+000 -8.166848e+000 1.735012e+000 -2.147530e+000 -1.381701e+000 -9.526679e+000 -5.223468e+000 7.619164e+001 9.003655e-001 -1.902239e+000 -1.147805e+000 -1.425464e+000 5.462466e-001 6.679016e-001 -4.783823e-001 8.386587e-001 -4.521598e-001 -8.343469e-002 -1.595454e+000 -6.776329e-001 1.397062e+000 -4.741952e-001 6.916478e-001 4.772181e-001 8.330150e-001 1.858000e-001 1.636098e-002 3.741353e-001 -3.947197e-001 8.398648e-002 7.718495e-002 5.541852e-001 2.341276e-001 -8.123286e-001
<VARIANCE> 39
 1.463694e+001 4.091444e+001 4.483325e+001 4.943459e+001 6.240379e+001 9.473741e+001 7.542567e+001 6.226229e+001 5.442387e+001 5.843342e+001 5.881203e+001 4.287340e+001 2.933449e+001 2.250228e+000 2.283020e+000 2.690122e+000 3.935854e+000 3.966615e+000 4.305216e+000 4.170429e+000 3.969075e+000 4.564880e+000 3.740436e+000 3.984330e+000 3.546013e+000 1.531516e+000 4.191557e-001 4.262990e-001 4.941418e-001 6.038076e-001 7.580472e-001 9.416509e-001 7.171157e-001 8.281919e-001 7.801234e-001 7.636323e-001 7.949551e-001 5.364443e-001 4.110962e-001
<GCONST> 1.316948e+002
<MIXTURE> 4 1.588608e-001
<MEAN> 39
 -4.905632e+000 -6.518097e+000 -4.995869e+000 -8.359890e+000 -6.830342e-001 -5.284882e-001 -3.387269e+000 -1.188251e+000 4.269799e-001 -3.502867e-002 -4.058597e+000 -3.421142e+000 6.642751e+001 2.926597e+000 -2.992580e+000 -1.220958e+000 -3.169914e+000 -5.591161e-001 3.374463e-001 -2.179149e+000 -7.860469e-001 -1.499676e+000 -5.866648e-001 -2.239393e+000 -2.041347e+000 4.561632e+000 -1.756829e-001 1.461599e-001 1.728059e-001 1.578346e-001 -1.781296e-001 2.653398e-002 1.146672e-001 2.592111e-001 1.024690e-001 7.353312e-002 1.616060e-001 2.758227e-002 -2.325680e-001
<VARIANCE> 39
 3.224865e+001 6.611294e+001 4.049703e+001 7.122672e+001 6.517561e+001 8.432997e+001 6.748154e+001 4.749231e+001 5.171404e+001 4.289187e+001 5.706293e+001 4.547586e+001 1.192246e+002 3.416800e+000 5.176744e+000 4.451106e+000 5.000334e+000 7.102428e+000 8.273595e+000 5.993323e+000 6.188855e+000 7.124744e+000 5.655646e+000 7.082949e+000 4.707933e+000 5.638063e+000 6.541945e-001 1.261807e+000 5.863696e-001 1.098456e+000 8.873300e-001 9.169869e-001 8.805218e-001 7.752463e-001 8.741430e-001 6.798024e-001 9.302564e-001 6.674064e-001 1.899861e+000
<GCONST> 1.453602e+002
<STATE> 3
<NUMMIXES> 4
<MIXTURE> 1 2.125418e-001
<MEAN> 39
 1.599637e+000 -1.131594e+001 -3.566543e+000 -1.115389e+001 -5.731144e+000 -5.262000e-002 -9.124038e+000 1.226747e+000 1.368821e+000 2.142314e+000 -4.167312e+000 -9.038280e+000 7.579823e+001 -2.605872e-002 1.289318e+000 4.128570e-001 7.401576e-001 5.058972e-001 -5.402667e-001 3.036114e-001 -1.609541e-001 -2.779990e-001 5.266063e-002 1.392549e-001 4.790760e-001 -8.904015e-001 -7.405611e-001 1.274453e+000 3.350959e-001 9.200448e-001 3.801492e-001 -3.389049e-001 7.292612e-001 -3.485142e-001 1.338310e-002 -1.161032e-001 3.719000e-001 6.836978e-001 -1.082457e+000
<VARIANCE> 39
 1.636596e+001 3.896971e+001 4.171869e+001 6.364224e+001 5.739375e+001 8.252380e+001 6.555948e+001 5.990294e+001 5.869101e+001 6.475060e+001 7.086716e+001 4.078125e+001 3.948330e+001 1.155827e+000 2.779313e+000 2.367433e+000 2.826621e+000 3.715645e+000 3.917499e+000 3.547667e+000 3.983721e+000 3.289695e+000 3.065158e+000 3.530683e+000 2.260233e+000 1.664295e+000 4.629574e-001 4.052331e-001 4.951230e-001 6.450683e-001 7.489899e-001 8.648931e-001 8.308526e-001 8.712758e-001 1.062328e+000 8.055671e-001 8.704286e-001 6.291168e-001 4.231451e-001
<GCONST> 1.307475e+002
<MIXTURE> 2 2.721418e-001
<MEAN> 39
 1.396379e+000 -9.968204e+000 -5.427558e+000 -1.259876e+001 -4.249017e+000 2.571133e+000 -8.482629e+000 8.451633e-002 1.652817e+000 1.502920e+000 -3.733248e+000 -9.352538e+000 7.472598e+001 6.240329e-002 1.925823e-001 1.712865e-002 3.927410e-002 2.299519e-001 9.578642e-002 9.600694e-002 -1.410432e-001 -1.169595e-001 5.660652e-002 3.530393e-002 9.589450e-002 -2.208665e-001 -9.038810e-002 5.364397e-001 3.293321e-001 4.175684e-001 -1.742977e-001 -3.031359e-001 2.648655e-002 -2.314175e-001 -1.581245e-001 3.619409e-003 2.183921e-001 3.537785e-001 -4.193875e-001
<VARIANCE> 39
 1.730351e+001 3.493203e+001 3.180367e+001 7.882019e+001 5.696692e+001 7.192506e+001 7.262450e+001 5.181600e+001 4.760929e+001 5.552035e+001 6.623756e+001 3.708118e+001 4.437469e+001 3.536161e-001 9.144728e-001 1.082386e+000 1.418056e+000 1.843539e+000 2.315924e+000 1.904754e+000 2.046466e+000 1.792557e+000 1.731648e+000 1.915190e+000 1.388226e+000 4.017006e-001 8.902392e-002 1.919018e-001 1.977208e-001 2.950481e-001 3.087732e-001 3.499911e-001 3.687492e-001 4.041915e-001 3.889070e-001 3.342665e-001 3.364408e-001 3.078510e-001 1.106378e-001
<GCONST> 1.076993e+002
<MIXTURE> 3 2.538333e-001
<MEAN> 39
 -1.444555e+000 -1.140772e+001 -8.617301e+000 -1.428736e+001 -1.428542e+000 -2.297721e+000 -5.660923e+000 -2.497381e+000 -1.109914e+000 -3.106257e+000 -8.476336e+000 -7.438389e+000 7.627243e+001 1.330982e-002 7.352944e-002 -1.329621e-001 6.817102e-002 2.435951e-001 6.760366e-002 -1.049569e-002 -2.261828e-001 8.951727e-002 -4.158997e-002 -5.113737e-002 -1.339191e-001 -8.273032e-002 8.248986e-002 4.192954e-001 3.927211e-001 1.636040e-001 -3.474756e-001 -2.005881e-001 -1.489440e-001 -7.639339e-003 -3.499192e-002 1.639213e-001 2.228858e-001 1.199741e-001 -3.588218e-001
<VARIANCE> 39
 1.377836e+001 3.824054e+001 3.724403e+001 4.812289e+001 5.576561e+001 1.182281e+002 9.602346e+001 6.427708e+001 5.152326e+001 5.060682e+001 6.085032e+001 4.463935e+001 3.873101e+001 3.748654e-001 8.537388e-001 1.134691e+000 1.173809e+000 1.800090e+000 1.856240e+000 1.682038e+000 1.953283e+000 1.593300e+000 1.740951e+000 1.565061e+000 1.414168e+000 3.762864e-001 7.530343e-002 1.750766e-001 2.097038e-001 2.434653e-001 2.678491e-001 3.043492e-001 3.184657e-001 3.573382e-001 3.441518e-001 3.114799e-001 2.886286e-001 2.999073e-001 9.724902e-002
<GCONST> 1.057730e+002
<MIXTURE> 4 2.613977e-001
<MEAN> 39
 -1.364810e+000 -1.330054e+001 -5.492527e+000 -1.464795e+001 -4.320702e+000 -4.224593e+000 -9.106935e+000 4.505482e+000 -5.287603e+000 -2.932433e+000 -1.343897e+001 -3.172987e+000 7.783419e+001 1.999024e-001 8.434895e-001 4.257346e-001 4.726395e-001 -8.392802e-002 -4.688256e-001 3.067673e-002 -3.776555e-001 -1.534635e-002 -2.103729e-002 7.839040e-002 1.246225e-001 -6.393055e-001 -1.516560e-001 1.180554e+000 4.862452e-001 7.944577e-001 -1.159355e-001 -2.070640e-001 3.306779e-001 -7.000692e-001 3.988705e-001 1.073783e-001 8.221551e-001 -5.395328e-002 -9.770353e-001
<VARIANCE> 39
 1.171196e+001 3.931391e+001 4.037383e+001 4.287387e+001 5.731691e+001 6.162665e+001 6.049318e+001 4.693417e+001 5.307508e+001 5.632457e+001 4.142510e+001 4.852122e+001 2.129469e+001 7.936563e-001 2.626490e+000 2.533949e+000 2.200808e+000 3.411451e+000 3.595747e+000 3.237239e+000 3.566339e+000 3.591837e+000 3.448831e+000 3.101477e+000 2.774241e+000 1.313936e+000 2.478486e-001 2.987925e-001 4.039107e-001 5.182713e-001 6.106166e-001 6.925098e-001 6.557472e-001 6.903462e-001 8.273722e-001 7.345672e-001 6.496547e-001 5.876257e-001 2.665415e-001
<GCONST> 1.237991e+002
<STATE> 4
<NUMMIXES> 4
<MIXTURE> 1 2.237426e-001
<MEAN> 39
 -2.706860e-001 -3.386978e+000 -4.188019e+000 -8.626440e+000 -1.636529e+000 -4.903227e+000 -4.585435e+000 -1.415133e+000 -4.689614e-001 -7.133387e-001 -6.771555e+000 -5.012209e+000 7.001420e+001 -1.706512e+000 3.033646e+000 1.189730e+000 2.822096e+000 1.379891e+000 8.921289e-002 1.782930e+000 3.094458e-001 1.237580e+000 3.542113e-001 1.416016e+000 8.970211e-001 -3.314262e+000 -7.711098e-001 -1.744777e-001 9.019939e-003 2.170920e-001 5.059567e-002 4.110713e-001 4.312463e-001 4.245188e-001 4.001121e-001 1.694082e-001 4.814279e-001 2.295716e-001 -3.411187e-001
<VARIANCE> 39
 1.380823e+001 3.225889e+001 3.417086e+001 4.786853e+001 5.043029e+001 8.005507e+001 5.558822e+001 5.126874e+001 4.589618e+001 6.486679e+001 6.874654e+001 4.415646e+001 4.650722e+001 2.440892e+000 2.486614e+000 2.345489e+000 3.442640e+000 3.503443e+000 4.853714e+000 5.008402e+000 4.295965e+000 4.807904e+000 3.739932e+000 4.532027e+000 3.487758e+000 3.514940e+000 4.535996e-001 5.449675e-001 4.302120e-001 6.322175e-001 6.176936e-001 8.037494e-001 6.806737e-001 6.795533e-001 6.887684e-001 7.789999e-001 7.594977e-001 5.351160e-001 5.330566e-001
<GCONST> 1.316691e+002
<MIXTURE> 2 2.900272e-001
<MEAN> 39
 2.060538e+000 -7.227746e+000 -4.466013e+000 -8.828560e+000 -6.040788e+000 1.933641e+000 -8.603753e+000 -1.158356e+000 1.768186e+000 2.031161e+000 -9.678365e-001 -8.788432e+000 7.201461e+001 -1.481662e-001 1.963923e+000 8.749202e-001 1.417923e+000 2.607935e-001 -6.115974e-001 5.640911e-001 -8.903353e-001 -8.310494e-001 6.174669e-003 5.501454e-001 1.077036e+000 -1.852971e+000 -3.165506e-001 4.064645e-001 2.373191e-001 3.932488e-001 1.950025e-001 -2.129244e-001 2.640397e-001 -8.478706e-002 -1.310400e-001 -8.482565e-002 -1.432496e-001 2.714677e-001 -4.074288e-001
<VARIANCE> 39
 1.765228e+001 3.162200e+001 3.651453e+001 6.987820e+001 6.617539e+001 7.246428e+001 6.684586e+001 5.632931e+001 4.423357e+001 5.981357e+001 6.133340e+001 3.374285e+001 5.178814e+001 7.657885e-001 1.838272e+000 1.902961e+000 2.866758e+000 3.335773e+000 3.110051e+000 2.924536e+000 3.452484e+000 3.401998e+000 2.908408e+000 2.792042e+000 2.194146e+000 1.441155e+000 1.491642e-001 2.632795e-001 3.127449e-001 4.156855e-001 4.568146e-001 5.224974e-001 5.125248e-001 5.796923e-001 5.224168e-001 4.896987e-001 4.843131e-001 4.072776e-001 2.347975e-001
<GCONST> 1.208192e+002
<MIXTURE> 3 2.424716e-001
<MEAN> 39
 5.374385e-003 -8.210881e+000 -6.347500e+000 -1.256188e+001 -5.134924e+000 5.362302e-001 -9.123921e+000 -1.337705e+000 -1.720303e+000 -1.052012e+000 -5.502299e+000 -6.749907e+000 7.119870e+001 2.283560e-001 1.689156e+000 9.793301e-001 9.903868e-001 -7.562073e-001 -6.267052e-001 2.465261e-001 -9.893654e-001 -5.674147e-001 2.043284e-001 6.000585e-001 4.059370e-001 -1.645252e+000 -9.558486e-002 2.199340e-001 3.004390e-001 2.480005e-001 -3.248465e-002 -1.611310e-001 3.741213e-002 -1.384541e-001 -1.290193e-001 1.992443e-002 -2.208335e-002 5.447889e-002 -1.913156e-001
<VARIANCE> 39
 2.283063e+001 4.658531e+001 5.762885e+001 6.542872e+001 6.522907e+001 1.028357e+002 8.367089e+001 6.207106e+001 6.189758e+001 6.887012e+001 7.042065e+001 4.002676e+001 6.871997e+001 9.272190e-001 1.854037e+000 3.292326e+000 3.073195e+000 2.942309e+000 3.704019e+000 3.269106e+000 3.829890e+000 4.186358e+000 3.664477e+000 3.248051e+000 2.970248e+000 1.260881e+000 1.390882e-001 2.614818e-001 3.951718e-001 4.203767e-001 4.448180e-001 5.207851e-001 5.304024e-001 5.903659e-001 5.948433e-001 5.997975e-001 5.214329e-001 4.386199e-001 2.521156e-001
<GCONST> 1.261642e+002
<MIXTURE> 4 2.436981e-001
<MEAN> 39
 -2.915164e-001 -3.910264e+000 -1.996918e+000 -8.913218e+000 -3.101671e+000 -5.288636e+000 -8.690906e+000 5.595048e-001 -2.147189e+000 1.503073e+000 -7.359818e+000 -3.875714e+000 7.002232e+001 -6.213596e-001 2.797078e+000 5.193453e-001 2.450561e+000 6.584285e-001 -2.571215e-001 1.239485e+000 -1.005228e+000 6.111907e-001 -3.768987e-001 9.966348e-001 1.975065e-001 -3.245979e+000 -3.342407e-001 -1.901089e-001 -2.354543e-001 3.148350e-002 -4.730601e-002 4.042992e-001 3.227968e-001 -1.396757e-002 2.700499e-001 -1.684312e-001 2.353323e-001 -1.706453e-001 -1.744346e-001
<VARIANCE> 39
 1.672789e+001 3.817335e+001 5.364990e+001 6.319624e+001 6.838257e+001 8.482291e+001 7.164179e+001 7.058772e+001 5.927480e+001 6.308637e+001 6.561777e+001 4.204305e+001 4.558682e+001 2.050985e+000 2.503341e+000 3.522435e+000 3.038235e+000 3.800940e+000 4.310397e+000 4.365254e+000 4.726599e+000 4.325858e+000 3.659989e+000 3.559257e+000 3.237296e+000 2.240809e+000 3.423700e-001 4.719637e-001 5.330328e-001 7.057338e-001 7.825755e-001 7.355373e-001 7.872714e-001 8.891855e-001 8.253012e-001 7.118891e-001 7.200469e-001 5.663354e-001 4.848404e-001
<GCONST> 1.334088e+002
<TRANSP> 5
 0.000000e+000 1.000000e+000 0.000000e+000 0.000000e+000 0.000000e+000
 0.000000e+000 5.541885e-001 4.458115e-001 0.000000e+000 0.000000e+000
 0.000000e+000 0.000000e+000 6.428806e-001 3.571194e-001 0.000000e+000
 0.000000e+000 0.000000e+000 0.000000e+000 5.361060e-001 4.638940e-001
 0.000000e+000 0.000000e+000 0.000000e+000 0.000000e+000 0.000000e+000
<ENDHMM>
~h "b"
<BEGINHMM>
<NUMSTATES> 5
<STATE> 2
<NUMMIXES> 4
<MIXTURE> 1 1.896671e-001
<MEAN> 39
 -2.059998e-001 8.703908e+000 5.818553e+000 4.626137e+000 -4.532493e-001 -1.550309e+000 -4.283135e+000 -5.997479e+000 -3.572826e+000 -6.761896e-001 1.058852e+000 -3.098608e+000 5.720094e+001 3.070845e-001 1.383791e+000 3.462915e-001 8.349193e-001 9.297181e-001 2.062349e-001 3.825983e-001 -3.128773e-001 -3.848773e-001 -1.596543e-001 -1.833982e-001 -1.892225e-001 -1.363547e+000 -3.087348e-001 -4.496908e-001 -4.813130e-002 -3.362935e-001 -3.460576e-001 -1.237673e-001 -5.704604e-002 1.904589e-001 6.050445e-002 -4.849096e-002 -8.826549e-002 4.342572e-002 5.809902e-001
<VARIANCE> 39
 2.410137e+001 2.118797e+001 3.176869e+001 3.647120e+001 3.214735e+001 3.069136e+001 3.816397e+001 3.150431e+001 3.120147e+001 2.647050e+001 2.411554e+001 2.143704e+001 5.510263e+001 2.023472e+000 1.938397e+000 1.790949e+000 2.115032e+000 2.664804e+000 2.485475e+000 3.070509e+000 2.732955e+000 3.039434e+000 2.250144e+000 2.059307e+000 2.135266e+000 2.696988e+000 2.340564e-001 2.945331e-001 3.053643e-001 3.178559e-001 3.891894e-001 3.800662e-001 4.074568e-001 4.379420e-001 4.448619e-001 3.792598e-001 3.435200e-001 3.392493e-001 3.019226e-001
<GCONST> 1.132718e+002
<MIXTURE> 2 2.745863e-001
<MEAN> 39
 3.835255e+000 6.565403e+000 2.961641e+000 -1.031333e+000 -2.185801e+000 -9.874747e-001 -5.002604e+000 -6.941245e+000 -5.410939e+000 -3.097743e+000 -1.617435e+000 -6.026828e+000 5.928431e+001 -4.712176e-001 2.473986e+000 1.000076e+000 2.681366e+000 1.716638e+000 -1.314915e-001 1.415548e+000 -3.348645e-001 4.349037e-002 -8.712392e-001 -4.933932e-001 -3.233214e-001 -2.738411e+000 -4.605746e-001 -8.448215e-001 -1.405287e-001 -7.434137e-001 -5.311240e-001 -1.977023e-001 -2.974257e-001 3.307644e-001 2.120802e-001 2.878624e-001 -1.023317e-003 2.207660e-001 1.081146e+000
<VARIANCE> 39
 8.750711e+000 2.301219e+001 2.529041e+001 3.706498e+001 3.101446e+001 4.897162e+001 3.928634e+001 3.180191e+001 3.794530e+001 3.155913e+001 3.464933e+001 2.074467e+001 3.469908e+001 8.207297e-001 1.903544e+000 1.704392e+000 3.818541e+000 2.791937e+000 2.730293e+000 2.588923e+000 2.905350e+000 3.650922e+000 2.871443e+000 2.883912e+000 2.276926e+000 1.556177e+000 1.738931e-001 3.823898e-001 2.701113e-001 4.561765e-001 4.225995e-001 4.399412e-001 4.971200e-001 5.097490e-001 5.771203e-001 4.767181e-001 5.180396e-001 3.453423e-001 3.890453e-001
<GCONST> 1.147209e+002
<MIXTURE> 3 3.104535e-001
<MEAN> 39
 2.894677e-001 7.626407e+000 3.808290e+000 2.039428e+000 -4.086954e+000 -2.371295e+000 -4.605755e+000 -5.615412e+000 -5.256978e+000 -2.395950e+000 -1.077116e+000 -4.843964e+000 5.716526e+001 -2.584528e-001 6.824353e-001 1.281869e-001 5.048793e-001 5.861549e-001 4.105014e-002 4.538352e-001 9.102471e-002 5.410837e-003 -1.895937e-001 -2.355865e-001 1.453675e-001 -7.747819e-001 -1.841874e-001 -6.692519e-001 -7.328840e-002 -4.308310e-001 -3.041940e-001 -1.208736e-001 -3.916211e-001 6.751665e-002 2.052916e-001 1.302910e-001 3.517714e-002 1.003525e-001 7.477332e-001
<VARIANCE> 39
 2.343633e+001 2.435031e+001 2.598485e+001 3.437175e+001 3.574144e+001 3.599438e+001 4.001954e+001 2.910039e+001 3.918413e+001 2.580366e+001 3.924740e+001 2.476698e+001 5.373574e+001 3.761128e-001 8.047897e-001 7.526460e-001 1.127755e+000 1.249187e+000 1.273468e+000 1.710627e+000 1.529869e+000 1.902777e+000 1.803517e+000 1.638821e+000 1.372999e+000 5.052052e-001 1.357364e-001 2.539695e-001 2.603537e-001 3.641657e-001 3.684533e-001 3.687359e-001 4.535484e-001 3.944443e-001 5.173020e-001 4.023067e-001 3.983208e-001 3.190426e-001 2.413167e-001
<GCONST> 1.037547e+002
<MIXTURE> 4 2.252503e-001
<MEAN> 39
 3.310793e+000 6.744549e+000 1.957321e+000 -2.666465e+000 -5.066941e+000 -6.604783e+000 -8.812746e+000 -7.736033e+000 -5.805986e+000 -5.360710e+000 -8.933296e+000 -1.018459e+001 5.990349e+001 -2.564448e-001 1.486467e+000 5.354884e-001 1.138150e+000 6.508726e-001 1.184424e-001 6.829945e-001 -2.395241e-001 1.456134e-001 -8.126720e-001 -1.429062e-001 -3.843234e-001 -1.485733e+000 -6.126001e-001 -9.505877e-001 -1.178067e-001 -6.361623e-001 -4.139524e-001 -1.148511e-001 -1.053094e-001 2.959383e-001 3.323174e-002 3.643146e-001 4.410596e-001 7.544567e-001 1.228757e+000
<VARIANCE> 39
 1.296207e+001 2.768579e+001 3.894508e+001 3.132708e+001 3.654910e+001 4.928130e+001 3.411762e+001 3.557204e+001 3.628510e+001 3.850441e+001 3.451159e+001 2.300561e+001 2.559490e+001 1.110416e+000 2.013214e+000 1.543658e+000 2.414756e+000 2.416799e+000 2.271719e+000 2.459403e+000 2.591859e+000 2.492030e+000 2.646487e+000 2.378420e+000 2.603167e+000 1.828582e+000 2.378999e-001 4.362922e-001 4.836627e-001 6.478736e-001 7.244714e-001 5.920662e-001 6.450966e-001 7.163564e-001 6.254937e-001 6.636135e-001 5.051404e-001 4.605617e-001 4.783936e-001
<GCONST> 1.182955e+002
<STATE> 3
<NUMMIXES> 4
<MIXTURE> 1 3.032229e-001
<MEAN> 39
 5.755557e-001 1.066967e+001 6.830711e+000 4.196102e+000 1.382414e+000 -5.135316e-001 -1.589329e+000 -5.369016e+000 -4.178215e+000 -2.868192e+000 1.398500e-001 -2.980200e+000 5.511976e+001 -1.482714e+000 -1.369490e+000 -2.822917e-001 7.397226e-002 2.496949e-001 -5.070598e-001 -1.854574e-002 4.000846e-001 8.367141e-001 2.248815e-001 -2.024405e-001 3.839688e-001 1.387275e+000 -4.323202e-002 -1.354632e+000 -4.208379e-001 -9.474566e-001 -9.890135e-001 -3.784349e-001 -6.540102e-001 9.202752e-002 2.603690e-001 3.686939e-001 1.683756e-001 -3.857337e-002 1.693862e+000
<VARIANCE> 39
 1.776291e+001 1.443199e+001 1.622539e+001 2.452773e+001 2.353006e+001 2.601335e+001 2.880182e+001 3.057744e+001 3.187725e+001 2.357618e+001 2.134134e+001 1.733595e+001 3.898351e+001 1.397582e+000 2.427526e+000 1.813156e+000 2.542818e+000 2.190574e+000 2.632761e+000 2.764479e+000 2.558153e+000 2.890140e+000 2.305240e+000 2.205837e+000 1.578490e+000 3.145401e+000 3.005736e-001 3.356600e-001 5.224255e-001 5.764925e-001 5.436021e-001 5.943309e-001 5.873829e-001 6.472119e-001 7.534421e-001 6.019622e-001 5.636286e-001 4.208963e-001 3.013783e-001
<GCONST> 1.143352e+002
<MIXTURE> 2 1.657782e-001
<MEAN> 39
 4.864705e-001 8.561060e+000 3.856006e+000 2.740985e+000 -2.201378e+000 -2.499183e+000 -6.716203e+000 -8.140408e+000 -6.193676e+000 -2.678493e+000 -3.439301e+000 -6.830392e+000 5.510467e+001 -1.231618e+000 -1.675817e+000 2.972120e-001 -3.148240e-001 -5.423190e-001 -1.320039e+000 -3.469320e-001 2.017952e-001 6.708270e-001 1.399247e-001 1.338824e-001 8.055214e-001 2.521548e+000 -2.294400e-001 -1.163327e+000 -5.532432e-003 -8.799752e-001 -8.520761e-001 -3.045824e-001 -2.292880e-001 3.532960e-001 1.559118e-001 1.846945e-001 2.614849e-001 4.415920e-001 1.344257e+000
<VARIANCE> 39
 2.807934e+001 3.311130e+001 3.957935e+001 4.998508e+001 4.380841e+001 5.612826e+001 5.797897e+001 4.213992e+001 6.409266e+001 4.242213e+001 5.865155e+001 3.738913e+001 6.548369e+001 4.955998e+000 5.972437e+000 3.575024e+000 5.111439e+000 6.563334e+000 5.157629e+000 6.607905e+000 5.327002e+000 6.710533e+000 4.146604e+000 4.897689e+000 4.353680e+000 4.160276e+000 5.323564e-001 6.660119e-001 7.945032e-001 7.906410e-001 1.163620e+000 9.367544e-001 1.084956e+000 9.983214e-001 1.381249e+000 9.083083e-001 8.552788e-001 7.670546e-001 7.128415e-001
<GCONST> 1.408121e+002
<MIXTURE> 3 3.534572e-001
<MEAN> 39
 1.316155e-001 8.894317e+000 5.456370e+000 2.309503e+000 -1.103787e+000 -4.013834e+000 -4.902899e+000 -6.990784e+000 -4.603498e+000 -3.886276e+000 -3.003078e+000 -5.948996e+000 5.659349e+001 -1.655400e+000 -2.353418e+000 -6.147790e-001 -8.323193e-001 -6.112651e-001 -6.937182e-001 -2.672441e-001 7.082742e-001 9.895772e-001 3.489532e-001 2.445346e-001 8.081743e-001 3.050273e+000 1.986117e-001 -1.185417e+000 -3.544446e-001 -1.137132e+000 -1.042512e+000 -1.987731e-001 -5.366724e-001 3.127242e-001 -1.667662e-002 5.229757e-001 1.434231e-001 1.531407e-001 1.491716e+000
<VARIANCE> 39
 1.549319e+001 1.669518e+001 1.713727e+001 2.283593e+001 2.325191e+001 2.821949e+001 2.659708e+001 2.321476e+001 2.362397e+001 2.367134e+001 2.725121e+001 1.957837e+001 3.889315e+001 1.698300e+000 2.375249e+000 2.563245e+000 3.430850e+000 2.922254e+000 3.167926e+000 3.270683e+000 2.943301e+000 2.903677e+000 2.936672e+000 2.604447e+000 2.206986e+000 2.938590e+000 2.454756e-001 3.756941e-001 6.645964e-001 5.876615e-001 5.467243e-001 6.320446e-001 5.125262e-001 6.659241e-001 6.876162e-001 6.094609e-001 5.887900e-001 5.027915e-001 3.160428e-001
<GCONST> 1.167098e+002
<MIXTURE> 4 1.775241e-001
<MEAN> 39
 2.971490e+000 8.684356e+000 7.867180e-001 -2.113888e+000 -6.278685e+000 -2.837066e+000 -8.077247e+000 -8.252363e+000 -7.234793e+000 -5.521961e+000 -5.081655e+000 -6.180694e+000 5.650462e+001 -1.714668e+000 -2.119890e+000 3.986969e-001 6.463315e-002 -1.198246e-001 -1.276049e+000 -5.726440e-001 8.571611e-002 7.967622e-001 4.602643e-001 4.733392e-001 8.089373e-001 2.331824e+000 -2.143216e-001 -1.316943e+000 1.102747e-001 -7.094662e-001 -6.112704e-001 -1.672579e-001 -4.689576e-001 2.204159e-001 1.188986e-001 4.672318e-001 3.287359e-001 2.061942e-001 1.402396e+000
<VARIANCE> 39
 1.978788e+001 3.598977e+001 4.837637e+001 5.373811e+001 4.751802e+001 7.387315e+001 4.402663e+001 4.056964e+001 4.216656e+001 4.218833e+001 5.946510e+001 3.800515e+001 4.254683e+001 2.574520e+000 5.598461e+000 5.684188e+000 6.689186e+000 7.558281e+000 6.686633e+000 6.067745e+000 4.829528e+000 5.047569e+000 4.864218e+000 4.862400e+000 3.814973e+000 3.553077e+000 3.459654e-001 8.162279e-001 1.097766e+000 1.024740e+000 1.150723e+000 1.070835e+000 9.655746e-001 9.900886e-001 1.135654e+000 9.559869e-001 8.530664e-001 8.448774e-001 4.507930e-001
<GCONST> 1.396884e+002
<STATE> 4
<NUMMIXES> 4
<MIXTURE> 1 2.570553e-001
<MEAN> 39
 -5.730601e+000 2.863488e+000 3.773252e+000 2.776422e+000 8.430845e-001 -2.575562e+000 -1.790780e+000 -3.093261e+000 -4.772030e-001 -1.132820e+000 -8.775550e-001 -1.766518e+000 6.209716e+001 -1.068068e-001 -2.935881e+000 -7.891906e-001 -2.149188e+000 -2.152728e+000 -9.135718e-001 -1.443591e+000 1.164728e-002 4.696134e-001 6.296682e-001 6.013953e-001 2.427856e-001 4.075737e+000 8.971527e-001 -1.604568e-002 1.555094e-001 -6.813763e-001 -1.048144e+000 1.345236e-001 -6.611174e-001 -2.571985e-001 -4.867943e-001 4.612871e-004 1.837034e-001 -3.054264e-001 2.431797e-001
<VARIANCE> 39
 2.323169e+001 2.754919e+001 2.691395e+001 3.511862e+001 2.656949e+001 2.486078e+001 3.184283e+001 2.797808e+001 2.933300e+001 2.454663e+001 2.046884e+001 1.756304e+001 7.251099e+001 2.897819e+000 3.405619e+000 5.241057e+000 6.099604e+000 4.824193e+000 5.429214e+000 4.987361e+000 4.557587e+000 5.198509e+000 4.673337e+000 3.886627e+000 3.047260e+000 3.009934e+000 3.825176e-001 7.733638e-001 6.360632e-001 7.599640e-001 6.944507e-001 7.983502e-001 7.129974e-001 7.505437e-001 8.573489e-001 7.081712e-001 9.098899e-001 4.716268e-001 6.548073e-001
<GCONST> 1.290019e+002
<MIXTURE> 2 2.615903e-001
<MEAN> 39
 -6.434731e-001 -2.928303e+000 3.368563e-001 -4.364543e+000 -7.436115e+000 -6.137784e+000 -1.180568e+001 -5.815175e+000 5.919907e-001 2.672557e+000 5.754575e-001 -4.289199e+000 7.193301e+001 8.247928e-001 -3.360792e+000 -5.378064e-001 -2.584329e+000 -3.141474e+000 -5.089719e-001 -2.340876e+000 1.007882e+000 1.074422e+000 1.267335e+000 2.781216e-001 -4.915172e-001 3.635924e+000 2.629759e-001 7.111768e-001 4.435341e-001 3.115884e-001 8.563521e-002 4.978065e-001 5.505368e-001 1.021489e-001 -5.139453e-001 -5.426164e-001 -2.807010e-001 -7.058893e-002 -9.997539e-001
<VARIANCE> 39
 1.941770e+001 2.618172e+001 3.503086e+001 6.351259e+001 3.856353e+001 5.117032e+001 5.547337e+001 3.820139e+001 3.369174e+001 3.528664e+001 4.161012e+001 2.331457e+001 5.423912e+001 2.177649e+000 3.763145e+000 5.269918e+000 6.848415e+000 4.684558e+000 6.210383e+000 5.582757e+000 5.906865e+000 5.850510e+000 5.573363e+000 5.193685e+000 4.114723e+000 2.637237e+000 3.184389e-001 4.625372e-001 3.489875e-001 6.756700e-001 7.020440e-001 5.735132e-001 7.658601e-001 6.586356e-001 6.682228e-001 5.957685e-001 6.373920e-001 5.172504e-001 4.275662e-001
<GCONST> 1.310514e+002
<MIXTURE> 3 2.778071e-001
<MEAN> 39
 -6.933190e+000 2.979354e-001 3.022273e+000 9.168858e-002 -2.554294e+000 -6.794226e+000 -4.573646e+000 -5.167313e+000 -2.014767e+000 -4.479559e+000 -4.112216e+000 -4.100102e+000 6.813622e+001 -4.710509e-001 -3.153098e+000 -7.393783e-001 -2.704648e+000 -2.606765e+000 -1.101124e+000 -1.253985e+000 7.864357e-001 -8.304512e-002 1.298228e+000 6.704041e-001 1.264301e+000 4.564585e+000 9.897149e-001 1.868498e-001 6.809194e-002 -8.567271e-001 -7.737435e-001 2.183423e-001 -5.267152e-001 -6.690980e-002 -5.680751e-001 4.482627e-001 -2.725189e-002 -1.293256e-001 -2.617577e-001
<VARIANCE> 39
 1.541895e+001 2.315898e+001 2.443838e+001 2.590784e+001 2.192392e+001 2.553406e+001 2.696818e+001 2.483592e+001 2.931145e+001 2.381163e+001 2.251253e+001 1.935791e+001 4.603647e+001 2.673734e+000 3.563590e+000 6.831819e+000 5.684599e+000 5.423268e+000 6.278262e+000 4.491641e+000 5.754764e+000 6.017986e+000 5.235430e+000 4.405726e+000 4.000109e+000 2.676278e+000 3.210346e-001 7.463989e-001 5.900769e-001 8.029132e-001 7.393259e-001 8.084201e-001 6.793626e-001 7.105696e-001 8.592779e-001 7.034141e-001 8.688323e-001 5.086968e-001 5.092528e-001
<GCONST> 1.278792e+002
<MIXTURE> 4 2.035223e-001
<MEAN> 39
 -3.318533e+000 -4.416512e+000 6.361787e+000 -3.190024e+000 -1.077136e+001 -1.227691e+001 -1.002852e+001 -3.171051e+000 -3.633112e+000 -2.554667e+000 -1.356377e+000 -2.263960e+000 7.224532e+001 -1.226655e-001 -2.957668e+000 1.606342e+000 -3.045599e+000 -3.963089e+000 -1.026380e+000 -1.237288e+000 9.623812e-001 -1.534230e+000 1.251751e+000 4.552787e-001 1.022823e+000 3.819434e+000 3.875946e-001 1.053981e+000 7.041176e-002 -2.972336e-001 2.671424e-001 9.072605e-001 1.684675e-001 -3.757857e-001 -4.075122e-001 7.689395e-002 -3.551474e-001 -4.124797e-001 -1.108341e+000
<VARIANCE> 39
 2.389225e+001 3.724927e+001 8.011800e+001 7.976109e+001 5.033266e+001 6.202552e+001 5.405484e+001 4.579041e+001 4.959860e+001 4.008772e+001 4.400113e+001 3.000094e+001 4.686292e+001 2.756310e+000 5.185298e+000 9.892845e+000 6.128466e+000 6.289059e+000 7.076813e+000 5.019174e+000 6.951290e+000 7.939894e+000 6.452797e+000 5.895274e+000 4.424431e+000 2.817893e+000 3.016954e-001 6.263825e-001 5.826111e-001 1.102774e+000 9.540336e-001 8.215262e-001 9.492399e-001 8.344217e-001 8.488029e-001 8.265925e-001 6.916384e-001 5.968081e-001 5.066898e-001
<GCONST> 1.395605e+002
<TRANSP> 5
 0.000000e+000 1.000000e+000 0.000000e+000 0.000000e+000 0.000000e+000
 0.000000e+000 6.982659e-001 3.017341e-001 0.000000e+000 0.000000e+000
 0.000000e+000 0.000000e+000 4.899295e-001 5.100706e-001 0.000000e+000
 0.000000e+000 0.000000e+000 0.000000e+000 5.300163e-001 4.699837e-001
 0.000000e+000 0.000000e+000 0.000000e+000 0.000000e+000 0.000000e+000
<ENDHMM>
~h "d"
<BEGINHMM>
<NUMSTATES> 5
<STATE> 2
<NUMMIXES> 4
<MIXTURE> 1 2.518905e-001
<MEAN> 39
 -1.915700e+000 6.562219e+000 8.161216e+000 4.268843e+000 -3.677322e+000 -5.435158e+000 -5.403371e+000 -2.497597e+000 5.909024e-001 -9.664460e-001 -1.898549e+000 -3.534612e+000 5.891770e+001 7.769752e-002 1.534286e+000 -5.447742e-002 1.188405e+000 1.589052e+000 6.734510e-001 1.102374e+000 5.249147e-002 2.052702e-001 -2.059936e-002 -2.802275e-001 -1.407237e-001 -2.344067e+000 -3.522869e-001 -8.061599e-001 -2.098786e-001 -6.209197e-001 -4.001386e-001 2.321470e-002 -7.752047e-002 -1.274304e-002 -2.510142e-001 -2.669476e-003 1.040509e-001 1.363131e-001 1.048010e+000
<VARIANCE> 39
 2.550768e+001 2.835689e+001 3.749900e+001 3.197731e+001 4.274199e+001 3.718560e+001 3.954100e+001 3.224059e+001 3.428151e+001 2.785206e+001 2.584687e+001 2.397275e+001 5.336391e+001 1.638986e+000 2.979321e+000 2.338653e+000 2.784234e+000 3.590763e+000 2.675787e+000 3.100718e+000 2.760131e+000 2.984777e+000 2.417133e+000 2.164607e+000 1.913186e+000 3.067497e+000 2.759605e-001 4.673807e-001 3.029425e-001 4.813155e-001 5.737268e-001 5.085920e-001 5.448067e-001 5.140725e-001 5.066678e-001 4.195782e-001 4.039122e-001 3.681899e-001 5.800462e-001
<GCONST> 1.190499e+002
<MIXTURE> 2 2.646495e-001
<MEAN> 39
 3.054667e+000 1.123473e+000 9.766810e-001 3.163999e+000 -3.904439e+000 -3.898582e+000 -1.152725e+001 -1.027202e+001 2.161922e+000 1.990644e+000 -3.924562e+000 -7.769818e+000 6.216941e+001 -7.664274e-001 1.740945e+000 1.174476e+000 1.929176e+000 1.843416e+000 -6.105759e-001 1.566987e+000 5.430799e-001 6.979622e-002 -6.634770e-001 -1.021664e+000 -3.673220e-002 -2.277875e+000 -4.665523e-001 -6.810886e-001 6.724005e-002 -1.305130e+000 -7.454852e-001 2.995440e-001 9.062590e-002 5.608855e-001 -5.455074e-001 -3.697304e-001 5.583345e-001 5.587427e-001 1.151616e+000
<VARIANCE> 39
 1.432559e+001 3.532094e+001 4.157156e+001 4.699873e+001 6.634545e+001 5.148784e+001 4.867316e+001 5.482981e+001 4.512148e+001 4.328003e+001 5.207525e+001 3.288471e+001 4.767823e+001 1.611323e+000 4.013472e+000 3.021639e+000 4.591872e+000 4.923403e+000 4.423846e+000 4.912655e+000 5.398015e+000 4.753007e+000 4.458181e+000 4.863758e+000 3.612920e+000 3.127844e+000 2.861101e-001 8.691131e-001 5.112598e-001 8.057775e-001 1.556128e+000 9.462158e-001 9.796339e-001 9.104085e-001 1.019523e+000 9.974081e-001 8.431323e-001 7.029749e-001 8.177977e-001
<GCONST> 1.355965e+002
<MIXTURE> 3 2.736612e-001
<MEAN> 39
 -1.606209e+000 5.904957e+000 6.415297e+000 9.023076e-001 -6.864942e+000 -6.360180e+000 -6.223744e+000 -3.292770e+000 -2.457549e+000 -4.178299e+000 -5.789004e+000 -5.384887e+000 6.011879e+001 2.379334e-001 1.158960e+000 2.810283e-002 9.268870e-001 1.140328e+000 5.179020e-001 8.806618e-001 -1.380958e-001 3.555347e-002 -4.004053e-001 -2.838514e-001 -3.974010e-001 -1.723327e+000 -5.091915e-001 -9.086732e-001 -1.262493e-001 -5.899705e-001 -2.860439e-001 -7.102674e-002 -2.661394e-001 -4.066597e-002 -2.103738e-002 3.167848e-001 2.918271e-001 3.297304e-001 1.140445e+000
<VARIANCE> 39
 2.978639e+001 3.612358e+001 3.831155e+001 3.667474e+001 4.903169e+001 4.250760e+001 4.081166e+001 3.084350e+001 3.655048e+001 3.653878e+001 3.623820e+001 2.634639e+001 5.783951e+001 1.619308e+000 2.417092e+000 1.993841e+000 2.126210e+000 3.144091e+000 2.419005e+000 2.888522e+000 2.560308e+000 2.768528e+000 2.313813e+000 2.018580e+000 2.132200e+000 2.550740e+000 4.105583e-001 4.618405e-001 4.043097e-001 4.476342e-001 6.064668e-001 5.315916e-001 6.502218e-001 5.787712e-001 5.667950e-001 4.658154e-001 4.648875e-001 4.069689e-001 5.590750e-001
<GCONST> 1.208345e+002
<MIXTURE> 4 2.097719e-001
<MEAN> 39
 3.940965e-001 3.570366e+000 4.380569e+000 -1.483514e+000 -7.831769e+000 -6.526988e+000 -9.628968e+000 -5.773992e+000 -2.607085e+000 -5.723311e+000 -8.258779e+000 -6.192483e+000 6.024936e+001 -2.495563e-001 1.081064e+000 7.400724e-001 1.480064e+000 5.381296e-001 -4.668999e-002 9.017155e-001 -4.554854e-001 -2.306043e-001 -8.627207e-001 5.042317e-002 -4.546447e-001 -1.180451e+000 -5.935125e-001 -1.149591e+000 -1.618992e-001 -8.743513e-001 -2.424412e-001 4.576425e-002 -7.683118e-002 2.376776e-001 -2.742144e-003 4.161221e-001 5.506645e-001 4.970594e-001 1.335825e+000
<VARIANCE> 39
 3.387612e+001 5.400878e+001 7.866118e+001 5.355354e+001 6.811213e+001 7.023740e+001 6.625311e+001 5.452756e+001 5.477166e+001 5.624348e+001 6.053538e+001 4.112440e+001 5.241537e+001 4.078331e+000 5.828264e+000 4.112695e+000 5.863000e+000 7.230587e+000 6.474231e+000 6.391357e+000 6.015678e+000 5.394939e+000 4.516929e+000 5.142220e+000 4.219635e+000 5.331411e+000 5.702506e-001 1.057749e+000 7.933484e-001 1.232469e+000 1.335614e+000 1.086841e+000 1.143608e+000 1.114338e+000 1.121325e+000 1.056594e+000 9.424853e-001 7.938427e-001 1.048569e+000
<GCONST> 1.458168e+002
<STATE> 3
<NUMMIXES> 4
<MIXTURE> 1 2.984734e-001
<MEAN> 39
 -2.145041e+000 8.552960e+000 7.261822e+000 5.503727e+000 -3.861921e-001 -3.489040e+000 -3.973198e+000 -3.660832e+000 -2.201211e-001 -3.821999e-001 -1.675422e+000 -3.663552e+000 5.623904e+001 -1.477983e+000 -1.961566e+000 -4.181420e-001 -8.683527e-001 5.289650e-002 2.793730e-001 8.554087e-001 3.318587e-001 -8.604101e-002 -3.335399e-001 3.222476e-001 9.029950e-001 1.861041e+000 -8.722790e-002 -1.093217e+000 -1.143538e-001 -8.693907e-001 -1.150526e+000 -4.307976e-001 -6.796346e-001 -5.885004e-002 -9.911648e-003 3.071067e-002 2.121337e-001 1.114261e-001 1.742908e+000
<VARIANCE> 39
 2.464370e+001 2.165174e+001 2.993111e+001 2.778980e+001 3.372496e+001 2.988176e+001 3.323113e+001 2.835220e+001 3.010813e+001 2.662109e+001 2.184806e+001 2.052197e+001 5.018279e+001 2.108973e+000 4.317687e+000 3.108857e+000 4.034205e+000 4.354301e+000 4.094686e+000 3.985295e+000 3.552628e+000 3.960335e+000 3.175601e+000 2.491443e+000 2.481303e+000 4.054479e+000 4.150341e-001 5.520061e-001 4.926819e-001 6.628441e-001 7.929477e-001 6.971962e-001 7.372615e-001 6.846012e-001 7.343922e-001 5.458199e-001 5.424724e-001 4.376534e-001 4.562853e-001
<GCONST> 1.241684e+002
<MIXTURE> 2 2.022056e-001
<MEAN> 39
 -3.927176e+000 -3.358582e-001 5.359268e+000 1.925317e+000 -3.092587e+000 -2.609024e+000 -6.547315e+000 -5.706191e+000 4.182560e-001 -1.871449e+000 -3.184987e+000 -3.272067e+000 6.363826e+001 -1.170987e+000 -1.933565e+000 4.375043e-001 -1.282325e+000 -1.356549e+000 -6.749251e-001 -6.509526e-001 5.139709e-001 1.877166e-001 -5.163231e-001 6.893154e-001 1.169432e+000 2.691020e+000 4.875532e-001 -4.262607e-001 -1.733597e-001 -9.438131e-001 -1.096249e+000 -2.129510e-001 -8.784717e-001 1.437729e-001 -2.156611e-001 2.907084e-001 3.672862e-001 -1.884977e-001 9.445926e-001
<VARIANCE> 39
 3.645551e+001 3.947800e+001 5.044133e+001 5.647803e+001 5.076579e+001 5.221484e+001 5.778429e+001 5.856413e+001 4.636156e+001 3.870476e+001 3.430506e+001 2.813841e+001 6.960333e+001 2.363999e+000 3.781321e+000 3.537704e+000 4.701873e+000 5.511375e+000 4.441353e+000 5.020734e+000 5.599936e+000 4.884734e+000 4.277409e+000 3.752071e+000 3.296828e+000 4.026118e+000 3.217403e-001 6.409494e-001 6.553199e-001 9.708626e-001 1.118428e+000 1.350703e+000 1.125316e+000 1.184044e+000 1.174495e+000 9.758191e-001 1.281284e+000 7.088773e-001 3.872554e-001
<GCONST> 1.377643e+002
<MIXTURE> 3 3.249669e-001
<MEAN> 39
 -6.437948e-001 7.270792e+000 6.964165e+000 1.725312e+000 -4.805726e+000 -7.272304e+000 -5.437519e+000 -3.902760e+000 -1.850938e+000 -4.785386e+000 -6.882708e+000 -6.571856e+000 5.756113e+001 -1.933576e+000 -1.947827e+000 1.572783e-001 -9.591026e-001 4.280698e-001 5.956207e-001 5.816040e-001 -9.593211e-002 -1.484693e-001 1.010025e-001 1.273105e+000 1.002100e+000 2.232072e+000 -2.334549e-001 -1.419908e+000 -2.459634e-001 -1.192808e+000 -1.157359e+000 -4.204018e-001 -7.918535e-001 1.727221e-001 -1.009310e-001 5.090839e-001 3.277786e-001 5.783445e-001 1.982030e+000
<VARIANCE> 39
 1.648224e+001 2.317364e+001 2.861551e+001 2.892402e+001 3.822169e+001 3.515202e+001 3.292632e+001 3.021012e+001 3.332586e+001 3.657396e+001 3.199715e+001 2.445944e+001 3.939601e+001 2.073037e+000 3.979919e+000 3.486580e+000 4.220840e+000 5.470810e+000 4.757788e+000 4.251111e+000 4.222623e+000 3.846464e+000 3.741265e+000 3.924865e+000 3.076049e+000 3.707845e+000 4.300418e-001 5.115077e-001 5.208097e-001 7.671819e-001 9.183658e-001 7.349447e-001 8.745083e-001 8.754831e-001 7.865216e-001 7.014247e-001 6.923091e-001 5.640879e-001 4.515010e-001
<GCONST> 1.278807e+002
<MIXTURE> 4 1.743342e-001
<MEAN> 39
 -2.859206e+000 -3.100215e+000 6.852697e+000 1.901584e-002 -8.600834e+000 -3.958387e+000 -8.983119e+000 -6.091734e+000 -2.229481e+000 -6.477231e+000 -5.132226e+000 -3.845610e+000 6.487041e+001 -1.309052e+000 -2.673391e+000 8.578596e-001 -1.293084e+000 -1.615566e+000 -6.006219e-001 -1.031250e+000 5.963649e-001 2.547169e-001 -8.209168e-002 1.348351e+000 1.170652e+000 3.014084e+000 3.985039e-001 -2.276285e-001 -5.317804e-001 -1.008345e+000 -4.677325e-001 -2.218045e-001 -7.511646e-001 1.929953e-001 -4.756233e-002 7.082178e-001 1.451091e-001 -5.844645e-002 7.451131e-001
<VARIANCE> 39
 3.484578e+001 6.148582e+001 8.163956e+001 8.266840e+001 7.610548e+001 6.742454e+001 6.571701e+001 5.643041e+001 5.396292e+001 4.348026e+001 4.044233e+001 3.686458e+001 4.426899e+001 2.657496e+000 5.673672e+000 4.981116e+000 6.619220e+000 7.221364e+000 5.615861e+000 6.781071e+000 7.537792e+000 6.188479e+000 5.368692e+000 4.716516e+000 3.915957e+000 3.892235e+000 3.769019e-001 9.999213e-001 8.771484e-001 1.294658e+000 1.468023e+000 1.653326e+000 1.561525e+000 1.215555e+000 1.215644e+000 9.424452e-001 1.166580e+000 9.563936e-001 4.075244e-001
<GCONST> 1.454343e+002
<STATE> 4
<NUMMIXES> 4
<MIXTURE> 1 2.249378e-001
<MEAN> 39
 -7.789899e+000 5.249041e-001 3.840188e+000 6.189268e-001 -2.621485e+000 -5.244761e+000 -2.603965e+000 -3.224492e+000 -5.056096e-001 -1.258479e+000 -9.916869e-001 -6.985989e-001 6.630457e+001 -1.676832e-001 -1.209784e+000 -4.071658e-002 -8.192955e-001 -1.560773e+000 -8.664376e-001 -1.007590e+000 -3.851607e-001 -1.393228e-002 2.890855e-002 4.400990e-001 2.656667e-001 2.552730e+000 7.412801e-001 1.918012e-001 2.375001e-001 -7.952341e-002 -6.148056e-001 4.357219e-002 -8.098398e-001 -1.410582e-001 -1.093112e-002 1.396184e-001 2.613288e-002 -4.738703e-001 -1.067130e-001
<VARIANCE> 39
 4.457084e+001 4.231687e+001 4.152052e+001 5.294657e+001 4.210957e+001 4.953570e+001 4.777090e+001 3.911143e+001 3.574571e+001 2.799420e+001 2.709761e+001 2.391083e+001 7.460011e+001 3.785728e+000 4.300793e+000 3.381553e+000 3.731135e+000 5.270154e+000 4.325803e+000 5.586600e+000 4.458443e+000 4.508095e+000 3.123416e+000 2.810602e+000 2.710030e+000 4.537682e+000 5.053486e-001 8.676385e-001 5.880984e-001 8.763562e-001 8.868839e-001 9.923561e-001 9.079068e-001 7.868244e-001 7.542214e-001 6.494131e-001 6.461487e-001 5.087323e-001 7.872524e-001
<GCONST> 1.336226e+002
<MIXTURE> 2 2.863062e-001
<MEAN> 39
 -1.486702e+000 -5.308791e+000 6.537535e+000 -1.815150e+000 -1.274506e+001 -7.326034e+000 -1.554187e+001 -4.977262e+000 3.189339e+000 -1.274848e+000 -7.923643e-001 -2.435032e+000 7.265716e+001 1.425730e+000 -7.415714e-001 -6.588038e-001 -1.648326e+000 -1.751759e+000 1.016467e-001 -2.949090e+000 3.180840e-001 3.064921e-001 1.100424e+000 1.121397e+000 -1.146943e+000 1.421610e+000 2.332566e-001 8.520762e-001 -3.563881e-001 4.352334e-002 8.252572e-001 5.940974e-001 6.828908e-001 -4.410361e-003 -5.628626e-001 2.217775e-001 -5.941759e-002 -4.755253e-001 -1.035410e+000
<VARIANCE> 39
 2.231439e+001 3.613601e+001 4.077778e+001 4.967181e+001 5.408362e+001 4.650078e+001 5.363777e+001 6.253969e+001 3.892756e+001 3.657287e+001 3.705490e+001 2.861697e+001 4.285933e+001 1.879493e+000 4.694071e+000 3.592880e+000 5.291217e+000 6.266392e+000 5.387513e+000 6.431216e+000 6.065681e+000 5.636122e+000 4.869607e+000 5.540103e+000 3.899437e+000 3.102711e+000 3.143901e-001 4.699036e-001 3.656649e-001 6.969923e-001 7.819941e-001 7.384332e-001 8.596435e-001 7.660772e-001 7.273536e-001 6.206250e-001 6.106415e-001 5.380746e-001 3.520701e-001
<GCONST> 1.325409e+002
<MIXTURE> 3 2.823091e-001
<MEAN> 39
 -9.297977e+000 -2.877933e+000 6.293055e+000 -3.615827e+000 -3.888810e+000 -5.656236e+000 -3.175385e+000 -4.572809e+000 -1.953989e+000 -3.441558e+000 -1.053864e+000 -1.991938e+000 7.024786e+001 -2.641045e-001 -2.450253e+000 -8.787078e-002 -2.336060e+000 -2.652515e+000 -1.375444e+000 -1.625765e+000 6.667218e-002 -2.888921e-001 6.996983e-001 5.926344e-001 9.702405e-001 4.081455e+000 1.096217e+000 2.966330e-001 -1.237707e-001 -1.312270e-001 -8.780459e-001 -1.903285e-001 -8.865210e-001 2.161163e-001 -7.824215e-002 3.387702e-001 -4.514585e-001 -2.522881e-001 -3.408709e-001
<VARIANCE> 39
 2.751571e+001 4.115384e+001 3.613487e+001 5.378048e+001 5.123167e+001 5.990899e+001 4.748414e+001 4.353790e+001 4.260164e+001 3.251990e+001 3.399031e+001 2.570152e+001 5.026445e+001 2.753324e+000 3.590116e+000 3.539349e+000 4.139830e+000 5.405408e+000 4.731321e+000 5.387014e+000 6.079959e+000 5.305902e+000 4.366491e+000 4.165992e+000 3.401595e+000 3.224000e+000 4.033966e-001 9.674949e-001 7.926530e-001 1.171806e+000 1.222509e+000 1.376159e+000 1.113210e+000 1.027017e+000 9.942447e-001 9.251949e-001 1.220552e+000 7.951535e-001 6.532152e-001
<GCONST> 1.376393e+002
<MIXTURE> 4 2.064151e-001
<MEAN> 39
 -3.668441e+000 -6.553382e+000 6.466476e+000 -8.451541e+000 -1.431440e+001 -1.085260e+001 -1.179620e+001 -3.559730e-001 -1.489185e+000 -3.596565e+000 -2.912116e+000 3.603281e-001 7.501094e+001 9.965352e-001 -1.886033e+000 -1.129630e+000 -2.402337e+000 -2.353154e+000 -1.670551e+000 -1.785744e+000 1.926170e+000 -3.592367e-001 1.425671e+000 -9.886019e-001 4.577281e-001 2.531276e+000 5.071589e-001 8.798544e-001 -5.403538e-001 3.997912e-001 8.589270e-001 3.950355e-001 3.089839e-001 -3.476915e-001 -1.594169e-001 2.154692e-001 -6.882455e-001 -7.588525e-001 -1.161848e+000
<VARIANCE> 39
 1.799897e+001 3.224400e+001 3.704417e+001 5.148341e+001 5.177662e+001 5.674564e+001 6.478105e+001 4.557298e+001 4.079407e+001 3.889489e+001 3.735234e+001 2.541598e+001 2.735392e+001 2.277012e+000 4.124437e+000 4.392576e+000 4.938593e+000 7.491036e+000 6.139308e+000 7.691683e+000 5.608625e+000 5.333110e+000 5.128129e+000 6.229981e+000 4.314172e+000 3.476089e+000 3.142896e-001 5.279856e-001 5.593266e-001 8.653101e-001 9.660761e-001 1.079312e+000 9.770666e-001 8.898594e-001 7.936332e-001 9.804745e-001 8.488016e-001 6.116505e-001 4.059522e-001
<GCONST> 1.354318e+002
<TRANSP> 5
 0.000000e+000 1.000000e+000 0.000000e+000 0.000000e+000 0.000000e+000
 0.000000e+000 4.992260e-001 5.007739e-001 0.000000e+000 0.000000e+000
 0.000000e+000 0.000000e+000 3.911898e-001 6.088101e-001 0.000000e+000
 0.000000e+000 0.000000e+000 0.000000e+000 5.457514e-001 4.542486e-001
 0.000000e+000 0.000000e+000 0.000000e+000 0.000000e+000 0.000000e+000
<ENDHMM>
~h "e"
<BEGINHMM>
<NUMSTATES> 5
<STATE> 2
<NUMMIXES> 4
<MIXTURE> 1 2.840780e-001
<MEAN> 39
 -1.146185e+000 -7.618857e+000 5.954641e+000 -5.110053e+000 -1.532874e+001 -7.469296e+000 -1.232206e+001 3.759527e+000 8.847535e-001 -1.082011e+000 -9.866065e-001 -4.787494e+000 7.509686e+001 2.643992e-001 -8.509007e-001 -3.413095e-002 -2.420897e-001 -4.219086e-001 -7.016215e-002 -2.462295e-001 1.400499e+000 1.005220e-001 -2.057548e-002 -3.695529e-001 -1.597218e-001 3.729637e-001 -5.173214e-001 9.337783e-001 -9.361797e-002 4.727878e-001 9.871047e-001 1.801624e-001 7.586001e-001 -7.401827e-001 -1.835745e-001 5.940976e-002 -6.935119e-003 2.308414e-001 -8.062384e-001
<VARIANCE> 39
 1.629527e+001 3.301368e+001 6.069964e+001 5.220795e+001 6.155521e+001 4.860739e+001 5.704617e+001 4.430461e+001 6.396741e+001 5.366841e+001 6.005316e+001 3.617456e+001 4.212213e+001 8.002914e-001 1.677356e+000 2.387648e+000 1.749724e+000 3.137630e+000 2.692667e+000 2.802008e+000 2.753764e+000 3.077138e+000 2.677655e+000 2.640492e+000 2.040000e+000 7.240599e-001 3.862085e-001 3.578415e-001 4.117846e-001 4.137034e-001 6.939029e-001 5.615150e-001 7.560364e-001 6.883628e-001 8.139229e-001 6.562604e-001 6.759073e-001 5.030115e-001 2.206543e-001
<GCONST> 1.222401e+002
<MIXTURE> 2 2.181522e-001
<MEAN> 39
 -2.485863e+000 -4.122028e+000 4.217046e+000 -4.902550e+000 -1.121008e+001 -1.147602e+001 -1.022990e+001 -2.432954e-001 1.565144e+000 1.881771e-001 -3.418599e+000 -3.466026e+000 7.428506e+001 2.977341e+000 -2.046923e+000 4.786791e-001 -1.047395e+000 -2.281063e+000 -4.848953e-001 -2.549833e+000 6.192377e-001 -1.031531e-001 5.753342e-001 -1.047102e-001 -9.634576e-001 1.368185e+000 -1.414041e+000 3.749422e-001 -2.416931e-001 2.070587e-001 8.281459e-001 6.913956e-001 9.449121e-001 1.317861e-001 1.419373e-001 4.465311e-002 4.494645e-001 3.876989e-001 -6.583243e-001
<VARIANCE> 39
 1.367429e+001 3.532664e+001 5.208105e+001 5.436026e+001 5.951091e+001 3.585096e+001 4.927563e+001 3.700370e+001 4.871497e+001 4.018598e+001 4.647914e+001 2.918256e+001 4.496230e+001 2.592596e+000 2.713308e+000 3.154922e+000 2.620614e+000 3.584656e+000 3.539612e+000 4.578662e+000 4.459037e+000 3.699123e+000 3.675036e+000 3.709512e+000 2.794957e+000 1.081118e+000 3.754222e-001 5.656361e-001 4.458497e-001 5.443458e-001 7.339667e-001 5.351255e-001 6.144379e-001 5.884665e-001 6.768312e-001 5.880287e-001 6.238706e-001 4.435385e-001 3.495826e-001
<GCONST> 1.260499e+002
<MIXTURE> 3 3.222941e-001
<MEAN> 39
 -3.701439e+000 -8.263068e+000 5.201702e+000 -1.328745e+001 -1.445020e+001 -9.568827e+000 -7.397376e+000 3.343906e+000 -5.461577e+000 -1.779248e+000 -6.974652e+000 -2.345161e+000 7.577204e+001 7.379063e-002 -9.313574e-001 -3.835301e-001 -2.078315e-001 -1.114943e-001 -3.301632e-001 5.948541e-001 1.362451e+000 -1.680269e-001 -3.079453e-001 -7.378283e-001 3.634990e-001 4.852232e-001 -7.157928e-002 7.573864e-001 1.294495e-002 6.839585e-001 5.657461e-001 2.024559e-001 4.378641e-004 -7.381436e-001 1.627625e-001 1.460705e-002 2.731766e-001 -1.304916e-001 -7.339146e-001
<VARIANCE> 39
 1.926584e+001 4.990330e+001 7.008601e+001 5.753179e+001 6.659454e+001 6.567534e+001 7.898438e+001 6.076251e+001 6.573337e+001 5.681812e+001 6.008242e+001 3.387176e+001 4.014935e+001 8.482180e-001 1.780446e+000 2.683027e+000 3.037522e+000 3.549863e+000 3.386513e+000 3.490893e+000 2.970876e+000 3.699687e+000 3.480253e+000 2.901934e+000 2.367998e+000 8.750564e-001 2.823813e-001 3.348617e-001 4.490068e-001 5.690849e-001 6.994561e-001 7.187828e-001 7.591628e-001 7.350665e-001 7.596683e-001 7.572662e-001 6.919701e-001 4.462785e-001 2.278393e-001
<GCONST> 1.267279e+002
<MIXTURE> 4 1.754158e-001
<MEAN> 39
 -4.932383e+000 -2.021029e+000 1.815637e+000 -9.612138e+000 -1.163873e+001 -1.442456e+001 -5.394327e+000 -1.906268e+000 -2.707387e+000 -3.785418e+000 -6.589310e+000 -1.752941e-001 7.409351e+001 3.675832e+000 -1.963032e+000 1.923163e-001 -2.656120e+000 -2.303085e+000 -2.467440e+000 -2.190142e+000 2.879046e-001 -1.534537e+000 -9.413270e-002 -2.679077e+000 -5.609115e-001 1.913403e+000 -1.071679e+000 -3.683947e-002 -1.287830e-001 4.254421e-001 7.143368e-001 1.022064e+000 5.195792e-001 4.687854e-001 4.429713e-001 4.612848e-001 6.312897e-001 6.557916e-002 -4.648869e-001
<VARIANCE> 39
 1.589146e+001 3.449447e+001 5.346463e+001 4.853557e+001 4.843839e+001 4.828460e+001 5.635608e+001 4.255120e+001 3.715206e+001 3.479593e+001 3.389091e+001 2.562140e+001 3.777911e+001 3.377129e+000 3.045180e+000 3.608969e+000 3.728829e+000 5.239474e+000 6.456666e+000 6.749244e+000 5.659667e+000 4.796284e+000 4.623853e+000 5.174774e+000 3.209566e+000 2.158915e+000 4.030324e-001 4.903423e-001 3.948887e-001 6.306226e-001 7.272360e-001 6.684597e-001 5.817185e-001 6.648931e-001 5.935500e-001 5.814559e-001 6.088277e-001 4.054036e-001 6.286126e-001
<GCONST> 1.301107e+002
<STATE> 3
<NUMMIXES> 4
<MIXTURE> 1 2.423936e-001
<MEAN> 39
 -1.640690e+000 -6.081409e+000 6.021886e+000 -5.993097e+000 -1.379770e+001 -1.023088e+001 -1.102534e+001 1.957697e+000 -1.228495e+000 -8.148241e-002 -3.355831e+000 -3.092009e+000 7.439497e+001 -1.096720e-001 1.347555e+000 4.010760e-003 9.253072e-001 1.191200e+000 -1.458952e-002 6.655469e-001 -5.908286e-001 9.059472e-002 2.035454e-001 -1.764158e-002 1.851928e-001 -1.338577e+000 -9.582987e-001 1.048322e+000 -1.711812e-001 6.246068e-001 1.080751e+000 4.794988e-001 1.030253e+000 -4.194603e-001 2.817515e-001 -6.156354e-002 3.748956e-001 2.097424e-001 -9.456661e-001
<VARIANCE> 39
 1.519059e+001 3.565667e+001 5.763414e+001 5.850956e+001 6.226958e+001 5.083514e+001 6.116419e+001 5.249374e+001 6.906995e+001 4.713560e+001 6.505680e+001 3.705239e+001 3.989856e+001 1.312500e+000 2.411761e+000 2.568425e+000 2.432618e+000 3.630636e+000 2.758874e+000 3.329181e+000 3.064257e+000 3.512443e+000 2.968160e+000 2.958559e+000 2.116803e+000 1.811211e+000 6.624379e-001 5.097975e-001 5.089838e-001 6.498344e-001 7.629771e-001 8.116496e-001 8.443797e-001 9.407218e-001 1.096452e+000 7.192926e-001 9.863274e-001 6.066570e-001 3.692351e-001
<GCONST> 1.295270e+002
<MIXTURE> 2 2.442449e-001
<MEAN> 39
 -1.736752e+000 -6.853477e+000 3.218882e+000 -6.924149e+000 -1.236800e+001 -8.380708e+000 -7.952138e+000 4.955616e+000 -2.272112e-001 -9.940177e-001 -5.483631e+000 -3.398324e+000 7.418804e+001 7.811391e-002 2.571827e-001 -9.506921e-002 3.619110e-001 4.037771e-001 7.742831e-002 1.038127e-001 1.450215e-002 1.295938e-002 -1.793431e-001 -1.334880e-001 5.584169e-002 -4.600295e-001 -7.953516e-002 4.924583e-001 1.341986e-001 3.300464e-001 3.336170e-001 1.111077e-001 7.429852e-003 -5.764408e-001 -5.930992e-002 3.854257e-002 2.434925e-001 -1.076866e-002 -4.622773e-001
<VARIANCE> 39
 1.475084e+001 3.199117e+001 5.033044e+001 5.619787e+001 6.370927e+001 5.862514e+001 7.067392e+001 4.632503e+001 6.232855e+001 5.097829e+001 6.307927e+001 3.815915e+001 4.303745e+001 3.171990e-001 9.122298e-001 1.369983e+000 1.122148e+000 1.868439e+000 1.613720e+000 1.831696e+000 1.736364e+000 1.902261e+000 1.753048e+000 1.700454e+000 1.330954e+000 3.996486e-001 1.092508e-001 1.763883e-001 2.012172e-001 2.539984e-001 3.168863e-001 3.706771e-001 3.836202e-001 4.108186e-001 4.056192e-001 3.546406e-001 3.764375e-001 2.760833e-001 1.121838e-001
<GCONST> 1.069644e+002
<MIXTURE> 3 2.281999e-001
<MEAN> 39
 -3.890093e+000 -9.425632e+000 3.199133e+000 -1.323938e+001 -1.209866e+001 -1.243233e+001 -2.821207e+000 2.619056e+000 -4.243040e+000 -3.292137e+000 -8.375708e+000 -1.944897e+000 7.652859e+001 4.040398e-002 1.200843e-001 -5.582319e-002 2.084125e-001 1.189592e-001 1.517913e-002 1.243218e-001 -1.025364e-001 -8.041433e-002 -2.102949e-001 -5.011014e-002 -4.928226e-002 -2.617193e-001 8.616136e-002 4.310708e-001 1.055963e-001 3.522264e-001 1.420194e-001 8.821725e-002 -3.705406e-001 -3.540606e-001 8.143499e-002 1.107964e-001 1.735126e-001 -9.163735e-002 -4.033200e-001
<VARIANCE> 39
 1.347072e+001 4.071396e+001 5.267939e+001 4.613762e+001 5.286911e+001 1.005965e+002 9.591695e+001 5.906694e+001 6.008880e+001 4.643522e+001 4.700109e+001 3.151514e+001 4.015117e+001 3.433144e-001 9.193217e-001 1.303580e+000 1.042701e+000 1.727563e+000 1.475285e+000 1.995660e+000 1.642489e+000 1.804644e+000 1.722737e+000 1.432702e+000 1.245275e+000 3.669791e-001 8.189749e-002 1.642627e-001 1.828907e-001 2.436868e-001 2.619210e-001 3.641463e-001 3.531820e-001 3.615019e-001 3.307810e-001 3.301098e-001 2.811104e-001 2.339097e-001 9.687909e-002
<GCONST> 1.048174e+002
<MIXTURE> 4 2.850874e-001
<MEAN> 39
 -3.401415e+000 -8.559178e+000 5.554142e+000 -1.327009e+001 -1.422244e+001 -1.179585e+001 -7.057425e+000 3.792462e+000 -6.135134e+000 -2.294466e+000 -7.510499e+000 -1.061462e+000 7.641291e+001 4.542215e-001 1.175624e+000 5.992309e-003 1.297006e+000 8.126974e-001 1.245896e-002 -3.006665e-001 -9.062179e-001 3.234375e-001 -1.604092e-002 1.253825e-001 -2.948864e-001 -1.472489e+000 -1.299682e-001 9.817412e-001 -6.330720e-002 8.858080e-001 5.876555e-001 3.726935e-001 1.169128e-001 -7.929756e-001 3.402160e-001 4.947259e-002 3.990430e-001 -3.076223e-001 -9.569082e-001
<VARIANCE> 39
 1.566508e+001 4.053241e+001 5.976303e+001 5.313963e+001 5.697378e+001 6.818591e+001 7.779276e+001 5.863686e+001 6.052295e+001 5.206356e+001 5.528349e+001 3.485442e+001 2.761530e+001 1.016577e+000 2.243285e+000 3.224648e+000 3.349924e+000 3.921305e+000 3.394078e+000 3.785428e+000 3.331500e+000 4.418294e+000 3.802851e+000 3.169924e+000 2.594958e+000 1.496825e+000 3.117270e-001 3.548449e-001 4.933138e-001 5.952270e-001 6.620027e-001 9.337356e-001 8.262864e-001 9.133077e-001 8.425977e-001 8.124470e-001 7.444300e-001 5.275555e-001 2.559029e-001
<GCONST> 1.286149e+002
<STATE> 4
<NUMMIXES> 4
<MIXTURE> 1 2.269003e-001
<MEAN> 39
 -2.664676e+000 -8.565366e-001 5.049546e+000 -4.573455e+000 -9.638576e+000 -1.186752e+001 -5.747786e+000 2.079152e-001 -1.929069e+000 -1.347173e+000 -5.421341e+000 -1.555475e+000 6.952079e+001 -1.670627e+000 2.755512e+000 -8.238634e-002 2.393256e+000 2.600231e+000 9.031752e-001 1.932956e+000 -3.283959e-001 1.554586e+000 1.200247e-001 1.253734e+000 4.226241e-001 -3.023261e+000 -8.612330e-001 -6.360748e-002 -2.313487e-001 -3.915725e-002 2.701568e-001 5.568760e-001 4.453906e-001 2.512800e-001 3.746025e-001 2.127214e-001 5.677249e-001 1.581849e-001 -2.030752e-001
<VARIANCE> 39
 1.401273e+001 2.953521e+001 4.015131e+001 4.677344e+001 5.359485e+001 4.625764e+001 6.218636e+001 4.890174e+001 5.300935e+001 4.990368e+001 4.877231e+001 3.295340e+001 4.821260e+001 2.408379e+000 2.365916e+000 2.396077e+000 3.564161e+000 3.098774e+000 3.974942e+000 4.046395e+000 3.704423e+000 4.375438e+000 3.463807e+000 4.253809e+000 2.928201e+000 4.041347e+000 4.901591e-001 5.180176e-001 4.006237e-001 5.299833e-001 6.877248e-001 6.022110e-001 6.147493e-001 7.180475e-001 6.839657e-001 7.252556e-001 6.193761e-001 5.102006e-001 4.072462e-001
<GCONST> 1.285841e+002
<MIXTURE> 2 2.826221e-001
<MEAN> 39
 -1.811742e-001 -5.223974e+000 2.751304e+000 -3.143202e+000 -1.064638e+001 -6.192173e+000 -1.224850e+001 1.885184e+000 2.713826e+000 -2.847357e-001 -1.888676e+000 -6.248501e+000 7.072012e+001 1.739424e-001 1.791628e+000 -1.381565e-001 1.320398e+000 1.430797e+000 5.683510e-001 8.547062e-001 -1.893766e+000 -7.190889e-001 3.422251e-001 4.443610e-001 -4.580582e-002 -2.125278e+000 -2.476274e-001 3.447181e-001 1.453701e-001 1.041535e-001 8.368473e-002 1.983169e-002 5.210314e-001 -2.610044e-001 -4.125443e-001 -2.106977e-002 3.948979e-002 2.717941e-001 -2.489684e-001
<VARIANCE> 39
 1.804226e+001 3.076442e+001 4.545444e+001 5.118999e+001 5.767558e+001 4.889460e+001 5.851381e+001 5.116962e+001 5.211605e+001 6.201963e+001 5.402318e+001 3.257800e+001 4.960003e+001 7.981841e-001 1.771631e+000 2.279318e+000 2.611132e+000 3.177959e+000 3.155117e+000 3.330434e+000 4.065688e+000 4.289954e+000 3.113690e+000 3.286748e+000 2.527150e+000 1.521162e+000 1.336639e-001 2.370448e-001 3.074515e-001 3.089702e-001 4.710270e-001 4.502218e-001 4.674981e-001 5.756739e-001 6.034425e-001 5.585593e-001 4.536393e-001 3.751188e-001 1.830056e-001
<GCONST> 1.200990e+002
<MIXTURE> 3 2.477162e-001
<MEAN> 39
 -2.069232e+000 -6.923892e+000 3.444154e+000 -1.004899e+001 -1.186484e+001 -7.812119e+000 -1.019940e+001 2.239588e+000 -3.243602e+000 -3.582390e+000 -6.399112e+000 -3.973561e+000 7.196588e+001 4.982136e-001 1.422680e+000 -6.492487e-002 1.203817e+000 6.696302e-001 1.783381e-001 -2.894699e-001 -1.721907e+000 5.324493e-004 4.747911e-001 9.162088e-002 -6.039029e-001 -1.697773e+000 -5.489408e-002 2.662435e-001 9.671230e-002 1.457906e-001 -1.665682e-002 5.878200e-004 1.849320e-001 -3.805997e-001 -1.712722e-001 1.786479e-001 1.037721e-001 -1.146538e-002 -1.831829e-001
<VARIANCE> 39
 2.307743e+001 5.190847e+001 7.205534e+001 6.274473e+001 7.041705e+001 6.829459e+001 8.244248e+001 5.709689e+001 7.312894e+001 6.298899e+001 6.825024e+001 3.755533e+001 5.365871e+001 9.738792e-001 2.015497e+000 3.087120e+000 3.396033e+000 3.765617e+000 4.343860e+000 3.957384e+000 3.848895e+000 3.911290e+000 3.846292e+000 3.673791e+000 2.958098e+000 1.360215e+000 1.225272e-001 2.388655e-001 3.735607e-001 3.744372e-001 4.982192e-001 5.257380e-001 5.179149e-001 5.605921e-001 6.211879e-001 6.085812e-001 5.492819e-001 3.883495e-001 1.400431e-001
<GCONST> 1.257725e+002
<MIXTURE> 4 2.426925e-001
<MEAN> 39
 -3.658158e+000 -7.146586e-001 7.393297e+000 -5.501162e+000 -1.165153e+001 -1.180660e+001 -5.988693e+000 -1.429968e+000 -4.387110e+000 -6.052034e-001 -4.456315e+000 -9.592758e-001 6.879045e+001 -5.569684e-001 2.328220e+000 -4.035333e-001 2.075049e+000 1.739526e+000 7.006756e-001 1.163493e+000 -8.057440e-001 8.233833e-001 -4.313754e-001 4.243004e-001 -2.208904e-001 -2.880625e+000 -3.303229e-001 -2.130407e-001 -3.099720e-001 -9.872174e-002 1.411458e-001 3.710468e-001 7.175369e-002 2.221447e-001 2.609875e-001 -3.493365e-002 1.959036e-001 -9.515576e-002 -7.870913e-003
<VARIANCE> 39
 1.696576e+001 3.460449e+001 6.038962e+001 6.186834e+001 6.334760e+001 6.161511e+001 7.356524e+001 6.298414e+001 6.680363e+001 5.091901e+001 5.291837e+001 3.563332e+001 5.236404e+001 2.106972e+000 2.467212e+000 3.041516e+000 3.466661e+000 4.045618e+000 4.017140e+000 4.457405e+000 4.313897e+000 3.856425e+000 3.355527e+000 3.321510e+000 2.991227e+000 2.762152e+000 3.956476e-001 4.384681e-001 5.119603e-001 6.640455e-001 7.438096e-001 6.974882e-001 7.085530e-001 7.428135e-001 8.250502e-001 6.328113e-001 5.970986e-001 5.177776e-001 4.433695e-001
<GCONST> 1.314762e+002
<TRANSP> 5
 0.000000e+000 1.000000e+000 0.000000e+000 0.000000e+000 0.000000e+000
 0.000000e+000 4.515540e-001 5.484460e-001 0.000000e+000 0.000000e+000
 0.000000e+000 0.000000e+000 5.059081e-001 4.940919e-001 0.000000e+000
 0.000000e+000 0.000000e+000 0.000000e+000 4.067370e-001 5.932630e-001
 0.000000e+000 0.000000e+000 0.000000e+000 0.000000e+000 0.000000e+000
<ENDHMM>
~h "f"
<BEGINHMM>
<NUMSTATES> 5
<STATE> 2
<NUMMIXES> 4
<MIXTURE> 1 2.088962e-001
<MEAN> 39
 -5.759195e+000 6.069094e-001 2.495351e+000 -2.285279e+000 -1.438268e+000 -4.080086e+000 -1.057168e+000 -1.858978e+000 -1.894839e+000 -3.631955e+000 -3.550518e+000 -2.746789e+000 6.741595e+001 -4.222192e+000 7.285895e-001 1.903264e-001 3.111119e+000 2.452664e+000 1.131180e+000 2.177787e+000 1.573949e+000 2.448491e+000 8.008917e-001 2.060892e+000 1.133433e+000 -1.095522e+000 -6.111827e-001 -7.164564e-001 -4.087934e-001 -5.987752e-001 -5.306795e-001 -4.832154e-002 -1.638396e-001 3.688378e-001 2.502874e-001 5.475937e-001 1.620027e-001 2.787970e-001 3.849943e-001
<VARIANCE> 39
 2.526254e+001 1.324934e+001 3.370736e+001 3.034719e+001 3.523738e+001 4.161833e+001 4.052910e+001 3.390104e+001 3.214747e+001 3.103956e+001 3.147805e+001 2.297165e+001 3.233661e+001 1.378595e+000 3.399422e+000 3.967462e+000 4.495368e+000 3.764634e+000 5.735889e+000 4.822409e+000 4.070982e+000 4.374347e+000 3.996171e+000 5.378488e+000 3.430545e+000 1.320481e+000 3.857044e-001 2.915550e-001 3.104441e-001 5.799872e-001 4.074251e-001 5.183437e-001 6.068261e-001 5.191469e-001 5.393122e-001 5.336894e-001 4.923047e-001 4.007719e-001 1.708118e-001
<GCONST> 1.211865e+002
<MIXTURE> 2 3.198604e-001
<MEAN> 39
 -1.468693e+001 -7.263427e-001 1.845598e+000 1.962513e+000 1.671608e+000 -1.032861e+000 3.316321e+000 3.582153e+000 4.798358e+000 1.784040e+000 2.191427e+000 1.275709e+000 6.429896e+001 -3.084671e+000 -7.821975e-001 -6.273355e-001 7.066098e-001 4.561261e-001 4.742158e-001 7.774444e-001 1.330443e+000 1.684526e+000 1.091922e+000 1.250204e+000 1.122405e+000 -4.892209e-002 5.821322e-001 -2.712198e-001 -1.400715e-001 -7.924140e-001 -6.230010e-001 -2.719118e-001 -5.073115e-001 -3.865341e-001 -5.114617e-001 -6.088858e-002 -2.918375e-001 -2.257585e-001 2.938279e-001
<VARIANCE> 39
 1.997995e+001 1.604689e+001 2.424229e+001 2.185419e+001 2.374685e+001 2.338518e+001 2.346668e+001 2.262302e+001 2.344884e+001 2.059874e+001 1.973034e+001 1.746112e+001 5.610257e+001 2.910638e+000 2.048736e+000 2.425506e+000 2.580025e+000 2.935227e+000 3.385857e+000 3.054147e+000 3.308724e+000 2.826226e+000 2.648298e+000 2.877004e+000 2.235511e+000 2.141538e+000 4.314490e-001 4.812469e-001 4.320377e-001 5.468339e-001 4.773795e-001 5.764670e-001 5.840208e-001 5.268970e-001 5.224107e-001 4.747888e-001 5.542209e-001 3.976218e-001 3.899090e-001
<GCONST> 1.158957e+002
<MIXTURE> 3 2.525804e-001
<MEAN> 39
 -1.377876e+001 -9.973099e-001 6.132448e-001 2.662623e+000 -1.371937e+000 -4.266325e+000 -2.187295e+000 -2.363728e-001 1.685118e+000 2.916189e-001 -1.048039e+000 -3.192133e-001 6.748849e+001 -3.316121e+000 -1.258855e+000 -1.403858e+000 7.209861e-001 8.248527e-001 -3.060718e-001 5.935540e-002 6.176198e-001 1.511968e+000 5.234262e-001 2.678119e-001 5.470260e-001 2.558790e-001 6.049337e-001 -1.248443e-001 8.742542e-002 -7.917486e-001 -7.320204e-001 1.633587e-001 -4.144066e-001 -2.727366e-001 -5.722709e-001 6.436823e-002 3.141884e-002 -2.022005e-001 9.147972e-002
<VARIANCE> 39
 2.168606e+001 2.349050e+001 4.463237e+001 4.466795e+001 3.308768e+001 3.969637e+001 3.622206e+001 3.032503e+001 3.158623e+001 2.966566e+001 2.707230e+001 2.040282e+001 6.092177e+001 2.352080e+000 2.157379e+000 3.470239e+000 2.749530e+000 3.659848e+000 3.931545e+000 2.955078e+000 4.079672e+000 3.795395e+000 3.190969e+000 2.781527e+000 2.337377e+000 1.354471e+000 3.299151e-001 5.120212e-001 4.679593e-001 6.701388e-001 6.890664e-001 6.173356e-001 6.698651e-001 6.811007e-001 6.125227e-001 6.109581e-001 6.321846e-001 4.880881e-001 2.859378e-001
<GCONST> 1.226740e+002
<MIXTURE> 4 2.186603e-001
<MEAN> 39
 -5.920130e+000 1.769638e+000 -6.354817e-001 -1.405622e+000 -1.499521e+000 -1.321658e+000 -2.681369e+000 -2.110401e+000 5.478919e-002 1.467251e-001 -2.269528e+000 -2.732170e+000 6.739336e+001 -4.183662e+000 3.522971e-001 -2.548476e-001 2.399999e+000 1.412096e+000 -6.189061e-001 1.815581e+000 8.136930e-001 1.513769e+000 -1.503254e-001 7.622280e-001 8.970244e-001 -7.321880e-001 -3.273073e-001 -7.886326e-001 -1.424358e-001 -5.597342e-001 -6.083652e-001 -2.035686e-001 -5.656219e-001 1.513088e-001 -7.154617e-002 1.458457e-001 2.637307e-002 4.730827e-002 4.629554e-001
<VARIANCE> 39
 2.464367e+001 2.088094e+001 3.521046e+001 4.232969e+001 4.161302e+001 4.781633e+001 3.790979e+001 3.365917e+001 3.317588e+001 3.505586e+001 2.899122e+001 2.218651e+001 4.616764e+001 1.806299e+000 2.778636e+000 2.556507e+000 4.712587e+000 4.867069e+000 4.895300e+000 3.784802e+000 4.553115e+000 3.889232e+000 3.745646e+000 4.132808e+000 2.980434e+000 1.192198e+000 3.242008e-001 2.913989e-001 3.159727e-001 5.678843e-001 5.110769e-001 4.960601e-001 5.106124e-001 5.051079e-001 4.793378e-001 5.449726e-001 4.048713e-001 4.011707e-001 1.391541e-001
<GCONST> 1.208806e+002
<STATE> 3
<NUMMIXES> 4
<MIXTURE> 1 2.594641e-001
<MEAN> 39
 -1.855099e+001 -3.183824e+000 -1.370232e+000 1.594001e+000 1.240428e+000 6.745233e-003 3.430884e+000 4.321022e+000 6.504754e+000 4.332287e+000 4.025718e+000 3.142277e+000 6.498604e+001 -4.092372e-001 -2.292409e-001 -1.577596e-001 -4.976434e-002 1.015025e-001 3.021438e-001 2.378230e-001 2.772799e-001 3.000554e-001 3.777675e-001 3.431933e-001 2.559034e-001 -1.215783e-001 5.380195e-001 1.408154e-001 1.477545e-001 -8.167507e-002 -2.291473e-002 -1.311589e-001 -1.142034e-001 -1.985910e-001 -2.959298e-001 -2.664408e-001 -2.497153e-001 -1.903012e-001 -7.321113e-002
<VARIANCE> 39
 1.262805e+001 1.274816e+001 2.268694e+001 2.323458e+001 1.758208e+001 1.749420e+001 2.053693e+001 1.638945e+001 1.645630e+001 1.879364e+001 1.555049e+001 1.434852e+001 4.697140e+001 9.008499e-001 8.095283e-001 9.696079e-001 1.057762e+000 1.164456e+000 1.502543e+000 1.451487e+000 1.538138e+000 1.643503e+000 1.701794e+000 1.533403e+000 1.364437e+000 1.142777e+000 2.597031e-001 1.970546e-001 2.409495e-001 2.177546e-001 2.378780e-001 3.122835e-001 3.211704e-001 3.138695e-001 3.197664e-001 3.247381e-001 2.913011e-001 2.810985e-001 2.495491e-001
<GCONST> 9.556754e+001
<MIXTURE> 2 2.919755e-001
<MEAN> 39
 -1.744596e+001 -2.647982e+000 -2.558302e+000 9.226450e-001 -1.829249e+000 -3.622627e+000 -2.811151e+000 -1.218313e+000 9.166397e-001 1.581936e-001 -1.295816e+000 -6.374890e-001 6.841572e+001 -6.910574e-001 -3.736041e-001 -2.339649e-001 1.383798e-002 1.992401e-001 2.697488e-001 3.494268e-001 3.885415e-001 3.946956e-001 4.465548e-001 4.607252e-001 3.806067e-001 6.149902e-004 6.390293e-001 1.533064e-001 1.916591e-001 -1.581846e-001 1.109619e-002 1.327611e-001 1.372764e-001 1.279200e-001 3.740207e-002 1.262943e-001 9.635806e-002 4.493415e-002 -1.431926e-001
<VARIANCE> 39
 1.349876e+001 2.268706e+001 2.003494e+001 2.856345e+001 2.109173e+001 1.983700e+001 2.227158e+001 1.864548e+001 2.153895e+001 2.204305e+001 1.766377e+001 1.437598e+001 3.990458e+001 1.844482e+000 1.178000e+000 1.162042e+000 1.243276e+000 1.565563e+000 1.833754e+000 1.797264e+000 1.874881e+000 1.959213e+000 1.849981e+000 1.765368e+000 1.617663e+000 9.940060e-001 3.301621e-001 2.585217e-001 2.575747e-001 3.018536e-001 3.435506e-001 3.637082e-001 3.652860e-001 3.619496e-001 4.169542e-001 3.597572e-001 3.630415e-001 3.113844e-001 2.495819e-001
<GCONST> 1.023640e+002
<MIXTURE> 3 2.694899e-001
<MEAN> 39
 -1.921400e+001 -4.209088e+000 -8.195240e-001 1.226776e-001 2.720044e-001 -1.403322e+000 2.902753e+000 4.334350e+000 6.256723e+000 2.818635e+000 3.036502e+000 2.506092e+000 6.631194e+001 -2.673530e-001 -4.174863e-001 -3.749899e-001 -3.868391e-001 -1.719841e-001 -2.600160e-001 -1.727087e-001 -1.383164e-001 -1.406450e-001 -9.576634e-002 9.672140e-004 5.383035e-002 1.908144e-001 1.033005e+000 2.967739e-001 2.012374e-001 -3.533702e-001 -3.264864e-001 -2.813938e-001 -4.051202e-001 -5.569797e-001 -6.556199e-001 -3.324685e-001 -4.047159e-001 -4.086371e-001 2.387070e-002
<VARIANCE> 39
 1.089715e+001 1.348097e+001 1.690526e+001 1.679471e+001 1.879855e+001 1.712509e+001 2.127786e+001 1.993201e+001 1.888334e+001 1.811787e+001 1.992725e+001 1.784651e+001 3.801110e+001 2.987680e+000 1.026216e+000 1.434375e+000 1.342932e+000 1.604957e+000 1.778051e+000 1.880391e+000 1.998039e+000 2.050561e+000 2.023384e+000 1.870968e+000 1.841194e+000 1.421947e+000 3.571515e-001 2.704169e-001 3.494428e-001 4.125365e-001 4.236175e-001 4.095881e-001 4.592057e-001 4.899162e-001 4.960254e-001 4.224004e-001 4.705430e-001 4.010713e-001 2.650657e-001
<GCONST> 1.045712e+002
<MIXTURE> 4 1.790564e-001
<MEAN> 39
 -1.635990e+001 -2.364856e+000 -3.791885e+000 -2.819358e-001 -6.005403e+000 -6.673892e+000 -6.534231e+000 -2.921219e+000 -4.710413e-002 -9.369605e-001 -3.461823e+000 -1.013449e+000 6.186493e+001 -1.143662e+000 -5.682195e-001 -3.952717e-001 -1.342000e-001 -2.082747e-001 -2.344902e-001 -1.669375e-001 -1.632878e-001 -8.411141e-002 -6.198360e-002 -1.142766e-002 4.177999e-003 -1.548478e-001 6.100170e-001 2.049488e-002 2.724482e-001 -1.961264e-001 -8.145229e-002 2.538657e-001 8.159076e-002 1.137894e-001 -1.419866e-001 7.940610e-002 1.227413e-001 -4.066437e-002 1.039152e-001
<VARIANCE> 39
 2.941808e+001 4.075744e+001 4.642357e+001 4.341211e+001 4.580125e+001 4.810019e+001 5.060928e+001 3.469431e+001 3.716109e+001 3.616444e+001 3.189094e+001 2.758926e+001 8.984781e+001 2.736657e+000 1.859256e+000 2.072159e+000 1.834596e+000 2.474390e+000 2.533352e+000 2.686350e+000 2.744147e+000 2.444007e+000 2.247515e+000 2.129886e+000 1.894517e+000 1.702513e+000 4.477990e-001 4.319530e-001 3.967814e-001 4.113556e-001 5.915290e-001 5.735400e-001 6.463360e-001 6.006917e-001 5.952291e-001 5.334769e-001 4.808496e-001 4.376743e-001 3.650791e-001
<GCONST> 1.212548e+002
<STATE> 4
<NUMMIXES> 4
<MIXTURE> 1 3.348429e-001
<MEAN> 39
 -1.643193e+001 -1.699197e+000 -3.589556e-001 1.565072e+000 2.048512e+000 -7.861432e-002 2.069915e+000 3.120002e+000 5.034564e+000 4.495025e+000 3.812607e+000 2.834073e+000 6.326022e+001 1.248100e+000 1.255616e+000 6.295373e-001 3.091370e-001 6.624210e-001 6.502599e-001 4.384983e-001 1.706702e-001 4.360835e-002 2.432635e-001 3.946880e-001 1.633450e-001 -2.665959e+000 2.786211e-001 2.115322e-001 3.868388e-002 5.201038e-002 -5.528507e-002 -3.198556e-003 4.295141e-002 -5.845853e-003 -2.862290e-002 -1.413736e-001 -9.803534e-002 -8.513176e-002 -4.435433e-001
<VARIANCE> 39
 2.735666e+001 2.516693e+001 3.783574e+001 3.350607e+001 3.093538e+001 2.738963e+001 2.877456e+001 2.338286e+001 2.334127e+001 2.367365e+001 2.244298e+001 1.675580e+001 6.781133e+001 2.468917e+000 1.577364e+000 2.055112e+000 2.057049e+000 2.531565e+000 2.055992e+000 2.297300e+000 2.254795e+000 2.274015e+000 2.189349e+000 1.858438e+000 1.679248e+000 4.277134e+000 4.618741e-001 4.205445e-001 4.190473e-001 4.000447e-001 4.795038e-001 4.558901e-001 4.800279e-001 5.020030e-001 4.492459e-001 4.329598e-001 3.747995e-001 3.597566e-001 8.328891e-001
<GCONST> 1.151713e+002
<MIXTURE> 2 1.627139e-001
<MEAN> 39
 -1.333861e+001 -2.542426e+000 -1.637263e+000 1.027657e+000 4.996534e-001 -1.391703e+000 1.366397e+000 2.360520e+000 3.766308e+000 2.418347e+000 6.721020e-001 5.733286e-001 6.394893e+001 3.644591e+000 6.349531e-001 1.067647e+000 -1.015591e+000 -1.351647e+000 -3.756399e-001 -1.061281e+000 -7.216007e-001 -1.512117e+000 -7.721405e-001 -2.823907e-001 -1.094419e+000 6.414166e-001 7.020186e-001 -5.014252e-002 2.648670e-001 -5.818859e-001 -9.228799e-001 -2.441476e-001 -6.949898e-001 -4.168362e-001 -5.142359e-001 -1.619685e-001 8.475867e-002 -3.096403e-001 5.206711e-001
<VARIANCE> 39
 3.291005e+001 2.701736e+001 3.835077e+001 3.675812e+001 3.406672e+001 3.698409e+001 3.396032e+001 2.715068e+001 2.615938e+001 3.106103e+001 3.096049e+001 2.321460e+001 6.981007e+001 3.627754e+000 3.733625e+000 3.847270e+000 4.319296e+000 3.731984e+000 4.451824e+000 3.291966e+000 3.846836e+000 3.640312e+000 3.392851e+000 3.258546e+000 2.589292e+000 3.001773e+000 6.091502e-001 5.465296e-001 4.810666e-001 5.989926e-001 4.961256e-001 6.846173e-001 6.036325e-001 6.805449e-001 7.225369e-001 5.812135e-001 6.585479e-001 4.904517e-001 4.123462e-001
<GCONST> 1.265212e+002
<MIXTURE> 3 3.367468e-001
<MEAN> 39
 -1.662451e+001 -3.342888e+000 -9.634956e-001 -1.553457e+000 -2.708173e+000 -5.213818e+000 -3.009991e+000 1.643015e-003 2.092454e+000 9.196032e-001 4.081451e-001 -4.304681e-002 6.432360e+001 2.730316e-001 2.872621e-001 3.823568e-001 -4.237999e-001 -2.896412e-001 1.214873e-001 3.205858e-001 5.783390e-002 -3.217218e-001 3.839491e-003 2.678860e-001 -2.534068e-002 -3.230824e-001 3.371389e-001 2.506304e-001 1.803883e-001 2.392653e-002 -3.972979e-002 2.367054e-001 8.895104e-002 -9.374547e-002 -1.396170e-001 -4.143098e-002 -2.784203e-002 -7.209075e-002 -1.583652e-001
<VARIANCE> 39
 5.124783e+001 4.196623e+001 5.916764e+001 5.636909e+001 5.849752e+001 4.355510e+001 6.023777e+001 4.634827e+001 4.328864e+001 3.622637e+001 2.877422e+001 2.756356e+001 1.030631e+002 6.529051e+000 3.104059e+000 3.248096e+000 2.688468e+000 3.539567e+000 3.314348e+000 3.152516e+000 3.192230e+000 3.234240e+000 2.445359e+000 2.295379e+000 2.158779e+000 6.723599e+000 7.721091e-001 5.573809e-001 5.598664e-001 5.960891e-001 6.844267e-001 6.266195e-001 6.824641e-001 7.467162e-001 7.239583e-001 5.413557e-001 4.362399e-001 4.763307e-001 7.209595e-001
<GCONST> 1.311344e+002
<MIXTURE> 4 1.656975e-001
<MEAN> 39
 -1.501725e+001 -3.539748e+000 -3.018903e-001 -8.891492e-002 5.182799e-001 -1.506564e+000 2.713098e+000 2.528656e+000 3.824335e+000 9.883901e-001 1.429983e+000 1.604707e+000 6.552254e+001 4.775639e+000 5.034652e-001 -1.188811e-002 -2.759091e+000 -2.281748e+000 -1.716107e+000 -2.172398e+000 -2.109410e+000 -2.727907e+000 -9.081042e-001 -1.899758e+000 -1.501303e+000 8.887042e-001 7.194313e-001 -6.377472e-002 -1.396267e-001 -9.844569e-001 -8.306902e-001 -3.608476e-001 -7.247921e-001 -3.321685e-001 -6.090203e-001 9.262055e-002 -4.348759e-001 -3.271398e-001 5.385113e-001
<VARIANCE> 39
 2.003118e+001 1.055471e+001 2.553129e+001 1.746592e+001 2.030961e+001 2.391267e+001 3.066455e+001 2.787572e+001 2.624379e+001 2.294770e+001 2.797392e+001 2.219276e+001 3.247736e+001 1.575649e+000 2.782263e+000 3.684302e+000 4.126894e+000 3.742753e+000 4.732698e+000 4.061166e+000 3.710125e+000 3.866605e+000 2.740192e+000 4.196510e+000 2.314400e+000 1.843857e+000 4.607746e-001 4.597740e-001 3.604820e-001 4.973134e-001 4.945484e-001 6.197555e-001 6.585359e-001 6.487044e-001 6.322197e-001 5.093920e-001 7.948192e-001 4.598347e-001 3.059964e-001
<GCONST> 1.187844e+002
<TRANSP> 5
 0.000000e+000 1.000000e+000 0.000000e+000 0.000000e+000 0.000000e+000
 0.000000e+000 5.800780e-001 4.199220e-001 0.000000e+000 0.000000e+000
 0.000000e+000 0.000000e+000 7.454613e-001 2.545387e-001 0.000000e+000
 0.000000e+000 0.000000e+000 0.000000e+000 5.782099e-001 4.217902e-001
 0.000000e+000 0.000000e+000 0.000000e+000 0.000000e+000 0.000000e+000
<ENDHMM>
~h "g"
<BEGINHMM>
<NUMSTATES> 5
<STATE> 2
<NUMMIXES> 4
<MIXTURE> 1 3.670446e-001
<MEAN> 39
 -5.536295e-001 3.970844e+000 8.375004e+000 2.520020e+000 -8.167131e+000 -7.389249e+000 -4.045429e+000 -1.330029e+000 -6.122295e+000 7.356635e-001 1.062856e+000 -6.064992e+000 6.058336e+001 -1.468975e-001 1.893771e+000 -5.024615e-001 1.488623e+000 1.806414e+000 4.303719e-001 1.089163e+000 -4.651231e-001 1.005065e+000 -2.876817e-001 -3.775561e-001 2.286401e-001 -2.476520e+000 -3.182406e-001 -7.587428e-001 -2.946188e-001 -5.731594e-001 -1.998600e-002 1.360272e-001 -3.459177e-001 1.483117e-001 2.261106e-001 -3.181111e-002 -1.261074e-001 2.740215e-001 8.991603e-001
<VARIANCE> 39
 1.701741e+001 3.135261e+001 5.502780e+001 3.997409e+001 6.806805e+001 5.305995e+001 5.420356e+001 5.542745e+001 5.460500e+001 4.108174e+001 4.346266e+001 2.547424e+001 4.633539e+001 1.234456e+000 2.132811e+000 2.515701e+000 2.925857e+000 3.389787e+000 2.863963e+000 3.203812e+000 3.269862e+000 4.323336e+000 3.539338e+000 3.002152e+000 2.469842e+000 1.907314e+000 2.193888e-001 4.689673e-001 3.899277e-001 4.311151e-001 5.413928e-001 5.602385e-001 6.323026e-001 5.559621e-001 8.895891e-001 5.700725e-001 4.939331e-001 4.062839e-001 4.746158e-001
<GCONST> 1.240511e+002
<MIXTURE> 2 1.397859e-001
<MEAN> 39
 -1.104864e+001 1.787577e+000 9.653122e-001 3.257119e+000 2.016302e+000 3.183182e+000 3.830233e+000 5.340955e+000 3.742841e+000 3.956672e+000 4.340058e+000 2.392582e+000 4.971918e+001 4.169316e-001 4.660390e-001 3.859592e-001 3.921618e-001 -2.844669e-001 -1.575682e-001 -1.634912e-001 -4.671181e-001 -6.918280e-001 -2.046960e-001 -3.398146e-001 -4.862358e-001 3.251836e-002 3.067984e-001 -8.546280e-003 1.376814e-001 -9.538295e-002 -3.662533e-001 -4.470447e-001 -3.866931e-001 -3.094448e-001 -3.898258e-001 -2.337631e-001 -2.724669e-001 -2.822392e-001 5.614468e-001
<VARIANCE> 39
 2.238049e+001 2.433623e+001 2.563157e+001 3.460095e+001 3.607172e+001 4.759293e+001 4.406317e+001 3.612175e+001 3.533993e+001 3.324271e+001 3.067861e+001 2.471331e+001 6.595171e+001 2.291154e+000 2.502598e+000 1.972686e+000 2.243466e+000 2.148311e+000 3.328261e+000 2.803143e+000 3.429929e+000 3.269181e+000 2.583094e+000 2.467493e+000 2.661077e+000 2.663805e+000 3.403158e-001 4.399389e-001 3.774667e-001 4.711981e-001 5.587499e-001 7.037987e-001 6.110377e-001 6.526539e-001 7.076898e-001 4.856746e-001 4.723585e-001 4.623280e-001 4.939265e-001
<GCONST> 1.211607e+002
<MIXTURE> 3 3.388608e-001
<MEAN> 39
 5.034950e-001 4.386446e+000 5.709193e+000 -2.368550e+000 -1.007181e+001 -8.743923e+000 -6.085029e+000 -5.491393e+000 -7.916456e+000 -1.820043e+000 -4.938668e+000 -6.893279e+000 6.097334e+001 2.516218e-001 1.427517e+000 -1.933852e-002 1.623400e+000 8.847485e-001 8.182950e-002 5.716722e-001 -6.057899e-002 6.929490e-001 -8.902866e-001 7.965004e-002 -4.731919e-001 -2.028595e+000 -6.150733e-001 -8.830699e-001 -2.520221e-001 -4.107667e-001 1.124747e-001 3.211870e-002 -2.557384e-001 2.061613e-001 7.994363e-002 2.321892e-001 3.544484e-002 3.882651e-001 1.104964e+000
<VARIANCE> 39
 1.654457e+001 3.597369e+001 4.933713e+001 5.095364e+001 8.317041e+001 6.286068e+001 5.304254e+001 7.187151e+001 4.882588e+001 5.436319e+001 7.584914e+001 3.701184e+001 3.913457e+001 1.411386e+000 1.835076e+000 2.493587e+000 3.116514e+000 3.432910e+000 3.271178e+000 3.947446e+000 3.617235e+000 3.619989e+000 4.094010e+000 3.179802e+000 3.109639e+000 1.721489e+000 3.423727e-001 5.258677e-001 5.741635e-001 6.220829e-001 8.824948e-001 7.496555e-001 8.024355e-001 7.899004e-001 7.832944e-001 8.270051e-001 6.439388e-001 5.973439e-001 5.296344e-001
<GCONST> 1.301659e+002
<MIXTURE> 4 1.543098e-001
<MEAN> 39
 -1.442377e+001 6.641449e-001 -3.349169e+000 1.483610e+000 -6.956599e+000 2.116919e-001 -4.433715e+000 -2.799643e-001 -1.801650e+000 -1.717436e+000 5.598693e-001 -8.981169e-001 4.503656e+001 -7.928446e-002 1.479093e-001 -2.967397e-002 2.145873e-001 1.588855e-001 -8.928856e-002 8.548112e-004 -9.142813e-002 -1.486620e-001 -1.209387e-002 -9.761859e-002 -5.802388e-002 -1.584781e-001 6.550227e-002 -8.189060e-002 1.106716e-001 -1.154939e-002 -7.245045e-002 -9.452040e-002 -1.051463e-001 9.335981e-002 -2.570223e-002 7.899337e-002 1.951272e-002 -2.838934e-002 1.804308e-001
<VARIANCE> 39
 6.453263e+001 2.706416e+001 4.279032e+001 3.175138e+001 3.461304e+001 5.173520e+001 2.265668e+001 2.715795e+001 2.746002e+001 2.083886e+001 2.062768e+001 1.915816e+001 2.180405e+002 4.247029e-001 7.683969e-001 9.720778e-001 1.147019e+000 1.645590e+000 1.602894e+000 1.529912e+000 1.982167e+000 1.614358e+000 1.658462e+000 1.459879e+000 1.406061e+000 5.004067e-001 8.697161e-002 1.763029e-001 1.935600e-001 2.127819e-001 3.319883e-001 3.704828e-001 3.620765e-001 4.008214e-001 3.087305e-001 3.030539e-001 2.748426e-001 2.626337e-001 1.493204e-001
<GCONST> 1.017704e+002
<STATE> 3
<NUMMIXES> 4
<MIXTURE> 1 2.563781e-001
<MEAN> 39
 -2.485210e+000 7.721083e+000 7.505706e+000 5.469639e+000 -1.566898e+000 -4.823342e+000 -2.491503e+000 -2.158193e+000 -2.714494e+000 -2.309145e-001 1.136860e+000 -3.368440e+000 5.524492e+001 -1.206054e+000 -1.779720e+000 -1.356530e+000 -5.563550e-001 1.413138e+000 5.549610e-001 -3.430967e-002 5.196033e-001 3.986260e-001 5.515715e-001 -4.034127e-001 7.159019e-001 1.304931e+000 -7.325896e-002 -1.023169e+000 -8.146838e-002 -9.315041e-001 -7.772712e-001 -2.610656e-001 -4.658436e-001 1.114451e-001 -3.113105e-001 1.074868e-001 1.159973e-001 -6.954019e-002 1.467731e+000
<VARIANCE> 39
 1.789535e+001 2.578576e+001 3.550204e+001 2.686247e+001 3.496011e+001 3.544201e+001 3.827046e+001 2.933796e+001 3.019922e+001 2.868101e+001 2.408990e+001 1.877889e+001 4.268998e+001 1.815930e+000 5.025070e+000 4.400075e+000 4.131090e+000 4.269192e+000 4.963560e+000 3.891083e+000 3.647712e+000 4.322665e+000 3.865108e+000 2.967989e+000 2.409087e+000 4.111411e+000 3.165845e-001 6.908607e-001 6.801999e-001 5.329018e-001 6.776761e-001 6.468618e-001 6.299509e-001 5.939850e-001 7.280760e-001 7.175496e-001 5.423694e-001 4.129992e-001 4.300887e-001
<GCONST> 1.251328e+002
<MIXTURE> 2 2.734367e-001
<MEAN> 39
 6.914420e-001 7.155224e+000 6.893214e+000 1.380776e+000 -7.738818e+000 -7.650831e+000 -5.079704e+000 -4.979208e+000 -6.889055e+000 -1.875200e+000 -2.631474e+000 -6.015840e+000 6.051678e+001 -1.105646e+000 -8.137832e-001 -4.533587e-001 7.961074e-001 1.044960e+000 -4.095740e-001 -3.086202e-002 2.932875e-001 1.998033e-001 -2.535819e-001 1.353562e-001 7.192364e-001 1.000055e+000 -6.333657e-001 -9.067714e-001 -2.222699e-001 -4.648431e-001 -1.489398e-001 -2.147412e-002 -1.270524e-001 3.359734e-002 6.196396e-002 3.437966e-001 -2.650461e-002 3.966803e-001 1.180571e+000
<VARIANCE> 39
 1.256579e+001 3.598931e+001 4.502011e+001 4.711651e+001 4.940085e+001 4.988306e+001 3.957777e+001 4.639042e+001 4.114058e+001 3.653262e+001 5.033274e+001 2.368207e+001 4.226587e+001 2.681072e+000 3.718428e+000 3.656771e+000 4.051226e+000 6.130439e+000 5.104131e+000 3.901759e+000 4.125787e+000 4.440320e+000 3.345844e+000 3.513051e+000 2.935867e+000 2.687061e+000 4.622134e-001 6.660354e-001 6.421071e-001 7.476803e-001 9.129390e-001 8.744798e-001 6.909695e-001 7.835411e-001 1.035820e+000 6.817341e-001 6.629075e-001 5.526440e-001 7.300237e-001
<GCONST> 1.317387e+002
<MIXTURE> 3 2.607872e-001
<MEAN> 39
 -6.158928e+000 4.133933e+000 4.449257e+000 3.418276e+000 -1.344487e+000 -3.520084e+000 -1.186851e+000 -9.144188e-001 -1.874439e+000 3.932206e-001 -3.857885e-001 -2.990442e+000 5.417492e+001 -5.718971e-001 -1.815615e+000 -3.410980e-001 -5.479950e-001 -2.259848e-001 -9.910153e-001 -7.536355e-001 -2.613572e-001 -8.428613e-001 6.824138e-002 -6.823726e-001 5.183810e-002 2.888910e+000 2.440632e-001 -4.163002e-001 2.899499e-001 -7.398983e-001 -1.033672e+000 -5.531089e-001 -5.371448e-001 -1.507141e-001 -4.550978e-001 5.467345e-002 3.147200e-002 -4.964996e-002 1.175764e+000
<VARIANCE> 39
 2.777175e+001 2.938812e+001 4.009796e+001 2.904467e+001 4.311410e+001 4.673268e+001 4.943786e+001 3.990083e+001 4.074973e+001 3.530626e+001 3.352504e+001 2.792356e+001 5.554420e+001 5.100334e+000 6.394883e+000 5.273223e+000 4.625546e+000 7.772676e+000 6.383248e+000 5.997574e+000 6.130715e+000 5.847735e+000 5.154305e+000 4.940423e+000 4.639373e+000 3.896667e+000 3.339595e-001 5.454644e-001 4.692197e-001 6.101804e-001 7.801456e-001 7.067751e-001 6.501938e-001 6.048322e-001 8.243652e-001 8.473126e-001 7.642272e-001 5.492225e-001 4.988871e-001
<GCONST> 1.344494e+002
<MIXTURE> 4 2.093963e-001
<MEAN> 39
 1.874056e-001 6.669828e+000 5.479840e+000 -3.020271e+000 -1.067871e+001 -8.449173e+000 -4.948376e+000 -8.079001e+000 -8.568675e+000 -3.252450e+000 -9.433164e+000 -8.507029e+000 5.912277e+001 -1.387252e+000 -1.351390e+000 -6.242614e-001 6.837975e-001 9.400721e-001 -6.713970e-001 -2.732000e-001 1.487461e-001 4.168680e-002 6.249926e-002 2.096126e-001 6.731533e-001 1.845946e+000 -4.808838e-001 -8.878639e-001 -5.078785e-002 -5.122779e-001 -2.240863e-001 -5.405509e-002 -4.544762e-001 2.432002e-001 -6.015695e-002 4.792410e-001 5.658345e-001 4.994649e-001 1.109086e+000
<VARIANCE> 39
 1.773483e+001 2.822203e+001 4.797234e+001 3.931303e+001 7.728059e+001 4.958574e+001 4.584864e+001 4.662358e+001 4.217909e+001 5.022822e+001 5.724686e+001 3.638542e+001 3.301537e+001 3.957089e+000 4.306327e+000 5.291685e+000 5.807625e+000 1.159793e+001 6.294951e+000 7.846112e+000 6.535169e+000 4.580852e+000 5.863519e+000 5.489873e+000 5.147500e+000 3.685612e+000 5.078506e-001 5.343638e-001 6.407105e-001 6.997439e-001 1.390339e+000 7.504827e-001 1.283633e+000 1.030087e+000 8.449894e-001 1.074605e+000 7.745920e-001 7.416601e-001 5.954200e-001
<GCONST> 1.396220e+002
<STATE> 4
<NUMMIXES> 4
<MIXTURE> 1 2.295724e-001
<MEAN> 39
 -3.111641e+000 -6.619732e-001 1.114713e+001 1.098429e+000 -1.446874e+001 -1.227897e+001 -8.027740e+000 -1.592559e+000 -7.320780e+000 -3.101065e+000 1.832582e+000 -3.619482e+000 6.929018e+001 1.101616e+000 1.282380e+000 3.938691e-001 4.287905e-001 1.426646e-001 3.214489e-001 -4.132277e-001 -2.997581e-002 1.455320e+000 -7.273920e-001 -1.155496e-001 -4.501676e-001 -1.200353e+000 -2.855777e-001 4.379710e-001 -4.542301e-001 1.267156e-001 1.241105e+000 7.092946e-001 6.952454e-001 -6.431042e-002 4.190183e-001 2.322365e-001 -4.773702e-001 5.979842e-003 -9.633415e-001
<VARIANCE> 39
 1.734212e+001 3.357952e+001 4.198282e+001 5.690059e+001 6.626474e+001 4.486401e+001 5.100388e+001 4.667938e+001 4.863582e+001 4.684507e+001 5.165466e+001 3.261031e+001 4.406934e+001 2.207106e+000 3.808174e+000 3.552158e+000 3.193975e+000 7.360346e+000 3.969420e+000 3.921466e+000 5.181767e+000 4.470668e+000 3.988015e+000 3.252321e+000 2.516587e+000 4.673795e+000 3.896053e-001 6.749091e-001 5.679281e-001 7.493025e-001 1.106393e+000 7.917436e-001 9.197994e-001 8.144367e-001 9.204094e-001 8.906540e-001 7.640261e-001 5.918065e-001 8.762498e-001
<GCONST> 1.342745e+002
<MIXTURE> 2 2.718337e-001
<MEAN> 39
 -5.581707e+000 -2.438855e+000 -2.592439e+000 -1.120766e+000 2.347425e+000 -4.308576e+000 -5.695613e+000 1.899420e-001 -3.886853e+000 2.222088e+000 -1.216851e+000 -2.234723e+000 6.524425e+001 -1.495922e-001 -9.438559e-001 -1.382021e-001 -1.117015e+000 -9.070043e-001 -6.693292e-001 -1.238548e+000 -2.776573e-001 -1.653551e-001 9.390729e-003 2.933707e-001 3.266172e-001 2.521478e+000 5.066875e-001 6.927758e-001 1.007967e+000 5.830078e-002 -1.331275e+000 -1.315964e-001 -2.086134e-002 -4.310670e-001 -6.049203e-002 -3.699784e-001 2.594033e-001 -2.553637e-001 -2.722146e-001
<VARIANCE> 39
 3.074844e+001 4.945560e+001 6.663106e+001 7.038479e+001 4.968956e+001 8.543192e+001 6.300260e+001 4.654498e+001 4.951700e+001 4.830943e+001 4.183814e+001 3.327467e+001 6.139818e+001 3.675336e+000 5.282261e+000 6.292913e+000 5.482163e+000 8.121714e+000 7.495897e+000 5.480089e+000 4.410935e+000 5.641489e+000 4.503224e+000 3.809418e+000 3.078111e+000 3.336011e+000 5.178714e-001 9.673201e-001 6.808302e-001 1.061737e+000 1.105677e+000 1.385374e+000 1.020836e+000 8.777682e-001 9.888584e-001 9.863142e-001 8.981934e-001 6.786641e-001 7.120065e-001
<GCONST> 1.420741e+002
<MIXTURE> 3 2.473424e-001
<MEAN> 39
 -9.930974e+000 -4.194094e+000 3.060244e+000 8.609839e-001 -3.742393e+000 -8.654017e+000 -2.410652e+000 -5.500916e+000 -4.520663e+000 3.455142e-002 -5.096729e+000 -1.655248e+000 6.976994e+001 -8.153919e-001 -1.487018e+000 4.686650e-001 -1.627042e+000 -2.530470e+000 -1.392392e+000 -1.054299e+000 -5.462740e-001 -9.947426e-001 9.806255e-001 8.774327e-002 7.116104e-001 3.701723e+000 1.074103e+000 9.617659e-001 5.803836e-001 -6.356007e-001 -1.110989e+000 3.461294e-002 -5.188663e-001 1.257506e-001 -2.441560e-001 -7.166258e-002 1.583594e-001 -4.134462e-001 -6.717567e-001
<VARIANCE> 39
 2.172643e+001 3.401561e+001 5.868252e+001 4.341760e+001 6.063368e+001 4.960611e+001 5.312991e+001 5.467184e+001 4.181236e+001 3.968948e+001 3.839231e+001 2.735663e+001 4.776397e+001 3.641412e+000 4.405864e+000 4.412821e+000 4.867704e+000 7.037978e+000 4.254294e+000 5.070576e+000 5.226176e+000 4.418326e+000 5.602137e+000 4.878962e+000 3.529909e+000 2.598490e+000 3.579190e-001 8.690082e-001 5.738196e-001 1.052979e+000 1.379142e+000 9.795406e-001 9.744403e-001 9.084723e-001 8.838265e-001 8.585735e-001 1.033120e+000 6.931558e-001 6.835011e-001
<GCONST> 1.373917e+002
<MIXTURE> 4 2.512504e-001
<MEAN> 39
 -4.698500e+000 -9.301730e-001 9.756058e+000 -2.306324e+000 -1.583228e+001 -1.321978e+001 -7.119875e+000 -3.630475e+000 -9.778436e+000 6.844851e-001 -1.106050e+000 -3.234170e+000 7.021728e+001 8.477121e-001 -7.199419e-001 7.518087e-001 -1.420490e+000 -2.434375e+000 -6.843604e-001 -1.263680e+000 8.511036e-001 1.369058e-001 -3.042612e-001 7.206307e-001 -2.031002e-001 1.610548e+000 3.092603e-001 2.864372e-001 -4.085625e-001 1.312369e-001 8.240900e-001 7.093154e-001 2.467617e-001 2.322192e-001 6.673865e-001 -3.474531e-001 -2.866018e-001 -2.532299e-001 -8.695790e-001
<VARIANCE> 39
 2.201427e+001 4.476412e+001 5.640732e+001 6.300837e+001 5.471927e+001 4.584322e+001 5.513319e+001 7.911431e+001 4.383506e+001 5.015816e+001 7.046786e+001 3.790099e+001 5.081807e+001 2.235735e+000 3.619188e+000 3.930386e+000 4.854610e+000 8.554780e+000 4.451513e+000 4.195098e+000 4.583867e+000 5.944890e+000 5.122096e+000 5.351833e+000 2.998511e+000 2.913676e+000 4.400513e-001 5.176643e-001 4.422979e-001 5.842763e-001 8.329689e-001 7.064795e-001 7.112005e-001 9.229683e-001 7.154783e-001 9.387046e-001 6.769620e-001 5.409852e-001 6.501902e-001
<GCONST> 1.357483e+002
<TRANSP> 5
 0.000000e+000 1.000000e+000 0.000000e+000 0.000000e+000 0.000000e+000
 0.000000e+000 5.833921e-001 4.166078e-001 0.000000e+000 0.000000e+000
 0.000000e+000 0.000000e+000 5.123320e-001 4.876680e-001 0.000000e+000
 0.000000e+000 0.000000e+000 0.000000e+000 6.409530e-001 3.590470e-001
 0.000000e+000 0.000000e+000 0.000000e+000 0.000000e+000 0.000000e+000
<ENDHMM>
~h "h"
<BEGINHMM>
<NUMSTATES> 5
<STATE> 2
<NUMMIXES> 4
<MIXTURE> 1 2.882158e-001
<MEAN> 39
 -1.275449e-001 -1.282859e+000 -1.370853e+000 -6.886544e+000 4.346573e-001 3.514248e+000 -2.383812e+000 1.434658e+000 -1.124710e+000 3.562901e+000 -2.448939e+000 -4.677895e+000 6.895944e+001 -6.633787e-001 9.220691e-001 -6.697795e-002 6.829768e-001 1.980999e+000 8.442460e-001 1.699261e+000 -2.583059e-001 8.858036e-002 2.439283e-001 -1.607374e-002 6.391172e-001 -1.015126e+000 2.767145e-002 -2.750227e-001 1.028956e-001 -1.364837e-001 -5.365289e-001 -1.119063e-001 -3.255533e-001 -1.759466e-001 -7.004899e-002 -2.756588e-001 1.842500e-001 3.794826e-003 1.986286e-001
<VARIANCE> 39
 1.601059e+001 4.407788e+001 3.509218e+001 9.252395e+001 5.202432e+001 6.274585e+001 5.340239e+001 4.836908e+001 5.324016e+001 4.385637e+001 5.955338e+001 3.809874e+001 5.723456e+001 7.700502e-001 1.942754e+000 1.697753e+000 2.225442e+000 2.811714e+000 3.114465e+000 2.588912e+000 3.216942e+000 3.247548e+000 2.837146e+000 2.975030e+000 2.294756e+000 7.430969e-001 8.535603e-002 2.059663e-001 1.942411e-001 3.274404e-001 3.690867e-001 3.468032e-001 4.185826e-001 4.334320e-001 4.678982e-001 3.947027e-001 3.975315e-001 3.707263e-001 1.030585e-001
<GCONST> 1.152305e+002
<MIXTURE> 2 2.172272e-001
<MEAN> 39
 -4.744156e+000 -1.677159e+000 4.447546e+000 9.830390e-001 -2.376524e+000 -5.648589e+000 -4.422628e+000 3.698823e+000 1.153960e+000 6.094058e-001 -4.721889e+000 -2.795276e+000 6.938850e+001 5.385798e-001 -1.187095e-001 -1.804239e+000 -2.539422e-001 2.447132e+000 1.287950e+000 -2.531014e-001 -4.047262e-001 1.066197e+000 1.062026e+000 -6.300513e-001 -7.707139e-001 -2.439403e-001 1.232512e-001 1.968490e-001 1.750226e-001 -7.106530e-001 -5.829178e-001 5.555042e-001 -4.097010e-002 -8.552588e-001 -7.458423e-001 4.018886e-002 5.390267e-001 -1.697619e-001 7.528905e-004
<VARIANCE> 39
 2.541519e+001 3.565199e+001 4.476921e+001 4.223181e+001 6.453406e+001 5.133055e+001 7.876849e+001 4.706332e+001 5.132699e+001 4.263061e+001 4.596807e+001 3.506857e+001 5.576257e+001 1.951632e+000 1.796913e+000 4.425432e+000 2.747801e+000 6.412850e+000 4.558656e+000 4.371927e+000 5.335778e+000 5.146771e+000 4.859349e+000 3.881353e+000 2.989115e+000 1.021891e+000 2.453257e-001 2.928198e-001 3.555983e-001 4.958813e-001 8.119863e-001 6.878765e-001 9.004314e-001 7.218388e-001 8.352233e-001 7.147772e-001 7.310724e-001 5.843089e-001 1.313086e-001
<GCONST> 1.286430e+002
<MIXTURE> 3 3.335026e-001
<MEAN> 39
 -2.346224e+000 -1.929873e+000 -1.187093e+000 -9.991057e+000 -3.913124e-002 -6.778402e-001 -3.810752e+000 -4.809752e+000 -6.614160e+000 -3.601066e+000 -7.434842e+000 -4.374505e+000 7.062792e+001 -7.109046e-001 2.462195e-001 5.980338e-001 1.299098e+000 1.654349e+000 7.374098e-001 9.355212e-001 -3.480449e-001 1.623902e-001 -4.329085e-001 6.003174e-002 -1.155567e-001 -5.787609e-001 7.909640e-002 -2.501599e-001 -1.087794e-001 -2.428921e-001 -3.564928e-001 -1.048858e-001 -1.475414e-001 1.645172e-001 1.420117e-001 1.157692e-001 8.552407e-002 2.196382e-002 1.802127e-001
<VARIANCE> 39
 2.160713e+001 4.582693e+001 5.682251e+001 6.470711e+001 7.255730e+001 7.546939e+001 8.374052e+001 6.886336e+001 5.797501e+001 6.955302e+001 6.989023e+001 4.478548e+001 4.465848e+001 6.262324e-001 1.596260e+000 1.727634e+000 2.411692e+000 2.663913e+000 3.028854e+000 2.885501e+000 3.184765e+000 3.124989e+000 2.946645e+000 2.544107e+000 2.177363e+000 5.130348e-001 8.002577e-002 1.619866e-001 2.204363e-001 3.010285e-001 4.326598e-001 4.257994e-001 5.160346e-001 4.950033e-001 4.403520e-001 4.370317e-001 3.981466e-001 3.494314e-001 6.306645e-002
<GCONST> 1.167016e+002
<MIXTURE> 4 1.610577e-001
<MEAN> 39
 -4.604686e+000 -2.467169e+000 1.548521e+000 -2.806013e+000 -2.594447e+000 -8.681404e+000 -6.531331e+000 -2.804573e+000 -6.123462e+000 -8.352868e+000 -1.285221e+001 -1.172736e+000 7.156361e+001 5.499133e-001 -2.431328e-001 -1.932608e+000 3.649933e-001 3.305488e+000 1.090654e+000 -1.382825e+000 -4.822538e-001 1.492280e+000 2.203588e-001 -9.574646e-001 -6.958359e-001 -3.278112e-001 1.024513e-001 1.883748e-001 -3.692002e-002 -1.070124e+000 -5.660416e-001 6.512529e-001 1.781179e-002 -6.695824e-001 -2.016461e-001 9.376244e-001 5.471133e-001 -3.944123e-001 4.083065e-002
<VARIANCE> 39
 9.384153e+000 2.210000e+001 2.693271e+001 5.126685e+001 5.281810e+001 4.684814e+001 7.079004e+001 4.652819e+001 3.857374e+001 4.754764e+001 4.846470e+001 3.712371e+001 2.874822e+001 9.403342e-001 1.504801e+000 3.159292e+000 4.297822e+000 5.097401e+000 3.926895e+000 4.333142e+000 4.939301e+000 3.990825e+000 4.229553e+000 3.198510e+000 2.665947e+000 6.676508e-001 1.646567e-001 1.936681e-001 3.046755e-001 7.917439e-001 8.114376e-001 6.786000e-001 8.783601e-001 8.922462e-001 7.304919e-001 6.425471e-001 6.961284e-001 4.757778e-001 7.600746e-002
<GCONST> 1.219585e+002
<STATE> 3
<NUMMIXES> 4
<MIXTURE> 1 2.309826e-001
<MEAN> 39
 -4.411132e+000 -6.159480e-001 -7.269501e-001 -3.237350e+000 3.922995e+000 4.334920e+000 1.419222e+000 1.021222e+000 7.187715e-001 2.346251e+000 -1.152976e+000 -2.096756e+000 6.574167e+001 6.039046e-002 1.591148e-001 2.045945e-002 -7.074432e-002 -2.149672e-002 2.340011e-001 2.345873e-001 -3.397750e-001 -2.360961e-001 -8.124416e-002 1.259020e-001 1.388317e-001 -5.785780e-002 3.865779e-001 1.843161e-002 1.197325e-001 -3.347336e-001 -8.194450e-001 -2.871812e-001 -5.350571e-001 -2.659558e-001 -3.412138e-001 -1.110246e-001 -1.874542e-002 -1.459163e-001 2.506745e-001
<VARIANCE> 39
 3.065144e+001 3.275101e+001 3.834233e+001 6.919791e+001 5.979626e+001 6.449755e+001 5.100604e+001 4.696895e+001 4.307378e+001 3.691642e+001 4.591909e+001 3.401363e+001 7.875812e+001 1.538034e+000 1.636723e+000 1.963743e+000 2.214556e+000 3.116309e+000 3.026932e+000 2.756896e+000 3.118542e+000 3.290912e+000 2.643591e+000 2.479450e+000 2.532910e+000 8.533393e-001 1.901399e-001 3.375516e-001 3.381052e-001 3.771063e-001 5.368620e-001 4.735716e-001 5.306714e-001 5.592356e-001 5.357419e-001 5.348566e-001 4.926595e-001 4.480859e-001 1.233679e-001
<GCONST> 1.199908e+002
<MIXTURE> 2 2.721765e-001
<MEAN> 39
 -2.116261e+000 -3.666477e+000 -1.428416e+000 -6.427227e+000 4.191595e+000 -1.054437e+000 -5.467000e+000 -3.628828e+000 -1.430040e+000 4.487262e-001 -7.035004e+000 -6.824000e+000 7.143387e+001 5.941054e-001 5.326427e-001 -8.825660e-001 -1.276347e+000 4.068333e-001 1.480699e+000 1.324170e-001 -1.189802e+000 -6.773115e-001 6.981173e-001 1.129006e+000 -1.421831e-001 -3.347619e-001 1.237692e-001 6.610896e-002 1.438195e-001 -4.381750e-001 -9.331835e-001 -2.418074e-001 9.461351e-002 1.237919e-001 -4.016894e-001 -2.499541e-001 2.781624e-001 3.882257e-001 9.406271e-002
<VARIANCE> 39
 1.269711e+001 2.804198e+001 2.546577e+001 4.826174e+001 6.051915e+001 6.982874e+001 8.181710e+001 5.511728e+001 4.825953e+001 7.082854e+001 6.215315e+001 3.635654e+001 2.802092e+001 7.452128e-001 1.018726e+000 2.039748e+000 2.848415e+000 3.164608e+000 3.710907e+000 3.059155e+000 3.353661e+000 3.144072e+000 3.017811e+000 2.906320e+000 2.564108e+000 4.126796e-001 1.239349e-001 1.569596e-001 2.971157e-001 3.354253e-001 5.321239e-001 5.163738e-001 6.147522e-001 5.033285e-001 5.668622e-001 6.575134e-001 5.346558e-001 3.981747e-001 6.529681e-002
<GCONST> 1.162977e+002
<MIXTURE> 3 2.542473e-001
<MEAN> 39
 -4.905960e+000 -4.340285e-001 1.743490e+000 -4.067007e+000 9.717655e-001 2.787997e+000 5.338875e-001 -8.022421e-001 -2.435850e+000 -3.429549e-001 -3.456842e+000 -2.834357e+000 6.611865e+001 4.022895e-001 3.422598e-001 -6.697907e-002 -4.152151e-001 -5.265347e-001 -1.082404e-001 -2.632533e-001 -5.223394e-001 -4.452579e-001 -1.572116e-001 3.359348e-002 -9.835629e-002 2.366670e-002 3.906758e-001 -9.627371e-002 -1.314226e-001 -4.835739e-001 -8.016989e-001 -2.697450e-001 -6.422269e-001 -1.678135e-001 -1.769222e-001 -3.062205e-002 1.127993e-001 -1.363029e-001 2.867767e-001
<VARIANCE> 39
 3.401988e+001 4.813894e+001 6.643710e+001 6.969860e+001 7.759624e+001 6.681263e+001 6.055867e+001 6.116370e+001 4.854404e+001 5.185077e+001 6.218763e+001 3.665934e+001 6.945277e+001 1.015643e+000 1.456590e+000 1.885440e+000 2.170532e+000 3.073048e+000 2.680322e+000 2.963112e+000 2.887046e+000 3.083619e+000 2.893997e+000 2.697005e+000 2.269558e+000 5.520199e-001 1.739153e-001 3.286446e-001 4.050054e-001 4.903838e-001 6.253897e-001 6.155539e-001 5.809334e-001 5.859183e-001 5.997800e-001 5.582780e-001 5.355546e-001 4.630271e-001 1.416179e-001
<GCONST> 1.226009e+002
<MIXTURE> 4 2.425925e-001
<MEAN> 39
 -3.708209e+000 -2.969418e+000 -2.460289e+000 -8.315218e+000 5.692567e+000 -9.619554e-001 -4.432738e+000 -9.058131e+000 -7.171199e+000 -7.182702e+000 -1.036334e+001 -4.982854e+000 7.183234e+001 5.248907e-001 3.412790e-001 -3.901542e-001 -8.562938e-001 -5.026654e-001 4.307320e-002 -4.389243e-001 -5.387358e-001 -2.019303e-001 4.257081e-001 1.110547e-001 -8.665953e-002 -1.404441e-001 2.798479e-001 1.268621e-002 -2.235473e-001 -6.220429e-001 -8.424873e-001 -3.956017e-001 -1.614389e-001 3.010793e-001 7.374892e-002 3.145876e-001 8.192489e-002 1.521226e-001 1.892179e-001
<VARIANCE> 39
 1.131229e+001 2.504285e+001 2.632124e+001 4.337260e+001 5.916898e+001 6.159136e+001 7.913921e+001 4.302224e+001 4.879073e+001 5.379467e+001 5.089509e+001 4.436892e+001 2.164639e+001 7.229921e-001 8.528939e-001 1.566356e+000 2.743770e+000 3.373515e+000 2.974569e+000 2.963557e+000 2.550494e+000 2.657283e+000 2.780939e+000 2.323022e+000 1.958019e+000 3.404806e-001 7.901226e-002 1.343066e-001 2.032171e-001 3.304232e-001 4.484526e-001 5.079812e-001 5.670345e-001 4.774936e-001 4.951806e-001 4.425649e-001 4.695121e-001 3.675677e-001 5.971559e-002
<GCONST> 1.109829e+002
<STATE> 4
<NUMMIXES> 4
<MIXTURE> 1 2.321201e-001
<MEAN> 39
 2.608473e+000 1.629055e+000 -3.207748e+000 -9.305915e+000 -1.587665e+000 6.063390e+000 -1.152424e+000 -2.062129e+000 -3.833939e+000 3.909383e+000 2.147651e-001 -1.781803e+000 6.874695e+001 4.312814e-001 -1.131178e-001 -9.750273e-003 -7.968327e-001 -1.223631e+000 1.219677e-002 -5.904252e-001 -4.392444e-001 -4.795000e-001 -2.332912e-001 3.675887e-001 5.013043e-002 3.034293e-001 -3.339019e-002 -1.830074e-001 1.350698e-001 1.281226e-001 -1.947312e-001 -1.758170e-001 -3.614228e-001 -1.293618e-002 1.318203e-001 -6.870778e-002 1.854154e-002 -2.227553e-001 9.268778e-002
<VARIANCE> 39
 8.762513e+000 2.596448e+001 1.931099e+001 1.170007e+002 4.819185e+001 4.058035e+001 4.469792e+001 4.490356e+001 3.445739e+001 3.539232e+001 4.067015e+001 3.497284e+001 5.354943e+001 3.592201e-001 9.667902e-001 8.185045e-001 1.498615e+000 1.950356e+000 1.532653e+000 2.043552e+000 1.515877e+000 1.636963e+000 1.889822e+000 1.636918e+000 1.605998e+000 4.350623e-001 5.844967e-002 1.313452e-001 1.423834e-001 2.542514e-001 3.491404e-001 2.622871e-001 2.984167e-001 2.610144e-001 2.652318e-001 2.998062e-001 2.726755e-001 2.650335e-001 7.130809e-002
<GCONST> 1.000620e+002
<MIXTURE> 2 2.536448e-001
<MEAN> 39
 -2.717701e+000 -2.681570e-001 1.762602e+000 -5.544022e+000 -2.488714e+000 -7.534574e-001 -3.381263e+000 -2.086000e+000 -2.975625e+000 9.990774e-001 -3.426804e+000 -3.661685e+000 6.935264e+001 8.685735e-001 3.341925e-002 2.829261e-002 -7.177283e-001 -1.587933e+000 -1.920504e-001 -8.966984e-001 -6.327796e-001 -2.768008e-001 -1.391629e-001 6.412981e-001 -1.635044e-001 3.445887e-001 -1.647986e-002 -1.431977e-001 1.329448e-001 1.781228e-002 -2.825882e-001 -1.596222e-003 -1.296695e-001 -5.913361e-002 4.524281e-002 -1.448409e-001 1.493738e-001 7.768305e-002 -1.466173e-002
<VARIANCE> 39
