~o
<STREAMINFO> 1 39
<VECSIZE> 39<NULLD><MFCC_D_A_0><DIAGC>
~h "zh"
<BEGINHMM>
<NUMSTATES> 5
<STATE> 2
<NUMMIXES> 8
<MIXTURE> 1 1.625992e-001
<MEAN> 39
 -5.230983e+000 2.828477e-001 1.423858e+001 3.413351e+000 -1.052842e+001 -6.523839e+000 -4.215222e+000 -5.700165e-001 1.206415e+000 -2.377296e+000 8.494399e-001 -3.572954e-002 7.057720e+001 -2.748086e+000 2.065963e+000 1.381100e+000 1.238432e+000 1.312977e+000 2.108299e-001 2.986587e+000 -9.146342e-001 1.119443e+000 3.023399e-001 4.330398e-001 1.116755e+000 1.309209e-001 -4.146087e-001 -4.815020e-002 -1.034620e-001 -1.984433e-001 4.188860e-001 5.524788e-001 9.440277e-002 2.031519e-001 2.659248e-001 3.636887e-001 1.698672e-001 -2.152178e-001 2.216385e-001
<VARIANCE> 39
 2.806890e+001 3.028208e+001 4.409913e+001 4.119701e+001 4.331736e+001 3.205774e+001 4.498889e+001 3.817167e+001 3.882403e+001 2.586907e+001 2.956008e+001 2.090781e+001 5.919752e+001 2.747641e+000 2.363009e+000 2.285938e+000 2.187082e+000 2.934023e+000 3.732000e+000 3.665796e+000 3.022500e+000 3.580935e+000 3.216652e+000 2.708652e+000 2.491212e+000 8.064252e-001 3.184901e-001 3.539828e-001 2.653312e-001 2.854317e-001 4.003334e-001 4.308843e-001 5.791603e-001 5.166602e-001 4.652566e-001 4.409227e-001 4.255926e-001 3.407583e-001 8.230139e-002
<GCONST> 1.167085e+002
<MIXTURE> 2 1.087950e-001
<MEAN> 39
 -8.064376e+000 3.173456e-001 1.002562e+001 8.084943e+000 -9.429197e-001 -1.040118e+001 -5.507869e+000 -6.422287e+000 4.133045e+000 -4.708396e+000 3.325042e-004 -1.997224e+000 7.047605e+001 -3.776608e+000 -2.835931e-001 2.736193e+000 2.044025e+000 3.820161e-001 -9.087561e-001 3.128008e+000 1.749645e+000 1.577640e+000 -7.778160e-001 3.869523e-001 1.162292e+000 1.300201e+000 2.458587e-001 2.916400e-001 -1.526714e-001 -8.476229e-001 -3.250449e-001 1.316870e+000 4.647416e-001 2.337085e-001 -6.892423e-001 4.728993e-001 5.671656e-001 1.578767e-001 9.873198e-003
<VARIANCE> 39
 4.321954e+001 1.910217e+001 3.517916e+001 4.763391e+001 7.366336e+001 4.770838e+001 6.709947e+001 5.096589e+001 4.808011e+001 4.636996e+001 3.896353e+001 3.861885e+001 4.869376e+001 3.650096e+000 1.907604e+000 2.357419e+000 3.473770e+000 5.486126e+000 7.316402e+000 4.931659e+000 4.309457e+000 4.983943e+000 3.854644e+000 4.106337e+000 2.875266e+000 7.317129e-001 8.042039e-001 3.331019e-001 4.198621e-001 4.908302e-001 1.002161e+000 9.350069e-001 1.192934e+000 8.557539e-001 6.898597e-001 7.893331e-001 6.138325e-001 6.231361e-001 1.604238e-001
<GCONST> 1.305948e+002
<MIXTURE> 3 1.386277e-001
<MEAN> 39
 -6.189267e+000 2.528519e+000 1.366584e+001 -7.974912e+000 -1.244399e+001 -9.644265e+000 -7.691639e+000 -5.685496e+000 -6.549045e+000 -4.487897e+000 -3.102460e+000 -1.455922e+000 7.354352e+001 -3.227802e+000 2.480827e+000 1.944994e+000 1.900554e+000 1.300236e+000 1.418130e+000 1.499747e+000 -1.275341e-001 1.300961e+000 -1.177776e+000 2.028680e+000 -3.440544e-001 2.897599e-001 -6.209744e-001 -4.154197e-002 -3.566583e-001 1.763986e-001 8.431028e-001 7.243958e-001 6.011812e-001 6.512666e-001 5.581345e-001 4.538910e-001 1.186609e-001 5.014351e-002 2.175226e-001
<VARIANCE> 39
 2.524180e+001 3.831701e+001 3.812547e+001 3.928478e+001 3.791838e+001 3.251765e+001 3.765211e+001 4.940422e+001 3.481412e+001 4.196587e+001 3.033417e+001 2.874342e+001 2.345001e+001 2.904201e+000 2.339504e+000 3.553790e+000 2.954371e+000 4.481976e+000 4.683285e+000 5.117251e+000 5.580807e+000 4.342451e+000 3.343813e+000 3.407333e+000 2.717314e+000 7.640380e-001 3.813128e-001 4.644390e-001 3.151682e-001 4.396037e-001 5.238784e-001 5.720467e-001 6.165760e-001 6.988702e-001 5.849748e-001 6.506462e-001 5.255972e-001 4.729760e-001 1.247445e-001
<GCONST> 1.228229e+002
<MIXTURE> 4 8.997350e-002
<MEAN> 39
 -9.771743e+000 -1.383807e+000 1.665925e+001 -2.503469e+000 -7.576924e+000 -2.610360e+000 -6.948826e-001 -5.679700e-001 7.029137e-002 -1.950547e+000 2.638536e+000 -8.161017e-002 6.387873e+001 -6.108809e-001 5.740311e-001 2.603051e+000 -1.806147e-001 -5.255259e-001 -6.223577e-001 3.259111e-001 -5.502669e-001 6.514134e-002 -4.933225e-001 1.754247e-001 -1.278794e-001 2.928021e+000 -1.033867e-001 3.924952e-001 -2.096679e-001 3.322196e-001 6.759966e-001 3.421958e-001 4.067509e-001 2.083383e-001 4.556080e-001 2.191082e-001 2.742744e-001 1.677200e-001 1.767201e-001
<VARIANCE> 39
 7.008092e+001 7.167668e+001 8.642241e+001 8.631841e+001 1.065519e+002 7.515758e+001 7.881421e+001 5.847821e+001 7.415788e+001 5.955305e+001 4.509975e+001 3.722970e+001 1.192831e+002 6.923189e+000 3.761942e+000 5.443855e+000 4.627698e+000 8.248878e+000 6.263213e+000 7.958846e+000 5.144191e+000 6.793259e+000 5.394494e+000 4.037738e+000 3.280417e+000 5.189933e+000 1.198731e+000 7.812566e-001 9.740223e-001 8.709466e-001 1.621264e+000 1.340874e+000 1.409176e+000 1.083823e+000 1.215407e+000 1.035691e+000 8.174498e-001 5.947409e-001 8.316233e-001
<GCONST> 1.494103e+002
<MIXTURE> 5 1.625992e-001
<MEAN> 39
 -7.350187e+000 -1.918319e+000 1.158230e+001 8.459550e-001 -1.316106e+001 -8.788621e+000 -6.898172e+000 -3.041346e+000 -1.285942e+000 -4.411762e+000 -1.325327e+000 -1.864732e+000 6.749961e+001 -3.411126e+000 1.451079e+000 7.763276e-001 6.468808e-001 6.278170e-001 -5.619055e-001 2.220737e+000 -1.610048e+000 3.625091e-001 -4.150611e-001 -2.252795e-001 4.854122e-001 -2.282839e-001 -6.403484e-001 -2.861360e-001 -3.095032e-001 -4.121465e-001 1.657984e-001 2.899117e-001 -2.100075e-001 -8.436442e-002 -6.914135e-003 9.808068e-002 -9.108259e-002 -4.487158e-001 1.068857e-001
<VARIANCE> 39
 2.806890e+001 3.028208e+001 4.409913e+001 4.119701e+001 4.331736e+001 3.205774e+001 4.498889e+001 3.817167e+001 3.882403e+001 2.586907e+001 2.956008e+001 2.090781e+001 5.919752e+001 2.747641e+000 2.363009e+000 2.285938e+000 2.187082e+000 2.934023e+000 3.732000e+000 3.665796e+000 3.022500e+000 3.580935e+000 3.216652e+000 2.708652e+000 2.491212e+000 8.064252e-001 3.184901e-001 3.539828e-001 2.653312e-001 2.854317e-001 4.003334e-001 4.308843e-001 5.791603e-001 5.166602e-001 4.652566e-001 4.409227e-001 4.255926e-001 3.407583e-001 8.230139e-002
<GCONST> 1.167085e+002
<MIXTURE> 6 1.386277e-001
<MEAN> 39
 -8.198915e+000 5.248930e-002 1.119600e+001 -1.048201e+001 -1.490711e+001 -1.192523e+001 -1.014609e+001 -8.497022e+000 -8.909184e+000 -7.079140e+000 -5.305518e+000 -3.600438e+000 7.160651e+001 -3.909470e+000 1.869009e+000 1.190934e+000 1.213022e+000 4.534084e-001 5.524936e-001 5.948932e-001 -1.072483e+000 4.674188e-001 -1.909220e+000 1.290322e+000 -1.003425e+000 -5.987713e-002 -8.679765e-001 -3.141410e-001 -5.812177e-001 -8.881183e-002 5.535850e-001 4.218608e-001 2.870918e-001 3.168728e-001 2.521999e-001 1.312404e-001 -1.713314e-001 -2.249495e-001 7.624583e-002
<VARIANCE> 39
 2.524180e+001 3.831701e+001 3.812547e+001 3.928478e+001 3.791838e+001 3.251765e+001 3.765211e+001 4.940422e+001 3.481412e+001 4.196587e+001 3.033417e+001 2.874342e+001 2.345001e+001 2.904201e+000 2.339504e+000 3.553790e+000 2.954371e+000 4.481976e+000 4.683285e+000 5.117251e+000 5.580807e+000 4.342451e+000 3.343813e+000 3.407333e+000 2.717314e+000 7.640380e-001 3.813128e-001 4.644390e-001 3.151682e-001 4.396037e-001 5.238784e-001 5.720467e-001 6.165760e-001 6.988702e-001 5.849748e-001 6.506462e-001 5.255972e-001 4.729760e-001 1.247445e-001
<GCONST> 1.228229e+002
<MIXTURE> 7 1.087950e-001
<MEAN> 39
 -1.069404e+001 -1.430896e+000 7.653139e+000 5.324250e+000 -4.376014e+000 -1.316403e+001 -8.784439e+000 -9.277903e+000 1.359452e+000 -7.432216e+000 -2.496499e+000 -4.482986e+000 6.768482e+001 -4.540816e+000 -8.360572e-001 2.122037e+000 1.298503e+000 -5.548832e-001 -1.990710e+000 2.239714e+000 9.192754e-001 6.846501e-001 -1.563146e+000 -4.236117e-001 4.840279e-001 9.580405e-001 -1.128509e-001 6.078004e-002 -4.118584e-001 -1.127860e+000 -7.254769e-001 9.300866e-001 2.785547e-002 -1.363193e-001 -1.021474e+000 1.175217e-001 2.537758e-001 -1.578792e-001 -1.503386e-001
<VARIANCE> 39
 4.321954e+001 1.910217e+001 3.517916e+001 4.763391e+001 7.366336e+001 4.770838e+001 6.709947e+001 5.096589e+001 4.808011e+001 4.636996e+001 3.896353e+001 3.861885e+001 4.869376e+001 3.650096e+000 1.907604e+000 2.357419e+000 3.473770e+000 5.486126e+000 7.316402e+000 4.931659e+000 4.309457e+000 4.983943e+000 3.854644e+000 4.106337e+000 2.875266e+000 7.317129e-001 8.042039e-001 3.331019e-001 4.198621e-001 4.908302e-001 1.002161e+000 9.350069e-001 1.192934e+000 8.557539e-001 6.898597e-001 7.893331e-001 6.138325e-001 6.231361e-001 1.604238e-001
<GCONST> 1.305948e+002
<MIXTURE> 8 8.997350e-002
<MEAN> 39
 -1.312032e+001 -4.770291e+000 1.294071e+001 -6.219777e+000 -1.170588e+001 -6.078099e+000 -4.245977e+000 -3.626812e+000 -3.374307e+000 -5.037373e+000 -4.771799e-002 -2.522256e+000 5.951005e+001 -1.663359e+000 -2.017979e-001 1.669769e+000 -1.041098e+000 -1.674360e+000 -1.623414e+000 -8.025460e-001 -1.457499e+000 -9.774139e-001 -1.422364e+000 -6.283402e-001 -8.523562e-001 2.016765e+000 -5.413330e-001 3.894036e-002 -6.044381e-001 -4.107843e-002 1.666812e-001 -1.209886e-001 -6.808393e-002 -2.080890e-001 1.462600e-002 -1.879674e-001 -8.737735e-002 -1.407577e-001 -1.880534e-001
<VARIANCE> 39
 7.008092e+001 7.167668e+001 8.642241e+001 8.631841e+001 1.065519e+002 7.515758e+001 7.881421e+001 5.847821e+001 7.415788e+001 5.955305e+001 4.509975e+001 3.722970e+001 1.192831e+002 6.923189e+000 3.761942e+000 5.443855e+000 4.627698e+000 8.248878e+000 6.263213e+000 7.958846e+000 5.144191e+000 6.793259e+000 5.394494e+000 4.037738e+000 3.280417e+000 5.189933e+000 1.198731e+000 7.812566e-001 9.740223e-001 8.709466e-001 1.621264e+000 1.340874e+000 1.409176e+000 1.083823e+000 1.215407e+000 1.035691e+000 8.174498e-001 5.947409e-001 8.316233e-001
<GCONST> 1.494103e+002
<STATE> 3
<NUMMIXES> 8
<MIXTURE> 1 1.263507e-001
<MEAN> 39
 -1.764537e+001 5.531136e+000 1.722976e+001 3.221821e-001 -6.482493e+000 -4.341144e+000 -1.543617e+000 -4.132516e+000 2.117983e-001 -4.290421e+000 1.187670e+000 -1.881858e+000 7.344601e+001 -3.866144e+000 5.192044e-001 6.609339e-001 9.331963e-001 2.130221e+000 2.231605e+000 2.216919e+000 1.069689e+000 1.696825e+000 6.616044e-001 1.016239e+000 2.296517e-001 5.690838e-001 1.019486e+000 -6.222611e-001 -3.732313e-001 -2.825328e-001 -1.146554e-001 2.212187e-001 -1.616500e-001 4.583921e-001 -5.732231e-002 5.235050e-001 -4.015520e-002 1.918873e-001 -4.612402e-002
<VARIANCE> 39
 2.383047e+001 2.054475e+001 2.868262e+001 5.268423e+001 3.494760e+001 3.496889e+001 3.684625e+001 3.288647e+001 4.272115e+001 3.367623e+001 2.667626e+001 2.279538e+001 3.747774e+001 1.898614e+000 2.245264e+000 2.265305e+000 2.171112e+000 2.564999e+000 2.819610e+000 2.608755e+000 3.550254e+000 2.670214e+000 2.854044e+000 2.605267e+000 2.067134e+000 6.885180e-001 4.700624e-001 2.921962e-001 3.666199e-001 3.988773e-001 5.363660e-001 7.245293e-001 7.454807e-001 5.800471e-001 5.471768e-001 6.052948e-001 5.040922e-001 4.882314e-001 1.420690e-001
<GCONST> 1.171441e+002
<MIXTURE> 2 1.493642e-001
<MEAN> 39
 -2.421406e+001 -1.005199e-001 1.549706e+001 1.686146e+000 -3.393331e+000 -8.263321e-001 4.180542e+000 -8.992470e-001 5.200459e+000 -1.015602e+000 3.203645e+000 -5.423948e-001 7.261897e+001 -5.344853e-001 -2.788393e-001 -7.118386e-002 -7.900569e-002 2.592267e-001 8.548597e-001 9.521177e-001 7.479364e-001 6.253149e-001 7.195188e-001 5.701364e-001 4.255517e-001 3.483473e-001 1.825387e+000 3.786990e-001 4.529587e-002 1.272520e-002 -3.565289e-001 -5.243261e-001 -7.299862e-001 -1.914044e-001 -5.311692e-001 -1.491577e-001 -1.789326e-001 2.203457e-002 -1.250796e-001
<VARIANCE> 39
 2.659793e+001 2.903842e+001 3.543154e+001 6.437292e+001 4.054850e+001 4.157605e+001 3.385606e+001 3.212679e+001 3.450010e+001 2.976338e+001 2.843989e+001 1.925096e+001 5.656882e+001 2.726406e+000 1.202826e+000 1.459825e+000 1.682029e+000 1.793090e+000 2.453806e+000 2.467462e+000 2.244306e+000 2.177760e+000 2.086891e+000 1.900952e+000 1.649029e+000 7.488385e-001 5.100822e-001 2.991783e-001 3.978310e-001 4.183703e-001 5.649818e-001 6.567374e-001 5.249872e-001 5.616920e-001 4.823799e-001 4.187490e-001 4.477157e-001 3.616048e-001 1.152505e-001
<GCONST> 1.139357e+002
<MIXTURE> 3 8.307055e-002
<MEAN> 39
 -2.494225e+001 1.110689e+000 1.454974e+001 -1.113614e+000 -3.360563e+000 5.528775e-001 3.464978e+000 3.087113e-001 3.271147e+000 -1.874367e+000 3.111722e+000 -1.222514e+000 7.379530e+001 3.650234e+000 7.586377e-001 3.025363e-001 -1.185260e-001 -1.414780e+000 -1.774995e+000 -1.175877e+000 -8.280640e-001 -1.351004e+000 -1.758918e-001 -3.796151e-001 -1.666041e-002 2.817266e-001 1.994953e+000 1.295617e-001 5.741254e-002 -3.249939e-001 -7.739604e-001 -9.826906e-001 -8.963283e-001 -3.431824e-001 -5.430377e-001 -1.306564e-002 -2.500259e-001 6.867700e-002 9.093830e-002
<VARIANCE> 39
 1.519233e+001 2.362390e+001 2.667296e+001 4.004985e+001 2.659595e+001 2.894995e+001 2.747681e+001 3.254501e+001 4.075140e+001 3.614124e+001 2.691174e+001 2.277434e+001 3.326483e+001 3.602206e+000 1.423837e+000 1.701230e+000 2.123205e+000 2.588831e+000 2.635602e+000 2.561785e+000 2.876569e+000 2.651082e+000 2.057415e+000 2.538471e+000 1.755944e+000 6.524594e-001 4.414398e-001 3.773527e-001 3.964832e-001 4.706677e-001 5.106452e-001 5.114420e-001 5.952175e-001 6.667916e-001 5.918075e-001 5.669379e-001 6.000720e-001 4.137399e-001 8.976656e-002
<GCONST> 1.141612e+002
<MIXTURE> 4 1.411985e-001
<MEAN> 39
 -1.783632e+001 4.614600e+000 1.713809e+001 2.689681e+000 -6.607113e+000 -5.927911e+000 -1.796723e+000 -6.270446e+000 -1.195412e+000 -5.337102e+000 -7.984066e-003 -2.130564e+000 7.477966e+001 -6.893877e-001 5.024165e-002 4.098835e-001 2.436438e-001 3.775202e-001 6.094882e-001 7.061036e-001 4.171830e-001 2.483302e-001 3.694063e-001 3.187014e-001 2.594493e-001 2.995591e-001 1.342756e+000 -1.121895e-001 -2.473055e-001 -2.978244e-001 -3.242510e-001 -5.681303e-002 -4.290133e-001 1.950977e-001 -4.104592e-002 3.435020e-001 1.107415e-001 2.121161e-001 -1.309199e-001
<VARIANCE> 39
 2.467660e+001 2.863593e+001 2.966586e+001 6.031548e+001 4.369404e+001 3.923631e+001 3.564643e+001 3.246920e+001 4.618072e+001 3.371935e+001 2.952308e+001 2.912059e+001 2.543193e+001 2.438913e+000 9.285313e-001 1.223039e+000 1.616267e+000 2.094424e+000 2.421960e+000 2.114089e+000 2.018468e+000 1.873875e+000 1.707032e+000 1.686285e+000 1.384346e+000 2.450946e-001 4.449984e-001 3.011537e-001 2.861546e-001 3.538851e-001 5.236200e-001 6.537221e-001 4.659938e-001 4.859899e-001 4.216683e-001 4.256690e-001 4.085218e-001 3.545084e-001 7.602450e-002
<GCONST> 1.096658e+002
<MIXTURE> 5 1.493642e-001
<MEAN> 39
 -2.627698e+001 -2.256012e+000 1.311608e+001 -1.523163e+000 -5.940439e+000 -3.405512e+000 1.853104e+000 -3.166467e+000 2.850987e+000 -3.197835e+000 1.070483e+000 -2.297431e+000 6.961049e+001 -1.194959e+000 -7.175329e-001 -5.544767e-001 -5.977779e-001 -2.763985e-001 2.282745e-001 3.237914e-001 1.486960e-001 3.502551e-002 1.416758e-001 1.863636e-002 -8.810635e-002 2.205490e-003 1.539707e+000 1.599102e-001 -2.069995e-001 -2.460010e-001 -6.571900e-001 -8.484835e-001 -1.019810e+000 -4.911889e-001 -8.089835e-001 -4.080009e-001 -4.465788e-001 -2.184998e-001 -2.608738e-001
<VARIANCE> 39
 2.659793e+001 2.903842e+001 3.543154e+001 6.437292e+001 4.054850e+001 4.157605e+001 3.385606e+001 3.212679e+001 3.450010e+001 2.976338e+001 2.843989e+001 1.925096e+001 5.656882e+001 2.726406e+000 1.202826e+000 1.459825e+000 1.682029e+000 1.793090e+000 2.453806e+000 2.467462e+000 2.244306e+000 2.177760e+000 2.086891e+000 1.900952e+000 1.649029e+000 7.488385e-001 5.100822e-001 2.991783e-001 3.978310e-001 4.183703e-001 5.649818e-001 6.567374e-001 5.249872e-001 5.616920e-001 4.823799e-001 4.187490e-001 4.477157e-001 3.616048e-001 1.152505e-001
<GCONST> 1.139357e+002
<MIXTURE> 6 1.411985e-001
<MEAN> 39
 -1.982334e+001 2.474098e+000 1.495943e+001 -4.168408e-001 -9.251171e+000 -8.433467e+000 -4.184909e+000 -8.549716e+000 -3.913668e+000 -7.659837e+000 -2.181390e+000 -4.289104e+000 7.276246e+001 -1.314068e+000 -3.351997e-001 -3.248089e-002 -2.648862e-001 -2.013648e-001 -1.301775e-002 1.245074e-001 -1.511082e-001 -2.992280e-001 -1.532075e-001 -2.007267e-001 -2.111836e-001 1.015309e-001 1.075924e+000 -3.316993e-001 -4.612792e-001 -5.357774e-001 -6.136974e-001 -3.802254e-001 -7.020683e-001 -8.375419e-002 -3.007899e-001 8.252878e-002 -1.449213e-001 -2.604635e-002 -2.412101e-001
<VARIANCE> 39
 2.467660e+001 2.863593e+001 2.966586e+001 6.031548e+001 4.369404e+001 3.923631e+001 3.564643e+001 3.246920e+001 4.618072e+001 3.371935e+001 2.952308e+001 2.912059e+001 2.543193e+001 2.438913e+000 9.285313e-001 1.223039e+000 1.616267e+000 2.094424e+000 2.421960e+000 2.114089e+000 2.018468e+000 1.873875e+000 1.707032e+000 1.686285e+000 1.384346e+000 2.450946e-001 4.449984e-001 3.011537e-001 2.861546e-001 3.538851e-001 5.236200e-001 6.537221e-001 4.659938e-001 4.859899e-001 4.216683e-001 4.256690e-001 4.085218e-001 3.545084e-001 7.602450e-002
<GCONST> 1.096658e+002
<MIXTURE> 7 1.263507e-001
<MEAN> 39
 -1.959803e+001 3.718083e+000 1.508752e+001 -2.581174e+000 -8.847153e+000 -6.706524e+000 -3.971661e+000 -6.426385e+000 -2.402658e+000 -6.611670e+000 -8.782930e-001 -3.791638e+000 7.099725e+001 -4.417305e+000 -8.016381e-002 5.889668e-002 3.438085e-001 1.489597e+000 1.559937e+000 1.570853e+000 3.160041e-001 1.043193e+000 -1.415223e-002 3.706051e-001 -3.454496e-001 2.371758e-001 7.452415e-001 -8.384818e-001 -6.154279e-001 -5.351598e-001 -4.076034e-001 -1.192584e-001 -5.070149e-001 1.537489e-001 -3.532079e-001 2.123022e-001 -3.241530e-001 -8.760691e-002 -1.968922e-001
<VARIANCE> 39
 2.383047e+001 2.054475e+001 2.868262e+001 5.268423e+001 3.494760e+001 3.496889e+001 3.684625e+001 3.288647e+001 4.272115e+001 3.367623e+001 2.667626e+001 2.279538e+001 3.747774e+001 1.898614e+000 2.245264e+000 2.265305e+000 2.171112e+000 2.564999e+000 2.819610e+000 2.608755e+000 3.550254e+000 2.670214e+000 2.854044e+000 2.605267e+000 2.067134e+000 6.885180e-001 4.700624e-001 2.921962e-001 3.666199e-001 3.988773e-001 5.363660e-001 7.245293e-001 7.454807e-001 5.800471e-001 5.471768e-001 6.052948e-001 5.040922e-001 4.882314e-001 1.420690e-001
<GCONST> 1.171441e+002
<MIXTURE> 8 8.307055e-002
<MEAN> 39
 -2.650135e+001 -8.334876e-001 1.248390e+001 -3.645012e+000 -5.423413e+000 -1.599329e+000 1.368245e+000 -1.973218e+000 7.176746e-001 -4.279071e+000 1.036662e+000 -3.131413e+000 7.148828e+001 2.891054e+000 2.813391e-001 -2.191885e-001 -7.013748e-001 -2.058374e+000 -2.424377e+000 -1.816100e+000 -1.506482e+000 -2.002290e+000 -7.496395e-001 -1.016918e+000 -5.467086e-001 -4.137321e-002 1.729189e+000 -1.161545e-001 -1.944551e-001 -5.994148e-001 -1.059798e+000 -1.268751e+000 -1.204930e+000 -6.698117e-001 -8.507538e-001 -3.142468e-001 -5.598831e-001 -1.886135e-001 -2.890598e-002
<VARIANCE> 39
 1.519233e+001 2.362390e+001 2.667296e+001 4.004985e+001 2.659595e+001 2.894995e+001 2.747681e+001 3.254501e+001 4.075140e+001 3.614124e+001 2.691174e+001 2.277434e+001 3.326483e+001 3.602206e+000 1.423837e+000 1.701230e+000 2.123205e+000 2.588831e+000 2.635602e+000 2.561785e+000 2.876569e+000 2.651082e+000 2.057415e+000 2.538471e+000 1.755944e+000 6.524594e-001 4.414398e-001 3.773527e-001 3.964832e-001 4.706677e-001 5.106452e-001 5.114420e-001 5.952175e-001 6.667916e-001 5.918075e-001 5.669379e-001 6.000720e-001 4.137399e-001 8.976656e-002
<GCONST> 1.141612e+002
<STATE> 4
<NUMMIXES> 8
<MIXTURE> 1 1.015871e-001
<MEAN> 39
 -1.617266e+001 4.242198e+000 1.541140e+001 1.418494e+000 -4.687912e+000 -3.415499e+000 -9.593331e-001 -3.654200e+000 2.708476e+000 -3.553948e+000 1.106583e+000 -4.629182e-001 7.108429e+001 1.934126e+000 1.128080e+000 -6.196948e-001 3.010295e-001 1.230287e+000 1.384241e+000 -1.149952e-002 6.009010e-001 3.728725e-001 6.683107e-001 -5.675970e-004 1.627872e-001 -1.810263e+000 1.066422e+000 8.671505e-002 -2.121952e-001 2.584994e-001 1.869325e-001 6.274864e-002 8.167974e-002 1.437003e-001 -1.133457e-001 2.674164e-001 2.308156e-002 -7.724465e-002 -2.423450e-001
<VARIANCE> 39
 4.428254e+001 4.011964e+001 4.247343e+001 6.261752e+001 5.755413e+001 5.609338e+001 4.492504e+001 3.901458e+001 5.449112e+001 3.511681e+001 3.191281e+001 2.508521e+001 5.260111e+001 3.828765e+000 1.437627e+000 2.710286e+000 2.679179e+000 2.802495e+000 3.679252e+000 3.207208e+000 2.741260e+000 3.170359e+000 2.673707e+000 2.212518e+000 1.853217e+000 2.091632e+000 7.347261e-001 3.711104e-001 5.394861e-001 4.657486e-001 5.838152e-001 8.272706e-001 5.899225e-001 5.602469e-001 6.273505e-001 5.117373e-001 4.301672e-001 3.576844e-001 4.272536e-001
<GCONST> 1.249065e+002
<MIXTURE> 2 1.717889e-001
<MEAN> 39
 -5.486426e+000 -8.443737e-002 1.393262e+001 -1.158520e+000 -1.351861e+001 -1.092857e+001 -5.203273e+000 -2.809248e+000 -1.955824e+000 -4.119142e+000 1.678514e+000 -1.850205e-001 7.450545e+001 3.849969e+000 -1.839560e+000 -1.159967e+000 -1.229417e+000 -1.167916e+000 -1.881910e-001 -1.639527e+000 1.996324e+000 -1.363976e-001 6.067804e-001 3.234913e-002 1.847531e-001 5.764402e-001 -6.046245e-001 -1.019881e-001 -1.364907e-001 2.215198e-001 8.565608e-001 8.200715e-001 3.177714e-001 4.686516e-001 5.008746e-001 4.059356e-001 -7.981479e-002 -1.214650e-001 2.899162e-002
<VARIANCE> 39
 1.538948e+001 2.526538e+001 2.730867e+001 5.976833e+001 3.443626e+001 2.884062e+001 3.549237e+001 3.230722e+001 3.818461e+001 2.671486e+001 2.706313e+001 1.961761e+001 3.811731e+001 2.329183e+000 1.879499e+000 2.432180e+000 2.277072e+000 3.000561e+000 4.427043e+000 4.719148e+000 3.315176e+000 3.724242e+000 3.744363e+000 3.309287e+000 2.355156e+000 4.498109e-001 3.830147e-001 3.103093e-001 2.456672e-001 3.454633e-001 4.429612e-001 4.802658e-001 4.938997e-001 5.216853e-001 4.275374e-001 5.182635e-001 4.092955e-001 3.296551e-001 6.582179e-002
<GCONST> 1.145097e+002
<MIXTURE> 3 1.287180e-001
<MEAN> 39
 -1.535991e+001 2.162022e+000 1.710171e+001 5.239000e+000 -5.948186e+000 -6.186189e+000 4.026170e-001 -4.177670e+000 2.591914e+000 -2.820379e+000 8.111144e-001 -2.615628e-001 7.130959e+001 4.145809e+000 5.135998e-001 -2.284076e-002 -5.825799e-001 -1.471046e+000 -8.719177e-001 -1.863981e+000 2.224152e-001 -1.038016e+000 -2.696329e-001 2.739831e-001 2.661856e-001 1.846736e-001 8.958166e-001 -3.318711e-001 -1.750807e-001 -2.860037e-001 -2.756580e-001 2.487926e-001 -4.406349e-001 4.268410e-001 -4.802001e-002 1.317038e-001 2.561206e-001 -2.047595e-002 1.520146e-001
<VARIANCE> 39
 2.824085e+001 2.919327e+001 4.153254e+001 5.524965e+001 4.908690e+001 5.211114e+001 4.405725e+001 3.515190e+001 3.841422e+001 2.860946e+001 3.091636e+001 2.458004e+001 5.361374e+001 3.271303e+000 2.533417e+000 3.067082e+000 2.424366e+000 2.862266e+000 3.917416e+000 3.444798e+000 3.418390e+000 2.969018e+000 2.501172e+000 2.302309e+000 1.950379e+000 8.339285e-001 4.855160e-001 3.325945e-001 3.335775e-001 3.497654e-001 4.209870e-001 6.434582e-001 5.939146e-001 5.933933e-001 5.525573e-001 4.868790e-001 4.480760e-001 3.636340e-001 1.209998e-001
<GCONST> 1.197090e+002
<MIXTURE> 4 9.790010e-002
<MEAN> 39
 -1.455603e+001 5.953033e+000 1.542439e+001 -5.404194e+000 -1.061241e+001 -8.411732e+000 -5.427400e+000 -7.512001e+000 -5.454613e+000 -5.751289e+000 -2.561745e-001 -4.120304e+000 7.477689e+001 4.988234e+000 -5.074276e-001 -2.564590e-001 -1.690840e+000 -2.677529e+000 -2.339909e+000 -1.422839e+000 -6.941653e-001 -1.266234e+000 1.209946e+000 -4.805171e-001 5.415319e-001 2.849071e-001 3.559230e-001 -5.932057e-001 -2.270599e-001 -1.467677e-001 2.146739e-001 2.874928e-001 3.353539e-001 7.680821e-001 3.379861e-001 5.306505e-001 -6.297024e-002 3.976034e-001 8.427179e-002
<VARIANCE> 39
 1.924339e+001 1.655298e+001 1.866883e+001 2.971955e+001 3.048605e+001 2.764692e+001 2.188070e+001 2.792773e+001 2.558145e+001 3.163319e+001 2.164978e+001 1.959087e+001 2.369979e+001 2.476433e+000 2.087323e+000 2.241112e+000 2.831867e+000 3.033399e+000 4.128592e+000 3.779129e+000 3.601164e+000 3.504083e+000 3.069426e+000 3.528141e+000 2.028859e+000 5.631356e-001 5.686869e-001 2.114657e-001 2.494964e-001 3.570975e-001 4.802212e-001 5.062117e-001 5.136309e-001 5.605946e-001 5.065210e-001 4.259835e-001 4.464256e-001 3.076915e-001 7.268570e-002
<GCONST> 1.118858e+002
<MIXTURE> 5 1.717889e-001
<MEAN> 39
 -7.055603e+000 -2.095025e+000 1.184232e+001 -4.250920e+000 -1.586591e+001 -1.307671e+001 -7.586291e+000 -5.082826e+000 -4.427572e+000 -6.186599e+000 -4.023753e-001 -1.956691e+000 7.203587e+001 3.239503e+000 -2.387940e+000 -1.783785e+000 -1.833015e+000 -1.860802e+000 -1.029813e+000 -2.508471e+000 1.268018e+000 -9.083294e-001 -1.672339e-001 -6.953087e-001 -4.291075e-001 3.081684e-001 -8.521772e-001 -3.248097e-001 -3.347500e-001 -1.358475e-002 5.903395e-001 5.428666e-001 3.665940e-002 1.797404e-001 2.393292e-001 1.179736e-001 -3.357196e-001 -3.511274e-001 -7.363141e-002
<VARIANCE> 39
 1.538948e+001 2.526538e+001 2.730867e+001 5.976833e+001 3.443626e+001 2.884062e+001 3.549237e+001 3.230722e+001 3.818461e+001 2.671486e+001 2.706313e+001 1.961761e+001 3.811731e+001 2.329183e+000 1.879499e+000 2.432180e+000 2.277072e+000 3.000561e+000 4.427043e+000 4.719148e+000 3.315176e+000 3.724242e+000 3.744363e+000 3.309287e+000 2.355156e+000 4.498109e-001 3.830147e-001 3.103093e-001 2.456672e-001 3.454633e-001 4.429612e-001 4.802658e-001 4.938997e-001 5.216853e-001 4.275374e-001 5.182635e-001 4.092955e-001 3.296551e-001 6.582179e-002
<GCONST> 1.145097e+002
<MIXTURE> 6 1.287180e-001
<MEAN> 39
 -1.748559e+001 7.900668e-004 1.452388e+001 2.265796e+000 -8.750669e+000 -9.073711e+000 -2.252409e+000 -6.549232e+000 1.127459e-001 -4.959891e+000 -1.412985e+000 -2.244693e+000 6.838072e+001 3.422339e+000 -1.230687e-001 -7.233642e-001 -1.205395e+000 -2.147776e+000 -1.663616e+000 -2.606387e+000 -5.171404e-001 -1.727250e+000 -9.022367e-001 -3.329514e-001 -2.924382e-001 -1.806051e-001 6.171006e-001 -5.625551e-001 -4.061053e-001 -5.225676e-001 -5.351920e-001 -7.207078e-002 -7.488983e-001 1.187128e-001 -3.453568e-001 -1.474030e-001 -1.163336e-002 -2.616842e-001 1.287454e-002
<VARIANCE> 39
 2.824085e+001 2.919327e+001 4.153254e+001 5.524965e+001 4.908690e+001 5.211114e+001 4.405725e+001 3.515190e+001 3.841422e+001 2.860946e+001 3.091636e+001 2.458004e+001 5.361374e+001 3.271303e+000 2.533417e+000 3.067082e+000 2.424366e+000 2.862266e+000 3.917416e+000 3.444798e+000 3.418390e+000 2.969018e+000 2.501172e+000 2.302309e+000 1.950379e+000 8.339285e-001 4.855160e-001 3.325945e-001 3.335775e-001 3.497654e-001 4.209870e-001 6.434582e-001 5.939146e-001 5.933933e-001 5.525573e-001 4.868790e-001 4.480760e-001 3.636340e-001 1.209998e-001
<GCONST> 1.197090e+002
<MIXTURE> 7 1.015871e-001
<MEAN> 39
 -1.883446e+001 1.708596e+000 1.280454e+001 -1.746755e+000 -7.722490e+000 -6.411320e+000 -3.640379e+000 -6.152666e+000 -2.442480e-001 -5.924326e+000 -1.153074e+000 -2.466324e+000 6.818323e+001 1.151436e+000 6.484754e-001 -1.278213e+000 -3.536984e-001 5.606607e-001 6.169854e-001 -7.278467e-001 -6.136902e-002 -3.393475e-001 1.425173e-002 -5.955490e-001 -3.817444e-001 -2.388762e+000 7.235573e-001 -1.569603e-001 -5.059940e-001 -1.448365e-002 -1.186987e-001 -3.010690e-001 -2.255459e-001 -1.556983e-001 -4.301675e-001 -1.872683e-002 -2.392670e-001 -3.164715e-001 -5.038036e-001
<VARIANCE> 39
 4.428254e+001 4.011964e+001 4.247343e+001 6.261752e+001 5.755413e+001 5.609338e+001 4.492504e+001 3.901458e+001 5.449112e+001 3.511681e+001 3.191281e+001 2.508521e+001 5.260111e+001 3.828765e+000 1.437627e+000 2.710286e+000 2.679179e+000 2.802495e+000 3.679252e+000 3.207208e+000 2.741260e+000 3.170359e+000 2.673707e+000 2.212518e+000 1.853217e+000 2.091632e+000 7.347261e-001 3.711104e-001 5.394861e-001 4.657486e-001 5.838152e-001 8.272706e-001 5.899225e-001 5.602469e-001 6.273505e-001 5.117373e-001 4.301672e-001 3.576844e-001 4.272536e-001
<GCONST> 1.249065e+002
<MIXTURE> 8 9.790010e-002
<MEAN> 39
 -1.631073e+001 4.325619e+000 1.369609e+001 -7.584820e+000 -1.282097e+001 -1.051495e+001 -7.298472e+000 -9.625868e+000 -7.477737e+000 -8.001024e+000 -2.117347e+000 -5.890767e+000 7.282959e+001 4.358767e+000 -1.085330e+000 -8.552728e-001 -2.363966e+000 -3.374195e+000 -3.152667e+000 -2.200438e+000 -1.453235e+000 -2.015002e+000 5.091552e-001 -1.231851e+000 -2.822022e-002 -1.526233e-002 5.427763e-002 -7.771473e-001 -4.268583e-001 -3.857983e-001 -6.251809e-002 2.898581e-003 4.868170e-002 4.685906e-001 5.330492e-002 2.695809e-001 -3.302306e-001 1.757236e-001 -2.356935e-002
<VARIANCE> 39
 1.924339e+001 1.655298e+001 1.866883e+001 2.971955e+001 3.048605e+001 2.764692e+001 2.188070e+001 2.792773e+001 2.558145e+001 3.163319e+001 2.164978e+001 1.959087e+001 2.369979e+001 2.476433e+000 2.087323e+000 2.241112e+000 2.831867e+000 3.033399e+000 4.128592e+000 3.779129e+000 3.601164e+000 3.504083e+000 3.069426e+000 3.528141e+000 2.028859e+000 5.631356e-001 5.686869e-001 2.114657e-001 2.494964e-001 3.570975e-001 4.802212e-001 5.062117e-001 5.136309e-001 5.605946e-001 5.065210e-001 4.259835e-001 4.464256e-001 3.076915e-001 7.268570e-002
<GCONST> 1.118858e+002
<TRANSP> 5
 0.000000e+000 1.000000e+000 0.000000e+000 0.000000e+000 0.000000e+000
 0.000000e+000 6.493902e-001 3.506098e-001 0.000000e+000 0.000000e+000
 0.000000e+000 0.000000e+000 7.584882e-001 2.415118e-001 0.000000e+000
 0.000000e+000 0.000000e+000 0.000000e+000 6.598685e-001 3.401315e-001
 0.000000e+000 0.000000e+000 0.000000e+000 0.000000e+000 0.000000e+000
<ENDHMM>
~h "a"
<BEGINHMM>
<NUMSTATES> 5
<STATE> 2
<NUMMIXES> 8
<MIXTURE> 1 1.742048e-001
<MEAN> 39
 2.426375e+000 -8.565592e+000 -2.402657e+000 -8.593770e+000 -6.729685e+000 3.681442e+000 -8.675229e+000 1.460876e+000 4.534467e+000 3.999641e+000 1.348064e+000 -9.298731e+000 7.559246e+001 1.169683e+000 -1.340055e+000 -8.496995e-002 -6.032692e-001 2.025087e-001 1.460781e+000 -3.428809e-001 1.210228e+000 7.269978e-001 4.774117e-001 1.888053e-001 -1.107441e+000 1.237972e+000 -4.793886e-001 8.526612e-001 4.021147e-001 7.667165e-001 5.737533e-001 -2.347800e-001 6.610474e-001 -4.474476e-002 -1.640183e-001 6.353263e-002 9.646918e-002 8.367442e-001 -5.756027e-001
<VARIANCE> 39
 2.017598e+001 4.285837e+001 3.944554e+001 6.916079e+001 4.881909e+001 7.962804e+001 6.038699e+001 5.745641e+001 5.027169e+001 5.555045e+001 5.295640e+001 2.919722e+001 5.092320e+001 2.086439e+000 2.039924e+000 2.051531e+000 2.702925e+000 3.396983e+000 3.641152e+000 3.248399e+000 3.425813e+000 3.127058e+000 2.861423e+000 2.915306e+000 2.518993e+000 1.073641e+000 3.919130e-001 4.247767e-001 4.139050e-001 5.189304e-001 6.124634e-001 6.672261e-001 6.500109e-001 7.064894e-001 6.397197e-001 5.927480e-001 5.580970e-001 4.855134e-001 2.573797e-001
<GCONST> 1.256823e+002
<MIXTURE> 2 7.077600e-002
<MEAN> 39
 -1.122826e+001 -7.845336e-001 -2.148173e+000 -1.365398e+000 -1.052518e-001 2.960943e+000 -2.577765e-001 3.028445e+000 4.090903e+000 2.470153e+000 1.061521e+000 -4.020994e-001 5.298749e+001 7.778940e-001 -4.632106e-001 -2.325203e-001 -1.369015e-001 1.042876e+000 1.015057e+000 1.793710e-001 6.721190e-002 8.469190e-002 3.416254e-001 -1.605146e-001 -2.242233e-001 1.512401e+000 5.060340e-001 -2.435197e-001 1.543591e-001 -2.369658e-001 3.994288e-002 2.467532e-001 -1.184361e-001 8.352770e-002 -5.979149e-002 7.789463e-002 -1.189108e-002 -8.261026e-002 9.613596e-001
<VARIANCE> 39
 8.180622e+001 5.872121e+001 7.688799e+001 9.094389e+001 8.781950e+001 8.322207e+001 6.694304e+001 5.283869e+001 5.886893e+001 5.460234e+001 4.957264e+001 4.611514e+001 2.132379e+002 2.983488e+000 5.026630e+000 3.557367e+000 4.909885e+000 4.233321e+000 4.660612e+000 4.473673e+000 4.190166e+000 4.722796e+000 3.556428e+000 3.841742e+000 3.561471e+000 6.861930e+000 4.011128e-001 7.327600e-001 6.108264e-001 7.954093e-001 7.314892e-001 7.735360e-001 7.433068e-001 7.193224e-001 8.149360e-001 6.724208e-001 7.387696e-001 6.516763e-001 1.041682e+000
<GCONST> 1.416582e+002
<MIXTURE> 3 1.633679e-001
<MEAN> 39
 -4.379098e-001 -8.979565e+000 -4.629421e+000 -1.295854e+001 -2.858703e+000 -3.780916e+000 -5.462220e+000 3.749864e+000 -1.196444e+000 3.698044e-001 -1.060142e+001 -2.535493e+000 7.796059e+001 1.001827e+000 -1.411205e+000 -7.236853e-001 -8.431959e-001 1.084447e+000 9.001531e-001 1.448423e-001 1.111431e+000 -1.811276e-001 2.841936e-001 -1.281428e+000 4.264744e-002 1.348935e+000 -3.629614e-001 9.473827e-001 6.527041e-001 1.066929e+000 2.989438e-001 2.702821e-001 5.199406e-001 -2.776485e-001 3.485294e-001 2.268560e-001 9.539027e-001 2.816171e-001 -7.342711e-001
<VARIANCE> 39
 1.287809e+001 3.797984e+001 4.052714e+001 4.685470e+001 6.644807e+001 8.127871e+001 7.143007e+001 6.164362e+001 5.316616e+001 6.345280e+001 3.778214e+001 3.904083e+001 2.524142e+001 1.813342e+000 2.234215e+000 2.553232e+000 3.631505e+000 3.812576e+000 3.937979e+000 3.813867e+000 3.678922e+000 4.084970e+000 3.636084e+000 3.516904e+000 3.034990e+000 1.260046e+000 4.451034e-001 4.678725e-001 4.891641e-001 6.271386e-001 8.094282e-001 9.109318e-001 7.744302e-001 8.489162e-001 8.417925e-001 8.449528e-001 7.044076e-001 5.198041e-001 4.048160e-001
<GCONST> 1.296008e+002
<MIXTURE> 4 9.162620e-002
<MEAN> 39
 -1.862428e+000 -5.802140e+000 -4.603753e+000 -8.658018e+000 -2.638369e-001 7.407436e-001 -3.047946e+000 -6.957692e-001 1.460399e+000 1.596965e+000 -3.336046e+000 -3.865326e+000 7.188838e+001 3.485030e+000 -2.264621e+000 -6.454458e-001 -2.708214e+000 -5.090322e-001 9.713036e-001 -1.624915e+000 -5.137062e-002 -7.543345e-001 1.147778e-001 -1.419660e+000 -1.746980e+000 4.581806e+000 -3.016907e-001 5.043382e-001 4.335054e-001 6.453695e-001 1.679979e-001 2.533030e-001 4.645914e-001 5.323146e-001 3.607615e-001 2.524768e-001 5.037044e-001 4.225732e-001 -4.964868e-001
<VARIANCE> 39
 2.518400e+001 5.595097e+001 3.714355e+001 6.221759e+001 6.181687e+001 8.869907e+001 6.626480e+001 4.644101e+001 4.903027e+001 4.420925e+001 5.232299e+001 4.158601e+001 7.534590e+001 2.931804e+000 4.887119e+000 4.413177e+000 4.739340e+000 6.180265e+000 8.029707e+000 5.658914e+000 5.928818e+000 6.574800e+000 5.642562e+000 7.473279e+000 4.414259e+000 5.436389e+000 5.553995e-001 9.847041e-001 5.304021e-001 8.385485e-001 8.865296e-001 9.311254e-001 7.812765e-001 7.039546e-001 7.855691e-001 6.450984e-001 7.373267e-001 6.040578e-001 1.201843e+000
<GCONST> 1.414184e+002
<MIXTURE> 5 1.742048e-001
<MEAN> 39
 6.296674e-001 -1.118424e+001 -4.914885e+000 -1.192029e+001 -9.524511e+000 1.120602e-001 -1.178359e+001 -1.571125e+000 1.698365e+000 1.018354e+000 -1.562782e+000 -1.146011e+001 7.273804e+001 5.919021e-001 -1.911359e+000 -6.578966e-001 -1.260892e+000 -5.347275e-001 6.975089e-001 -1.063814e+000 4.698698e-001 1.965821e-002 -1.992179e-001 -4.941655e-001 -1.742295e+000 8.235056e-001 -7.298005e-001 5.919616e-001 1.447729e-001 4.785692e-001 2.607131e-001 -5.615156e-001 3.385544e-001 -3.809564e-001 -4.839483e-001 -2.444279e-001 -2.023544e-001 5.580291e-001 -7.785331e-001
<VARIANCE> 39
 2.017598e+001 4.285837e+001 3.944554e+001 6.916079e+001 4.881909e+001 7.962804e+001 6.038699e+001 5.745641e+001 5.027169e+001 5.555045e+001 5.295640e+001 2.919722e+001 5.092320e+001 2.086439e+000 2.039924e+000 2.051531e+000 2.702925e+000 3.396983e+000 3.641152e+000 3.248399e+000 3.425813e+000 3.127058e+000 2.861423e+000 2.915306e+000 2.518993e+000 1.073641e+000 3.919130e-001 4.247767e-001 4.139050e-001 5.189304e-001 6.124634e-001 6.672261e-001 6.500109e-001 7.064894e-001 6.397197e-001 5.927480e-001 5.580970e-001 4.855134e-001 2.573797e-001
<GCONST> 1.256823e+002
<MIXTURE> 6 1.633679e-001
<MEAN> 39
 -1.873352e+000 -1.144468e+001 -7.175858e+000 -1.569656e+001 -6.119331e+000 -7.387104e+000 -8.842873e+000 6.093260e-001 -4.113050e+000 -2.816486e+000 -1.306010e+001 -5.034799e+000 7.595097e+001 4.631858e-001 -2.009097e+000 -1.362839e+000 -1.605456e+000 3.034143e-001 1.063794e-001 -6.363227e-001 3.442108e-001 -9.895800e-001 -4.785471e-001 -2.031564e+000 -6.542014e-001 8.999275e-001 -6.298257e-001 6.737779e-001 3.729430e-001 7.501606e-001 -6.092906e-002 -1.114889e-001 1.679338e-001 -6.461951e-001 -1.846761e-002 -1.408292e-001 6.181867e-001 -6.772681e-003 -9.887717e-001
<VARIANCE> 39
 1.287809e+001 3.797984e+001 4.052714e+001 4.685470e+001 6.644807e+001 8.127871e+001 7.143007e+001 6.164362e+001 5.316616e+001 6.345280e+001 3.778214e+001 3.904083e+001 2.524142e+001 1.813342e+000 2.234215e+000 2.553232e+000 3.631505e+000 3.812576e+000 3.937979e+000 3.813867e+000 3.678922e+000 4.084970e+000 3.636084e+000 3.516904e+000 3.034990e+000 1.260046e+000 4.451034e-001 4.678725e-001 4.891641e-001 6.271386e-001 8.094282e-001 9.109318e-001 7.744302e-001 8.489162e-001 8.417925e-001 8.449528e-001 7.044076e-001 5.198041e-001 4.048160e-001
<GCONST> 1.296008e+002
<MIXTURE> 7 9.162620e-002
<MEAN> 39
 -3.869774e+000 -8.794155e+000 -7.041573e+000 -1.181314e+001 -3.408785e+000 -3.026464e+000 -6.304074e+000 -3.421675e+000 -1.340466e+000 -1.062637e+000 -6.229432e+000 -6.444815e+000 6.841631e+001 2.800130e+000 -3.148894e+000 -1.485748e+000 -3.579015e+000 -1.503438e+000 -1.621658e-001 -2.576453e+000 -1.025337e+000 -1.779989e+000 -8.353853e-001 -2.513152e+000 -2.587386e+000 3.649163e+000 -5.997912e-001 1.074092e-001 1.421906e-001 2.790803e-001 -2.086249e-001 -1.326764e-001 1.110320e-001 1.967066e-001 6.232134e-003 -6.879522e-002 1.602335e-001 1.116886e-001 -9.350012e-001
<VARIANCE> 39
 2.518400e+001 5.595097e+001 3.714355e+001 6.221759e+001 6.181687e+001 8.869907e+001 6.626480e+001 4.644101e+001 4.903027e+001 4.420925e+001 5.232299e+001 4.158601e+001 7.534590e+001 2.931804e+000 4.887119e+000 4.413177e+000 4.739340e+000 6.180265e+000 8.029707e+000 5.658914e+000 5.928818e+000 6.574800e+000 5.642562e+000 7.473279e+000 4.414259e+000 5.436389e+000 5.553995e-001 9.847041e-001 5.304021e-001 8.385485e-001 8.865296e-001 9.311254e-001 7.812765e-001 7.039546e-001 7.855691e-001 6.450984e-001 7.373267e-001 6.040578e-001 1.201843e+000
<GCONST> 1.414184e+002
<MIXTURE> 8 7.077600e-002
<MEAN> 39
 -1.484614e+001 -3.849724e+000 -5.655605e+000 -5.179978e+000 -3.853734e+000 -6.881016e-001 -3.530525e+000 1.208364e-001 1.021859e+000 -4.855826e-001 -1.754792e+000 -3.118425e+000 4.714643e+001 8.698288e-002 -1.360016e+000 -9.869597e-001 -1.023232e+000 2.198746e-001 1.515186e-001 -6.666714e-001 -7.515839e-001 -7.845879e-001 -4.127144e-001 -9.445291e-001 -9.790977e-001 4.645891e-001 2.527002e-001 -5.859253e-001 -1.582624e-001 -5.937086e-001 -3.021657e-001 -1.050503e-001 -4.632971e-001 -2.557238e-001 -4.208867e-001 -2.501104e-001 -3.556979e-001 -4.055161e-001 5.531083e-001
<VARIANCE> 39
 8.180622e+001 5.872121e+001 7.688799e+001 9.094389e+001 8.781950e+001 8.322207e+001 6.694304e+001 5.283869e+001 5.886893e+001 5.460234e+001 4.957264e+001 4.611514e+001 2.132379e+002 2.983488e+000 5.026630e+000 3.557367e+000 4.909885e+000 4.233321e+000 4.660612e+000 4.473673e+000 4.190166e+000 4.722796e+000 3.556428e+000 3.841742e+000 3.561471e+000 6.861930e+000 4.011128e-001 7.327600e-001 6.108264e-001 7.954093e-001 7.314892e-001 7.735360e-001 7.433068e-001 7.193224e-001 8.149360e-001 6.724208e-001 7.387696e-001 6.516763e-001 1.041682e+000
<GCONST> 1.416582e+002
<STATE> 3
<NUMMIXES> 8
<MIXTURE> 1 1.074040e-001
<MEAN> 39
 2.403500e+000 -1.078146e+001 -1.873799e+000 -9.465518e+000 -4.683349e+000 2.928283e+000 -8.516821e+000 3.230959e+000 3.158312e+000 3.577164e+000 -1.117070e+000 -9.226620e+000 7.698376e+001 1.780759e-001 1.460886e+000 7.365319e-001 1.043896e+000 8.871093e-001 -2.033978e-001 6.635785e-001 3.930133e-001 4.377703e-002 4.251169e-001 3.614001e-001 8.460612e-001 -4.897721e-001 -5.533060e-001 1.409768e+000 4.514853e-001 1.004016e+000 5.426625e-001 -2.565151e-001 9.464959e-001 -2.258683e-001 1.431437e-001 9.592957e-002 3.840400e-001 9.778403e-001 -9.384502e-001
<VARIANCE> 39
 1.847196e+001 4.756494e+001 4.911024e+001 6.710661e+001 5.295074e+001 8.134574e+001 6.720057e+001 6.276012e+001 5.934848e+001 6.482005e+001 5.884410e+001 3.347837e+001 3.889679e+001 1.226043e+000 2.810424e+000 2.508320e+000 2.968519e+000 3.924281e+000 4.317410e+000 3.729092e+000 4.255476e+000 3.380949e+000 3.210638e+000 3.690483e+000 2.463276e+000 1.740729e+000 4.973905e-001 4.186191e-001 5.326481e-001 6.532896e-001 7.620926e-001 8.515611e-001 8.209491e-001 8.997962e-001 1.038937e+000 8.262402e-001 7.534052e-001 5.678136e-001 4.127607e-001
<GCONST> 1.315112e+002
<MIXTURE> 2 1.474206e-001
<MEAN> 39
 2.342132e+000 -9.985773e+000 -3.247238e+000 -1.060089e+001 -5.236256e+000 5.758026e+000 -9.523593e+000 3.095668e+000 2.570558e+000 3.561441e+000 -9.406463e-001 -9.433237e+000 7.531649e+001 1.457374e-001 3.168600e-001 1.665440e-001 2.142945e-001 5.675908e-001 4.271324e-001 3.635210e-001 1.405194e-001 1.036375e-001 3.661816e-001 2.372889e-001 2.678512e-001 -3.592772e-002 -3.713257e-002 6.555806e-001 3.535630e-001 5.032654e-001 2.395473e-002 -2.923514e-001 2.611193e-001 -2.475575e-001 4.381108e-003 7.592611e-002 2.756715e-001 5.410010e-001 -3.457542e-001
<VARIANCE> 39
 2.182150e+001 4.633092e+001 3.638733e+001 8.082465e+001 4.767588e+001 6.079202e+001 5.889618e+001 4.806105e+001 5.076661e+001 5.191371e+001 6.445887e+001 3.169084e+001 5.306529e+001 3.308093e-001 9.094396e-001 1.084967e+000 1.434754e+000 1.723519e+000 2.301651e+000 1.834690e+000 2.041289e+000 1.795524e+000 1.653701e+000 2.015180e+000 1.407607e+000 3.865841e-001 7.915771e-002 1.942476e-001 1.809873e-001 2.803025e-001 2.881254e-001 3.076539e-001 3.221552e-001 3.700646e-001 3.836459e-001 3.134833e-001 3.234611e-001 2.781166e-001 1.013175e-001
<GCONST> 1.065713e+002
<MIXTURE> 3 1.176271e-001
<MEAN> 39
 -7.330837e-001 -9.210538e+000 -8.552431e+000 -1.302760e+001 2.322179e+000 -1.913422e+000 -1.157466e+000 -3.128272e+000 1.259941e+000 -2.053053e+000 -7.626355e+000 -5.750687e+000 7.808053e+001 1.569853e-001 3.094521e-001 1.136220e-001 3.440924e-001 4.848412e-001 3.038743e-001 2.830024e-001 4.890753e-002 3.585513e-001 1.702325e-001 2.567402e-001 1.644289e-001 -4.816041e-003 1.367241e-001 4.887584e-001 5.336378e-001 3.004493e-001 -3.127486e-001 7.037614e-003 -1.362053e-001 2.505828e-001 1.906328e-002 3.096072e-001 3.423866e-001 2.070318e-001 -3.144855e-001
<VARIANCE> 39
 9.889272e+000 2.722869e+001 2.661124e+001 4.541291e+001 4.156217e+001 1.146211e+002 8.971452e+001 5.231090e+001 4.628658e+001 4.924967e+001 4.855915e+001 4.197162e+001 2.717500e+001 3.910106e-001 8.408610e-001 1.082530e+000 1.176420e+000 1.819801e+000 1.854125e+000 1.710507e+000 1.958469e+000 1.556823e+000 1.750432e+000 1.503095e+000 1.365520e+000 3.981664e-001 8.858246e-002 1.798408e-001 2.238473e-001 2.763392e-001 2.656076e-001 3.135687e-001 3.258462e-001 3.267204e-001 3.320879e-001 3.155716e-001 2.861895e-001 2.955430e-001 1.130945e-001
<GCONST> 1.037486e+002
<MIXTURE> 4 1.275105e-001
<MEAN> 39
 -7.546896e-001 -1.124258e+001 -4.711704e+000 -1.320764e+001 -2.423524e+000 -3.685439e+000 -6.591598e+000 5.236530e+000 -4.185648e+000 -1.626737e+000 -1.391429e+001 -5.305074e-001 7.889645e+001 3.631712e-001 1.433475e+000 7.643776e-001 8.822390e-001 2.950558e-001 -9.092063e-002 4.268321e-001 -1.982410e-001 5.358252e-001 3.412745e-001 6.363837e-001 3.625448e-001 -6.007079e-001 -8.124430e-002 1.245142e+000 6.267470e-001 9.453561e-001 5.447523e-002 2.926218e-002 4.318500e-001 -4.176376e-001 6.250355e-001 2.643062e-001 1.081059e+000 -4.705098e-002 -8.487789e-001
<VARIANCE> 39
 9.544280e+000 3.597890e+001 3.335657e+001 4.067793e+001 6.025350e+001 5.094309e+001 5.402121e+001 4.596381e+001 5.015477e+001 5.608536e+001 2.816215e+001 3.820597e+001 2.200487e+001 7.704224e-001 2.437836e+000 2.392066e+000 2.054134e+000 3.233572e+000 3.306118e+000 3.167062e+000 3.218134e+000 3.397111e+000 3.361151e+000 2.697713e+000 2.530166e+000 1.182048e+000 2.728166e-001 3.012530e-001 3.502493e-001 5.217769e-001 6.121977e-001 6.571565e-001 6.409398e-001 6.880217e-001 7.489427e-001 6.944974e-001 5.823001e-001 4.655976e-001 2.757143e-001
<GCONST> 1.208512e+002
<MIXTURE> 5 1.474206e-001
<MEAN> 39
 4.735922e-001 -1.270845e+001 -5.660114e+000 -1.419699e+001 -7.998164e+000 2.639256e+000 -1.259335e+001 3.226245e-001 -2.794698e-001 6.793947e-001 -4.152098e+000 -1.168502e+001 7.240266e+001 -8.432667e-002 -6.459820e-002 -2.501030e-001 -2.648304e-001 4.245938e-002 -1.797154e-001 -1.782819e-001 -4.309754e-001 -4.323511e-001 -1.482036e-001 -3.305392e-001 -2.067193e-001 -2.846313e-001 -1.496725e-001 4.792865e-001 1.833926e-001 2.914910e-001 -1.907545e-001 -5.142176e-001 3.408447e-002 -4.908893e-001 -2.433755e-001 -1.480322e-001 4.817692e-002 3.300539e-001 -4.730758e-001
<VARIANCE> 39
 2.182150e+001 4.633092e+001 3.638733e+001 8.082465e+001 4.767588e+001 6.079202e+001 5.889618e+001 4.806105e+001 5.076661e+001 5.191371e+001 6.445887e+001 3.169084e+001 5.306529e+001 3.308093e-001 9.094396e-001 1.084967e+000 1.434754e+000 1.723519e+000 2.301651e+000 1.834690e+000 2.041289e+000 1.795524e+000 1.653701e+000 2.015180e+000 1.407607e+000 3.865841e-001 7.915771e-002 1.942476e-001 1.809873e-001 2.803025e-001 2.881254e-001 3.076539e-001 3.221552e-001 3.700646e-001 3.836459e-001 3.134833e-001 3.234611e-001 2.781166e-001 1.013175e-001
<GCONST> 1.065713e+002
<MIXTURE> 6 1.275105e-001
<MEAN> 39
 -1.990442e+000 -1.364188e+001 -7.021910e+000 -1.575881e+001 -5.528450e+000 -6.540416e+000 -9.531563e+000 2.524666e+000 -7.018449e+000 -4.622343e+000 -1.603701e+001 -3.002947e+000 7.702008e+001 1.207638e-002 8.089326e-001 1.457254e-001 3.089490e-001 -4.242297e-001 -8.182300e-001 -2.850175e-001 -9.158074e-001 -2.014250e-001 -3.920632e-001 -2.060500e-002 -2.737150e-001 -1.035596e+000 -2.901717e-001 1.025596e+000 3.900195e-001 6.564196e-001 -2.584970e-001 -2.949986e-001 1.116152e-001 -7.494259e-001 2.788695e-001 -6.903985e-002 7.758247e-001 -3.199898e-001 -1.058813e+000
<VARIANCE> 39
 9.544280e+000 3.597890e+001 3.335657e+001 4.067793e+001 6.025350e+001 5.094309e+001 5.402121e+001 4.596381e+001 5.015477e+001 5.608536e+001 2.816215e+001 3.820597e+001 2.200487e+001 7.704224e-001 2.437836e+000 2.392066e+000 2.054134e+000 3.233572e+000 3.306118e+000 3.167062e+000 3.218134e+000 3.397111e+000 3.361151e+000 2.697713e+000 2.530166e+000 1.182048e+000 2.728166e-001 3.012530e-001 3.502493e-001 5.217769e-001 6.121977e-001 6.571565e-001 6.409398e-001 6.880217e-001 7.489427e-001 6.944974e-001 5.823001e-001 4.655976e-001 2.757143e-001
<GCONST> 1.208512e+002
<MIXTURE> 7 1.176271e-001
<MEAN> 39
 -1.990972e+000 -1.129778e+001 -1.061588e+001 -1.572316e+001 -2.565705e-001 -6.195872e+000 -4.946176e+000 -6.021323e+000 -1.461429e+000 -4.860177e+000 -1.041373e+001 -8.342108e+000 7.599534e+001 -9.313809e-002 -5.734184e-002 -3.025569e-001 -8.975919e-002 -5.475879e-002 -2.407907e-001 -2.401430e-001 -5.108737e-001 -1.405395e-001 -3.589830e-001 -2.336629e-001 -3.029930e-001 -2.572177e-001 1.767284e-002 3.191278e-001 3.443878e-001 9.017736e-002 -5.188971e-001 -2.169512e-001 -3.645371e-001 2.194499e-002 -2.114450e-001 8.490418e-002 1.283998e-001 -1.042370e-002 -4.490036e-001
<VARIANCE> 39
 9.889272e+000 2.722869e+001 2.661124e+001 4.541291e+001 4.156217e+001 1.146211e+002 8.971452e+001 5.231090e+001 4.628658e+001 4.924967e+001 4.855915e+001 4.197162e+001 2.717500e+001 3.910106e-001 8.408610e-001 1.082530e+000 1.176420e+000 1.819801e+000 1.854125e+000 1.710507e+000 1.958469e+000 1.556823e+000 1.750432e+000 1.503095e+000 1.365520e+000 3.981664e-001 8.858246e-002 1.798408e-001 2.238473e-001 2.763392e-001 2.656076e-001 3.135687e-001 3.258462e-001 3.267204e-001 3.320879e-001 3.155716e-001 2.861895e-001 2.955430e-001 1.130945e-001
<GCONST> 1.037486e+002
<MIXTURE> 8 1.074040e-001
<MEAN> 39
 6.843397e-001 -1.354016e+001 -4.676947e+000 -1.274226e+001 -7.594039e+000 -6.793914e-001 -1.179586e+001 6.210731e-002 7.679370e-002 3.567280e-001 -4.185466e+000 -1.154104e+001 7.448907e+001 -2.648314e-001 7.903136e-001 1.030248e-001 3.547204e-001 9.471735e-002 -1.034533e+000 -1.088558e-001 -4.321389e-001 -6.917173e-001 -2.916133e-001 -4.070251e-001 2.182682e-001 -1.017519e+000 -8.354096e-001 1.150964e+000 1.595543e-001 6.807107e-001 1.934709e-001 -6.256353e-001 5.840709e-001 -6.052986e-001 -2.645693e-001 -2.676615e-001 3.684437e-002 6.764266e-001 -1.195436e+000
<VARIANCE> 39
 1.847196e+001 4.756494e+001 4.911024e+001 6.710661e+001 5.295074e+001 8.134574e+001 6.720057e+001 6.276012e+001 5.934848e+001 6.482005e+001 5.884410e+001 3.347837e+001 3.889679e+001 1.226043e+000 2.810424e+000 2.508320e+000 2.968519e+000 3.924281e+000 4.317410e+000 3.729092e+000 4.255476e+000 3.380949e+000 3.210638e+000 3.690483e+000 2.463276e+000 1.740729e+000 4.973905e-001 4.186191e-001 5.326481e-001 6.532896e-001 7.620926e-001 8.515611e-001 8.209491e-001 8.997962e-001 1.038937e+000 8.262402e-001 7.534052e-001 5.678136e-001 4.127607e-001
<GCONST> 1.315112e+002
<STATE> 4
<NUMMIXES> 8
<MIXTURE> 1 1.173353e-001
<MEAN> 39
 4.882792e-001 -1.349142e+000 -4.199882e+000 -7.248702e+000 8.230321e-001 -2.117471e+000 -2.900593e+000 -1.743017e+000 1.597282e+000 1.328192e+000 -5.047126e+000 -4.453077e+000 7.092072e+001 -1.469184e+000 3.193001e+000 1.471087e+000 3.182634e+000 1.593427e+000 5.557314e-001 2.241014e+000 8.588844e-001 1.407103e+000 6.168485e-001 1.730476e+000 1.280172e+000 -2.754560e+000 -6.571217e-001 -1.244332e-001 2.016549e-001 3.334250e-001 1.064300e-001 5.004872e-001 5.257438e-001 6.914577e-001 4.493978e-001 2.916183e-001 6.164208e-001 4.160439e-001 -6.423541e-002
<VARIANCE> 39
 1.394610e+001 2.925185e+001 3.064500e+001 4.465571e+001 4.304398e+001 8.134853e+001 5.511166e+001 4.632537e+001 4.046242e+001 6.651836e+001 6.436446e+001 3.955664e+001 4.851059e+001 2.561097e+000 2.628771e+000 2.521067e+000 3.506464e+000 3.599386e+000 5.038792e+000 5.244113e+000 4.167863e+000 4.680292e+000 3.823169e+000 4.418635e+000 3.461011e+000 3.619884e+000 4.558066e-001 5.083057e-001 4.086694e-001 6.307987e-001 5.623143e-001 7.815509e-001 6.791489e-001 6.081864e-001 6.230400e-001 7.762001e-001 7.217804e-001 4.889615e-001 5.212038e-001
<GCONST> 1.305608e+002
<MIXTURE> 2 1.257485e-001
<MEAN> 39
 3.473647e+000 -6.579605e+000 -3.009688e+000 -7.845788e+000 -5.795478e+000 4.316638e+000 -8.753434e+000 -1.200196e-001 2.909017e+000 4.637475e+000 1.810169e+000 -8.623702e+000 7.324136e+001 3.293119e-002 2.562804e+000 9.342915e-001 1.933962e+000 8.872975e-001 -3.372783e-001 1.106025e+000 -8.847815e-001 -5.039459e-001 3.391269e-001 7.711029e-001 1.459634e+000 -1.894376e+000 -3.058898e-001 5.543443e-001 2.777592e-001 5.822383e-001 4.116941e-001 -1.441105e-001 5.193110e-001 1.158642e-001 6.312009e-002 -5.640516e-002 -1.320910e-001 4.384335e-001 -3.401605e-001
<VARIANCE> 39
 1.834905e+001 3.367552e+001 3.475380e+001 6.672227e+001 5.004513e+001 6.047990e+001 5.932508e+001 4.851794e+001 4.275330e+001 5.138440e+001 5.887551e+001 2.897404e+001 4.964625e+001 8.460503e-001 1.740016e+000 1.804006e+000 2.780685e+000 2.918933e+000 2.717233e+000 2.823400e+000 3.042209e+000 3.237315e+000 2.827116e+000 2.827996e+000 2.028600e+000 1.502812e+000 1.443900e-001 2.664615e-001 2.941050e-001 3.858180e-001 3.877245e-001 4.615439e-001 4.735427e-001 5.020555e-001 4.966155e-001 4.490691e-001 4.556913e-001 3.873147e-001 2.435865e-001
<GCONST> 1.182247e+002
<MIXTURE> 3 1.396675e-001
<MEAN> 39
 3.461855e-001 -6.450410e+000 -5.865301e+000 -1.015529e+001 -1.358785e+000 1.677163e+000 -4.651461e+000 5.929096e-002 1.032302e+000 -1.949373e-001 -4.823461e+000 -4.897652e+000 7.371642e+001 3.739741e-001 1.608257e+000 1.484373e+000 1.078833e+000 -5.706733e-001 -1.394336e-001 3.976947e-001 -9.029807e-002 -1.036485e-001 6.038274e-001 1.026133e+000 7.907578e-001 -1.106977e+000 2.979724e-002 3.632225e-001 5.588818e-001 3.791619e-001 -3.550196e-002 4.925716e-002 5.827737e-002 9.809767e-003 -6.135980e-002 2.811666e-001 2.674299e-001 1.949013e-001 -1.548247e-001
<VARIANCE> 39
 1.952212e+001 3.859541e+001 4.517141e+001 6.644079e+001 7.051455e+001 1.074179e+002 8.419205e+001 6.365981e+001 6.146618e+001 7.013499e+001 5.906554e+001 4.032144e+001 7.002512e+001 9.070914e-001 1.717957e+000 2.911457e+000 2.831170e+000 2.916818e+000 3.996932e+000 3.220116e+000 3.977879e+000 3.928526e+000 3.489146e+000 3.086219e+000 2.981846e+000 1.154128e+000 1.503084e-001 2.567927e-001 3.448688e-001 4.471592e-001 4.519519e-001 5.851482e-001 5.342636e-001 6.332114e-001 6.137837e-001 6.070151e-001 5.109643e-001 4.414636e-001 2.686540e-001
<GCONST> 1.254324e+002
<MIXTURE> 4 1.172194e-001
<MEAN> 39
 5.941401e-001 -4.194256e+000 1.080020e+000 -7.801064e+000 -3.234723e+000 -4.367301e+000 -7.858943e+000 4.535623e+000 -1.781775e+000 2.783551e+000 -6.026527e+000 -1.766029e+000 7.229804e+001 -1.495503e-001 3.268721e+000 9.625440e-001 2.815113e+000 1.115063e+000 7.733458e-002 1.517023e+000 -8.722205e-001 1.146031e+000 2.442447e-002 1.489606e+000 4.987052e-001 -3.019829e+000 -1.836813e-001 9.963367e-002 -2.076634e-001 3.026789e-001 2.846142e-001 6.455671e-001 5.905433e-001 -3.332390e-002 5.760171e-001 2.507682e-002 4.296576e-001 -1.142340e-001 -2.011429e-001
<VARIANCE> 39
 1.542693e+001 4.115875e+001 5.213044e+001 7.028482e+001 7.411299e+001 8.278567e+001 7.049664e+001 6.436021e+001 6.237480e+001 6.322462e+001 6.434248e+001 4.064874e+001 3.809599e+001 1.794382e+000 2.263315e+000 3.452906e+000 3.049481e+000 3.746268e+000 3.932312e+000 4.119433e+000 4.325329e+000 4.764922e+000 3.666677e+000 3.584096e+000 3.154758e+000 1.999859e+000 2.947969e-001 4.562992e-001 4.821195e-001 6.807047e-001 8.457379e-001 7.323706e-001 7.568743e-001 8.502693e-001 9.008461e-001 7.329279e-001 7.331679e-001 5.329934e-001 4.538192e-001
<GCONST> 1.323882e+002
<MIXTURE> 5 1.396675e-001
<MEAN> 39
 -1.421168e+000 -8.935418e+000 -8.553688e+000 -1.341573e+001 -4.717703e+000 -2.468541e+000 -8.321710e+000 -3.132193e+000 -2.103713e+000 -3.544803e+000 -7.897625e+000 -7.437618e+000 7.036918e+001 -6.991296e-003 1.083973e+000 8.018532e-001 4.057895e-001 -1.253821e+000 -9.391267e-001 -3.200925e-001 -8.880829e-001 -8.964689e-001 -1.433428e-001 3.234274e-001 1.000369e-001 -1.536699e+000 -1.252813e-001 1.605237e-001 3.239796e-001 1.116821e-001 -3.044114e-001 -2.567228e-001 -2.340960e-001 -3.084885e-001 -3.747372e-001 -3.047804e-002 -1.849713e-002 -7.086965e-002 -3.621521e-001
<VARIANCE> 39
 1.952212e+001 3.859541e+001 4.517141e+001 6.644079e+001 7.051455e+001 1.074179e+002 8.419205e+001 6.365981e+001 6.146618e+001 7.013499e+001 5.906554e+001 4.032144e+001 7.002512e+001 9.070914e-001 1.717957e+000 2.911457e+000 2.831170e+000 2.916818e+000 3.996932e+000 3.220116e+000 3.977879e+000 3.928526e+000 3.489146e+000 3.086219e+000 2.981846e+000 1.154128e+000 1.503084e-001 2.567927e-001 3.448688e-001 4.471592e-001 4.519519e-001 5.851482e-001 5.342636e-001 6.332114e-001 6.137837e-001 6.070151e-001 5.109643e-001 4.414636e-001 2.686540e-001
<GCONST> 1.254324e+002
<MIXTURE> 6 1.257485e-001
<MEAN> 39
 1.760215e+000 -8.900829e+000 -5.367782e+000 -1.111314e+001 -8.625182e+000 1.205885e+000 -1.183435e+001 -2.906212e+000 2.935769e-001 1.770159e+000 -1.259046e+000 -1.077680e+001 7.042296e+001 -3.349928e-001 2.035166e+000 3.970384e-001 1.266946e+000 2.039021e-001 -9.966395e-001 4.339057e-001 -1.582459e+000 -1.223648e+000 -3.334343e-001 9.843706e-002 8.899181e-001 -2.384732e+000 -4.578846e-001 3.478647e-001 6.083340e-002 3.337813e-001 1.626240e-001 -4.158585e-001 2.440532e-001 -1.675593e-001 -2.187637e-001 -3.244556e-001 -4.021106e-001 1.894951e-001 -5.375785e-001
<VARIANCE> 39
 1.834905e+001 3.367552e+001 3.475380e+001 6.672227e+001 5.004513e+001 6.047990e+001 5.932508e+001 4.851794e+001 4.275330e+001 5.138440e+001 5.887551e+001 2.897404e+001 4.964625e+001 8.460503e-001 1.740016e+000 1.804006e+000 2.780685e+000 2.918933e+000 2.717233e+000 2.823400e+000 3.042209e+000 3.237315e+000 2.827116e+000 2.827996e+000 2.028600e+000 1.502812e+000 1.443900e-001 2.664615e-001 2.941050e-001 3.858180e-001 3.877245e-001 4.615439e-001 4.735427e-001 5.020555e-001 4.966155e-001 4.490691e-001 4.556913e-001 3.873147e-001 2.435865e-001
<GCONST> 1.182247e+002
<MIXTURE> 7 1.173353e-001
<MEAN> 39
 -1.005500e+000 -3.512542e+000 -6.414199e+000 -9.921699e+000 -1.801284e+000 -5.725207e+000 -5.870082e+000 -4.465527e+000 -9.471209e-001 -1.934159e+000 -8.256225e+000 -6.968841e+000 6.813474e+001 -2.109322e+000 2.544461e+000 8.359727e-001 2.433612e+000 8.345451e-001 -3.421588e-001 1.325012e+000 4.227061e-002 5.417439e-001 -1.652685e-001 8.896540e-001 5.360205e-001 -3.515600e+000 -9.271755e-001 -4.096154e-001 -5.405415e-002 1.573364e-002 -1.935205e-001 1.468658e-001 1.961018e-001 3.795125e-001 1.336662e-001 -6.079054e-002 2.765902e-001 1.363408e-001 -3.530132e-001
<VARIANCE> 39
 1.394610e+001 2.925185e+001 3.064500e+001 4.465571e+001 4.304398e+001 8.134853e+001 5.511166e+001 4.632537e+001 4.046242e+001 6.651836e+001 6.436446e+001 3.955664e+001 4.851059e+001 2.561097e+000 2.628771e+000 2.521067e+000 3.506464e+000 3.599386e+000 5.038792e+000 5.244113e+000 4.167863e+000 4.680292e+000 3.823169e+000 4.418635e+000 3.461011e+000 3.619884e+000 4.558066e-001 5.083057e-001 4.086694e-001 6.307987e-001 5.623143e-001 7.815509e-001 6.791489e-001 6.081864e-001 6.230400e-001 7.762001e-001 7.217804e-001 4.889615e-001 5.212038e-001
<GCONST> 1.305608e+002
<MIXTURE> 8 1.172194e-001
<MEAN> 39
 -9.769452e-001 -6.760459e+000 -1.808037e+000 -1.115450e+001 -6.678279e+000 -8.006765e+000 -1.121743e+001 1.326630e+000 -4.940884e+000 -3.970053e-001 -9.235078e+000 -4.316283e+000 6.982917e+001 -6.853685e-001 2.666949e+000 2.192642e-001 2.116603e+000 3.408519e-001 -7.158678e-001 7.051672e-001 -1.704118e+000 2.728835e-001 -7.415183e-001 7.323379e-001 -2.117604e-001 -3.585495e+000 -4.008621e-001 -1.705660e-001 -4.854027e-001 -2.734037e-002 -8.324181e-002 3.032525e-001 2.425492e-001 -4.021641e-001 1.963655e-001 -3.173680e-001 8.715676e-002 -4.062596e-001 -4.706073e-001
<VARIANCE> 39
 1.542693e+001 4.115875e+001 5.213044e+001 7.028482e+001 7.411299e+001 8.278567e+001 7.049664e+001 6.436021e+001 6.237480e+001 6.322462e+001 6.434248e+001 4.064874e+001 3.809599e+001 1.794382e+000 2.263315e+000 3.452906e+000 3.049481e+000 3.746268e+000 3.932312e+000 4.119433e+000 4.325329e+000 4.764922e+000 3.666677e+000 3.584096e+000 3.154758e+000 1.999859e+000 2.947969e-001 4.562992e-001 4.821195e-001 6.807047e-001 8.457379e-001 7.323706e-001 7.568743e-001 8.502693e-001 9.008461e-001 7.329279e-001 7.331679e-001 5.329934e-001 4.538192e-001
<GCONST> 1.323882e+002
<TRANSP> 5
 0.000000e+000 1.000000e+000 0.000000e+000 0.000000e+000 0.000000e+000
 0.000000e+000 5.483392e-001 4.516608e-001 0.000000e+000 0.000000e+000
 0.000000e+000 0.000000e+000 6.278054e-001 3.721946e-001 0.000000e+000
 0.000000e+000 0.000000e+000 0.000000e+000 5.311099e-001 4.688901e-001
 0.000000e+000 0.000000e+000 0.000000e+000 0.000000e+000 0.000000e+000
<ENDHMM>
~h "b"
<BEGINHMM>
<NUMSTATES> 5
<STATE> 2
<NUMMIXES> 8
<MIXTURE> 1 7.203665e-002
<MEAN> 39
 -5.608577e-001 9.292703e+000 7.132349e+000 6.848969e+000 2.186290e-001 -1.796009e+000 -4.032860e+000 -5.209208e+000 -2.867576e+000 -1.920674e-001 1.874186e+000 -2.396614e+000 5.872117e+001 1.349581e+000 1.896562e+000 4.099302e-001 8.213046e-001 1.054457e+000 8.184056e-001 5.721592e-001 -2.990799e-001 -3.330604e-001 2.096440e-001 1.159668e-001 -1.975670e-001 -1.030038e+000 -3.601528e-001 -2.331316e-001 1.161032e-001 -1.888545e-001 -6.411200e-002 8.136923e-002 2.855259e-001 3.933039e-001 3.135466e-001 8.992176e-002 6.275471e-003 2.068464e-001 6.045503e-001
<VARIANCE> 39
 2.419751e+001 2.675301e+001 3.206373e+001 3.525264e+001 3.943683e+001 3.389766e+001 4.513673e+001 2.885867e+001 3.393355e+001 2.882641e+001 3.321509e+001 2.457387e+001 6.741141e+001 2.707300e+000 1.979616e+000 2.340938e+000 2.198940e+000 3.739521e+000 3.897788e+000 4.176238e+000 3.651862e+000 3.900782e+000 2.915055e+000 2.744258e+000 2.793206e+000 4.085003e+000 2.956740e-001 3.986844e-001 4.067003e-001 3.363970e-001 5.072894e-001 5.091037e-001 4.974711e-001 4.960286e-001 5.427017e-001 4.724558e-001 4.444860e-001 3.888803e-001 4.525946e-001
<GCONST> 1.211588e+002
<MIXTURE> 2 1.500358e-001
<MEAN> 39
 4.296823e+000 6.278873e+000 3.369330e+000 -2.852106e-001 -1.891180e+000 2.909780e-001 -4.853071e+000 -5.806391e+000 -4.426879e+000 -1.695227e+000 -4.290731e-002 -4.862962e+000 6.125403e+001 -1.444238e-001 3.099311e+000 1.280597e+000 3.358121e+000 2.209660e+000 1.909446e-001 1.937521e+000 -1.139687e-001 3.401295e-001 -6.940946e-001 -3.044283e-001 -1.776426e-001 -2.923079e+000 -3.174353e-001 -5.254197e-001 3.173253e-002 -5.361351e-001 -3.298633e-001 -3.306095e-002 -6.580757e-002 4.915524e-001 3.654958e-001 3.652674e-001 6.777575e-002 2.460627e-001 9.463766e-001
<VARIANCE> 39
 1.053170e+001 2.447613e+001 2.826686e+001 4.226868e+001 3.303250e+001 5.204865e+001 4.353210e+001 3.208967e+001 4.121376e+001 3.485360e+001 4.402758e+001 2.329585e+001 3.817992e+001 8.733126e-001 1.552808e+000 1.848554e+000 3.373093e+000 2.695689e+000 2.821441e+000 2.716406e+000 3.111364e+000 3.854287e+000 3.063976e+000 2.894571e+000 2.526108e+000 1.054138e+000 1.330767e-001 3.093413e-001 2.307884e-001 4.157381e-001 3.737004e-001 3.859183e-001 4.574442e-001 4.736878e-001 5.425375e-001 4.533550e-001 5.016952e-001 3.413422e-001 2.758441e-001
<GCONST> 1.142064e+002
<MIXTURE> 3 1.760418e-001
<MEAN> 39
 1.753870e+000 9.203088e+000 5.365144e+000 2.977133e+000 -1.916245e+000 -1.019984e+000 -2.885906e+000 -4.603342e+000 -3.567435e+000 -1.372032e+000 -6.069019e-001 -4.244913e+000 5.894781e+001 -1.769675e-001 7.275389e-001 3.643063e-001 6.934340e-001 7.875626e-001 2.431810e-001 6.013550e-001 3.378586e-001 3.449585e-001 7.366922e-002 1.200294e-001 3.874221e-001 -6.041876e-001 -1.265778e-001 -5.997967e-001 -2.289755e-002 -3.195710e-001 -2.308959e-001 5.533712e-003 -2.550271e-001 1.828142e-001 2.623951e-001 2.688374e-001 2.248818e-001 2.869889e-001 8.809232e-001
<VARIANCE> 39
 2.079703e+001 2.211497e+001 2.582840e+001 3.362754e+001 3.439098e+001 3.532934e+001 3.437955e+001 2.953411e+001 3.478540e+001 2.548364e+001 3.228189e+001 2.421046e+001 4.504194e+001 2.633848e-001 5.435352e-001 6.773790e-001 9.582766e-001 1.103190e+000 1.143145e+000 1.365546e+000 1.343639e+000 1.632290e+000 1.550268e+000 1.444602e+000 1.302501e+000 2.783729e-001 1.352484e-001 2.355520e-001 2.708601e-001 3.863562e-001 3.720074e-001 3.563398e-001 4.148673e-001 3.802457e-001 4.607216e-001 3.959576e-001 3.611063e-001 3.199304e-001 2.374723e-001
<GCONST> 9.973304e+001
<MIXTURE> 4 1.018656e-001
<MEAN> 39
 4.030818e+000 8.171452e+000 3.516767e+000 -1.066583e+000 -3.465414e+000 -5.734003e+000 -7.423891e+000 -6.382326e+000 -3.994449e+000 -3.820946e+000 -7.891138e+000 -9.512110e+000 6.053830e+001 -2.050651e-001 1.551623e+000 7.774766e-001 1.243162e+000 8.553026e-001 4.353905e-001 9.386451e-001 2.299853e-001 4.943636e-001 -3.868575e-001 2.954380e-001 1.104134e-001 -9.688770e-001 -5.581757e-001 -9.218252e-001 3.193879e-004 -5.213971e-001 -3.083450e-001 4.271125e-002 5.175038e-002 4.691333e-001 1.544961e-001 5.389950e-001 6.439533e-001 9.811562e-001 1.512750e+000
<VARIANCE> 39
 1.254543e+001 2.588094e+001 3.808312e+001 2.923759e+001 3.583378e+001 4.272812e+001 3.440738e+001 3.653532e+001 3.561751e+001 3.964958e+001 3.301455e+001 2.201768e+001 2.458202e+001 1.195238e+000 1.821803e+000 1.491936e+000 2.133009e+000 2.369687e+000 2.175617e+000 2.249955e+000 2.495251e+000 2.444329e+000 2.438069e+000 2.409145e+000 2.464346e+000 1.673879e+000 2.524942e-001 4.414400e-001 5.080680e-001 6.820755e-001 7.725372e-001 6.286187e-001 6.387517e-001 7.489464e-001 6.514029e-001 6.984025e-001 4.896767e-001 4.413668e-001 5.310006e-001
<GCONST> 1.177059e+002
<MIXTURE> 5 1.760418e-001
<MEAN> 39
 -7.028030e-002 7.322026e+000 3.332278e+000 6.575629e-001 -4.261998e+000 -3.397524e+000 -5.231269e+000 -6.777154e+000 -5.926601e+000 -3.391284e+000 -2.879588e+000 -6.213078e+000 5.626328e+001 -3.822517e-001 4.326396e-001 3.509413e-002 3.018676e-001 3.674312e-001 -1.844908e-001 1.339287e-001 -1.258032e-001 -1.660859e-001 -4.243698e-001 -3.607370e-001 -6.908653e-002 -8.152318e-001 -2.736824e-001 -7.939315e-001 -2.310744e-001 -5.682012e-001 -4.748655e-001 -2.332431e-001 -5.126679e-001 -6.384208e-002 -9.110756e-003 1.713678e-002 -1.548664e-002 6.073932e-002 6.859987e-001
<VARIANCE> 39
 2.079703e+001 2.211497e+001 2.582840e+001 3.362754e+001 3.439098e+001 3.532934e+001 3.437955e+001 2.953411e+001 3.478540e+001 2.548364e+001 3.228189e+001 2.421046e+001 4.504194e+001 2.633848e-001 5.435352e-001 6.773790e-001 9.582766e-001 1.103190e+000 1.143145e+000 1.365546e+000 1.343639e+000 1.632290e+000 1.550268e+000 1.444602e+000 1.302501e+000 2.783729e-001 1.352484e-001 2.355520e-001 2.708601e-001 3.863562e-001 3.720074e-001 3.563398e-001 4.148673e-001 3.802457e-001 4.607216e-001 3.959576e-001 3.611063e-001 3.199304e-001 2.374723e-001
<GCONST> 9.973304e+001
<MIXTURE> 6 1.500358e-001
<MEAN> 39
 2.998719e+000 4.299939e+000 1.242666e+000 -2.885785e+000 -4.190136e+000 -2.594812e+000 -7.492225e+000 -8.072301e+000 -6.994797e+000 -4.056705e+000 -2.697039e+000 -6.793592e+000 5.878243e+001 -5.182286e-001 2.600864e+000 7.367510e-001 2.623482e+000 1.552918e+000 -4.809412e-001 1.278260e+000 -8.195311e-001 -4.451640e-001 -1.394263e+000 -9.849659e-001 -8.133920e-001 -3.333765e+000 -4.633541e-001 -7.478935e-001 -1.604292e-001 -7.940461e-001 -5.743875e-001 -2.815502e-001 -3.363461e-001 2.162524e-001 7.086722e-002 9.594081e-002 -2.155460e-001 1.236471e-002 7.362931e-001
<VARIANCE> 39
 1.053170e+001 2.447613e+001 2.826686e+001 4.226868e+001 3.303250e+001 5.204865e+001 4.353210e+001 3.208967e+001 4.121376e+001 3.485360e+001 4.402758e+001 2.329585e+001 3.817992e+001 8.733126e-001 1.552808e+000 1.848554e+000 3.373093e+000 2.695689e+000 2.821441e+000 2.716406e+000 3.111364e+000 3.854287e+000 3.063976e+000 2.894571e+000 2.526108e+000 1.054138e+000 1.330767e-001 3.093413e-001 2.307884e-001 4.157381e-001 3.737004e-001 3.859183e-001 4.574442e-001 4.736878e-001 5.425375e-001 4.533550e-001 5.016952e-001 3.413422e-001 2.758441e-001
<GCONST> 1.142064e+002
<MIXTURE> 7 1.018656e-001
<MEAN> 39
 2.614038e+000 6.136519e+000 1.048306e+000 -3.229455e+000 -5.859867e+000 -8.348673e+000 -9.770203e+000 -8.800104e+000 -6.381665e+000 -6.339663e+000 -1.018947e+001 -1.138903e+001 5.855509e+001 -6.423728e-001 1.011727e+000 2.888973e-001 6.589693e-001 2.395511e-001 -1.546084e-001 3.386511e-001 -4.018692e-001 -1.310104e-001 -1.011430e+000 -3.254188e-001 -5.175160e-001 -1.486391e+000 -7.591709e-001 -1.187589e+000 -2.847962e-001 -8.517485e-001 -6.599214e-001 -2.744307e-001 -2.679374e-001 1.229665e-001 -1.683421e-001 2.047130e-001 3.640456e-001 7.154144e-001 1.221270e+000
<VARIANCE> 39
 1.254543e+001 2.588094e+001 3.808312e+001 2.923759e+001 3.583378e+001 4.272812e+001 3.440738e+001 3.653532e+001 3.561751e+001 3.964958e+001 3.301455e+001 2.201768e+001 2.458202e+001 1.195238e+000 1.821803e+000 1.491936e+000 2.133009e+000 2.369687e+000 2.175617e+000 2.249955e+000 2.495251e+000 2.444329e+000 2.438069e+000 2.409145e+000 2.464346e+000 1.673879e+000 2.524942e-001 4.414400e-001 5.080680e-001 6.820755e-001 7.725372e-001 6.286187e-001 6.387517e-001 7.489464e-001 6.514029e-001 6.984025e-001 4.896767e-001 4.413668e-001 5.310006e-001
<GCONST> 1.177059e+002
<MIXTURE> 8 7.203665e-002
<MEAN> 39
 -2.528496e+000 7.223771e+000 4.867355e+000 4.474011e+000 -2.293321e+000 -4.124877e+000 -6.720215e+000 -7.358018e+000 -5.197676e+000 -2.339677e+000 -4.311154e-001 -4.379496e+000 5.543699e+001 6.914256e-001 1.333766e+000 -2.020748e-001 2.281516e-001 2.809430e-001 2.869296e-002 -2.452746e-001 -1.063474e+000 -1.123076e+000 -4.732972e-001 -5.466653e-001 -8.660824e-001 -1.838494e+000 -5.776564e-001 -4.856974e-001 -1.389890e-001 -4.208535e-001 -3.490090e-001 -2.040368e-001 3.399339e-003 1.115867e-001 1.887341e-002 -1.850199e-001 -2.604037e-001 -4.259469e-002 3.354497e-001
<VARIANCE> 39
 2.419751e+001 2.675301e+001 3.206373e+001 3.525264e+001 3.943683e+001 3.389766e+001 4.513673e+001 2.885867e+001 3.393355e+001 2.882641e+001 3.321509e+001 2.457387e+001 6.741141e+001 2.707300e+000 1.979616e+000 2.340938e+000 2.198940e+000 3.739521e+000 3.897788e+000 4.176238e+000 3.651862e+000 3.900782e+000 2.915055e+000 2.744258e+000 2.793206e+000 4.085003e+000 2.956740e-001 3.986844e-001 4.067003e-001 3.363970e-001 5.072894e-001 5.091037e-001 4.974711e-001 4.960286e-001 5.427017e-001 4.724558e-001 4.444860e-001 3.888803e-001 4.525946e-001
<GCONST> 1.211588e+002
<STATE> 3
<NUMMIXES> 8
<MIXTURE> 1 1.729202e-001
<MEAN> 39
 1.996594e+000 1.083174e+001 6.821342e+000 4.292681e+000 1.400606e+000 4.544848e-001 -1.252625e+000 -5.150006e+000 -3.738156e+000 -1.847799e+000 1.352853e+000 -2.459500e+000 5.703621e+001 -1.175362e+000 -5.579152e-001 2.582061e-001 7.027782e-001 7.514446e-001 -1.894613e-001 3.449491e-001 6.638487e-001 1.031424e+000 3.864792e-001 -2.983257e-002 5.441163e-001 1.115867e+000 -7.015330e-002 -1.337495e+000 -2.065290e-001 -7.389861e-001 -7.896607e-001 -2.738707e-001 -5.323741e-001 3.886679e-001 5.122876e-001 5.414605e-001 2.327784e-001 1.013461e-001 1.850757e+000
<VARIANCE> 39
 1.727637e+001 1.670955e+001 1.953732e+001 2.766002e+001 2.482312e+001 2.968794e+001 3.036717e+001 3.162540e+001 3.173663e+001 2.432125e+001 2.270205e+001 1.813236e+001 3.916365e+001 1.231351e+000 2.206575e+000 1.580962e+000 2.293873e+000 1.814772e+000 2.363438e+000 2.332530e+000 2.335192e+000 2.590109e+000 2.088531e+000 2.044886e+000 1.416871e+000 2.397214e+000 2.726333e-001 3.091742e-001 5.164402e-001 5.924993e-001 5.312318e-001 5.461776e-001 5.869252e-001 6.529000e-001 7.141139e-001 5.915356e-001 5.153748e-001 4.174162e-001 2.939370e-001
<GCONST> 1.130297e+002
<MIXTURE> 2 6.006295e-002
<MEAN> 39
 5.386342e-001 9.295235e+000 5.475845e+000 6.295957e+000 -6.994511e-001 -5.827914e-001 -6.940338e+000 -8.999213e+000 -6.184134e+000 7.638680e-001 2.423574e+000 -3.411243e+000 5.557263e+001 -4.903233e-001 -1.068671e+000 4.630709e-001 -1.636290e-001 1.903990e-001 -9.607518e-001 1.716825e-001 7.316183e-001 1.628026e+000 5.419528e-001 -3.389511e-001 6.865456e-001 2.711519e+000 -8.254492e-002 -9.817924e-001 1.550228e-001 -7.511358e-001 -5.033784e-001 -2.394016e-002 2.248634e-001 8.875407e-001 7.590157e-001 -4.642586e-003 2.463985e-001 4.111584e-001 1.476077e+000
<VARIANCE> 39
 2.808155e+001 4.304635e+001 4.532600e+001 5.464722e+001 4.877457e+001 5.777304e+001 7.300220e+001 4.296844e+001 8.095604e+001 4.031357e+001 7.626245e+001 4.577150e+001 8.425316e+001 4.006191e+000 7.187038e+000 3.394556e+000 5.341825e+000 6.189597e+000 5.199271e+000 7.111865e+000 5.098788e+000 7.616055e+000 4.559467e+000 4.926478e+000 4.255902e+000 5.067734e+000 5.344390e-001 8.183245e-001 7.357416e-001 7.687349e-001 1.243909e+000 1.021903e+000 1.275072e+000 9.882702e-001 1.523363e+000 8.793527e-001 1.074922e+000 9.404247e-001 8.014455e-001
<GCONST> 1.439557e+002
<MIXTURE> 3 1.905125e-001
<MEAN> 39
 7.338079e-001 9.844512e+000 6.627078e+000 3.232801e+000 1.540707e-001 -3.524372e+000 -4.006104e+000 -5.975464e+000 -3.298668e+000 -3.558915e+000 -3.299139e+000 -5.739267e+000 5.805009e+001 -1.529583e+000 -2.368829e+000 -4.005104e-001 -7.313228e-001 -5.657435e-001 -3.215554e-001 2.388712e-001 1.233183e+000 1.285677e+000 8.293545e-001 9.497541e-001 1.503343e+000 3.875258e+000 3.498600e-001 -9.890179e-001 -2.264564e-001 -1.052879e+000 -9.136552e-001 -7.423434e-004 -2.910491e-001 4.336686e-001 4.041393e-002 7.331036e-001 3.546855e-001 4.125215e-001 1.548438e+000
<VARIANCE> 39
 1.531050e+001 1.618162e+001 1.625856e+001 2.114433e+001 2.545219e+001 2.853227e+001 2.845840e+001 2.339095e+001 2.359106e+001 2.460281e+001 2.722903e+001 2.098353e+001 3.716771e+001 1.825075e+000 2.171498e+000 2.968309e+000 3.668399e+000 3.528654e+000 3.668568e+000 3.656317e+000 3.471421e+000 3.333603e+000 3.391074e+000 2.884292e+000 2.575985e+000 2.386423e+000 2.636609e-001 3.694151e-001 6.661881e-001 5.653416e-001 6.131973e-001 6.781453e-001 4.994547e-001 6.923217e-001 7.106720e-001 6.188278e-001 6.380410e-001 5.361136e-001 3.242543e-001
<GCONST> 1.183472e+002
<MIXTURE> 4 7.649540e-002
<MEAN> 39
 5.078859e+000 1.059000e+001 9.387434e-001 -2.464025e+000 -6.050142e+000 9.982191e-001 -5.093653e+000 -5.628842e+000 -6.423105e+000 -4.940765e+000 -3.913952e+000 -4.728045e+000 5.739992e+001 -1.511947e+000 -1.363791e+000 1.091722e+000 1.112883e+000 8.381996e-001 -8.481257e-001 -1.846451e-001 1.936563e-001 1.199063e+000 8.742685e-001 9.588129e-001 1.155977e+000 2.216720e+000 -1.852487e-001 -1.187889e+000 4.312111e-001 -2.962323e-001 -2.523970e-001 -5.982798e-002 -5.388718e-001 1.142723e-001 3.248447e-001 7.471817e-001 5.723360e-001 3.306702e-001 1.533096e+000
<VARIANCE> 39
 1.570327e+001 3.884522e+001 4.798868e+001 5.171714e+001 4.768676e+001 8.267735e+001 4.579308e+001 4.095802e+001 4.024474e+001 3.958594e+001 4.462933e+001 3.060914e+001 3.561356e+001 2.458695e+000 6.327590e+000 5.492067e+000 6.240498e+000 7.516103e+000 6.623527e+000 6.101106e+000 4.196285e+000 4.817302e+000 4.691920e+000 3.986486e+000 3.117671e+000 3.633327e+000 3.600595e-001 8.105143e-001 1.131807e+000 1.014516e+000 1.199185e+000 1.165410e+000 9.238618e-001 8.634474e-001 1.080563e+000 8.658143e-001 7.638487e-001 6.821784e-001 3.744460e-001
<GCONST> 1.375616e+002
<MIXTURE> 5 1.905125e-001
<MEAN> 39
 -8.313375e-001 8.235457e+000 5.014202e+000 1.393483e+000 -1.863936e+000 -5.660996e+000 -6.139960e+000 -7.910032e+000 -5.241494e+000 -5.542964e+000 -5.386397e+000 -7.571579e+000 5.561147e+001 -2.069965e+000 -2.958269e+000 -1.089662e+000 -1.497445e+000 -1.317132e+000 -1.087696e+000 -5.259888e-001 4.879131e-001 5.553508e-001 9.275972e-002 2.704260e-001 8.613476e-001 3.257336e+000 1.444684e-001 -1.232136e+000 -5.529378e-001 -1.353635e+000 -1.226883e+000 -3.301407e-001 -5.737375e-001 1.008451e-001 -2.967915e-001 4.184412e-001 3.517566e-002 1.196424e-001 1.320664e+000
<VARIANCE> 39
 1.531050e+001 1.618162e+001 1.625856e+001 2.114433e+001 2.545219e+001 2.853227e+001 2.845840e+001 2.339095e+001 2.359106e+001 2.460281e+001 2.722903e+001 2.098353e+001 3.716771e+001 1.825075e+000 2.171498e+000 2.968309e+000 3.668399e+000 3.528654e+000 3.668568e+000 3.656317e+000 3.471421e+000 3.333603e+000 3.391074e+000 2.884292e+000 2.575985e+000 2.386423e+000 2.636609e-001 3.694151e-001 6.661881e-001 5.653416e-001 6.131973e-001 6.781453e-001 4.994547e-001 6.923217e-001 7.106720e-001 6.188278e-001 6.380410e-001 5.361136e-001 3.242543e-001
<GCONST> 1.183472e+002
<MIXTURE> 6 1.729202e-001
<MEAN> 39
 3.340000e-001 9.196644e+000 5.053300e+000 2.188969e+000 -5.923066e-001 -1.724981e+000 -3.456881e+000 -7.399464e+000 -5.991567e+000 -3.820463e+000 -5.530142e-001 -4.162784e+000 5.453297e+001 -1.619227e+000 -1.152097e+000 -2.447391e-001 9.695663e-002 2.125907e-001 -8.044003e-001 -2.659558e-001 5.259531e-002 3.876718e-001 -1.915908e-001 -6.018306e-001 6.798672e-002 4.965490e-001 -2.790105e-001 -1.559909e+000 -4.939841e-001 -1.046882e+000 -1.081203e+000 -5.694861e-001 -8.388183e-001 6.545895e-002 1.742666e-001 2.338151e-001 -5.438001e-002 -1.570849e-001 1.633893e+000
<VARIANCE> 39
 1.727637e+001 1.670955e+001 1.953732e+001 2.766002e+001 2.482312e+001 2.968794e+001 3.036717e+001 3.162540e+001 3.173663e+001 2.432125e+001 2.270205e+001 1.813236e+001 3.916365e+001 1.231351e+000 2.206575e+000 1.580962e+000 2.293873e+000 1.814772e+000 2.363438e+000 2.332530e+000 2.335192e+000 2.590109e+000 2.088531e+000 2.044886e+000 1.416871e+000 2.397214e+000 2.726333e-001 3.091742e-001 5.164402e-001 5.924993e-001 5.312318e-001 5.461776e-001 5.869252e-001 6.529000e-001 7.141139e-001 5.915356e-001 5.153748e-001 4.174162e-001 2.939370e-001
<GCONST> 1.130297e+002
<MIXTURE> 7 7.649540e-002
<MEAN> 39
 3.493765e+000 8.096963e+000 -1.832211e+000 -5.340610e+000 -8.812366e+000 -2.638865e+000 -7.800477e+000 -8.188780e+000 -8.960655e+000 -7.457459e+000 -6.586160e+000 -6.941066e+000 5.501284e+001 -2.139156e+000 -2.369979e+000 1.543155e-001 1.136437e-001 -2.584209e-001 -1.877574e+000 -1.172662e+000 -6.257371e-001 3.211290e-001 7.834896e-003 1.601655e-001 4.497002e-001 1.454268e+000 -4.252685e-001 -1.548003e+000 5.665464e-003 -6.991251e-001 -6.904262e-001 -4.916446e-001 -9.233428e-001 -2.574152e-001 -9.095586e-002 3.749851e-001 2.227422e-001 2.938186e-004 1.288328e+000
<VARIANCE> 39
 1.570327e+001 3.884522e+001 4.798868e+001 5.171714e+001 4.768676e+001 8.267735e+001 4.579308e+001 4.095802e+001 4.024474e+001 3.958594e+001 4.462933e+001 3.060914e+001 3.561356e+001 2.458695e+000 6.327590e+000 5.492067e+000 6.240498e+000 7.516103e+000 6.623527e+000 6.101106e+000 4.196285e+000 4.817302e+000 4.691920e+000 3.986486e+000 3.117671e+000 3.633327e+000 3.600595e-001 8.105143e-001 1.131807e+000 1.014516e+000 1.199185e+000 1.165410e+000 9.238618e-001 8.634474e-001 1.080563e+000 8.658143e-001 7.638487e-001 6.821784e-001 3.744460e-001
<GCONST> 1.375616e+002
<MIXTURE> 8 6.006295e-002
<MEAN> 39
 -1.581047e+000 6.670846e+000 2.782861e+000 3.339007e+000 -3.493003e+000 -3.623135e+000 -1.035799e+001 -1.162123e+001 -9.783157e+000 -1.775851e+000 -1.069561e+000 -6.117429e+000 5.190105e+001 -1.290942e+000 -2.141017e+000 -2.739019e-001 -1.088125e+000 -8.047570e-001 -1.872828e+000 -8.950407e-001 -1.716015e-001 5.241380e-001 -3.121636e-001 -1.226778e+000 -1.386480e-001 1.811054e+000 -3.749663e-001 -1.343638e+000 -1.880787e-001 -1.101846e+000 -9.495010e-001 -4.282970e-001 -2.268129e-001 4.898936e-001 2.653173e-001 -3.797378e-001 -1.683153e-001 2.325641e-002 1.117983e+000
<VARIANCE> 39
 2.808155e+001 4.304635e+001 4.532600e+001 5.464722e+001 4.877457e+001 5.777304e+001 7.300220e+001 4.296844e+001 8.095604e+001 4.031357e+001 7.626245e+001 4.577150e+001 8.425316e+001 4.006191e+000 7.187038e+000 3.394556e+000 5.341825e+000 6.189597e+000 5.199271e+000 7.111865e+000 5.098788e+000 7.616055e+000 4.559467e+000 4.926478e+000 4.255902e+000 5.067734e+000 5.344390e-001 8.183245e-001 7.357416e-001 7.687349e-001 1.243909e+000 1.021903e+000 1.275072e+000 9.882702e-001 1.523363e+000 8.793527e-001 1.074922e+000 9.404247e-001 8.014455e-001
<GCONST> 1.439557e+002
<STATE> 4
<NUMMIXES> 8
<MIXTURE> 1 1.337373e-001
<MEAN> 39
 -4.024316e+000 4.870390e+000 4.777575e+000 4.298109e+000 1.499853e+000 -1.155119e+000 -9.821998e-001 -2.630516e+000 -3.315991e-001 -3.163929e-001 -2.134850e-001 -1.001454e+000 6.205515e+001 6.451086e-002 -2.444397e+000 -2.478175e-001 -1.406189e+000 -1.505769e+000 -4.091517e-001 -1.024779e+000 2.679823e-001 1.060798e+000 1.031304e+000 9.685634e-001 5.101883e-001 4.205688e+000 9.187385e-001 1.532328e-002 3.020529e-001 -5.028690e-001 -9.202604e-001 3.150488e-001 -5.538949e-001 -2.838370e-002 -1.857968e-001 1.633756e-001 4.248720e-001 -1.803610e-001 5.792605e-001
<VARIANCE> 39
 2.412090e+001 2.767280e+001 3.001853e+001 3.776623e+001 3.090264e+001 2.583856e+001 3.414867e+001 2.996993e+001 3.058532e+001 2.579330e+001 2.394825e+001 1.827266e+001 6.623219e+001 2.798985e+000 3.870581e+000 5.393572e+000 6.157969e+000 4.987022e+000 5.567907e+000 5.390333e+000 4.458257e+000 5.132582e+000 4.960299e+000 3.997072e+000 3.128121e+000 3.259817e+000 3.907824e-001 7.214922e-001 6.593259e-001 7.049739e-001 7.335033e-001 8.383053e-001 6.931697e-001 7.215644e-001 8.078458e-001 6.926571e-001 9.052016e-001 4.706219e-001 5.439071e-001
<GCONST> 1.298521e+002
<MIXTURE> 2 1.323936e-001
<MEAN> 39
 9.586552e-001 -2.182688e+000 1.145221e-001 -5.254699e+000 -6.815353e+000 -3.251180e+000 -9.950514e+000 -4.633044e+000 1.261327e+000 4.401237e+000 1.956601e+000 -3.757547e+000 7.351836e+001 1.141271e+000 -3.153740e+000 -6.555818e-001 -2.559161e+000 -2.304331e+000 4.533001e-001 -1.671365e+000 1.595996e+000 1.685713e+000 2.123819e+000 5.040523e-001 -1.517133e-001 4.021625e+000 2.922422e-001 7.714942e-001 5.678855e-001 6.408159e-001 3.732622e-001 4.819379e-001 6.583195e-001 3.019052e-001 -2.564461e-001 -4.431926e-001 -2.840647e-001 7.995006e-002 -8.219386e-001
<VARIANCE> 39
 1.849820e+001 2.980414e+001 3.430381e+001 6.129065e+001 3.740165e+001 5.595648e+001 5.863090e+001 4.109895e+001 3.549173e+001 3.516220e+001 4.949847e+001 2.610268e+001 5.339315e+001 2.130846e+000 3.633778e+000 4.652611e+000 6.407231e+000 4.294970e+000 6.239522e+000 6.055991e+000 6.240290e+000 5.209785e+000 5.179552e+000 5.512235e+000 4.436039e+000 2.576498e+000 2.939487e-001 4.761150e-001 3.439444e-001 6.285322e-001 6.582496e-001 5.416408e-001 7.485603e-001 6.380209e-001 6.303980e-001 5.807971e-001 5.876233e-001 5.346391e-001 4.517304e-001
<GCONST> 1.309197e+002
<MIXTURE> 3 1.359942e-001
<MEAN> 39
 -6.644116e+000 2.088098e-001 3.831801e+000 5.672528e-001 -1.559961e+000 -6.317108e+000 -3.350307e+000 -3.397490e+000 1.228888e-001 -3.167056e+000 -2.597110e+000 -2.886165e+000 7.121679e+001 5.662767e-002 -2.932794e+000 -2.521629e-001 -2.431165e+000 -2.385433e+000 -7.865776e-001 -8.777477e-001 1.472122e+000 2.622087e-001 1.801906e+000 1.008955e+000 1.757900e+000 5.030723e+000 1.169213e+000 4.966165e-001 2.840412e-001 -6.294705e-001 -5.286992e-001 3.975418e-001 -2.825455e-001 2.833282e-002 -5.038810e-001 5.933701e-001 9.300809e-002 3.038042e-003 -3.511991e-001
<VARIANCE> 39
 1.283025e+001 1.893147e+001 2.233107e+001 2.318978e+001 2.149253e+001 2.558877e+001 2.843797e+001 2.476077e+001 2.949370e+001 2.287982e+001 2.145491e+001 1.818687e+001 3.481915e+001 2.739074e+000 3.075090e+000 6.558500e+000 5.545654e+000 5.121638e+000 6.278716e+000 4.149557e+000 5.505272e+000 6.036061e+000 4.791510e+000 4.291897e+000 3.654816e+000 2.199298e+000 2.892911e-001 6.764868e-001 5.467692e-001 8.277165e-001 6.749747e-001 7.646805e-001 7.065620e-001 7.465307e-001 8.625873e-001 6.986914e-001 8.288525e-001 4.888075e-001 4.380440e-001
<GCONST> 1.255869e+002
<MIXTURE> 4 9.786130e-002
<MEAN> 39
 -2.805441e+000 -3.112277e+000 1.031870e+001 1.590135e+000 -9.231689e+000 -1.181548e+001 -9.145456e+000 -1.570535e+000 -2.236922e+000 -1.750695e+000 7.321899e-001 -7.402624e-001 7.330841e+001 2.448265e-001 -2.013452e+000 3.011078e+000 -1.774074e+000 -3.964058e+000 -6.711178e-001 -9.177273e-001 1.132853e+000 -1.330395e+000 1.074745e+000 1.337104e+000 1.197913e+000 3.767982e+000 4.989543e-001 1.355226e+000 1.791732e-001 -2.363447e-001 4.565988e-001 1.288925e+000 4.967242e-001 -2.662435e-001 -2.257366e-001 2.958263e-001 -3.317741e-002 -2.731013e-001 -1.040261e+000
<VARIANCE> 39
 2.265429e+001 3.827467e+001 6.550574e+001 7.037722e+001 6.054324e+001 4.674258e+001 5.611763e+001 4.238645e+001 5.354906e+001 3.954702e+001 3.735768e+001 2.754988e+001 5.060091e+001 2.924202e+000 5.178391e+000 6.732547e+000 6.264171e+000 5.728152e+000 6.368233e+000 4.755840e+000 6.513074e+000 7.211319e+000 6.655353e+000 5.118041e+000 4.005549e+000 3.131793e+000 3.253557e-001 5.413278e-001 6.458491e-001 1.007931e+000 1.143900e+000 7.016332e-001 1.073255e+000 7.831538e-001 9.377200e-001 7.808678e-001 7.103413e-001 5.947904e-001 4.802162e-001
<GCONST> 1.381754e+002
<MIXTURE> 5 1.359942e-001
<MEAN> 39
 -8.076890e+000 -1.531603e+000 1.941571e+000 -1.358978e+000 -3.414363e+000 -8.340522e+000 -5.483397e+000 -5.387898e+000 -2.049435e+000 -5.080370e+000 -4.449888e+000 -4.592007e+000 6.885648e+001 -6.053783e-001 -3.634232e+000 -1.276546e+000 -3.373133e+000 -3.290675e+000 -1.788872e+000 -1.692566e+000 5.335897e-001 -7.205271e-001 9.263256e-001 1.802793e-001 9.931975e-001 4.437521e+000 9.540694e-001 1.676213e-001 -1.173418e-002 -9.933861e-001 -8.573266e-001 4.775777e-002 -6.187745e-001 -3.172752e-001 -8.753833e-001 2.590191e-001 -2.711573e-001 -2.766210e-001 -6.159387e-001
<VARIANCE> 39
 1.283025e+001 1.893147e+001 2.233107e+001 2.318978e+001 2.149253e+001 2.558877e+001 2.843797e+001 2.476077e+001 2.949370e+001 2.287982e+001 2.145491e+001 1.818687e+001 3.481915e+001 2.739074e+000 3.075090e+000 6.558500e+000 5.545654e+000 5.121638e+000 6.278716e+000 4.149557e+000 5.505272e+000 6.036061e+000 4.791510e+000 4.291897e+000 3.654816e+000 2.199298e+000 2.892911e-001 6.764868e-001 5.467692e-001 8.277165e-001 6.749747e-001 7.646805e-001 7.065620e-001 7.465307e-001 8.625873e-001 6.986914e-001 8.288525e-001 4.888075e-001 4.380440e-001
<GCONST> 1.255869e+002
<MIXTURE> 6 1.337373e-001
<MEAN> 39
 -5.988838e+000 2.766192e+000 2.586008e+000 1.839939e+000 -7.237532e-001 -3.188385e+000 -3.319674e+000 -4.820308e+000 -2.543759e+000 -2.347877e+000 -2.170963e+000 -2.711316e+000 5.879983e+001 -6.046959e-001 -3.231349e+000 -1.176780e+000 -2.398799e+000 -2.399035e+000 -1.353008e+000 -1.953463e+000 -5.766011e-001 1.545898e-001 1.404347e-001 1.688562e-001 -1.972715e-001 3.483490e+000 6.686882e-001 -3.244395e-001 -2.274267e-002 -8.387198e-001 -1.262840e+000 -5.118723e-002 -8.869221e-001 -3.681635e-001 -5.453178e-001 -1.695285e-001 4.430364e-002 -4.547686e-001 2.842603e-001
<VARIANCE> 39
 2.412090e+001 2.767280e+001 3.001853e+001 3.776623e+001 3.090264e+001 2.583856e+001 3.414867e+001 2.996993e+001 3.058532e+001 2.579330e+001 2.394825e+001 1.827266e+001 6.623219e+001 2.798985e+000 3.870581e+000 5.393572e+000 6.157969e+000 4.987022e+000 5.567907e+000 5.390333e+000 4.458257e+000 5.132582e+000 4.960299e+000 3.997072e+000 3.128121e+000 3.259817e+000 3.907824e-001 7.214922e-001 6.593259e-001 7.049739e-001 7.335033e-001 8.383053e-001 6.931697e-001 7.215644e-001 8.078458e-001 6.926571e-001 9.052016e-001 4.706219e-001 5.439071e-001
<GCONST> 1.298521e+002
<MIXTURE> 7 1.323936e-001
<MEAN> 39
 -7.617261e-001 -4.366414e+000 -2.228256e+000 -8.386233e+000 -9.261629e+000 -6.243342e+000 -1.301335e+001 -7.197382e+000 -1.121671e+000 2.029327e+000 -8.576050e-001 -5.801178e+000 7.059554e+001 5.573745e-001 -3.916239e+000 -1.518378e+000 -3.571661e+000 -3.133303e+000 -5.458612e-001 -2.655722e+000 5.967736e-001 7.727149e-001 1.213473e+000 -4.350737e-001 -9.941895e-001 3.379565e+000 7.537403e-002 4.954898e-001 3.332984e-001 3.236957e-001 4.873183e-002 1.875529e-001 3.122419e-001 -1.759962e-002 -5.740365e-001 -7.480328e-001 -5.906911e-001 -2.125260e-001 -1.090782e+000
<VARIANCE> 39
 1.849820e+001 2.980414e+001 3.430381e+001 6.129065e+001 3.740165e+001 5.595648e+001 5.863090e+001 4.109895e+001 3.549173e+001 3.516220e+001 4.949847e+001 2.610268e+001 5.339315e+001 2.130846e+000 3.633778e+000 4.652611e+000 6.407231e+000 4.294970e+000 6.239522e+000 6.055991e+000 6.240290e+000 5.209785e+000 5.179552e+000 5.512235e+000 4.436039e+000 2.576498e+000 2.939487e-001 4.761150e-001 3.439444e-001 6.285322e-001 6.582496e-001 5.416408e-001 7.485603e-001 6.380209e-001 6.303980e-001 5.807971e-001 5.876233e-001 5.346391e-001 4.517304e-001
<GCONST> 1.309197e+002
<MIXTURE> 8 9.786130e-002
<MEAN> 39
 -4.709302e+000 -5.586937e+000 7.081274e+000 -1.765511e+000 -1.234407e+001 -1.455022e+001 -1.214192e+001 -4.174731e+000 -5.164011e+000 -4.266151e+000 -1.712647e+000 -2.839782e+000 7.046304e+001 -4.391855e-001 -2.923695e+000 1.973192e+000 -2.775207e+000 -4.921400e+000 -1.680532e+000 -1.790043e+000 1.120238e-001 -2.404551e+000 4.282590e-002 4.321801e-001 3.973584e-001 3.060108e+000 2.707945e-001 1.060926e+000 -1.422858e-001 -6.379277e-001 2.878578e-002 9.538709e-001 8.233216e-002 -6.202273e-001 -6.130804e-001 -5.764065e-002 -3.703044e-001 -5.815919e-001 -1.317451e+000
<VARIANCE> 39
 2.265429e+001 3.827467e+001 6.550574e+001 7.037722e+001 6.054324e+001 4.674258e+001 5.611763e+001 4.238645e+001 5.354906e+001 3.954702e+001 3.735768e+001 2.754988e+001 5.060091e+001 2.924202e+000 5.178391e+000 6.732547e+000 6.264171e+000 5.728152e+000 6.368233e+000 4.755840e+000 6.513074e+000 7.211319e+000 6.655353e+000 5.118041e+000 4.005549e+000 3.131793e+000 3.253557e-001 5.413278e-001 6.458491e-001 1.007931e+000 1.143900e+000 7.016332e-001 1.073255e+000 7.831538e-001 9.377200e-001 7.808678e-001 7.103413e-001 5.947904e-001 4.802162e-001
<GCONST> 1.381754e+002
<TRANSP> 5
 0.000000e+000 1.000000e+000 0.000000e+000 0.000000e+000 0.000000e+000
 0.000000e+000 6.985205e-001 3.014795e-001 0.000000e+000 0.000000e+000
 0.000000e+000 0.000000e+000 5.044426e-001 4.955574e-001 0.000000e+000
 0.000000e+000 0.000000e+000 0.000000e+000 5.452852e-001 4.547148e-001
 0.000000e+000 0.000000e+000 0.000000e+000 0.000000e+000 0.000000e+000
<ENDHMM>
~h "d"
<BEGINHMM>
<NUMSTATES> 5
<STATE> 2
<NUMMIXES> 8
<MIXTURE> 1 1.321183e-001
<MEAN> 39
 -1.323437e+000 6.685215e+000 9.596836e+000 5.189361e+000 -2.571333e+000 -4.705107e+000 -4.821608e+000 -9.803925e-001 2.387636e+000 2.197646e-001 -4.542732e-001 -2.562019e+000 6.050307e+001 1.561325e-001 2.047902e+000 1.816102e-001 1.707604e+000 2.087075e+000 1.161271e+000 1.604501e+000 2.299644e-001 4.622124e-001 3.003100e-001 7.256461e-003 1.595679e-001 -2.170947e+000 -1.876518e-001 -7.008629e-001 -1.317943e-001 -5.790357e-001 -3.251271e-001 1.389383e-001 8.726556e-002 1.473029e-001 -1.515164e-001 1.202748e-001 1.679965e-001 2.390072e-001 1.276914e+000
<VARIANCE> 39
 2.506161e+001 2.698509e+001 3.672020e+001 3.285244e+001 4.199569e+001 3.746292e+001 4.156926e+001 3.138125e+001 3.357538e+001 2.716498e+001 2.457318e+001 2.539296e+001 5.729917e+001 1.483042e+000 3.049421e+000 2.389200e+000 3.067239e+000 3.350684e+000 2.757061e+000 3.209409e+000 2.837834e+000 3.148271e+000 2.594431e+000 2.247276e+000 1.972132e+000 2.860073e+000 2.290003e-001 4.510944e-001 2.922300e-001 4.916970e-001 5.212603e-001 5.047678e-001 5.586465e-001 5.366538e-001 4.998510e-001 4.175504e-001 4.025460e-001 3.782640e-001 5.378270e-001
<GCONST> 1.188778e+002
<MIXTURE> 2 1.330318e-001
<MEAN> 39
 4.444133e+000 1.856493e+000 1.096462e+000 4.113959e+000 -2.334745e+000 -1.338092e+000 -1.098081e+001 -9.893575e+000 3.729987e+000 4.148171e+000 -2.199755e+000 -6.845301e+000 6.389973e+001 -4.766137e-001 2.208741e+000 1.496293e+000 2.384790e+000 2.336713e+000 -4.352688e-001 2.008502e+000 1.001468e+000 4.527885e-001 -1.566870e-001 -7.939321e-001 3.185698e-001 -1.988075e+000 -3.672801e-001 -4.316450e-001 2.745138e-001 -1.048451e+000 -4.956809e-001 4.067137e-001 3.278499e-001 8.202574e-001 -3.616199e-001 -2.909228e-001 7.493013e-001 7.325284e-001 1.243626e+000
<VARIANCE> 39
 1.323121e+001 3.454484e+001 3.854979e+001 4.860320e+001 6.750856e+001 4.625460e+001 4.742877e+001 4.968171e+001 4.395921e+001 3.691193e+001 5.474347e+001 3.268889e+001 4.635713e+001 1.504041e+000 3.857643e+000 2.912513e+000 4.470988e+000 4.848214e+000 4.078955e+000 4.809216e+000 5.400150e+000 4.822069e+000 4.504276e+000 4.565912e+000 3.730180e+000 2.857888e+000 2.586484e-001 8.097764e-001 4.865756e-001 7.814501e-001 1.483793e+000 8.737184e-001 9.225894e-001 8.570871e-001 9.841452e-001 8.831291e-001 8.149387e-001 7.237856e-001 7.279096e-001
<GCONST> 1.339053e+002
<MIXTURE> 3 1.338665e-001
<MEAN> 39
 7.307752e-001 7.884697e+000 7.459701e+000 1.588966e+000 -5.808610e+000 -5.451290e+000 -4.629523e+000 -2.559489e+000 -2.143880e+000 -4.095534e+000 -6.593146e+000 -5.136915e+000 6.170992e+001 5.100155e-001 1.388416e+000 3.689119e-001 1.199943e+000 1.577898e+000 7.875087e-001 1.225714e+000 3.441774e-001 5.365992e-001 -2.080374e-001 1.225262e-001 -1.672942e-001 -1.419955e+000 -5.973821e-001 -8.755372e-001 3.102765e-002 -4.570686e-001 -8.516008e-002 1.323466e-001 -1.486930e-001 1.042792e-001 1.394067e-001 5.472747e-001 5.975217e-001 5.834644e-001 1.395882e+000
<VARIANCE> 39
 1.868882e+001 3.401716e+001 3.474359e+001 3.391495e+001 4.579215e+001 4.000228e+001 3.734946e+001 3.036171e+001 3.469487e+001 3.607116e+001 3.105423e+001 2.509522e+001 4.250345e+001 1.499881e+000 2.229444e+000 1.833770e+000 2.083960e+000 3.108862e+000 2.272475e+000 2.636256e+000 2.494838e+000 2.616851e+000 2.176933e+000 1.967138e+000 2.206889e+000 2.338438e+000 3.578873e-001 4.555492e-001 4.197080e-001 4.761341e-001 6.401338e-001 5.599428e-001 6.647566e-001 5.811574e-001 5.885713e-001 4.605063e-001 4.386371e-001 3.966985e-001 5.678445e-001
<GCONST> 1.187133e+002
<MIXTURE> 4 1.009697e-001
<MEAN> 39
 2.712171e-001 5.173432e+000 7.141116e+000 7.378109e-001 -6.569939e+000 -5.044895e+000 -7.178257e+000 -3.594914e+000 -1.417492e+000 -4.338778e+000 -4.675277e+000 -3.410717e+000 6.187775e+001 3.957922e-001 1.497206e+000 1.149632e+000 2.035438e+000 8.746122e-001 3.857324e-001 1.145602e+000 -6.496329e-002 3.441801e-001 -2.403331e-001 3.868015e-001 -4.145611e-002 -6.309697e-001 -2.849694e-001 -7.497088e-001 -9.175390e-003 -5.043638e-001 1.701231e-001 3.824584e-001 1.816295e-001 3.619457e-001 2.942907e-001 6.169757e-001 5.479771e-001 4.679883e-001 1.239459e+000
<VARIANCE> 39
 4.379515e+001 6.586353e+001 8.708415e+001 6.803214e+001 7.557198e+001 7.731216e+001 7.007036e+001 5.440761e+001 5.374359e+001 5.167508e+001 6.326908e+001 4.023935e+001 6.505436e+001 4.423188e+000 7.088197e+000 4.491180e+000 6.491496e+000 7.738536e+000 6.953927e+000 6.963147e+000 6.190110e+000 5.404903e+000 5.077696e+000 5.274072e+000 4.203365e+000 6.325685e+000 6.403884e-001 1.256286e+000 8.440731e-001 1.286113e+000 1.395789e+000 1.236524e+000 1.219505e+000 1.120964e+000 1.140053e+000 1.023934e+000 1.004441e+000 7.622995e-001 1.187322e+000
<GCONST> 1.488017e+002
<MIXTURE> 5 1.338665e-001
<MEAN> 39
 -9.984475e-001 5.551727e+000 5.101953e+000 -7.404962e-001 -8.515406e+000 -7.981184e+000 -7.074091e+000 -4.763547e+000 -4.499974e+000 -6.497904e+000 -8.822199e+000 -7.140720e+000 5.910213e+001 2.013705e-002 7.911635e-001 -1.727551e-001 6.225062e-001 8.726196e-001 1.845195e-001 5.762516e-001 -2.876249e-001 -1.104682e-001 -7.982147e-001 -4.384926e-001 -7.615182e-001 -2.031633e+000 -8.366769e-001 -1.145515e+000 -2.281118e-001 -7.330785e-001 -4.051935e-001 -1.669707e-001 -4.748234e-001 -2.006555e-001 -1.674670e-001 2.758323e-001 3.326029e-001 3.315284e-001 1.094460e+000
<VARIANCE> 39
 1.868882e+001 3.401716e+001 3.474359e+001 3.391495e+001 4.579215e+001 4.000228e+001 3.734946e+001 3.036171e+001 3.469487e+001 3.607116e+001 3.105423e+001 2.509522e+001 4.250345e+001 1.499881e+000 2.229444e+000 1.833770e+000 2.083960e+000 3.108862e+000 2.272475e+000 2.636256e+000 2.494838e+000 2.616851e+000 2.176933e+000 1.967138e+000 2.206889e+000 2.338438e+000 3.578873e-001 4.555492e-001 4.197080e-001 4.761341e-001 6.401338e-001 5.599428e-001 6.647566e-001 5.811574e-001 5.885713e-001 4.605063e-001 4.386371e-001 3.966985e-001 5.678445e-001
<GCONST> 1.187133e+002
<MIXTURE> 6 1.330318e-001
<MEAN> 39
 2.989143e+000 -4.945014e-001 -1.387077e+000 1.325319e+000 -5.621289e+000 -4.058522e+000 -1.373555e+001 -1.271299e+001 1.077917e+000 1.717963e+000 -5.159308e+000 -9.132269e+000 6.117629e+001 -9.671711e-001 1.423105e+000 8.136493e-001 1.539002e+000 1.455967e+000 -1.243126e+000 1.131305e+000 7.193866e-002 -4.255799e-001 -1.005618e+000 -1.648652e+000 -4.539771e-001 -2.664287e+000 -5.707101e-001 -7.915953e-001 -4.506138e-003 -1.402049e+000 -9.829251e-001 3.282209e-002 -5.635614e-002 4.499414e-001 -7.584363e-001 -6.668226e-001 3.882055e-001 3.922260e-001 9.023558e-001
<VARIANCE> 39
 1.323121e+001 3.454484e+001 3.854979e+001 4.860320e+001 6.750856e+001 4.625460e+001 4.742877e+001 4.968171e+001 4.395921e+001 3.691193e+001 5.474347e+001 3.268889e+001 4.635713e+001 1.504041e+000 3.857643e+000 2.912513e+000 4.470988e+000 4.848214e+000 4.078955e+000 4.809216e+000 5.400150e+000 4.822069e+000 4.504276e+000 4.565912e+000 3.730180e+000 2.857888e+000 2.586484e-001 8.097764e-001 4.865756e-001 7.814501e-001 1.483793e+000 8.737184e-001 9.225894e-001 8.570871e-001 9.841452e-001 8.831291e-001 8.149387e-001 7.237856e-001 7.279096e-001
<GCONST> 1.339053e+002
<MIXTURE> 7 1.321183e-001
<MEAN> 39
 -3.325900e+000 4.607329e+000 7.172948e+000 2.896679e+000 -5.163496e+000 -7.153385e+000 -7.400577e+000 -3.221151e+000 6.986564e-002 -1.865037e+000 -2.437127e+000 -4.577676e+000 5.747523e+001 -3.309883e-001 1.349398e+000 -4.366713e-001 1.007062e+000 1.354881e+000 4.970953e-001 8.879085e-001 -4.438704e-001 -2.475223e-001 -3.439794e-001 -5.923802e-001 -4.021625e-001 -2.847417e+000 -3.790677e-001 -9.695171e-001 -3.480275e-001 -8.595201e-001 -6.139205e-001 -1.452498e-001 -2.117051e-001 -1.457237e-001 -4.343170e-001 -1.381977e-001 -8.578959e-002 -7.005445e-003 9.835677e-001
<VARIANCE> 39
 2.506161e+001 2.698509e+001 3.672020e+001 3.285244e+001 4.199569e+001 3.746292e+001 4.156926e+001 3.138125e+001 3.357538e+001 2.716498e+001 2.457318e+001 2.539296e+001 5.729917e+001 1.483042e+000 3.049421e+000 2.389200e+000 3.067239e+000 3.350684e+000 2.757061e+000 3.209409e+000 2.837834e+000 3.148271e+000 2.594431e+000 2.247276e+000 1.972132e+000 2.860073e+000 2.290003e-001 4.510944e-001 2.922300e-001 4.916970e-001 5.212603e-001 5.047678e-001 5.586465e-001 5.366538e-001 4.998510e-001 4.175504e-001 4.025460e-001 3.782640e-001 5.378270e-001
<GCONST> 1.188778e+002
<MIXTURE> 8 1.009697e-001
<MEAN> 39
 -2.375899e+000 1.927178e+000 3.408360e+000 -2.561453e+000 -1.004722e+001 -8.561989e+000 -1.052658e+001 -6.545374e+000 -4.349893e+000 -7.214192e+000 -7.856952e+000 -5.948097e+000 5.865150e+001 -4.454629e-001 4.322596e-001 3.019353e-001 1.016302e+000 -2.381168e-001 -6.690796e-001 9.009121e-002 -1.060161e+000 -5.857577e-001 -1.141683e+000 -5.318125e-001 -8.615405e-001 -1.637006e+000 -6.050665e-001 -1.198045e+000 -3.766692e-001 -9.579915e-001 -3.024510e-001 -6.233800e-002 -2.600953e-001 -6.155668e-002 -1.328024e-001 2.122172e-001 1.470899e-001 1.187493e-001 8.036014e-001
<VARIANCE> 39
 4.379515e+001 6.586353e+001 8.708415e+001 6.803214e+001 7.557198e+001 7.731216e+001 7.007036e+001 5.440761e+001 5.374359e+001 5.167508e+001 6.326908e+001 4.023935e+001 6.505436e+001 4.423188e+000 7.088197e+000 4.491180e+000 6.491496e+000 7.738536e+000 6.953927e+000 6.963147e+000 6.190110e+000 5.404903e+000 5.077696e+000 5.274072e+000 4.203365e+000 6.325685e+000 6.403884e-001 1.256286e+000 8.440731e-001 1.286113e+000 1.395789e+000 1.236524e+000 1.219505e+000 1.120964e+000 1.140053e+000 1.023934e+000 1.004441e+000 7.622995e-001 1.187322e+000
<GCONST> 1.488017e+002
<STATE> 3
<NUMMIXES> 8
<MIXTURE> 1 1.461986e-001
<MEAN> 39
 -1.880153e+000 9.567452e+000 8.288801e+000 6.584988e+000 8.101813e-001 -2.034147e+000 -2.842986e+000 -2.590477e+000 5.181320e-001 9.959207e-001 -6.647653e-003 -2.611141e+000 5.666868e+001 -1.182961e+000 -1.671091e+000 -1.505720e-001 -5.694457e-001 4.488829e-001 5.403414e-001 1.304444e+000 7.032058e-001 3.726757e-001 4.853089e-002 5.197443e-001 1.263749e+000 2.490995e+000 1.132777e-001 -8.929768e-001 4.041309e-002 -6.827019e-001 -9.486187e-001 -3.290744e-001 -4.801910e-001 8.268983e-002 1.916953e-001 1.245938e-001 2.607771e-001 2.044246e-001 1.861376e+000
<VARIANCE> 39
 2.785125e+001 2.098637e+001 3.208136e+001 2.902419e+001 3.781335e+001 3.019238e+001 3.861301e+001 2.968633e+001 3.020163e+001 2.712647e+001 2.068161e+001 2.217677e+001 5.417920e+001 2.246743e+000 4.625942e+000 3.232063e+000 4.506606e+000 4.642745e+000 4.135721e+000 4.104585e+000 3.722707e+000 4.035085e+000 3.437757e+000 2.667742e+000 2.622160e+000 4.569885e+000 4.003026e-001 5.632961e-001 5.116290e-001 6.656800e-001 8.591551e-001 6.802709e-001 7.803383e-001 6.865197e-001 7.364414e-001 5.681478e-001 5.343418e-001 4.337728e-001 4.503712e-001
<GCONST> 1.257351e+002
<MIXTURE> 2 1.213533e-001
<MEAN> 39
 -2.600831e+000 1.570394e+000 6.395779e+000 2.740484e+000 -1.493763e+000 -2.137067e+000 -4.565215e+000 -3.934592e+000 1.460067e+000 -4.058696e-001 -2.448862e+000 -2.835412e+000 6.526933e+001 -7.549064e-001 -1.328671e+000 7.094799e-001 -7.913998e-001 -7.602264e-001 -3.590153e-001 -2.805788e-001 7.293250e-001 5.127488e-001 8.809256e-002 8.948722e-001 1.361789e+000 2.800874e+000 5.497962e-001 -4.311891e-001 7.517205e-002 -6.719968e-001 -1.021969e+000 2.876295e-002 -7.699071e-001 4.090016e-001 7.692585e-002 4.899280e-001 5.513257e-001 4.230876e-002 1.095762e+000
<VARIANCE> 39
 2.984197e+001 3.016192e+001 3.924559e+001 4.844079e+001 4.273197e+001 4.779291e+001 5.220912e+001 5.049189e+001 4.162754e+001 3.250684e+001 3.081786e+001 2.490758e+001 5.772123e+001 1.890358e+000 3.254754e+000 3.021626e+000 3.676868e+000 4.703686e+000 3.956796e+000 4.382964e+000 5.045637e+000 4.460563e+000 3.619494e+000 3.112999e+000 2.891339e+000 3.434742e+000 2.736700e-001 5.366691e-001 5.880445e-001 8.695753e-001 9.183000e-001 1.125816e+000 1.041798e+000 1.093948e+000 1.083287e+000 8.563325e-001 1.065073e+000 6.122785e-001 2.883154e-001
<GCONST> 1.317243e+002
<MIXTURE> 3 1.488858e-001
<MEAN> 39
 1.076672e+000 8.168051e+000 7.826941e+000 2.437454e+000 -3.634521e+000 -6.687189e+000 -4.769545e+000 -3.025641e+000 -4.401181e-001 -4.440018e+000 -7.189202e+000 -6.039695e+000 5.931298e+001 -1.790474e+000 -1.349447e+000 7.619427e-001 -3.111524e-001 1.028506e+000 1.234365e+000 1.168489e+000 4.689769e-001 1.685537e-001 4.324018e-001 1.943831e+000 1.287562e+000 2.350826e+000 -2.415654e-001 -1.368750e+000 -1.793738e-001 -1.131009e+000 -9.568327e-001 -1.816380e-001 -5.419895e-001 4.258526e-001 2.125363e-002 7.593491e-001 6.074479e-001 8.583912e-001 2.223541e+000
<VARIANCE> 39
