~o
<STREAMINFO> 1 39
<VECSIZE> 39<NULLD><MFCC_D_A_0><DIAGC>
~h "proto-3s-39f"
<BEGINHMM>
<NUMSTATES> 5
<STATE> 2
<MEAN> 39
 -1.684254e+001 5.839720e-001 -4.160820e+000 -4.729387e-001 -7.780215e+000 -1.514730e+000 -6.162650e+000 -3.130017e+000 7.374237e-001 -3.040467e+000 4.311575e+000 -3.635250e+000 4.753968e+001 -1.505581e-002 4.600876e-004 -3.885482e-003 -3.284465e-003 2.626207e-003 -2.521727e-003 1.247995e-003 4.391563e-004 -4.271111e-003 2.933964e-003 -4.285906e-003 2.352859e-003 -5.097035e-003 4.772852e-003 2.496752e-005 1.194612e-003 5.594530e-004 2.898865e-004 2.536468e-004 -3.318919e-005 2.939859e-004 -2.046808e-004 -6.952935e-004 -2.359611e-004 -3.581386e-004 2.411119e-003
<VARIANCE> 39
 8.321259e+001 3.298258e+001 7.034193e+001 5.811417e+001 5.178136e+001 5.674727e+001 5.576274e+001 5.648629e+001 4.333321e+001 5.047475e+001 5.807556e+001 3.940964e+001 2.749402e+002 3.176119e+000 2.127906e+000 2.382208e+000 2.894937e+000 3.340227e+000 2.872311e+000 3.639993e+000 3.135050e+000 3.285371e+000 3.390204e+000 3.309548e+000 2.353145e+000 5.243836e+000 4.538632e-001 3.775344e-001 3.846774e-001 4.796999e-001 5.828526e-001 5.221955e-001 6.255662e-001 5.475321e-001 5.954359e-001 6.006836e-001 5.725750e-001 4.180445e-001 8.145682e-001
<GCONST> 1.312733e+002
<STATE> 3
<MEAN> 39
 -1.684254e+001 5.839720e-001 -4.160820e+000 -4.729387e-001 -7.780215e+000 -1.514730e+000 -6.162650e+000 -3.130017e+000 7.374237e-001 -3.040467e+000 4.311575e+000 -3.635250e+000 4.753968e+001 -1.505581e-002 4.600876e-004 -3.885482e-003 -3.284465e-003 2.626207e-003 -2.521727e-003 1.247995e-003 4.391563e-004 -4.271111e-003 2.933964e-003 -4.285906e-003 2.352859e-003 -5.097035e-003 4.772852e-003 2.496752e-005 1.194612e-003 5.594530e-004 2.898865e-004 2.536468e-004 -3.318919e-005 2.939859e-004 -2.046808e-004 -6.952935e-004 -2.359611e-004 -3.581386e-004 2.411119e-003
<VARIANCE> 39
 8.321259e+001 3.298258e+001 7.034193e+001 5.811417e+001 5.178136e+001 5.674727e+001 5.576274e+001 5.648629e+001 4.333321e+001 5.047475e+001 5.807556e+001 3.940964e+001 2.749402e+002 3.176119e+000 2.127906e+000 2.382208e+000 2.894937e+000 3.340227e+000 2.872311e+000 3.639993e+000 3.135050e+000 3.285371e+000 3.390204e+000 3.309548e+000 2.353145e+000 5.243836e+000 4.538632e-001 3.775344e-001 3.846774e-001 4.796999e-001 5.828526e-001 5.221955e-001 6.255662e-001 5.475321e-001 5.954359e-001 6.006836e-001 5.725750e-001 4.180445e-001 8.145682e-001
<GCONST> 1.312733e+002
<STATE> 4
<MEAN> 39
 -1.684254e+001 5.839720e-001 -4.160820e+000 -4.729387e-001 -7.780215e+000 -1.514730e+000 -6.162650e+000 -3.130017e+000 7.374237e-001 -3.040467e+000 4.311575e+000 -3.635250e+000 4.753968e+001 -1.505581e-002 4.600876e-004 -3.885482e-003 -3.284465e-003 2.626207e-003 -2.521727e-003 1.247995e-003 4.391563e-004 -4.271111e-003 2.933964e-003 -4.285906e-003 2.352859e-003 -5.097035e-003 4.772852e-003 2.496752e-005 1.194612e-003 5.594530e-004 2.898865e-004 2.536468e-004 -3.318919e-005 2.939859e-004 -2.046808e-004 -6.952935e-004 -2.359611e-004 -3.581386e-004 2.411119e-003
<VARIANCE> 39
 8.321259e+001 3.298258e+001 7.034193e+001 5.811417e+001 5.178136e+001 5.674727e+001 5.576274e+001 5.648629e+001 4.333321e+001 5.047475e+001 5.807556e+001 3.940964e+001 2.749402e+002 3.176119e+000 2.127906e+000 2.382208e+000 2.894937e+000 3.340227e+000 2.872311e+000 3.639993e+000 3.135050e+000 3.285371e+000 3.390204e+000 3.309548e+000 2.353145e+000 5.243836e+000 4.538632e-001 3.775344e-001 3.846774e-001 4.796999e-001 5.828526e-001 5.221955e-001 6.255662e-001 5.475321e-001 5.954359e-001 6.006836e-001 5.725750e-001 4.180445e-001 8.145682e-001
<GCONST> 1.312733e+002
<TRANSP> 5
 0.000000e+000 1.000000e+000 0.000000e+000 0.000000e+000 0.000000e+000
 0.000000e+000 6.000000e-001 4.000000e-001 0.000000e+000 0.000000e+000
 0.000000e+000 0.000000e+000 6.000000e-001 4.000000e-001 0.000000e+000
 0.000000e+000 0.000000e+000 0.000000e+000 7.000000e-001 3.000000e-001
 0.000000e+000 0.000000e+000 0.000000e+000 0.000000e+000 0.000000e+000
<ENDHMM>
