~o
<STREAMINFO> 1 39
<VECSIZE> 39<NULLD><MFCC_D_A_0><DIAGC>
~h "a"
<BEGINHMM>
<NUMSTATES> 5
<STATE> 2
<MEAN> 39
 -2.535252e+000 -7.770136e+000 -4.105847e+000 -1.026211e+001 -4.917213e+000 -1.479049e+000 -6.372664e+000 5.748200e-001 8.225713e-001 7.767653e-001 -4.218211e+000 -5.233139e+000 7.021143e+001 1.275805e+000 -1.801279e+000 -8.579077e-001 -1.461026e+000 7.699144e-002 7.208007e-001 -7.916133e-001 4.884180e-001 -2.310526e-001 9.611526e-003 -1.004169e+000 -1.076518e+000 1.611945e+000 -3.353401e-001 3.728982e-001 2.499846e-001 4.400109e-001 1.804260e-001 -4.298173e-002 2.499872e-001 -1.561682e-001 -1.015466e-001 -3.098788e-002 1.614319e-001 2.117295e-001 -3.963751e-001
<VARIANCE> 39
 4.553057e+001 5.954994e+001 4.903660e+001 7.893443e+001 7.565032e+001 9.096397e+001 8.170331e+001 6.239453e+001 6.284985e+001 5.935287e+001 7.404463e+001 5.008433e+001 1.274384e+002 3.421744e+000 4.128595e+000 3.396041e+000 5.269396e+000 5.035737e+000 5.219039e+000 5.015194e+000 5.099567e+000 5.563787e+000 4.307363e+000 5.208354e+000 4.068207e+000 4.975135e+000 6.321027e-001 9.185276e-001 5.672252e-001 1.012762e+000 8.557619e-001 8.971049e-001 9.279914e-001 8.970482e-001 9.189786e-001 7.582133e-001 9.142387e-001 7.010062e-001 1.197761e+000
<GCONST> 1.442132e+002
<STATE> 3
<MEAN> 39
 2.151266e-001 -1.143134e+001 -5.719268e+000 -1.306850e+001 -4.328308e+000 -7.943819e-001 -8.521317e+000 9.471983e-001 -6.454282e-001 -5.265004e-001 -7.081712e+000 -7.620586e+000 7.621888e+001 1.037014e-001 4.193433e-001 1.356452e-001 2.379851e-001 1.848697e-001 -9.245640e-002 6.493659e-002 -2.009994e-001 -1.136814e-001 4.310650e-002 3.081815e-002 8.766817e-002 -3.725947e-001 -2.192234e-001 8.231717e-001 4.022326e-001 5.854629e-001 -5.854015e-002 -2.967360e-001 2.207136e-001 -3.422365e-001 -9.709070e-003 2.985269e-002 3.609343e-001 3.065082e-001 -6.736941e-001
<VARIANCE> 39
 1.683838e+001 3.759933e+001 3.978318e+001 5.988671e+001 5.855809e+001 8.997414e+001 7.436980e+001 5.904762e+001 6.006538e+001 6.340596e+001 7.522227e+001 4.717920e+001 3.504694e+001 6.130703e-001 2.157697e+000 1.848102e+000 1.988797e+000 2.640395e+000 3.078682e+000 2.514545e+000 2.955007e+000 2.574940e+000 2.474790e+000 2.581250e+000 2.094683e+000 1.070337e+000 2.683758e-001 3.472226e-001 3.217232e-001 4.730625e-001 5.284973e-001 5.462910e-001 5.963662e-001 6.190963e-001 6.626859e-001 5.528572e-001 5.810174e-001 5.110055e-001 2.540674e-001
<GCONST> 1.220438e+002
<STATE> 4
<MEAN> 39
 1.458544e-001 -5.142279e+000 -4.242333e+000 -9.118664e+000 -3.934756e+000 -1.853397e+000 -7.392492e+000 -8.804599e-001 -5.678649e-001 7.137144e-001 -4.926012e+000 -5.767146e+000 6.950500e+001 -6.321485e-001 2.262287e+000 8.673413e-001 1.878460e+000 4.091403e-001 -4.023108e-001 9.926716e-001 -6.122336e-001 1.092014e-001 -4.540536e-002 8.349288e-001 6.706529e-001 -2.458572e+000 -3.734524e-001 2.947085e-002 5.816348e-002 1.690403e-001 6.118320e-002 1.186725e-001 2.417528e-001 6.397414e-002 1.177272e-001 -2.701438e-002 1.195577e-001 6.678057e-002 -1.995462e-001
<VARIANCE> 39
 2.125706e+001 4.002499e+001 4.710030e+001 6.433813e+001 6.873295e+001 9.161670e+001 7.177117e+001 6.131186e+001 5.481685e+001 6.419178e+001 7.262901e+001 4.224900e+001 6.787672e+001 1.875231e+000 2.784580e+000 2.879333e+000 3.697888e+000 4.053340e+000 4.070661e+000 4.194746e+000 4.357766e+000 4.841873e+000 3.595727e+000 3.633060e+000 3.088133e+000 2.741740e+000 3.430768e-001 4.647347e-001 4.551833e-001 5.817702e-001 6.143464e-001 7.286873e-001 6.967789e-001 7.449574e-001 7.297929e-001 6.647816e-001 7.000419e-001 5.272974e-001 4.561472e-001
<GCONST> 1.328711e+002
<TRANSP> 5
 0.000000e+000 1.000000e+000 0.000000e+000 0.000000e+000 0.000000e+000
 0.000000e+000 5.373471e-001 4.626529e-001 0.000000e+000 0.000000e+000
 0.000000e+000 0.000000e+000 6.865417e-001 3.134583e-001 0.000000e+000
 0.000000e+000 0.000000e+000 0.000000e+000 5.426707e-001 4.573294e-001
 0.000000e+000 0.000000e+000 0.000000e+000 0.000000e+000 0.000000e+000
<ENDHMM>
~h "b"
<BEGINHMM>
<NUMSTATES> 5
<STATE> 2
<MEAN> 39
 1.649463e+000 7.276944e+000 3.536789e+000 7.336313e-001 -3.039572e+000 -2.601607e+000 -5.458241e+000 -6.399851e+000 -5.025160e+000 -2.767198e+000 -2.344957e+000 -5.859276e+000 5.832037e+001 -1.285757e-001 1.526991e+000 5.052105e-001 1.303750e+000 9.926406e-001 4.505027e-002 7.562102e-001 -1.912496e-001 -7.475732e-002 -5.195685e-001 -3.190135e-001 -2.053777e-001 -1.606921e+000 -3.636244e-001 -6.888232e-001 -8.593486e-002 -5.100439e-001 -3.702297e-001 -1.375449e-001 -2.295185e-001 1.986030e-001 1.400912e-001 1.663752e-001 7.411737e-002 2.418010e-001 8.637531e-001
<VARIANCE> 39
 2.300002e+001 2.578121e+001 3.186340e+001 4.213704e+001 3.785757e+001 4.590226e+001 4.299229e+001 3.365676e+001 3.832034e+001 3.265580e+001 4.552945e+001 2.870528e+001 4.533854e+001 1.119688e+000 2.012272e+000 1.530090e+000 3.005080e+000 2.460557e+000 2.169408e+000 2.602948e+000 2.426164e+000 2.842910e+000 2.501271e+000 2.248567e+000 2.132778e+000 2.139575e+000 2.311829e-001 3.938870e-001 3.161728e-001 4.648234e-001 4.687119e-001 4.404448e-001 5.153102e-001 5.162860e-001 5.596437e-001 4.896055e-001 4.756427e-001 4.272467e-001 3.959950e-001
<GCONST> 1.172396e+002
<STATE> 3
<MEAN> 39
 5.534291e-001 9.232882e+000 4.877691e+000 2.216768e+000 -1.175600e+000 -2.593509e+000 -4.470228e+000 -6.619904e+000 -4.919753e+000 -3.725005e+000 -2.657253e+000 -5.296854e+000 5.596024e+001 -1.538140e+000 -1.827148e+000 -2.343322e-001 -3.014375e-001 -2.888499e-001 -8.117360e-001 -2.336616e-001 4.116778e-001 8.483926e-001 2.696636e-001 1.570513e-001 6.796777e-001 2.273660e+000 1.248923e-002 -1.253603e+000 -2.475254e-001 -9.777120e-001 -9.583527e-001 -2.832952e-001 -5.472986e-001 2.088744e-001 9.145901e-002 4.311396e-001 2.202310e-001 1.696062e-001 1.544610e+000
<VARIANCE> 39
 2.090569e+001 2.142597e+001 2.708414e+001 3.489249e+001 3.519420e+001 4.021703e+001 3.856149e+001 3.226645e+001 3.393042e+001 3.024083e+001 3.917275e+001 2.691609e+001 4.520557e+001 2.111936e+000 3.457319e+000 2.877158e+000 4.021938e+000 3.956481e+000 3.850941e+000 3.913552e+000 3.416279e+000 3.598371e+000 3.170206e+000 3.164976e+000 2.559247e+000 3.873266e+000 3.827392e-001 4.770738e-001 7.359121e-001 6.929046e-001 7.218388e-001 7.290058e-001 6.891991e-001 7.749884e-001 8.766483e-001 7.175893e-001 6.680835e-001 6.122687e-001 3.845429e-001
<GCONST> 1.263972e+002
<STATE> 4
<MEAN> 39
 -4.723105e+000 -2.664876e-001 2.723273e+000 -5.464097e-001 -3.754862e+000 -6.580683e+000 -6.160630e+000 -4.781119e+000 -1.163740e+000 -1.805624e+000 -1.737413e+000 -2.979249e+000 6.785557e+001 3.916621e-003 -3.200486e+000 -2.989406e-001 -2.589846e+000 -2.842985e+000 -9.778621e-001 -1.636850e+000 5.596307e-001 8.728798e-002 1.090784e+000 5.432851e-001 5.646756e-001 4.225541e+000 7.212881e-001 3.655021e-001 2.248608e-001 -4.906515e-001 -5.411677e-001 4.071749e-001 -2.322232e-001 -1.020864e-001 -5.273568e-001 5.442349e-002 -6.749614e-002 -2.345057e-001 -4.224343e-001
<VARIANCE> 39
 2.653510e+001 3.075181e+001 3.837029e+001 4.977211e+001 4.296657e+001 4.632971e+001 5.051767e+001 3.330751e+001 3.465546e+001 3.429152e+001 3.194023e+001 2.244113e+001 6.852419e+001 3.083944e+000 4.311883e+000 7.653059e+000 6.747853e+000 6.096267e+000 6.484153e+000 5.403152e+000 6.058801e+000 7.009170e+000 5.702114e+000 4.913545e+000 4.401360e+000 2.819597e+000 4.261799e-001 8.194436e-001 5.668802e-001 9.512205e-001 9.474703e-001 8.510407e-001 9.451353e-001 7.895755e-001 8.390546e-001 8.083425e-001 8.581825e-001 5.313429e-001 7.590256e-001
<GCONST> 1.367121e+002
<TRANSP> 5
 0.000000e+000 1.000000e+000 0.000000e+000 0.000000e+000 0.000000e+000
 0.000000e+000 6.970752e-001 3.029248e-001 0.000000e+000 0.000000e+000
 0.000000e+000 0.000000e+000 5.161825e-001 4.838175e-001 0.000000e+000
 0.000000e+000 0.000000e+000 0.000000e+000 4.552664e-001 5.447336e-001
 0.000000e+000 0.000000e+000 0.000000e+000 0.000000e+000 0.000000e+000
<ENDHMM>
~h "d"
<BEGINHMM>
<NUMSTATES> 5
<STATE> 2
<MEAN> 39
 -6.314232e-001 4.667219e+000 5.291436e+000 2.008370e+000 -5.067554e+000 -5.477833e+000 -7.339879e+000 -4.847233e+000 -5.038327e-001 -2.014041e+000 -4.656203e+000 -5.453107e+000 5.974980e+001 -2.041593e-001 1.271446e+000 4.286389e-001 1.251441e+000 1.273658e+000 2.319683e-001 1.065814e+000 -4.159774e-002 -4.190130e-002 -4.769960e-001 -3.087563e-001 -2.382754e-001 -1.721732e+000 -4.435489e-001 -8.979393e-001 -1.212799e-001 -8.281523e-001 -4.447004e-001 3.481785e-002 -1.198440e-001 1.446689e-001 -1.976937e-001 8.540252e-002 3.311664e-001 3.615300e-001 1.204587e+000
<VARIANCE> 39
 3.185828e+001 4.072973e+001 5.046682e+001 4.507032e+001 5.849143e+001 5.051545e+001 5.526206e+001 4.936592e+001 4.471744e+001 4.739766e+001 4.759281e+001 3.378326e+001 5.962586e+001 2.373689e+000 3.804384e+000 2.948344e+000 3.754423e+000 4.475687e+000 3.996050e+000 4.235537e+000 4.057793e+000 3.854941e+000 3.304265e+000 3.455341e+000 2.892421e+000 3.773744e+000 4.229533e-001 7.604694e-001 4.918901e-001 8.265218e-001 1.044298e+000 7.638897e-001 8.424922e-001 8.033232e-001 7.975288e-001 7.836239e-001 6.771843e-001 5.843387e-001 8.512365e-001
<GCONST> 1.339058e+002
<STATE> 3
<MEAN> 39
 -3.346044e+000 3.916214e+000 6.258797e+000 2.125180e+000 -2.949688e+000 -4.214502e+000 -4.983221e+000 -4.452863e+000 -1.293062e+000 -2.952202e+000 -3.859277e+000 -4.252174e+000 6.015984e+001 -1.489493e+000 -2.228034e+000 1.271858e-001 -1.253819e+000 -7.164599e-001 -2.644168e-001 -1.628156e-002 2.015733e-001 -2.554345e-003 -1.392295e-001 8.276240e-001 1.076902e+000 2.789298e+000 2.227502e-001 -7.984256e-001 -1.514988e-001 -8.872744e-001 -1.112272e+000 -3.848106e-001 -8.471053e-001 1.041936e-001 -3.370212e-002 3.177236e-001 2.011746e-001 1.285571e-001 1.311202e+000
<VARIANCE> 39
 3.727876e+001 5.013728e+001 4.295898e+001 4.841035e+001 5.054796e+001 4.635743e+001 4.744080e+001 4.061573e+001 3.849925e+001 3.779918e+001 3.574331e+001 2.769114e+001 6.914097e+001 2.643359e+000 4.117218e+000 3.945899e+000 4.644835e+000 5.724483e+000 5.039580e+000 5.152595e+000 5.035243e+000 4.609029e+000 4.109955e+000 3.773953e+000 3.086863e+000 3.851025e+000 5.342768e-001 8.515736e-001 6.638802e-001 9.476382e-001 1.073126e+000 1.028244e+000 9.905194e-001 9.633811e-001 9.343458e-001 8.086845e-001 9.029902e-001 6.872463e-001 7.064416e-001
<GCONST> 1.369443e+002
<STATE> 4
<MEAN> 39
 -5.448925e+000 -3.988075e+000 5.883779e+000 -3.218634e+000 -8.820699e+000 -7.361635e+000 -8.805221e+000 -3.986222e+000 9.718350e-002 -2.647541e+000 -1.515780e+000 -1.169202e+000 7.129805e+001 6.225619e-001 -1.537363e+000 -4.039681e-001 -1.789830e+000 -2.123651e+000 -8.831611e-001 -2.086168e+000 4.102602e-001 -2.120926e-002 8.027577e-001 3.812501e-001 8.573291e-002 2.585963e+000 6.448379e-001 5.987396e-001 -2.447443e-001 8.196518e-003 1.257113e-001 2.768985e-001 -1.459489e-001 -1.337550e-002 -2.392618e-001 2.720578e-001 -2.536638e-001 -5.097959e-001 -7.252678e-001
<VARIANCE> 39
 3.967225e+001 4.613715e+001 4.529865e+001 6.482476e+001 7.332446e+001 5.900991e+001 8.269029e+001 5.569017e+001 4.659959e+001 3.900318e+001 3.576157e+001 2.811043e+001 5.244165e+001 3.072935e+000 5.027963e+000 4.192706e+000 5.227103e+000 6.713994e+000 5.788208e+000 6.896921e+000 6.711519e+000 5.510573e+000 4.862347e+000 5.401600e+000 4.365369e+000 4.596574e+000 5.044978e-001 7.988130e-001 6.767997e-001 1.038890e+000 1.415711e+000 1.169995e+000 1.413151e+000 9.574163e-001 9.252704e-001 8.426208e-001 9.950454e-001 6.702051e-001 6.568293e-001
<GCONST> 1.421251e+002
<TRANSP> 5
 0.000000e+000 1.000000e+000 0.000000e+000 0.000000e+000 0.000000e+000
 0.000000e+000 5.438842e-001 4.561158e-001 0.000000e+000 0.000000e+000
 0.000000e+000 0.000000e+000 4.044947e-001 5.955053e-001 0.000000e+000
 0.000000e+000 0.000000e+000 0.000000e+000 4.850689e-001 5.149311e-001
 0.000000e+000 0.000000e+000 0.000000e+000 0.000000e+000 0.000000e+000
<ENDHMM>
~h "e"
<BEGINHMM>
<NUMSTATES> 5
<STATE> 2
<MEAN> 39
 -3.051136e+000 -5.389803e+000 4.820995e+000 -8.227456e+000 -1.330740e+001 -1.039708e+001 -9.007636e+000 9.628922e-001 -1.706538e+000 -1.384892e+000 -4.299283e+000 -2.719396e+000 7.453036e+001 1.611257e+000 -1.541715e+000 2.162589e-002 -9.800516e-001 -1.310781e+000 -7.952053e-001 -1.051476e+000 1.162285e+000 -3.018836e-001 5.136650e-002 -8.539897e-001 -2.553058e-001 1.058699e+000 -7.065703e-001 5.046166e-001 -1.368106e-001 4.532882e-001 7.630641e-001 5.001529e-001 5.600680e-001 -2.069175e-001 1.220150e-001 1.144090e-001 2.865241e-001 1.073645e-001 -6.553984e-001
<VARIANCE> 39
 1.933979e+001 4.275790e+001 6.589413e+001 6.715681e+001 6.567101e+001 5.904749e+001 6.765135e+001 5.207573e+001 6.408920e+001 4.978799e+001 5.766537e+001 3.437213e+001 4.530573e+001 4.148326e+000 2.788006e+000 3.176464e+000 3.961517e+000 4.929405e+000 4.841341e+000 6.046511e+000 4.561360e+000 4.485600e+000 3.875970e+000 4.617530e+000 3.017749e+000 1.706253e+000 6.827328e-001 5.533170e-001 4.792992e-001 5.883610e-001 8.209314e-001 7.570357e-001 8.210437e-001 9.025797e-001 8.017791e-001 7.015817e-001 7.376569e-001 5.046811e-001 3.861224e-001
<GCONST> 1.346581e+002
<STATE> 3
<MEAN> 39
 -2.513098e+000 -8.052052e+000 4.544096e+000 -9.830317e+000 -1.348442e+001 -1.024168e+001 -8.236269e+000 3.839371e+000 -2.803186e+000 -1.891478e+000 -5.903433e+000 -2.668213e+000 7.555955e+001 1.491216e-001 5.774690e-001 -4.235638e-002 6.254833e-001 5.312866e-001 4.171463e-002 1.374357e-001 -3.019001e-001 2.589283e-002 -3.652856e-002 -4.735010e-002 -5.648880e-002 -7.734172e-001 -2.684690e-001 8.019750e-001 3.826740e-003 5.926066e-001 5.818665e-001 2.341752e-001 2.468056e-001 -6.520026e-001 1.194739e-001 4.447310e-002 2.796250e-001 -4.025074e-002 -7.249333e-001
<VARIANCE> 39
 1.637171e+001 3.945250e+001 5.600844e+001 6.467632e+001 5.871086e+001 6.773487e+001 8.322156e+001 5.336530e+001 7.027439e+001 5.249275e+001 6.239346e+001 3.690432e+001 3.756751e+001 7.653185e-001 1.994543e+000 2.229034e+000 2.245839e+000 2.986360e+000 2.427559e+000 2.900033e+000 3.015748e+000 3.043076e+000 2.717825e+000 2.443906e+000 1.949341e+000 1.291419e+000 4.174596e-001 3.620922e-001 3.709905e-001 4.852641e-001 6.427823e-001 6.787981e-001 8.734875e-001 7.159075e-001 7.390615e-001 6.083733e-001 6.464453e-001 4.718642e-001 2.533527e-001
<GCONST> 1.244608e+002
<STATE> 4
<MEAN> 39
 -2.322626e+000 -2.986033e+000 4.595647e+000 -5.238604e+000 -1.074679e+001 -9.372034e+000 -8.126624e+000 6.240574e-001 -1.532558e+000 -1.380790e+000 -4.391446e+000 -2.981147e+000 6.933519e+001 -4.318424e-001 1.975877e+000 -1.929115e-001 1.659517e+000 1.579192e+000 5.772555e-001 9.789592e-001 -1.123583e+000 3.838557e-001 1.050852e-001 5.362170e-001 -4.976029e-002 -2.372146e+000 -3.671509e-001 5.825858e-002 -7.858072e-002 -1.662518e-002 1.221813e-001 2.350120e-001 2.762683e-001 -1.456219e-002 1.989856e-002 7.264521e-002 2.032002e-001 8.106802e-002 -1.139685e-001
<VARIANCE> 39
 2.045138e+001 4.032053e+001 5.856676e+001 6.145482e+001 6.391040e+001 6.238165e+001 7.761707e+001 5.716397e+001 6.838580e+001 5.750826e+001 5.863663e+001 3.893067e+001 6.060808e+001 2.120966e+000 2.650267e+000 2.755085e+000 3.703006e+000 4.127822e+000 3.946581e+000 4.414582e+000 4.494910e+000 4.895519e+000 3.585734e+000 3.843928e+000 2.972664e+000 2.879855e+000 3.821119e-001 4.344406e-001 4.495290e-001 5.017260e-001 6.449535e-001 6.254774e-001 6.550112e-001 7.196166e-001 8.059427e-001 6.521273e-001 6.088309e-001 4.831363e-001 3.671270e-001
<GCONST> 1.317563e+002
<TRANSP> 5
 0.000000e+000 1.000000e+000 0.000000e+000 0.000000e+000 0.000000e+000
 0.000000e+000 3.738593e-001 6.261408e-001 0.000000e+000 0.000000e+000
 0.000000e+000 0.000000e+000 5.561442e-001 4.438558e-001 0.000000e+000
 0.000000e+000 0.000000e+000 0.000000e+000 4.297327e-001 5.702673e-001
 0.000000e+000 0.000000e+000 0.000000e+000 0.000000e+000 0.000000e+000
<ENDHMM>
~h "f"
<BEGINHMM>
<NUMSTATES> 5
<STATE> 2
<MEAN> 39
 -9.913169e+000 4.212181e-001 1.230603e+000 1.933680e-001 -6.622274e-001 -2.656739e+000 -7.129741e-001 -4.136830e-001 7.339551e-001 -7.077752e-001 -1.323009e+000 -1.286842e+000 6.620580e+001 -3.662924e+000 -1.950538e-001 -5.199550e-001 1.742127e+000 1.370506e+000 2.148631e-001 1.258926e+000 1.130780e+000 1.817333e+000 6.071069e-001 1.073375e+000 9.560533e-001 -4.459468e-001 1.974764e-002 -5.091194e-001 -1.698084e-001 -6.593518e-001 -6.141177e-001 -9.787452e-002 -3.972478e-001 1.438044e-002 -1.506026e-001 2.119318e-001 2.900448e-003 -5.936991e-003 3.177687e-001
<VARIANCE> 39
 3.954403e+001 2.071070e+001 3.674076e+001 3.910228e+001 3.662687e+001 4.015415e+001 4.108102e+001 3.528394e+001 3.542383e+001 3.246531e+001 3.154879e+001 2.394088e+001 5.851144e+001 2.842987e+000 3.353824e+000 3.450205e+000 4.456134e+000 4.263997e+000 4.860875e+000 4.263895e+000 4.314424e+000 3.869757e+000 3.610464e+000 4.348881e+000 2.827923e+000 1.657217e+000 6.121489e-001 4.447161e-001 4.123494e-001 6.341671e-001 5.303334e-001 5.791059e-001 6.274215e-001 6.250398e-001 6.202492e-001 5.799128e-001 5.302484e-001 4.603128e-001 2.718076e-001
<GCONST> 1.260602e+002
<STATE> 3
<MEAN> 39
 -1.771486e+001 -3.129884e+000 -1.731235e+000 8.537560e-001 -7.609121e-001 -2.340681e+000 2.089872e-001 1.790697e+000 4.039321e+000 2.151798e+000 1.262335e+000 1.240418e+000 6.575792e+001 -7.239580e-001 -4.174665e-001 -3.094796e-001 -7.291838e-002 5.559910e-002 1.027665e-001 1.381005e-001 2.445572e-001 2.932845e-001 2.943195e-001 3.024718e-001 2.726194e-001 -4.323602e-002 7.072942e-001 1.637341e-001 1.963714e-001 -2.195383e-001 -1.416429e-001 -3.474467e-002 -1.130260e-001 -1.781530e-001 -3.081492e-001 -1.335332e-001 -1.554600e-001 -1.733903e-001 -4.230479e-002
<VARIANCE> 39
 1.691656e+001 2.089654e+001 2.471124e+001 2.775576e+001 2.759168e+001 2.738575e+001 3.615543e+001 2.741572e+001 2.697041e+001 2.414039e+001 2.638836e+001 1.960041e+001 5.729292e+001 2.331410e+000 1.245178e+000 1.462817e+000 1.342909e+000 1.646673e+000 1.900760e+000 1.902639e+000 1.997012e+000 2.046596e+000 1.971321e+000 1.850321e+000 1.671668e+000 1.302418e+000 3.807580e-001 2.951908e-001 3.099858e-001 3.623921e-001 4.112329e-001 4.400541e-001 4.691443e-001 4.886650e-001 5.002517e-001 4.212618e-001 4.383909e-001 3.715737e-001 3.093108e-001
<GCONST> 1.092831e+002
<STATE> 4
<MEAN> 39
 -1.556692e+001 -2.488724e+000 -7.987998e-001 2.726771e-001 -9.014682e-003 -1.859288e+000 6.390521e-001 1.974612e+000 3.740528e+000 2.187219e+000 1.487471e+000 1.283188e+000 6.308913e+001 1.682709e+000 4.872352e-001 4.334761e-001 -7.002152e-001 -5.958589e-001 -2.048957e-001 -4.026342e-001 -4.803940e-001 -8.212112e-001 -2.776689e-001 -2.706295e-001 -4.635485e-001 -3.356899e-001 4.326723e-001 9.039725e-002 8.727717e-002 -2.857817e-001 -3.496965e-001 -5.233042e-002 -2.323667e-001 -1.975732e-001 -2.765762e-001 -6.851810e-002 -9.415352e-002 -1.626198e-001 7.503031e-002
<VARIANCE> 39
 3.900710e+001 2.932166e+001 4.270313e+001 3.760151e+001 4.207370e+001 3.808337e+001 4.704594e+001 3.543901e+001 3.350084e+001 3.192069e+001 3.191390e+001 2.510722e+001 8.356043e+001 7.292216e+000 3.081220e+000 3.170147e+000 4.125971e+000 4.279444e+000 4.023692e+000 4.102370e+000 3.735652e+000 4.004820e+000 2.849758e+000 3.381914e+000 2.518897e+000 6.898369e+000 7.192273e-001 5.274926e-001 4.953006e-001 6.993498e-001 6.974992e-001 6.399786e-001 7.618563e-001 6.959144e-001 7.042924e-001 5.395419e-001 5.989376e-001 4.679240e-001 8.527582e-001
<GCONST> 1.308829e+002
<TRANSP> 5
 0.000000e+000 1.000000e+000 0.000000e+000 0.000000e+000 0.000000e+000
 0.000000e+000 5.260274e-001 4.739726e-001 0.000000e+000 0.000000e+000
 0.000000e+000 0.000000e+000 7.535337e-001 2.464662e-001 0.000000e+000
 0.000000e+000 0.000000e+000 0.000000e+000 6.050200e-001 3.949800e-001
 0.000000e+000 0.000000e+000 0.000000e+000 0.000000e+000 0.000000e+000
<ENDHMM>
~h "g"
<BEGINHMM>
<NUMSTATES> 5
<STATE> 2
<MEAN> 39
 -3.776756e+000 3.101866e+000 4.883985e+000 7.248042e-001 -7.633442e+000 -5.520674e+000 -3.788430e+000 -1.858306e+000 -5.088873e+000 -5.014369e-001 -8.001338e-001 -4.344308e+000 5.733903e+001 1.389760e-001 1.382079e+000 -1.103407e-001 1.248190e+000 9.564322e-001 1.424305e-001 5.882592e-001 -2.974227e-001 4.213546e-001 -4.288843e-001 -1.224318e-001 -1.793112e-001 -1.752367e+000 -2.826352e-001 -5.412945e-001 -1.896429e-001 -3.086652e-001 3.931881e-002 2.110613e-002 -2.231348e-001 1.206879e-001 1.276800e-001 3.663547e-002 -8.300240e-002 1.647319e-001 7.059029e-001
<VARIANCE> 39
 6.331040e+001 4.019864e+001 6.804287e+001 4.964809e+001 7.736317e+001 8.236334e+001 6.071979e+001 6.664393e+001 6.314441e+001 4.479946e+001 6.184894e+001 3.921328e+001 1.153573e+002 1.600222e+000 2.492355e+000 2.366484e+000 3.003837e+000 3.731796e+000 3.082544e+000 3.413331e+000 3.304788e+000 4.063676e+000 3.538604e+000 2.853090e+000 2.596143e+000 3.067259e+000 3.955292e-001 5.907125e-001 4.784816e-001 5.286226e-001 6.879577e-001 7.027733e-001 7.104297e-001 6.784246e-001 8.547950e-001 6.604431e-001 5.537701e-001 5.297790e-001 6.278000e-001
<GCONST> 1.326495e+002
<STATE> 3
<MEAN> 39
 -2.153239e+000 6.240715e+000 5.972700e+000 2.317611e+000 -4.647933e+000 -6.093851e+000 -3.363036e+000 -3.607689e+000 -4.443353e+000 -1.157235e+000 -2.387139e+000 -4.948132e+000 5.730020e+001 -1.163707e+000 -1.422534e+000 -7.814351e-001 1.250153e-001 9.724761e-001 -3.037671e-001 -2.046953e-001 2.162784e-001 4.219158e-002 1.509050e-001 -2.254403e-001 6.046032e-001 1.632589e+000 -2.017538e-001 -8.275433e-001 -2.536905e-004 -7.247646e-001 -6.453606e-001 -2.344837e-001 -4.273037e-001 2.454768e-002 -2.569498e-001 2.556844e-001 1.298856e-001 1.685355e-001 1.302613e+000
<VARIANCE> 39
 2.614387e+001 3.131707e+001 4.239365e+001 3.989547e+001 6.115284e+001 4.970175e+001 4.499876e+001 4.597226e+001 4.360610e+001 3.813033e+001 5.280175e+001 3.068669e+001 5.213070e+001 3.071813e+000 5.135380e+000 4.551870e+000 4.851849e+000 6.867738e+000 5.750699e+000 5.055573e+000 4.892429e+000 4.898465e+000 4.441635e+000 4.051847e+000 3.708189e+000 4.394905e+000 5.097016e-001 6.786848e-001 6.419812e-001 6.683160e-001 9.866588e-001 7.679372e-001 7.719648e-001 7.438818e-001 8.649137e-001 8.194998e-001 7.303972e-001 6.282583e-001 5.406964e-001
<GCONST> 1.357625e+002
<STATE> 4
<MEAN> 39
 -6.307181e+000 -2.179631e+000 4.388669e+000 -4.196261e-001 -6.286034e+000 -9.143544e+000 -5.243488e+000 -2.631437e+000 -5.789868e+000 2.724562e-001 -1.664964e+000 -2.376437e+000 6.768538e+001 2.004685e-001 -5.355862e-001 4.005037e-001 -9.697919e-001 -1.526471e+000 -7.259250e-001 -1.080323e+000 -1.475739e-001 -7.118965e-002 5.653037e-002 2.081867e-001 9.406598e-002 1.885210e+000 4.461455e-001 6.186190e-001 2.785798e-001 -1.114447e-001 -2.659462e-001 2.820266e-001 5.903008e-002 -3.338259e-002 1.604669e-001 -1.607138e-001 -1.608331e-002 -2.528843e-001 -6.439980e-001
<VARIANCE> 39
 3.428878e+001 4.494694e+001 8.335562e+001 6.068589e+001 1.103199e+002 7.331721e+001 6.398406e+001 6.260122e+001 5.287071e+001 4.958693e+001 5.633488e+001 3.301781e+001 6.708835e+001 3.737083e+000 5.591155e+000 4.769772e+000 5.425304e+000 9.006041e+000 5.630413e+000 4.985338e+000 5.129025e+000 5.937559e+000 5.301769e+000 4.673322e+000 3.356580e+000 6.637882e+000 6.773585e-001 8.984964e-001 9.323378e-001 1.012623e+000 2.295208e+000 1.192489e+000 1.140663e+000 9.922881e-001 1.049037e+000 9.852310e-001 9.636043e-001 6.606531e-001 1.008438e+000
<GCONST> 1.461676e+002
<TRANSP> 5
 0.000000e+000 1.000000e+000 0.000000e+000 0.000000e+000 0.000000e+000
 0.000000e+000 5.860603e-001 4.139397e-001 0.000000e+000 0.000000e+000
 0.000000e+000 0.000000e+000 5.103565e-001 4.896435e-001 0.000000e+000
 0.000000e+000 0.000000e+000 0.000000e+000 6.193880e-001 3.806120e-001
 0.000000e+000 0.000000e+000 0.000000e+000 0.000000e+000 0.000000e+000
<ENDHMM>
~h "h"
<BEGINHMM>
<NUMSTATES> 5
<STATE> 2
<MEAN> 39
 -3.017877e+000 -2.548537e+000 6.889003e-001 -4.927555e+000 -2.259033e-001 -2.763479e+000 -4.303518e+000 -5.900291e-001 -2.408154e+000 -1.587593e+000 -6.950405e+000 -3.661983e+000 7.022159e+001 -1.007886e-001 2.574423e-001 -6.490889e-001 3.443201e-001 2.078346e+000 1.126412e+000 3.925323e-001 -5.542100e-001 4.572275e-001 3.601967e-001 -1.318576e-001 -3.023165e-001 -5.034631e-001 1.028143e-001 -9.245462e-003 4.323099e-002 -4.900890e-001 -5.918689e-001 1.577460e-001 -7.838872e-002 -3.061364e-001 -2.934345e-001 9.818558e-002 3.514431e-001 -3.977197e-002 1.045611e-001
<VARIANCE> 39
 2.238499e+001 3.859356e+001 4.673193e+001 7.593142e+001 6.598215e+001 7.316967e+001 8.067082e+001 6.808739e+001 6.243038e+001 7.121938e+001 7.083224e+001 4.252422e+001 5.017794e+001 1.294337e+000 1.815491e+000 3.532283e+000 3.156268e+000 4.150018e+000 3.802902e+000 4.460688e+000 4.079243e+000 4.065567e+000 3.891249e+000 3.472142e+000 2.740796e+000 7.725908e-001 1.468346e-001 2.498470e-001 2.974010e-001 5.561755e-001 6.263918e-001 5.920011e-001 7.284092e-001 7.444273e-001 7.334703e-001 7.176688e-001 5.808970e-001 5.024419e-001 1.007837e-001
<GCONST> 1.268375e+002
<STATE> 3
<MEAN> 39
 -3.112741e+000 -1.409086e+000 -9.945545e-001 -5.973992e+000 3.630721e+000 2.208958e+000 -2.071901e+000 -3.398673e+000 -2.920283e+000 -5.731627e-001 -4.829147e+000 -4.514181e+000 6.867704e+001 4.651576e-001 4.076203e-001 -3.321251e-001 -8.000501e-001 -4.097718e-001 3.699939e-001 -1.679688e-002 -6.607393e-001 -5.564135e-001 8.188316e-002 4.293082e-001 8.166593e-002 -1.274526e-001 2.608253e-001 -6.059293e-002 -2.918067e-002 -4.285363e-001 -8.292584e-001 -3.522141e-001 -3.350242e-001 6.888089e-002 -1.389440e-001 -4.430397e-002 6.720928e-002 7.418662e-002 2.252098e-001
<VARIANCE> 39
 2.217172e+001 3.484208e+001 3.976874e+001 6.459648e+001 6.550769e+001 6.595347e+001 7.079259e+001 6.424603e+001 5.424484e+001 6.735744e+001 6.574718e+001 3.913209e+001 5.264550e+001 9.826606e-001 1.209334e+000 1.824668e+000 2.855943e+000 3.128917e+000 3.313970e+000 3.034265e+000 2.792106e+000 2.994471e+000 2.807161e+000 2.742956e+000 2.270263e+000 5.493144e-001 1.437900e-001 2.328638e-001 3.168631e-001 3.788489e-001 5.015022e-001 4.876992e-001 5.864666e-001 5.451948e-001 5.390218e-001 5.794211e-001 4.828605e-001 4.414451e-001 9.746043e-002
<GCONST> 1.195465e+002
<STATE> 4
<MEAN> 39
 6.113217e-001 3.954396e-001 -3.611078e+000 -1.242964e+001 -2.931077e+000 1.259373e+000 -3.595948e+000 -4.743211e+000 -5.493588e+000 2.382789e-001 -2.403157e+000 -3.704997e+000 6.929574e+001 5.005797e-001 -1.454218e-001 -2.938845e-001 -9.878090e-001 -1.284865e+000 -1.675376e-001 -5.496390e-001 -2.190680e-001 -1.506936e-001 8.984402e-002 3.707381e-001 1.014272e-001 3.231289e-001 -8.793798e-002 -1.697309e-001 1.551806e-001 2.097037e-001 -8.147385e-002 -1.003500e-001 -1.565653e-001 9.349714e-002 1.779562e-001 5.886167e-004 1.007101e-003 -4.610545e-002 3.227907e-002
<VARIANCE> 39
 2.129568e+001 3.490202e+001 4.542186e+001 9.780250e+001 6.058671e+001 7.302385e+001 6.859752e+001 6.624969e+001 5.022385e+001 5.624248e+001 7.610319e+001 3.962168e+001 5.743919e+001 7.321855e-001 1.352185e+000 1.626841e+000 2.885635e+000 3.049882e+000 2.553818e+000 2.785801e+000 2.575233e+000 2.607562e+000 2.729553e+000 2.274658e+000 1.982379e+000 6.942417e-001 9.017755e-002 1.996782e-001 2.418712e-001 3.447742e-001 4.165958e-001 3.953869e-001 4.068254e-001 4.260370e-001 4.033976e-001 4.278724e-001 3.967666e-001 3.391161e-001 1.125607e-001
<GCONST> 1.161712e+002
<TRANSP> 5
 0.000000e+000 1.000000e+000 0.000000e+000 0.000000e+000 0.000000e+000
 0.000000e+000 4.805159e-001 5.194842e-001 0.000000e+000 0.000000e+000
 0.000000e+000 0.000000e+000 5.733070e-001 4.266930e-001 0.000000e+000
 0.000000e+000 0.000000e+000 0.000000e+000 6.381493e-001 3.618507e-001
 0.000000e+000 0.000000e+000 0.000000e+000 0.000000e+000 0.000000e+000
<ENDHMM>
~h "i"
<BEGINHMM>
<NUMSTATES> 5
<STATE> 2
<MEAN> 39
 -4.891603e+000 -2.024472e+000 1.095991e+001 -5.166674e+000 -1.564011e+001 -1.061663e+001 -8.606551e+000 -3.015479e+000 -6.678437e+000 -1.816372e+000 -1.286475e+000 -1.898716e+000 7.141060e+001 1.258200e+000 -6.855971e-001 1.607321e+000 -9.446635e-001 -2.690394e+000 -8.132701e-001 -9.199140e-001 7.666082e-002 -1.783672e+000 2.168033e-001 6.857944e-002 -1.085845e-001 1.055431e+000 -4.115074e-001 2.836363e-001 -5.365829e-001 2.296800e-001 8.246233e-001 5.065155e-001 4.467003e-001 4.216672e-003 4.022334e-001 2.338623e-001 4.186024e-002 -2.208781e-002 -5.301538e-001
<VARIANCE> 39
 2.588466e+001 4.967340e+001 6.101231e+001 7.855167e+001 5.975283e+001 6.108703e+001 6.668808e+001 6.338698e+001 5.624017e+001 4.737389e+001 4.992429e+001 3.055689e+001 5.340051e+001 4.648308e+000 3.069776e+000 4.117231e+000 4.772179e+000 5.128546e+000 5.326244e+000 6.891700e+000 5.491364e+000 5.013381e+000 4.373882e+000 4.744561e+000 3.116752e+000 2.366947e+000 6.264372e-001 6.510115e-001 6.583910e-001 7.382720e-001 1.054149e+000 8.276169e-001 9.160513e-001 1.136048e+000 9.343858e-001 7.091718e-001 6.745819e-001 5.333998e-001 5.423358e-001
<GCONST> 1.385183e+002
<STATE> 3
<MEAN> 39
 -4.308599e+000 -2.985004e+000 1.315065e+001 -7.782482e+000 -1.887453e+001 -9.907718e+000 -8.655727e+000 -2.648130e+000 -9.919230e+000 8.977356e-002 -1.853192e+000 -2.246907e+000 7.272600e+001 7.799203e-002 6.429147e-001 -1.931484e-001 5.090187e-001 4.591231e-001 7.515654e-002 4.709192e-001 -1.449298e-001 1.345633e-001 6.195315e-002 -7.680907e-002 -4.965819e-002 -7.456377e-001 -2.444693e-001 4.619939e-001 -5.974529e-001 5.694011e-001 1.064454e+000 1.995914e-001 3.445899e-001 -1.166086e-001 6.673653e-001 -1.285848e-001 -4.704320e-003 -1.124431e-002 -6.336119e-001
<VARIANCE> 39
 1.748106e+001 4.502374e+001 5.204326e+001 8.347005e+001 4.817543e+001 6.130665e+001 6.207385e+001 7.281950e+001 5.312467e+001 5.057487e+001 6.445267e+001 3.197475e+001 3.761729e+001 1.138088e+000 2.066448e+000 2.311978e+000 2.954586e+000 3.445509e+000 2.811566e+000 3.061019e+000 3.072993e+000 3.133604e+000 2.803472e+000 2.313609e+000 1.807873e+000 1.525833e+000 4.354385e-001 4.166646e-001 4.618602e-001 6.121724e-001 7.769266e-001 7.599400e-001 7.945297e-001 8.515805e-001 7.457526e-001 6.717184e-001 6.747491e-001 4.713972e-001 2.910886e-001
<GCONST> 1.266404e+002
<STATE> 4
<MEAN> 39
 -4.607462e+000 1.678296e+000 9.562638e+000 -1.933352e+000 -1.271300e+001 -8.984393e+000 -5.265237e+000 -3.341212e+000 -5.643557e+000 -1.033159e+000 -1.158769e+000 -1.995122e+000 6.500996e+001 -4.860355e-001 1.052060e+000 -1.411702e+000 1.213358e+000 2.283609e+000 6.065347e-001 9.373621e-001 -1.350126e-001 1.287675e+000 2.451317e-002 1.543671e-001 1.030027e-001 -1.985617e+000 -2.998951e-001 -1.571401e-001 -1.910694e-001 -1.578730e-001 1.774557e-001 2.720730e-001 1.382495e-002 3.808325e-002 1.027816e-001 1.195745e-001 9.790300e-002 6.237949e-002 5.988427e-002
<VARIANCE> 39
 2.326976e+001 4.381201e+001 4.824691e+001 6.298715e+001 5.692369e+001 6.682055e+001 7.412369e+001 5.867495e+001 4.915382e+001 4.758349e+001 4.747459e+001 3.169078e+001 7.654442e+001 2.362419e+000 3.012369e+000 2.832931e+000 3.948335e+000 4.387298e+000 4.188094e+000 4.301781e+000 4.321450e+000 4.342038e+000 3.549717e+000 3.886904e+000 2.860772e+000 3.150140e+000 3.484270e-001 4.494860e-001 4.591490e-001 5.102503e-001 7.277577e-001 6.864377e-001 6.982563e-001 7.212077e-001 6.937321e-001 6.050375e-001 5.482530e-001 4.511235e-001 3.956890e-001
<GCONST> 1.312809e+002
<TRANSP> 5
 0.000000e+000 1.000000e+000 0.000000e+000 0.000000e+000 0.000000e+000
 0.000000e+000 3.990317e-001 6.009683e-001 0.000000e+000 0.000000e+000
 0.000000e+000 0.000000e+000 5.988699e-001 4.011301e-001 0.000000e+000
 0.000000e+000 0.000000e+000 0.000000e+000 5.383201e-001 4.616799e-001
 0.000000e+000 0.000000e+000 0.000000e+000 0.000000e+000 0.000000e+000
<ENDHMM>
~h "j"
<BEGINHMM>
<NUMSTATES> 5
<STATE> 2
<MEAN> 39
 -8.181560e+000 -8.397673e-001 7.934521e-001 -3.087104e+000 -6.054378e+000 -1.411216e+000 -5.703331e+000 -9.600641e-001 -1.128315e+000 3.115045e-001 -4.162351e-002 -2.632388e+000 5.972141e+001 2.785330e-003 -1.045757e-003 6.313304e-004 -2.159091e-003 3.026221e-003 -1.600968e-003 -3.862435e-004 -2.054316e-003 -2.347980e-003 5.696056e-004 -1.824468e-003 -2.401014e-003 6.123751e-003 -9.891086e-005 4.229150e-005 1.729190e-004 2.880200e-005 -2.228669e-004 -1.810697e-004 1.080622e-004 3.640906e-004 -2.012024e-004 -3.821263e-004 -9.726603e-005 6.166917e-004 -1.332578e-004
<VARIANCE> 39
 9.382297e+001 6.561708e+001 8.554286e+001 8.949753e+001 8.775438e+001 7.374645e+001 8.604665e+001 5.887415e+001 5.858043e+001 4.554563e+001 4.403375e+001 4.203986e+001 1.737772e+002 3.147308e+000 2.809297e+000 2.839018e+000 3.337057e+000 3.796423e+000 3.465490e+000 3.963683e+000 3.428154e+000 3.401368e+000 2.648895e+000 2.526839e+000 2.389405e+000 2.903376e+000 4.450465e-001 4.624774e-001 4.444506e-001 5.723900e-001 6.585924e-001 6.063358e-001 7.105762e-001 6.283799e-001 6.195698e-001 5.015171e-001 4.802391e-001 4.423477e-001 4.518719e-001
<GCONST> 1.337118e+002
<STATE> 3
<MEAN> 39
 -8.181560e+000 -8.397673e-001 7.934521e-001 -3.087104e+000 -6.054378e+000 -1.411216e+000 -5.703331e+000 -9.600641e-001 -1.128315e+000 3.115045e-001 -4.162351e-002 -2.632388e+000 5.972141e+001 2.785330e-003 -1.045757e-003 6.313304e-004 -2.159091e-003 3.026221e-003 -1.600968e-003 -3.862435e-004 -2.054316e-003 -2.347980e-003 5.696056e-004 -1.824468e-003 -2.401014e-003 6.123751e-003 -9.891086e-005 4.229150e-005 1.729190e-004 2.880200e-005 -2.228669e-004 -1.810697e-004 1.080622e-004 3.640906e-004 -2.012024e-004 -3.821263e-004 -9.726603e-005 6.166917e-004 -1.332578e-004
<VARIANCE> 39
 9.382297e+001 6.561708e+001 8.554286e+001 8.949753e+001 8.775438e+001 7.374645e+001 8.604665e+001 5.887415e+001 5.858043e+001 4.554563e+001 4.403375e+001 4.203986e+001 1.737772e+002 3.147308e+000 2.809297e+000 2.839018e+000 3.337057e+000 3.796423e+000 3.465490e+000 3.963683e+000 3.428154e+000 3.401368e+000 2.648895e+000 2.526839e+000 2.389405e+000 2.903376e+000 4.450465e-001 4.624774e-001 4.444506e-001 5.723900e-001 6.585924e-001 6.063358e-001 7.105762e-001 6.283799e-001 6.195698e-001 5.015171e-001 4.802391e-001 4.423477e-001 4.518719e-001
<GCONST> 1.337118e+002
<STATE> 4
<MEAN> 39
 -8.181560e+000 -8.397673e-001 7.934521e-001 -3.087104e+000 -6.054378e+000 -1.411216e+000 -5.703331e+000 -9.600641e-001 -1.128315e+000 3.115045e-001 -4.162351e-002 -2.632388e+000 5.972141e+001 2.785330e-003 -1.045757e-003 6.313304e-004 -2.159091e-003 3.026221e-003 -1.600968e-003 -3.862435e-004 -2.054316e-003 -2.347980e-003 5.696056e-004 -1.824468e-003 -2.401014e-003 6.123751e-003 -9.891086e-005 4.229150e-005 1.729190e-004 2.880200e-005 -2.228669e-004 -1.810697e-004 1.080622e-004 3.640906e-004 -2.012024e-004 -3.821263e-004 -9.726603e-005 6.166917e-004 -1.332578e-004
<VARIANCE> 39
 9.382297e+001 6.561708e+001 8.554286e+001 8.949753e+001 8.775438e+001 7.374645e+001 8.604665e+001 5.887415e+001 5.858043e+001 4.554563e+001 4.403375e+001 4.203986e+001 1.737772e+002 3.147308e+000 2.809297e+000 2.839018e+000 3.337057e+000 3.796423e+000 3.465490e+000 3.963683e+000 3.428154e+000 3.401368e+000 2.648895e+000 2.526839e+000 2.389405e+000 2.903376e+000 4.450465e-001 4.624774e-001 4.444506e-001 5.723900e-001 6.585924e-001 6.063358e-001 7.105762e-001 6.283799e-001 6.195698e-001 5.015171e-001 4.802391e-001 4.423477e-001 4.518719e-001
<GCONST> 1.337118e+002
<TRANSP> 5
 0.000000e+000 1.000000e+000 0.000000e+000 0.000000e+000 0.000000e+000
 0.000000e+000 6.000000e-001 4.000000e-001 0.000000e+000 0.000000e+000
 0.000000e+000 0.000000e+000 6.000000e-001 4.000000e-001 0.000000e+000
 0.000000e+000 0.000000e+000 0.000000e+000 7.000000e-001 3.000000e-001
 0.000000e+000 0.000000e+000 0.000000e+000 0.000000e+000 0.000000e+000
<ENDHMM>
~h "k"
<BEGINHMM>
<NUMSTATES> 5
<STATE> 2
<MEAN> 39
 -9.424038e+000 1.575594e+000 -2.425687e-001 9.000133e-001 -1.162805e+000 -3.231573e+000 1.517231e-001 1.740408e+000 2.062225e+000 2.332520e+000 1.784403e+000 -8.505291e-002 5.396937e+001 -4.374650e-001 -1.145847e-002 -5.409322e-001 3.583436e-001 5.703738e-001 6.476135e-001 6.053661e-001 3.671197e-001 6.496298e-001 2.819054e-001 4.768988e-001 5.643113e-001 -1.627679e+000 -5.568705e-002 -5.445027e-001 -2.122276e-001 -5.216380e-001 -2.008586e-001 -1.092635e-001 -2.347240e-001 -8.378147e-002 -3.705483e-001 1.684918e-002 -2.211570e-001 -5.191644e-002 1.115546e+000
<VARIANCE> 39
 4.982956e+001 3.258347e+001 4.588612e+001 4.664279e+001 6.996439e+001 5.967648e+001 5.313247e+001 4.935880e+001 5.270897e+001 3.837984e+001 4.359273e+001 3.165702e+001 8.319178e+001 2.128307e+000 2.513999e+000 2.770396e+000 3.039730e+000 3.796362e+000 3.600492e+000 3.268447e+000 3.462435e+000 4.385167e+000 3.032145e+000 3.183363e+000 2.317363e+000 4.761786e+000 3.464286e-001 5.578606e-001 6.180080e-001 7.012200e-001 8.452346e-001 8.337045e-001 7.355373e-001 7.235715e-001 8.297893e-001 6.885303e-001 6.098674e-001 5.039188e-001 9.433540e-001
<GCONST> 1.319477e+002
<STATE> 3
<MEAN> 39
 -1.084890e+001 -8.958329e-001 -1.855817e+000 1.027744e+000 1.089652e+000 -2.461718e+000 1.315252e+000 2.156043e+000 2.226907e+000 3.197838e+000 2.444886e+000 1.727013e+000 5.554803e+001 -3.280084e-001 -2.588706e+000 -2.035794e+000 -1.786451e+000 1.708213e-001 -3.957023e-001 -5.844875e-001 -4.300774e-002 -8.999839e-001 5.876876e-001 -6.469429e-001 1.948470e-001 3.636322e+000 3.567739e-001 1.113999e-001 2.045493e-001 -5.620775e-001 -4.952840e-001 -3.343388e-001 -4.427643e-001 -3.103953e-001 -4.348066e-001 -9.479993e-002 -3.247646e-001 -3.574953e-001 1.006540e+000
<VARIANCE> 39
 3.197133e+001 4.580464e+001 4.580178e+001 4.931536e+001 6.299728e+001 5.403802e+001 5.408696e+001 3.914504e+001 4.651452e+001 3.344699e+001 3.617942e+001 2.652016e+001 7.593336e+001 3.620732e+000 4.336416e+000 7.239812e+000 7.148948e+000 9.428654e+000 7.807812e+000 5.882975e+000 5.973688e+000 5.816689e+000 5.076495e+000 4.441271e+000 3.647970e+000 4.683578e+000 4.247280e-001 8.164926e-001 8.537893e-001 7.942309e-001 9.508944e-001 8.167809e-001 7.663248e-001 7.519642e-001 7.498739e-001 6.653100e-001 7.125390e-001 5.033069e-001 1.061772e+000
<GCONST> 1.393864e+002
<STATE> 4
<MEAN> 39
 -1.045415e+001 -5.174762e+000 -5.497895e+000 -5.727130e+000 -2.694639e-001 -4.316177e+000 -1.977581e+000 5.604487e-001 -1.634217e+000 4.169765e+000 -1.710673e-001 3.590435e-001 6.640290e+001 1.377044e+000 5.766143e-001 1.067801e+000 -1.235400e+000 -1.465481e+000 -4.752496e-001 -1.075982e+000 -8.113534e-001 -1.170081e+000 -5.224544e-001 -5.375738e-001 -9.066049e-001 1.847490e+000 5.995835e-001 6.061854e-001 8.374237e-001 2.222655e-001 -5.999397e-001 5.799394e-002 -1.862129e-001 -1.545337e-001 -2.279986e-002 -4.216098e-001 9.935226e-002 -3.072777e-001 -6.448198e-001
<VARIANCE> 39
 3.953344e+001 5.192213e+001 9.868304e+001 8.833076e+001 8.492930e+001 8.428178e+001 7.206543e+001 5.549885e+001 5.953452e+001 5.145213e+001 4.660477e+001 3.594706e+001 6.327515e+001 4.565880e+000 4.741713e+000 7.390738e+000 6.897960e+000 8.144381e+000 5.563900e+000 5.640466e+000 5.593955e+000 6.074044e+000 4.945492e+000 5.526600e+000 3.741170e+000 5.735681e+000 5.678816e-001 1.039456e+000 1.377066e+000 1.250910e+000 1.621701e+000 1.261857e+000 1.176472e+000 1.076728e+000 1.117203e+000 1.004279e+000 9.070238e-001 7.486421e-001 9.205981e-001
<GCONST> 1.482099e+002
<TRANSP> 5
 0.000000e+000 1.000000e+000 0.000000e+000 0.000000e+000 0.000000e+000
 0.000000e+000 7.204580e-001 2.795421e-001 0.000000e+000 0.000000e+000
 0.000000e+000 0.000000e+000 4.621840e-001 5.378159e-001 0.000000e+000
 0.000000e+000 0.000000e+000 0.000000e+000 6.537539e-001 3.462462e-001
 0.000000e+000 0.000000e+000 0.000000e+000 0.000000e+000 0.000000e+000
<ENDHMM>
~h "l"
<BEGINHMM>
<NUMSTATES> 5
<STATE> 2
<MEAN> 39
 2.765349e-001 -4.007173e+000 -9.629751e-001 -9.304919e+000 -8.457227e+000 -1.632897e+000 -1.003974e+001 -8.585005e+000 -4.999149e-001 1.096115e+000 -1.469931e+000 -4.144232e+000 7.051125e+001 1.251662e+000 -2.866043e-001 3.191984e-003 -1.206021e+000 -4.571370e-001 8.170791e-001 -1.407483e+000 -1.072160e+000 5.790837e-002 5.328416e-001 -2.524647e-002 -3.719872e-001 3.456450e-001 -3.797178e-001 -4.233599e-002 4.903028e-002 -2.365876e-002 1.363922e-001 -8.512272e-004 1.920581e-001 6.139013e-001 -3.983553e-002 -8.921091e-002 -3.154366e-002 9.045450e-002 -2.161198e-002
<VARIANCE> 39
 3.309198e+001 5.376581e+001 5.284986e+001 8.863186e+001 6.618314e+001 9.360729e+001 8.706580e+001 8.466382e+001 5.737519e+001 5.618427e+001 7.416309e+001 3.818153e+001 5.677165e+001 3.286204e+000 2.961778e+000 3.378403e+000 6.279420e+000 5.408564e+000 6.470002e+000 6.308012e+000 5.765234e+000 5.102604e+000 4.348192e+000 4.576204e+000 3.382899e+000 2.363815e+000 4.338607e-001 5.710831e-001 5.083342e-001 8.170786e-001 9.568297e-001 8.925725e-001 1.082637e+000 1.225981e+000 1.003417e+000 8.016475e-001 7.460557e-001 6.036717e-001 3.373211e-001
<GCONST> 1.402437e+002
<STATE> 3
<MEAN> 39
 2.681563e+000 -5.736217e+000 -6.606010e-001 -1.247669e+001 -1.111229e+001 3.885139e+000 -1.281059e+001 -1.007051e+001 -1.948953e-001 2.483651e+000 -3.000617e-001 -4.312057e+000 7.173412e+001 -1.074427e-001 -3.396371e-002 -2.274010e-002 -5.090572e-001 3.714595e-001 -3.580144e-002 -4.690221e-001 7.202678e-001 4.945344e-002 -7.907678e-003 -2.602051e-001 -1.857051e-001 1.508313e-001 -3.295719e-001 6.403895e-002 -5.525887e-002 2.135439e-001 2.466266e-001 -4.530640e-001 3.370276e-001 6.388540e-001 -6.611158e-002 -2.190517e-001 -1.872471e-001 -2.719283e-003 5.225944e-002
<VARIANCE> 39
 2.093344e+001 4.047735e+001 4.673565e+001 9.024252e+001 6.638747e+001 9.943338e+001 8.523862e+001 7.044543e+001 5.183315e+001 5.706826e+001 7.499735e+001 4.080426e+001 4.123937e+001 8.716967e-001 1.995266e+000 2.078955e+000 3.720602e+000 3.391160e+000 4.521073e+000 4.050622e+000 5.509052e+000 3.920045e+000 3.186956e+000 3.100850e+000 2.855685e+000 1.067050e+000 1.894302e-001 3.556990e-001 3.303640e-001 7.060658e-001 7.411218e-001 6.844893e-001 9.175832e-001 7.980388e-001 7.977487e-001 6.783814e-001 6.469275e-001 5.853527e-001 1.911205e-001
<GCONST> 1.288217e+002
<STATE> 4
<MEAN> 39
 1.172009e-001 -4.937463e+000 -2.656367e+000 -1.351607e+001 -6.001541e+000 -1.163682e+000 -1.151811e+001 -4.059466e+000 1.236465e-001 6.671162e-001 -3.408113e+000 -5.088043e+000 7.182554e+001 -4.288368e-001 1.527485e-001 1.645410e-001 4.532218e-001 1.384927e-001 -8.009941e-001 5.617552e-001 1.040674e+000 -2.899425e-001 -4.867190e-001 -3.788792e-001 2.068398e-001 -5.184184e-002 -8.809114e-002 1.257691e-001 1.772140e-001 2.643710e-001 -1.637073e-001 -1.693779e-002 2.664862e-001 -1.271800e-001 -1.909363e-001 -3.864005e-002 1.400863e-001 1.405968e-001 -1.567444e-001
<VARIANCE> 39
 2.021574e+001 4.930809e+001 6.149041e+001 9.645506e+001 5.698392e+001 1.072013e+002 8.482787e+001 6.461302e+001 5.357326e+001 5.758080e+001 8.246896e+001 4.380364e+001 5.219663e+001 7.360003e-001 2.093046e+000 2.181134e+000 3.334850e+000 3.697995e+000 3.796727e+000 3.614424e+000 4.338860e+000 3.593791e+000 3.150924e+000 3.140712e+000 2.562326e+000 1.379110e+000 1.624726e-001 2.720582e-001 2.760918e-001 5.268804e-001 5.180947e-001 5.394759e-001 6.696910e-001 6.052317e-001 6.105558e-001 5.363607e-001 5.045813e-001 4.379503e-001 1.688571e-001
<GCONST> 1.257928e+002
<TRANSP> 5
 0.000000e+000 1.000000e+000 0.000000e+000 0.000000e+000 0.000000e+000
 0.000000e+000 3.939933e-001 6.060068e-001 0.000000e+000 0.000000e+000
 0.000000e+000 0.000000e+000 5.507731e-001 4.492268e-001 0.000000e+000
 0.000000e+000 0.000000e+000 0.000000e+000 6.013952e-001 3.986048e-001
 0.000000e+000 0.000000e+000 0.000000e+000 0.000000e+000 0.000000e+000
<ENDHMM>
~h "m"
<BEGINHMM>
<NUMSTATES> 5
<STATE> 2
<MEAN> 39
 9.958937e-001 9.218736e-001 2.380884e+000 -8.320599e-001 -6.054203e+000 -5.103794e+000 -6.994593e+000 -6.953048e+000 -8.234527e+000 -1.787863e+000 -1.976942e+000 -7.456895e+000 6.507329e+001 4.665113e-001 1.226371e+000 5.718017e-001 1.952413e+000 4.730159e-001 -7.906646e-001 9.282757e-002 -2.011668e+000 -1.937847e+000 3.832976e-001 1.629338e-001 -1.014966e+000 -8.960311e-001 -2.615010e-001 -3.140585e-001 1.124063e-001 -4.956299e-001 -2.660156e-001 2.074401e-001 -5.162642e-002 3.203892e-001 2.172902e-001 -2.462847e-002 -1.197100e-001 2.168380e-001 4.026003e-001
<VARIANCE> 39
 2.193004e+001 4.396415e+001 3.722667e+001 6.299857e+001 5.738874e+001 8.095963e+001 6.833152e+001 5.393925e+001 5.904475e+001 5.428450e+001 7.590970e+001 3.868274e+001 5.469837e+001 1.979746e+000 2.428814e+000 4.393223e+000 3.586086e+000 4.468537e+000 4.566665e+000 4.816291e+000 4.425951e+000 4.786208e+000 4.802763e+000 4.472308e+000 3.440047e+000 2.113735e+000 2.291197e-001 3.416088e-001 5.039935e-001 4.701170e-001 5.542170e-001 5.709724e-001 6.364103e-001 6.904820e-001 7.743784e-001 6.147553e-001 6.077229e-001 5.114198e-001 1.679454e-001
<GCONST> 1.303882e+002
<STATE> 3
<MEAN> 39
 1.129239e+000 1.490595e+000 4.189748e+000 3.169798e-001 -6.986441e+000 -5.197944e+000 -7.134418e+000 -8.873509e+000 -1.048202e+001 -1.371275e+000 -2.540086e+000 -8.174932e+000 6.529857e+001 -1.959264e-002 1.491483e-001 3.824478e-002 5.425926e-002 -4.494394e-002 5.636286e-002 7.289261e-002 -1.165506e-001 -2.548712e-002 -1.153479e-001 -1.485216e-001 8.982491e-002 -5.950202e-002 -1.120095e-001 -2.520194e-001 -1.944801e-001 -6.010836e-001 -1.423020e-001 1.964169e-001 -1.049981e-002 5.268087e-001 5.614170e-001 -1.577740e-001 -3.903357e-002 2.787661e-001 2.677680e-001
<VARIANCE> 39
 1.324675e+001 3.720260e+001 3.310238e+001 6.760821e+001 5.471577e+001 9.375591e+001 6.646208e+001 5.372653e+001 5.621493e+001 6.107146e+001 9.400063e+001 4.307975e+001 4.179600e+001 3.631880e-001 1.044684e+000 1.135688e+000 1.586630e+000 1.604035e+000 1.796309e+000 1.816504e+000 1.946459e+000 2.381082e+000 2.107900e+000 2.086291e+000 1.825519e+000 6.137839e-001 1.559396e-001 2.561460e-001 4.625305e-001 4.880839e-001 4.388758e-001 5.386927e-001 5.245025e-001 6.255667e-001 6.937820e-001 6.366487e-001 6.263776e-001 5.257529e-001 1.487492e-001
<GCONST> 1.157992e+002
<STATE> 4
<MEAN> 39
 7.962532e-001 8.377414e-001 1.970238e+000 -2.040397e+000 -6.675467e+000 -4.573701e+000 -7.163984e+000 -7.148510e+000 -7.643044e+000 -3.030951e+000 -3.143668e+000 -6.811556e+000 6.611883e+001 -4.321825e-001 -8.465489e-001 -5.544970e-001 -1.802410e+000 -3.384862e-001 6.990253e-001 1.581740e-002 1.725146e+000 1.726958e+000 -5.935504e-001 -3.166529e-001 8.566521e-001 8.261443e-001 -2.058794e-001 -1.492189e-001 1.014607e-001 -2.908459e-001 -5.094209e-003 2.326918e-001 2.030578e-002 3.115255e-001 9.391537e-002 7.886998e-002 4.125476e-002 1.148829e-001 9.333943e-002
<VARIANCE> 39
 1.717684e+001 4.404823e+001 3.928155e+001 7.237862e+001 5.762790e+001 8.338431e+001 6.378592e+001 5.745419e+001 6.895457e+001 5.762706e+001 7.450583e+001 3.965786e+001 5.405354e+001 1.354201e+000 3.140747e+000 4.690168e+000 5.224996e+000 4.542305e+000 4.578785e+000 4.511234e+000 5.062663e+000 5.619391e+000 5.118440e+000 4.864048e+000 3.816766e+000 2.560755e+000 2.579983e-001 3.938667e-001 5.345600e-001 7.211672e-001 6.496440e-001 6.564072e-001 6.627433e-001 8.085834e-001 1.004086e+000 7.173525e-001 6.911139e-001 5.609558e-001 2.666218e-001
<GCONST> 1.339284e+002
<TRANSP> 5
 0.000000e+000 1.000000e+000 0.000000e+000 0.000000e+000 0.000000e+000
 0.000000e+000 4.517613e-001 5.482387e-001 0.000000e+000 0.000000e+000
 0.000000e+000 0.000000e+000 6.992103e-001 3.007896e-001 0.000000e+000
 0.000000e+000 0.000000e+000 0.000000e+000 5.334038e-001 4.665962e-001
 0.000000e+000 0.000000e+000 0.000000e+000 0.000000e+000 0.000000e+000
<ENDHMM>
~h "n"
<BEGINHMM>
<NUMSTATES> 5
<STATE> 2
<MEAN> 39
 -1.278233e+000 2.560351e+000 4.332446e+000 1.672441e-001 -7.716672e+000 -5.675723e+000 -4.444434e+000 -6.637411e+000 -5.381489e+000 -1.050130e+000 -5.115592e+000 -4.694700e+000 6.330040e+001 8.638844e-001 8.168426e-001 5.428535e-001 8.663301e-001 -6.421527e-001 -8.103202e-001 8.974087e-002 -1.531116e+000 -8.895240e-001 4.132850e-001 -8.083196e-001 -3.641391e-001 -2.740602e-001 -2.079693e-001 -5.696535e-001 -1.621891e-001 -6.039221e-001 -2.107275e-002 1.913623e-001 -2.632093e-001 6.408725e-001 3.054880e-001 -1.336156e-001 1.141904e-001 8.032176e-002 5.562491e-001
<VARIANCE> 39
 3.272867e+001 3.925462e+001 3.694665e+001 5.926980e+001 6.827944e+001 8.041808e+001 6.752451e+001 5.961585e+001 5.630540e+001 5.346829e+001 6.457536e+001 3.822335e+001 7.330680e+001 2.662979e+000 2.696896e+000 3.371352e+000 3.414201e+000 4.534395e+000 4.869377e+000 4.594632e+000 4.475101e+000 4.351198e+000 4.057858e+000 3.693611e+000 2.789954e+000 3.100736e+000 3.818401e-001 5.721520e-001 6.045397e-001 6.494103e-001 7.810794e-001 8.705474e-001 7.281075e-001 9.516200e-001 8.780074e-001 7.392235e-001 6.433217e-001 4.906628e-001 3.669187e-001
<GCONST> 1.346258e+002
<STATE> 3
<MEAN> 39
 6.871596e-001 1.508295e+000 5.226751e+000 -4.515042e-001 -1.022451e+001 -8.284934e+000 -5.606417e+000 -8.420444e+000 -6.715333e+000 -9.410787e-002 -7.600503e+000 -5.331539e+000 6.616024e+001 -1.396805e-001 -1.308764e+000 -3.554795e-001 -1.116825e+000 2.025742e-001 2.551990e-001 -9.267113e-001 1.284397e+000 6.742549e-001 -5.946547e-001 -1.780627e-002 -5.058165e-002 1.227736e+000 -3.657384e-001 -6.957580e-001 -3.800617e-001 -8.225513e-001 3.165578e-001 6.053994e-001 -2.685618e-001 1.091230e+000 4.373617e-001 -4.170118e-001 3.481975e-001 9.055024e-002 5.452055e-001
<VARIANCE> 39
 1.304730e+001 3.764643e+001 3.414773e+001 6.335163e+001 5.618456e+001 9.217259e+001 6.575023e+001 5.448475e+001 5.384167e+001 5.243079e+001 7.956601e+001 4.024884e+001 3.994586e+001 1.317748e+000 3.039001e+000 2.761369e+000 3.264449e+000 3.686291e+000 4.104931e+000 3.712877e+000 4.652188e+000 4.184030e+000 3.667483e+000 3.281209e+000 2.468219e+000 2.189951e+000 3.005833e-001 4.904256e-001 6.639874e-001 6.614455e-001 8.702918e-001 1.049625e+000 7.929634e-001 8.749793e-001 9.360963e-001 8.449505e-001 8.228831e-001 6.030613e-001 2.995000e-001
<GCONST> 1.314186e+002
<STATE> 4
<MEAN> 39
 -6.796620e-001 -3.890338e+000 2.783706e+000 -5.675199e+000 -7.969166e+000 -5.537468e+000 -1.007356e+001 -1.470770e+000 -2.720635e+000 -4.327332e+000 -6.159889e+000 -5.294482e+000 7.077956e+001 -4.260522e-001 -1.924787e+000 -1.051125e+000 -2.097724e+000 6.319622e-001 1.328730e+000 -9.219872e-001 2.598117e+000 8.717163e-001 -9.436049e-001 3.629239e-001 8.437485e-002 1.603065e+000 -7.555882e-002 2.379066e-001 -5.150105e-002 8.008155e-002 1.950034e-003 2.017392e-001 4.020992e-001 -1.794564e-001 -2.289492e-001 2.734947e-001 8.636663e-002 5.220352e-002 -2.611583e-001
<VARIANCE> 39
 1.613402e+001 4.982885e+001 4.376156e+001 6.395062e+001 5.961265e+001 7.049506e+001 6.402464e+001 6.624203e+001 6.807183e+001 5.666549e+001 5.678502e+001 3.540206e+001 5.003454e+001 1.537602e+000 3.967299e+000 4.270440e+000 4.109002e+000 5.292905e+000 5.687550e+000 4.904460e+000 5.686753e+000 6.060576e+000 4.879064e+000 4.663312e+000 3.418657e+000 2.455709e+000 2.677806e-001 4.843202e-001 4.265657e-001 5.704001e-001 6.854434e-001 7.208525e-001 6.486036e-001 8.913876e-001 8.189311e-001 7.028847e-001 5.809116e-001 5.004636e-001 2.553892e-001
<GCONST> 1.333748e+002
<TRANSP> 5
 0.000000e+000 1.000000e+000 0.000000e+000 0.000000e+000 0.000000e+000
 0.000000e+000 5.037403e-001 4.962598e-001 0.000000e+000 0.000000e+000
 0.000000e+000 0.000000e+000 4.816103e-001 5.183897e-001 0.000000e+000
 0.000000e+000 0.000000e+000 0.000000e+000 3.723413e-001 6.276587e-001
 0.000000e+000 0.000000e+000 0.000000e+000 0.000000e+000 0.000000e+000
<ENDHMM>
~h "o"
<BEGINHMM>
<NUMSTATES> 5
<STATE> 2
<MEAN> 39
 -2.048250e-001 -1.562277e+000 -3.201912e+000 -1.361301e+001 -6.850526e+000 -8.712412e-001 -8.674005e+000 -4.870634e+000 -2.614690e+000 1.714900e+000 4.967363e-002 -2.708289e+000 6.840083e+001 1.970439e+000 -7.883478e-002 -2.960478e-001 -2.537081e+000 -1.237155e+000 1.048588e+000 -1.273960e+000 -8.640736e-001 -1.104556e+000 1.497709e-001 2.770104e-001 -4.750029e-001 1.005620e+000 -4.279155e-001 5.520641e-002 1.966159e-001 5.037426e-001 2.849434e-001 1.893643e-002 3.509625e-001 1.270030e-001 2.592890e-002 -2.399539e-002 6.100778e-002 1.197992e-001 -3.628423e-001
<VARIANCE> 39
 3.760648e+001 4.509378e+001 4.807151e+001 1.032494e+002 7.209854e+001 8.006375e+001 9.225052e+001 5.995247e+001 6.561013e+001 5.767447e+001 7.318053e+001 4.253240e+001 8.154466e+001 3.926234e+000 3.208596e+000 4.202439e+000 8.034540e+000 7.251595e+000 6.025787e+000 6.141858e+000 5.725203e+000 6.115867e+000 5.407879e+000 6.157064e+000 3.906096e+000 4.177143e+000 6.240769e-001 6.511423e-001 5.560241e-001 1.590749e+000 9.845371e-001 9.259700e-001 1.156054e+000 9.640797e-001 1.103518e+000 8.494668e-001 8.754063e-001 6.759495e-001 9.945223e-001
<GCONST> 1.454813e+002
<STATE> 3
<MEAN> 39
 2.564558e+000 -3.478104e+000 -3.348544e+000 -1.793237e+001 -8.669724e+000 2.105721e+000 -1.158628e+001 -6.012155e+000 -5.534068e+000 1.961968e+000 1.281677e+000 -3.738247e+000 7.247658e+001 1.823079e-001 2.619988e-001 1.917485e-001 1.225886e-001 1.932294e-001 1.977513e-001 -1.534666e-001 -2.724340e-001 -3.537605e-001 -1.891280e-003 1.378724e-001 -4.651359e-002 -2.747314e-001 -5.392199e-001 3.809327e-001 2.453040e-001 1.162542e+000 5.187456e-001 -4.866822e-001 5.623319e-001 1.117839e-001 3.468895e-001 -2.071370e-001 -2.155220e-001 1.351488e-001 -6.084539e-001
<VARIANCE> 39
 1.637784e+001 4.038336e+001 4.667466e+001 8.790757e+001 6.412004e+001 8.359469e+001 8.093590e+001 5.477808e+001 5.618718e+001 6.111465e+001 9.501243e+001 4.387585e+001 3.547103e+001 7.815140e-001 2.294995e+000 1.631663e+000 4.843136e+000 3.546453e+000 3.342830e+000 3.813453e+000 2.939941e+000 4.015012e+000 3.480341e+000 3.124263e+000 2.526331e+000 1.391245e+000 3.884532e-001 3.842983e-001 4.604783e-001 7.912691e-001 8.444738e-001 7.462652e-001 8.889749e-001 7.831457e-001 8.374500e-001 8.192502e-001 9.380388e-001 6.293057e-001 2.925229e-001
<GCONST> 1.302262e+002
<STATE> 4
<MEAN> 39
 2.224672e+000 4.809918e-002 -2.724784e+000 -1.302045e+001 -6.642207e+000 6.557251e-001 -1.020597e+001 -6.834241e+000 -4.800190e+000 1.011950e+000 3.749837e-001 -3.117632e+000 6.789663e+001 -8.124512e-001 1.306137e+000 7.105487e-001 2.460812e+000 1.049742e+000 -9.031205e-001 1.199210e+000 1.375931e-001 4.814249e-001 -4.688705e-001 -3.511939e-001 1.837758e-001 -1.871101e+000 -4.604710e-001 1.739504e-002 1.057507e-001 3.489590e-001 9.044632e-002 -1.367847e-001 3.401918e-001 2.331749e-001 2.267322e-001 -4.275613e-002 2.450031e-003 7.879324e-002 -1.779307e-001
<VARIANCE> 39
 1.892653e+001 4.220473e+001 4.619378e+001 8.593361e+001 6.913975e+001 7.859928e+001 8.168639e+001 5.511678e+001 5.556801e+001 5.540841e+001 7.337965e+001 4.012162e+001 5.385561e+001 1.992395e+000 2.625535e+000 2.795071e+000 5.272293e+000 4.675063e+000 4.179132e+000 4.269669e+000 4.190712e+000 4.770678e+000 4.045271e+000 4.387732e+000 3.008183e+000 2.766942e+000 3.547336e-001 4.377832e-001 4.326544e-001 7.953498e-001 7.216825e-001 7.084627e-001 8.531062e-001 7.072305e-001 8.040901e-001 7.249425e-001 6.933578e-001 5.616538e-001 3.733771e-001
<GCONST> 1.338521e+002
<TRANSP> 5
 0.000000e+000 1.000000e+000 0.000000e+000 0.000000e+000 0.000000e+000
 0.000000e+000 4.710510e-001 5.289490e-001 0.000000e+000 0.000000e+000
 0.000000e+000 0.000000e+000 5.719357e-001 4.280643e-001 0.000000e+000
 0.000000e+000 0.000000e+000 0.000000e+000 4.761063e-001 5.238937e-001
 0.000000e+000 0.000000e+000 0.000000e+000 0.000000e+000 0.000000e+000
<ENDHMM>
~h "p"
<BEGINHMM>
<NUMSTATES> 5
<STATE> 2
<MEAN> 39
 -6.820107e+000 3.426662e+000 5.979307e-001 -4.192026e-001 -1.815467e+000 -2.141054e+000 -5.574666e-001 2.069002e-001 2.238371e+000 1.806864e+000 2.150458e+000 7.422820e-002 5.279592e+001 -8.988158e-001 -7.651006e-002 -3.407467e-001 4.240133e-001 4.921628e-001 3.094831e-001 7.133890e-001 5.166618e-001 6.945338e-001 3.819071e-001 5.257061e-001 6.057272e-001 -1.249650e+000 -3.771045e-002 -4.180775e-001 -4.210467e-003 -3.087930e-001 -1.901424e-001 -7.223413e-002 -2.270121e-001 -9.857646e-002 -1.718598e-001 -7.743842e-002 -1.587969e-001 -8.593629e-002 1.062503e+000
<VARIANCE> 39
 3.504851e+001 2.326826e+001 3.480922e+001 3.566661e+001 4.639999e+001 4.196303e+001 4.461926e+001 3.659750e+001 4.327899e+001 3.360432e+001 3.434875e+001 2.750440e+001 5.152390e+001 1.496997e+000 1.343133e+000 1.415792e+000 1.842046e+000 1.948871e+000 2.337943e+000 2.289255e+000 2.277533e+000 2.738163e+000 2.342216e+000 2.422364e+000 1.953582e+000 3.053696e+000 2.464427e-001 3.207370e-001 3.336368e-001 4.432933e-001 4.689762e-001 4.777775e-001 4.802824e-001 4.881936e-001 5.436322e-001 5.019103e-001 4.562514e-001 4.157024e-001 5.507666e-001
<GCONST> 1.169537e+002
<STATE> 3
<MEAN> 39
 -9.796389e+000 2.489903e+000 4.363612e-001 7.737992e-001 3.252726e-001 -4.753283e-001 1.663713e+000 1.568628e+000 3.583175e+000 2.429245e+000 3.422649e+000 1.844481e+000 5.122679e+001 -6.444287e-001 -1.726636e+000 -3.036869e-001 -6.710708e-001 -2.777951e-001 -5.900409e-001 -4.490302e-001 -3.902326e-001 2.159101e-002 -1.684349e-001 -4.351521e-001 -2.054709e-001 4.114021e+000 7.062314e-001 -3.038338e-001 -6.045466e-002 -7.458601e-001 -6.431276e-001 -2.417395e-001 -6.265181e-001 -4.240950e-001 -4.371469e-001 -1.849076e-001 -3.269064e-001 -3.964003e-001 1.556714e+000
<VARIANCE> 39
 2.484658e+001 2.039063e+001 2.742158e+001 3.152576e+001 4.455964e+001 3.533969e+001 4.028311e+001 2.983004e+001 3.501818e+001 2.743383e+001 2.934835e+001 2.170309e+001 6.274544e+001 3.786171e+000 2.754977e+000 3.814679e+000 3.607302e+000 4.688279e+000 4.300025e+000 4.231945e+000 4.056429e+000 3.951926e+000 3.662533e+000 3.239422e+000 2.934672e+000 5.383871e+000 5.546466e-001 4.522835e-001 5.612091e-001 7.104244e-001 7.128918e-001 7.519135e-001 6.349578e-001 6.532416e-001 6.584312e-001 6.056490e-001 6.609547e-001 4.599935e-001 7.514732e-001
<GCONST> 1.278032e+002
<STATE> 4
<MEAN> 39
 -9.925032e+000 -3.353362e+000 -1.034888e+000 -2.442280e+000 -1.907495e+000 -3.993821e+000 -1.792577e+000 -1.394071e+000 2.367305e+000 1.254639e+000 1.096533e+000 -6.673426e-002 6.747498e+001 2.041715e+000 -1.170433e+000 -4.210123e-001 -2.477477e+000 -1.818857e+000 -2.111351e-001 -1.585546e+000 -1.047782e+000 -1.158480e+000 -3.667029e-001 -7.125725e-001 -8.378800e-001 4.622034e+000 7.494223e-001 4.766876e-001 1.160597e-001 -4.640272e-001 -4.871086e-001 3.999723e-001 -2.717662e-001 -7.775673e-002 -3.608800e-001 -3.647933e-002 2.622790e-002 -1.032009e-001 -8.909099e-001
<VARIANCE> 39
 2.721834e+001 2.611116e+001 3.529623e+001 3.700291e+001 3.708642e+001 3.469029e+001 4.185393e+001 3.411231e+001 3.105426e+001 2.921467e+001 2.835675e+001 2.182680e+001 6.849196e+001 7.738254e+000 5.084081e+000 5.499142e+000 8.211397e+000 7.034551e+000 6.824423e+000 5.953693e+000 5.649971e+000 6.139896e+000 4.739463e+000 5.375158e+000 3.655735e+000 6.514347e+000 7.655482e-001 7.834213e-001 7.273526e-001 1.171396e+000 1.057056e+000 9.626939e-001 9.516358e-001 8.486030e-001 8.557140e-001 7.747694e-001 7.833286e-001 5.804479e-001 9.633866e-001
<GCONST> 1.382950e+002
<TRANSP> 5
 0.000000e+000 1.000000e+000 0.000000e+000 0.000000e+000 0.000000e+000
 0.000000e+000 7.583699e-001 2.416301e-001 0.000000e+000 0.000000e+000
 0.000000e+000 0.000000e+000 4.560992e-001 5.439008e-001 0.000000e+000
 0.000000e+000 0.000000e+000 0.000000e+000 4.673665e-001 5.326335e-001
 0.000000e+000 0.000000e+000 0.000000e+000 0.000000e+000 0.000000e+000
<ENDHMM>
~h "r"
<BEGINHMM>
<NUMSTATES> 5
<STATE> 2
<MEAN> 39
 -1.404938e+000 -5.882424e+000 -1.053361e+000 -5.379850e+000 -9.522964e+000 -7.574241e+000 -8.965078e+000 -1.775903e+000 2.039824e+000 1.169114e+000 -3.273206e+000 -4.428698e+000 7.258481e+001 8.407738e-001 -6.318138e-001 5.080707e-001 9.806016e-001 -1.063949e+000 -1.425973e-002 -6.275808e-001 -3.968646e-001 8.324642e-001 -3.494687e-001 -1.611952e-002 -4.931049e-002 3.011682e-002 -3.279195e-001 9.321950e-002 1.606779e-001 1.886335e-001 2.861236e-001 4.312244e-001 3.522964e-001 9.052796e-002 -2.275325e-001 -7.986873e-002 1.682486e-001 2.714893e-001 -5.932400e-001
<VARIANCE> 39
 2.576451e+001 4.323285e+001 4.252942e+001 6.152805e+001 6.194308e+001 5.817091e+001 6.709454e+001 6.150817e+001 4.589188e+001 5.387708e+001 6.499699e+001 3.582484e+001 6.110355e+001 3.753087e+000 3.286806e+000 3.309266e+000 5.231194e+000 6.211226e+000 4.561829e+000 5.610179e+000 5.005499e+000 4.715799e+000 4.254828e+000 4.709539e+000 3.692857e+000 3.424953e+000 5.442914e-001 6.503966e-001 5.566633e-001 1.004819e+000 1.019054e+000 9.233590e-001 9.773690e-001 8.802484e-001 9.082338e-001 8.179288e-001 8.875743e-001 6.482933e-001 9.184035e-001
<GCONST> 1.391193e+002
<STATE> 3
<MEAN> 39
 -2.974230e+000 -5.482346e+000 1.411892e+000 -3.257158e-001 -9.126601e+000 -6.225168e+000 -6.826814e+000 -2.674366e+000 3.999422e+000 -5.063421e-001 -1.968773e+000 -2.320821e+000 7.003439e+001 3.550741e-001 -6.593026e-001 4.877875e-001 2.381741e-001 -4.488193e-001 6.424878e-001 -4.521221e-001 1.663930e-001 -3.025704e-001 -2.605767e-001 6.825972e-002 1.975362e-001 -1.773982e-001 2.272929e-001 -1.451992e-001 -2.298567e-001 -8.153304e-001 -3.519542e-002 1.897469e-001 -2.722617e-001 3.123308e-001 -6.801730e-001 1.912269e-001 -8.753825e-002 -2.640866e-001 2.982729e-001
<VARIANCE> 39
 2.762668e+001 3.388691e+001 3.889459e+001 5.360428e+001 6.381739e+001 4.232228e+001 5.679441e+001 5.742273e+001 4.389365e+001 4.487018e+001 3.897395e+001 2.828091e+001 4.650743e+001 2.080819e+000 2.399051e+000 2.757914e+000 3.295794e+000 3.761070e+000 3.750046e+000 3.918565e+000 3.983178e+000 3.552966e+000 3.236619e+000 3.326120e+000 2.603123e+000 1.403220e+000 5.390339e-001 5.946341e-001 5.675740e-001 8.629509e-001 1.111136e+000 8.997270e-001 9.759491e-001 9.684337e-001 9.138555e-001 7.962601e-001 1.022166e+000 6.837021e-001 3.975290e-001
<GCONST> 1.312248e+002
<STATE> 4
<MEAN> 39
 5.108204e-001 -9.041144e+000 1.061620e+000 -3.603136e+000 -1.274431e+001 -4.966039e+000 -1.143697e+001 -1.210416e+000 1.988619e+000 -4.454743e-001 -2.696501e+000 -3.597442e+000 7.201243e+001 8.473781e-001 -4.861073e-001 -2.101060e-001 -1.238949e+000 -2.613852e-001 7.063785e-001 -8.197957e-001 4.743813e-001 -1.308551e+000 2.557383e-001 -7.065767e-002 -5.571029e-001 2.766417e-001 -1.828523e-001 3.708130e-001 -1.665421e-001 -2.928967e-001 4.093592e-001 -2.083104e-002 3.332173e-001 -4.871691e-002 -3.013628e-001 1.084342e-001 1.432689e-002 -8.989378e-002 -8.741563e-002
<VARIANCE> 39
 2.997615e+001 4.994230e+001 5.020676e+001 6.145657e+001 6.354756e+001 5.041907e+001 6.548559e+001 6.818425e+001 4.687846e+001 5.090961e+001 5.479866e+001 3.096616e+001 4.532014e+001 2.538930e+000 4.307368e+000 3.257446e+000 3.889475e+000 5.495848e+000 4.419650e+000 5.013285e+000 5.412170e+000 4.502004e+000 3.804903e+000 4.778698e+000 3.155346e+000 2.330312e+000 3.199547e-001 4.345200e-001 4.048776e-001 6.380811e-001 7.811810e-001 6.477861e-001 6.982571e-001 7.183420e-001 6.390656e-001 5.982745e-001 6.437513e-001 4.591580e-001 2.698029e-001
<GCONST> 1.321612e+002
<TRANSP> 5
 0.000000e+000 1.000000e+000 0.000000e+000 0.000000e+000 0.000000e+000
 0.000000e+000 4.428267e-001 5.571733e-001 0.000000e+000 0.000000e+000
 0.000000e+000 0.000000e+000 4.425733e-001 5.574267e-001 0.000000e+000
 0.000000e+000 0.000000e+000 0.000000e+000 3.720594e-001 6.279406e-001
 0.000000e+000 0.000000e+000 0.000000e+000 0.000000e+000 0.000000e+000
<ENDHMM>
~h "s"
<BEGINHMM>
<NUMSTATES> 5
<STATE> 2
<MEAN> 39
 -1.459485e+001 4.543012e+000 1.337552e+000 -2.459330e+000 5.935720e-001 -6.392547e+000 -1.481731e+000 -1.890008e+000 3.773440e-001 -1.183900e+000 -1.514121e+000 -1.320570e+000 6.996461e+001 -4.645029e+000 1.018241e+000 -1.288449e+000 1.412717e+000 1.701918e+000 1.347944e-001 2.132684e+000 1.251794e+000 1.308240e+000 2.735992e-001 1.069181e+000 8.425982e-001 2.406380e-001 8.647114e-002 -3.700766e-001 -2.582214e-001 -4.125923e-001 -5.102324e-001 1.885504e-001 -3.190809e-001 9.977273e-002 -1.403965e-001 1.707397e-001 6.605361e-002 5.316918e-002 -1.207244e-002
<VARIANCE> 39
 6.181232e+001 3.180545e+001 4.555998e+001 5.831069e+001 6.028829e+001 6.077061e+001 6.785956e+001 4.869819e+001 4.630996e+001 4.410705e+001 3.947634e+001 2.997514e+001 5.184669e+001 3.162293e+000 3.778071e+000 4.053355e+000 5.271939e+000 4.983879e+000 7.254136e+000 5.155289e+000 5.181612e+000 4.381054e+000 4.303156e+000 4.780341e+000 3.324979e+000 1.257339e+000 1.004927e+000 5.302087e-001 4.456731e-001 6.348180e-001 6.782792e-001 7.388638e-001 8.903610e-001 7.936285e-001 7.071036e-001 6.959368e-001 6.476820e-001 5.395458e-001 2.240930e-001
<GCONST> 1.342620e+002
<STATE> 3
<MEAN> 39
 -2.600032e+001 5.191506e+000 -4.570862e+000 -1.629433e-001 1.377316e+000 -4.662069e+000 2.018282e+000 1.470386e+000 2.592609e+000 1.048461e+000 1.365513e+000 1.910674e+000 7.034224e+001 -6.087958e-001 -9.916839e-002 -3.625467e-001 1.084423e-001 1.118609e-001 2.426681e-001 2.023376e-001 3.028102e-001 2.958806e-001 2.634003e-001 2.293366e-001 3.109803e-001 -4.454977e-001 8.325969e-001 -1.420329e-001 3.731081e-001 -9.846000e-002 -1.412047e-001 -6.069852e-002 -2.433278e-001 -1.801450e-001 -9.885932e-002 -5.505263e-002 -1.562884e-001 -1.572072e-001 -1.800544e-001
<VARIANCE> 39
 1.433950e+001 2.652977e+001 2.546206e+001 4.056962e+001 3.928546e+001 5.021316e+001 4.904800e+001 3.423421e+001 3.671021e+001 2.927942e+001 2.902682e+001 2.156081e+001 4.485807e+001 2.131538e+000 1.594309e+000 1.768584e+000 1.551968e+000 1.758189e+000 2.115548e+000 2.087699e+000 2.143552e+000 2.151283e+000 2.014057e+000 1.894272e+000 1.662727e+000 8.655260e-001 3.340881e-001 2.865064e-001 2.840355e-001 3.369176e-001 3.909927e-001 5.000942e-001 4.960955e-001 4.693786e-001 4.643295e-001 4.288795e-001 4.363079e-001 3.577989e-001 1.776285e-001
<GCONST> 1.113273e+002
<STATE> 4
<MEAN> 39
 -2.169140e+001 3.113473e+000 -1.679729e+000 -9.194124e-001 2.031600e+000 -4.490806e+000 1.705696e+000 1.588905e+000 3.874947e+000 1.435680e+000 1.321623e+000 1.542907e+000 6.577893e+001 2.960769e+000 -1.868600e-001 8.677841e-001 -2.036447e-001 -5.774413e-001 -2.381394e-001 -1.014494e+000 -8.477909e-001 -3.998766e-001 -1.430541e-001 -5.109987e-001 -6.109185e-001 -1.196483e+000 5.749831e-001 2.955680e-002 2.323573e-003 -2.133009e-001 -2.961610e-001 -9.385940e-002 -3.415733e-001 -2.450887e-001 -2.863481e-001 -7.787965e-002 -1.371540e-001 -1.581770e-001 3.872367e-002
<VARIANCE> 39
 3.740801e+001 3.603149e+001 4.066327e+001 5.541619e+001 5.192926e+001 5.793494e+001 5.791100e+001 4.135778e+001 3.894608e+001 3.637712e+001 3.778218e+001 2.569913e+001 7.297530e+001 4.590541e+000 2.964364e+000 2.963731e+000 3.828949e+000 4.029757e+000 5.067448e+000 5.163202e+000 4.049328e+000 3.645846e+000 3.171761e+000 3.640740e+000 2.655409e+000 4.603851e+000 6.567678e-001 5.457255e-001 5.128740e-001 6.291723e-001 6.439769e-001 7.610325e-001 9.300457e-001 7.424206e-001 6.663247e-001 5.936814e-001 6.693307e-001 4.723952e-001 6.105140e-001
<GCONST> 1.323456e+002
<TRANSP> 5
 0.000000e+000 1.000000e+000 0.000000e+000 0.000000e+000 0.000000e+000
 0.000000e+000 6.468711e-001 3.531289e-001 0.000000e+000 0.000000e+000
 0.000000e+000 0.000000e+000 8.175251e-001 1.824748e-001 0.000000e+000
 0.000000e+000 0.000000e+000 0.000000e+000 6.729376e-001 3.270625e-001
 0.000000e+000 0.000000e+000 0.000000e+000 0.000000e+000 0.000000e+000
<ENDHMM>
~h "t"
<BEGINHMM>
<NUMSTATES> 5
<STATE> 2
<MEAN> 39
 -9.530535e+000 4.172828e+000 -2.740835e-001 -4.496593e-001 -1.200483e+000 -2.584623e+000 -1.015371e+000 6.608741e-002 2.340909e+000 1.738140e+000 1.002602e+000 -3.044641e-001 5.390396e+001 -3.980376e-001 -1.759263e-001 -1.993903e-001 4.340374e-001 4.336464e-001 5.635310e-001 8.534776e-001 5.959178e-001 5.448955e-001 2.969329e-001 7.213051e-001 5.065892e-001 -1.803877e+000 -2.030967e-001 -5.496758e-001 -7.062113e-002 -4.337586e-001 -1.852055e-001 -1.129917e-001 -1.797001e-001 -5.010880e-002 -1.169182e-001 -5.212762e-002 -1.147050e-001 3.423100e-002 1.072747e+000
<VARIANCE> 39
 5.785113e+001 2.707628e+001 4.389024e+001 4.276733e+001 5.031704e+001 4.979130e+001 4.977803e+001 4.033040e+001 4.378985e+001 3.558950e+001 3.851412e+001 2.970534e+001 8.639986e+001 2.689767e+000 1.822741e+000 1.967219e+000 2.346567e+000 2.704802e+000 2.884223e+000 2.965770e+000 2.702725e+000 2.799926e+000 2.536141e+000 2.710558e+000 2.130075e+000 4.261292e+000 3.812278e-001 4.539776e-001 4.100794e-001 5.114603e-001 5.732449e-001 6.063954e-001 5.781012e-001 5.331409e-001 5.808693e-001 5.134745e-001 4.673161e-001 4.287789e-001 8.992362e-001
<GCONST> 1.247999e+002
<STATE> 3
<MEAN> 39
 -1.138425e+001 2.580270e+000 8.322683e-002 -1.878517e-001 7.442758e-001 -9.766243e-001 2.048481e+000 1.931382e+000 4.256525e+000 3.169466e+000 3.670628e+000 2.046665e+000 5.315058e+001 -1.251827e+000 -1.972335e+000 -3.817214e-001 -1.279266e+000 -3.006813e-001 -5.838588e-001 -3.195513e-002 -3.211216e-002 -3.922584e-002 -3.243439e-001 -1.172228e-001 3.047737e-001 3.205845e+000 2.912619e-001 -1.579518e-001 2.298743e-002 -4.954728e-001 -5.108334e-001 -6.226878e-001 -6.726709e-001 -3.479737e-001 -2.898265e-001 -3.012016e-001 -5.901202e-001 -3.740745e-001 1.574086e+000
<VARIANCE> 39
 3.389753e+001 2.563365e+001 3.084010e+001 3.744204e+001 4.364436e+001 3.898418e+001 4.299675e+001 3.404084e+001 3.873951e+001 2.868513e+001 3.137745e+001 2.378377e+001 6.058856e+001 3.751916e+000 2.994706e+000 3.649297e+000 3.697142e+000 4.474032e+000 4.557480e+000 4.101734e+000 3.825903e+000 3.699329e+000 3.470645e+000 3.306216e+000 2.750390e+000 6.554902e+000 6.038760e-001 4.612196e-001 5.282461e-001 6.047442e-001 7.778722e-001 6.780059e-001 6.758896e-001 6.333948e-001 6.854584e-001 6.248094e-001 6.386745e-001 4.873080e-001 8.734086e-001
<GCONST> 1.293280e+002
<STATE> 4
<MEAN> 39
 -1.402872e+001 -2.721459e+000 -9.801522e-001 -5.163356e+000 -1.790564e+000 -6.012676e+000 -1.022793e+000 -5.782618e-002 2.934217e+000 5.610220e-001 4.685346e-001 1.127819e+000 6.760141e+001 1.432516e+000 -5.642871e-001 1.760688e-001 -1.069228e+000 -1.226735e+000 -1.264715e+000 -1.862153e+000 -6.544770e-001 -3.975628e-001 -3.055653e-001 -1.268922e+000 -9.525665e-001 3.248529e+000 1.013879e+000 3.931227e-001 2.157242e-001 1.049375e-001 -2.981718e-001 2.849842e-001 -4.900548e-001 -1.312013e-001 -2.402264e-001 1.488786e-001 -1.231288e-001 -3.610371e-001 -7.874042e-001
<VARIANCE> 39
 2.881341e+001 3.464331e+001 3.958863e+001 4.316272e+001 4.295662e+001 4.553263e+001 5.378802e+001 3.676669e+001 3.461307e+001 3.174197e+001 3.484019e+001 2.642110e+001 6.350164e+001 7.136993e+000 4.108998e+000 4.759984e+000 5.687788e+000 6.485702e+000 6.285425e+000 6.706865e+000 5.557922e+000 5.278449e+000 4.435692e+000 5.435887e+000 4.034565e+000 8.446360e+000 7.364841e-001 8.424276e-001 8.445024e-001 8.659707e-001 1.026306e+000 1.128731e+000 1.127656e+000 1.027692e+000 8.390348e-001 7.968564e-001 9.219432e-001 6.610969e-001 1.022593e+000
<GCONST> 1.401799e+002
<TRANSP> 5
 0.000000e+000 1.000000e+000 0.000000e+000 0.000000e+000 0.000000e+000
 0.000000e+000 7.004021e-001 2.995979e-001 0.000000e+000 0.000000e+000
 0.000000e+000 0.000000e+000 4.744923e-001 5.255077e-001 0.000000e+000
 0.000000e+000 0.000000e+000 0.000000e+000 5.986556e-001 4.013444e-001
 0.000000e+000 0.000000e+000 0.000000e+000 0.000000e+000 0.000000e+000
<ENDHMM>
~h "u"
<BEGINHMM>
<NUMSTATES> 5
<STATE> 2
<MEAN> 39
 1.067408e+000 2.757128e+000 -1.624397e+000 -1.169097e+001 -7.843634e+000 -1.096713e+000 -9.425737e+000 -6.677932e+000 -6.857828e+000 -1.629915e+000 1.229677e-001 -2.515677e+000 6.547432e+001 1.527185e+000 1.017288e+000 1.849432e-001 -1.390477e+000 -1.237039e+000 5.877928e-001 -7.884436e-001 -7.859156e-001 -1.541548e+000 -6.624326e-001 6.916338e-002 -1.801318e-001 1.762391e-001 -3.914682e-001 -1.761552e-001 1.262619e-001 4.452519e-001 2.191783e-001 -4.147872e-002 3.443784e-001 2.795678e-001 3.351453e-001 8.327241e-002 -3.319666e-002 1.797128e-002 -1.708124e-001
<VARIANCE> 39
 2.875022e+001 4.490543e+001 5.078350e+001 1.032899e+002 6.749961e+001 7.282384e+001 9.127166e+001 6.938667e+001 6.571766e+001 6.479082e+001 6.685732e+001 4.419942e+001 6.228315e+001 2.891416e+000 2.990806e+000 3.548599e+000 5.902436e+000 5.425631e+000 5.190006e+000 6.699891e+000 6.441630e+000 5.855157e+000 5.027966e+000 5.430809e+000 3.610017e+000 2.970037e+000 4.965171e-001 5.315303e-001 5.300964e-001 1.262170e+000 9.552737e-001 8.585975e-001 1.238856e+000 1.055479e+000 1.139313e+000 9.793061e-001 9.191136e-001 7.185197e-001 5.462692e-001
<GCONST> 1.423133e+002
<STATE> 3
<MEAN> 39
 3.931325e+000 4.685943e+000 -1.819820e+000 -1.544405e+001 -1.095856e+001 9.215925e-001 -8.510177e+000 -6.044086e+000 -9.902371e+000 -4.003992e+000 2.569200e-002 -2.915941e+000 6.627283e+001 -1.580779e-001 1.730464e-001 2.596429e-001 1.073499e+000 5.694548e-001 -2.045946e-001 9.306319e-003 -2.148858e-001 3.293163e-001 1.610798e-001 1.146781e-002 -8.943962e-002 -5.228933e-001 -4.298097e-001 -1.959338e-001 9.816414e-002 7.190895e-001 4.770902e-001 -2.695816e-001 1.756364e-001 4.371543e-002 5.092437e-001 2.496548e-001 -6.802807e-002 -2.842831e-003 -1.433495e-001
<VARIANCE> 39
 1.387300e+001 3.958388e+001 4.712742e+001 8.569902e+001 5.744854e+001 7.363014e+001 7.366901e+001 6.573033e+001 5.618275e+001 5.707994e+001 7.298491e+001 4.083676e+001 3.674313e+001 7.175106e-001 2.083050e+000 1.538686e+000 4.081215e+000 3.461982e+000 2.692930e+000 3.912215e+000 3.761835e+000 3.735845e+000 3.424832e+000 3.196205e+000 2.530049e+000 1.396338e+000 2.727043e-001 3.187746e-001 3.657391e-001 6.045258e-001 6.435733e-001 6.955767e-001 7.931050e-001 8.090690e-001 7.929994e-001 6.857966e-001 7.555623e-001 5.313620e-001 2.163180e-001
<GCONST> 1.266831e+002
<STATE> 4
<MEAN> 39
 -2.409583e+000 4.093472e+000 -9.931813e-001 -4.953652e+000 -5.352574e+000 -5.098212e-001 -7.254622e+000 -6.213225e+000 -4.716201e+000 -1.261732e+000 -1.926890e-001 -2.269248e+000 5.793357e+001 -1.352442e+000 -2.405742e-001 5.438150e-001 2.012718e+000 1.182225e+000 -6.636713e-001 6.373468e-001 4.469160e-001 1.255350e+000 3.973435e-001 -2.375595e-001 5.806530e-002 -9.294236e-001 -3.145904e-001 -1.084611e-001 2.680612e-002 -1.784953e-001 -9.855282e-002 -1.946427e-002 2.088348e-001 3.070497e-001 4.294441e-002 -7.555095e-002 -4.180264e-003 1.070257e-001 9.002618e-002
<VARIANCE> 39
 8.265874e+001 4.487725e+001 4.996227e+001 7.166133e+001 6.503203e+001 6.328125e+001 9.478809e+001 6.910329e+001 5.155480e+001 4.678831e+001 5.279928e+001 3.782185e+001 1.611587e+002 2.148235e+000 2.678199e+000 2.857833e+000 4.989558e+000 4.971747e+000 4.610909e+000 4.625853e+000 4.314792e+000 4.986031e+000 4.172518e+000 4.239162e+000 3.205399e+000 2.712908e+000 4.018568e-001 4.441352e-001 4.538268e-001 5.846109e-001 7.117852e-001 6.672393e-001 9.684249e-001 8.238207e-001 7.324703e-001 7.238085e-001 6.626306e-001 5.477728e-001 2.931827e-001
<GCONST> 1.359388e+002
<TRANSP> 5
 0.000000e+000 1.000000e+000 0.000000e+000 0.000000e+000 0.000000e+000
 0.000000e+000 5.007799e-001 4.992201e-001 0.000000e+000 0.000000e+000
 0.000000e+000 0.000000e+000 7.010384e-001 2.989616e-001 0.000000e+000
 0.000000e+000 0.000000e+000 0.000000e+000 5.726070e-001 4.273929e-001
 0.000000e+000 0.000000e+000 0.000000e+000 0.000000e+000 0.000000e+000
<ENDHMM>
~h "v"
<BEGINHMM>
<NUMSTATES> 5
<STATE> 2
<MEAN> 39
 -2.305099e+000 1.380746e+000 2.207308e-001 -2.326640e+000 -4.155962e+000 -3.101531e+000 -7.298118e+000 -5.107641e+000 -2.879363e+000 -8.577099e-002 -3.970778e-001 -3.385600e+000 6.251327e+001 -1.386457e-001 1.118803e+000 2.948548e-001 1.026838e+000 7.080918e-001 9.754769e-002 2.899591e-001 -5.788402e-001 -2.893795e-001 -4.435048e-001 -2.416493e-002 -1.111432e-001 -9.244750e-001 -4.574968e-002 -4.379310e-001 1.073824e-001 -4.777868e-001 -4.708585e-001 -1.036859e-001 -6.105850e-002 2.480641e-001 -4.294534e-002 2.023821e-002 -1.374585e-001 -2.195705e-002 5.879770e-001
<VARIANCE> 39
 5.442110e+001 3.434433e+001 4.328236e+001 5.813461e+001 4.416297e+001 5.091962e+001 5.776668e+001 4.155075e+001 4.098049e+001 3.622240e+001 4.564868e+001 2.826690e+001 8.803268e+001 3.314222e+000 2.206301e+000 2.654015e+000 3.423726e+000 3.282909e+000 3.462110e+000 3.719689e+000 3.108855e+000 3.288793e+000 2.957430e+000 2.774133e+000 2.364697e+000 1.809144e+000 3.798382e-001 4.282653e-001 4.400188e-001 5.417806e-001 5.960744e-001 5.507207e-001 6.471112e-001 6.011178e-001 6.191629e-001 5.646306e-001 5.412138e-001 4.570378e-001 3.657882e-001
<GCONST> 1.265475e+002
<STATE> 3
<MEAN> 39
 -2.663065e+000 2.830475e+000 1.391780e+000 -1.774952e+000 -3.251367e+000 -3.516258e+000 -6.646906e+000 -6.008756e+000 -3.705980e+000 -1.328777e+000 -1.106312e+000 -3.549717e+000 6.355318e+001 1.944419e-001 -6.278729e-001 1.370834e-001 -6.666757e-001 -8.691905e-001 -4.282959e-001 -2.244223e-001 1.108302e-001 -1.934258e-001 3.112544e-004 -1.321119e-001 -1.225358e-001 9.555336e-001 2.788425e-001 -8.201314e-001 -1.050853e-002 -9.244955e-001 -7.785180e-001 -8.341493e-002 -2.646826e-001 3.451425e-001 -4.265007e-002 2.925809e-001 -8.484241e-002 -5.952927e-002 8.647866e-001
<VARIANCE> 39
 3.658619e+001 3.349603e+001 3.967571e+001 5.621488e+001 3.866982e+001 4.596018e+001 4.800919e+001 3.551567e+001 3.421954e+001 3.320031e+001 4.101052e+001 2.502106e+001 5.420602e+001 2.961900e+000 2.171005e+000 3.237708e+000 3.725654e+000 3.036344e+000 3.393587e+000 3.210472e+000 2.954125e+000 3.048809e+000 2.763741e+000 2.497583e+000 2.106223e+000 1.787209e+000 5.619553e-001 4.914801e-001 7.272861e-001 7.242450e-001 6.833906e-001 7.344201e-001 7.156107e-001 7.761542e-001 7.924237e-001 6.752055e-001 6.832817e-001 5.484568e-001 3.426395e-001
<GCONST> 1.268065e+002
<STATE> 4
<MEAN> 39
 1.677892e-001 -1.123266e+000 -1.180675e-001 -6.132443e+000 -7.379431e+000 -3.994916e+000 -9.069977e+000 -5.321279e+000 -3.740652e+000 1.636488e-001 -7.336191e-002 -4.244133e+000 6.760944e+001 5.375946e-001 -1.737673e+000 2.990053e-001 -1.718013e+000 -1.710357e+000 -2.572667e-001 -5.265508e-001 8.245584e-001 -5.479462e-002 4.581229e-001 -3.623331e-001 -4.256036e-001 1.903318e+000 -1.451235e-001 -1.471275e-001 1.515502e-001 -1.670573e-001 -7.240489e-002 1.587868e-001 6.381876e-002 1.866315e-001 2.947683e-003 1.621065e-002 -1.688928e-001 -5.744308e-003 1.544260e-001
<VARIANCE> 39
 3.179459e+001 4.034245e+001 5.981457e+001 8.206079e+001 4.203033e+001 6.835103e+001 5.908239e+001 3.870449e+001 4.109259e+001 4.398750e+001 5.941136e+001 2.828556e+001 4.535184e+001 2.575214e+000 2.979421e+000 5.344385e+000 4.754783e+000 4.230415e+000 4.741895e+000 3.906553e+000 4.526844e+000 4.754761e+000 3.925250e+000 3.726186e+000 3.184279e+000 2.035622e+000 2.995710e-001 3.070076e-001 3.025241e-001 5.495205e-001 4.853113e-001 5.043057e-001 5.908089e-001 5.553536e-001 5.290832e-001 5.242280e-001 4.946158e-001 4.097377e-001 2.127590e-001
<GCONST> 1.278981e+002
<TRANSP> 5
 0.000000e+000 1.000000e+000 0.000000e+000 0.000000e+000 0.000000e+000
 0.000000e+000 4.312027e-001 5.687973e-001 0.000000e+000 0.000000e+000
 0.000000e+000 0.000000e+000 4.041744e-001 5.958256e-001 0.000000e+000
 0.000000e+000 0.000000e+000 0.000000e+000 3.433102e-001 6.566898e-001
 0.000000e+000 0.000000e+000 0.000000e+000 0.000000e+000 0.000000e+000
<ENDHMM>
~h "x"
<BEGINHMM>
<NUMSTATES> 5
<STATE> 2
<MEAN> 39
 -1.354640e+001 2.760468e+000 9.235981e+000 -3.823812e+000 -2.311584e+000 -3.057896e+000 -2.348301e-002 -4.635639e+000 -2.785957e+000 5.998957e-001 -3.146500e+000 -8.763005e-001 6.681445e+001 -2.199214e+000 -1.756863e+000 -1.928825e+000 1.112458e+000 2.061340e+000 7.486390e-002 1.740745e+000 1.529901e+000 1.640720e+000 1.008914e+000 8.813700e-001 9.125499e-001 -1.171001e-001 3.254803e-001 -4.469764e-001 -3.127373e-001 -3.009841e-001 -6.041669e-001 -1.656341e-001 -4.680562e-001 2.607190e-001 -1.170407e-001 8.265049e-002 2.078950e-001 -8.864622e-002 2.080153e-001
<VARIANCE> 39
 4.534658e+001 5.271283e+001 9.300439e+001 5.366665e+001 5.996779e+001 5.274326e+001 5.871815e+001 7.048089e+001 4.655810e+001 4.348449e+001 3.879508e+001 2.680348e+001 4.139342e+001 2.092867e+000 3.240183e+000 3.278458e+000 4.007048e+000 4.961679e+000 5.165595e+000 5.649327e+000 4.906090e+000 4.867058e+000 4.262993e+000 4.524963e+000 2.806458e+000 9.879618e-001 3.895930e-001 5.379025e-001 4.372948e-001 5.568588e-001 6.154339e-001 7.093772e-001 8.707785e-001 7.888323e-001 8.061809e-001 8.223581e-001 6.387953e-001 5.138435e-001 1.623965e-001
<GCONST> 1.317370e+002
<STATE> 3
<MEAN> 39
 -1.518343e+001 -4.821922e+000 3.873489e-002 -2.694095e+000 3.800938e-001 -4.112386e+000 1.564299e+000 2.054131e+000 9.606963e-001 4.308651e+000 2.609173e-001 1.141261e+000 6.707552e+001 -8.825078e-002 -6.079988e-001 -9.538517e-001 2.687894e-001 4.994245e-001 -1.466359e-001 -1.175894e-001 5.884076e-001 6.155570e-001 3.354560e-001 3.657755e-001 2.523038e-001 -2.206835e-001 4.874842e-001 4.080594e-001 3.545349e-001 -3.959954e-002 -2.113154e-001 8.715494e-002 -2.310889e-001 -3.376267e-001 -2.614613e-001 -2.187611e-001 -1.714235e-001 -1.996697e-001 -1.175564e-001
<VARIANCE> 39
 2.994748e+001 2.701294e+001 9.061172e+001 5.511829e+001 6.964011e+001 6.375632e+001 6.360047e+001 5.006318e+001 4.932352e+001 3.963897e+001 3.716515e+001 2.766051e+001 4.345751e+001 1.690987e+000 1.522263e+000 2.776076e+000 2.476137e+000 2.920550e+000 3.311702e+000 3.492373e+000 3.630363e+000 3.389585e+000 3.139504e+000 2.643647e+000 2.155624e+000 7.523667e-001 2.514946e-001 2.881558e-001 3.654449e-001 4.543568e-001 5.933233e-001 6.854074e-001 6.949742e-001 6.954862e-001 7.049937e-001 6.174822e-001 5.695271e-001 4.530022e-001 1.878053e-001
<GCONST> 1.232359e+002
<STATE> 4
<MEAN> 39
 -1.267062e+001 -3.927138e+000 -8.103196e-001 -1.521043e+000 1.955192e+000 -2.481584e+000 -5.548598e-001 1.179974e+000 8.930667e-001 3.761876e+000 7.208320e-001 1.291168e-001 6.240158e+001 1.625094e+000 9.706603e-001 2.796828e-001 -1.321507e-001 -7.430344e-001 1.379233e-001 -4.822307e-001 -9.110078e-001 -8.438923e-001 -7.066151e-001 -2.859818e-001 -5.776721e-001 -5.972773e-001 3.683568e-001 1.695482e-001 2.018804e-001 -2.946548e-001 -5.544443e-001 -1.059341e-001 -2.089701e-001 -2.510697e-001 -3.451432e-001 -2.036950e-001 -1.553236e-001 -1.694525e-001 1.834243e-001
<VARIANCE> 39
 4.133193e+001 3.945010e+001 9.223496e+001 7.152368e+001 7.348350e+001 7.007053e+001 7.706647e+001 5.436056e+001 5.549255e+001 5.144723e+001 4.576814e+001 3.270825e+001 9.990013e+001 3.916187e+000 2.728739e+000 4.406654e+000 4.451102e+000 5.500692e+000 5.515227e+000 5.285779e+000 5.141161e+000 5.099251e+000 4.091643e+000 4.257825e+000 3.315525e+000 3.622885e+000 5.034033e-001 5.357514e-001 6.829876e-001 7.271278e-001 8.840886e-001 9.211387e-001 1.050937e+000 8.716903e-001 8.935496e-001 7.952904e-001 7.426859e-001 5.703513e-001 5.641612e-001
<GCONST> 1.395836e+002
<TRANSP> 5
 0.000000e+000 1.000000e+000 0.000000e+000 0.000000e+000 0.000000e+000
 0.000000e+000 5.863813e-001 4.136187e-001 0.000000e+000 0.000000e+000
 0.000000e+000 0.000000e+000 7.490668e-001 2.509331e-001 0.000000e+000
 0.000000e+000 0.000000e+000 0.000000e+000 6.667306e-001 3.332693e-001
 0.000000e+000 0.000000e+000 0.000000e+000 0.000000e+000 0.000000e+000
<ENDHMM>
~h "y"
<BEGINHMM>
<NUMSTATES> 5
<STATE> 2
<MEAN> 39
 -5.381964e+000 -3.012778e+000 1.044931e+001 -5.421422e+000 -1.372904e+001 -7.264085e+000 -8.537307e+000 -7.612153e-001 -6.125407e+000 -6.717232e-001 -1.231950e+000 -2.454213e+000 6.808509e+001 5.498203e-002 -1.470367e-001 1.947078e+000 -7.612721e-001 -2.062219e+000 -5.070285e-001 -2.118909e-001 -6.176683e-002 -1.316404e+000 1.343705e-003 1.309227e-001 8.297545e-002 1.062097e+000 -6.900093e-002 1.570385e-001 -2.403031e-001 -1.446639e-001 2.427930e-001 3.531494e-001 1.244684e-001 -2.033042e-001 1.197760e-001 1.071778e-001 2.839105e-002 -4.326019e-002 -1.231861e-001
<VARIANCE> 39
 4.229927e+001 7.259819e+001 8.744167e+001 8.370404e+001 8.715588e+001 8.030566e+001 8.330286e+001 6.674684e+001 6.485908e+001 5.250918e+001 6.574335e+001 3.327395e+001 1.344831e+002 2.550143e+000 3.135655e+000 4.825128e+000 3.968572e+000 5.443371e+000 4.318075e+000 5.974602e+000 5.024510e+000 4.210782e+000 4.132033e+000 3.610193e+000 2.642956e+000 3.357948e+000 3.221655e-001 4.906332e-001 7.301602e-001 6.037225e-001 9.693611e-001 8.143903e-001 9.251581e-001 8.332567e-001 7.683348e-001 6.092452e-001 5.406262e-001 4.401590e-001 4.450906e-001
<GCONST> 1.385563e+002
<STATE> 3
<MEAN> 39
 -4.450949e+000 -3.864027e+000 1.369054e+001 -9.089163e+000 -1.951153e+001 -8.171478e+000 -9.092928e+000 -1.942219e+000 -9.819677e+000 6.885213e-001 -1.769239e+000 -2.972341e+000 7.353622e+001 -3.465276e-001 4.784321e-001 8.347042e-001 -6.168226e-001 -5.298354e-001 5.031644e-001 -7.987882e-002 -5.457961e-001 -2.626899e-001 3.459520e-001 -7.698763e-002 -4.037426e-002 7.495528e-003 3.062240e-002 1.176091e-001 -5.721726e-001 2.400473e-001 6.729288e-001 3.825660e-002 1.742388e-002 8.392937e-002 4.468637e-001 -1.882061e-001 -1.581231e-001 -5.482277e-002 -2.193417e-001
<VARIANCE> 39
 1.874078e+001 5.026389e+001 6.163075e+001 8.954488e+001 5.219115e+001 5.970217e+001 5.891347e+001 7.037464e+001 5.399763e+001 5.187243e+001 7.308851e+001 3.068072e+001 4.172301e+001 6.485621e-001 2.210249e+000 2.729988e+000 1.885347e+000 2.495927e+000 2.629249e+000 3.098761e+000 3.666903e+000 2.649332e+000 2.366160e+000 2.018548e+000 1.601626e+000 1.021102e+000 1.542030e-001 2.594418e-001 3.580626e-001 4.096246e-001 5.041773e-001 4.870117e-001 6.199616e-001 5.607963e-001 5.154210e-001 5.164348e-001 4.352961e-001 3.170135e-001 1.447385e-001
<GCONST> 1.194034e+002
<STATE> 4
<MEAN> 39
 -5.172375e+000 -2.921830e+000 1.348474e+001 -1.041682e+001 -1.831873e+001 -7.420938e+000 -9.000538e+000 -2.289021e+000 -8.327436e+000 3.886763e-001 -2.779469e+000 -2.906766e+000 7.249833e+001 3.996642e-002 1.138396e-002 -4.298369e-001 1.116214e-001 3.180434e-001 -7.578930e-002 2.529892e-001 2.239210e-001 2.770481e-001 -1.841024e-001 -1.802425e-001 -4.640665e-002 -8.703745e-002 4.941987e-002 1.993681e-002 -2.142230e-001 1.970371e-001 2.555279e-001 -6.339461e-002 5.916900e-002 2.799725e-002 1.017345e-001 -7.140362e-002 -2.284361e-002 -1.539007e-002 -1.129973e-001
<VARIANCE> 39
 2.091599e+001 7.008403e+001 6.150727e+001 8.779111e+001 5.813160e+001 6.101680e+001 6.547823e+001 7.904617e+001 5.282910e+001 4.627446e+001 6.970618e+001 3.082311e+001 4.612135e+001 3.952085e-001 1.291759e+000 1.657650e+000 1.260724e+000 1.767060e+000 1.589570e+000 1.867366e+000 1.998916e+000 1.758402e+000 1.670404e+000 1.420426e+000 1.125420e+000 5.950801e-001 9.257915e-002 1.950640e-001 2.200720e-001 2.409626e-001 3.593293e-001 2.843351e-001 3.482048e-001 3.417287e-001 3.186754e-001 2.950588e-001 2.664680e-001 2.084905e-001 1.021599e-001
<GCONST> 1.081382e+002
<TRANSP> 5
 0.000000e+000 1.000000e+000 0.000000e+000 0.000000e+000 0.000000e+000
 0.000000e+000 4.916848e-001 5.083152e-001 0.000000e+000 0.000000e+000
 0.000000e+000 0.000000e+000 4.281034e-001 5.718966e-001 0.000000e+000
 0.000000e+000 0.000000e+000 0.000000e+000 7.366112e-001 2.633889e-001
 0.000000e+000 0.000000e+000 0.000000e+000 0.000000e+000 0.000000e+000
<ENDHMM>
~h "z"
<BEGINHMM>
<NUMSTATES> 5
<STATE> 2
<MEAN> 39
 -8.888725e+000 8.036187e+000 3.007925e-001 -3.051812e+000 -1.583228e+000 -1.028910e+001 -7.738349e+000 -6.403746e+000 -4.183261e-001 -6.508092e-001 -3.111355e+000 -2.473469e+000 6.853071e+001 -2.901985e+000 2.683528e+000 -3.361097e-001 1.522142e+000 1.487845e+000 -5.306356e-001 1.321766e+000 -3.806826e-002 3.699594e-001 -3.582309e-001 2.306647e-001 2.630080e-001 -3.094512e-002 -1.570865e-001 -4.044143e-001 5.015445e-002 -3.582163e-002 -1.579545e-001 5.315227e-001 1.565701e-001 4.118104e-001 -8.825979e-002 2.271826e-002 5.747713e-002 1.358499e-002 -1.045062e-002
<VARIANCE> 39
 3.573304e+001 3.843179e+001 4.507353e+001 6.973938e+001 6.326551e+001 6.733125e+001 6.270225e+001 4.978239e+001 4.272757e+001 5.056890e+001 4.308477e+001 3.336919e+001 8.133814e+001 3.932358e+000 3.310588e+000 2.919055e+000 4.496536e+000 4.741502e+000 6.600892e+000 5.567701e+000 5.047043e+000 3.631374e+000 3.403407e+000 3.987036e+000 3.599288e+000 2.082683e+000 5.695565e-001 6.313978e-001 3.835189e-001 5.227221e-001 6.428338e-001 7.454928e-001 8.154489e-001 7.223176e-001 5.983642e-001 5.880775e-001 5.810063e-001 5.057151e-001 2.143726e-001
<GCONST> 1.328340e+002
<STATE> 3
<MEAN> 39
 -1.858529e+001 1.228568e+001 -1.690139e-001 2.062654e+000 1.253290e+000 -7.459686e+000 -2.526993e+000 -3.413389e+000 -2.215828e-001 -1.386530e+000 -1.880267e+000 -1.071343e+000 6.928712e+001 -8.278906e-001 -2.676242e-001 3.037093e-003 3.847767e-001 2.512248e-001 5.248287e-001 6.110060e-001 5.097332e-001 1.814493e-001 2.568559e-002 1.373688e-001 2.092565e-001 -1.937645e-001 1.202960e+000 -7.373521e-001 1.653093e-001 -5.525519e-001 -5.836947e-001 -2.287533e-001 -5.433019e-001 -2.488883e-001 -7.435484e-002 9.672152e-002 -1.683095e-001 -1.368252e-001 1.245683e-001
<VARIANCE> 39
 2.835361e+001 3.054454e+001 3.259438e+001 4.800215e+001 5.240042e+001 5.313019e+001 5.010989e+001 3.864250e+001 3.768029e+001 3.895555e+001 3.137223e+001 2.638736e+001 4.834553e+001 3.512109e+000 1.985406e+000 1.770133e+000 2.246926e+000 2.463728e+000 3.318389e+000 2.912644e+000 2.720947e+000 2.422350e+000 2.302098e+000 2.001965e+000 1.754514e+000 9.226132e-001 4.437386e-001 5.322339e-001 3.994399e-001 5.632633e-001 5.388106e-001 8.606372e-001 6.478044e-001 6.401529e-001 5.433153e-001 5.228123e-001 4.813525e-001 4.599520e-001 1.799286e-001
<GCONST> 1.205085e+002
<STATE> 4
<MEAN> 39
 -1.283891e+001 7.917626e+000 7.693393e-001 -1.021135e+000 -1.513307e+000 -9.431692e+000 -5.033209e+000 -4.806254e+000 5.940126e-001 -9.818573e-001 -2.620383e+000 -1.647840e+000 6.949913e+001 3.544975e+000 -2.076472e+000 2.084040e-001 -1.556942e+000 -1.737972e+000 -5.454926e-001 -1.677915e+000 -5.278320e-001 -2.796818e-002 3.488076e-001 -6.931307e-001 -5.910280e-001 5.513678e-001 3.791969e-001 -3.263319e-001 -4.715494e-002 -2.909298e-001 -1.563885e-001 2.369118e-001 -1.542514e-001 1.401687e-001 -1.529402e-001 3.883547e-002 -1.239646e-001 -1.748638e-001 8.950260e-002
<VARIANCE> 39
 5.201800e+001 3.435431e+001 4.151786e+001 5.012880e+001 5.383199e+001 5.523000e+001 6.370456e+001 4.564194e+001 3.991879e+001 4.236382e+001 3.389017e+001 2.558071e+001 5.481011e+001 2.821269e+000 4.071526e+000 3.443649e+000 4.564579e+000 3.744696e+000 6.207301e+000 4.716677e+000 4.923779e+000 4.156349e+000 3.700538e+000 3.684796e+000 3.198550e+000 2.376678e+000 9.008996e-001 5.401342e-001 4.334545e-001 5.903913e-001 6.448619e-001 8.783810e-001 9.445103e-001 8.350434e-001 5.932155e-001 6.048452e-001 6.299388e-001 4.565601e-001 2.460557e-001
<GCONST> 1.319714e+002
<TRANSP> 5
 0.000000e+000 1.000000e+000 0.000000e+000 0.000000e+000 0.000000e+000
 0.000000e+000 6.393073e-001 3.606927e-001 0.000000e+000 0.000000e+000
 0.000000e+000 0.000000e+000 7.281417e-001 2.718583e-001 0.000000e+000
 0.000000e+000 0.000000e+000 0.000000e+000 6.235117e-001 3.764883e-001
 0.000000e+000 0.000000e+000 0.000000e+000 0.000000e+000 0.000000e+000
<ENDHMM>
~h "aa"
<BEGINHMM>
<NUMSTATES> 5
<STATE> 2
<MEAN> 39
 -3.039594e-002 -1.175873e+001 -6.005903e+000 -1.149753e+001 -5.660483e+000 -1.356380e+000 -7.581644e+000 2.456792e+000 -8.424597e-001 -2.103299e+000 -7.283383e+000 -7.051085e+000 7.677023e+001 3.613779e-001 -1.713287e+000 -1.270840e+000 -6.693042e-001 1.145905e+000 1.470650e+000 1.036354e-001 9.077559e-002 -2.635287e-001 -3.409450e-001 -6.385076e-001 -6.653302e-001 8.042994e-001 -3.562070e-001 5.128087e-001 2.726355e-001 5.509212e-001 2.619941e-001 -7.428922e-002 1.936070e-001 -5.387051e-001 -4.672079e-002 9.637518e-002 3.467237e-001 2.567349e-001 -5.002756e-001
<VARIANCE> 39
 1.818780e+001 4.340956e+001 4.004539e+001 5.602005e+001 5.980699e+001 7.439684e+001 6.594516e+001 6.061887e+001 7.108818e+001 6.513840e+001 6.827626e+001 4.838643e+001 3.445861e+001 1.460475e+000 2.100715e+000 1.770392e+000 3.065057e+000 2.917243e+000 2.682981e+000 3.475202e+000 3.689541e+000 3.550044e+000 2.861218e+000 3.167862e+000 2.955919e+000 9.996855e-001 3.217110e-001 2.940865e-001 3.307695e-001 4.674653e-001 6.185358e-001 6.116042e-001 6.288511e-001 6.093124e-001 6.597198e-001 5.931174e-001 5.972158e-001 4.794424e-001 1.639934e-001
<GCONST> 1.246641e+002
<STATE> 3
<MEAN> 39
 4.149660e-001 -1.290445e+001 -8.436805e+000 -1.156035e+001 -8.450504e-001 2.832957e+000 -6.925761e+000 -1.716725e+000 -1.360879e+000 -1.924109e+000 -6.598469e+000 -7.842637e+000 7.592113e+001 5.966561e-002 7.740774e-002 -1.007051e-001 -1.306597e-002 2.004328e-001 1.804628e-001 5.052695e-003 -2.682783e-001 -1.959069e-002 7.984793e-002 -1.062613e-003 -9.910722e-003 -1.554431e-001 7.898992e-003 2.220125e-001 1.642478e-001 1.437430e-002 -2.114907e-001 -2.213430e-001 -1.670214e-002 1.075740e-001 2.543591e-002 4.820515e-002 9.797217e-003 5.927062e-002 -9.266833e-002
<VARIANCE> 39
 1.719243e+001 3.986811e+001 3.168686e+001 5.848009e+001 5.435566e+001 7.019427e+001 7.888322e+001 5.682205e+001 5.734452e+001 5.438375e+001 6.177491e+001 4.591468e+001 3.799131e+001 2.143830e-001 5.843044e-001 6.628758e-001 9.331608e-001 1.216395e+000 1.399104e+000 1.293000e+000 1.487826e+000 1.262320e+000 1.171703e+000 1.129824e+000 1.014326e+000 1.538776e-001 4.085030e-002 1.013996e-001 1.064640e-001 1.564301e-001 1.800720e-001 2.029532e-001 2.332958e-001 2.389653e-001 2.353305e-001 2.108574e-001 2.028763e-001 1.858286e-001 3.537671e-002
<GCONST> 9.390294e+001
<STATE> 4
<MEAN> 39
 6.822097e-001 -9.747333e+000 -6.873438e+000 -1.111518e+001 -2.889292e+000 4.627701e-001 -7.202690e+000 -3.104726e-001 -1.508955e+000 -1.281337e+000 -7.066045e+000 -6.861047e+000 7.353427e+001 -1.749658e-001 1.972834e+000 1.064234e+000 9.269857e-001 -3.852944e-001 -9.902700e-001 3.339152e-001 -2.370108e-002 1.503848e-002 2.557175e-001 4.253419e-001 5.111924e-001 -1.500265e+000 -2.599356e-001 3.339785e-001 1.804591e-001 4.129535e-001 1.582738e-001 1.680649e-002 1.963003e-001 -1.859156e-001 2.272348e-002 -1.551874e-002 2.125975e-001 9.363133e-002 -3.749203e-001
<VARIANCE> 39
 1.844896e+001 4.690030e+001 4.204957e+001 5.979485e+001 5.850345e+001 7.755667e+001 7.043542e+001 5.990993e+001 5.764820e+001 6.774818e+001 6.787714e+001 4.987338e+001 4.865358e+001 1.112518e+000 2.262391e+000 2.284322e+000 3.271443e+000 3.206877e+000 3.132759e+000 3.550370e+000 3.815480e+000 3.752166e+000 2.897632e+000 2.963090e+000 2.593564e+000 1.776466e+000 2.675763e-001 3.740489e-001 3.738220e-001 4.778792e-001 4.969349e-001 6.263644e-001 6.087061e-001 6.413220e-001 6.088203e-001 5.280249e-001 5.461952e-001 4.682645e-001 2.460010e-001
<GCONST> 1.261349e+002
<TRANSP> 5
 0.000000e+000 1.000000e+000 0.000000e+000 0.000000e+000 0.000000e+000
 0.000000e+000 6.662011e-001 3.337989e-001 0.000000e+000 0.000000e+000
 0.000000e+000 0.000000e+000 8.643122e-001 1.356878e-001 0.000000e+000
 0.000000e+000 0.000000e+000 0.000000e+000 7.366701e-001 2.633298e-001
 0.000000e+000 0.000000e+000 0.000000e+000 0.000000e+000 0.000000e+000
<ENDHMM>
~h "ch"
<BEGINHMM>
<NUMSTATES> 5
<STATE> 2
<MEAN> 39
 -1.091759e+001 1.101981e+000 6.117735e+000 -2.067047e+000 -3.845327e+000 -2.180856e+000 -4.416165e+000 -1.039940e+000 2.281931e+000 1.010569e-001 1.175279e+000 1.906667e-001 5.884435e+001 -2.758917e+000 -7.995791e-001 4.712295e-002 -6.838480e-001 2.689559e-001 1.326332e+000 8.939533e-001 5.372211e-002 1.056703e+000 3.123324e-001 7.432172e-001 4.620716e-001 4.975783e-001 -5.084119e-001 -3.662725e-001 1.783034e-001 -3.761897e-001 -4.013197e-001 -7.286110e-002 5.701710e-002 -1.187624e-001 -1.738840e-001 -3.669945e-002 -2.895903e-002 -1.288686e-001 1.129693e+000
<VARIANCE> 39
 4.610180e+001 4.328108e+001 4.748621e+001 5.391595e+001 6.233431e+001 5.245238e+001 5.578529e+001 4.913220e+001 4.886932e+001 3.528880e+001 3.510659e+001 2.498827e+001 7.627914e+001 5.220316e+000 4.247165e+000 4.424057e+000 4.574300e+000 5.026356e+000 4.106539e+000 4.538488e+000 4.263663e+000 3.800152e+000 3.288448e+000 3.137911e+000 2.516602e+000 1.114552e+001 7.105556e-001 9.000672e-001 7.659487e-001 9.793496e-001 7.712979e-001 8.396742e-001 8.254914e-001 7.116578e-001 7.030816e-001 6.571457e-001 5.645589e-001 4.853856e-001 1.076105e+000
<GCONST> 1.371011e+002
<STATE> 3
<MEAN> 39
 -2.744431e+001 -2.725076e+000 9.330199e+000 -5.503781e+000 -6.294171e+000 6.924627e-001 1.602253e+000 -1.851166e+000 4.539385e+000 4.656741e-001 3.743419e+000 6.171195e-001 7.216405e+001 -1.286301e+000 -3.164569e-001 3.749453e-001 4.074137e-001 -5.435731e-001 -4.542118e-001 1.197954e+000 2.895932e-001 1.350542e-002 9.907451e-002 2.499009e-001 2.419887e-002 1.226073e+000 1.267155e+000 2.104659e-001 -1.909357e-001 3.045375e-001 1.389858e-001 -3.432439e-001 -3.308603e-001 1.157170e-001 -2.427807e-001 -1.004653e-001 -2.106134e-001 -6.182955e-002 -7.875097e-001
<VARIANCE> 39
 1.934446e+001 3.028746e+001 3.072669e+001 4.558449e+001 4.315996e+001 3.253904e+001 4.080721e+001 3.481499e+001 3.045453e+001 2.605371e+001 2.819986e+001 1.761154e+001 4.074188e+001 6.244535e+000 2.033112e+000 2.168197e+000 2.317941e+000 2.490801e+000 3.178975e+000 2.951975e+000 2.611815e+000 2.158528e+000 2.102824e+000 1.953046e+000 1.702170e+000 3.818098e+000 5.757088e-001 3.995424e-001 4.531024e-001 5.179948e-001 5.133947e-001 6.124396e-001 6.721436e-001 5.220349e-001 4.877861e-001 4.668514e-001 4.302839e-001 3.682457e-001 3.431034e-001
<GCONST> 1.191991e+002
<STATE> 4
<MEAN> 39
 -2.069950e+001 -3.336702e+000 8.594064e+000 -1.835743e+000 -6.586103e+000 -3.349530e+000 2.284220e+000 -4.155227e-001 3.083066e+000 -7.834944e-001 2.135352e+000 -2.678105e-002 6.920559e+001 4.024931e+000 7.315032e-001 -2.023689e-001 9.747499e-002 -2.697059e-001 -1.226475e+000 -1.716423e+000 -4.626411e-001 -1.453543e+000 -9.492177e-001 -1.195183e+000 -8.336818e-001 -8.438339e-001 6.348435e-001 7.721855e-002 3.731940e-002 -4.655075e-001 -3.175017e-001 -1.561434e-002 -6.828310e-001 -3.230546e-001 -3.182098e-001 -6.313123e-002 -1.807674e-001 -2.068756e-001 1.783944e-001
<VARIANCE> 39
 4.673420e+001 3.578804e+001 3.899430e+001 5.113995e+001 5.073808e+001 5.630172e+001 4.464878e+001 3.871983e+001 4.041538e+001 3.461909e+001 3.586565e+001 2.351006e+001 5.185334e+001 3.881833e+000 2.553510e+000 3.590496e+000 3.053204e+000 4.570058e+000 4.945116e+000 4.397319e+000 4.624787e+000 4.358058e+000 3.386063e+000 3.843519e+000 2.535873e+000 2.052995e+000 8.723696e-001 4.830861e-001 5.746089e-001 5.484256e-001 6.803150e-001 9.047519e-001 7.943020e-001 6.879999e-001 7.556930e-001 7.013972e-001 7.098947e-001 4.728730e-001 5.117207e-001
<GCONST> 1.310409e+002
<TRANSP> 5
 0.000000e+000 1.000000e+000 0.000000e+000 0.000000e+000 0.000000e+000
 0.000000e+000 7.901524e-001 2.098476e-001 0.000000e+000 0.000000e+000
 0.000000e+000 0.000000e+000 7.923478e-001 2.076522e-001 0.000000e+000
 0.000000e+000 0.000000e+000 0.000000e+000 6.970679e-001 3.029321e-001
 0.000000e+000 0.000000e+000 0.000000e+000 0.000000e+000 0.000000e+000
<ENDHMM>
~h "dg"
<BEGINHMM>
<NUMSTATES> 5
<STATE> 2
<MEAN> 39
 -5.881437e+000 4.509354e+000 9.227525e+000 -4.276232e-001 -4.252548e+000 -2.682064e+000 -5.520976e+000 -3.755097e+000 -1.396907e+000 -3.943580e+000 -3.126623e+000 -3.980148e+000 6.019431e+001 -2.451330e+000 -3.374012e-001 5.624658e-001 -2.782402e-001 4.942831e-001 1.170758e+000 1.016796e+000 -4.264557e-001 9.243567e-001 -1.446826e-001 4.764773e-001 2.732963e-001 6.458794e-001 -7.042524e-001 -4.802901e-001 5.820850e-002 -3.272712e-001 -2.812733e-001 -1.614015e-001 1.463405e-001 3.663879e-002 1.400846e-002 1.317130e-001 2.247577e-001 1.060550e-001 8.450170e-001
<VARIANCE> 39
 5.715859e+001 5.125242e+001 5.590344e+001 6.091830e+001 5.361324e+001 4.925318e+001 5.392265e+001 3.739646e+001 4.257138e+001 3.621046e+001 3.868799e+001 2.975240e+001 7.873057e+001 8.469786e+000 6.232714e+000 3.908228e+000 5.947116e+000 4.544429e+000 4.420072e+000 4.765112e+000 3.864614e+000 3.879225e+000 2.902198e+000 3.819500e+000 2.928137e+000 7.505595e+000 9.914060e-001 9.416331e-001 6.222928e-001 1.035041e+000 7.753926e-001 9.607694e-001 7.714710e-001 6.600285e-001 7.280039e-001 5.512173e-001 6.316497e-001 5.243932e-001 8.151644e-001
<GCONST> 1.382123e+002
<STATE> 3
<MEAN> 39
