~o
<STREAMINFO> 1 39
<VECSIZE> 39<NULLD><MFCC_D_A_0><DIAGC>
~h "a"
<BEGINHMM>
<NUMSTATES> 5
<STATE> 2
<NUMMIXES> 8
<MIXTURE> 1 1.278559e-001
<MEAN> 39
 1.776233e+000 -1.090008e+001 -1.613080e+000 -7.325570e+000 -9.440584e+000 -1.540148e+000 -1.141554e+001 2.357398e+000 5.747872e+000 2.787289e+000 -1.234011e+000 -1.086181e+001 7.655464e+001 1.321828e+000 -1.931310e+000 -3.848518e-001 -1.077988e+000 -6.000979e-001 1.605747e+000 -7.715477e-001 8.690053e-001 1.060627e-001 -8.390017e-003 2.284312e-001 -1.448450e+000 8.272712e-001 -9.205109e-001 1.008027e+000 1.259699e-001 5.763330e-001 7.455972e-001 -2.445094e-001 8.170754e-001 -3.888396e-001 -5.066456e-001 -8.746815e-002 1.100343e-001 9.239864e-001 -8.366302e-001
<VARIANCE> 39
 1.471244e+001 3.716609e+001 2.841991e+001 4.196107e+001 3.652096e+001 5.457401e+001 4.773123e+001 5.059420e+001 3.866426e+001 4.778307e+001 4.107236e+001 2.337818e+001 4.366485e+001 1.372737e+000 1.940935e+000 2.019802e+000 1.973792e+000 2.948091e+000 3.298978e+000 2.979358e+000 3.458920e+000 2.646660e+000 2.869609e+000 2.620869e+000 2.373500e+000 9.219182e-001 3.522882e-001 4.660462e-001 4.191943e-001 4.099175e-001 5.491279e-001 6.259155e-001 6.177636e-001 7.226068e-001 6.148521e-001 6.150206e-001 5.573321e-001 4.631051e-001 2.349587e-001
<GCONST> 1.201439e+002
<MIXTURE> 2 7.710853e-002
<MEAN> 39
 -9.044451e+000 -7.185730e+000 -2.819973e+000 -8.980324e+000 -1.444884e+000 -1.081915e-002 -2.443145e+000 2.143815e+000 2.070280e+000 2.154866e+000 -1.950750e+000 -3.696437e+000 5.915593e+001 8.227908e-003 -2.886073e-001 -5.894099e-001 8.261097e-002 7.818863e-001 6.507382e-001 2.013408e-001 -2.247488e-001 -1.267446e-001 2.454882e-002 -3.121176e-001 -3.299756e-001 1.392998e-001 2.466664e-001 -1.656694e-001 2.200487e-001 -1.446461e-001 -1.680350e-001 9.729741e-002 -2.588812e-001 -8.321329e-002 -3.076483e-001 -9.055623e-002 4.363579e-002 -6.385504e-002 3.926467e-001
<VARIANCE> 39
 7.364373e+001 9.619378e+001 1.128418e+002 1.161827e+002 1.282879e+002 1.422493e+002 9.516000e+001 9.342148e+001 9.329704e+001 7.237357e+001 6.979460e+001 6.320299e+001 1.485784e+002 2.707875e+000 4.197389e+000 3.969279e+000 4.106363e+000 5.200569e+000 5.894901e+000 4.383784e+000 4.588773e+000 4.965899e+000 3.958821e+000 3.700484e+000 3.443878e+000 5.050244e+000 4.117437e-001 8.339210e-001 6.740506e-001 8.305384e-001 9.223253e-001 9.743662e-001 8.277946e-001 8.426459e-001 9.954163e-001 8.203683e-001 7.495753e-001 7.523676e-001 8.942858e-001
<GCONST> 1.469251e+002
<MIXTURE> 3 1.656893e-001
<MEAN> 39
 1.483744e-001 -8.979538e+000 -6.086506e+000 -1.586203e+001 -2.632866e-001 -2.262631e+000 -8.096523e+000 6.287953e-001 -1.110502e+000 3.310240e+000 -1.077073e+001 -5.490990e+000 7.618343e+001 1.418537e-002 -1.026263e+000 -5.814517e-001 -7.461821e-001 1.002516e+000 2.767412e-001 3.050049e-001 4.885749e-001 -3.130203e-002 4.351879e-002 -1.050967e+000 -3.394149e-002 7.317656e-001 -3.443635e-001 7.696009e-001 5.152628e-001 9.767739e-001 -2.837089e-001 -2.151264e-001 2.827881e-001 -4.452859e-001 4.514531e-002 -3.788404e-001 7.326404e-001 2.195890e-001 -7.011366e-001
<VARIANCE> 39
 1.294057e+001 3.093272e+001 3.997155e+001 5.840751e+001 3.889614e+001 7.626187e+001 6.715039e+001 5.845527e+001 4.718863e+001 6.853214e+001 3.629617e+001 2.851273e+001 2.477782e+001 8.124503e-001 1.609733e+000 1.851253e+000 2.652132e+000 2.406993e+000 3.360850e+000 2.971772e+000 3.069350e+000 2.811335e+000 3.068877e+000 2.401467e+000 2.132464e+000 7.704759e-001 3.146393e-001 3.154268e-001 4.361916e-001 5.902889e-001 4.697029e-001 7.014001e-001 6.285617e-001 7.340826e-001 7.296986e-001 7.291628e-001 4.521554e-001 3.998468e-001 1.948311e-001
<GCONST> 1.200893e+002
<MIXTURE> 4 1.553048e-001
<MEAN> 39
 2.403480e-001 -6.637661e+000 -5.276485e+000 -1.066287e+001 -4.813726e+000 -1.985572e+000 -6.036518e+000 -2.447447e+000 1.241886e+000 3.211031e+000 -2.416312e+000 -8.401255e+000 7.188109e+001 2.952515e+000 -2.186832e+000 -5.157237e-001 -2.471733e+000 -1.226812e+000 1.012939e+000 -1.420381e+000 -3.329895e-002 -2.305490e-001 4.086974e-001 -3.300584e-001 -2.197079e+000 2.492279e+000 -8.620944e-001 1.941269e-001 2.595819e-001 6.270398e-001 3.200333e-001 6.969824e-002 3.491574e-001 3.437634e-001 9.149954e-002 -1.031400e-001 2.383895e-001 5.861964e-001 -7.960510e-001
<VARIANCE> 39
 1.998932e+001 3.381392e+001 3.734376e+001 6.630866e+001 5.234711e+001 9.816373e+001 7.179691e+001 5.140634e+001 4.537425e+001 4.586126e+001 5.306532e+001 2.790762e+001 5.826249e+001 2.457580e+000 3.520621e+000 3.939734e+000 4.036506e+000 5.049319e+000 6.251823e+000 5.230415e+000 4.946856e+000 4.592083e+000 4.499752e+000 4.652209e+000 4.037306e+000 2.562601e+000 4.293396e-001 5.457055e-001 5.642743e-001 7.171086e-001 6.506738e-001 9.495543e-001 7.309741e-001 6.483518e-001 6.939366e-001 6.157798e-001 7.037767e-001 4.966620e-001 6.217669e-001
<GCONST> 1.343432e+002
<MIXTURE> 5 1.914385e-001
<MEAN> 39
 1.309537e+000 -1.001547e+001 -5.982791e+000 -1.319394e+001 -7.940715e+000 5.947908e+000 -1.040833e+001 -1.079599e+000 2.937034e-001 2.196685e-001 8.250494e-001 -1.018901e+001 7.295917e+001 -1.324589e-001 -1.175020e+000 -4.900274e-001 -3.621139e-001 7.888355e-001 4.771682e-001 -3.669775e-001 8.079634e-001 6.309596e-001 1.331146e-001 -6.432356e-001 -1.145947e+000 8.886848e-001 -1.942806e-001 5.940357e-001 4.469185e-001 6.057633e-001 1.222906e-001 -6.428221e-001 2.202570e-001 -2.853988e-001 -2.288860e-001 4.863008e-002 -2.662703e-001 4.812971e-001 -4.843830e-001
<VARIANCE> 39
 2.381953e+001 4.376361e+001 4.280978e+001 7.682127e+001 5.419469e+001 7.603627e+001 6.600248e+001 5.753677e+001 5.760801e+001 6.199981e+001 6.869253e+001 3.795575e+001 4.451770e+001 5.661552e-001 1.332376e+000 1.761324e+000 2.483133e+000 2.188445e+000 3.041098e+000 2.750879e+000 2.953646e+000 3.168041e+000 2.498285e+000 2.569846e+000 2.102802e+000 7.384928e-001 1.457674e-001 2.419603e-001 3.267058e-001 5.130144e-001 4.861808e-001 5.176358e-001 4.945207e-001 5.717829e-001 5.797717e-001 5.339151e-001 4.606152e-001 4.601099e-001 1.498902e-001
<GCONST> 1.193744e+002
<MIXTURE> 6 1.318491e-001
<MEAN> 39
 -2.202850e+000 -1.173977e+001 -4.898610e+000 -1.360115e+001 -8.713058e+000 -8.220140e+000 -6.701781e+000 5.801295e+000 -5.009655e+000 -4.806081e+000 -1.434733e+001 -7.427056e-001 7.804353e+001 8.560746e-001 -1.929979e+000 -1.117285e+000 -1.012267e+000 6.751944e-001 8.271330e-001 -3.587348e-001 8.520292e-001 -1.106651e+000 -2.491485e-001 -1.860931e+000 -8.890990e-002 8.616331e-001 -5.582898e-001 1.020306e+000 4.658651e-001 9.076136e-001 4.293534e-001 2.296662e-001 3.615059e-001 -8.114233e-001 3.713229e-001 3.693325e-001 1.020369e+000 -9.814432e-002 -9.341488e-001
<VARIANCE> 39
 1.030094e+001 3.865032e+001 3.387589e+001 3.340932e+001 5.650816e+001 4.582834e+001 5.655524e+001 4.084549e+001 5.059946e+001 3.823396e+001 2.989206e+001 3.521988e+001 2.345985e+001 1.439122e+000 2.052894e+000 2.571640e+000 3.194925e+000 4.145620e+000 3.495677e+000 3.614700e+000 3.377330e+000 3.984138e+000 3.326038e+000 3.593451e+000 3.184494e+000 9.637883e-001 4.800961e-001 5.199190e-001 4.557112e-001 5.769851e-001 8.674144e-001 8.403502e-001 8.063821e-001 7.020366e-001 8.059340e-001 6.898623e-001 8.106412e-001 5.228147e-001 3.698834e-001
<GCONST> 1.252828e+002
<MIXTURE> 7 9.115601e-002
<MEAN> 39
 -2.960047e+000 -1.134556e+001 -7.437694e+000 -1.278624e+001 -6.912537e-001 -1.478385e+000 -6.048498e+000 -6.032938e-001 -2.652376e+000 -1.600755e+000 -9.617407e+000 -3.392542e+000 7.369196e+001 2.399016e+000 -2.787130e+000 -1.370732e+000 -3.150823e+000 -5.829973e-001 -2.019906e-001 -2.081498e+000 -4.413066e-001 -2.073103e+000 -8.932636e-001 -3.289844e+000 -1.608917e+000 4.459894e+000 -4.682843e-001 9.466147e-001 4.873048e-001 8.416131e-001 -1.078708e-001 2.922310e-002 6.035033e-001 2.754025e-001 4.609010e-001 1.770157e-001 7.418299e-001 2.528273e-001 -1.246118e+000
<VARIANCE> 39
 1.632428e+001 5.227172e+001 3.063617e+001 4.574640e+001 5.899559e+001 8.542109e+001 5.745777e+001 4.748567e+001 5.103373e+001 4.537610e+001 4.043763e+001 4.762036e+001 5.738885e+001 2.375785e+000 4.910109e+000 3.524620e+000 4.569355e+000 5.525808e+000 6.396360e+000 4.732250e+000 5.438924e+000 5.497823e+000 4.764678e+000 4.696000e+000 3.899105e+000 6.141576e+000 4.870547e-001 1.056435e+000 5.311612e-001 8.051358e-001 1.006444e+000 1.008975e+000 7.955038e-001 7.756298e-001 9.394891e-001 8.078790e-001 7.691960e-001 6.775935e-001 1.147664e+000
<GCONST> 1.387345e+002
<MIXTURE> 8 5.955018e-002
<MEAN> 39
 -1.529404e+001 3.448490e-001 -7.439458e+000 9.937546e-001 -4.848707e+000 2.840072e+000 -4.007779e+000 8.017716e-001 1.059928e+000 2.041114e-001 -9.490675e-001 -2.639377e+000 4.179755e+001 4.197057e-001 -5.947144e-001 -3.410797e-001 -6.016945e-001 2.643308e-001 5.992742e-001 -2.285904e-001 -1.409073e-001 -1.874919e-001 5.743983e-002 -1.286718e-001 -6.495667e-001 7.424904e-001 2.352752e-001 -2.923181e-001 1.685932e-002 -3.223608e-001 -4.778495e-002 2.493890e-002 -1.493690e-001 2.691436e-002 2.749078e-002 1.217677e-002 -5.172659e-002 -1.592806e-001 5.538221e-001
<VARIANCE> 39
 8.587516e+001 1.861571e+001 2.191058e+001 3.725702e+001 3.423765e+001 3.029477e+001 2.752921e+001 2.050461e+001 2.550503e+001 2.988587e+001 2.637795e+001 2.749097e+001 1.971154e+002 1.834627e+000 2.682726e+000 1.588272e+000 2.943339e+000 2.266041e+000 2.781197e+000 2.493466e+000 2.094318e+000 2.570771e+000 2.356799e+000 2.179648e+000 2.781611e+000 3.772846e+000 2.370699e-001 3.036573e-001 2.128387e-001 4.266514e-001 3.229149e-001 3.454691e-001 4.031604e-001 3.430950e-001 4.021460e-001 3.742377e-001 3.531381e-001 4.144496e-001 5.545372e-001
<GCONST> 1.155000e+002
<STATE> 3
<NUMMIXES> 8
<MIXTURE> 1 9.155004e-002
<MEAN> 39
 2.959498e+000 -1.130835e+001 -3.504443e+000 -8.103749e+000 -8.268860e+000 2.016058e+000 -7.760728e+000 -9.025024e-001 3.768409e+000 2.453259e+000 -8.264323e-001 -9.995159e+000 7.542883e+001 1.257688e-002 1.153107e+000 7.393087e-002 3.218308e-001 9.364953e-001 -2.127728e-001 4.167475e-001 -1.977165e-001 -5.543498e-001 2.841485e-001 1.709406e-001 3.839741e-001 -7.752177e-001 -1.020426e+000 1.407303e+000 3.416989e-001 7.494525e-001 7.512482e-001 -5.941013e-001 6.604189e-001 -1.140515e-001 -2.008324e-001 -1.376390e-002 1.728434e-002 8.747229e-001 -1.047518e+000
<VARIANCE> 39
 1.516177e+001 3.418954e+001 3.261061e+001 4.996835e+001 5.821405e+001 8.270537e+001 6.324183e+001 5.942659e+001 4.827583e+001 7.310941e+001 5.270945e+001 2.974647e+001 5.636393e+001 1.297065e+000 2.493072e+000 2.179054e+000 2.490274e+000 3.847959e+000 3.814880e+000 3.496410e+000 3.865478e+000 3.054494e+000 2.885038e+000 3.231485e+000 2.149594e+000 1.429478e+000 4.818214e-001 4.322262e-001 4.242717e-001 6.267481e-001 6.866697e-001 7.915076e-001 9.095779e-001 8.554300e-001 8.482996e-001 9.063573e-001 6.537153e-001 5.469791e-001 4.172120e-001
<GCONST> 1.283005e+002
<MIXTURE> 2 1.346859e-001
<MEAN> 39
 2.524265e+000 -1.039585e+001 -4.704442e+000 -9.143616e+000 -6.849171e+000 3.210886e+000 -1.150145e+001 2.782352e+000 2.551146e+000 1.990781e+000 -1.721702e+000 -1.140632e+001 7.501296e+001 1.837357e-001 4.173594e-001 -1.423688e-001 -8.138289e-002 3.445171e-001 3.245308e-001 2.458953e-001 -5.212750e-001 -4.420523e-001 2.642172e-001 3.408634e-001 1.299309e-001 -4.281062e-001 -2.052414e-001 7.493219e-001 3.400870e-001 4.450068e-001 5.059151e-002 -4.853785e-001 3.067224e-001 -5.239850e-001 -1.989485e-001 4.068363e-002 1.379761e-001 5.998868e-001 -5.323195e-001
<VARIANCE> 39
 1.434824e+001 3.243312e+001 2.735882e+001 6.445389e+001 3.817684e+001 5.436303e+001 5.175586e+001 3.719113e+001 3.983654e+001 4.506456e+001 4.793777e+001 2.368216e+001 4.458693e+001 3.438120e-001 9.146582e-001 1.209236e+000 1.429388e+000 1.901951e+000 2.434759e+000 1.901576e+000 2.058030e+000 1.777493e+000 1.770871e+000 2.061237e+000 1.395743e+000 3.334645e-001 1.040154e-001 1.968945e-001 1.944034e-001 2.899606e-001 3.395315e-001 3.242534e-001 3.557590e-001 3.831766e-001 3.943907e-001 3.359770e-001 3.435693e-001 2.754128e-001 1.041283e-001
<GCONST> 1.046088e+002
<MIXTURE> 3 1.360513e-001
<MEAN> 39
 -8.986784e-001 -9.673721e+000 -7.738863e+000 -1.581320e+001 3.042555e+000 -6.597966e+000 1.379061e+000 -6.218201e+000 2.904870e+000 -1.035469e+000 -6.828247e+000 -8.161666e+000 7.716404e+001 6.743763e-002 2.988408e-001 5.751560e-003 2.272930e-001 1.349575e-001 -8.439562e-002 1.159073e-001 -1.824625e-001 7.731380e-002 -1.339940e-001 8.860596e-002 -4.892551e-002 -1.766667e-001 -5.350372e-002 6.141099e-001 4.871179e-001 6.531492e-001 -5.237184e-001 1.520729e-001 -4.493243e-001 2.982769e-001 -2.499031e-001 1.148570e-001 3.629788e-001 2.916344e-001 -6.497117e-001
<VARIANCE> 39
 1.166888e+001 2.260744e+001 2.397508e+001 4.410465e+001 2.786207e+001 1.178625e+002 5.743712e+001 4.178596e+001 3.469612e+001 5.426836e+001 4.653312e+001 3.979934e+001 3.089579e+001 5.817787e-001 1.369059e+000 1.319243e+000 1.784371e+000 2.180634e+000 2.626760e+000 2.371359e+000 2.420293e+000 2.083717e+000 2.139705e+000 2.121222e+000 1.533050e+000 8.644223e-001 1.742342e-001 2.523474e-001 2.986451e-001 3.807001e-001 3.214378e-001 4.414864e-001 3.736241e-001 3.836581e-001 4.193628e-001 3.921840e-001 3.727008e-001 3.669819e-001 2.159387e-001
<GCONST> 1.107201e+002
<MIXTURE> 4 1.237743e-001
<MEAN> 39
 -6.868502e-001 -1.065037e+001 -6.413677e+000 -1.555808e+001 -2.748128e+000 -4.717716e+000 -7.928087e+000 1.671829e+000 -4.484730e+000 3.978072e-002 -1.521276e+001 -2.055008e+000 7.695890e+001 2.657508e-001 2.069132e+000 5.730006e-001 1.130934e+000 3.816294e-002 -5.746824e-001 2.296067e-001 -8.245530e-001 4.981837e-001 -8.861230e-002 6.556658e-001 -3.265079e-002 -1.463895e+000 -5.172832e-001 1.141352e+000 5.417981e-001 1.213937e+000 8.328258e-002 8.745639e-002 5.872425e-001 -2.405091e-001 6.036782e-001 -2.068832e-001 1.251534e+000 -7.189582e-002 -1.192044e+000
<VARIANCE> 39
 1.032444e+001 3.814643e+001 3.556005e+001 4.305929e+001 5.711323e+001 6.090359e+001 5.615381e+001 4.930309e+001 4.693395e+001 6.702586e+001 3.016646e+001 3.723068e+001 2.497104e+001 1.085989e+000 2.188217e+000 2.159282e+000 2.581499e+000 3.383230e+000 3.305234e+000 3.458959e+000 3.216425e+000 3.554579e+000 3.626992e+000 3.021751e+000 2.374089e+000 1.555518e+000 4.028295e-001 4.726658e-001 4.365236e-001 5.406154e-001 6.969898e-001 7.028955e-001 8.299632e-001 8.244674e-001 8.668356e-001 8.128246e-001 5.507864e-001 5.216460e-001 4.522527e-001
<GCONST> 1.251527e+002
<MIXTURE> 5 1.386842e-001
<MEAN> 39
 6.804160e-001 -1.237597e+001 -4.168170e+000 -1.415185e+001 -7.184971e+000 5.117602e+000 -1.095530e+001 9.415498e-001 -3.127158e-001 2.440802e+000 -3.255427e+000 -9.995770e+000 7.284420e+001 -8.833513e-002 2.638252e-003 -2.130696e-002 4.184593e-002 2.981948e-001 -1.328539e-003 1.244219e-002 -2.428557e-002 5.134550e-003 6.239152e-002 -2.664202e-001 -2.935711e-002 -3.494434e-002 1.644899e-003 3.682315e-001 1.891146e-001 2.576722e-001 -1.514498e-001 -2.877540e-001 -6.828773e-003 -2.078240e-001 -1.945391e-002 -8.175325e-002 1.822801e-001 2.676194e-001 -2.574039e-001
<VARIANCE> 39
 2.783352e+001 5.610192e+001 4.227605e+001 8.426111e+001 4.987798e+001 6.461496e+001 5.917076e+001 5.314231e+001 5.660210e+001 5.291705e+001 7.793591e+001 3.497541e+001 6.852611e+001 2.317461e-001 7.138183e-001 8.092492e-001 1.144720e+000 1.315451e+000 1.762702e+000 1.466360e+000 1.659188e+000 1.420778e+000 1.368855e+000 1.484004e+000 1.236274e+000 2.528311e-001 3.812953e-002 1.253890e-001 1.275416e-001 1.913048e-001 2.006853e-001 2.255233e-001 2.356295e-001 2.599916e-001 2.872180e-001 2.237538e-001 2.460544e-001 2.081399e-001 5.226479e-002
<GCONST> 9.962196e+001
<MIXTURE> 6 1.501675e-001
<MEAN> 39
 -1.662166e+000 -1.351572e+001 -6.541035e+000 -1.322470e+001 -4.758118e+000 -3.790297e+000 -8.970609e+000 5.031687e+000 -7.251410e+000 -5.907618e+000 -1.492140e+001 -1.368694e+000 7.808292e+001 1.509986e-001 4.861040e-001 8.686017e-002 2.034983e-001 5.658426e-002 -1.681289e-001 3.746243e-002 -5.338168e-001 7.544839e-002 1.059316e-001 7.221568e-002 -6.427114e-002 -3.814556e-001 4.040059e-002 1.004524e+000 5.372316e-001 3.760046e-001 -2.892645e-001 -4.366083e-001 1.154036e-001 -6.667408e-001 4.233271e-001 3.400389e-001 6.171866e-001 -2.706100e-001 -7.043446e-001
<VARIANCE> 39
 8.311944e+000 3.558673e+001 2.898726e+001 3.982127e+001 5.716528e+001 3.668301e+001 4.545829e+001 3.677924e+001 4.338869e+001 3.820200e+001 2.629030e+001 3.554949e+001 2.215786e+001 5.685797e-001 1.332366e+000 2.113140e+000 1.323390e+000 2.926861e+000 2.839793e+000 2.800577e+000 2.551693e+000 2.751889e+000 2.920195e+000 2.045992e+000 2.363656e+000 4.766027e-001 1.319056e-001 2.326105e-001 2.609983e-001 3.429590e-001 4.552269e-001 4.390740e-001 4.514857e-001 4.959613e-001 5.605726e-001 5.161250e-001 4.895176e-001 3.943576e-001 1.484126e-001
<GCONST> 1.107967e+002
<MIXTURE> 7 1.068639e-001
<MEAN> 39
 -1.530936e+000 -9.979816e+000 -1.114105e+001 -1.370975e+001 1.058983e+000 -3.051181e+000 -4.085346e+000 -5.875552e+000 -2.049099e-001 -4.758589e+000 -9.353204e+000 -7.329250e+000 7.705499e+001 5.931316e-002 1.288835e-001 -1.326244e-001 1.014009e-001 1.973198e-001 1.123324e-001 -1.299153e-002 -2.712872e-001 9.874228e-002 -6.628220e-002 7.666491e-002 -9.152339e-002 -1.796132e-001 1.127165e-001 2.669001e-001 3.727226e-001 -6.456986e-005 -3.286227e-001 -1.931878e-001 -1.549027e-001 1.647124e-001 -9.003488e-002 2.348518e-001 1.241299e-001 5.025009e-002 -2.693328e-001
<VARIANCE> 39
 8.726656e+000 2.347554e+001 2.257455e+001 4.077228e+001 4.032052e+001 1.178153e+002 9.600525e+001 4.447959e+001 3.854390e+001 4.120294e+001 4.520799e+001 4.059056e+001 2.507431e+001 2.903289e-001 5.853581e-001 7.966352e-001 9.200361e-001 1.342534e+000 1.423725e+000 1.253738e+000 1.531984e+000 1.184998e+000 1.380267e+000 1.196473e+000 1.116125e+000 2.422519e-001 6.157823e-002 1.170030e-001 1.730509e-001 1.672682e-001 2.125630e-001 2.179026e-001 2.555143e-001 2.491491e-001 2.417360e-001 2.460520e-001 2.162851e-001 2.254497e-001 6.389814e-002
<GCONST> 9.444265e+001
<MIXTURE> 8 1.181647e-001
<MEAN> 39
 -8.873408e-002 -1.383554e+001 -3.596103e+000 -1.355585e+001 -5.577372e+000 2.066690e+000 -1.384254e+001 4.351859e+000 -2.559515e-001 1.371412e+000 -3.640645e+000 -1.185684e+001 7.600352e+001 -7.905750e-003 4.532339e-001 8.466774e-001 8.528417e-001 -2.777381e-001 -9.723542e-001 -2.022885e-001 4.491397e-001 -4.895762e-002 -2.174965e-001 -3.643093e-001 6.350110e-001 -3.351030e-001 -2.486841e-001 1.166890e+000 3.035029e-001 7.564920e-001 1.439295e-002 -4.791950e-001 7.915156e-001 -7.781584e-001 -1.081711e-001 -1.205079e-001 2.387396e-001 8.707839e-001 -1.017533e+000
<VARIANCE> 39
 2.122324e+001 5.626419e+001 6.141968e+001 6.771920e+001 3.906404e+001 7.289555e+001 4.745952e+001 4.964041e+001 6.189988e+001 5.334613e+001 6.071815e+001 3.083178e+001 2.568825e+001 8.433702e-001 2.188423e+000 2.393165e+000 2.818277e+000 3.268498e+000 4.637368e+000 3.435495e+000 4.420883e+000 3.608784e+000 3.271604e+000 3.916664e+000 2.897840e+000 1.476987e+000 2.452257e-001 3.410595e-001 5.272569e-001 5.540994e-001 5.987917e-001 7.369113e-001 5.459259e-001 6.752978e-001 9.409034e-001 6.402630e-001 6.272784e-001 5.264774e-001 3.004408e-001
<GCONST> 1.266010e+002
<STATE> 4
<NUMMIXES> 8
<MIXTURE> 1 9.476847e-002
<MEAN> 39
 -1.123568e+000 -2.732142e+000 -5.470794e+000 -9.334003e+000 -3.100567e-001 -8.289256e+000 -2.947621e+000 -4.194865e+000 8.685274e-001 -3.226273e+000 -7.971584e+000 -5.270982e+000 7.118228e+001 -1.756854e+000 3.115531e+000 1.513318e+000 3.395044e+000 9.012416e-001 9.368865e-001 1.312166e+000 8.896803e-001 8.777988e-001 5.744879e-001 1.741047e+000 8.199357e-001 -3.378559e+000 -7.988846e-001 -3.048948e-001 7.304023e-002 2.312448e-001 7.979836e-003 6.526797e-001 3.909664e-001 6.760854e-001 2.186290e-001 3.420471e-001 5.049582e-001 3.034319e-001 -3.570383e-001
<VARIANCE> 39
 1.226244e+001 2.521901e+001 3.222850e+001 4.144970e+001 4.189251e+001 8.276865e+001 6.389183e+001 4.813837e+001 3.938086e+001 5.935545e+001 5.554682e+001 4.492841e+001 3.588119e+001 3.116500e+000 2.316021e+000 2.575661e+000 3.565367e+000 3.850136e+000 5.515957e+000 6.536261e+000 4.455066e+000 5.522672e+000 3.684254e+000 4.249224e+000 3.596453e+000 4.006636e+000 5.032167e-001 5.014396e-001 4.643266e-001 6.586640e-001 6.322302e-001 7.948040e-001 7.380221e-001 6.676865e-001 6.655815e-001 8.107615e-001 7.073712e-001 5.203777e-001 4.820480e-001
<GCONST> 1.313955e+002
<MIXTURE> 2 1.086346e-001
<MEAN> 39
 3.403863e+000 -7.078825e+000 -3.965483e+000 -8.010880e+000 -5.710014e+000 1.943243e+000 -9.343770e+000 -1.016011e+000 1.609679e+000 3.654053e+000 2.087669e+000 -1.089628e+001 7.249473e+001 -9.299530e-001 3.102008e+000 5.231502e-001 1.706101e+000 1.787811e+000 -1.036676e+000 1.222476e+000 -7.984889e-001 -4.604569e-001 5.942479e-001 -2.551824e-001 1.525087e+000 -2.641421e+000 -7.403243e-001 5.173616e-001 1.197834e-001 4.731030e-001 3.029145e-001 -2.194057e-001 5.899684e-001 5.474984e-002 2.230302e-001 -1.425314e-001 -2.633162e-001 5.514509e-001 -6.079460e-001
<VARIANCE> 39
 1.465988e+001 2.903314e+001 2.856286e+001 5.581413e+001 3.936895e+001 5.019387e+001 5.589858e+001 4.314219e+001 4.024726e+001 4.532397e+001 4.740347e+001 2.828523e+001 4.894895e+001 1.462175e+000 1.734487e+000 1.763922e+000 2.453019e+000 2.448074e+000 2.730589e+000 3.291782e+000 3.373649e+000 2.917671e+000 2.912012e+000 2.788195e+000 2.039336e+000 2.079423e+000 2.896271e-001 3.243441e-001 3.199395e-001 4.057332e-001 4.441724e-001 5.053245e-001 5.705301e-001 5.317791e-001 5.576736e-001 4.786737e-001 4.986159e-001 4.882501e-001 3.215620e-001
<GCONST> 1.194332e+002
<MIXTURE> 3 1.288765e-001
<MEAN> 39
 -4.905257e-001 -9.160403e+000 -5.030095e+000 -9.987331e+000 -3.318598e+000 -5.847183e+000 -3.158212e+000 -1.721404e+000 3.260088e+000 -3.188952e+000 -6.318365e+000 -7.249656e+000 7.590365e+001 -5.557456e-002 1.318024e+000 1.745438e+000 1.233031e+000 -9.988964e-001 -9.224136e-001 -4.000216e-001 2.930132e-001 -7.272542e-001 -1.496242e-003 7.050872e-001 8.018446e-001 -1.187409e+000 -1.452251e-001 5.440348e-001 4.816626e-001 3.314453e-001 -8.307958e-002 1.848966e-001 -1.659548e-001 -1.685754e-001 -4.889418e-001 2.646381e-001 2.909741e-001 1.849600e-001 -5.464306e-001
<VARIANCE> 39
 1.486626e+001 2.570914e+001 3.720213e+001 5.754830e+001 6.913145e+001 1.114190e+002 7.191565e+001 7.391279e+001 5.017372e+001 7.298831e+001 5.220092e+001 3.872139e+001 3.981190e+001 7.502344e-001 1.611480e+000 2.253027e+000 2.490085e+000 3.140026e+000 4.093962e+000 3.449173e+000 3.976827e+000 3.363968e+000 3.301957e+000 2.822333e+000 2.727765e+000 1.179625e+000 1.861517e-001 2.566235e-001 3.420752e-001 4.740176e-001 5.135180e-001 6.976175e-001 5.385323e-001 7.870148e-001 5.966918e-001 6.214738e-001 4.968789e-001 4.243035e-001 2.381554e-001
<GCONST> 1.232928e+002
<MIXTURE> 4 1.087117e-001
<MEAN> 39
 -5.443409e-001 -7.520465e+000 -1.852858e+000 -1.088869e+001 -6.759684e+000 -8.782005e+000 -7.818168e+000 4.691632e+000 -4.981923e+000 -8.937368e-001 -1.237094e+001 -8.928357e-001 7.361464e+001 -7.719489e-001 3.450342e+000 1.460271e+000 2.611461e+000 9.474953e-001 -5.798064e-001 1.228309e+000 -1.197560e+000 1.468494e+000 -3.839952e-001 1.855987e+000 3.680924e-002 -3.096370e+000 -5.768325e-001 3.456598e-001 -7.912120e-002 4.678343e-001 4.321519e-001 6.701246e-001 5.889835e-001 -2.213531e-001 6.226814e-001 -5.527848e-003 7.722698e-001 -2.502199e-001 -7.355300e-001
<VARIANCE> 39
 1.035907e+001 3.196805e+001 4.373764e+001 4.466523e+001 5.745278e+001 5.200494e+001 5.255913e+001 3.762345e+001 5.387146e+001 5.492416e+001 4.459132e+001 3.941768e+001 2.651564e+001 1.975698e+000 2.092845e+000 2.156543e+000 2.892871e+000 3.734632e+000 3.252080e+000 4.347668e+000 3.702638e+000 4.099928e+000 3.183971e+000 3.002031e+000 3.151481e+000 2.493758e+000 4.019985e-001 4.335345e-001 5.291582e-001 5.061315e-001 6.912164e-001 6.603837e-001 6.791983e-001 7.784920e-001 8.674888e-001 7.982982e-001 6.478603e-001 5.513516e-001 3.732833e-001
<GCONST> 1.267787e+002
<MIXTURE> 5 1.370163e-001
<MEAN> 39
 -8.919987e-001 -6.431608e+000 -1.016046e+001 -1.091919e+001 -2.911861e+000 4.016860e+000 -7.985052e+000 -1.730185e+000 -1.942869e+000 -1.564279e+000 -5.253370e+000 -6.315600e+000 6.923988e+001 2.862850e-001 1.035030e+000 6.237484e-001 1.259471e-001 -6.599670e-001 -9.087086e-002 8.933452e-002 -5.089248e-001 -1.928590e-001 1.994431e-001 4.474165e-001 3.714014e-001 -1.091305e+000 1.266180e-002 1.675120e-001 5.046275e-001 9.932717e-002 -2.076102e-001 -2.824991e-001 -3.594131e-002 -8.958271e-002 -5.180323e-002 1.059169e-001 6.366265e-003 8.399540e-002 -1.420852e-001
<VARIANCE> 39
 2.525533e+001 3.021264e+001 2.961694e+001 6.892519e+001 6.266227e+001 5.680879e+001 6.555248e+001 4.715654e+001 5.385660e+001 6.103991e+001 6.829722e+001 4.129674e+001 9.114426e+001 8.118743e-001 1.565644e+000 2.088596e+000 2.210697e+000 2.645038e+000 3.004086e+000 2.657365e+000 3.119158e+000 3.155665e+000 3.000797e+000 2.526608e+000 2.621924e+000 1.000465e+000 1.510131e-001 1.905960e-001 2.680295e-001 3.319658e-001 4.012469e-001 3.990851e-001 4.629636e-001 4.560135e-001 5.114291e-001 4.900754e-001 4.536420e-001 4.303342e-001 2.673946e-001
<GCONST> 1.191103e+002
<MIXTURE> 6 1.286403e-001
<MEAN> 39
 2.191454e+000 -9.028787e+000 -4.435242e+000 -1.335540e+001 -7.584574e+000 4.274921e+000 -1.233434e+001 -2.236644e+000 1.301367e-001 3.843003e+000 -1.745159e+000 -8.755022e+000 7.241181e+001 3.477478e-001 2.096069e+000 6.303585e-001 1.592778e+000 -2.871151e-001 -4.869666e-001 6.771874e-001 -1.774699e+000 -1.184569e+000 -2.814459e-001 1.115976e+000 9.263713e-001 -1.963535e+000 -2.355456e-001 4.426776e-001 1.812641e-001 6.171353e-001 2.008373e-001 -4.500504e-001 3.164956e-001 -3.945894e-002 -1.657355e-001 -3.535881e-001 -2.284640e-001 1.649735e-001 -3.638957e-001
<VARIANCE> 39
 1.906096e+001 3.806891e+001 3.887049e+001 6.402576e+001 4.726844e+001 6.055239e+001 5.144621e+001 4.394180e+001 4.871748e+001 5.212191e+001 6.983250e+001 2.932958e+001 4.002025e+001 6.079549e-001 1.314966e+000 1.774579e+000 3.162984e+000 2.057561e+000 2.731991e+000 2.602729e+000 2.452790e+000 3.669146e+000 2.637390e+000 2.727416e+000 2.247884e+000 9.461302e-001 7.796156e-002 2.087606e-001 2.790693e-001 3.365883e-001 3.259205e-001 4.374225e-001 3.829322e-001 4.209750e-001 4.701914e-001 4.363738e-001 4.582309e-001 3.468205e-001 1.401641e-001
<GCONST> 1.143850e+002
<MIXTURE> 7 1.958981e-001
<MEAN> 39
 7.616132e-002 -1.316541e-001 -5.678149e+000 -6.954422e+000 7.982528e-001 1.802882e+000 -5.508680e+000 -2.996394e+000 6.086963e-001 4.459553e+000 -3.663167e+000 -5.907690e+000 6.470633e+001 -1.025315e+000 1.724900e+000 2.694038e-001 1.989360e+000 7.929953e-001 -1.448365e-001 1.706981e+000 1.851663e-001 7.485123e-001 -2.700744e-001 7.702009e-001 6.935822e-001 -3.111597e+000 -3.346738e-001 -5.231358e-001 -5.110953e-002 -1.726845e-001 -2.811457e-001 8.480691e-003 5.325137e-002 3.437554e-001 1.501196e-001 -2.434935e-001 7.350381e-002 4.429004e-002 2.136811e-001
<VARIANCE> 39
 1.533870e+001 2.054608e+001 2.774488e+001 4.971103e+001 4.484248e+001 5.168050e+001 5.105015e+001 4.245837e+001 4.210398e+001 4.784803e+001 5.428273e+001 2.996826e+001 4.694011e+001 1.713450e+000 2.117803e+000 2.468192e+000 2.932894e+000 3.149605e+000 3.418529e+000 3.410767e+000 3.267772e+000 3.541836e+000 3.195896e+000 3.298930e+000 2.955317e+000 2.487258e+000 2.737948e-001 2.574715e-001 3.173238e-001 4.738775e-001 4.669237e-001 5.295765e-001 5.923033e-001 5.158638e-001 5.764509e-001 4.962725e-001 5.798761e-001 4.327911e-001 3.630340e-001
<GCONST> 1.218343e+002
<MIXTURE> 8 9.741046e-002
<MEAN> 39
 3.464369e-001 -1.000122e+001 2.459270e+000 -1.091736e+001 -7.864862e+000 -4.483301e+000 -1.255218e+001 5.471088e+000 -3.151268e+000 -1.742463e+000 -4.643421e+000 -4.700236e+000 7.271792e+001 -1.147639e-001 2.994663e+000 7.762612e-001 2.083168e+000 1.474909e-001 -8.592983e-001 6.617970e-001 -1.697806e+000 -4.337258e-001 -2.559888e-002 3.779108e-001 4.719542e-001 -2.682705e+000 -1.170101e-001 3.224158e-001 -4.444111e-001 2.655539e-001 2.275669e-001 2.027010e-001 4.567406e-001 -7.026284e-001 1.870053e-001 1.271069e-001 -8.459257e-002 -2.335174e-001 -3.962986e-001
<VARIANCE> 39
 2.004027e+001 5.842237e+001 5.303587e+001 9.386710e+001 7.856407e+001 9.186967e+001 8.451973e+001 6.669555e+001 7.007351e+001 6.109314e+001 6.092074e+001 3.526460e+001 3.520439e+001 1.323609e+000 2.000724e+000 4.028785e+000 3.816838e+000 4.155813e+000 4.498198e+000 4.147732e+000 4.478805e+000 5.535513e+000 4.700543e+000 3.733766e+000 3.657116e+000 1.661850e+000 2.210747e-001 4.085110e-001 4.912044e-001 6.183849e-001 8.339593e-001 7.821940e-001 8.271091e-001 7.792718e-001 9.111620e-001 7.387664e-001 5.984492e-001 5.383379e-001 2.603590e-001
<GCONST> 1.329736e+002
<TRANSP> 5
 0.000000e+000 1.000000e+000 0.000000e+000 0.000000e+000 0.000000e+000
 0.000000e+000 5.325438e-001 4.674562e-001 0.000000e+000 0.000000e+000
 0.000000e+000 0.000000e+000 5.930944e-001 4.069056e-001 0.000000e+000
 0.000000e+000 0.000000e+000 0.000000e+000 5.429013e-001 4.570986e-001
 0.000000e+000 0.000000e+000 0.000000e+000 0.000000e+000 0.000000e+000
<ENDHMM>
~h "b"
<BEGINHMM>
<NUMSTATES> 5
<STATE> 2
<NUMMIXES> 8
<MIXTURE> 1 9.039292e-002
<MEAN> 39
 -1.165064e+000 7.302790e+000 6.658616e+000 4.866364e+000 -1.991841e+000 -3.593877e+000 -6.476490e+000 -6.358609e+000 -2.740469e+000 -6.702802e-001 8.591881e-001 -3.344674e+000 5.964251e+001 8.943145e-001 1.852782e+000 -3.837272e-001 4.220397e-001 1.270683e+000 1.187340e+000 9.009085e-001 -4.302152e-001 -4.595380e-001 6.888787e-002 5.420818e-002 -3.338665e-001 -2.475581e+000 -6.058005e-001 -2.195254e-001 2.153274e-001 -2.201326e-001 -2.774315e-001 -1.590058e-001 1.583691e-001 1.966089e-001 -1.072669e-001 -2.019236e-001 -2.131058e-001 6.979297e-002 5.488827e-001
<VARIANCE> 39
 2.334558e+001 2.739237e+001 3.389967e+001 3.665425e+001 4.052383e+001 2.924834e+001 4.158107e+001 2.727655e+001 2.793568e+001 2.432312e+001 2.246399e+001 2.142173e+001 5.773460e+001 1.727371e+000 1.739226e+000 2.172993e+000 2.028950e+000 2.960145e+000 2.495578e+000 3.140783e+000 2.667076e+000 3.186680e+000 2.526665e+000 1.843703e+000 2.020356e+000 1.883469e+000 2.519729e-001 4.051549e-001 4.049330e-001 3.354309e-001 5.139728e-001 4.813443e-001 4.959596e-001 4.438791e-001 3.975009e-001 3.846296e-001 3.000366e-001 3.258776e-001 4.468857e-001
<GCONST> 1.146736e+002
<MIXTURE> 2 1.684550e-001
<MEAN> 39
 3.430980e+000 6.623100e+000 2.740228e+000 -2.467707e-001 -2.863639e+000 7.867529e-001 -4.807232e+000 -6.723877e+000 -5.587113e+000 -2.906481e+000 5.897673e-001 -4.453412e+000 5.894584e+001 -6.064075e-001 2.544173e+000 9.820455e-001 2.818335e+000 1.988880e+000 -5.229874e-001 1.661766e+000 -6.788356e-002 -1.071222e-001 -6.265608e-001 -9.824786e-001 -1.739022e-001 -2.724831e+000 -2.443891e-001 -6.799157e-001 -9.141381e-002 -6.850874e-001 -4.928488e-001 -1.357133e-001 -3.974986e-001 2.608224e-001 2.567539e-001 3.196938e-001 4.585043e-002 -2.111605e-002 8.193459e-001
<VARIANCE> 39
 1.147599e+001 2.042841e+001 2.247353e+001 3.948812e+001 3.210845e+001 3.952600e+001 4.179124e+001 3.103171e+001 3.881570e+001 3.236117e+001 3.125015e+001 2.007621e+001 4.101104e+001 5.738634e-001 1.379163e+000 1.551613e+000 3.308872e+000 2.409781e+000 2.095984e+000 2.213364e+000 2.424313e+000 3.675866e+000 2.723207e+000 2.503844e+000 1.982684e+000 7.711345e-001 9.672623e-002 2.246601e-001 1.736837e-001 3.771223e-001 3.124885e-001 3.426803e-001 3.564946e-001 4.160356e-001 4.838417e-001 3.992386e-001 4.654990e-001 2.847276e-001 1.796441e-001
<GCONST> 1.077962e+002
<MIXTURE> 3 1.587657e-001
<MEAN> 39
 1.280867e+000 9.986168e+000 5.535459e+000 3.804392e+000 -9.918827e-001 -1.720403e+000 -4.562103e+000 -7.071556e+000 -4.690009e+000 -3.342770e-001 1.117248e+000 -3.997482e+000 5.660176e+001 -2.460111e-001 5.485979e-001 3.034377e-001 4.834143e-001 5.376866e-001 -2.157412e-002 9.366188e-002 9.477454e-003 1.157023e-001 -5.968788e-002 -2.767499e-002 1.563349e-001 -6.663049e-001 -2.291059e-001 -6.898196e-001 -1.464579e-001 -3.903053e-001 -3.470960e-001 -1.157059e-001 -1.250688e-001 2.296391e-001 9.213927e-002 -1.104322e-001 -1.317663e-001 1.302065e-001 7.512334e-001
<VARIANCE> 39
 1.486018e+001 1.402128e+001 2.790927e+001 3.365627e+001 2.765196e+001 3.086342e+001 3.222278e+001 3.020246e+001 3.430909e+001 2.237043e+001 2.242170e+001 2.342723e+001 5.165402e+001 3.253189e-001 4.777226e-001 6.652699e-001 9.060336e-001 1.011971e+000 1.072833e+000 1.259826e+000 1.385818e+000 1.537640e+000 1.506810e+000 1.346897e+000 1.363811e+000 2.545317e-001 1.365190e-001 2.158042e-001 2.655214e-001 3.448649e-001 3.201401e-001 3.317970e-001 3.381490e-001 3.654313e-001 4.307915e-001 3.070219e-001 2.698775e-001 3.342284e-001 2.246747e-001
<GCONST> 9.652438e+001
<MIXTURE> 4 1.099186e-001
<MEAN> 39
 1.913935e+000 7.858346e+000 4.858563e+000 1.232841e-001 -2.002577e+000 -6.738346e+000 -6.271481e+000 -6.737885e+000 -2.536706e+000 -2.306967e+000 -5.342711e+000 -9.600802e+000 5.669924e+001 -8.965320e-001 1.324574e+000 8.420961e-001 1.479216e+000 8.193181e-001 2.817216e-001 6.941574e-001 -1.236599e-001 2.701459e-001 -7.519624e-001 4.048255e-003 1.812594e-002 -1.457258e+000 -5.924719e-001 -1.437843e+000 -3.155995e-001 -9.982304e-001 -6.712761e-001 -2.212353e-001 -1.360656e-001 4.469588e-001 -1.739187e-001 1.865531e-001 2.340343e-001 8.154467e-001 1.789889e+000
<VARIANCE> 39
 1.048816e+001 1.774938e+001 2.001790e+001 2.278946e+001 2.502352e+001 3.254115e+001 3.150768e+001 2.921675e+001 2.839854e+001 2.760608e+001 2.340015e+001 1.849230e+001 2.635679e+001 9.355208e-001 1.795964e+000 1.318292e+000 2.359644e+000 2.010230e+000 2.081068e+000 1.960379e+000 2.354839e+000 2.464420e+000 2.240759e+000 2.194272e+000 2.070907e+000 1.593742e+000 2.985204e-001 2.853658e-001 4.084404e-001 6.075650e-001 5.691400e-001 5.760350e-001 5.277700e-001 6.682567e-001 5.653205e-001 5.564342e-001 5.047387e-001 3.633265e-001 3.321094e-001
<GCONST> 1.108944e+002
<MIXTURE> 5 1.651129e-001
<MEAN> 39
 5.264195e-001 6.598231e+000 3.180549e+000 -6.894316e-003 -5.007110e+000 -2.910594e+000 -3.884578e+000 -4.416958e+000 -4.597476e+000 -4.207736e+000 -4.969776e+000 -6.716989e+000 5.896280e+001 -2.124483e-001 6.255477e-001 9.917320e-002 4.698877e-001 5.695449e-001 7.863282e-002 6.092501e-001 2.117372e-001 6.600204e-002 -3.262916e-001 -2.164323e-001 8.113313e-002 -7.354208e-001 -1.932137e-001 -5.943866e-001 -9.374651e-002 -4.294087e-001 -3.177944e-001 -8.647063e-002 -5.742526e-001 -1.206093e-001 1.168242e-001 3.629016e-001 3.403875e-001 2.488488e-001 7.006289e-001
<VARIANCE> 39
 2.545928e+001 2.382385e+001 2.109140e+001 2.670800e+001 3.343466e+001 3.789277e+001 3.440500e+001 2.663987e+001 3.138081e+001 2.185584e+001 2.534724e+001 2.200873e+001 3.834868e+001 2.054757e-001 5.418915e-001 6.550217e-001 9.208557e-001 1.172292e+000 1.210268e+000 1.394819e+000 1.317466e+000 1.716825e+000 1.547761e+000 1.548680e+000 1.260628e+000 2.482897e-001 1.293725e-001 1.798208e-001 2.436991e-001 3.748752e-001 3.847418e-001 3.534078e-001 3.714157e-001 3.299632e-001 4.231450e-001 3.532958e-001 3.387551e-001 2.851071e-001 1.922874e-001
<GCONST> 9.726104e+001
<MIXTURE> 6 1.657090e-001
<MEAN> 39
 4.039954e+000 2.301108e+000 1.131001e+000 -4.046997e+000 -4.679909e+000 -4.479764e+000 -9.557407e+000 -7.090932e+000 -6.059161e+000 -2.225909e+000 -4.738285e+000 -7.763964e+000 6.262372e+001 2.997081e-001 3.311151e+000 7.515188e-001 3.030267e+000 1.763769e+000 4.272639e-001 1.391939e+000 -1.037186e+000 7.147197e-002 -1.561655e+000 -2.544011e-001 -1.110302e+000 -3.706008e+000 -5.397765e-001 -3.073076e-001 8.305128e-002 -4.864924e-001 -3.156152e-001 -9.645466e-002 2.063576e-001 3.984476e-001 9.760518e-002 -1.212627e-002 -1.566873e-001 3.392257e-001 5.875205e-001
<VARIANCE> 39
 9.830642e+000 2.686502e+001 3.825221e+001 4.456406e+001 3.613903e+001 6.246535e+001 3.985745e+001 3.616191e+001 4.067244e+001 4.013388e+001 5.281256e+001 2.612773e+001 2.832507e+001 9.771678e-001 1.658952e+000 2.905505e+000 3.793237e+000 3.389777e+000 3.781089e+000 3.763680e+000 3.929662e+000 4.055142e+000 3.156958e+000 3.256989e+000 3.065088e+000 1.045938e+000 1.148226e-001 2.716637e-001 3.194721e-001 4.370185e-001 4.697565e-001 4.421667e-001 4.758169e-001 5.340710e-001 5.819262e-001 5.265903e-001 5.268692e-001 4.179601e-001 2.465122e-001
<GCONST> 1.182100e+002
<MIXTURE> 7 8.029170e-002
<MEAN> 39
 4.115080e+000 6.863689e+000 5.382468e-001 -3.616139e+000 -4.951778e+000 -7.750971e+000 -9.907955e+000 -8.563858e+000 -7.028134e+000 -7.488615e+000 -1.226871e+001 -1.115343e+001 6.150122e+001 -2.664073e-001 1.199417e+000 5.348715e-001 7.349513e-001 4.602650e-001 4.892431e-002 6.457556e-001 -2.916352e-002 2.216376e-001 -7.120305e-001 7.413938e-002 -2.843955e-001 -1.103699e+000 -6.726374e-001 -8.859731e-001 -1.007142e-001 -6.198254e-001 -5.227470e-001 -3.123592e-002 -7.126021e-002 3.098222e-001 1.142407e-001 5.982605e-001 7.026950e-001 8.526221e-001 1.215138e+000
<VARIANCE> 39
 1.151877e+001 2.313498e+001 4.185219e+001 2.328416e+001 3.108044e+001 3.498649e+001 2.705084e+001 3.939048e+001 3.089952e+001 3.701052e+001 2.347160e+001 2.278853e+001 1.141305e+001 8.740623e-001 1.387497e+000 1.280782e+000 1.781917e+000 2.324516e+000 1.814075e+000 2.300037e+000 2.190977e+000 2.368914e+000 2.417641e+000 2.349262e+000 2.334662e+000 1.176272e+000 2.192411e-001 3.283348e-001 5.077747e-001 6.044680e-001 6.804580e-001 5.640324e-001 5.787640e-001 6.857799e-001 6.200647e-001 6.815001e-001 4.134538e-001 4.835798e-001 4.096155e-001
<GCONST> 1.124921e+002
<MIXTURE> 8 6.131661e-002
<MEAN> 39
 -1.436280e+000 8.519602e+000 5.803202e+000 5.328408e+000 -2.923683e+000 -3.799075e+000 -3.863411e+000 -6.651243e+000 -7.783974e+000 -3.939544e+000 -1.731030e+000 -5.878805e+000 5.524676e+001 1.895680e+000 1.384198e+000 5.102714e-001 4.490797e-001 -5.996090e-001 -1.000722e+000 -9.722747e-001 -1.227520e+000 -1.128021e+000 -2.014721e-001 -6.195065e-001 -1.170028e+000 2.184858e-001 -5.432493e-001 -5.407291e-001 -4.156108e-001 -4.273070e-001 2.158549e-001 2.647359e-001 1.899479e-001 4.534161e-001 7.984932e-001 3.511330e-001 2.792437e-001 4.250830e-001 2.131644e-001
<VARIANCE> 39
 2.501896e+001 3.736786e+001 3.568873e+001 3.986363e+001 6.410180e+001 5.201291e+001 5.880980e+001 4.074313e+001 5.495573e+001 3.944254e+001 6.261039e+001 3.713837e+001 6.134464e+001 3.257124e+000 2.167649e+000 2.096066e+000 2.849531e+000 3.576854e+000 3.674492e+000 4.350768e+000 4.673109e+000 5.146066e+000 3.485794e+000 3.881655e+000 3.615763e+000 4.617681e+000 4.642580e-001 5.104881e-001 3.889524e-001 4.626752e-001 6.570895e-001 7.176529e-001 7.787690e-001 8.950797e-001 7.621293e-001 6.355693e-001 8.079383e-001 6.736203e-001 5.820397e-001
<GCONST> 1.314674e+002
<STATE> 3
<NUMMIXES> 8
<MIXTURE> 1 1.606675e-001
<MEAN> 39
 2.042850e+000 1.055769e+001 6.707614e+000 2.967594e+000 6.594331e-001 1.255903e-001 -1.531689e+000 -7.404848e+000 -6.405516e+000 -4.672089e+000 2.975950e-001 -2.856202e+000 5.602172e+001 -1.008251e+000 2.270707e-001 3.946575e-001 9.494675e-001 8.929980e-001 -1.814436e-001 4.081641e-001 2.070984e-001 1.929034e-001 -1.444351e-001 -3.073042e-001 2.965101e-001 -4.690143e-001 -3.794383e-001 -1.587395e+000 -5.528123e-001 -9.599264e-001 -8.062872e-001 -4.178714e-001 -6.682242e-001 3.406093e-001 6.636143e-001 6.189110e-001 8.212252e-002 -5.469797e-002 1.833444e+000
<VARIANCE> 39
 1.413692e+001 1.411776e+001 1.586184e+001 2.810191e+001 2.626847e+001 3.200574e+001 2.860102e+001 3.223645e+001 2.790137e+001 2.162434e+001 2.210426e+001 1.465445e+001 3.294066e+001 1.043570e+000 1.982894e+000 1.299004e+000 2.063203e+000 1.737141e+000 2.002203e+000 1.872372e+000 2.280549e+000 2.619484e+000 1.932647e+000 2.004384e+000 1.337917e+000 1.520359e+000 2.369132e-001 2.356993e-001 3.462070e-001 5.428551e-001 5.417159e-001 4.717867e-001 5.583296e-001 6.028229e-001 5.709769e-001 5.031714e-001 5.185208e-001 3.391047e-001 2.456720e-001
<GCONST> 1.083509e+002
<MIXTURE> 2 4.478901e-002
<MEAN> 39
 -3.876729e+000 1.907114e+000 8.722351e+000 -2.738862e+000 -3.320394e+000 1.468590e+000 -8.631155e+000 -9.463034e+000 -6.753742e+000 -3.671418e+000 -2.949284e+000 -4.207428e+000 5.541325e+001 -1.120491e+000 -3.523291e+000 1.098745e+000 -1.785558e+000 1.132127e+000 -1.272505e+000 -1.916485e-001 -4.246785e-001 9.303966e-001 7.871448e-001 7.694612e-001 6.499357e-001 3.367359e+000 1.891667e-001 -9.266443e-001 3.675129e-002 -9.176030e-001 -6.897299e-001 2.563040e-001 -1.341784e-001 3.407763e-001 7.388318e-002 -1.871674e-002 5.525925e-001 2.859859e-002 9.831980e-001
<VARIANCE> 39
 5.188745e+001 1.128930e+002 1.341785e+002 1.489070e+002 1.233462e+002 1.594444e+002 1.214933e+002 6.805909e+001 1.272861e+002 6.759591e+001 7.313416e+001 5.396196e+001 7.674046e+001 4.693764e+000 1.597679e+001 1.117081e+001 1.458768e+001 1.488955e+001 1.480729e+001 1.297715e+001 6.453357e+000 1.138892e+001 7.461194e+000 9.522372e+000 4.291452e+000 7.272703e+000 8.158768e-001 2.700852e+000 1.674672e+000 2.108560e+000 2.830969e+000 2.494101e+000 2.202665e+000 1.265801e+000 2.090608e+000 1.199813e+000 1.510312e+000 8.946316e-001 1.289303e+000
<GCONST> 1.667206e+002
<MIXTURE> 3 2.036371e-001
<MEAN> 39
 1.616255e-001 1.080819e+001 7.449457e+000 4.549161e+000 1.608492e+000 -1.330023e+000 -2.289538e+000 -6.445163e+000 -5.090834e+000 -3.860056e+000 -8.404482e-001 -3.286145e+000 5.509481e+001 -1.674082e+000 -3.127944e+000 -1.248656e+000 -1.233438e+000 -7.771074e-001 -9.667501e-001 -6.465437e-001 7.359059e-001 1.535354e+000 8.497718e-001 5.712545e-002 4.022645e-001 3.765332e+000 3.493393e-001 -1.220074e+000 -5.127552e-001 -1.199985e+000 -1.147251e+000 -2.186980e-001 -6.099263e-001 2.045947e-001 1.840293e-001 5.466674e-001 1.587046e-001 -1.463899e-001 1.527546e+000
<VARIANCE> 39
 1.338643e+001 1.255315e+001 1.285887e+001 2.159092e+001 2.292564e+001 2.357527e+001 2.647495e+001 2.438018e+001 2.567672e+001 2.088260e+001 1.898917e+001 1.487630e+001 3.870862e+001 1.860632e+000 1.737501e+000 2.279234e+000 3.706636e+000 3.201567e+000 3.616872e+000 4.109307e+000 3.574055e+000 3.369049e+000 3.408552e+000 2.755344e+000 2.241093e+000 1.963796e+000 2.079379e-001 3.414874e-001 5.795441e-001 5.944192e-001 5.598762e-001 6.772924e-001 5.469555e-001 6.492144e-001 7.397514e-001 6.129916e-001 6.428761e-001 4.344156e-001 2.588364e-001
<GCONST> 1.150205e+002
<MIXTURE> 4 8.802941e-002
<MEAN> 39
 4.502831e+000 9.894934e+000 2.954404e-001 -2.151572e+000 -2.221339e+000 8.658023e-001 -4.943695e+000 -7.284049e+000 -5.322984e+000 -2.925541e+000 -2.685903e+000 -5.673460e+000 5.700779e+001 -2.627240e+000 -2.433896e+000 1.056622e+000 1.496879e+000 -1.753226e-001 -2.555582e+000 -1.155670e+000 2.278960e-001 1.001729e+000 1.852823e-001 1.121111e-001 7.750626e-001 2.762746e+000 -3.891575e-001 -1.219395e+000 4.234914e-001 -3.212713e-001 -1.106226e+000 -7.210793e-001 -8.522291e-001 1.394553e-001 -2.093585e-001 2.507039e-001 2.065088e-001 1.276106e-001 1.544503e+000
<VARIANCE> 39
 7.541207e+000 2.069044e+001 2.839444e+001 3.108267e+001 3.569917e+001 3.304760e+001 3.685083e+001 3.613294e+001 3.571342e+001 3.379209e+001 3.750944e+001 2.943722e+001 3.988815e+001 1.540521e+000 2.858609e+000 2.752293e+000 3.033610e+000 5.036098e+000 4.182439e+000 5.125273e+000 3.626119e+000 4.172167e+000 3.555875e+000 3.402375e+000 2.979590e+000 1.997953e+000 2.267827e-001 3.076717e-001 7.399299e-001 4.829302e-001 7.577441e-001 7.010580e-001 5.917566e-001 7.584609e-001 9.721494e-001 8.100877e-001 6.399377e-001 6.077734e-001 2.122594e-001
<GCONST> 1.229875e+002
<MIXTURE> 5 1.678124e-001
<MEAN> 39
 5.986094e-001 8.451768e+000 4.934011e+000 6.452989e-002 -2.932540e+000 -7.937340e+000 -7.607451e+000 -8.392368e+000 -4.731501e+000 -6.305511e+000 -8.312679e+000 -9.773006e+000 5.770877e+001 -2.184913e+000 -2.231867e+000 -4.396390e-001 -8.091086e-001 -7.918690e-001 -4.529688e-001 4.821052e-001 1.064830e+000 5.558644e-001 2.516536e-001 1.240816e+000 1.882382e+000 3.456010e+000 1.479094e-002 -1.251272e+000 -4.224478e-001 -1.313778e+000 -9.479033e-001 -2.358945e-001 -2.123810e-001 4.458441e-001 -2.089831e-001 7.651610e-001 2.206945e-001 7.348820e-001 1.608289e+000
<VARIANCE> 39
 1.398035e+001 1.587653e+001 1.739642e+001 1.534964e+001 2.273831e+001 2.103010e+001 2.510043e+001 2.545584e+001 2.508447e+001 3.028625e+001 2.408803e+001 1.772101e+001 2.792490e+001 1.566128e+000 2.182220e+000 2.977197e+000 3.764440e+000 4.216178e+000 3.705944e+000 2.788762e+000 3.730513e+000 3.329187e+000 3.579881e+000 2.891650e+000 2.381229e+000 2.307209e+000 3.319427e-001 4.144630e-001 6.522071e-001 5.355328e-001 7.377942e-001 6.976837e-001 5.565186e-001 8.153837e-001 7.752086e-001 6.399009e-001 6.795354e-001 4.719079e-001 4.076504e-001
<GCONST> 1.180705e+002
<MIXTURE> 6 2.158059e-001
<MEAN> 39
 2.104520e-001 7.484811e+000 4.258358e+000 2.778896e+000 -1.739815e+000 -2.300526e+000 -4.789479e+000 -5.267099e+000 -3.336591e+000 -1.328063e+000 -7.715476e-001 -4.886616e+000 5.791161e+001 -1.135192e+000 -9.000163e-001 -1.491709e-001 -2.063194e-001 3.417368e-002 -4.507887e-001 -3.532131e-002 2.521092e-001 4.900362e-001 2.132732e-002 -1.451053e-001 5.196209e-001 1.091734e+000 -4.294238e-002 -1.073070e+000 -6.676406e-002 -7.611995e-001 -9.221978e-001 -2.202110e-001 -6.032113e-001 8.048128e-002 -1.088645e-002 1.388758e-001 1.707477e-001 1.173858e-001 1.374526e+000
<VARIANCE> 39
 2.163729e+001 2.434894e+001 2.380157e+001 3.247472e+001 2.895532e+001 3.261279e+001 3.738701e+001 3.009929e+001 3.153300e+001 2.489202e+001 2.957843e+001 2.102756e+001 4.508160e+001 1.219521e+000 1.256509e+000 1.496726e+000 1.985738e+000 1.969545e+000 2.146663e+000 2.378633e+000 2.083063e+000 2.171625e+000 1.988236e+000 1.988762e+000 1.518453e+000 1.119050e+000 2.377065e-001 3.621969e-001 5.798932e-001 5.380086e-001 5.601273e-001 5.902740e-001 5.961028e-001 6.295130e-001 6.067304e-001 5.689248e-001 5.133920e-001 4.132233e-001 3.015866e-001
<GCONST> 1.130993e+002
<MIXTURE> 7 7.050133e-002
<MEAN> 39
 6.445721e+000 1.241763e+001 -2.801097e+000 -6.852117e+000 -1.153699e+001 3.879428e-001 -5.883851e+000 -6.589651e+000 -9.633666e+000 -6.587728e+000 -4.464927e+000 -5.300352e+000 5.380835e+001 -7.289413e-001 2.160355e-001 2.406863e-001 7.908413e-001 3.525186e-001 -4.863055e-001 1.677184e-001 -2.175732e-002 4.330360e-001 -2.515210e-001 -1.594344e-001 5.940164e-001 -4.899279e-001 -4.034653e-001 -1.523438e+000 1.872313e-001 -2.993686e-002 2.697769e-001 -3.228779e-001 -8.483365e-001 -3.200008e-001 4.747959e-001 4.268399e-001 2.433843e-001 2.258936e-001 1.162962e+000
<VARIANCE> 39
 1.310993e+001 3.649824e+001 4.180757e+001 5.513723e+001 3.734023e+001 1.131380e+002 4.541215e+001 3.904985e+001 3.743809e+001 3.920324e+001 3.601492e+001 2.600671e+001 1.628515e+001 1.088582e+000 6.420051e+000 2.847830e+000 3.932567e+000 4.630522e+000 4.047474e+000 4.361061e+000 3.837566e+000 4.032874e+000 3.688946e+000 2.932074e+000 2.483960e+000 1.929537e+000 4.166200e-001 7.368951e-001 9.475923e-001 1.020463e+000 9.147516e-001 1.179038e+000 9.168215e-001 7.817416e-001 8.080158e-001 8.749344e-001 6.783394e-001 5.805233e-001 3.307289e-001
<GCONST> 1.299381e+002
<MIXTURE> 8 4.874365e-002
<MEAN> 39
 -1.478700e+000 1.049775e+001 2.264566e+000 8.012241e+000 -3.193103e+000 -5.961730e-001 -9.404511e+000 -1.010502e+001 -1.146567e+001 -1.377396e+000 6.888705e+000 -8.623071e-001 4.752084e+001 -1.346391e+000 -1.389794e+000 -1.726180e-001 -5.662640e-001 4.764833e-001 -9.238669e-001 1.521434e-001 2.128980e-001 1.821173e+000 4.662799e-001 -1.568932e+000 -1.016020e-001 1.513617e+000 -1.855423e-001 -1.469124e+000 -1.174172e-001 -1.005634e+000 -6.366643e-001 -4.263568e-001 -1.397957e-001 5.585114e-001 1.051024e+000 -2.906218e-001 -2.747006e-001 -3.371338e-001 1.703229e+000
<VARIANCE> 39
 2.311159e+001 2.198977e+001 2.789498e+001 3.272893e+001 3.889185e+001 3.695223e+001 4.997252e+001 3.253625e+001 4.357261e+001 4.056394e+001 4.820098e+001 2.943303e+001 7.171503e+001 1.591130e+000 6.176457e+000 2.068488e+000 4.458984e+000 3.649985e+000 3.856670e+000 5.006517e+000 3.318321e+000 5.416396e+000 3.931704e+000 3.788906e+000 2.810607e+000 5.580117e+000 3.128941e-001 4.396249e-001 4.347413e-001 4.461053e-001 7.120824e-001 6.860185e-001 8.820884e-001 7.300465e-001 8.424667e-001 8.752076e-001 9.794611e-001 6.734482e-001 4.387390e-001
<GCONST> 1.291763e+002
<STATE> 4
<NUMMIXES> 8
<MIXTURE> 1 1.166122e-001
<MEAN> 39
 -6.503714e+000 4.239434e+000 5.791106e+000 3.891316e+000 1.933525e+000 -1.859267e+000 -3.874148e-001 -1.667566e+000 3.042497e-001 -1.727347e+000 -1.345939e+000 -2.719292e+000 5.752156e+001 -7.357344e-001 -3.220866e+000 -8.247939e-001 -1.795924e+000 -1.690128e+000 -1.326339e+000 -9.968377e-001 4.162008e-001 7.097248e-001 5.525470e-001 2.971743e-001 5.159108e-001 4.355151e+000 9.814087e-001 -3.051024e-001 -6.433922e-002 -8.735071e-001 -1.144354e+000 -2.118324e-001 -8.388886e-001 -2.990408e-001 -5.443185e-001 1.667398e-001 1.209993e-001 -1.538771e-001 7.774193e-001
<VARIANCE> 39
 1.387543e+001 1.692395e+001 1.903900e+001 2.078894e+001 2.142558e+001 2.166212e+001 2.389273e+001 2.220373e+001 2.149756e+001 2.303117e+001 2.026533e+001 1.780570e+001 5.971392e+001 2.286993e+000 2.338266e+000 4.263138e+000 4.371778e+000 4.226668e+000 4.279844e+000 4.420436e+000 3.862435e+000 3.881026e+000 3.543780e+000 3.000338e+000 2.620824e+000 2.769236e+000 2.766283e-001 5.082474e-001 7.244211e-001 6.901323e-001 6.196238e-001 7.648596e-001 6.364112e-001 7.322572e-001 7.685745e-001 7.360451e-001 9.686329e-001 4.515168e-001 4.278482e-001
<GCONST> 1.213395e+002
<MIXTURE> 2 1.152654e-001
<MEAN> 39
 1.305192e+000 -3.859569e+000 6.997063e-001 -4.640937e+000 -9.612622e+000 -2.514431e+000 -1.386354e+001 -7.817435e+000 2.795040e-001 5.487101e+000 2.682608e+000 -5.224719e+000 7.114583e+001 1.050789e+000 -3.316035e+000 -2.991628e-001 -2.243348e+000 -3.073305e+000 -9.767153e-003 -2.961044e+000 5.822185e-001 1.693585e+000 1.807083e+000 2.594952e-001 -1.075240e+000 3.093079e+000 2.555991e-002 6.998177e-001 4.135711e-001 5.142112e-001 3.300409e-001 2.204484e-001 6.606562e-001 3.696242e-001 -2.949110e-001 -7.334835e-001 -5.847730e-001 2.621353e-003 -9.006264e-001
<VARIANCE> 39
 1.703662e+001 2.741866e+001 2.550668e+001 4.890732e+001 4.118280e+001 5.190990e+001 4.639701e+001 4.191439e+001 3.610661e+001 2.967506e+001 3.770962e+001 2.355046e+001 6.459241e+001 1.873854e+000 3.042844e+000 2.914430e+000 4.866106e+000 3.532382e+000 5.111404e+000 4.500608e+000 6.034345e+000 4.402950e+000 4.180468e+000 4.201457e+000 3.294802e+000 1.984886e+000 2.544187e-001 3.955216e-001 3.129736e-001 5.192380e-001 6.215602e-001 5.353158e-001 6.807389e-001 6.265056e-001 5.812916e-001 5.102183e-001 4.983995e-001 4.972259e-001 3.594898e-001
<GCONST> 1.252414e+002
<MIXTURE> 3 1.584258e-001
<MEAN> 39
 -8.470751e+000 -2.449018e+000 1.760883e+000 -2.401927e-001 -2.153668e-001 -4.818124e+000 -2.073861e+000 -2.954618e+000 1.330100e+000 -1.228329e+000 -9.936438e-001 -2.141948e+000 6.950584e+001 6.842055e-001 -2.622384e+000 -1.217468e+000 -2.983494e+000 -2.496958e+000 -8.035171e-001 -1.649125e+000 1.289752e-001 -7.558113e-002 9.462585e-001 4.716023e-001 3.553481e-001 4.372204e+000 1.269524e+000 8.099718e-001 2.871031e-001 -5.845809e-001 -8.201683e-001 2.555420e-001 -5.345616e-001 -3.449216e-001 -8.038126e-001 -3.842896e-002 -5.374372e-002 -2.856631e-001 -8.102357e-001
<VARIANCE> 39
 1.568737e+001 1.551302e+001 2.165580e+001 2.340022e+001 1.897723e+001 2.104876e+001 2.797842e+001 2.530421e+001 2.651084e+001 2.513330e+001 2.038044e+001 1.861345e+001 3.758447e+001 2.946752e+000 4.132607e+000 5.623885e+000 5.881956e+000 4.566495e+000 5.622669e+000 4.416573e+000 4.754137e+000 6.194570e+000 5.360897e+000 4.798210e+000 3.156744e+000 3.160785e+000 2.879534e-001 6.543443e-001 5.589572e-001 9.662809e-001 6.576420e-001 8.000408e-001 7.655448e-001 7.955577e-001 8.840792e-001 7.557880e-001 1.020183e+000 5.269480e-001 4.187786e-001
<GCONST> 1.263615e+002
<MIXTURE> 4 9.820803e-002
<MEAN> 39
 -3.270468e+000 -4.126666e+000 6.192225e+000 4.334724e+000 -8.031197e+000 -1.146789e+001 -1.459402e+001 -4.629178e+000 3.829848e-001 -2.711858e+000 -7.935588e-001 -3.065547e+000 6.966199e+001 -1.919564e-001 -2.683556e+000 2.620930e+000 -4.990921e-001 -4.241202e+000 -1.615732e+000 -2.115903e+000 7.738417e-001 -6.923243e-001 -8.617531e-001 1.017642e+000 2.271891e-001 3.372021e+000 3.155455e-001 1.208653e+000 3.365576e-001 -6.417973e-001 -2.484590e-001 1.094488e+000 7.924078e-001 -1.046173e-001 -8.914968e-001 -4.692215e-002 2.053789e-001 -7.783191e-002 -9.638225e-001
<VARIANCE> 39
 3.086021e+001 3.541075e+001 6.315800e+001 4.823082e+001 7.035802e+001 3.679346e+001 5.249454e+001 4.158091e+001 3.908749e+001 4.602037e+001 3.743893e+001 2.614163e+001 5.304534e+001 2.837520e+000 4.896396e+000 5.277937e+000 4.625257e+000 5.871188e+000 5.527998e+000 5.330256e+000 5.959318e+000 6.757130e+000 4.734226e+000 4.625898e+000 3.473103e+000 3.429459e+000 3.942314e-001 5.585852e-001 6.774735e-001 9.567003e-001 1.311321e+000 7.172648e-001 1.070590e+000 7.560314e-001 7.354130e-001 8.051298e-001 6.302918e-001 5.539556e-001 4.801793e-001
<GCONST> 1.363047e+002
<MIXTURE> 5 1.266685e-001
<MEAN> 39
 -6.773582e+000 1.945607e-001 3.181673e+000 -1.038925e+000 -4.558522e+000 -9.204918e+000 -5.779537e+000 -5.311812e+000 -2.687619e+000 -5.716692e+000 -4.497709e+000 -4.147622e+000 7.145865e+001 -7.988541e-001 -3.503563e+000 -4.561692e-001 -3.064524e+000 -3.113826e+000 -1.600552e+000 -9.316097e-001 1.450566e+000 -4.563801e-001 1.736173e+000 5.461872e-001 2.182206e+000 4.887927e+000 9.333395e-001 1.457346e-001 6.236224e-002 -8.880805e-001 -4.718310e-001 2.110607e-001 -3.810492e-001 -8.580622e-002 -5.607775e-001 6.495972e-001 -2.849469e-001 -7.173564e-002 -4.366671e-001
<VARIANCE> 39
 9.423236e+000 1.567284e+001 2.269014e+001 2.410676e+001 2.187356e+001 2.783704e+001 2.326769e+001 2.162775e+001 2.590017e+001 2.109527e+001 1.929337e+001 1.805500e+001 3.124952e+001 2.105091e+000 2.683287e+000 6.665961e+000 4.737852e+000 5.482499e+000 6.220274e+000 3.793616e+000 5.842383e+000 6.534110e+000 4.224954e+000 4.357298e+000 3.177330e+000 1.832429e+000 2.021159e-001 5.116641e-001 5.021406e-001 7.808487e-001 6.748918e-001 7.191410e-001 6.938394e-001 6.812838e-001 7.892492e-001 6.808888e-001 6.358505e-001 4.878341e-001 3.418651e-001
<GCONST> 1.220290e+002
<MIXTURE> 6 1.852436e-001
<MEAN> 39
 -1.729082e+000 4.545076e+000 1.884238e+000 1.430103e+000 -3.469952e+000 -4.120464e+000 -5.830149e+000 -6.576303e+000 -4.237551e+000 -2.540029e+000 -2.584206e+000 -2.984457e+000 6.234549e+001 -2.955351e-001 -2.800069e+000 -3.483574e-001 -1.954820e+000 -2.431822e+000 -4.023330e-001 -1.736079e+000 -1.174177e-001 4.572928e-001 7.881547e-001 9.891389e-001 2.740082e-001 3.410149e+000 3.842991e-001 -3.342315e-001 2.212479e-001 -5.915899e-001 -8.567324e-001 4.136872e-001 -4.664091e-001 8.670346e-002 -1.452632e-001 1.394660e-001 2.758114e-001 -3.165058e-001 3.879388e-001
<VARIANCE> 39
 2.029908e+001 2.435472e+001 3.164504e+001 4.816715e+001 3.294234e+001 3.583075e+001 3.581242e+001 2.809330e+001 2.781745e+001 2.729694e+001 3.306397e+001 2.236968e+001 5.048207e+001 2.625291e+000 4.172232e+000 6.859459e+000 7.004589e+000 5.643971e+000 6.428755e+000 5.603194e+000 5.395188e+000 5.857088e+000 5.815987e+000 4.035971e+000 3.792004e+000 2.533679e+000 2.830116e-001 4.223304e-001 5.332422e-001 5.727628e-001 7.153017e-001 6.547072e-001 6.376922e-001 6.433938e-001 6.858888e-001 5.562770e-001 6.343729e-001 4.725039e-001 2.546606e-001
<GCONST> 1.283135e+002
<MIXTURE> 7 1.118585e-001
<MEAN> 39
 -4.814533e-001 -4.580973e+000 -3.435047e+000 -1.271247e+001 -7.464059e+000 -5.616000e+000 -8.223082e+000 -3.183248e+000 -7.443240e-001 1.510786e+000 -1.431438e+000 -4.412167e+000 7.492854e+001 7.608680e-001 -3.915139e+000 -2.291959e+000 -4.401955e+000 -1.964058e+000 3.704480e-001 -8.487554e-001 1.809211e+000 4.870236e-001 1.678711e+000 -5.414886e-001 -8.210868e-002 4.238464e+000 2.433034e-001 7.067687e-001 5.253093e-001 7.968285e-001 3.766159e-001 2.915102e-001 2.362030e-001 -1.933204e-001 -4.648968e-001 -5.515861e-001 -4.984279e-001 -1.934368e-001 -1.217920e+000
<VARIANCE> 39
 1.558424e+001 4.498561e+001 4.141874e+001 4.719973e+001 3.057125e+001 7.445110e+001 5.324813e+001 3.885129e+001 3.662256e+001 3.633795e+001 7.010966e+001 3.676418e+001 2.885555e+001 2.287502e+000 3.662973e+000 3.778417e+000 4.909853e+000 4.618786e+000 7.082416e+000 4.915916e+000 5.780251e+000 5.453284e+000 5.522335e+000 7.142942e+000 6.121771e+000 2.424649e+000 2.673225e-001 5.502155e-001 3.800325e-001 7.109302e-001 5.679534e-001 5.911336e-001 6.806948e-001 6.147409e-001 6.020008e-001 7.009878e-001 6.784288e-001 6.075033e-001 3.802565e-001
<GCONST> 1.316288e+002
<MIXTURE> 8 8.768664e-002
<MEAN> 39
 -3.158652e+000 -4.180165e+000 1.014878e+001 -3.194001e+000 -1.366218e+001 -1.639900e+001 -9.153149e+000 -1.095318e+000 -6.721151e+000 -1.280334e+000 -5.057397e-001 -7.512931e-001 7.480819e+001 1.738424e-001 -2.323638e+000 2.323642e+000 -3.113122e+000 -4.829890e+000 -1.606600e+000 -9.766936e-001 7.566018e-001 -2.913721e+000 1.979452e+000 5.234172e-001 1.251410e+000 3.196346e+000 3.152374e-001 1.148728e+000 -1.590912e-001 -1.227534e-001 7.180926e-001 1.178693e+000 2.060960e-001 -7.098808e-001 -6.750351e-002 1.077701e-001 -4.673768e-001 -6.264448e-001 -1.403777e+000
<VARIANCE> 39
 1.087280e+001 1.908724e+001 3.518776e+001 4.318974e+001 3.313119e+001 2.325294e+001 3.779815e+001 3.126749e+001 4.666099e+001 2.664248e+001 2.840758e+001 1.957816e+001 3.177469e+001 2.556666e+000 3.023393e+000 4.770315e+000 4.071156e+000 3.684185e+000 5.000977e+000 4.330609e+000 6.553501e+000 6.262210e+000 4.301258e+000 4.301800e+000 3.185684e+000 2.705330e+000 2.309862e-001 3.141185e-001 3.651127e-001 6.783206e-001 5.165343e-001 4.773498e-001 7.362633e-001 5.775819e-001 6.933343e-001 6.166492e-001 5.181128e-001 4.664866e-001 2.406553e-001
<GCONST> 1.231744e+002
<TRANSP> 5
 0.000000e+000 1.000000e+000 0.000000e+000 0.000000e+000 0.000000e+000
 0.000000e+000 6.951079e-001 3.048921e-001 0.000000e+000 0.000000e+000
 0.000000e+000 0.000000e+000 5.282277e-001 4.717723e-001 0.000000e+000
 0.000000e+000 0.000000e+000 0.000000e+000 5.670532e-001 4.329468e-001
 0.000000e+000 0.000000e+000 0.000000e+000 0.000000e+000 0.000000e+000
<ENDHMM>
~h "d"
<BEGINHMM>
<NUMSTATES> 5
<STATE> 2
<NUMMIXES> 8
<MIXTURE> 1 1.139675e-001
<MEAN> 39
 -2.470887e+000 6.714504e+000 7.248732e+000 4.518309e+000 -2.535454e+000 -5.576244e+000 -5.690631e+000 -2.257941e+000 1.624190e+000 3.754895e-001 -1.309665e+000 -2.793642e+000 5.860001e+001 7.686532e-002 1.222772e+000 -2.683452e-002 8.106367e-001 1.252190e+000 7.525330e-001 1.017905e+000 2.561932e-001 1.212871e-001 -1.049783e-002 -2.094480e-001 -1.463557e-001 -2.053688e+000 -2.149509e-001 -6.878429e-001 -1.386591e-001 -4.915148e-001 -5.221983e-001 -6.468179e-003 -9.791254e-002 -6.767692e-002 -3.161170e-001 -1.241920e-001 3.041140e-002 5.184356e-002 9.377682e-001
<VARIANCE> 39
 2.731286e+001 2.063738e+001 3.805475e+001 3.036236e+001 3.743608e+001 3.793482e+001 3.568606e+001 3.307217e+001 3.263865e+001 2.815496e+001 2.479494e+001 2.349591e+001 5.666752e+001 1.417834e+000 2.269065e+000 1.975630e+000 2.219786e+000 2.831414e+000 2.424746e+000 2.624163e+000 2.448378e+000 2.665947e+000 2.143920e+000 1.806427e+000 1.787225e+000 2.373369e+000 1.761691e-001 2.947192e-001 2.314392e-001 3.192359e-001 4.105155e-001 4.364922e-001 4.501786e-001 4.415467e-001 4.427618e-001 3.930135e-001 3.543895e-001 3.289612e-001 3.090233e-001
<GCONST> 1.128664e+002
<MIXTURE> 2 1.329477e-001
<MEAN> 39
 4.095541e+000 -2.058791e+000 -2.932706e-001 2.757722e+000 -7.209292e+000 -2.403084e+000 -1.247744e+001 -1.179081e+001 2.670209e+000 3.559908e+000 -2.237928e+000 -6.500539e+000 6.518391e+001 -2.558299e-001 2.706450e+000 8.832855e-001 2.533346e+000 2.774649e+000 -1.098912e+000 1.573211e+000 -1.903334e-002 2.279500e-003 -6.518018e-002 -1.630264e+000 -5.042419e-001 -3.244147e+000 -4.123139e-001 -3.770616e-002 1.040410e-001 -1.001623e+000 -1.387520e-001 3.106271e-001 3.857244e-001 6.867438e-001 -5.905629e-001 -4.554835e-001 3.465951e-001 2.931927e-001 4.150842e-001
<VARIANCE> 39
 1.148636e+001 3.607651e+001 4.057034e+001 4.899879e+001 7.314728e+001 4.810971e+001 4.669584e+001 4.883582e+001 4.615453e+001 3.691870e+001 5.024591e+001 2.985833e+001 4.303273e+001 1.205541e+000 2.491139e+000 2.427382e+000 4.189867e+000 3.807795e+000 3.537965e+000 4.022494e+000 4.853656e+000 4.291246e+000 4.604289e+000 4.215496e+000 3.393469e+000 1.302718e+000 1.534436e-001 5.372357e-001 3.858720e-001 5.643368e-001 1.067073e+000 6.396955e-001 7.317956e-001 7.243952e-001 7.766437e-001 6.345771e-001 6.005357e-001 5.341696e-001 4.415435e-001
<GCONST> 1.269143e+002
<MIXTURE> 3 1.614026e-001
<MEAN> 39
 -6.519695e-001 9.853992e+000 7.772349e+000 2.852700e+000 -6.418853e+000 -5.796409e+000 -3.753568e+000 -3.662131e+000 -3.167207e+000 -3.603806e+000 -5.418978e+000 -5.642843e+000 5.753584e+001 2.066916e-001 2.698055e-001 -5.312613e-002 3.214521e-001 9.619433e-001 2.918734e-001 2.981079e-001 2.591201e-001 3.174733e-001 -1.230251e-001 -1.285943e-001 -5.542785e-002 -8.499315e-001 -8.148268e-001 -1.056163e+000 -7.858531e-002 -4.750687e-001 -1.140119e-001 2.354042e-002 -2.949621e-001 -1.336646e-001 5.569578e-003 2.020846e-001 3.994123e-001 4.575901e-001 1.218636e+000
<VARIANCE> 39
 1.906169e+001 2.423061e+001 2.925016e+001 3.111469e+001 4.608596e+001 3.391720e+001 3.004278e+001 2.707585e+001 2.862812e+001 3.091157e+001 2.654214e+001 2.062343e+001 4.501245e+001 1.903254e+000 1.833810e+000 1.821699e+000 1.540095e+000 3.482681e+000 2.327076e+000 2.222038e+000 2.214606e+000 2.182732e+000 1.805694e+000 1.774181e+000 1.671507e+000 1.865080e+000 3.580509e-001 4.708387e-001 4.854758e-001 4.636156e-001 7.289811e-001 6.186932e-001 6.911231e-001 5.996869e-001 6.352152e-001 4.815049e-001 4.269466e-001 3.804562e-001 6.795946e-001
<GCONST> 1.162917e+002
<MIXTURE> 4 1.118684e-001
<MEAN> 39
 -5.307811e+000 6.354765e-001 6.373199e+000 -1.193306e+000 -7.798615e+000 -7.573232e+000 -8.673367e+000 -5.238985e+000 -4.039286e-001 -3.730001e+000 -2.537377e+000 -2.386479e+000 6.491332e+001 7.350760e-001 1.159890e+000 6.067805e-001 1.455668e+000 2.428167e-001 3.132075e-002 3.450717e-001 -1.462461e-001 7.677970e-002 -2.786037e-001 -3.451770e-001 -4.786489e-001 -1.794616e+000 2.553217e-002 -9.044537e-004 -2.373766e-001 -2.250663e-001 1.842961e-001 3.094629e-001 1.856598e-001 1.845255e-001 -1.710010e-001 2.427232e-001 -5.544571e-002 -1.221741e-001 -7.197110e-002
<VARIANCE> 39
 5.211707e+001 7.236977e+001 6.958268e+001 7.510237e+001 8.015913e+001 6.504733e+001 7.464711e+001 6.021581e+001 5.427375e+001 4.811217e+001 5.159216e+001 4.230091e+001 8.472025e+001 3.483934e+000 4.359709e+000 3.278913e+000 4.220434e+000 5.339930e+000 4.694676e+000 5.054655e+000 4.808170e+000 4.274113e+000 4.862478e+000 4.347199e+000 3.087648e+000 4.971645e+000 5.939461e-001 8.402194e-001 6.156537e-001 9.646258e-001 1.224403e+000 1.017410e+000 1.091507e+000 9.232086e-001 9.169912e-001 7.874845e-001 7.440155e-001 6.456429e-001 9.399409e-001
<GCONST> 1.423244e+002
<MIXTURE> 5 1.449929e-001
<MEAN> 39
 1.051148e+000 3.432476e+000 5.667516e+000 -2.412714e+000 -7.490510e+000 -9.698833e+000 -7.958164e+000 -2.999078e+000 -3.338560e+000 -8.032542e+000 -1.090004e+001 -5.835383e+000 6.224484e+001 2.002029e-001 2.540495e+000 7.087253e-001 2.485413e+000 1.797498e+000 7.981148e-001 1.456798e+000 -7.208141e-001 2.879927e-001 -1.215303e+000 1.393044e-001 -1.391230e+000 -3.318316e+000 -7.933511e-001 -1.150574e+000 -3.458331e-001 -1.000295e+000 -2.419780e-001 1.570758e-001 9.822285e-003 6.845719e-002 -1.741844e-001 6.488745e-001 5.137054e-001 4.562368e-001 1.549242e+000
<VARIANCE> 39
 9.204038e+000 2.819548e+001 3.570086e+001 2.538577e+001 4.105980e+001 3.894792e+001 4.053114e+001 3.267486e+001 4.021544e+001 3.636385e+001 3.131497e+001 3.327756e+001 2.700626e+001 1.464460e+000 2.578770e+000 2.479311e+000 3.372708e+000 3.569673e+000 3.581740e+000 3.440856e+000 4.147479e+000 3.574089e+000 2.834661e+000 3.039362e+000 2.531063e+000 2.029712e+000 2.444662e-001 4.849536e-001 3.526470e-001 6.408902e-001 5.699746e-001 5.966213e-001 6.581824e-001 6.692570e-001 6.110845e-001 5.422990e-001 5.648748e-001 4.960564e-001 4.829863e-001
<GCONST> 1.212445e+002
<MIXTURE> 6 1.243651e-001
<MEAN> 39
 4.399296e+000 3.054527e+000 -1.384969e+000 2.298465e+000 -1.352388e+000 -2.321729e+000 -1.280995e+001 -1.191925e+001 1.287979e+000 2.371521e+000 -5.090838e+000 -9.008041e+000 6.067264e+001 -1.342506e+000 3.710796e-001 1.595586e+000 1.109971e+000 7.309107e-001 -7.754260e-001 1.239395e+000 1.360169e+000 2.254805e-001 -1.087754e+000 -8.285916e-001 4.534307e-001 -8.305355e-001 -5.792645e-001 -1.035373e+000 2.929633e-001 -1.261315e+000 -1.386593e+000 8.418112e-002 -1.339878e-001 5.434508e-001 -5.178342e-001 -5.840647e-001 8.265941e-001 8.560590e-001 1.616926e+000
<VARIANCE> 39
 1.233994e+001 2.598167e+001 3.609506e+001 5.025889e+001 5.533300e+001 4.539514e+001 4.813877e+001 4.809093e+001 4.497830e+001 3.864444e+001 6.026202e+001 3.339888e+001 3.791717e+001 1.569360e+000 3.744709e+000 3.583512e+000 4.533762e+000 5.352902e+000 4.724479e+000 5.776567e+000 5.230415e+000 5.684225e+000 4.067525e+000 4.822288e+000 4.003444e+000 2.990374e+000 3.931984e-001 6.204939e-001 6.218442e-001 1.125323e+000 1.408559e+000 1.133977e+000 1.039404e+000 1.049137e+000 1.221321e+000 1.149385e+000 1.078717e+000 8.420646e-001 3.654320e-001
<GCONST> 1.356477e+002
<MIXTURE> 7 1.419080e-001
<MEAN> 39
 -1.602222e+000 2.881863e+000 8.232597e+000 2.776448e+000 -5.623134e+000 -5.172354e+000 -8.278721e+000 -2.713541e+000 1.445407e+000 -1.776631e+000 -2.567705e+000 -5.856522e+000 6.032148e+001 -4.865435e-001 2.430817e+000 -1.875022e-001 1.964909e+000 2.117690e+000 7.105271e-001 1.915752e+000 -5.980486e-001 -3.167917e-001 -1.983589e-001 -5.314552e-001 7.656023e-002 -2.862370e+000 -2.435055e-001 -1.027607e+000 -2.911048e-001 -1.018935e+000 -5.594382e-001 -1.647946e-001 -1.581441e-001 1.966925e-001 -2.217109e-001 1.975626e-001 1.545743e-001 2.515213e-001 1.350998e+000
<VARIANCE> 39
 1.698153e+001 2.588040e+001 3.688329e+001 3.945165e+001 4.546251e+001 3.939859e+001 4.902814e+001 3.484289e+001 3.675092e+001 2.811936e+001 2.945209e+001 2.904861e+001 5.350619e+001 1.154680e+000 2.358084e+000 2.707172e+000 2.999018e+000 3.191835e+000 3.069193e+000 3.367023e+000 3.024614e+000 3.651922e+000 3.200972e+000 2.647814e+000 2.352010e+000 2.229815e+000 2.154321e-001 4.458758e-001 3.699396e-001 5.210386e-001 5.871108e-001 5.708756e-001 7.560472e-001 6.469953e-001 6.573976e-001 4.620720e-001 5.062975e-001 4.237397e-001 4.771403e-001
<GCONST> 1.211719e+002
<MIXTURE> 8 6.852464e-002
<MEAN> 39
 5.102659e-001 6.072086e+000 4.712800e+000 -5.667813e-001 -9.435128e+000 -4.264876e+000 -8.952826e+000 -6.720608e+000 -5.607879e+000 -5.080325e+000 -5.458549e+000 -5.525154e+000 5.701196e+001 -6.154062e-001 -1.159034e+000 8.251672e-001 4.852118e-001 -3.707480e-001 -7.623576e-001 -1.008238e-001 -3.594089e-002 2.407817e-001 -5.148576e-001 -1.568073e-001 4.040330e-001 7.516134e-001 -4.560558e-001 -1.513714e+000 1.517637e-001 -6.611762e-001 -2.271708e-001 7.885899e-002 -4.828197e-001 1.011689e-001 5.469067e-001 1.749888e-001 5.024405e-001 4.016879e-001 1.338321e+000
<VARIANCE> 39
 4.396293e+001 7.918687e+001 1.287936e+002 9.045718e+001 8.949033e+001 9.614183e+001 7.301865e+001 6.912278e+001 5.688286e+001 5.235805e+001 5.331047e+001 3.457447e+001 4.470625e+001 4.922472e+000 1.008232e+001 5.931193e+000 7.573917e+000 9.878616e+000 9.078509e+000 9.345462e+000 7.398145e+000 7.378170e+000 5.670672e+000 5.801307e+000 4.770745e+000 5.237849e+000 6.446077e-001 1.078829e+000 1.000932e+000 1.433331e+000 1.632094e+000 1.434676e+000 1.517982e+000 1.412304e+000 1.151784e+000 1.180481e+000 1.030428e+000 7.531493e-001 6.225862e-001
<GCONST> 1.524437e+002
<STATE> 3
<NUMMIXES> 8
<MIXTURE> 1 1.248297e-001
<MEAN> 39
 -2.998962e+000 9.367585e+000 8.640706e+000 5.604194e+000 -1.568515e-001 -3.336943e+000 -2.733305e+000 -2.635253e+000 -6.523191e-001 -1.501798e+000 -9.157731e-001 -2.340803e+000 5.601217e+001 -1.310785e+000 -2.042831e+000 -8.659776e-001 -7.422694e-001 2.067802e-001 4.208319e-001 7.257342e-001 -7.329854e-003 -1.395638e-001 -5.094447e-002 3.014846e-001 5.388928e-001 1.854132e+000 -1.127894e-001 -9.237829e-001 -1.515467e-001 -7.251022e-001 -1.070644e+000 -5.564104e-001 -5.800548e-001 -1.390721e-001 -1.237632e-002 1.046721e-001 9.165373e-002 4.045029e-002 1.646544e+000
<VARIANCE> 39
 2.088370e+001 1.924327e+001 2.764765e+001 2.328801e+001 2.969511e+001 2.602640e+001 2.349123e+001 2.071811e+001 2.370449e+001 1.979733e+001 1.636868e+001 1.457348e+001 3.774004e+001 2.165289e+000 4.007875e+000 2.781435e+000 3.733148e+000 3.396757e+000 3.451047e+000 3.288680e+000 3.053270e+000 3.270307e+000 2.779367e+000 1.976610e+000 2.082930e+000 3.832434e+000 3.749563e-001 4.916143e-001 5.002337e-001 5.827940e-001 7.269858e-001 5.270177e-001 6.502144e-001 5.813660e-001 5.937855e-001 4.265113e-001 3.757786e-001 3.498981e-001 3.902674e-001
<GCONST> 1.172711e+002
<MIXTURE> 2 1.394814e-001
<MEAN> 39
 -2.117286e+000 1.714281e+000 3.104560e+000 2.532120e+000 -3.346060e+000 -5.222021e+000 -6.833737e+000 -5.910378e+000 6.478646e-001 2.401195e-001 -3.512635e+000 -3.921439e+000 6.421878e+001 -6.845126e-001 -8.410668e-001 3.303747e-001 -3.064579e-001 -8.426081e-001 -5.767366e-001 -2.870080e-001 -5.816760e-002 -2.073425e-001 -4.368207e-001 1.686851e-001 7.485074e-001 1.296558e+000 2.915925e-001 -6.388873e-001 5.709739e-002 -8.164175e-001 -1.043221e+000 1.786529e-001 -9.334600e-001 9.254210e-002 -8.750213e-002 1.708572e-001 4.805121e-001 -1.641873e-001 9.174305e-001
<VARIANCE> 39
 2.822897e+001 2.995458e+001 3.153531e+001 4.806089e+001 4.049848e+001 4.325556e+001 4.834686e+001 5.038267e+001 4.019246e+001 2.829554e+001 2.955326e+001 2.482968e+001 5.128568e+001 1.663331e+000 3.149268e+000 2.286476e+000 2.784125e+000 4.194437e+000 3.753889e+000 4.677494e+000 4.596106e+000 4.344499e+000 3.091516e+000 2.696086e+000 2.977082e+000 2.388814e+000 2.454249e-001 4.454688e-001 4.077855e-001 7.544872e-001 7.496539e-001 7.907637e-001 8.957210e-001 1.036774e+000 9.739911e-001 7.110358e-001 7.619761e-001 4.923666e-001 2.410726e-001
<GCONST> 1.267024e+002
<MIXTURE> 3 1.420864e-001
<MEAN> 39
 8.999383e-001 6.939723e+000 7.112832e+000 3.951582e+000 -2.977202e+000 -6.893303e+000 -5.901973e+000 -3.809321e+000 1.558990e+000 -1.548015e+000 -5.532386e+000 -6.687702e+000 5.739672e+001 -1.780087e+000 -9.775771e-001 4.880007e-001 -4.067354e-001 7.111222e-001 9.827802e-001 1.201628e+000 2.362260e-001 -5.560206e-001 -6.400791e-001 8.500135e-001 9.625407e-001 8.345678e-001 -3.486684e-001 -1.774300e+000 -2.562876e-001 -1.444143e+000 -1.293049e+000 -1.857195e-001 -7.313587e-001 2.275750e-001 -2.567774e-001 2.096825e-001 4.747117e-001 5.681849e-001 2.325846e+000
<VARIANCE> 39
 9.837731e+000 1.929736e+001 2.446249e+001 2.876491e+001 3.386198e+001 3.266825e+001 3.155626e+001 3.244942e+001 3.111586e+001 2.895666e+001 2.283333e+001 2.235137e+001 3.002157e+001 1.196200e+000 3.605711e+000 3.008180e+000 3.807934e+000 4.646289e+000 3.841235e+000 3.577161e+000 3.591399e+000 3.414549e+000 2.884103e+000 2.761571e+000 2.551956e+000 3.050249e+000 3.892511e-001 3.757240e-001 4.663203e-001 7.347102e-001 7.881907e-001 8.388140e-001 8.293698e-001 8.565441e-001 8.044000e-001 5.926286e-001 6.786650e-001 5.138825e-001 2.777766e-001
<GCONST> 1.217261e+002
<MIXTURE> 4 1.434101e-001
<MEAN> 39
 -3.678977e+000 -7.649439e+000 5.511802e+000 4.940119e+000 -9.905129e+000 -2.004695e+000 -4.950544e+000 -6.264338e+000 1.194428e+000 -3.388453e+000 -3.261288e+000 -1.189520e+000 6.858231e+001 -3.550071e-001 -2.827599e+000 2.722288e-002 -1.821177e+000 -2.972139e+000 -1.717298e-001 -2.751278e+000 1.007774e-001 6.480491e-001 -9.549808e-003 1.301794e+000 7.861574e-001 3.781356e+000 7.205372e-001 8.188936e-001 -4.197242e-001 -1.100022e+000 4.945153e-002 -7.139377e-002 -1.270787e+000 1.661498e-002 -3.130343e-001 6.187062e-001 3.904028e-001 -7.319884e-001 -8.123606e-002
<VARIANCE> 39
 1.486993e+001 2.157083e+001 3.588419e+001 4.460534e+001 4.525665e+001 4.177578e+001 6.334522e+001 4.500137e+001 4.215610e+001 3.008235e+001 2.665444e+001 2.378569e+001 4.711385e+001 1.755342e+000 2.669649e+000 3.361884e+000 4.528289e+000 5.001657e+000 3.456167e+000 4.944407e+000 6.469833e+000 4.335585e+000 4.230010e+000 3.716112e+000 3.275392e+000 1.903141e+000 2.230238e-001 6.422875e-001 6.093590e-001 8.474805e-001 9.587172e-001 1.186545e+000 1.253443e+000 1.017232e+000 1.151924e+000 8.493889e-001 1.116093e+000 7.245669e-001 4.853921e-001
<GCONST> 1.312213e+002
<MIXTURE> 5 1.173165e-001
<MEAN> 39
 3.059235e-001 7.036062e+000 6.238023e+000 -5.669114e-001 -6.003648e+000 -8.928023e+000 -6.177105e+000 -4.301652e+000 -3.727818e+000 -9.306247e+000 -1.092296e+001 -7.152124e+000 5.934587e+001 -2.172876e+000 -1.900986e+000 2.742976e-001 -6.788548e-001 5.543137e-001 7.976702e-001 6.371078e-001 -2.355770e-001 -6.123414e-002 6.338589e-001 2.182837e+000 6.719943e-001 2.346963e+000 -4.243074e-001 -1.377951e+000 -3.640176e-001 -1.293066e+000 -1.015980e+000 -4.248848e-001 -7.040332e-001 2.655281e-001 -6.462426e-002 9.589310e-001 4.501127e-001 8.058857e-001 1.972400e+000
<VARIANCE> 39
 1.200343e+001 2.425154e+001 3.158496e+001 1.944748e+001 3.358802e+001 3.134282e+001 3.093807e+001 3.116933e+001 3.206413e+001 2.732925e+001 2.892976e+001 2.606958e+001 2.423641e+001 2.171048e+000 4.129416e+000 3.470102e+000 4.650988e+000 5.448455e+000 4.715916e+000 4.399196e+000 4.608854e+000 4.095779e+000 3.729249e+000 3.672678e+000 3.528987e+000 3.834689e+000 3.839049e-001 5.078143e-001 4.529665e-001 7.828948e-001 9.310753e-001 6.566008e-001 8.886698e-001 9.532858e-001 7.362432e-001 5.868741e-001 7.222542e-001 5.432005e-001 4.057849e-001
<GCONST> 1.260471e+002
<MIXTURE> 6 1.089640e-001
<MEAN> 39
 -4.058946e+000 8.311320e+000 5.900395e+000 5.388569e+000 -1.171537e+000 -2.492586e+000 -5.092394e+000 -4.644651e+000 -1.187360e+000 4.953558e-001 -8.957440e-001 -4.365507e+000 5.147370e+001 -2.033116e+000 -3.223336e+000 -2.468998e-001 -1.817040e+000 -3.618313e-001 -1.821127e-001 9.117255e-001 6.795025e-001 4.589515e-001 -5.366982e-001 3.135222e-001 1.576692e+000 3.411863e+000 1.301237e-001 -1.004759e+000 -1.600097e-001 -1.044324e+000 -1.099681e+000 -6.061019e-001 -7.651342e-001 -4.411374e-002 3.731720e-002 -1.352337e-001 9.704341e-002 4.532133e-002 1.912527e+000
<VARIANCE> 39
 3.763813e+001 2.401883e+001 3.480731e+001 3.527801e+001 5.366368e+001 3.667200e+001 5.836850e+001 4.297339e+001 3.966465e+001 3.665722e+001 3.238433e+001 3.679627e+001 5.496820e+001 2.702571e+000 3.904656e+000 4.253056e+000 5.431372e+000 7.990235e+000 6.016899e+000 5.682055e+000 5.651400e+000 5.331426e+000 5.140442e+000 4.640243e+000 3.527257e+000 4.159734e+000 4.363251e-001 6.160003e-001 5.618697e-001 7.496012e-001 1.093890e+000 8.404064e-001 1.054345e+000 8.812515e-001 9.557086e-001 8.261592e-001 8.494319e-001 6.146590e-001 4.699621e-001
<GCONST> 1.357734e+002
<MIXTURE> 7 1.446949e-001
<MEAN> 39
 -5.785880e+000 9.176714e-001 8.917010e+000 -1.278656e+000 -2.748536e+000 -3.281500e+000 -5.243981e+000 -3.754818e+000 -2.882687e+000 -5.567288e+000 -4.042926e+000 -4.603655e+000 6.435459e+001 -1.594450e+000 -2.391835e+000 1.097670e-001 -2.151401e+000 -1.115345e+000 -8.906025e-001 -7.061163e-001 4.482582e-001 -3.177478e-002 4.849579e-001 1.235873e+000 1.241488e+000 3.611987e+000 5.673251e-001 -6.302568e-001 -3.531942e-001 -6.935205e-001 -1.379183e+000 -7.892649e-001 -7.506508e-001 2.846410e-001 3.555029e-002 6.634458e-001 -1.554273e-001 2.016451e-001 9.859032e-001
<VARIANCE> 39
 1.840104e+001 3.247237e+001 3.235210e+001 3.816003e+001 4.249619e+001 4.472699e+001 3.983633e+001 2.789976e+001 2.997770e+001 2.201262e+001 2.674399e+001 1.985847e+001 4.400891e+001 1.988199e+000 2.862608e+000 3.601815e+000 3.411314e+000 4.314075e+000 3.625085e+000 3.935603e+000 4.364525e+000 4.346398e+000 3.504366e+000 3.099485e+000 2.610125e+000 2.741288e+000 2.728986e-001 5.495833e-001 8.316426e-001 8.650284e-001 1.063860e+000 1.020111e+000 1.101472e+000 9.230620e-001 8.737904e-001 6.588851e-001 8.647949e-001 6.534187e-001 2.742475e-001
<GCONST> 1.274217e+002
<MIXTURE> 8 7.919294e-002
<MEAN> 39
 -4.354396e+000 -8.537861e+000 7.712765e+000 -1.134312e+000 -1.133188e+001 -5.844523e+000 -1.240621e+001 -6.182753e+000 3.224615e-001 -7.535318e+000 -3.249638e+000 -1.375130e-001 6.716068e+001 -4.702972e-001 -2.232691e+000 7.856442e-001 -8.812642e-001 -1.266843e+000 -5.644836e-001 -1.554887e+000 2.421038e-001 4.306979e-001 -4.332802e-001 1.115995e+000 5.263668e-001 2.648848e+000 6.408667e-001 7.055535e-001 -6.077772e-001 -7.113156e-001 1.290582e-001 3.777154e-001 -2.829035e-001 -6.184602e-002 -4.390525e-001 6.758429e-001 2.064236e-001 -6.069721e-001 -8.321629e-002
<VARIANCE> 39
 6.836594e+001 6.824014e+001 1.450670e+002 1.215153e+002 1.202710e+002 9.683478e+001 9.506187e+001 8.983359e+001 6.927728e+001 5.490063e+001 5.373608e+001 4.837726e+001 3.907062e+001 4.597862e+000 9.186477e+000 6.786321e+000 8.187535e+000 8.144137e+000 8.070627e+000 8.578809e+000 9.200180e+000 7.455875e+000 5.899338e+000 5.665897e+000 4.615438e+000 5.223330e+000 6.419313e-001 1.360177e+000 1.092366e+000 2.011256e+000 1.770234e+000 2.136151e+000 1.857136e+000 1.445792e+000 1.425667e+000 1.233116e+000 1.242957e+000 9.999554e-001 7.075865e-001
<GCONST> 1.565105e+002
<STATE> 4
<NUMMIXES> 8
<MIXTURE> 1 8.425422e-002
<MEAN> 39
 -1.076444e+001 4.123168e-001 2.573975e+000 -2.381402e-001 -2.339358e+000 -4.578647e+000 -1.220538e+000 -1.776300e+000 1.027658e+000 -9.287892e-001 2.734304e-001 -8.734550e-003 6.573447e+001 -4.632753e-001 1.139240e-001 3.923671e-002 1.291914e-002 -4.531276e-001 -6.965500e-001 -4.258023e-001 -4.808884e-001 -3.443240e-001 -1.432083e-001 9.109523e-002 1.001670e-001 1.463222e+000 7.573710e-001 5.245536e-001 3.798887e-001 1.048020e-001 -2.031300e-001 1.755976e-002 -6.346093e-001 -2.861448e-001 -2.507488e-001 6.571154e-002 -1.836503e-001 -4.593593e-001 -4.301746e-001
<VARIANCE> 39
 4.798070e+001 3.988967e+001 4.547461e+001 4.888411e+001 3.310658e+001 3.930762e+001 4.305340e+001 3.511189e+001 3.347223e+001 3.002295e+001 2.750084e+001 2.379143e+001 7.658431e+001 5.433447e+000 3.436161e+000 4.037832e+000 3.276989e+000 4.571065e+000 4.243707e+000 5.783957e+000 4.051353e+000 3.906520e+000 3.157103e+000 2.824407e+000 2.608889e+000 4.008423e+000 6.607085e-001 7.942375e-001 7.090023e-001 7.939460e-001 7.773300e-001 8.422377e-001 8.267840e-001 7.436236e-001 6.934097e-001 6.607792e-001 6.204459e-001 4.424627e-001 9.602039e-001
<GCONST> 1.324510e+002
<MIXTURE> 2 1.342318e-001
<MEAN> 39
 -9.332606e-001 -3.045057e+000 4.033927e+000 -2.709786e-001 -9.869698e+000 -5.982592e+000 -1.553093e+001 -9.733405e+000 4.944843e+000 7.305455e-001 2.986943e-001 -3.991857e+000 7.174342e+001 1.578482e+000 -2.248926e-001 -7.674564e-001 -2.253030e+000 -1.407278e+000 8.462347e-001 -3.265851e+000 -6.167495e-001 -1.300894e-001 1.330292e+000 1.860068e+000 -1.207968e+000 1.229476e+000 2.099207e-001 7.139257e-001 -1.634591e-001 -1.575537e-001 5.585744e-001 6.403254e-001 6.606175e-001 3.703290e-001 -8.683406e-001 1.095209e-001 9.951483e-002 -1.972376e-001 -9.343848e-001
<VARIANCE> 39
 2.241065e+001 2.175165e+001 3.493959e+001 4.640451e+001 3.333298e+001 3.404348e+001 4.438723e+001 4.699453e+001 2.657809e+001 3.273899e+001 3.273544e+001 2.355124e+001 4.633502e+001 1.627851e+000 3.900367e+000 3.050332e+000 4.583240e+000 4.315677e+000 4.623765e+000 5.869027e+000 5.621954e+000 5.635029e+000 4.792184e+000 4.504006e+000 3.519812e+000 2.139722e+000 2.924559e-001 3.866578e-001 3.275482e-001 5.461956e-001 5.298870e-001 5.579610e-001 7.965714e-001 6.202446e-001 5.510974e-001 5.935435e-001 5.264910e-001 4.435725e-001 3.371105e-001
<GCONST> 1.254992e+002
<MIXTURE> 3 1.358031e-001
<MEAN> 39
 -1.173846e+001 -2.416706e+000 5.282218e+000 -4.321029e+000 1.258076e-001 -4.485329e+000 -6.984524e-001 -1.517812e+000 -2.287930e-001 -2.152604e+000 -1.907533e-001 1.396031e-001 6.950055e+001 -3.865780e-001 -2.550846e+000 -2.819582e-001 -2.210878e+000 -2.372934e+000 -1.883008e+000 -1.559318e+000 8.593377e-002 2.079775e-001 3.461852e-002 6.113703e-001 6.323751e-001 4.867234e+000 1.327897e+000 4.311891e-001 1.934911e-001 3.998298e-001 -1.264641e+000 -2.739288e-001 -1.114488e+000 -1.312905e-001 -6.115683e-002 1.794019e-001 -1.993922e-001 -5.809928e-001 -4.184677e-001
<VARIANCE> 39
 1.837411e+001 3.099168e+001 3.229934e+001 3.315561e+001 3.395116e+001 5.366382e+001 4.177903e+001 3.219450e+001 3.325574e+001 2.821936e+001 2.695058e+001 2.237431e+001 5.426966e+001 3.414161e+000 2.614663e+000 3.346087e+000 3.153561e+000 4.935606e+000 4.049817e+000 5.074746e+000 4.660446e+000 4.768396e+000 3.552902e+000 3.459920e+000 2.930194e+000 2.146326e+000 3.067100e-001 8.647929e-001 7.706383e-001 9.098274e-001 1.045434e+000 1.431188e+000 9.123125e-001 1.046394e+000 1.052295e+000 8.747377e-001 1.109990e+000 6.731297e-001 6.856658e-001
<GCONST> 1.314866e+002
<MIXTURE> 4 1.404625e-001
<MEAN> 39
 -4.438303e+000 -2.755432e+000 9.223865e+000 -3.216145e+000 -1.298132e+001 -1.210133e+001 -1.117417e+001 -1.534105e+000 -8.590267e-001 -2.292912e+000 -7.071655e-001 3.667715e-001 7.393475e+001 1.389052e+000 -1.877367e+000 9.722278e-002 -8.660951e-001 -3.909001e+000 -1.335367e+000 -2.469490e+000 1.362251e+000 3.838391e-001 5.864021e-001 4.874753e-001 -1.913597e-001 2.220551e+000 4.711601e-001 5.022159e-001 -3.683825e-001 4.097171e-001 4.771232e-001 7.532958e-001 2.834740e-001 4.021129e-002 9.531762e-002 1.475504e-001 -3.450203e-001 -7.213404e-001 -1.033988e+000
<VARIANCE> 39
 1.407002e+001 2.741860e+001 3.219878e+001 3.419162e+001 5.133667e+001 2.796530e+001 3.849678e+001 2.933786e+001 4.044655e+001 2.876984e+001 2.505784e+001 1.882345e+001 4.236875e+001 2.164009e+000 3.019050e+000 3.784448e+000 3.593722e+000 4.742650e+000 4.423374e+000 4.814186e+000 4.246831e+000 5.552567e+000 3.889572e+000 4.084919e+000 3.233150e+000 2.175560e+000 2.648848e-001 3.499047e-001 4.066668e-001 4.140709e-001 8.288954e-001 6.018118e-001 5.302957e-001 5.452547e-001 4.949994e-001 5.638217e-001 5.259489e-001 3.910089e-001 3.522799e-001
<GCONST> 1.228786e+002
<MIXTURE> 5 1.379806e-001
<MEAN> 39
 -8.906475e+000 -3.627466e+000 7.301166e+000 -7.755805e+000 -6.642712e+000 -7.070975e+000 -6.218875e+000 -4.138508e+000 -2.485475e+000 -4.633010e+000 1.691226e-001 -2.242582e+000 7.451443e+001 -1.590147e-001 -3.101409e+000 -2.976652e-001 -3.364718e+000 -3.220417e+000 -1.842915e+000 -1.492106e+000 1.490965e+000 -6.107102e-001 1.670148e+000 3.690386e-001 1.576734e+000 4.459900e+000 1.082010e+000 3.077435e-001 -4.088337e-001 8.151428e-002 -5.775649e-001 -3.839594e-001 -3.130870e-001 3.667965e-001 -1.696535e-001 4.024892e-001 -1.137756e+000 -1.450961e-001 -6.835560e-001
<VARIANCE> 39
 1.302089e+001 2.596654e+001 2.357193e+001 3.020212e+001 4.162922e+001 5.703206e+001 4.129985e+001 3.417773e+001 3.814274e+001 2.752131e+001 2.348652e+001 1.986226e+001 2.482132e+001 2.208268e+000 2.400318e+000 3.595919e+000 3.530015e+000 4.724666e+000 4.231887e+000 5.518603e+000 5.501638e+000 5.116564e+000 3.716459e+000 4.416587e+000 3.127837e+000 1.690557e+000 2.713132e-001 7.070738e-001 7.577561e-001 7.855589e-001 1.209240e+000 1.136103e+000 9.426512e-001 8.616436e-001 8.122001e-001 9.704040e-001 7.620171e-001 7.480602e-001 5.447286e-001
<GCONST> 1.286524e+002
<MIXTURE> 6 1.402150e-001
<MEAN> 39
 7.581691e-001 -9.219923e+000 5.398009e+000 -4.217125e+000 -1.736900e+001 -4.431087e+000 -2.081790e+001 -1.306687e+000 2.317465e+000 -2.399405e+000 -1.244305e+000 -4.428542e+000 7.285287e+001 1.158822e+000 -5.633160e-002 -1.497858e+000 -2.043314e+000 -2.448418e-001 3.335619e-001 -2.407618e+000 8.952575e-001 -4.345284e-001 1.719998e+000 5.113084e-001 -1.753225e+000 8.692191e-001 1.485500e-002 1.068841e+000 -4.014746e-001 8.517110e-002 1.364316e+000 2.896542e-001 1.270589e+000 -5.210032e-001 -6.647531e-001 3.010554e-001 -2.869333e-001 -2.731025e-001 -1.112677e+000
<VARIANCE> 39
 2.077097e+001 4.221466e+001 5.830916e+001 5.718367e+001 5.170333e+001 4.180877e+001 4.836808e+001 6.825438e+001 4.366976e+001 4.845046e+001 5.369704e+001 3.108619e+001 3.455539e+001 1.517161e+000 3.613180e+000 3.952319e+000 5.451556e+000 5.459154e+000 5.851750e+000 7.819826e+000 5.899863e+000 5.687415e+000 5.349274e+000 6.592497e+000 3.878001e+000 2.356758e+000 2.501402e-001 4.377746e-001 4.743699e-001 7.484059e-001 7.977473e-001 7.332405e-001 8.266349e-001 8.344332e-001 6.519787e-001 7.172794e-001 6.398466e-001 6.798760e-001 3.173215e-001
<GCONST> 1.336519e+002
<MIXTURE> 7 1.152162e-001
<MEAN> 39
 -2.634453e+000 -6.850575e+000 5.193456e+000 -1.272533e+001 -1.423884e+001 -1.471993e+001 -9.524814e+000 2.587724e+000 -2.964634e+000 -8.995273e-001 -5.852062e+000 1.291386e+000 7.649110e+001 1.509394e+000 -1.701881e+000 -1.472673e+000 -2.188794e+000 -1.886845e+000 -1.714203e+000 -6.860386e-001 2.004198e+000 -4.989613e-001 1.394536e+000 -2.447659e+000 5.917564e-001 1.566358e+000 1.898356e-001 8.428642e-001 -3.189573e-001 9.013038e-001 1.043141e+000 8.095502e-001 3.732609e-001 -6.221793e-001 -9.891625e-003 -3.095261e-001 -5.091759e-001 -7.546177e-001 -1.314010e+000
<VARIANCE> 39
 9.061179e+000 2.450022e+001 2.545263e+001 2.804574e+001 4.740170e+001 4.208877e+001 5.787224e+001 3.710743e+001 4.091254e+001 3.725130e+001 3.070665e+001 2.442019e+001 2.320746e+001 1.941810e+000 3.652399e+000 3.522087e+000 4.219073e+000 6.686516e+000 7.281398e+000 6.670315e+000 5.534007e+000 4.969024e+000 4.989086e+000 3.911895e+000 3.896323e+000 2.730642e+000 2.581610e-001 3.666423e-001 3.465312e-001 4.932962e-001 6.990024e-001 7.191210e-001 6.591976e-001 6.369511e-001 6.853383e-001 7.098044e-001 7.265580e-001 4.661650e-001 3.057090e-001
<GCONST> 1.264373e+002
<MIXTURE> 8 1.118078e-001
<MEAN> 39
 -3.862140e+000 3.746612e+000 5.212818e+000 2.307526e-001 -5.426267e+000 -8.307518e+000 -5.947834e+000 -8.373126e+000 -4.941146e+000 -1.539313e+000 -3.662336e+000 -4.101079e+000 6.539682e+001 5.079105e-001 -1.946501e-001 4.861779e-002 -9.574099e-001 -1.338567e+000 -1.564307e-001 -7.310966e-001 -1.331550e+000 -9.512656e-001 5.965804e-001 1.242747e-002 7.497285e-002 1.133803e+000 4.316583e-001 -4.017689e-001 -6.786025e-002 -4.998108e-001 -4.316556e-001 3.661356e-001 -5.193479e-001 2.768598e-001 3.063018e-001 1.194905e-001 -1.429627e-002 -1.400409e-002 1.680443e-001
<VARIANCE> 39
 3.298857e+001 3.505907e+001 4.605748e+001 5.846853e+001 5.559405e+001 5.669214e+001 5.224142e+001 5.242852e+001 3.826328e+001 4.330427e+001 4.870287e+001 3.003037e+001 5.789788e+001 2.328624e+000 2.942883e+000 3.167078e+000 3.648551e+000 4.791886e+000 5.044069e+000 5.917226e+000 5.336082e+000 4.737657e+000 4.104414e+000 4.111444e+000 3.619213e+000 1.811745e+000 4.365606e-001 6.762258e-001 5.919718e-001 8.381404e-001 9.200764e-001 8.906636e-001 9.185397e-001 8.397681e-001 6.684104e-001 7.296769e-001 7.150154e-001 5.726597e-001 5.232659e-001
<GCONST> 1.339922e+002
<TRANSP> 5
 0.000000e+000 1.000000e+000 0.000000e+000 0.000000e+000 0.000000e+000
 0.000000e+000 5.188681e-001 4.811319e-001 0.000000e+000 0.000000e+000
 0.000000e+000 0.000000e+000 4.944779e-001 5.055221e-001 0.000000e+000
 0.000000e+000 0.000000e+000 0.000000e+000 5.226011e-001 4.773989e-001
 0.000000e+000 0.000000e+000 0.000000e+000 0.000000e+000 0.000000e+000
<ENDHMM>
~h "e"
<BEGINHMM>
<NUMSTATES> 5
<STATE> 2
<NUMMIXES> 8
<MIXTURE> 1 1.381202e-001
<MEAN> 39
 -1.473330e+000 -7.626819e+000 8.794669e+000 -2.646257e+000 -1.839750e+001 -7.481367e+000 -1.120438e+001 4.123551e+000 8.237395e-001 -5.124084e+000 3.461492e+000 -4.489632e+000 7.673025e+001 3.435399e-001 -4.988981e-001 -1.599062e-001 9.016145e-002 -2.144670e-001 1.272728e-002 -2.675201e-001 9.353282e-001 6.371452e-002 -4.457091e-002 5.106251e-002 -4.226787e-001 3.826930e-002 -5.198699e-001 1.111028e+000 -2.363113e-001 3.966424e-001 1.379081e+000 2.210289e-001 7.097099e-001 -8.508317e-001 -1.951566e-001 5.119144e-001 -4.239894e-001 2.315630e-001 -9.914039e-001
<VARIANCE> 39
 1.223466e+001 2.407785e+001 4.534102e+001 2.941433e+001 4.232958e+001 3.928360e+001 6.378844e+001 3.535846e+001 6.099654e+001 3.924186e+001 3.662656e+001 3.515825e+001 4.149677e+001 8.738906e-001 1.673613e+000 3.573860e+000 1.927662e+000 4.363304e+000 3.150378e+000 3.266283e+000 2.923993e+000 4.436898e+000 3.202107e+000 3.082331e+000 2.388680e+000 8.860384e-001 4.542467e-001 3.404110e-001 4.259236e-001 4.127437e-001 6.187182e-001 6.744179e-001 9.618466e-001 7.466567e-001 7.947470e-001 5.687947e-001 4.932656e-001 6.077475e-001 2.372711e-001
<GCONST> 1.218319e+002
<MIXTURE> 2 1.174738e-001
<MEAN> 39
 -1.874766e+000 -4.122930e+000 4.835315e+000 -1.237826e+000 -1.255683e+001 -1.108768e+001 -1.045896e+001 -5.035423e-001 3.651398e+000 -5.385290e-001 -1.067241e+000 -4.153683e+000 7.425362e+001 2.869650e+000 -1.972075e+000 6.796932e-001 -5.668852e-001 -2.609820e+000 -4.655569e-001 -2.533946e+000 1.815647e-001 3.384974e-001 5.001483e-002 5.920272e-001 -1.029443e+000 1.285343e+000 -1.488422e+000 4.404185e-001 -3.256345e-001 -2.791605e-002 9.747839e-001 6.180879e-001 9.821961e-001 1.581872e-001 -7.159718e-002 1.811514e-001 2.335110e-001 4.964511e-001 -6.588733e-001
<VARIANCE> 39
 1.259150e+001 3.028083e+001 4.077274e+001 2.833467e+001 4.338702e+001 2.575678e+001 3.646907e+001 3.101897e+001 3.820573e+001 3.502086e+001 3.545219e+001 2.630453e+001 5.790759e+001 2.743411e+000 2.173928e+000 2.956001e+000 1.993902e+000 3.030318e+000 2.790872e+000 3.775019e+000 3.926816e+000 3.103094e+000 3.431510e+000 2.724394e+000 2.443110e+000 9.721569e-001 3.710730e-001 5.810803e-001 3.942776e-001 3.439191e-001 5.087248e-001 3.871334e-001 5.378063e-001 5.247292e-001 5.265527e-001 4.728065e-001 4.582672e-001 4.028068e-001 2.533394e-001
<GCONST> 1.185667e+002
<MIXTURE> 3 1.712424e-001
<MEAN> 39
 -1.207032e+000 -8.786658e+000 3.354946e+000 -1.283783e+001 -9.386166e+000 -1.062512e+001 -1.082722e+001 6.810698e+000 -2.048079e+000 2.488009e+000 -1.063290e+001 -1.749527e+000 7.588768e+001 -4.301579e-002 -6.033589e-001 1.956229e-001 -3.602070e-001 -3.003876e-001 -2.464840e-001 3.805776e-001 1.141053e+000 -4.282254e-001 -1.485568e-002 -7.605581e-001 4.194543e-001 3.178523e-001 -3.991134e-001 9.817700e-001 -1.146341e-003 9.344901e-001 4.257217e-001 3.806191e-001 5.764875e-001 -1.060567e+000 1.690317e-001 -4.381204e-001 8.825396e-001 -1.242883e-001 -8.492513e-001
<VARIANCE> 39
 1.348956e+001 3.153526e+001 5.472683e+001 4.349813e+001 5.355988e+001 4.442967e+001 5.929166e+001 3.837315e+001 6.148172e+001 4.047895e+001 3.436286e+001 3.273656e+001 2.353195e+001 6.222160e-001 1.680889e+000 1.763361e+000 1.835546e+000 2.363622e+000 2.463750e+000 2.668376e+000 2.611675e+000 2.532998e+000 2.676453e+000 2.272564e+000 1.875417e+000 6.898263e-001 3.431400e-001 3.498261e-001 4.059679e-001 4.522092e-001 6.244509e-001 5.363687e-001 6.432344e-001 6.147470e-001 9.045087e-001 5.503205e-001 4.758253e-001 4.340194e-001 2.181057e-001
<GCONST> 1.172939e+002
<MIXTURE> 4 1.178756e-001
<MEAN> 39
 -3.969558e+000 -6.753103e+000 2.656123e+000 -1.387462e+001 -1.393228e+001 -1.664916e+001 -4.595781e+000 8.647572e-001 -4.691101e+000 -1.690212e+000 -8.646325e+000 9.750950e-001 7.731839e+001 1.562289e+000 -2.139028e+000 2.094952e-003 -2.065507e+000 -1.146192e+000 -1.182078e+000 -4.806778e-001 1.077145e+000 -9.644600e-001 6.250750e-001 -1.860304e+000 6.987290e-002 1.169670e+000 -1.229640e+000 7.717530e-001 -3.131905e-002 1.151439e+000 1.175590e+000 1.346422e+000 6.706810e-001 2.497707e-002 6.854960e-001 1.014951e-001 1.005572e+000 -7.218176e-002 -1.019776e+000
<VARIANCE> 39
 8.527036e+000 2.394668e+001 5.407066e+001 2.878094e+001 4.927119e+001 5.141568e+001 6.057843e+001 4.825108e+001 3.676094e+001 3.714753e+001 3.461368e+001 2.605477e+001 2.350876e+001 1.598000e+000 1.960323e+000 2.684611e+000 2.873930e+000 3.992380e+000 4.077942e+000 4.286549e+000 3.746345e+000 3.998504e+000 3.236855e+000 3.440206e+000 2.172230e+000 1.271286e+000 3.559510e-001 5.060154e-001 4.713243e-001 5.270095e-001 7.851094e-001 6.193509e-001 7.737214e-001 8.099484e-001 7.218716e-001 7.450638e-001 6.734618e-001 4.717286e-001 4.966583e-001
<GCONST> 1.241463e+002
<MIXTURE> 5 1.690536e-001
<MEAN> 39
 -4.677959e+000 -7.801390e+000 3.723259e+000 -1.532440e+001 -1.526977e+001 -1.079727e+001 -2.475791e+000 2.349889e+000 -8.703889e+000 -3.641214e+000 -8.989298e+000 -1.521658e+000 7.730788e+001 3.777672e-002 -5.288501e-001 -4.034884e-001 2.341155e-001 8.208106e-003 -1.733553e-001 8.373259e-001 7.112614e-001 -2.115318e-001 -5.989482e-001 -2.622473e-001 3.894762e-001 1.715385e-001 1.413774e-001 8.027385e-001 1.306461e-001 7.201489e-001 5.408267e-001 4.082681e-002 -5.497125e-001 -7.324138e-001 3.516443e-001 2.195735e-001 1.818196e-001 -1.824180e-001 -7.846226e-001
<VARIANCE> 39
 8.835275e+000 3.184864e+001 4.696283e+001 4.310812e+001 5.187178e+001 5.958921e+001 5.173393e+001 5.603807e+001 4.573049e+001 5.286797e+001 3.317898e+001 2.825006e+001 2.755312e+001 7.825973e-001 1.538632e+000 2.657327e+000 2.711776e+000 3.326216e+000 3.339544e+000 3.405965e+000 3.053633e+000 3.350027e+000 3.626445e+000 2.672087e+000 2.218731e+000 5.874246e-001 1.635092e-001 2.818044e-001 3.434382e-001 5.130702e-001 5.743439e-001 6.971175e-001 5.213751e-001 6.756969e-001 5.819590e-001 7.343621e-001 5.684121e-001 4.524792e-001 1.876446e-001
<GCONST> 1.188899e+002
<MIXTURE> 6 1.386750e-001
<MEAN> 39
 -2.949816e+000 -7.541492e+000 7.369917e+000 -6.221837e+000 -1.713384e+001 -5.949722e+000 -1.261012e+001 1.953024e+000 -8.263413e-001 -6.371235e-001 -3.378593e-004 -5.096977e+000 7.249574e+001 8.874162e-002 -4.280304e-001 -3.479486e-001 -2.797633e-003 1.847156e-001 -1.331925e-001 -1.055776e-002 9.164023e-001 3.455243e-001 3.130760e-002 -5.098521e-001 -2.119562e-001 1.512658e-001 -1.597721e-001 5.687224e-001 -3.508892e-002 2.869659e-001 6.537210e-001 7.333993e-002 4.221879e-001 -4.961132e-001 -1.974307e-001 -3.561612e-002 -1.140492e-001 1.245525e-001 -5.153696e-001
<VARIANCE> 39
 3.093535e+001 6.800036e+001 7.799757e+001 7.046092e+001 5.844114e+001 6.641200e+001 5.645108e+001 6.599106e+001 7.885323e+001 5.496569e+001 4.695055e+001 3.551614e+001 6.361939e+001 4.347762e-001 1.097207e+000 1.781178e+000 1.548990e+000 2.359462e+000 1.842957e+000 1.889499e+000 2.116277e+000 2.151901e+000 1.944995e+000 1.888628e+000 1.377829e+000 4.817550e-001 1.786297e-001 2.419781e-001 3.121521e-001 3.068258e-001 4.230336e-001 4.473054e-001 4.916147e-001 5.305716e-001 5.574850e-001 3.783238e-001 3.307337e-001 3.218962e-001 1.284708e-001
<GCONST> 1.148175e+002
<MIXTURE> 7 7.914220e-002
<MEAN> 39
 -1.911749e+000 -6.804976e+000 2.468436e+000 -1.002003e+001 -7.434917e+000 -8.498798e+000 -1.437265e+001 1.221267e+000 2.151222e+000 2.505427e+000 -5.381223e+000 -5.184223e+000 7.339492e+001 2.589879e+000 -2.209276e+000 7.852882e-001 -1.818711e+000 -1.511225e+000 3.951657e-001 -3.129062e+000 1.527872e+000 -5.042251e-001 1.131350e+000 -4.492919e-001 -1.330603e+000 1.998128e+000 -1.156131e+000 3.682000e-001 -1.773634e-001 4.305721e-001 3.156926e-001 2.660001e-001 1.093714e+000 -1.635565e-001 -5.169897e-002 -3.042471e-001 4.266092e-001 4.537352e-001 -7.600683e-001
<VARIANCE> 39
 2.999755e+001 6.007195e+001 6.433581e+001 6.383198e+001 6.150380e+001 5.154216e+001 6.887819e+001 6.000962e+001 5.476788e+001 5.290977e+001 5.118935e+001 3.191629e+001 3.479013e+001 3.261921e+000 3.748205e+000 3.399331e+000 3.150839e+000 4.913685e+000 5.256269e+000 5.299291e+000 5.172398e+000 4.692332e+000 3.563795e+000 4.010203e+000 2.734652e+000 2.902556e+000 4.922293e-001 6.985955e-001 4.820079e-001 5.309801e-001 7.182591e-001 7.493247e-001 8.653107e-001 9.155374e-001 7.660735e-001 6.144132e-001 6.219439e-001 4.918069e-001 4.964886e-001
<GCONST> 1.345956e+002
<MIXTURE> 8 6.836788e-002
<MEAN> 39
 -4.583507e+000 5.717181e-002 -1.035943e+000 -8.550334e+000 -1.241963e+001 -1.466842e+001 -5.477510e+000 -2.713381e+000 -2.602993e+000 -5.653883e+000 -7.244649e+000 3.299746e-001 7.387321e+001 4.054743e+000 -1.594566e+000 -1.313747e-001 -2.874716e+000 -2.566530e+000 -3.312262e+000 -2.347568e+000 -2.917563e-001 -1.785584e+000 -7.999884e-001 -3.532668e+000 -4.951279e-001 1.752996e+000 -1.199136e+000 -1.709104e-001 -2.840608e-002 3.924198e-001 8.532523e-001 1.124560e+000 6.838011e-001 6.080217e-001 4.681112e-001 7.045569e-001 7.206641e-001 1.317974e-001 -3.739081e-001
<VARIANCE> 39
 1.017823e+001 1.940497e+001 3.767566e+001 2.881118e+001 3.632403e+001 3.731621e+001 4.502250e+001 2.934699e+001 2.539160e+001 2.661038e+001 2.738952e+001 2.228959e+001 2.993678e+001 2.003764e+000 3.013187e+000 3.154258e+000 3.871922e+000 4.463251e+000 5.232436e+000 5.125349e+000 4.398424e+000 4.032678e+000 3.951959e+000 4.027738e+000 2.900635e+000 1.374739e+000 3.599909e-001 3.070390e-001 3.341762e-001 3.535633e-001 5.266758e-001 4.380842e-001 4.757432e-001 4.690266e-001 4.691598e-001 4.510429e-001 5.788909e-001 3.782494e-001 4.152551e-001
<GCONST> 1.195364e+002
<STATE> 3
<NUMMIXES> 8
<MIXTURE> 1 1.298547e-001
<MEAN> 39
 -1.601885e+000 -5.164143e+000 7.729349e+000 -2.075280e+000 -1.489207e+001 -1.021610e+001 -1.177480e+001 1.988543e+000 -7.652251e-001 -1.005421e+000 -3.242880e-001 -3.455513e+000 7.424387e+001 -4.216581e-001 1.672134e+000 -1.528313e-001 8.246087e-001 1.743778e+000 -2.864302e-001 1.014252e+000 -4.835946e-001 1.762153e-002 4.546122e-001 -5.625443e-001 4.828351e-001 -1.361302e+000 -1.085531e+000 1.022450e+000 -2.836492e-001 2.986030e-001 1.219706e+000 4.170801e-001 1.095091e+000 -3.723934e-001 2.520731e-001 7.086790e-002 3.522718e-002 3.380865e-001 -8.474615e-001
<VARIANCE> 39
 1.380264e+001 3.129290e+001 5.031458e+001 3.473021e+001 5.261547e+001 3.424246e+001 5.096561e+001 4.703197e+001 6.236747e+001 4.192059e+001 4.798277e+001 2.873986e+001 4.784103e+001 1.204173e+000 1.718046e+000 2.388784e+000 1.642486e+000 3.115381e+000 2.262475e+000 3.239024e+000 2.664605e+000 3.116128e+000 2.497197e+000 2.360905e+000 1.928390e+000 1.529312e+000 7.707041e-001 5.051633e-001 4.839083e-001 4.546190e-001 5.882294e-001 6.306468e-001 8.423212e-001 8.454097e-001 8.466506e-001 6.486093e-001 6.792473e-001 5.252577e-001 3.176871e-001
<GCONST> 1.230847e+002
<MIXTURE> 2 1.209794e-001
<MEAN> 39
 -4.799594e-001 -6.113084e+000 1.390860e+000 -2.441771e+000 -1.299054e+001 -6.649467e+000 -1.025341e+001 5.720961e+000 3.067989e+000 -1.806788e+000 -2.025050e+000 -6.620376e+000 7.321893e+001 9.367075e-002 4.754942e-001 -8.519913e-002 4.072581e-001 6.801301e-001 1.377815e-001 1.624109e-001 -2.972040e-001 -9.594615e-002 -4.188431e-002 -1.833647e-001 4.249407e-002 -6.901575e-001 -1.765739e-001 5.617175e-001 2.270910e-001 2.415161e-001 4.702227e-001 4.328532e-002 2.628264e-001 -7.361555e-001 -2.770300e-001 2.103810e-001 1.134769e-001 2.453447e-001 -5.245953e-001
<VARIANCE> 39
 1.640361e+001 2.723792e+001 3.742177e+001 4.530592e+001 4.359285e+001 4.382850e+001 5.763159e+001 3.612913e+001 4.518273e+001 5.472525e+001 4.281983e+001 3.085393e+001 4.929712e+001 3.484792e-001 9.583772e-001 1.500605e+000 1.098134e+000 2.079155e+000 1.801478e+000 1.914878e+000 2.167273e+000 1.980520e+000 2.069021e+000 1.923169e+000 1.589115e+000 4.341119e-001 1.351310e-001 1.872585e-001 2.118489e-001 2.347306e-001 3.254381e-001 3.756922e-001 4.173906e-001 4.551027e-001 4.324482e-001 3.661723e-001 3.730810e-001 2.858798e-001 1.085824e-001
<GCONST> 1.064063e+002
<MIXTURE> 3 1.056789e-001
<MEAN> 39
 -2.668091e+000 -6.590555e+000 1.085836e+000 -1.129799e+001 -7.537817e+000 -1.496751e+001 -2.176588e-001 1.840305e+000 -1.775975e+000 -1.653210e+000 -1.017635e+001 1.921348e-001 7.613868e+001 -2.309949e-003 2.980275e-001 1.118088e-001 4.623906e-001 4.647720e-002 9.941732e-002 1.749838e-001 -8.620398e-002 -7.888435e-002 -3.549327e-001 1.425164e-001 1.004502e-001 -4.531028e-001 -5.189443e-002 4.064088e-001 2.376298e-001 4.286382e-001 5.323578e-002 4.187310e-001 -4.466189e-001 -2.514095e-001 2.418205e-002 -1.446013e-005 3.703545e-001 -2.059902e-001 -4.356301e-001
<VARIANCE> 39
