~o
<STREAMINFO> 1 39
<VECSIZE> 39<NULLD><MFCC_D_A_0><DIAGC>
~h "a"
<BEGINHMM>
<NUMSTATES> 5
<STATE> 2
<MEAN> 39
 -2.108483e+000 -7.068067e+000 -3.968104e+000 -9.494325e+000 -4.556883e+000 -1.869318e+000 -6.632626e+000 1.714284e-001 3.423074e-001 5.016447e-001 -4.739045e+000 -5.375314e+000 7.139584e+001 5.331128e-001 -5.033401e-001 -3.556592e-001 -4.692305e-001 1.851832e-001 2.241005e-001 -2.007833e-001 1.906499e-001 3.202261e-002 2.429589e-002 -3.973670e-001 -4.171140e-001 3.334892e-001 -1.729366e-001 3.315105e-001 1.976914e-001 2.885963e-001 3.534609e-002 -5.752357e-002 1.444818e-001 -1.240226e-001 -4.690973e-002 -8.645691e-003 1.719413e-001 1.392759e-001 -3.392270e-001
<VARIANCE> 39
 4.356271e+001 6.089531e+001 4.757101e+001 7.937946e+001 6.576709e+001 8.530689e+001 7.557680e+001 5.985661e+001 5.829739e+001 5.907141e+001 7.431617e+001 4.868043e+001 9.312639e+001 3.071250e+000 4.942974e+000 3.052130e+000 5.023295e+000 3.953759e+000 4.442053e+000 4.291549e+000 4.337821e+000 4.195744e+000 3.553437e+000 4.272629e+000 3.583242e+000 4.901043e+000 5.146482e-001 7.767263e-001 5.105813e-001 8.214205e-001 6.841131e-001 7.812078e-001 7.624280e-001 7.846024e-001 7.641249e-001 6.614977e-001 7.752140e-001 6.471501e-001 7.625712e-001
<GCONST> 1.394087e+002
<STATE> 3
<MEAN> 39
 -1.422122e+000 -7.295141e+000 -4.260032e+000 -9.765556e+000 -4.076445e+000 -1.563439e+000 -6.680402e+000 2.077205e-001 2.677594e-001 5.057549e-001 -5.109675e+000 -5.864444e+000 7.133911e+001 1.260690e-001 2.724186e-001 7.625653e-002 1.703045e-001 1.679204e-001 3.831788e-002 1.043293e-001 -6.625168e-002 -4.066326e-002 -1.774001e-003 2.834501e-002 -5.396937e-002 -3.683637e-001 -2.237602e-001 3.587067e-001 2.107752e-001 2.918102e-001 -1.805179e-002 -8.505678e-002 1.531380e-001 -1.169860e-001 -2.466740e-002 -5.818619e-003 2.046886e-001 1.778612e-001 -3.259249e-001
<VARIANCE> 39
 3.579568e+001 6.111480e+001 4.677459e+001 7.533722e+001 6.555067e+001 8.536718e+001 7.471123e+001 5.961536e+001 5.830954e+001 6.108654e+001 7.469016e+001 4.869574e+001 8.833283e+001 2.652783e+000 4.921688e+000 2.913356e+000 4.774456e+000 3.715736e+000 4.186315e+000 4.178508e+000 4.166207e+000 4.097927e+000 3.410825e+000 4.057775e+000 3.363311e+000 5.386931e+000 4.330899e-001 7.804880e-001 4.903719e-001 7.799150e-001 6.541296e-001 7.402205e-001 7.504845e-001 7.720906e-001 7.669970e-001 6.551536e-001 7.503489e-001 6.257783e-001 7.322123e-001
<GCONST> 1.380901e+002
<STATE> 4
<MEAN> 39
 -1.911443e+000 -5.855665e+000 -4.001275e+000 -8.628873e+000 -3.708178e+000 -1.249284e+000 -6.087665e+000 -1.948785e-001 2.461160e-001 5.077359e-001 -4.342777e+000 -5.723497e+000 6.888414e+001 -3.068281e-001 8.415824e-001 4.410289e-001 6.232492e-001 4.792995e-002 -1.318789e-001 3.401408e-001 -2.049150e-001 -6.208409e-002 -9.011520e-003 3.674179e-001 2.971576e-001 -8.726137e-001 -2.059636e-001 1.625155e-001 1.349421e-001 1.336221e-001 -4.252269e-002 -5.384363e-002 8.019832e-002 -5.116943e-002 -1.319529e-002 -2.040433e-003 1.126613e-001 1.203210e-001 -1.046822e-001
<VARIANCE> 39
 4.470094e+001 6.458652e+001 4.902511e+001 7.847355e+001 6.701495e+001 8.509830e+001 7.465987e+001 5.881014e+001 5.739970e+001 5.905611e+001 7.068525e+001 4.637275e+001 1.192592e+002 2.630401e+000 3.961181e+000 2.771843e+000 4.189451e+000 3.571434e+000 3.940514e+000 4.003690e+000 3.994276e+000 4.037217e+000 3.288783e+000 3.623958e+000 3.059159e+000 4.602258e+000 3.984404e-001 7.110135e-001 4.612784e-001 7.232463e-001 6.038491e-001 6.896220e-001 7.071610e-001 7.337058e-001 7.121714e-001 6.169509e-001 6.654592e-001 5.613375e-001 7.474485e-001
<GCONST> 1.366821e+002
<TRANSP> 5
 0.000000e+000 1.000000e+000 0.000000e+000 0.000000e+000 0.000000e+000
 0.000000e+000 5.127332e-001 4.872668e-001 0.000000e+000 0.000000e+000
 0.000000e+000 0.000000e+000 5.121321e-001 4.878679e-001 0.000000e+000
 0.000000e+000 0.000000e+000 0.000000e+000 5.999870e-001 4.000131e-001
 0.000000e+000 0.000000e+000 0.000000e+000 0.000000e+000 0.000000e+000
<ENDHMM>
~h "b"
<BEGINHMM>
<NUMSTATES> 5
<STATE> 2
<MEAN> 39
 6.838553e-001 3.554567e+000 3.000162e+000 -2.944085e+000 -4.980928e+000 -3.001749e+000 -6.567550e+000 -5.479227e+000 -4.680428e+000 -2.053983e+000 -2.101858e+000 -4.863132e+000 6.200556e+001 3.476744e-002 7.227854e-001 2.581339e-001 9.499832e-001 5.110209e-001 -1.194335e-001 2.087695e-001 -2.743526e-001 -3.230870e-003 -2.705838e-001 -1.288560e-001 -1.790629e-001 -7.381039e-001 -1.962791e-001 -3.254218e-001 -4.500549e-002 -2.427940e-001 -1.962577e-001 -8.842406e-002 -8.195976e-002 1.036402e-001 9.638567e-002 1.060091e-001 2.690428e-002 8.876286e-002 4.485698e-001
<VARIANCE> 39
 3.161357e+001 6.902225e+001 4.608028e+001 9.385219e+001 6.386462e+001 6.789252e+001 5.751411e+001 4.874045e+001 4.972086e+001 4.116094e+001 5.406771e+001 3.346791e+001 8.873633e+001 2.350127e+000 6.408510e+000 2.762920e+000 6.865768e+000 5.097201e+000 3.618804e+000 4.194821e+000 3.909825e+000 4.240301e+000 3.666680e+000 3.324150e+000 2.910327e+000 7.800472e+000 3.774219e-001 1.136415e+000 4.709132e-001 1.188167e+000 9.719922e-001 6.605064e-001 7.960864e-001 7.273127e-001 7.766529e-001 7.086779e-001 6.459253e-001 5.514521e-001 1.295851e+000
<GCONST> 1.383087e+002
<STATE> 3
<MEAN> 39
 2.423607e-001 3.974096e+000 3.382559e+000 -1.686811e+000 -4.491973e+000 -3.573160e+000 -6.433806e+000 -5.757203e+000 -4.366450e+000 -2.235780e+000 -2.290916e+000 -4.985908e+000 6.193889e+001 -3.186604e-001 -4.201452e-001 6.471056e-002 -8.607294e-003 -2.207705e-001 -3.160650e-001 -1.104957e-001 7.978307e-002 2.094630e-001 1.006888e-001 -6.077348e-003 1.041864e-001 6.545138e-001 -7.928094e-002 -4.353629e-001 -5.717691e-002 -4.195274e-001 -3.404794e-001 -4.207894e-002 -1.513184e-001 1.360218e-001 2.616438e-002 1.391515e-001 4.437416e-002 1.030662e-001 5.342583e-001
<VARIANCE> 39
 2.973852e+001 6.511201e+001 4.247177e+001 8.016416e+001 5.970868e+001 6.212912e+001 5.384260e+001 4.477643e+001 4.675373e+001 4.095051e+001 4.960846e+001 3.215381e+001 8.729384e+001 2.463546e+000 8.118074e+000 3.295430e+000 7.989368e+000 6.257977e+000 4.227882e+000 4.610453e+000 4.282540e+000 4.628629e+000 4.124052e+000 3.594567e+000 3.128891e+000 9.394661e+000 4.504942e-001 1.224135e+000 5.465297e-001 1.183938e+000 1.053847e+000 7.367372e-001 8.305400e-001 7.729656e-001 8.681102e-001 7.686817e-001 7.052858e-001 5.906301e-001 1.403666e+000
<GCONST> 1.402525e+002
<STATE> 4
<MEAN> 39
 -5.646528e-001 1.985830e+000 3.253166e+000 -2.727509e+000 -5.875924e+000 -4.266093e+000 -7.066498e+000 -5.161295e+000 -3.791373e+000 -1.572699e+000 -2.107488e+000 -4.485318e+000 6.462872e+001 -3.320401e-001 -1.143666e+000 -1.449560e-002 -8.424733e-001 -9.070103e-001 -3.113385e-001 -4.018641e-001 3.188681e-001 1.365292e-001 3.144597e-001 6.617502e-002 2.894050e-001 1.517599e+000 3.685483e-002 -1.027955e-001 1.023568e-002 -2.220999e-001 -1.803293e-001 5.726815e-002 -8.008090e-002 3.660704e-002 -7.614029e-002 3.653964e-002 1.683052e-002 2.875247e-002 1.383004e-001
<VARIANCE> 39
 3.075538e+001 7.252737e+001 5.012628e+001 9.034054e+001 6.891711e+001 6.752000e+001 5.768493e+001 4.841904e+001 4.905655e+001 4.566496e+001 5.061482e+001 3.241515e+001 1.000417e+002 2.498400e+000 6.717758e+000 3.971093e+000 7.495295e+000 6.601892e+000 4.752358e+000 4.719796e+000 4.481864e+000 5.004742e+000 4.369050e+000 3.910379e+000 3.231751e+000 7.503499e+000 4.694500e-001 1.268570e+000 6.009459e-001 1.291954e+000 1.202979e+000 8.088169e-001 8.795399e-001 8.033146e-001 9.048602e-001 8.238493e-001 7.426289e-001 5.892251e-001 1.469429e+000
<GCONST> 1.423753e+002
<TRANSP> 5
 0.000000e+000 1.000000e+000 0.000000e+000 0.000000e+000 0.000000e+000
 0.000000e+000 5.805444e-001 4.194557e-001 0.000000e+000 0.000000e+000
 0.000000e+000 0.000000e+000 5.814837e-001 4.185162e-001 0.000000e+000
 0.000000e+000 0.000000e+000 0.000000e+000 6.419377e-001 3.580624e-001
 0.000000e+000 0.000000e+000 0.000000e+000 0.000000e+000 0.000000e+000
<ENDHMM>
~h "d"
<BEGINHMM>
<NUMSTATES> 5
<STATE> 2
<MEAN> 39
 -1.823493e+000 4.010210e-001 4.485813e+000 -1.766313e+000 -7.102720e+000 -5.203602e+000 -8.501900e+000 -4.240676e+000 -8.870590e-001 -1.632399e+000 -3.507147e+000 -4.087999e+000 6.495350e+001 -6.037274e-002 1.751937e-001 3.479998e-001 6.120309e-001 2.165957e-001 -1.367024e-001 -2.752073e-003 -1.091965e-001 1.740911e-001 -1.949125e-001 -6.228256e-002 -2.727885e-002 -3.274480e-001 -9.710211e-002 -2.442515e-001 -1.012285e-001 -3.523867e-001 -1.666160e-001 1.191196e-002 -4.472117e-002 7.542183e-002 -1.040466e-001 6.574488e-002 1.072159e-001 7.818076e-002 4.046936e-001
<VARIANCE> 39
 4.045230e+001 7.118012e+001 5.856753e+001 8.017034e+001 7.521485e+001 6.338871e+001 7.740105e+001 6.256671e+001 5.330756e+001 5.035442e+001 5.531541e+001 3.842076e+001 9.336037e+001 2.750221e+000 6.768787e+000 3.429601e+000 6.685932e+000 6.853899e+000 4.643253e+000 6.220911e+000 5.101267e+000 4.666907e+000 4.145721e+000 4.352485e+000 3.558472e+000 8.374538e+000 5.405244e-001 1.259531e+000 5.406253e-001 1.196562e+000 1.448680e+000 8.981260e-001 1.287041e+000 9.382054e-001 8.917806e-001 8.328165e-001 8.519145e-001 7.156312e-001 1.597166e+000
<GCONST> 1.452546e+002
<STATE> 3
<MEAN> 39
 -2.176900e+000 -1.260476e-001 4.932124e+000 -1.545002e+000 -7.294847e+000 -5.522872e+000 -8.755672e+000 -4.259410e+000 -8.225560e-001 -1.829743e+000 -3.292347e+000 -3.881096e+000 6.566376e+001 -1.373758e-001 -4.781355e-001 1.842437e-002 -3.296900e-001 -3.132665e-001 -1.291686e-001 -2.880716e-001 1.082960e-001 -3.856679e-002 7.005023e-002 1.838834e-001 1.152215e-001 7.035733e-001 2.618399e-002 -1.929637e-001 -1.603041e-001 -3.738782e-001 -1.818034e-001 2.120637e-002 -9.517062e-002 8.111331e-002 -1.037229e-001 1.214549e-001 6.160587e-002 1.939097e-002 3.304044e-001
<VARIANCE> 39
 3.783497e+001 6.787869e+001 5.117408e+001 7.459146e+001 7.548663e+001 5.970444e+001 7.923328e+001 6.066040e+001 5.059608e+001 4.857848e+001 5.214399e+001 3.703231e+001 9.099523e+001 2.983294e+000 7.068274e+000 3.616587e+000 6.931795e+000 7.542250e+000 5.020595e+000 7.161320e+000 5.536930e+000 4.795527e+000 4.531418e+000 4.678545e+000 3.875833e+000 8.562887e+000 5.942028e-001 1.331862e+000 5.776036e-001 1.211747e+000 1.566127e+000 9.857233e-001 1.409346e+000 9.922520e-001 9.219067e-001 8.736452e-001 9.233333e-001 7.840520e-001 1.659646e+000
<GCONST> 1.464045e+002
<STATE> 4
<MEAN> 39
 -2.290224e+000 -1.595955e+000 4.467332e+000 -3.075840e+000 -8.549443e+000 -5.632883e+000 -9.885534e+000 -3.818984e+000 -1.061221e+000 -1.260440e+000 -2.590337e+000 -3.727675e+000 6.783638e+001 4.223471e-002 -5.685138e-001 -3.293203e-001 -8.668357e-001 -4.429097e-001 -1.787402e-002 -3.483674e-001 2.003487e-001 -2.305356e-001 2.851649e-001 1.806014e-001 4.865997e-002 9.385493e-001 5.309869e-002 5.378596e-002 -1.042293e-001 -9.931297e-002 4.542205e-002 6.518865e-002 7.959083e-002 7.382423e-003 -7.860462e-002 3.547034e-002 -2.875496e-002 -2.500671e-002 -5.015822e-002
<VARIANCE> 39
 3.706466e+001 6.686618e+001 5.221291e+001 7.894673e+001 7.645909e+001 6.297608e+001 8.653793e+001 6.702242e+001 5.327114e+001 5.037265e+001 5.668801e+001 3.744622e+001 9.253564e+001 2.864301e+000 5.767965e+000 3.501460e+000 5.764269e+000 7.011965e+000 5.077988e+000 7.000449e+000 5.411905e+000 4.810015e+000 4.521981e+000 4.610557e+000 3.793660e+000 6.588652e+000 5.478168e-001 1.106547e+000 5.644636e-001 1.098999e+000 1.467475e+000 9.663390e-001 1.411600e+000 9.888859e-001 8.843161e-001 8.581855e-001 8.771694e-001 7.495066e-001 1.368637e+000
<GCONST> 1.452113e+002
<TRANSP> 5
 0.000000e+000 1.000000e+000 0.000000e+000 0.000000e+000 0.000000e+000
 0.000000e+000 5.197960e-001 4.802040e-001 0.000000e+000 0.000000e+000
 0.000000e+000 0.000000e+000 5.265442e-001 4.734558e-001 0.000000e+000
 0.000000e+000 0.000000e+000 0.000000e+000 5.803787e-001 4.196213e-001
 0.000000e+000 0.000000e+000 0.000000e+000 0.000000e+000 0.000000e+000
<ENDHMM>
~h "e"
<BEGINHMM>
<NUMSTATES> 5
<STATE> 2
<MEAN> 39
 -4.879729e+000 -3.531205e+000 4.252982e+000 -6.268888e+000 -1.058742e+001 -8.927099e+000 -6.660793e+000 6.609037e-001 -1.521321e+000 -1.226695e+000 -3.737175e+000 -2.322527e+000 7.157214e+001 6.183550e-001 -2.260004e-001 -1.872647e-002 -3.426925e-002 -2.276368e-001 -4.099134e-001 -2.257172e-001 2.873942e-001 3.336912e-002 -6.969278e-002 -3.197470e-001 -7.118607e-002 4.865870e-002 -2.234944e-001 2.383098e-001 -3.044097e-002 1.666529e-001 2.667716e-001 2.360064e-001 1.488079e-001 -1.494629e-001 2.851993e-002 6.599206e-002 1.498798e-001 7.676880e-003 -3.111358e-001
<VARIANCE> 39
 4.944729e+001 5.346628e+001 5.904245e+001 7.185226e+001 7.492422e+001 6.499740e+001 7.918573e+001 5.674472e+001 6.317746e+001 4.795258e+001 5.894923e+001 3.588774e+001 7.241528e+001 4.764262e+000 4.212111e+000 3.003743e+000 4.365826e+000 5.878161e+000 4.443953e+000 5.415486e+000 4.763877e+000 4.320833e+000 3.492276e+000 4.062081e+000 2.780041e+000 4.175882e+000 7.233056e-001 6.841104e-001 4.528321e-001 7.019524e-001 9.367934e-001 7.655869e-001 9.144003e-001 8.831902e-001 7.525784e-001 6.481777e-001 6.991459e-001 4.971842e-001 6.093174e-001
<GCONST> 1.387545e+002
<STATE> 3
<MEAN> 39
 -4.291842e+000 -3.476507e+000 4.203896e+000 -6.037625e+000 -1.048289e+001 -9.159355e+000 -6.724978e+000 8.760853e-001 -1.448752e+000 -1.241700e+000 -3.972648e+000 -2.411284e+000 7.106030e+001 1.646144e-001 2.418508e-001 -6.108191e-002 2.757183e-001 2.530129e-001 4.086241e-002 5.620461e-002 -5.386264e-002 6.449258e-002 4.101865e-002 -7.208995e-003 -6.010892e-002 -4.905154e-001 -2.592673e-001 2.350150e-001 -2.895607e-002 1.480296e-001 2.429171e-001 2.426395e-001 1.538013e-001 -1.817549e-001 1.269410e-002 6.234677e-002 1.706175e-001 1.417911e-002 -2.552626e-001
<VARIANCE> 39
 4.283321e+001 5.448587e+001 5.582063e+001 7.165187e+001 7.170082e+001 6.490167e+001 7.804746e+001 5.704236e+001 6.365169e+001 4.909787e+001 5.921371e+001 3.609706e+001 7.674149e+001 3.957765e+000 4.179138e+000 2.842217e+000 4.192564e+000 5.399239e+000 4.095100e+000 4.939671e+000 4.616248e+000 4.211205e+000 3.375855e+000 3.829198e+000 2.682269e+000 4.113129e+000 6.027752e-001 7.091482e-001 4.357597e-001 7.144786e-001 8.837562e-001 7.320391e-001 8.790456e-001 8.778882e-001 7.672068e-001 6.446010e-001 6.847870e-001 4.945750e-001 6.340038e-001
<GCONST> 1.375786e+002
<STATE> 4
<MEAN> 39
 -4.594961e+000 -2.581566e+000 3.916903e+000 -5.138689e+000 -9.576395e+000 -8.676499e+000 -6.224161e+000 4.706088e-001 -1.251124e+000 -1.083313e+000 -3.584208e+000 -2.475364e+000 6.926281e+001 -2.465166e-001 5.619885e-001 -1.189751e-001 4.590124e-001 5.718628e-001 4.061372e-001 2.670257e-001 -3.382870e-001 6.497528e-002 1.366915e-001 2.619674e-001 -1.970304e-002 -8.053617e-001 -1.948207e-001 9.734195e-002 -3.222156e-002 3.825485e-002 1.167777e-001 1.592601e-001 8.716720e-002 -1.043171e-001 -7.815103e-003 3.684817e-002 1.104568e-001 2.547123e-002 -6.424003e-002
<VARIANCE> 39
 4.944952e+001 5.641078e+001 5.601097e+001 7.261718e+001 7.220740e+001 6.780853e+001 7.865036e+001 5.752686e+001 6.334207e+001 4.955497e+001 5.934061e+001 3.715427e+001 9.486065e+001 3.503108e+000 3.705231e+000 2.681033e+000 3.884138e+000 4.560360e+000 3.826089e+000 4.454125e+000 4.399487e+000 4.130833e+000 3.250231e+000 3.526466e+000 2.639423e+000 3.730767e+000 5.203732e-001 6.827366e-001 4.275657e-001 6.864291e-001 7.977689e-001 6.864843e-001 7.976738e-001 8.354746e-001 7.401274e-001 6.203680e-001 6.410381e-001 4.811497e-001 6.640273e-001
<GCONST> 1.363905e+002
<TRANSP> 5
 0.000000e+000 1.000000e+000 0.000000e+000 0.000000e+000 0.000000e+000
 0.000000e+000 4.182604e-001 5.817395e-001 0.000000e+000 0.000000e+000
 0.000000e+000 0.000000e+000 4.209167e-001 5.790834e-001 0.000000e+000
 0.000000e+000 0.000000e+000 0.000000e+000 4.922778e-001 5.077222e-001
 0.000000e+000 0.000000e+000 0.000000e+000 0.000000e+000 0.000000e+000
<ENDHMM>
~h "f"
<BEGINHMM>
<NUMSTATES> 5
<STATE> 2
<MEAN> 39
 -1.315580e+001 -1.630114e+000 -4.195360e-001 -5.009978e-001 -1.420400e+000 -2.880836e+000 -8.452590e-001 6.010936e-001 2.105954e+000 1.034832e+000 5.288092e-002 -1.281990e-001 6.621323e+001 -1.638484e+000 -1.178515e-001 -2.484646e-001 6.338621e-001 5.289823e-001 1.540343e-001 5.337659e-001 4.534889e-001 7.569283e-001 3.421089e-001 5.081816e-001 4.582253e-001 -2.910516e-001 2.712420e-001 -8.643495e-002 4.575524e-002 -2.972026e-001 -2.518024e-001 -2.038978e-002 -1.589661e-001 -7.789828e-002 -1.809621e-001 -1.045846e-002 -5.914923e-002 -7.321725e-002 7.620295e-002
<VARIANCE> 39
 6.499636e+001 2.826392e+001 3.775155e+001 4.863657e+001 4.431553e+001 4.173129e+001 4.822360e+001 3.827776e+001 4.052964e+001 3.236060e+001 3.621314e+001 2.754641e+001 6.801627e+001 5.647725e+000 2.798046e+000 2.584010e+000 4.177976e+000 3.691262e+000 3.480821e+000 3.524195e+000 3.435240e+000 3.810465e+000 2.847486e+000 3.257564e+000 2.518502e+000 2.698182e+000 8.557636e-001 5.091329e-001 4.194515e-001 6.678932e-001 6.201090e-001 5.713833e-001 6.399851e-001 6.380280e-001 6.918737e-001 5.325506e-001 5.516425e-001 4.569634e-001 4.429194e-001
<GCONST> 1.284963e+002
<STATE> 3
<MEAN> 39
 -1.548407e+001 -2.085566e+000 -8.773304e-001 -6.097710e-002 -1.002312e+000 -2.612767e+000 -2.186053e-001 1.245211e+000 3.082155e+000 1.652099e+000 8.827112e-001 5.930170e-001 6.569260e+001 -6.035808e-001 -1.150744e-001 -1.055806e-001 2.718686e-002 7.429600e-002 1.024175e-001 2.386206e-001 1.878927e-001 2.271057e-001 1.867172e-001 2.963841e-001 2.176463e-001 -2.140935e-001 4.549126e-001 2.995655e-002 8.854257e-002 -2.518774e-001 -1.945100e-001 -2.559194e-002 -1.351883e-001 -1.295640e-001 -2.313275e-001 -6.872580e-002 -9.902041e-002 -1.138533e-001 3.879845e-002
<VARIANCE> 39
 5.209947e+001 2.799769e+001 3.527750e+001 4.436187e+001 4.120125e+001 3.693732e+001 4.559075e+001 3.542088e+001 3.649401e+001 3.002195e+001 3.313432e+001 2.493821e+001 6.894387e+001 6.530194e+000 2.358683e+000 2.225555e+000 3.395876e+000 3.172898e+000 3.011130e+000 3.143658e+000 3.126174e+000 3.480685e+000 2.546628e+000 2.874420e+000 2.363849e+000 3.256451e+000 7.462938e-001 4.644617e-001 4.021061e-001 5.984452e-001 5.825747e-001 5.471690e-001 6.114159e-001 6.038600e-001 6.377040e-001 4.992601e-001 5.295692e-001 4.416703e-001 5.166709e-001
<GCONST> 1.256788e+002
<STATE> 4
<MEAN> 39
 -1.533056e+001 -2.129463e+000 -1.169587e+000 -3.363480e-001 -1.124982e+000 -2.303522e+000 1.647595e-001 1.401411e+000 3.118595e+000 1.926479e+000 1.362902e+000 8.439800e-001 6.463105e+001 5.374457e-001 7.633074e-002 1.258611e-001 -4.285687e-001 -2.895294e-001 5.183197e-004 -4.933224e-002 -1.413402e-001 -2.848456e-001 -2.958738e-002 3.184907e-002 -9.449515e-002 -1.421639e-001 3.269922e-001 3.168933e-002 9.025373e-002 -1.815494e-001 -1.687556e-001 -4.698316e-002 -1.412076e-001 -1.178090e-001 -1.712319e-001 -5.525811e-002 -9.716873e-002 -1.147445e-001 9.980101e-002
<VARIANCE> 39
 6.347193e+001 3.093699e+001 3.822651e+001 5.045666e+001 4.592525e+001 3.940121e+001 4.695398e+001 3.580976e+001 3.708679e+001 2.977089e+001 3.359370e+001 2.589601e+001 8.194572e+001 6.857698e+000 2.405739e+000 2.331803e+000 3.571995e+000 3.517140e+000 3.165798e+000 3.370911e+000 3.172916e+000 3.621101e+000 2.514215e+000 2.962718e+000 2.390707e+000 3.947071e+000 8.062587e-001 4.447744e-001 3.798773e-001 5.982685e-001 6.064643e-001 5.479631e-001 6.056775e-001 5.903887e-001 6.437417e-001 4.826636e-001 5.251234e-001 4.272797e-001 6.223500e-001
<GCONST> 1.274014e+002
<TRANSP> 5
 0.000000e+000 1.000000e+000 0.000000e+000 0.000000e+000 0.000000e+000
 0.000000e+000 5.476384e-001 4.523616e-001 0.000000e+000 0.000000e+000
 0.000000e+000 0.000000e+000 5.464171e-001 4.535829e-001 0.000000e+000
 0.000000e+000 0.000000e+000 0.000000e+000 6.578356e-001 3.421643e-001
 0.000000e+000 0.000000e+000 0.000000e+000 0.000000e+000 0.000000e+000
<ENDHMM>
~h "g"
<BEGINHMM>
<NUMSTATES> 5
<STATE> 2
<MEAN> 39
 -3.382800e+000 -1.782673e-001 5.703173e+000 -1.703519e+000 -8.576134e+000 -7.367817e+000 -5.044384e+000 -1.101294e+000 -5.264595e+000 -2.862045e-001 -1.603640e+000 -3.875453e+000 6.401858e+001 2.405661e-002 4.108101e-001 2.757767e-001 6.813294e-001 9.910911e-002 -4.018666e-001 6.531540e-002 -1.173764e-001 -2.508121e-001 -1.259407e-001 8.109045e-004 -7.096232e-002 -3.409299e-001 -2.300834e-002 -1.248767e-001 -1.027116e-001 -1.575753e-001 -2.357478e-002 5.681873e-002 -7.301611e-002 -4.079077e-002 8.452872e-002 3.064029e-003 -3.207845e-002 2.871904e-002 2.319999e-001
<VARIANCE> 39
 3.674808e+001 6.326118e+001 6.671355e+001 6.920889e+001 9.988676e+001 6.744233e+001 6.699306e+001 7.059900e+001 6.550051e+001 4.853135e+001 7.153545e+001 4.097829e+001 1.007853e+002 2.298165e+000 5.493330e+000 3.353590e+000 4.294644e+000 6.436959e+000 4.139970e+000 4.233246e+000 4.435308e+000 5.447781e+000 4.016306e+000 3.858534e+000 3.170287e+000 7.254502e+000 4.431480e-001 9.543180e-001 5.952752e-001 7.615880e-001 1.239240e+000 7.961616e-001 8.283016e-001 7.958937e-001 1.026774e+000 8.082488e-001 7.261035e-001 6.064211e-001 1.226794e+000
<GCONST> 1.419090e+002
<STATE> 3
<MEAN> 39
 -3.358017e+000 2.328548e-001 6.008719e+000 -7.762921e-001 -8.533571e+000 -8.064426e+000 -5.092814e+000 -1.425547e+000 -5.633271e+000 -4.966322e-001 -1.728132e+000 -3.944445e+000 6.401682e+001 -3.261551e-003 6.361577e-002 2.617328e-002 2.497677e-001 -1.963003e-002 -2.581490e-001 -1.229445e-001 -1.376168e-001 -1.006936e-002 -7.169050e-002 -3.657723e-002 2.774906e-002 1.952103e-001 -1.126656e-002 -1.374593e-001 -9.947545e-002 -2.249314e-001 -5.881653e-002 9.617059e-002 -8.302049e-002 -1.886328e-002 1.087690e-001 1.869003e-002 -9.371654e-003 3.490235e-002 2.350111e-001
<VARIANCE> 39
 3.383774e+001 5.958997e+001 6.493063e+001 6.473399e+001 9.790538e+001 6.288016e+001 6.327073e+001 6.616267e+001 6.022632e+001 4.722290e+001 6.664895e+001 3.826888e+001 9.241302e+001 2.566277e+000 5.754839e+000 3.627325e+000 4.498381e+000 8.093045e+000 4.487324e+000 4.534126e+000 4.553081e+000 5.482490e+000 4.266666e+000 3.856092e+000 3.217795e+000 7.772898e+000 4.939402e-001 1.012256e+000 6.320525e-001 7.544509e-001 1.425372e+000 8.178889e-001 8.410661e-001 8.021860e-001 1.009343e+000 8.404401e-001 7.378225e-001 6.140767e-001 1.286566e+000
<GCONST> 1.424657e+002
<STATE> 4
<MEAN> 39
 -3.612299e+000 -8.895657e-002 5.707121e+000 -6.516285e-001 -9.078112e+000 -8.229761e+000 -5.574811e+000 -1.467760e+000 -5.318778e+000 -6.441633e-001 -1.599696e+000 -3.771812e+000 6.432887e+001 -2.190898e-002 -1.145746e-001 -1.850467e-001 -1.716224e-001 -2.407090e-002 6.366255e-004 -2.387765e-001 -1.506055e-001 2.194943e-001 -2.023253e-002 -6.798624e-002 6.392298e-002 4.838198e-001 -3.107462e-002 -5.930636e-002 -5.357944e-002 -1.692583e-001 4.147368e-003 1.123213e-001 -3.355352e-002 -1.696528e-002 5.382594e-002 1.079847e-002 -1.164875e-002 8.023914e-003 1.192549e-001
<VARIANCE> 39
 3.482922e+001 6.114853e+001 6.485176e+001 6.599529e+001 9.458257e+001 6.245860e+001 6.000829e+001 6.344286e+001 5.835088e+001 4.608728e+001 6.191936e+001 3.569505e+001 1.005602e+002 2.634354e+000 5.097048e+000 3.764513e+000 4.396008e+000 7.945047e+000 4.465147e+000 4.440495e+000 4.424554e+000 5.055957e+000 4.263603e+000 3.702529e+000 3.044549e+000 6.465585e+000 4.962901e-001 9.416319e-001 6.252977e-001 7.403422e-001 1.478139e+000 8.259391e-001 8.347007e-001 7.901970e-001 9.372170e-001 8.128484e-001 7.129236e-001 5.817046e-001 1.231100e+000
<GCONST> 1.414580e+002
<TRANSP> 5
 0.000000e+000 1.000000e+000 0.000000e+000 0.000000e+000 0.000000e+000
 0.000000e+000 5.026217e-001 4.973783e-001 0.000000e+000 0.000000e+000
 0.000000e+000 0.000000e+000 5.101001e-001 4.899000e-001 0.000000e+000
 0.000000e+000 0.000000e+000 0.000000e+000 5.928615e-001 4.071385e-001
 0.000000e+000 0.000000e+000 0.000000e+000 0.000000e+000 0.000000e+000
<ENDHMM>
~h "h"
<BEGINHMM>
<NUMSTATES> 5
<STATE> 2
<MEAN> 39
 -1.444095e+000 -1.801941e+000 -9.918545e-001 -8.976024e+000 -2.681487e+000 -4.819677e-001 -5.065464e+000 -2.906456e+000 -4.180082e+000 -7.589268e-001 -4.623972e+000 -4.258183e+000 7.043919e+001 1.501958e-001 3.180466e-001 -3.623900e-001 -1.299170e-001 7.431483e-001 6.375024e-001 2.665870e-001 -3.543036e-001 -8.603795e-002 8.972701e-002 4.400374e-002 -2.471529e-002 -2.738175e-001 -4.578798e-005 -1.657309e-002 6.623720e-002 -7.600918e-002 -2.415481e-001 -6.644668e-002 -4.856042e-002 -3.304082e-002 -2.914895e-002 -6.842494e-003 9.703746e-002 3.239951e-002 2.381504e-002
<VARIANCE> 39
 2.822696e+001 4.722598e+001 5.621534e+001 1.007212e+002 9.041313e+001 8.217007e+001 7.881831e+001 7.144547e+001 6.340203e+001 6.669351e+001 7.903536e+001 4.235759e+001 5.388939e+001 1.182062e+000 1.870501e+000 2.504723e+000 3.912393e+000 4.953517e+000 3.520926e+000 3.665334e+000 3.650384e+000 3.528944e+000 3.312211e+000 3.123556e+000 2.451228e+000 1.047739e+000 1.781451e-001 2.802218e-001 3.302856e-001 6.152239e-001 7.859574e-001 5.649385e-001 6.258099e-001 6.239632e-001 6.195813e-001 5.818800e-001 5.429710e-001 4.426718e-001 1.569362e-001
<GCONST> 1.279441e+002
<STATE> 3
<MEAN> 39
 -1.061353e+000 -1.103748e+000 -1.574551e+000 -9.549206e+000 -1.923676e+000 6.642002e-001 -4.578925e+000 -3.714249e+000 -4.494551e+000 -5.784940e-001 -4.243359e+000 -4.172436e+000 6.992529e+001 2.096171e-001 1.887087e-001 -2.465067e-001 -3.297545e-001 4.676298e-002 3.242297e-001 5.799545e-002 -2.872851e-001 -1.029684e-001 5.755219e-002 1.978725e-001 5.901951e-002 -1.347845e-001 1.736693e-002 -5.801447e-002 6.634536e-002 -5.020834e-002 -2.858991e-001 -1.512170e-001 -1.140876e-001 3.441530e-002 1.028586e-002 -1.566797e-002 5.623856e-002 2.559063e-002 5.473636e-002
<VARIANCE> 39
 2.745468e+001 4.384721e+001 5.371376e+001 9.793050e+001 8.861513e+001 7.862997e+001 7.772505e+001 7.068452e+001 6.065833e+001 6.574725e+001 7.814400e+001 4.140659e+001 5.196438e+001 1.057312e+000 1.713366e+000 2.186844e+000 3.895842e+000 4.786018e+000 3.363052e+000 3.405238e+000 3.322556e+000 3.262635e+000 3.114732e+000 2.944874e+000 2.360064e+000 1.012238e+000 1.632217e-001 2.592167e-001 3.198836e-001 5.698887e-001 7.237636e-001 5.282438e-001 5.894859e-001 5.762074e-001 5.736368e-001 5.499781e-001 5.130259e-001 4.254550e-001 1.500873e-001
<GCONST> 1.258549e+002
<STATE> 4
<MEAN> 39
 -1.797763e-001 -5.508474e-001 -2.414444e+000 -1.089105e+001 -3.258005e+000 1.201141e+000 -4.537701e+000 -4.294024e+000 -4.844555e+000 -3.416667e-001 -3.245628e+000 -4.032506e+000 6.927678e+001 1.962719e-001 2.572400e-002 -7.494548e-002 -2.659451e-001 -4.696214e-001 -1.021851e-001 -2.397154e-001 -1.415018e-001 1.591668e-002 4.748226e-002 2.218209e-001 8.316500e-002 -4.540244e-002 -3.104742e-002 -4.501686e-002 8.040952e-002 9.943485e-002 -1.077534e-001 -1.311269e-001 -9.217265e-002 3.984972e-002 6.543560e-002 -9.263081e-004 1.417358e-002 -2.325865e-003 -5.733908e-004
<VARIANCE> 39
 2.802521e+001 4.530315e+001 5.427906e+001 1.067708e+002 8.707914e+001 8.113664e+001 7.685194e+001 6.811626e+001 5.828884e+001 6.190889e+001 7.705446e+001 4.147033e+001 5.941815e+001 9.734439e-001 1.666029e+000 1.962483e+000 3.679457e+000 4.093828e+000 3.026374e+000 3.176031e+000 3.070937e+000 3.025545e+000 2.883955e+000 2.709600e+000 2.218438e+000 1.081607e+000 1.612839e-001 2.608923e-001 3.137690e-001 5.789683e-001 6.645083e-001 5.021465e-001 5.487717e-001 5.403198e-001 5.326206e-001 5.094737e-001 4.841028e-001 4.065541e-001 1.756823e-001
<GCONST> 1.246970e+002
<TRANSP> 5
 0.000000e+000 1.000000e+000 0.000000e+000 0.000000e+000 0.000000e+000
 0.000000e+000 5.585900e-001 4.414100e-001 0.000000e+000 0.000000e+000
 0.000000e+000 0.000000e+000 5.625579e-001 4.374422e-001 0.000000e+000
 0.000000e+000 0.000000e+000 0.000000e+000 6.915926e-001 3.084074e-001
 0.000000e+000 0.000000e+000 0.000000e+000 0.000000e+000 0.000000e+000
<ENDHMM>
~h "i"
<BEGINHMM>
<NUMSTATES> 5
<STATE> 2
<MEAN> 39
 -5.756280e+000 -6.597540e-001 9.092401e+000 -4.011644e+000 -1.301380e+001 -9.055852e+000 -6.709546e+000 -2.933062e+000 -5.716937e+000 -8.450314e-001 -1.379878e+000 -1.992207e+000 6.930229e+001 3.768308e-001 2.079404e-002 5.302138e-001 -2.792246e-002 -7.513301e-001 -4.531661e-001 -1.245074e-001 -2.587547e-002 -5.157967e-001 1.764506e-002 2.968221e-002 5.676411e-002 9.975893e-002 -1.476839e-001 1.143400e-001 -2.554572e-001 8.076560e-002 3.716082e-001 2.390061e-001 1.379596e-001 -3.878840e-005 2.098629e-001 6.279406e-002 3.479378e-002 -9.051014e-003 -2.500656e-001
<VARIANCE> 39
 4.443353e+001 4.925650e+001 6.239909e+001 7.526482e+001 8.441392e+001 6.473528e+001 7.449630e+001 6.046756e+001 6.322152e+001 4.595836e+001 5.221854e+001 3.288195e+001 6.822053e+001 4.146925e+000 3.551046e+000 4.748907e+000 4.510927e+000 8.209326e+000 4.848826e+000 5.596180e+000 4.814714e+000 5.709725e+000 3.719806e+000 3.725006e+000 2.800493e+000 4.244697e+000 6.176671e-001 6.332766e-001 6.719565e-001 7.793483e-001 1.379569e+000 8.541406e-001 9.491586e-001 9.145608e-001 9.960889e-001 7.020106e-001 6.693922e-001 5.116759e-001 6.699610e-001
<GCONST> 1.406727e+002
<STATE> 3
<MEAN> 39
 -5.402816e+000 -2.833015e-001 9.537307e+000 -3.836226e+000 -1.350957e+001 -9.292751e+000 -6.547888e+000 -3.024773e+000 -6.203707e+000 -6.622276e-001 -1.252448e+000 -1.942006e+000 6.877349e+001 -2.743536e-004 2.716278e-001 -1.457875e-001 2.236572e-001 2.572358e-001 7.212768e-002 2.074949e-001 -2.968843e-002 8.086462e-002 7.823826e-002 7.404611e-002 4.424297e-002 -4.771113e-001 -1.991048e-001 8.598920e-002 -3.062460e-001 8.441582e-002 4.402723e-001 2.525445e-001 1.385614e-001 2.559109e-003 2.676706e-001 3.106040e-002 2.791131e-002 -5.583365e-004 -2.123051e-001
<VARIANCE> 39
 3.773366e+001 4.974522e+001 6.064246e+001 7.583013e+001 8.124296e+001 6.501386e+001 7.189016e+001 6.041465e+001 6.203684e+001 4.656682e+001 5.257578e+001 3.218613e+001 7.376907e+001 3.367269e+000 3.443632e+000 4.483097e+000 4.363923e+000 7.855406e+000 4.464347e+000 5.036250e+000 4.371909e+000 5.441938e+000 3.525227e+000 3.540775e+000 2.643371e+000 4.296975e+000 5.204164e-001 6.286943e-001 6.370218e-001 7.678914e-001 1.291310e+000 8.145096e-001 8.977067e-001 8.720590e-001 9.568688e-001 6.906368e-001 6.538215e-001 5.015312e-001 6.643178e-001
<GCONST> 1.390570e+002
<STATE> 4
<MEAN> 39
 -5.919325e+000 6.349253e-001 8.501555e+000 -2.893000e+000 -1.189194e+001 -8.563665e+000 -5.589324e+000 -3.159487e+000 -5.397878e+000 -4.369318e-001 -9.228976e-001 -1.754267e+000 6.654057e+001 -3.683323e-001 3.043013e-001 -7.511215e-001 3.343199e-001 1.024405e+000 4.872825e-001 4.005557e-001 1.796721e-002 5.800877e-001 8.560770e-002 1.183746e-001 8.390886e-002 -7.687591e-001 -1.496082e-001 -4.485560e-002 -1.795473e-001 -3.534349e-002 1.873189e-001 1.553600e-001 4.125809e-002 2.832009e-002 1.316736e-001 1.519910e-002 1.288327e-002 1.031895e-002 2.876578e-002
<VARIANCE> 39
 4.348160e+001 5.011479e+001 6.266762e+001 7.364874e+001 8.247848e+001 6.651016e+001 7.419593e+001 5.923645e+001 6.117772e+001 4.605387e+001 5.249052e+001 3.302346e+001 9.288127e+001 3.104595e+000 3.200937e+000 3.682018e+000 3.907817e+000 5.933563e+000 4.054996e+000 4.367285e+000 4.132743e+000 4.651835e+000 3.324668e+000 3.388428e+000 2.617500e+000 3.871934e+000 4.496530e-001 5.818778e-001 5.816365e-001 6.843888e-001 1.095124e+000 7.409133e-001 7.896324e-001 7.792968e-001 8.451433e-001 6.397407e-001 6.000044e-001 4.794700e-001 6.814670e-001
<GCONST> 1.368425e+002
<TRANSP> 5
 0.000000e+000 1.000000e+000 0.000000e+000 0.000000e+000 0.000000e+000
 0.000000e+000 4.942724e-001 5.057276e-001 0.000000e+000 0.000000e+000
 0.000000e+000 0.000000e+000 4.948072e-001 5.051928e-001 0.000000e+000
 0.000000e+000 0.000000e+000 0.000000e+000 5.792075e-001 4.207925e-001
 0.000000e+000 0.000000e+000 0.000000e+000 0.000000e+000 0.000000e+000
<ENDHMM>
~h "j"
<BEGINHMM>
<NUMSTATES> 5
<STATE> 2
<MEAN> 39
 -8.181560e+000 -8.397673e-001 7.934521e-001 -3.087104e+000 -6.054378e+000 -1.411216e+000 -5.703331e+000 -9.600641e-001 -1.128315e+000 3.115045e-001 -4.162351e-002 -2.632388e+000 5.972141e+001 2.785330e-003 -1.045757e-003 6.313304e-004 -2.159091e-003 3.026221e-003 -1.600968e-003 -3.862435e-004 -2.054316e-003 -2.347980e-003 5.696056e-004 -1.824468e-003 -2.401014e-003 6.123751e-003 -9.891086e-005 4.229150e-005 1.729190e-004 2.880200e-005 -2.228669e-004 -1.810697e-004 1.080622e-004 3.640906e-004 -2.012024e-004 -3.821263e-004 -9.726603e-005 6.166917e-004 -1.332578e-004
<VARIANCE> 39
 9.382297e+001 6.561708e+001 8.554286e+001 8.949753e+001 8.775438e+001 7.374645e+001 8.604665e+001 5.887415e+001 5.858043e+001 4.554563e+001 4.403375e+001 4.203986e+001 1.737772e+002 3.147308e+000 2.809297e+000 2.839018e+000 3.337057e+000 3.796423e+000 3.465490e+000 3.963683e+000 3.428154e+000 3.401368e+000 2.648895e+000 2.526839e+000 2.389405e+000 2.903376e+000 4.450465e-001 4.624774e-001 4.444506e-001 5.723900e-001 6.585924e-001 6.063358e-001 7.105762e-001 6.283799e-001 6.195698e-001 5.015171e-001 4.802391e-001 4.423477e-001 4.518719e-001
<GCONST> 1.337118e+002
<STATE> 3
<MEAN> 39
 -8.181560e+000 -8.397673e-001 7.934521e-001 -3.087104e+000 -6.054378e+000 -1.411216e+000 -5.703331e+000 -9.600641e-001 -1.128315e+000 3.115045e-001 -4.162351e-002 -2.632388e+000 5.972141e+001 2.785330e-003 -1.045757e-003 6.313304e-004 -2.159091e-003 3.026221e-003 -1.600968e-003 -3.862435e-004 -2.054316e-003 -2.347980e-003 5.696056e-004 -1.824468e-003 -2.401014e-003 6.123751e-003 -9.891086e-005 4.229150e-005 1.729190e-004 2.880200e-005 -2.228669e-004 -1.810697e-004 1.080622e-004 3.640906e-004 -2.012024e-004 -3.821263e-004 -9.726603e-005 6.166917e-004 -1.332578e-004
<VARIANCE> 39
 9.382297e+001 6.561708e+001 8.554286e+001 8.949753e+001 8.775438e+001 7.374645e+001 8.604665e+001 5.887415e+001 5.858043e+001 4.554563e+001 4.403375e+001 4.203986e+001 1.737772e+002 3.147308e+000 2.809297e+000 2.839018e+000 3.337057e+000 3.796423e+000 3.465490e+000 3.963683e+000 3.428154e+000 3.401368e+000 2.648895e+000 2.526839e+000 2.389405e+000 2.903376e+000 4.450465e-001 4.624774e-001 4.444506e-001 5.723900e-001 6.585924e-001 6.063358e-001 7.105762e-001 6.283799e-001 6.195698e-001 5.015171e-001 4.802391e-001 4.423477e-001 4.518719e-001
<GCONST> 1.337118e+002
<STATE> 4
<MEAN> 39
 -8.181560e+000 -8.397673e-001 7.934521e-001 -3.087104e+000 -6.054378e+000 -1.411216e+000 -5.703331e+000 -9.600641e-001 -1.128315e+000 3.115045e-001 -4.162351e-002 -2.632388e+000 5.972141e+001 2.785330e-003 -1.045757e-003 6.313304e-004 -2.159091e-003 3.026221e-003 -1.600968e-003 -3.862435e-004 -2.054316e-003 -2.347980e-003 5.696056e-004 -1.824468e-003 -2.401014e-003 6.123751e-003 -9.891086e-005 4.229150e-005 1.729190e-004 2.880200e-005 -2.228669e-004 -1.810697e-004 1.080622e-004 3.640906e-004 -2.012024e-004 -3.821263e-004 -9.726603e-005 6.166917e-004 -1.332578e-004
<VARIANCE> 39
 9.382297e+001 6.561708e+001 8.554286e+001 8.949753e+001 8.775438e+001 7.374645e+001 8.604665e+001 5.887415e+001 5.858043e+001 4.554563e+001 4.403375e+001 4.203986e+001 1.737772e+002 3.147308e+000 2.809297e+000 2.839018e+000 3.337057e+000 3.796423e+000 3.465490e+000 3.963683e+000 3.428154e+000 3.401368e+000 2.648895e+000 2.526839e+000 2.389405e+000 2.903376e+000 4.450465e-001 4.624774e-001 4.444506e-001 5.723900e-001 6.585924e-001 6.063358e-001 7.105762e-001 6.283799e-001 6.195698e-001 5.015171e-001 4.802391e-001 4.423477e-001 4.518719e-001
<GCONST> 1.337118e+002
<TRANSP> 5
 0.000000e+000 1.000000e+000 0.000000e+000 0.000000e+000 0.000000e+000
 0.000000e+000 6.000000e-001 4.000000e-001 0.000000e+000 0.000000e+000
 0.000000e+000 0.000000e+000 6.000000e-001 4.000000e-001 0.000000e+000
 0.000000e+000 0.000000e+000 0.000000e+000 7.000000e-001 3.000000e-001
 0.000000e+000 0.000000e+000 0.000000e+000 0.000000e+000 0.000000e+000
<ENDHMM>
~h "k"
<BEGINHMM>
<NUMSTATES> 5
<STATE> 2
<MEAN> 39
 -9.197319e+000 -1.984635e-001 -4.709187e-001 -7.904513e-001 -1.452005e+000 -4.469976e+000 -7.240838e-001 1.063665e+000 5.017499e-001 2.356643e+000 8.739941e-001 -2.766606e-001 5.918036e+001 -1.471844e-001 -3.839020e-001 -6.706623e-001 7.956289e-002 5.637034e-001 2.309169e-001 2.651726e-001 2.755724e-001 2.558547e-001 3.969263e-001 2.414476e-001 3.642276e-001 -5.630525e-001 3.457913e-002 -2.041591e-001 -4.137343e-002 -3.471101e-001 -2.303452e-001 -2.643297e-002 -1.662600e-001 -9.747226e-002 -1.852168e-001 -4.049088e-002 -1.175789e-001 -7.919741e-002 6.323280e-001
<VARIANCE> 39
 5.513057e+001 5.244708e+001 6.369018e+001 7.169347e+001 8.919646e+001 6.880374e+001 6.384381e+001 5.619737e+001 6.907144e+001 4.500243e+001 5.279358e+001 3.654294e+001 9.522005e+001 3.295227e+000 5.279615e+000 5.332852e+000 6.044133e+000 6.780749e+000 5.349142e+000 4.801771e+000 4.632097e+000 6.071331e+000 4.057621e+000 4.353379e+000 3.095510e+000 1.111885e+001 4.980347e-001 9.757282e-001 9.775428e-001 9.727027e-001 1.190092e+000 1.002029e+000 9.026558e-001 8.779227e-001 1.106639e+000 8.211468e-001 8.012484e-001 6.034148e-001 1.701055e+000
<GCONST> 1.452597e+002
<STATE> 3
<MEAN> 39
 -9.488033e+000 -1.853873e+000 -2.191172e+000 -1.715992e+000 -8.645979e-001 -4.163184e+000 -6.122375e-001 1.395442e+000 4.486119e-001 3.120188e+000 9.848714e-001 3.037181e-001 6.016826e+001 1.684397e-001 -6.505910e-001 -4.977970e-001 -7.454084e-001 -1.877639e-001 2.177851e-002 -2.484210e-001 -8.738983e-002 -3.415319e-001 1.504474e-001 -1.415172e-001 -3.110097e-004 1.053371e+000 2.225323e-001 5.231168e-002 2.199436e-001 -2.573729e-001 -3.527706e-001 -6.648804e-002 -2.345801e-001 -1.683584e-001 -2.241626e-001 -1.590554e-001 -1.308941e-001 -1.990969e-001 4.545669e-001
<VARIANCE> 39
 4.414317e+001 5.563548e+001 7.095824e+001 7.677973e+001 8.743008e+001 6.779044e+001 6.618917e+001 5.289646e+001 6.465212e+001 4.443774e+001 4.929235e+001 3.540470e+001 1.006837e+002 3.853516e+000 5.717128e+000 7.294178e+000 6.658208e+000 8.494531e+000 5.956048e+000 5.368915e+000 5.210908e+000 6.468400e+000 4.692231e+000 4.933939e+000 3.659320e+000 1.075282e+001 5.750625e-001 1.131942e+000 1.276760e+000 1.118398e+000 1.372012e+000 1.042537e+000 9.656754e-001 9.251979e-001 1.099338e+000 8.898112e-001 8.686675e-001 6.616400e-001 1.828445e+000
<GCONST> 1.480860e+002
<STATE> 4
<MEAN> 39
 -8.630216e+000 -2.945376e+000 -2.728941e+000 -3.717702e+000 -2.207667e+000 -4.266502e+000 -1.607357e+000 9.377972e-001 -8.252253e-001 2.971553e+000 4.058582e-001 -2.777508e-001 6.312545e+001 8.168729e-001 -1.636845e-001 2.535203e-001 -1.035929e+000 -9.265882e-001 -8.052742e-002 -7.122692e-001 -4.537713e-001 -7.408862e-001 -3.057585e-001 -3.564195e-001 -5.041554e-001 1.436619e+000 2.129227e-001 1.645222e-001 2.684754e-001 -3.593217e-002 -2.109666e-001 3.942818e-003 -1.327192e-001 -9.595559e-002 -7.021031e-002 -1.543539e-001 -3.391734e-002 -1.488269e-001 -2.752944e-002
<VARIANCE> 39
 5.006479e+001 5.541082e+001 8.118885e+001 8.333430e+001 9.390826e+001 7.340873e+001 6.918514e+001 5.702334e+001 6.563083e+001 4.748335e+001 5.316237e+001 3.832167e+001 1.123732e+002 4.332040e+000 5.227024e+000 7.447078e+000 6.357426e+000 8.085314e+000 5.626811e+000 5.362460e+000 5.267082e+000 6.165698e+000 4.769210e+000 5.057969e+000 3.871647e+000 7.491845e+000 6.445831e-001 1.002884e+000 1.320338e+000 1.075909e+000 1.454909e+000 1.023409e+000 9.715915e-001 9.191980e-001 1.066768e+000 8.950685e-001 8.462666e-001 6.880310e-001 1.476718e+000
<GCONST> 1.484372e+002
<TRANSP> 5
 0.000000e+000 1.000000e+000 0.000000e+000 0.000000e+000 0.000000e+000
 0.000000e+000 5.852877e-001 4.147123e-001 0.000000e+000 0.000000e+000
 0.000000e+000 0.000000e+000 5.804381e-001 4.195620e-001 0.000000e+000
 0.000000e+000 0.000000e+000 0.000000e+000 6.303650e-001 3.696351e-001
 0.000000e+000 0.000000e+000 0.000000e+000 0.000000e+000 0.000000e+000
<ENDHMM>
~h "l"
<BEGINHMM>
<NUMSTATES> 5
<STATE> 2
<MEAN> 39
 -1.753227e-001 -5.057672e+000 -1.470038e+000 -1.113680e+001 -8.105383e+000 -3.546377e-001 -1.032126e+001 -6.235602e+000 -4.642293e-001 1.115485e+000 -2.081761e+000 -4.241665e+000 7.146786e+001 4.661989e-001 -8.769117e-002 1.041395e-002 -4.888243e-001 -1.455815e-001 2.558945e-001 -5.606077e-001 -3.377353e-001 1.293304e-002 1.540451e-001 -8.698514e-002 -1.191057e-001 9.738955e-002 -1.897500e-001 1.166010e-001 6.304819e-002 1.546499e-001 8.152338e-002 -1.449177e-001 1.767426e-001 2.275033e-001 -6.114447e-002 -9.075798e-002 -1.505521e-002 5.724628e-002 -9.295242e-002
<VARIANCE> 39
 4.046056e+001 5.076329e+001 5.449138e+001 9.805296e+001 7.168084e+001 1.073599e+002 9.094744e+001 8.372330e+001 5.527954e+001 5.682174e+001 7.718056e+001 4.103815e+001 5.753798e+001 2.188966e+000 2.600558e+000 2.634854e+000 4.654388e+000 4.344271e+000 5.053099e+000 5.094515e+000 5.898556e+000 4.125263e+000 3.650786e+000 3.588975e+000 2.993021e+000 1.817682e+000 3.399522e-001 4.332781e-001 4.007503e-001 7.141502e-001 7.775612e-001 7.937434e-001 9.224635e-001 1.085561e+000 7.734391e-001 6.881454e-001 6.498758e-001 5.506461e-001 2.884539e-001
<GCONST> 1.358121e+002
<STATE> 3
<MEAN> 39
 2.632788e-001 -4.954741e+000 -1.390785e+000 -1.170426e+001 -8.129647e+000 -1.899379e-001 -1.095336e+001 -6.323636e+000 -5.347863e-001 1.191961e+000 -2.282794e+000 -4.315730e+000 7.143552e+001 6.511188e-002 9.164163e-002 9.645417e-002 -1.028084e-001 1.973853e-002 -1.473807e-001 -1.497802e-001 2.288684e-001 -9.831549e-002 -6.854970e-002 -1.583436e-001 -2.566459e-002 -1.948251e-002 -1.900547e-001 1.022110e-001 5.598059e-002 1.879737e-001 6.117874e-002 -1.597354e-001 2.212888e-001 2.184341e-001 -6.741587e-002 -9.405863e-002 -6.784028e-003 5.266101e-002 -7.284253e-002
<VARIANCE> 39
 3.445607e+001 4.910511e+001 5.633021e+001 9.825939e+001 6.960230e+001 1.103375e+002 9.059239e+001 8.380251e+001 5.500187e+001 5.801737e+001 7.839458e+001 4.226398e+001 5.655401e+001 1.772738e+000 2.506744e+000 2.459073e+000 4.388427e+000 4.084931e+000 4.830597e+000 4.905630e+000 5.870152e+000 4.048630e+000 3.571143e+000 3.415047e+000 2.920053e+000 1.756339e+000 2.790658e-001 4.111688e-001 3.777969e-001 7.015956e-001 7.380394e-001 7.687892e-001 8.967634e-001 1.060729e+000 7.631863e-001 6.746125e-001 6.404231e-001 5.477040e-001 2.662091e-001
<GCONST> 1.344224e+002
<STATE> 4
<MEAN> 39
 -2.965657e-001 -4.432740e+000 -1.504852e+000 -1.157015e+001 -7.747332e+000 -2.809938e-001 -1.060921e+001 -5.281765e+000 -7.247087e-001 8.883609e-001 -2.385537e+000 -4.253837e+000 7.032161e+001 -2.674484e-001 2.765229e-001 2.009815e-001 3.388261e-001 1.242692e-001 -4.583263e-001 2.696642e-001 5.340923e-001 -1.912198e-001 -2.016951e-001 -1.528831e-001 7.865807e-002 -2.308793e-001 -1.224856e-001 1.024393e-001 7.037446e-002 1.603511e-001 2.373696e-002 -7.424714e-002 1.673006e-001 4.477935e-002 -5.088487e-002 -2.908292e-002 4.196806e-002 4.971275e-002 -1.042828e-001
<VARIANCE> 39
 3.899953e+001 5.222393e+001 6.195921e+001 1.026093e+002 7.200333e+001 1.152510e+002 9.093209e+001 8.089477e+001 5.687855e+001 5.858709e+001 7.652335e+001 4.471919e+001 8.636684e+001 1.512956e+000 2.443431e+000 2.342168e+000 4.011936e+000 3.904935e+000 4.331822e+000 4.464144e+000 5.057226e+000 3.926895e+000 3.355748e+000 3.253234e+000 2.789181e+000 1.877819e+000 2.419061e-001 3.893332e-001 3.619610e-001 6.510190e-001 6.718705e-001 7.143406e-001 7.983375e-001 9.305322e-001 7.132698e-001 6.250707e-001 5.951138e-001 5.155599e-001 2.890503e-001
<GCONST> 1.335261e+002
<TRANSP> 5
 0.000000e+000 1.000000e+000 0.000000e+000 0.000000e+000 0.000000e+000
 0.000000e+000 5.020227e-001 4.979773e-001 0.000000e+000 0.000000e+000
 0.000000e+000 0.000000e+000 5.031177e-001 4.968822e-001 0.000000e+000
 0.000000e+000 0.000000e+000 0.000000e+000 6.099879e-001 3.900121e-001
 0.000000e+000 0.000000e+000 0.000000e+000 0.000000e+000 0.000000e+000
<ENDHMM>
~h "m"
<BEGINHMM>
<NUMSTATES> 5
<STATE> 2
<MEAN> 39
 2.469627e-001 2.871634e-002 2.576119e+000 -2.650697e+000 -7.000351e+000 -4.512486e+000 -7.104422e+000 -6.223525e+000 -7.966275e+000 -2.248451e+000 -2.798434e+000 -6.962696e+000 6.651711e+001 2.823920e-001 5.019965e-001 2.323094e-001 8.209881e-001 1.981632e-001 -2.090643e-001 3.193118e-002 -7.649204e-001 -7.642951e-001 -5.069733e-002 -3.576384e-002 -4.051774e-001 -4.308634e-001 -1.449008e-001 -1.234110e-001 -2.844701e-003 -2.843284e-001 -9.484915e-002 7.907183e-002 -1.017341e-002 2.108202e-001 2.128367e-001 -1.103773e-002 -2.654289e-002 1.531765e-001 1.816774e-001
<VARIANCE> 39
 2.802225e+001 4.960629e+001 4.561794e+001 8.349901e+001 6.634083e+001 8.851992e+001 7.058841e+001 6.914828e+001 7.109131e+001 5.967038e+001 8.247507e+001 4.382905e+001 6.019353e+001 1.628787e+000 2.590677e+000 3.272152e+000 4.644987e+000 3.504601e+000 3.889520e+000 3.644449e+000 5.133562e+000 5.241029e+000 3.828851e+000 3.652234e+000 3.189878e+000 2.013574e+000 2.373795e-001 4.154796e-001 5.302225e-001 7.729822e-001 5.957189e-001 6.560074e-001 6.424894e-001 8.896638e-001 9.208878e-001 6.929728e-001 6.482909e-001 5.691133e-001 2.782637e-001
<GCONST> 1.333977e+002
<STATE> 3
<MEAN> 39
 4.909472e-001 6.429902e-001 2.955061e+000 -1.875557e+000 -6.892991e+000 -4.653255e+000 -7.067732e+000 -7.085077e+000 -8.858503e+000 -2.426610e+000 -2.933507e+000 -7.298950e+000 6.614692e+001 1.735946e-003 1.244143e-001 2.751009e-002 -3.693775e-003 -1.469453e-002 5.782686e-002 5.209789e-002 -3.651181e-002 -3.677312e-002 -1.207084e-001 -7.511038e-002 3.368378e-002 -1.964568e-002 -1.473115e-001 -1.679554e-001 -7.782993e-002 -3.675477e-001 -7.123780e-002 1.337092e-001 8.965057e-003 3.355070e-001 3.336565e-001 -1.941587e-002 -1.081468e-002 1.930130e-001 1.715258e-001
<VARIANCE> 39
 2.361057e+001 4.625814e+001 4.196409e+001 8.136066e+001 6.281741e+001 8.955215e+001 6.843454e+001 6.583171e+001 7.009963e+001 6.252695e+001 8.591241e+001 4.439810e+001 5.452856e+001 1.460000e+000 2.530768e+000 2.943393e+000 4.887931e+000 3.268406e+000 3.686973e+000 3.429943e+000 5.142966e+000 5.421795e+000 3.702734e+000 3.436459e+000 3.132404e+000 2.091845e+000 2.247407e-001 3.934345e-001 5.310952e-001 7.545647e-001 5.757684e-001 6.483997e-001 6.231931e-001 8.633367e-001 9.473498e-001 7.271399e-001 6.810907e-001 5.821277e-001 2.669882e-001
<GCONST> 1.323704e+002
<STATE> 4
<MEAN> 39
 -7.636762e-002 7.030039e-001 2.504686e+000 -2.593071e+000 -7.056272e+000 -3.866944e+000 -6.817135e+000 -6.096782e+000 -7.819710e+000 -2.897143e+000 -2.920546e+000 -6.655930e+000 6.580547e+001 -2.944607e-001 -1.633488e-001 -1.666383e-001 -6.384056e-001 -6.552204e-002 3.220800e-001 1.037108e-001 5.994530e-001 6.199951e-001 -9.532139e-002 -5.723679e-002 3.960844e-001 1.816394e-001 -1.351159e-001 -9.174642e-002 -3.107259e-003 -1.847733e-001 -1.819291e-003 8.539425e-002 3.850364e-003 1.754404e-001 1.714052e-001 3.966947e-002 1.726185e-002 1.092080e-001 8.024736e-002
<VARIANCE> 39
 2.948993e+001 4.882963e+001 4.881189e+001 9.041637e+001 6.687244e+001 8.796597e+001 6.719173e+001 6.634446e+001 7.098150e+001 6.129549e+001 7.877716e+001 4.384585e+001 7.324844e+001 1.504739e+000 2.539308e+000 3.166411e+000 4.756289e+000 3.526292e+000 3.728763e+000 3.431388e+000 4.693623e+000 5.098058e+000 3.726064e+000 3.553091e+000 3.021055e+000 2.087617e+000 2.336011e-001 4.039801e-001 5.256413e-001 8.023385e-001 5.970273e-001 6.531984e-001 6.067560e-001 8.355002e-001 9.063752e-001 6.834953e-001 6.377960e-001 5.540237e-001 2.869292e-001
<GCONST> 1.330926e+002
<TRANSP> 5
 0.000000e+000 1.000000e+000 0.000000e+000 0.000000e+000 0.000000e+000
 0.000000e+000 5.363879e-001 4.636121e-001 0.000000e+000 0.000000e+000
 0.000000e+000 0.000000e+000 5.393871e-001 4.606130e-001 0.000000e+000
 0.000000e+000 0.000000e+000 0.000000e+000 6.371881e-001 3.628120e-001
 0.000000e+000 0.000000e+000 0.000000e+000 0.000000e+000 0.000000e+000
<ENDHMM>
~h "n"
<BEGINHMM>
<NUMSTATES> 5
<STATE> 2
<MEAN> 39
 -1.286957e+000 -1.601285e+000 2.937907e+000 -4.128078e+000 -8.308009e+000 -5.309380e+000 -7.026542e+000 -3.284428e+000 -4.317314e+000 -2.339451e+000 -5.821318e+000 -4.756630e+000 6.802810e+001 3.491877e-001 -1.134730e-002 7.520657e-002 1.594104e-001 -4.532808e-002 -1.172794e-001 -2.425035e-001 -1.757486e-001 -1.966494e-001 -1.656516e-001 -4.052679e-001 -1.706209e-001 6.396971e-002 -1.143623e-001 -1.279321e-001 -7.580796e-002 -1.919606e-001 4.510742e-002 1.048831e-001 -1.161078e-002 1.854425e-001 9.128077e-002 -7.486556e-003 1.043512e-001 4.812048e-002 1.317443e-001
<VARIANCE> 39
 3.246180e+001 5.834887e+001 5.013287e+001 7.906318e+001 7.270739e+001 8.472668e+001 7.774665e+001 7.913332e+001 6.705789e+001 6.027590e+001 7.289531e+001 4.044757e+001 7.282263e+001 1.974085e+000 4.375817e+000 3.471227e+000 4.807827e+000 4.136406e+000 5.019068e+000 4.234426e+000 7.257682e+000 4.842554e+000 4.238723e+000 3.722117e+000 2.713786e+000 3.172947e+000 3.268688e-001 7.233585e-001 5.627823e-001 8.374404e-001 7.420260e-001 9.090825e-001 7.756498e-001 1.340924e+000 8.781072e-001 8.182290e-001 6.849529e-001 5.086346e-001 4.996257e-001
<GCONST> 1.388314e+002
<STATE> 3
<MEAN> 39
 -8.681560e-001 -1.917940e+000 2.911856e+000 -4.229598e+000 -8.289078e+000 -5.299311e+000 -7.486319e+000 -3.170763e+000 -4.490157e+000 -2.677542e+000 -6.324597e+000 -4.945354e+000 6.844997e+001 1.008556e-001 -3.272361e-001 -1.737879e-001 -2.878370e-001 1.095629e-001 1.722229e-001 -2.227899e-001 3.311749e-001 3.839557e-002 -1.963762e-001 -1.344671e-001 -6.229330e-002 3.195115e-001 -1.319054e-001 -9.810357e-002 -1.033584e-001 -1.758168e-001 8.174731e-002 1.353499e-001 4.124766e-002 1.941148e-001 1.081565e-001 7.894917e-003 1.373569e-001 5.380904e-002 7.041533e-002
<VARIANCE> 39
 2.725800e+001 6.033309e+001 4.874718e+001 7.965012e+001 6.971207e+001 8.494027e+001 7.646562e+001 8.207194e+001 6.822375e+001 6.178502e+001 7.151650e+001 3.979294e+001 6.805074e+001 1.752374e+000 4.512790e+000 3.398870e+000 4.749845e+000 4.101854e+000 5.018498e+000 4.215341e+000 7.501588e+000 4.835504e+000 4.231349e+000 3.672116e+000 2.664306e+000 3.173551e+000 2.855917e-001 7.461805e-001 5.580905e-001 8.451592e-001 7.182037e-001 9.022979e-001 7.645840e-001 1.383425e+000 8.862194e-001 8.230468e-001 6.764667e-001 5.045429e-001 4.816692e-001
<GCONST> 1.382836e+002
<STATE> 4
<MEAN> 39
 -1.064547e+000 -2.686254e+000 2.196896e+000 -4.953712e+000 -7.832476e+000 -4.389651e+000 -7.741869e+000 -1.981854e+000 -4.068617e+000 -3.098777e+000 -6.088998e+000 -4.924033e+000 6.876157e+001 -1.531484e-001 -3.461149e-001 -3.400079e-001 -4.597159e-001 2.827099e-001 3.798180e-001 -4.076621e-002 5.451407e-001 2.330762e-001 -1.010757e-001 1.301585e-001 4.245760e-002 2.449844e-001 -1.157434e-001 4.558784e-002 -2.615206e-002 -2.145865e-002 5.719822e-002 5.305982e-002 9.414297e-002 4.949511e-003 6.215381e-002 6.766913e-002 1.082340e-001 4.629727e-002 -5.749706e-002
<VARIANCE> 39
 2.895185e+001 6.647442e+001 5.399532e+001 8.207137e+001 7.268976e+001 8.235088e+001 7.669136e+001 8.173892e+001 7.040425e+001 6.119421e+001 6.698923e+001 4.018917e+001 7.955475e+001 1.660595e+000 4.038258e+000 3.096408e+000 4.247531e+000 3.886788e+000 4.458161e+000 4.015113e+000 6.185647e+000 4.428095e+000 3.820970e+000 3.450638e+000 2.571423e+000 2.906691e+000 2.725849e-001 6.987160e-001 5.126716e-001 7.810474e-001 6.693535e-001 8.113005e-001 7.157256e-001 1.228161e+000 8.240862e-001 7.366710e-001 6.192792e-001 4.806423e-001 4.493391e-001
<GCONST> 1.365183e+002
<TRANSP> 5
 0.000000e+000 1.000000e+000 0.000000e+000 0.000000e+000 0.000000e+000
 0.000000e+000 4.955740e-001 5.044261e-001 0.000000e+000 0.000000e+000
 0.000000e+000 0.000000e+000 4.944127e-001 5.055873e-001 0.000000e+000
 0.000000e+000 0.000000e+000 0.000000e+000 5.653524e-001 4.346476e-001
 0.000000e+000 0.000000e+000 0.000000e+000 0.000000e+000 0.000000e+000
<ENDHMM>
~h "o"
<BEGINHMM>
<NUMSTATES> 5
<STATE> 2
<MEAN> 39
 -7.431176e-001 -1.544744e+000 -2.706857e+000 -1.213575e+001 -6.081976e+000 -4.424351e-001 -8.418893e+000 -5.063983e+000 -3.144810e+000 1.481876e+000 2.531359e-001 -2.622403e+000 6.864292e+001 9.462926e-001 1.260171e-001 -1.302265e-001 -1.209106e+000 -4.421136e-001 3.921466e-001 -6.635469e-001 -4.997357e-001 -5.563086e-001 5.400209e-002 1.393141e-001 -1.746290e-001 3.831066e-001 -2.173392e-001 9.700571e-002 1.539993e-001 3.698061e-001 1.346191e-001 -9.561233e-002 1.936423e-001 1.042948e-001 7.981365e-002 -5.592403e-002 -2.658768e-002 3.513245e-002 -2.698597e-001
<VARIANCE> 39
 4.733433e+001 4.428351e+001 5.057076e+001 1.160587e+002 7.663660e+001 7.773658e+001 8.590148e+001 5.959579e+001 6.329220e+001 5.690696e+001 7.272910e+001 4.017760e+001 7.256542e+001 4.029770e+000 3.235714e+000 3.455081e+000 9.021848e+000 6.168008e+000 5.297723e+000 6.130488e+000 4.899305e+000 5.527909e+000 4.537347e+000 4.860913e+000 3.413914e+000 4.397829e+000 6.720450e-001 5.779364e-001 5.808547e-001 1.573376e+000 1.055195e+000 9.360162e-001 1.110617e+000 8.885624e-001 1.014819e+000 8.493798e-001 8.779341e-001 6.477864e-001 7.481081e-001
<GCONST> 1.440338e+002
<STATE> 3
<MEAN> 39
 5.239580e-001 -1.174694e+000 -2.636626e+000 -1.352349e+001 -6.517223e+000 9.668311e-002 -9.211730e+000 -5.753512e+000 -3.967906e+000 1.473636e+000 4.476905e-001 -2.839209e+000 6.881281e+001 2.695243e-001 2.833580e-001 1.769472e-001 -2.874089e-002 -1.927937e-002 4.495410e-002 -1.290123e-001 -1.887770e-001 -2.080748e-001 -9.174507e-002 1.863167e-002 -8.547962e-002 -1.923235e-001 -3.480878e-001 7.277195e-002 1.346493e-001 5.237873e-001 1.828521e-001 -1.749602e-001 2.731220e-001 1.590830e-001 1.725765e-001 -7.051718e-002 -6.072611e-002 5.178921e-002 -2.442245e-001
<VARIANCE> 39
 3.552448e+001 4.493182e+001 4.861037e+001 1.155365e+002 7.234592e+001 7.966275e+001 8.448718e+001 5.944786e+001 6.318700e+001 5.786579e+001 7.779414e+001 4.091181e+001 6.771500e+001 3.473911e+000 3.233994e+000 3.007012e+000 9.529367e+000 5.718922e+000 4.996227e+000 5.917691e+000 4.557636e+000 5.467995e+000 4.417946e+000 4.551360e+000 3.274027e+000 4.428714e+000 5.478268e-001 5.689033e-001 5.391639e-001 1.556831e+000 9.853218e-001 8.984504e-001 1.079177e+000 8.637601e-001 1.007090e+000 8.466151e-001 8.937635e-001 6.452368e-001 6.807219e-001
<GCONST> 1.425201e+002
<STATE> 4
<MEAN> 39
 3.649531e-001 -2.796348e-001 -2.172036e+000 -1.255703e+001 -6.153670e+000 -8.655009e-002 -8.822174e+000 -5.806224e+000 -4.053380e+000 1.011795e+000 4.223034e-001 -2.910273e+000 6.751337e+001 -4.166877e-001 3.689526e-001 3.803813e-001 9.384245e-001 2.746417e-001 -3.345293e-001 3.600869e-001 1.320798e-001 1.608739e-001 -2.063964e-001 -1.339813e-001 6.984308e-003 -5.812921e-001 -2.841803e-001 -1.045472e-002 6.296103e-002 2.415324e-001 7.868584e-002 -1.156619e-001 1.678440e-001 1.296509e-001 1.159473e-001 -3.246883e-002 -4.160980e-002 4.357933e-002 -4.227372e-002
<VARIANCE> 39
 3.811833e+001 4.896297e+001 4.903014e+001 1.212687e+002 7.290221e+001 7.996496e+001 8.392533e+001 5.935955e+001 6.254541e+001 5.623447e+001 7.350332e+001 4.067289e+001 7.509877e+001 3.205928e+000 3.183894e+000 2.825449e+000 7.834842e+000 4.903069e+000 4.570767e+000 5.222517e+000 4.303326e+000 5.035310e+000 4.095500e+000 4.153948e+000 3.114958e+000 4.009621e+000 4.765403e-001 5.648348e-001 4.958462e-001 1.417377e+000 8.775838e-001 8.260766e-001 9.817979e-001 8.019080e-001 9.075853e-001 7.792448e-001 7.914928e-001 6.023126e-001 7.029272e-001
<GCONST> 1.405227e+002
<TRANSP> 5
 0.000000e+000 1.000000e+000 0.000000e+000 0.000000e+000 0.000000e+000
 0.000000e+000 5.213128e-001 4.786872e-001 0.000000e+000 0.000000e+000
 0.000000e+000 0.000000e+000 5.220206e-001 4.779794e-001 0.000000e+000
 0.000000e+000 0.000000e+000 0.000000e+000 6.015539e-001 3.984461e-001
 0.000000e+000 0.000000e+000 0.000000e+000 0.000000e+000 0.000000e+000
<ENDHMM>
~h "p"
<BEGINHMM>
<NUMSTATES> 5
<STATE> 2
<MEAN> 39
 -7.106418e+000 1.937077e+000 7.177086e-001 -1.842444e+000 -2.166858e+000 -2.444511e+000 -1.339928e+000 -2.491904e-001 1.481732e+000 1.292093e+000 1.594692e+000 -1.031032e-001 5.638047e+001 -3.908917e-001 -2.223820e-001 -2.583947e-001 2.684146e-001 3.052269e-001 1.154152e-001 3.465898e-001 1.876055e-001 5.416683e-001 2.517302e-001 2.935823e-001 2.780516e-001 -1.596689e-001 6.565443e-002 -2.634436e-001 -4.599471e-002 -3.258274e-001 -2.330109e-001 -4.119899e-002 -1.868561e-001 -1.079233e-001 -1.380798e-001 -4.778131e-002 -1.150493e-001 -9.876880e-002 7.756859e-001
<VARIANCE> 39
 5.246933e+001 3.839965e+001 4.116016e+001 6.036467e+001 5.735226e+001 5.137809e+001 5.667916e+001 4.320895e+001 5.031510e+001 3.692404e+001 4.250903e+001 3.081963e+001 1.018246e+002 3.754160e+000 3.875617e+000 2.778053e+000 5.292801e+000 4.255164e+000 3.954389e+000 4.208196e+000 3.668341e+000 4.298863e+000 3.163758e+000 3.618911e+000 2.756351e+000 1.302976e+001 6.515778e-001 6.455243e-001 4.966476e-001 9.124638e-001 7.731528e-001 7.315797e-001 7.792541e-001 6.920493e-001 7.756805e-001 6.257407e-001 6.543057e-001 5.279541e-001 1.610816e+000
<GCONST> 1.364724e+002
<STATE> 3
<MEAN> 39
 -7.786332e+000 6.321112e-001 3.074224e-002 -2.098439e+000 -2.081108e+000 -2.371673e+000 -1.092368e+000 -1.785589e-001 2.189716e+000 1.653467e+000 1.852401e+000 1.830812e-001 5.824824e+001 7.806826e-002 -7.855330e-001 -3.318433e-001 -6.245557e-001 -3.584374e-001 -7.110658e-003 -2.442503e-001 -1.656768e-001 2.562776e-002 3.473150e-002 -6.305159e-002 -6.736223e-002 1.766303e+000 2.758376e-001 -1.163308e-001 1.483796e-002 -3.624101e-001 -3.036642e-001 5.238062e-003 -2.675313e-001 -1.464529e-001 -2.453062e-001 -9.683646e-002 -1.369866e-001 -1.458390e-001 5.479172e-001
<VARIANCE> 39
 4.564709e+001 3.874075e+001 3.835800e+001 5.815211e+001 5.386139e+001 4.533664e+001 5.462514e+001 4.148261e+001 4.544162e+001 3.487535e+001 3.961837e+001 2.873230e+001 1.194693e+002 5.676758e+000 4.265618e+000 3.390815e+000 6.832951e+000 5.616498e+000 4.796734e+000 5.192757e+000 4.347988e+000 4.940607e+000 3.672400e+000 4.203390e+000 3.262091e+000 1.426742e+001 8.249476e-001 7.644896e-001 5.697326e-001 1.087370e+000 9.250549e-001 8.478114e-001 8.588263e-001 7.652333e-001 8.266088e-001 6.747972e-001 7.314862e-001 5.650898e-001 2.108346e+000
<GCONST> 1.401711e+002
<STATE> 4
<MEAN> 39
 -6.996884e+000 -1.222919e+000 -7.113158e-001 -3.909623e+000 -3.364592e+000 -2.377407e+000 -2.067595e+000 -7.761699e-001 1.743972e+000 1.491962e+000 1.514072e+000 -3.546167e-001 6.293475e+001 7.994725e-001 -7.584583e-001 -2.170674e-001 -1.281033e+000 -9.622472e-001 3.974746e-002 -7.760659e-001 -4.576105e-001 -5.462644e-001 -1.990134e-001 -3.338411e-001 -3.598034e-001 2.338285e+000 1.650281e-001 1.093369e-001 9.052715e-002 -1.377558e-001 -1.371611e-001 6.487244e-002 -1.387931e-001 -4.863998e-002 -1.644873e-001 -5.850454e-002 -5.267970e-002 -5.896632e-002 -1.294196e-001
<VARIANCE> 39
 5.821373e+001 4.258662e+001 4.011794e+001 7.462287e+001 5.967343e+001 4.978981e+001 5.927292e+001 4.520630e+001 4.722077e+001 3.644339e+001 4.269019e+001 3.055834e+001 1.349167e+002 6.904056e+000 4.355281e+000 3.909578e+000 8.047151e+000 6.251358e+000 5.442564e+000 5.428506e+000 4.752266e+000 5.366746e+000 3.935266e+000 4.575562e+000 3.366371e+000 1.061878e+001 9.811065e-001 7.607545e-001 6.051882e-001 1.372352e+000 1.085333e+000 9.343636e-001 9.378932e-001 8.249076e-001 8.962765e-001 7.154359e-001 7.627991e-001 5.945259e-001 2.205033e+000
<GCONST> 1.435279e+002
<TRANSP> 5
 0.000000e+000 1.000000e+000 0.000000e+000 0.000000e+000 0.000000e+000
 0.000000e+000 5.597689e-001 4.402311e-001 0.000000e+000 0.000000e+000
 0.000000e+000 0.000000e+000 5.568471e-001 4.431529e-001 0.000000e+000
 0.000000e+000 0.000000e+000 0.000000e+000 6.156619e-001 3.843382e-001
 0.000000e+000 0.000000e+000 0.000000e+000 0.000000e+000 0.000000e+000
<ENDHMM>
~h "r"
<BEGINHMM>
<NUMSTATES> 5
<STATE> 2
<MEAN> 39
 -2.203801e+000 -5.969830e+000 -1.931566e-001 -4.514638e+000 -9.219952e+000 -6.180342e+000 -7.607646e+000 -9.381297e-001 1.159359e+000 2.665582e-001 -3.013509e+000 -3.451935e+000 7.124297e+001 5.152037e-001 -4.595739e-001 1.726064e-001 2.501251e-001 -5.144902e-001 7.802422e-002 -4.235486e-001 -1.900286e-002 1.763103e-001 -1.005657e-001 -1.255269e-001 -7.486489e-002 9.202233e-002 -8.839639e-002 1.143452e-001 2.539791e-002 -4.793222e-002 1.654105e-001 1.707642e-001 1.019257e-001 6.983170e-003 -1.607124e-001 1.492217e-002 6.873550e-002 3.974893e-002 -2.308533e-001
<VARIANCE> 39
 3.596911e+001 5.255944e+001 4.454906e+001 6.728928e+001 7.305902e+001 5.690497e+001 7.003756e+001 6.184967e+001 5.601824e+001 5.051635e+001 6.131925e+001 3.671295e+001 7.113445e+001 2.737530e+000 3.414614e+000 2.890993e+000 4.354191e+000 5.111926e+000 4.070656e+000 4.532165e+000 4.456893e+000 4.675395e+000 3.584771e+000 3.974444e+000 3.110659e+000 3.593040e+000 4.935552e-001 5.729157e-001 5.017838e-001 8.545407e-001 9.114451e-001 7.845343e-001 8.594750e-001 8.220392e-001 8.552291e-001 6.923192e-001 7.766358e-001 6.041813e-001 7.131521e-001
<GCONST> 1.368757e+002
<STATE> 3
<MEAN> 39
 -1.572964e+000 -6.505488e+000 1.195334e-001 -4.133934e+000 -9.677652e+000 -5.741367e+000 -8.077740e+000 -9.223343e-001 1.195040e+000 1.517091e-001 -3.061202e+000 -3.468893e+000 7.098917e+001 3.636872e-001 -2.713939e-001 1.110403e-001 3.245258e-003 -1.941000e-001 3.027739e-001 -2.620013e-001 4.240403e-003 -1.913883e-001 -5.707664e-002 -2.217284e-002 -6.577622e-002 -9.177630e-002 -8.523617e-002 1.247528e-001 -3.645260e-002 -1.490095e-001 1.701596e-001 9.527220e-002 9.019002e-002 3.471416e-004 -1.963890e-001 2.204615e-002 5.195848e-002 -6.589743e-003 -8.285214e-002
<VARIANCE> 39
 3.522707e+001 5.507635e+001 4.472597e+001 6.758121e+001 7.069955e+001 5.567013e+001 6.921040e+001 6.483697e+001 5.795705e+001 5.032329e+001 6.048490e+001 3.593485e+001 6.825578e+001 2.333241e+000 3.445487e+000 2.776751e+000 4.156459e+000 4.720231e+000 3.874871e+000 4.272097e+000 4.342785e+000 4.630549e+000 3.451803e+000 3.863200e+000 2.981517e+000 2.899950e+000 4.309662e-001 5.771145e-001 4.730102e-001 8.114058e-001 8.726016e-001 7.360150e-001 8.190646e-001 8.162649e-001 8.458520e-001 6.653980e-001 7.525436e-001 5.803785e-001 5.363798e-001
<GCONST> 1.352510e+002
<STATE> 4
<MEAN> 39
 -1.392933e+000 -6.654611e+000 -6.600726e-002 -4.266114e+000 -9.589049e+000 -4.849960e+000 -8.347170e+000 -7.242813e-001 5.161044e-001 1.309003e-001 -2.895531e+000 -3.691768e+000 6.984869e+001 2.001203e-001 1.098171e-002 5.249653e-004 -2.726412e-001 1.019492e-001 3.576738e-001 -9.652776e-002 -5.094302e-002 -4.877416e-001 -1.852807e-002 6.165118e-002 -1.028129e-001 -1.575085e-001 -1.022396e-001 1.640715e-001 -2.453073e-002 -9.842535e-002 1.440940e-001 6.874478e-003 9.027052e-002 -3.839217e-002 -1.098957e-001 1.194771e-002 3.944081e-002 -2.777160e-003 -4.367013e-002
<VARIANCE> 39
 4.528444e+001 6.329319e+001 5.010150e+001 7.112579e+001 7.031525e+001 5.936803e+001 7.134389e+001 6.756293e+001 6.117596e+001 5.049434e+001 6.326055e+001 3.747307e+001 9.993022e+001 2.188369e+000 3.439968e+000 2.668703e+000 3.866105e+000 4.408587e+000 3.690165e+000 4.114576e+000 4.172277e+000 4.345392e+000 3.277310e+000 3.655655e+000 2.837727e+000 2.541873e+000 3.803641e-001 5.690340e-001 4.350563e-001 7.434645e-001 8.028558e-001 6.781747e-001 7.644746e-001 7.677444e-001 8.023048e-001 6.218420e-001 6.950737e-001 5.373183e-001 4.525219e-001
<GCONST> 1.346846e+002
<TRANSP> 5
 0.000000e+000 1.000000e+000 0.000000e+000 0.000000e+000 0.000000e+000
 0.000000e+000 4.458930e-001 5.541070e-001 0.000000e+000 0.000000e+000
 0.000000e+000 0.000000e+000 4.434395e-001 5.565605e-001 0.000000e+000
 0.000000e+000 0.000000e+000 0.000000e+000 5.248324e-001 4.751676e-001
 0.000000e+000 0.000000e+000 0.000000e+000 0.000000e+000 0.000000e+000
<ENDHMM>
~h "s"
<BEGINHMM>
<NUMSTATES> 5
<STATE> 2
<MEAN> 39
 -1.726670e+001 3.829978e+000 -1.099998e+000 -2.481424e+000 1.574866e-001 -5.579614e+000 -9.299561e-001 -6.151929e-001 1.111262e+000 -1.931630e-003 -4.880570e-001 -1.289999e-001 6.976730e+001 -2.534836e+000 6.217346e-001 -6.950250e-001 7.726859e-001 9.713282e-001 -2.103217e-002 1.044288e+000 6.119501e-001 7.450867e-001 1.785311e-001 4.871128e-001 5.223548e-001 -5.591049e-003 2.154387e-001 -1.727228e-001 2.398678e-002 -1.667389e-001 -2.500789e-001 4.742485e-002 -1.704119e-001 -1.314457e-002 -9.333656e-002 2.887957e-002 -2.010674e-002 -3.525103e-002 -4.801957e-002
<VARIANCE> 39
 1.021638e+002 3.664039e+001 4.548379e+001 6.061214e+001 5.711845e+001 6.371478e+001 7.479674e+001 4.850993e+001 4.650669e+001 4.044378e+001 4.381832e+001 3.246406e+001 5.761466e+001 8.280942e+000 3.575375e+000 3.445761e+000 4.634083e+000 4.700254e+000 5.209196e+000 5.659734e+000 4.519915e+000 3.919222e+000 3.393454e+000 4.019385e+000 2.871377e+000 1.826597e+000 1.299169e+000 5.266837e-001 5.327398e-001 6.767107e-001 7.307830e-001 7.637128e-001 9.447287e-001 7.719374e-001 6.822584e-001 6.246616e-001 6.687734e-001 5.098084e-001 2.899134e-001
<GCONST> 1.358453e+002
<STATE> 3
<MEAN> 39
 -2.207810e+001 4.522547e+000 -2.627685e+000 -1.461170e+000 1.369377e+000 -5.445164e+000 7.077912e-001 6.616863e-001 2.402441e+000 5.511487e-001 4.695068e-001 9.667193e-001 6.946651e+001 -8.317898e-001 8.087841e-002 -3.240100e-001 2.285964e-001 2.167023e-001 5.748890e-002 2.858180e-001 2.593049e-001 3.245769e-001 1.796873e-001 2.044394e-001 2.399981e-001 -2.889075e-001 6.540866e-001 -1.657348e-001 1.623066e-001 -1.686877e-001 -2.384266e-001 1.358053e-002 -2.639736e-001 -1.436546e-001 -1.449610e-001 -8.684418e-003 -1.050898e-001 -1.155514e-001 -1.089683e-001
<VARIANCE> 39
 6.350856e+001 3.367760e+001 3.871709e+001 5.361127e+001 5.092232e+001 5.750325e+001 6.559438e+001 4.218182e+001 4.117177e+001 3.564953e+001 3.695560e+001 2.721226e+001 5.506495e+001 9.504460e+000 2.793423e+000 2.872156e+000 3.449891e+000 3.607003e+000 4.159245e+000 4.896647e+000 3.869973e+000 3.378762e+000 2.894654e+000 3.401794e+000 2.561294e+000 2.021846e+000 8.753816e-001 4.810504e-001 4.704272e-001 5.719992e-001 6.156620e-001 7.125697e-001 8.278021e-001 6.895059e-001 6.165689e-001 5.584218e-001 6.073454e-001 4.630685e-001 3.277373e-001
<GCONST> 1.304633e+002
<STATE> 4
<MEAN> 39
 -2.137965e+001 3.900624e+000 -2.777055e+000 -1.313067e+000 1.008960e+000 -5.259221e+000 4.820721e-001 5.969067e-001 2.764884e+000 1.019351e+000 5.520471e-001 1.090934e+000 6.798694e+001 1.386772e+000 -3.039378e-001 2.873735e-001 -2.402338e-001 -3.963288e-001 -2.867883e-002 -5.250152e-001 -3.019548e-001 -1.174556e-001 6.960641e-002 -1.589494e-001 -2.131348e-001 -5.024004e-001 4.276409e-001 -8.844784e-002 1.155881e-001 -1.308297e-001 -1.523744e-001 2.540171e-003 -1.692187e-001 -1.030379e-001 -1.213954e-001 -2.374031e-002 -5.416759e-002 -8.942566e-002 -1.811072e-002
<VARIANCE> 39
 7.537744e+001 3.500928e+001 3.827969e+001 5.442802e+001 5.405183e+001 5.774261e+001 6.693231e+001 4.379979e+001 4.063641e+001 3.447308e+001 3.774684e+001 2.755622e+001 7.223132e+001 7.793075e+000 2.697431e+000 2.741430e+000 3.572512e+000 3.639117e+000 4.165858e+000 5.227638e+000 3.974312e+000 3.425349e+000 2.806023e+000 3.453972e+000 2.625369e+000 3.140219e+000 9.507365e-001 4.715689e-001 4.458109e-001 5.573664e-001 5.953144e-001 6.915644e-001 8.616863e-001 6.932899e-001 5.979567e-001 5.325976e-001 5.994440e-001 4.578746e-001 4.916648e-001
<GCONST> 1.316457e+002
<TRANSP> 5
 0.000000e+000 1.000000e+000 0.000000e+000 0.000000e+000 0.000000e+000
 0.000000e+000 6.565284e-001 3.434716e-001 0.000000e+000 0.000000e+000
 0.000000e+000 0.000000e+000 6.587419e-001 3.412580e-001 0.000000e+000
 0.000000e+000 0.000000e+000 0.000000e+000 7.747717e-001 2.252283e-001
 0.000000e+000 0.000000e+000 0.000000e+000 0.000000e+000 0.000000e+000
<ENDHMM>
~h "t"
<BEGINHMM>
<NUMSTATES> 5
<STATE> 2
<MEAN> 39
 -1.020442e+001 2.673248e+000 -1.484814e-001 -1.938565e+000 -1.133205e+000 -3.401874e+000 -1.090138e+000 -1.034588e-002 2.460743e+000 1.777882e+000 9.135785e-001 1.723483e-001 5.847898e+001 -3.945277e-001 -2.760754e-001 -1.168534e-001 2.257424e-001 3.461944e-001 1.623781e-001 5.295089e-001 3.945900e-001 5.093421e-001 2.008203e-001 4.389822e-001 3.598647e-001 -7.704706e-001 1.002131e-002 -3.172415e-001 -1.625599e-002 -3.060492e-001 -1.911418e-001 -1.003712e-001 -1.911230e-001 -6.217150e-002 -1.203294e-001 -7.467538e-002 -1.356577e-001 -7.233910e-002 7.191309e-001
<VARIANCE> 39
 6.888357e+001 3.924115e+001 4.373833e+001 5.688993e+001 5.438303e+001 5.534144e+001 6.231805e+001 4.528580e+001 4.686243e+001 3.737877e+001 4.643047e+001 3.307875e+001 9.585911e+001 4.094296e+000 4.036427e+000 2.862327e+000 4.324288e+000 3.954137e+000 4.246087e+000 4.459199e+000 3.543135e+000 3.659591e+000 3.085743e+000 3.699653e+000 2.691090e+000 1.135350e+001 6.536754e-001 6.981531e-001 5.109531e-001 7.133164e-001 7.414103e-001 8.148548e-001 8.413821e-001 6.861876e-001 6.885514e-001 6.161425e-001 6.751508e-001 5.307292e-001 1.820192e+000
<GCONST> 1.366431e+002
<STATE> 3
<MEAN> 39
 -1.116498e+001 1.051187e+000 -4.688864e-001 -2.391176e+000 -8.811621e-001 -3.400720e+000 -5.086293e-001 5.959776e-001 3.161283e+000 1.931018e+000 1.403467e+000 7.704131e-001 5.918811e+001 -1.538789e-001 -8.114572e-001 -1.495370e-001 -5.044194e-001 -1.932194e-001 -2.386362e-001 -1.733697e-001 6.450079e-002 1.058435e-001 -6.106738e-002 -1.087114e-001 1.799367e-002 1.214827e+000 2.621409e-001 -9.799072e-002 2.915562e-002 -2.479774e-001 -2.662748e-001 -1.332466e-001 -3.524713e-001 -1.587442e-001 -1.959734e-001 -9.118135e-002 -2.407550e-001 -1.957026e-001 6.183817e-001
<VARIANCE> 39
 5.251563e+001 4.117147e+001 3.886664e+001 5.317356e+001 5.085710e+001 5.111135e+001 6.079075e+001 4.139656e+001 4.280785e+001 3.491869e+001 4.262328e+001 3.060494e+001 1.096485e+002 5.383285e+000 4.014907e+000 3.231553e+000 4.708159e+000 4.738175e+000 5.073806e+000 5.663080e+000 4.088958e+000 4.014800e+000 3.496683e+000 4.446876e+000 3.242313e+000 1.331552e+001 8.902670e-001 7.912300e-001 5.992524e-001 7.912437e-001 8.559852e-001 9.622051e-001 9.709316e-001 7.750491e-001 7.435989e-001 6.834105e-001 7.886263e-001 5.977083e-001 2.178802e+000
<GCONST> 1.396556e+002
<STATE> 4
<MEAN> 39
 -1.122418e+001 -7.219231e-001 -9.997740e-001 -3.696066e+000 -1.921064e+000 -4.080901e+000 -1.607189e+000 4.011586e-001 2.981265e+000 1.488288e+000 6.024336e-001 2.814939e-001 6.246568e+001 7.313696e-001 -6.780345e-001 -4.422308e-004 -8.478694e-001 -7.678869e-001 -4.458764e-001 -9.526210e-001 -3.193557e-001 -3.583156e-001 -2.164245e-001 -6.205339e-001 -4.933734e-001 1.925630e+000 3.360738e-001 6.795114e-002 9.497911e-002 -6.652036e-002 -1.763627e-001 3.380191e-002 -2.160397e-001 -9.761211e-002 -1.748063e-001 -1.381302e-002 -1.069470e-001 -1.474261e-001 -2.458859e-002
<VARIANCE> 39
 5.581072e+001 3.984068e+001 3.925410e+001 5.687087e+001 5.358282e+001 5.447488e+001 7.054891e+001 4.249494e+001 4.089869e+001 3.542392e+001 4.577002e+001 3.292592e+001 1.493320e+002 6.212745e+000 3.934845e+000 3.609369e+000 4.877903e+000 5.272089e+000 5.720458e+000 6.410542e+000 4.735327e+000 4.384502e+000 3.813298e+000 5.086478e+000 3.668131e+000 1.065481e+001 9.803236e-001 7.167151e-001 6.269732e-001 8.026798e-001 9.274817e-001 1.032136e+000 1.124101e+000 8.367789e-001 7.480595e-001 7.051097e-001 8.637423e-001 6.434478e-001 2.065556e+000
<GCONST> 1.420290e+002
<TRANSP> 5
 0.000000e+000 1.000000e+000 0.000000e+000 0.000000e+000 0.000000e+000
 0.000000e+000 5.673468e-001 4.326532e-001 0.000000e+000 0.000000e+000
 0.000000e+000 0.000000e+000 5.695873e-001 4.304127e-001 0.000000e+000
 0.000000e+000 0.000000e+000 0.000000e+000 6.422535e-001 3.577465e-001
 0.000000e+000 0.000000e+000 0.000000e+000 0.000000e+000 0.000000e+000
<ENDHMM>
~h "u"
<BEGINHMM>
<NUMSTATES> 5
<STATE> 2
<MEAN> 39
 2.070399e-001 2.860019e+000 -1.439618e+000 -1.075109e+001 -7.348652e+000 -5.600181e-001 -7.840974e+000 -5.819314e+000 -6.441920e+000 -1.942527e+000 -1.427145e-002 -2.484387e+000 6.508426e+001 5.611956e-001 5.147564e-001 1.168388e-001 -2.056604e-001 -1.799207e-001 1.115858e-001 -3.660945e-001 -4.453383e-001 -5.622593e-001 -2.425293e-001 8.449247e-002 -5.197625e-002 -1.383911e-001 -2.140889e-001 -1.059720e-001 9.139422e-002 2.845142e-001 1.372415e-001 -8.069226e-002 1.090588e-001 1.001740e-001 2.034840e-001 9.364244e-002 -1.792946e-002 5.797922e-003 -8.251956e-002
<VARIANCE> 39
 4.864384e+001 4.593045e+001 4.992029e+001 1.129110e+002 7.524847e+001 7.002315e+001 8.509607e+001 7.154833e+001 7.222215e+001 5.942053e+001 6.375284e+001 3.981432e+001 6.472312e+001 3.561720e+000 2.899042e+000 2.925498e+000 7.008859e+000 5.399858e+000 4.459049e+000 5.951555e+000 5.556248e+000 5.955143e+000 4.470834e+000 4.415360e+000 3.155544e+000 2.860580e+000 5.082158e-001 4.920601e-001 4.995421e-001 1.153089e+000 9.144871e-001 8.118149e-001 1.055048e+000 1.000333e+000 1.073592e+000 8.488488e-001 8.135186e-001 6.038554e-001 4.589420e-001
<GCONST> 1.409216e+002
<STATE> 3
<MEAN> 39
 7.595808e-001 3.586420e+000 -1.022472e+000 -1.033742e+001 -7.280586e+000 -4.975767e-001 -8.223202e+000 -6.428662e+000 -6.988210e+000 -2.181494e+000 1.116929e-001 -2.542442e+000 6.453522e+001 -1.083897e-001 1.229245e-001 2.751603e-001 6.231083e-001 2.548435e-001 -1.247367e-001 -5.816312e-002 -1.424961e-001 1.286020e-001 5.008751e-002 2.754275e-002 -3.079733e-002 -2.975399e-001 -3.348250e-001 -1.669288e-001 7.730532e-002 3.114173e-001 1.533229e-001 -1.236768e-001 1.739745e-001 1.854068e-001 3.059646e-001 1.067158e-001 -4.333632e-002 2.434829e-002 -4.545753e-002
<VARIANCE> 39
 4.109090e+001 4.429383e+001 4.681023e+001 1.090729e+002 7.159960e+001 7.029190e+001 8.578234e+001 6.995378e+001 6.953568e+001 5.904244e+001 6.489368e+001 3.981289e+001 6.599950e+001 3.523842e+000 2.875056e+000 2.675482e+000 7.234126e+000 5.599178e+000 4.395969e+000 5.996352e+000 5.415293e+000 6.335415e+000 4.601222e+000 4.435420e+000 3.207809e+000 2.945152e+000 4.701592e-001 4.625562e-001 4.762796e-001 1.188677e+000 9.287508e-001 8.238530e-001 1.063314e+000 1.000859e+000 1.097973e+000 8.775565e-001 8.484674e-001 6.168483e-001 4.275334e-001
<GCONST> 1.405478e+002
<STATE> 4
<MEAN> 39
 -1.202302e+000 3.661249e+000 -8.209290e-001 -7.641981e+000 -6.235481e+000 -7.581657e-001 -7.406923e+000 -5.966396e+000 -5.698290e+000 -1.840929e+000 2.296770e-001 -2.352781e+000 6.176778e+001 -7.923890e-001 -2.357924e-001 3.500451e-001 1.086812e+000 4.996532e-001 -3.288367e-001 2.718493e-001 2.588520e-001 6.956288e-001 2.429596e-001 -5.823585e-002 5.917216e-002 -3.611156e-001 -2.512589e-001 -1.280471e-001 3.468793e-002 3.797160e-002 1.751372e-002 -6.636655e-002 1.290628e-001 1.747395e-001 1.397122e-001 2.772875e-002 -3.592168e-002 3.533613e-002 7.777472e-002
<VARIANCE> 39
 6.668716e+001 4.418128e+001 4.754685e+001 1.089022e+002 7.343221e+001 7.020409e+001 8.741938e+001 6.713037e+001 6.715582e+001 5.342701e+001 6.040884e+001 3.906116e+001 1.210499e+002 3.208685e+000 2.673389e+000 2.655240e+000 5.773240e+000 4.980658e+000 4.216058e+000 5.121930e+000 4.898361e+000 5.417180e+000 4.139859e+000 4.023000e+000 3.081629e+000 2.804873e+000 4.475582e-001 4.489939e-001 4.515207e-001 1.042159e+000 8.550228e-001 7.601767e-001 9.700117e-001 8.912871e-001 9.640508e-001 7.881315e-001 7.521232e-001 5.810902e-001 4.415302e-001
<GCONST> 1.391408e+002
<TRANSP> 5
 0.000000e+000 1.000000e+000 0.000000e+000 0.000000e+000 0.000000e+000
 0.000000e+000 5.404825e-001 4.595175e-001 0.000000e+000 0.000000e+000
 0.000000e+000 0.000000e+000 5.376883e-001 4.623117e-001 0.000000e+000
 0.000000e+000 0.000000e+000 0.000000e+000 6.307945e-001 3.692056e-001
 0.000000e+000 0.000000e+000 0.000000e+000 0.000000e+000 0.000000e+000
<ENDHMM>
~h "v"
<BEGINHMM>
<NUMSTATES> 5
<STATE> 2
<MEAN> 39
 -9.001021e-001 -1.615527e+000 -7.867813e-002 -7.172109e+000 -6.881193e+000 -3.401804e+000 -8.568614e+000 -4.481829e+000 -3.769192e+000 1.405325e-001 -1.537702e+000 -3.999616e+000 6.781229e+001 2.670112e-001 1.531555e-001 5.318222e-002 1.010659e-001 -1.266596e-002 -5.323366e-002 -7.908882e-002 -1.739122e-001 -1.616168e-001 -5.944000e-002 -4.466249e-002 -1.610550e-001 -1.163590e-001 -1.036474e-001 -9.074297e-002 6.041735e-002 -6.207181e-002 -7.654164e-002 -2.272928e-002 5.320474e-002 1.131276e-001 4.011210e-002 -1.509350e-002 -5.635688e-002 9.113637e-003 1.320427e-001
<VARIANCE> 39
 4.492986e+001 5.856916e+001 6.276979e+001 9.241358e+001 6.284516e+001 7.386651e+001 6.650037e+001 5.242190e+001 5.244118e+001 4.627130e+001 6.374066e+001 3.486265e+001 7.048895e+001 2.250830e+000 3.623600e+000 2.935032e+000 4.901881e+000 4.114625e+000 3.469949e+000 3.485785e+000 3.694696e+000 3.412505e+000 3.131546e+000 3.073846e+000 2.515963e+000 3.272457e+000 3.741878e-001 6.008314e-001 4.318902e-001 8.076938e-001 7.377499e-001 5.822484e-001 6.328744e-001 6.578483e-001 5.995181e-001 5.775250e-001 5.581898e-001 4.525327e-001 5.322852e-001
<GCONST> 1.328191e+002
<STATE> 3
<MEAN> 39
 -6.390421e-001 -1.489442e+000 8.001896e-002 -7.102263e+000 -6.994571e+000 -3.531492e+000 -8.574049e+000 -4.538927e+000 -3.920438e+000 2.541831e-002 -1.714286e+000 -4.257069e+000 6.785709e+001 8.080075e-002 -9.781305e-002 1.520793e-001 -7.450721e-002 -1.891969e-001 -9.060916e-002 1.222516e-003 8.326446e-002 -6.896914e-002 -6.355251e-002 -1.507300e-001 -1.294164e-001 1.869427e-001 -9.455182e-002 -1.202907e-001 7.276955e-002 -9.690300e-002 -1.087703e-001 -1.026988e-002 3.507340e-002 1.140069e-001 2.377955e-002 -6.478956e-004 -4.621503e-002 2.536154e-002 1.542420e-001
<VARIANCE> 39
 4.041533e+001 5.911073e+001 6.518525e+001 9.324731e+001 6.082500e+001 7.412106e+001 6.327950e+001 5.107310e+001 5.085120e+001 4.606541e+001 6.405658e+001 3.458198e+001 6.580584e+001 2.022264e+000 3.549757e+000 2.951221e+000 4.860470e+000 4.017446e+000 3.457580e+000 3.309311e+000 3.608759e+000 3.297123e+000 3.094656e+000 2.961654e+000 2.459137e+000 3.205648e+000 3.464307e-001 5.959533e-001 4.428623e-001 8.011597e-001 7.308482e-001 5.669198e-001 5.990436e-001 6.417291e-001 5.924112e-001 5.749761e-001 5.460937e-001 4.471050e-001 5.188041e-001
<GCONST> 1.319365e+002
<STATE> 4
<MEAN> 39
 -5.762649e-001 -1.900226e+000 1.603748e-001 -7.670656e+000 -7.616431e+000 -3.495791e+000 -8.557264e+000 -4.093757e+000 -3.936670e+000 -5.526412e-002 -2.012430e+000 -4.530085e+000 6.835359e+001 -9.150846e-002 -2.593341e-001 2.867269e-001 -1.852405e-001 -3.300298e-001 -1.075955e-001 5.471578e-002 2.417265e-001 -2.260394e-002 -5.634261e-002 -2.095049e-001 -5.568843e-002 3.709819e-001 -7.491163e-002 -3.269330e-002 7.967701e-002 -3.587730e-002 -6.052089e-002 4.524953e-003 1.606361e-002 3.145340e-002 -1.375190e-003 2.045533e-003 -7.163665e-003 3.855751e-002 5.775388e-002
<VARIANCE> 39
 3.825245e+001 6.408237e+001 7.445795e+001 1.012696e+002 6.441330e+001 8.059282e+001 6.478657e+001 5.375126e+001 5.349509e+001 4.878783e+001 6.613026e+001 3.666800e+001 6.876359e+001 1.784475e+000 3.227069e+000 3.018821e+000 4.415412e+000 3.968684e+000 3.381199e+000 3.153294e+000 3.476730e+000 3.293051e+000 3.051773e+000 2.891124e+000 2.411383e+000 2.806668e+000 3.069551e-001 5.543932e-001 4.367610e-001 7.730090e-001 7.167217e-001 5.646095e-001 5.787353e-001 6.206168e-001 5.806522e-001 5.588684e-001 5.257531e-001 4.326431e-001 4.869661e-001
<GCONST> 1.315132e+002
<TRANSP> 5
 0.000000e+000 1.000000e+000 0.000000e+000 0.000000e+000 0.000000e+000
 0.000000e+000 4.589068e-001 5.410932e-001 0.000000e+000 0.000000e+000
 0.000000e+000 0.000000e+000 4.578803e-001 5.421197e-001 0.000000e+000
 0.000000e+000 0.000000e+000 0.000000e+000 5.473337e-001 4.526664e-001
 0.000000e+000 0.000000e+000 0.000000e+000 0.000000e+000 0.000000e+000
<ENDHMM>
~h "x"
<BEGINHMM>
<NUMSTATES> 5
<STATE> 2
<MEAN> 39
 -1.256384e+001 -1.719492e+000 4.580164e+000 -3.776121e+000 -2.209394e+000 -4.069850e+000 -3.706461e-001 -9.619998e-001 -1.806293e+000 2.314564e+000 -1.311216e+000 -4.587230e-001 6.675789e+001 -6.635761e-001 -6.381025e-001 -1.055917e+000 6.490397e-001 1.097251e+000 3.867773e-002 7.142540e-001 7.118020e-001 7.945396e-001 4.962233e-001 4.283711e-001 4.148686e-001 -3.547964e-001 2.441860e-001 3.355794e-002 3.453078e-003 -1.349976e-001 -2.284308e-001 5.701056e-003 -2.217109e-001 -5.986718e-002 -6.925020e-002 -7.646195e-002 1.678200e-002 -7.517276e-002 1.753977e-002
<VARIANCE> 39
 5.345874e+001 5.460964e+001 1.179516e+002 6.637512e+001 9.169833e+001 6.656396e+001 7.086968e+001 7.206324e+001 6.363400e+001 4.815490e+001 4.691613e+001 3.238309e+001 5.396170e+001 3.857650e+000 3.713393e+000 4.452350e+000 4.169035e+000 5.874982e+000 4.817226e+000 5.765301e+000 5.452733e+000 5.478825e+000 4.375444e+000 3.994819e+000 2.929297e+000 1.819187e+000 5.314867e-001 6.387716e-001 6.562478e-001 6.582707e-001 9.680533e-001 8.244347e-001 9.511835e-001 9.662710e-001 1.001136e+000 8.102087e-001 7.279045e-001 5.450204e-001 3.104688e-001
<GCONST> 1.392948e+002
<STATE> 3
<MEAN> 39
 -1.313253e+001 -2.754771e+000 2.378542e+000 -2.787843e+000 -6.378042e-001 -3.980263e+000 4.292493e-001 2.358717e-001 -3.975196e-001 3.113707e+000 -4.476280e-001 1.428447e-001 6.606892e+001 2.789114e-002 -3.069949e-001 -8.017627e-001 3.195932e-001 4.490603e-001 3.799202e-002 1.578350e-001 3.406128e-001 4.211832e-001 1.778017e-001 3.139687e-001 1.567560e-001 -3.429065e-001 3.220493e-001 1.690015e-001 1.523360e-001 -1.617400e-001 -3.110431e-001 5.566482e-003 -2.386322e-001 -1.896738e-001 -1.915888e-001 -1.525984e-001 -7.487048e-002 -1.230150e-001 1.909240e-002
<VARIANCE> 39
 5.037675e+001 4.449144e+001 1.055966e+002 6.268885e+001 8.254131e+001 6.477857e+001 7.164799e+001 6.443911e+001 5.943550e+001 4.628778e+001 4.394830e+001 3.140183e+001 5.581098e+001 4.306147e+000 3.346790e+000 4.321465e+000 4.016311e+000 5.759405e+000 4.720364e+000 5.363034e+000 5.621227e+000 5.535456e+000 4.358151e+000 3.886034e+000 2.991245e+000 2.240876e+000 5.057173e-001 5.668036e-001 6.200951e-001 6.552258e-001 9.002473e-001 8.473690e-001 9.197291e-001 9.388451e-001 9.556390e-001 7.839567e-001 7.145327e-001 5.430545e-001 3.806281e-001
<GCONST> 1.382881e+002
<STATE> 4
<MEAN> 39
 -1.233486e+001 -2.847759e+000 1.012047e+000 -2.331231e+000 -3.385952e-001 -3.721733e+000 3.776357e-001 5.014611e-001 5.471382e-002 3.109491e+000 9.692635e-002 1.877202e-001 6.485401e+001 7.011682e-001 1.535513e-001 -3.456217e-001 -8.941969e-003 -2.293416e-001 5.248043e-002 -3.057579e-001 -1.585998e-001 -8.048360e-002 -2.104139e-001 4.844365e-002 -1.531156e-001 -2.894722e-001 2.299065e-001 1.059200e-001 1.516968e-001 -1.569402e-001 -2.572808e-001 -4.152305e-003 -1.738632e-001 -1.540261e-001 -1.691858e-001 -1.155097e-001 -9.634259e-002 -1.113543e-001 8.569736e-002
<VARIANCE> 39
 5.897528e+001 4.325743e+001 9.341478e+001 6.444321e+001 7.988699e+001 6.504370e+001 7.210500e+001 6.183607e+001 5.894891e+001 4.752457e+001 4.386222e+001 3.274982e+001 6.948118e+001 4.288800e+000 2.990271e+000 4.005494e+000 3.987319e+000 5.567078e+000 4.689188e+000 4.926559e+000 5.315016e+000 5.314152e+000 4.084815e+000 3.824239e+000 3.044581e+000 2.790309e+000 5.544388e-001 5.336688e-001 5.816070e-001 6.415521e-001 8.747795e-001 8.175004e-001 8.635378e-001 8.813938e-001 8.917815e-001 7.499340e-001 6.732146e-001 5.335447e-001 4.739664e-001
<GCONST> 1.380548e+002
<TRANSP> 5
 0.000000e+000 1.000000e+000 0.000000e+000 0.000000e+000 0.000000e+000
 0.000000e+000 5.368558e-001 4.631442e-001 0.000000e+000 0.000000e+000
 0.000000e+000 0.000000e+000 5.289215e-001 4.710785e-001 0.000000e+000
 0.000000e+000 0.000000e+000 0.000000e+000 6.139616e-001 3.860384e-001
 0.000000e+000 0.000000e+000 0.000000e+000 0.000000e+000 0.000000e+000
<ENDHMM>
~h "y"
<BEGINHMM>
<NUMSTATES> 5
<STATE> 2
<MEAN> 39
 -4.631529e+000 -3.518370e+000 1.063663e+001 -7.838009e+000 -1.577074e+001 -7.522640e+000 -8.768517e+000 -1.399391e+000 -7.232000e+000 4.143774e-002 -2.176864e+000 -2.848786e+000 7.125660e+001 -1.120186e-001 6.426635e-002 1.130700e+000 -4.072183e-001 -1.069021e+000 -1.235040e-001 -1.168595e-001 -4.421569e-002 -6.478797e-001 8.961650e-002 1.656079e-002 3.176570e-002 3.337824e-001 -2.684892e-002 1.323239e-001 -2.052626e-001 4.937954e-002 2.695216e-001 1.161358e-001 7.547509e-002 -7.862750e-002 1.403449e-001 -2.969611e-002 -1.434352e-002 -2.431300e-002 -1.243196e-001
<VARIANCE> 39
 3.248631e+001 6.316796e+001 7.425121e+001 9.016763e+001 7.971798e+001 6.998204e+001 7.280492e+001 7.246518e+001 6.408199e+001 4.987702e+001 6.996532e+001 3.241257e+001 7.791450e+001 1.433012e+000 2.335040e+000 3.633600e+000 2.768927e+000 4.336894e+000 3.265000e+000 3.815610e+000 3.841720e+000 3.468411e+000 2.936118e+000 2.629712e+000 1.925827e+000 1.743101e+000 2.282172e-001 3.426950e-001 4.925452e-001 4.749640e-001 7.356884e-001 5.837274e-001 6.566144e-001 6.428474e-001 6.078304e-001 5.132172e-001 4.553589e-001 3.397688e-001 2.602093e-001
<GCONST> 1.287269e+002
<STATE> 3
<MEAN> 39
 -4.893140e+000 -3.037236e+000 1.249819e+001 -8.671557e+000 -1.731110e+001 -7.489545e+000 -8.976480e+000 -1.785289e+000 -8.204314e+000 1.631798e-001 -2.221747e+000 -2.896756e+000 7.176118e+001 -7.481245e-002 1.716860e-001 3.990363e-001 -1.684268e-001 -3.160924e-001 -2.266901e-002 3.594313e-002 -6.245561e-002 -1.735060e-001 -1.724616e-002 -6.682835e-002 -2.276558e-002 9.543996e-002 4.167489e-003 6.111230e-002 -3.173576e-001 1.462804e-001 3.517393e-001 3.146768e-002 8.856857e-002 -2.531322e-003 2.062226e-001 -4.600280e-002 -2.751094e-002 -1.558361e-002 -1.378504e-001
<VARIANCE> 39
 2.801279e+001 6.427045e+001 7.109274e+001 9.096737e+001 7.131257e+001 6.557610e+001 6.650989e+001 7.458293e+001 5.917722e+001 4.895557e+001 7.013276e+001 3.140305e+001 6.394130e+001 1.122916e+000 2.170387e+000 3.592140e+000 2.426938e+000 3.989882e+000 2.752501e+000 3.315640e+000 3.309517e+000 3.080880e+000 2.507405e+000 2.200053e+000 1.664191e+000 1.868862e+000 1.841449e-001 3.132192e-001 4.266064e-001 4.137051e-001 6.185755e-001 4.895948e-001 5.628871e-001 5.600301e-001 5.266084e-001 4.634254e-001 4.085160e-001 3.068397e-001 2.098543e-001
<GCONST> 1.245646e+002
<STATE> 4
<MEAN> 39
 -5.280163e+000 -2.714083e+000 1.265982e+001 -8.620868e+000 -1.741674e+001 -7.299708e+000 -8.704771e+000 -1.897054e+000 -8.048624e+000 -1.657028e-001 -2.376071e+000 -3.085642e+000 7.072941e+001 -5.220150e-003 1.844600e-001 -4.197447e-001 2.755900e-001 4.774636e-001 -7.112630e-002 2.875524e-001 3.715383e-002 3.068008e-001 -1.251734e-001 -1.358858e-001 -2.014077e-002 -2.467592e-001 -1.374283e-002 5.955472e-002 -2.124644e-001 1.558666e-001 2.699253e-001 1.236131e-002 7.997931e-002 -1.166672e-002 1.442825e-001 -2.249860e-002 6.740891e-004 4.289453e-003 -1.441614e-001
<VARIANCE> 39
 3.041362e+001 7.022112e+001 8.157770e+001 9.224280e+001 6.922986e+001 6.562807e+001 6.854456e+001 7.685448e+001 5.800296e+001 4.727087e+001 6.677357e+001 3.226040e+001 8.198477e+001 1.105512e+000 2.153815e+000 2.988891e+000 2.374200e+000 3.533960e+000 2.520516e+000 2.958306e+000 2.980907e+000 2.767912e+000 2.401754e+000 2.158722e+000 1.650355e+000 1.871984e+000 1.778523e-001 3.102550e-001 3.988893e-001 3.802751e-001 5.496134e-001 4.362415e-001 5.144013e-001 5.179668e-001 4.812663e-001 4.216833e-001 3.897879e-001 2.985274e-001 2.352600e-001
<GCONST> 1.235146e+002
<TRANSP> 5
 0.000000e+000 1.000000e+000 0.000000e+000 0.000000e+000 0.000000e+000
 0.000000e+000 5.834109e-001 4.165891e-001 0.000000e+000 0.000000e+000
 0.000000e+000 0.000000e+000 5.886791e-001 4.113209e-001 0.000000e+000
 0.000000e+000 0.000000e+000 0.000000e+000 7.396972e-001 2.603028e-001
 0.000000e+000 0.000000e+000 0.000000e+000 0.000000e+000 0.000000e+000
<ENDHMM>
~h "z"
<BEGINHMM>
<NUMSTATES> 5
<STATE> 2
<MEAN> 39
 -9.765360e+000 7.054015e+000 1.468471e-001 -2.982650e+000 -2.276479e+000 -8.864273e+000 -7.040109e+000 -5.080183e+000 -8.829577e-001 -8.067782e-001 -3.292315e+000 -2.390735e+000 6.943053e+001 -1.497123e+000 1.476139e+000 -1.856616e-001 9.045252e-001 8.184317e-001 -4.061491e-001 5.735385e-001 -1.369876e-001 3.273790e-001 -1.451394e-001 3.621329e-002 1.557713e-001 -5.641694e-002 1.191016e-001 -2.853162e-001 4.665452e-002 -1.080547e-001 -1.665557e-001 1.772522e-001 8.925135e-003 1.210970e-001 -4.068279e-002 1.074785e-002 1.196405e-002 -2.806522e-002 3.315649e-002
<VARIANCE> 39
 6.945081e+001 6.548920e+001 4.664038e+001 8.214706e+001 6.857008e+001 7.615630e+001 7.434580e+001 5.192631e+001 4.501158e+001 4.881357e+001 4.908361e+001 3.623753e+001 6.778915e+001 6.215231e+000 5.608278e+000 2.535729e+000 4.459949e+000 4.568431e+000 5.724188e+000 5.447010e+000 4.572607e+000 3.292888e+000 3.149136e+000 3.477808e+000 3.018604e+000 1.800099e+000 1.092903e+000 8.437321e-001 4.030625e-001 6.911301e-001 7.139122e-001 9.465016e-001 9.432392e-001 7.975426e-001 5.817496e-001 5.825523e-001 6.013641e-001 5.203536e-001 2.216667e-001
<GCONST> 1.365124e+002
<STATE> 3
<MEAN> 39
 -1.277500e+001 9.302547e+000 -1.131102e-001 -1.301348e+000 -1.025979e+000 -9.133575e+000 -5.722818e+000 -4.932474e+000 -2.708665e-001 -1.099837e+000 -3.195520e+000 -2.108884e+000 6.955960e+001 -3.716187e-001 1.079786e-001 -6.288163e-002 2.178334e-001 1.132302e-001 2.704467e-002 2.337214e-001 1.331787e-001 2.036686e-001 -1.085806e-002 -5.833601e-002 1.695678e-002 7.645652e-002 5.195314e-001 -5.281546e-001 4.669446e-002 -2.984375e-001 -2.761606e-001 1.292782e-001 -1.797561e-001 6.238732e-002 -6.399473e-002 5.580314e-002 -5.864590e-002 -7.286635e-002 5.979068e-002
<VARIANCE> 39
 6.402301e+001 5.657273e+001 4.089436e+001 7.110258e+001 6.370940e+001 6.379707e+001 6.636510e+001 4.656062e+001 4.130935e+001 4.546381e+001 4.127026e+001 3.128026e+001 5.598676e+001 8.713326e+000 6.459528e+000 2.374501e+000 4.910699e+000 4.462739e+000 5.415007e+000 5.487055e+000 4.217641e+000 3.065355e+000 3.023309e+000 3.204374e+000 2.799337e+000 1.810926e+000 1.143261e+000 7.542367e-001 4.130526e-001 6.931235e-001 7.139652e-001 9.797948e-001 9.493130e-001 8.143342e-001 5.734590e-001 5.710523e-001 5.881299e-001 5.092763e-001 2.309737e-001
<GCONST> 1.349458e+002
<STATE> 4
<MEAN> 39
 -1.139933e+001 7.581881e+000 -1.009436e-001 -1.766445e+000 -1.937366e+000 -8.813432e+000 -6.042526e+000 -4.590851e+000 -6.749419e-002 -8.931517e-001 -3.598473e+000 -2.381641e+000 6.997195e+001 1.156060e+000 -1.177059e+000 4.858031e-002 -6.194159e-001 -5.590972e-001 2.341734e-001 -3.083458e-001 1.826971e-001 -9.754539e-003 1.158273e-001 -2.197009e-001 -2.265356e-001 2.071333e-001 2.850430e-001 -2.644473e-001 3.791406e-002 -1.797913e-001 -1.248380e-001 9.130651e-002 -8.566260e-002 2.267794e-002 -9.933604e-002 7.748960e-003 -1.090587e-002 -5.587630e-002 2.801969e-002
<VARIANCE> 39
 7.228274e+001 6.848672e+001 4.282057e+001 7.311554e+001 6.264910e+001 6.120422e+001 6.835208e+001 4.790368e+001 4.377166e+001 4.603587e+001 4.394415e+001 3.255827e+001 6.134784e+001 7.027834e+000 5.097530e+000 2.508021e+000 4.562827e+000 4.143280e+000 5.053004e+000 5.008495e+000 4.244480e+000 3.201493e+000 3.051835e+000 3.191377e+000 2.809369e+000 1.943675e+000 1.152006e+000 7.400978e-001 4.068293e-001 6.905252e-001 7.112871e-001 8.977932e-001 9.128944e-001 7.931351e-001 5.718327e-001 5.670266e-001 5.689300e-001 4.897576e-001 2.833568e-001
<GCONST> 1.349560e+002
<TRANSP> 5
 0.000000e+000 1.000000e+000 0.000000e+000 0.000000e+000 0.000000e+000
 0.000000e+000 6.382689e-001 3.617311e-001 0.000000e+000 0.000000e+000
 0.000000e+000 0.000000e+000 6.389986e-001 3.610013e-001 0.000000e+000
 0.000000e+000 0.000000e+000 0.000000e+000 7.219409e-001 2.780592e-001
 0.000000e+000 0.000000e+000 0.000000e+000 0.000000e+000 0.000000e+000
<ENDHMM>
~h "aa"
<BEGINHMM>
<NUMSTATES> 5
<STATE> 2
<MEAN> 39
 -1.037649e-001 -1.198639e+001 -6.779962e+000 -1.105186e+001 -3.487560e+000 2.634095e-001 -7.324498e+000 4.164456e-001 -9.477388e-001 -1.944178e+000 -6.853000e+000 -7.203394e+000 7.594224e+001 2.473700e-001 -8.953748e-001 -7.145785e-001 -3.467970e-001 7.282640e-001 8.748627e-001 2.181724e-002 -1.358869e-001 -1.254177e-001 -1.325177e-001 -2.798724e-001 -4.021753e-001 3.698586e-001 -1.499438e-001 3.204131e-001 1.821219e-001 2.233020e-001 2.347893e-003 -1.161234e-001 7.210730e-002 -1.801050e-001 -2.319374e-002 6.591909e-002 1.693149e-001 1.429917e-001 -2.595584e-001
<VARIANCE> 39
 2.126513e+001 4.654935e+001 4.073600e+001 6.004182e+001 6.169373e+001 7.796224e+001 6.995687e+001 6.172534e+001 6.446200e+001 6.084119e+001 6.644643e+001 4.709827e+001 4.174351e+001 1.112730e+000 2.276356e+000 1.640499e+000 2.428953e+000 2.441809e+000 2.623047e+000 2.606766e+000 2.968251e+000 2.716786e+000 2.270096e+000 2.424737e+000 2.223234e+000 1.167572e+000 2.216043e-001 2.885694e-001 2.554657e-001 4.186848e-001 4.527408e-001 4.457136e-001 4.625142e-001 5.357537e-001 4.717034e-001 4.205181e-001 4.575883e-001 3.724993e-001 1.937170e-001
<GCONST> 1.201454e+002
<STATE> 3
<MEAN> 39
 1.723267e-001 -1.276399e+001 -7.867043e+000 -1.124750e+001 -1.800772e+000 1.854940e+000 -7.105104e+000 -6.620008e-001 -1.334214e+000 -1.947184e+000 -6.963891e+000 -7.614770e+000 7.581828e+001 6.783514e-002 7.775972e-003 -1.801371e-001 -1.001447e-002 3.383794e-001 2.956878e-001 7.099244e-002 -2.481583e-001 -8.375436e-002 4.351847e-002 4.411077e-003 -5.726962e-002 -1.727527e-001 -5.730445e-002 2.804770e-001 1.753121e-001 9.675068e-002 -1.326059e-001 -1.895276e-001 2.376322e-002 5.182597e-003 2.006827e-002 4.553460e-002 7.109115e-002 9.830714e-002 -1.653724e-001
<VARIANCE> 39
 1.961285e+001 4.577043e+001 3.685718e+001 5.812314e+001 5.654043e+001 7.054583e+001 7.173958e+001 5.878388e+001 6.028328e+001 5.876960e+001 6.342766e+001 4.823647e+001 4.222714e+001 5.862480e-001 1.710888e+000 1.278734e+000 1.679828e+000 1.878355e+000 2.262872e+000 2.012985e+000 2.214470e+000 1.987760e+000 1.744320e+000 1.725814e+000 1.578413e+000 8.779073e-001 1.188449e-001 2.195733e-001 1.886463e-001 2.971618e-001 3.064875e-001 3.278649e-001 3.551586e-001 3.993588e-001 3.606576e-001 3.166340e-001 3.278436e-001 2.867058e-001 1.317475e-001
<GCONST> 1.112116e+002
<STATE> 4
<MEAN> 39
 -2.177745e-001 -1.095643e+001 -7.333615e+000 -1.082749e+001 -1.733057e+000 1.851800e+000 -6.740022e+000 -1.215843e+000 -1.163940e+000 -1.160182e+000 -6.250242e+000 -7.515694e+000 7.304624e+001 -1.242453e-001 8.029969e-001 3.671004e-001 3.022588e-001 -1.393650e-001 -3.486221e-001 1.619657e-001 -9.761387e-003 1.942729e-002 1.132750e-001 1.444363e-001 2.376026e-001 -6.592579e-001 -9.737000e-002 1.986615e-001 1.412481e-001 1.268993e-001 -5.595297e-002 -1.089071e-001 4.996531e-002 5.833582e-003 1.675182e-002 1.305409e-002 7.583028e-002 7.264456e-002 -1.331783e-001
<VARIANCE> 39
 3.108964e+001 6.022615e+001 4.249556e+001 6.939764e+001 5.915688e+001 7.561723e+001 7.716308e+001 5.816775e+001 5.504133e+001 5.875751e+001 6.507667e+001 4.741773e+001 8.713678e+001 8.850938e-001 2.026066e+000 1.615959e+000 2.144205e+000 2.124860e+000 2.477397e+000 2.324635e+000 2.472042e+000 2.339041e+000 1.970758e+000 2.001890e+000 1.808176e+000 1.337663e+000 1.640250e-001 2.788570e-001 2.380106e-001 3.604809e-001 3.424692e-001 4.002266e-001 4.023760e-001 4.306699e-001 4.030464e-001 3.534994e-001 3.640938e-001 3.172148e-001 2.080713e-001
<GCONST> 1.179843e+002
<TRANSP> 5
 0.000000e+000 1.000000e+000 0.000000e+000 0.000000e+000 0.000000e+000
 0.000000e+000 6.973072e-001 3.026928e-001 0.000000e+000 0.000000e+000
 0.000000e+000 0.000000e+000 7.013829e-001 2.986172e-001 0.000000e+000
 0.000000e+000 0.000000e+000 0.000000e+000 8.537646e-001 1.462354e-001
 0.000000e+000 0.000000e+000 0.000000e+000 0.000000e+000 0.000000e+000
<ENDHMM>
~h "ch"
<BEGINHMM>
<NUMSTATES> 5
<STATE> 2
<MEAN> 39
 -1.532255e+001 -5.362359e-001 7.383158e+000 -3.597236e+000 -5.111841e+000 -1.753836e+000 -2.949798e+000 -1.496796e+000 2.680571e+000 -1.580459e-001 1.661698e+000 9.726891e-002 6.403777e+001 -2.392927e+000 -5.377110e-001 3.405712e-001 -2.283149e-001 -1.206989e-002 6.136082e-001 9.521335e-001 7.677381e-002 7.008447e-001 1.165059e-001 5.236764e-001 2.766550e-001 8.679021e-001 2.005640e-002 -1.247002e-001 1.101755e-002 -9.781770e-002 -1.647960e-001 -1.463106e-001 -2.213761e-002 -2.330235e-002 -1.568496e-001 -2.480153e-002 -6.456961e-002 -9.581009e-002 4.234497e-001
<VARIANCE> 39
 1.028869e+002 4.553651e+001 4.695865e+001 5.517523e+001 6.110826e+001 5.357665e+001 6.457552e+001 4.927682e+001 4.952517e+001 3.438171e+001 3.765669e+001 2.451854e+001 9.454818e+001 7.449361e+000 4.316448e+000 4.068238e+000 4.548215e+000 4.761410e+000 5.074311e+000 4.829594e+000 4.034948e+000 4.030051e+000 3.176628e+000 3.238625e+000 2.494714e+000 9.002584e+000 1.492358e+000 8.283591e-001 7.470012e-001 9.436536e-001 8.224970e-001 8.733596e-001 9.174904e-001 7.276403e-001 7.162501e-001 6.335228e-001 5.743194e-001 4.820805e-001 1.709778e+000
<GCONST> 1.399341e+002
<STATE> 3
<MEAN> 39
 -2.144260e+001 -2.326537e+000 8.421029e+000 -4.228753e+000 -5.922018e+000 -1.174743e+000 -2.278076e-001 -1.314679e+000 3.718779e+000 -4.127744e-002 2.745256e+000 3.807128e-001 6.827886e+001 -8.759063e-001 -3.671625e-001 1.990759e-001 -4.071711e-002 -3.141545e-001 -1.646749e-001 5.397503e-001 7.111372e-002 1.876810e-002 -7.298812e-002 9.445308e-002 -4.634818e-002 1.013896e+000 6.657195e-001 9.762097e-002 -7.994895e-002 4.610584e-002 -4.945350e-002 -2.148960e-001 -2.404601e-001 -1.798351e-002 -2.225378e-001 -6.746598e-002 -1.592081e-001 -1.060365e-001 -1.365699e-001
<VARIANCE> 39
 8.355504e+001 3.974440e+001 4.052063e+001 5.354295e+001 5.733332e+001 5.055475e+001 5.765390e+001 4.302480e+001 4.090942e+001 3.215284e+001 3.435422e+001 2.164690e+001 8.071767e+001 1.248252e+001 3.257104e+000 3.416678e+000 3.746130e+000 3.892047e+000 5.028230e+000 5.375663e+000 3.613676e+000 3.778729e+000 2.945056e+000 3.168990e+000 2.280967e+000 6.352856e+000 1.497249e+000 6.289790e-001 6.290758e-001 7.830068e-001 7.329084e-001 8.453508e-001 9.582676e-001 6.799150e-001 6.594909e-001 5.856542e-001 5.624030e-001 4.451413e-001 1.278119e+000
<GCONST> 1.361056e+002
<STATE> 4
<MEAN> 39
 -2.019632e+001 -2.579527e+000 8.752206e+000 -3.775876e+000 -6.865231e+000 -2.631607e+000 2.818269e-001 -1.251983e+000 2.551798e+000 -7.361071e-001 2.202560e+000 -2.497864e-001 6.980691e+001 1.793361e+000 1.249091e-001 -1.075127e-001 -5.306131e-002 -3.818382e-001 -6.653770e-001 -6.539671e-001 -1.308444e-001 -7.385951e-001 -3.207966e-001 -4.919848e-001 -4.096330e-001 5.565375e-002 4.296777e-001 5.528096e-002 -6.742037e-002 -1.176733e-001 -2.477770e-002 -2.550273e-002 -2.839765e-001 -6.315172e-002 -1.373200e-001 -1.004993e-002 -1.010783e-001 -7.722157e-002 -1.233528e-001
<VARIANCE> 39
 9.862482e+001 3.897395e+001 4.503844e+001 5.376157e+001 5.771433e+001 5.754701e+001 5.975243e+001 4.240427e+001 4.684178e+001 3.508110e+001 3.800977e+001 2.398305e+001 6.753001e+001 1.070976e+001 3.068139e+000 3.377737e+000 3.444246e+000 4.045353e+000 4.890687e+000 6.136639e+000 4.029858e+000 4.335782e+000 3.267899e+000 3.799375e+000 2.483232e+000 4.190420e+000 1.516953e+000 5.593155e-001 5.629057e-001 6.679707e-001 7.310629e-001 8.671186e-001 9.999856e-001 7.002360e-001 7.503117e-001 6.272839e-001 6.251475e-001 4.513649e-001 7.901877e-001
<GCONST> 1.363595e+002
<TRANSP> 5
 0.000000e+000 1.000000e+000 0.000000e+000 0.000000e+000 0.000000e+000
 0.000000e+000 7.183213e-001 2.816787e-001 0.000000e+000 0.000000e+000
 0.000000e+000 0.000000e+000 7.132751e-001 2.867249e-001 0.000000e+000
 0.000000e+000 0.000000e+000 0.000000e+000 7.956412e-001 2.043588e-001
 0.000000e+000 0.000000e+000 0.000000e+000 0.000000e+000 0.000000e+000
<ENDHMM>
~h "dg"
<BEGINHMM>
<NUMSTATES> 5
<STATE> 2
<MEAN> 39
 -1.139107e+001 1.975463e+000 1.023761e+001 -5.936652e-001 -4.956209e+000 -2.611112e+000 -2.927384e+000 -4.390473e+000 -3.307208e-002 -3.248631e+000 -1.252578e+000 -3.183962e+000 6.586304e+001 -1.340558e+000 9.712463e-002 4.997645e-001 2.735990e-001 -3.141014e-003 2.922454e-002 7.208899e-001 -2.307702e-001 3.230482e-001 -1.994029e-001 2.615803e-001 3.736866e-002 6.157919e-001 2.292976e-001 -5.904049e-002 -5.303717e-002 -2.050842e-002 -1.497059e-001 -2.170327e-001 -1.582014e-001 8.673044e-002 -1.505785e-001 4.604419e-002 9.446386e-003 2.458637e-002 9.076691e-002
<VARIANCE> 39
 1.183206e+002 4.184922e+001 6.631678e+001 5.746235e+001 4.614918e+001 5.805188e+001 6.815414e+001 3.401561e+001 4.816475e+001 3.364273e+001 3.968531e+001 2.625898e+001 9.521542e+001 1.111659e+001 3.084195e+000 3.145403e+000 2.968941e+000 3.630209e+000 5.396233e+000 4.800016e+000 3.042469e+000 3.387961e+000 2.544894e+000 2.918213e+000 2.208223e+000 4.313721e+000 2.088294e+000 5.899216e-001 5.098041e-001 6.208295e-001 6.573626e-001 9.877351e-001 8.376192e-001 5.564470e-001 6.833619e-001 4.904471e-001 5.173516e-001 4.255074e-001 7.714671e-001
<GCONST> 1.348688e+002
<STATE> 3
<MEAN> 39
