~o
<STREAMINFO> 1 39
<VECSIZE> 39<NULLD><MFCC_D_A_0><DIAGC>
~h "a"
<BEGINHMM>
<NUMSTATES> 5
<STATE> 2
<NUMMIXES> 4
<MIXTURE> 1 3.571033e-001
<MEAN> 39
 1.626740e+000 -9.623089e+000 -3.505309e+000 -1.010953e+001 -7.933225e+000 1.678635e+000 -1.002876e+001 -2.646646e-001 3.332727e+000 3.029895e+000 -4.434110e-001 -1.022745e+001 7.416792e+001 9.928855e-001 -1.627091e+000 -3.351425e-001 -9.950416e-001 -2.345479e-001 1.054288e+000 -7.306073e-001 7.922744e-001 3.387037e-001 1.887683e-001 -1.691521e-001 -1.403762e+000 1.044990e+000 -6.396264e-001 7.236959e-001 2.612982e-001 6.276299e-001 4.215518e-001 -3.793102e-001 5.127393e-001 -1.784571e-001 -3.193903e-001 -1.293586e-001 -6.350989e-003 7.044821e-001 -6.896563e-001
<VARIANCE> 39
 1.936563e+001 4.181624e+001 3.662960e+001 6.843406e+001 5.013597e+001 7.779816e+001 5.980164e+001 5.630984e+001 4.747244e+001 5.373121e+001 5.357869e+001 2.929866e+001 5.154145e+001 2.342539e+000 2.144086e+000 2.076799e+000 2.781081e+000 3.504775e+000 3.744372e+000 3.349040e+000 3.464821e+000 3.095548e+000 2.903794e+000 2.950671e+000 2.605142e+000 1.126590e+000 3.974792e-001 4.458072e-001 4.026001e-001 5.226043e-001 6.177751e-001 6.683953e-001 6.474324e-001 7.184354e-001 6.411893e-001 5.971432e-001 5.725699e-001 4.832885e-001 2.645710e-001
<GCONST> 1.259712e+002
<MIXTURE> 2 1.323742e-001
<MEAN> 39
 -1.195920e+001 -3.223363e+000 -3.059653e+000 -4.616231e+000 -1.692758e+000 2.616550e-001 -1.669058e+000 1.612102e+000 3.364081e+000 1.463307e+000 -2.779637e-001 -1.844366e+000 5.310480e+001 4.413428e-001 -7.912646e-001 -5.388241e-001 -4.377856e-001 7.202011e-001 6.320623e-001 -1.844811e-001 -3.502175e-001 -3.085427e-001 -2.241444e-002 -4.295625e-001 -5.243242e-001 8.208473e-001 4.079438e-001 -4.660156e-001 -6.344795e-003 -4.339844e-001 -1.153129e-001 8.875404e-002 -3.521248e-001 -1.339617e-001 -3.380665e-001 -1.163041e-001 -2.272543e-001 -2.361089e-001 7.860457e-001
<VARIANCE> 39
 7.765588e+001 7.840007e+001 8.043570e+001 1.054223e+002 9.735236e+001 9.538937e+001 7.786346e+001 6.324633e+001 6.934464e+001 6.175071e+001 5.728837e+001 5.208193e+001 2.104092e+002 3.185775e+000 4.898450e+000 4.095354e+000 5.015636e+000 5.152176e+000 5.222733e+000 4.992058e+000 4.831615e+000 5.547598e+000 4.043907e+000 4.044730e+000 3.777574e+000 5.907853e+000 5.136602e-001 9.239754e-001 7.666525e-001 1.039621e+000 9.451525e-001 1.011219e+000 9.584348e-001 9.076985e-001 1.061515e+000 8.006878e-001 9.368395e-001 7.792706e-001 1.273011e+000
<GCONST> 1.472535e+002
<MIXTURE> 3 3.463892e-001
<MEAN> 39
 -1.108755e+000 -1.001644e+001 -6.035281e+000 -1.416944e+001 -4.847385e+000 -5.073275e+000 -7.489415e+000 1.888707e+000 -2.500144e+000 -1.423040e+000 -1.073964e+001 -4.401307e+000 7.658432e+001 8.627066e-001 -1.834244e+000 -1.139577e+000 -1.379855e+000 6.216937e-001 5.716702e-001 -3.784533e-001 7.858140e-001 -5.469038e-001 -9.567159e-002 -1.679777e+000 -4.941108e-001 1.303020e+000 -4.920409e-001 7.341735e-001 5.028130e-001 8.755794e-001 1.555069e-001 6.714798e-002 3.564439e-001 -4.165015e-001 1.312522e-001 7.408735e-002 6.708055e-001 1.802617e-001 -8.444189e-001
<VARIANCE> 39
 1.351041e+001 3.946745e+001 4.296674e+001 4.788558e+001 6.461034e+001 8.863458e+001 7.472037e+001 6.254625e+001 5.313057e+001 6.005703e+001 4.641984e+001 4.078142e+001 2.644301e+001 2.120688e+000 2.294601e+000 2.659089e+000 3.894798e+000 3.974408e+000 4.243537e+000 4.072052e+000 3.896012e+000 4.408603e+000 3.783999e+000 3.787038e+000 3.340574e+000 1.457818e+000 4.393073e-001 4.520420e-001 4.971077e-001 6.193958e-001 7.922419e-001 9.412879e-001 7.525912e-001 8.496418e-001 8.153616e-001 8.017590e-001 7.521464e-001 5.311185e-001 4.226412e-001
<GCONST> 1.310763e+002
<MIXTURE> 4 1.640838e-001
<MEAN> 39
 -4.101391e+000 -6.738085e+000 -5.370447e+000 -9.066334e+000 -9.045395e-001 -5.093254e-001 -3.833623e+000 -1.707475e+000 3.236460e-001 1.441375e-001 -4.215280e+000 -4.241172e+000 6.781229e+001 3.085419e+000 -2.928779e+000 -1.165251e+000 -3.232988e+000 -7.861292e-001 3.977956e-001 -2.191212e+000 -7.166163e-001 -1.402242e+000 -4.742265e-001 -2.126164e+000 -2.154215e+000 4.519596e+000 -2.778077e-001 2.101411e-001 2.215933e-001 2.779482e-001 -1.441586e-001 1.982678e-002 1.770074e-001 3.209530e-001 1.385640e-001 8.001734e-002 2.235418e-001 1.303673e-001 -4.268452e-001
<VARIANCE> 39
 2.904022e+001 6.175203e+001 3.815381e+001 6.707218e+001 6.181535e+001 8.268861e+001 6.576919e+001 4.604552e+001 4.926052e+001 4.241546e+001 5.385440e+001 4.337759e+001 1.011490e+002 3.230683e+000 5.072100e+000 4.443382e+000 4.798985e+000 6.676225e+000 8.198757e+000 5.847585e+000 6.084577e+000 6.941020e+000 5.680739e+000 7.317645e+000 4.579389e+000 5.448555e+000 6.019599e-001 1.132837e+000 5.443676e-001 9.768991e-001 8.551705e-001 8.803732e-001 8.167720e-001 7.282723e-001 8.137151e-001 6.493440e-001 8.293958e-001 6.349851e-001 1.615167e+000
<GCONST> 1.432838e+002
<STATE> 3
<NUMMIXES> 4
<MIXTURE> 1 2.103398e-001
<MEAN> 39
 1.666969e+000 -1.169852e+001 -3.383607e+000 -1.113237e+001 -5.984855e+000 6.319237e-001 -9.661563e+000 1.261432e+000 1.627265e+000 2.192765e+000 -3.217715e+000 -9.789709e+000 7.567576e+001 -4.951044e-002 1.265750e+000 4.043731e-001 7.441193e-001 5.338827e-001 -5.836037e-001 3.058308e-001 -1.112377e-001 -3.128419e-001 6.226532e-002 6.927125e-002 5.090543e-001 -8.622441e-001 -7.334197e-001 1.278504e+000 3.130026e-001 8.894593e-001 3.892733e-001 -3.967829e-001 7.609060e-001 -3.653289e-001 -2.668612e-002 -1.120631e-001 2.784559e-001 7.624283e-001 -1.075768e+000
<VARIANCE> 39
 1.733408e+001 4.308041e+001 4.533331e+001 6.619307e+001 5.525582e+001 8.279700e+001 6.785404e+001 6.166176e+001 5.837231e+001 6.467427e+001 6.446637e+001 3.671468e+001 3.969621e+001 1.201826e+000 2.808549e+000 2.419572e+000 2.921166e+000 3.784127e+000 4.088425e+000 3.645023e+000 4.140804e+000 3.301016e+000 3.105083e+000 3.634848e+000 2.326530e+000 1.733563e+000 4.774072e-001 4.089983e-001 5.189158e-001 6.530156e-001 7.499889e-001 8.637616e-001 8.315338e-001 8.951696e-001 1.059623e+000 8.201317e-001 8.209220e-001 5.937641e-001 4.208401e-001
<GCONST> 1.312220e+002
<MIXTURE> 2 2.813044e-001
<MEAN> 39
 1.519497e+000 -1.042167e+001 -4.890207e+000 -1.249071e+001 -5.435371e+000 3.591842e+000 -9.733356e+000 8.255945e-001 1.650794e+000 2.098439e+000 -2.904175e+000 -1.006382e+001 7.408624e+001 5.137297e-002 1.691394e-001 -4.198318e-003 1.698441e-003 2.622183e-001 1.116354e-001 9.296755e-002 -1.362115e-001 -1.530671e-001 8.146565e-002 2.816658e-003 7.241666e-002 -1.985247e-001 -1.013280e-001 5.572962e-001 2.981787e-001 4.275040e-001 -1.276071e-001 -3.609015e-001 9.153441e-002 -3.034017e-001 -1.535621e-001 -2.591021e-002 1.889852e-001 4.074963e-001 -4.191131e-001
<VARIANCE> 39
 1.981966e+001 3.878914e+001 3.282907e+001 8.128852e+001 5.358454e+001 6.277211e+001 6.650436e+001 4.962545e+001 4.800759e+001 5.369182e+001 6.342492e+001 3.411712e+001 5.045476e+001 3.425040e-001 9.088903e-001 1.072439e+000 1.450399e+000 1.782709e+000 2.339807e+000 1.885890e+000 2.042893e+000 1.803523e+000 1.696488e+000 1.996133e+000 1.392521e+000 3.984738e-001 8.418961e-002 1.912201e-001 1.898315e-001 2.911943e-001 3.019916e-001 3.324942e-001 3.493883e-001 3.901203e-001 3.883061e-001 3.274403e-001 3.321002e-001 2.932912e-001 1.074562e-001
<GCONST> 1.072237e+002
<MIXTURE> 3 2.441086e-001
<MEAN> 39
 -1.497442e+000 -1.090825e+001 -9.181911e+000 -1.432117e+001 -2.287980e-001 -3.217690e+000 -4.389912e+000 -3.411587e+000 -8.765591e-001 -3.472906e+000 -8.938175e+000 -7.084120e+000 7.677037e+001 2.009490e-002 8.923227e-002 -1.226015e-001 9.828951e-002 2.345992e-001 5.537152e-002 -2.547432e-003 -2.321868e-001 1.076767e-001 -6.553969e-002 -2.493990e-002 -1.052533e-001 -9.860925e-002 8.957644e-002 3.963325e-001 4.160244e-001 1.543059e-001 -3.814252e-001 -1.521186e-001 -2.014426e-001 6.441208e-002 -5.068048e-002 1.858025e-001 2.300564e-001 9.542122e-002 -3.592422e-001
<VARIANCE> 39
 1.102595e+001 3.485212e+001 3.226534e+001 4.588097e+001 4.977822e+001 1.176549e+002 9.472281e+001 6.075405e+001 4.993824e+001 4.786771e+001 5.405249e+001 4.341641e+001 3.018784e+001 3.826349e-001 8.372768e-001 1.121476e+000 1.159050e+000 1.810895e+000 1.820172e+000 1.678211e+000 1.947861e+000 1.555830e+000 1.735816e+000 1.511495e+000 1.389564e+000 3.801124e-001 7.805813e-002 1.738564e-001 2.150461e-001 2.483339e-001 2.629606e-001 3.063412e-001 3.198315e-001 3.414516e-001 3.365932e-001 3.089507e-001 2.831928e-001 2.918166e-001 1.007579e-001
<GCONST> 1.044639e+002
<MIXTURE> 4 2.641607e-001
<MEAN> 39
 -1.429782e+000 -1.288265e+001 -5.685915e+000 -1.454183e+001 -4.043208e+000 -4.847391e+000 -8.483464e+000 4.247437e+000 -5.467734e+000 -3.136943e+000 -1.428115e+001 -2.455473e+000 7.797602e+001 1.943595e-001 9.516037e-001 4.463753e-001 5.230131e-001 -8.115882e-002 -4.560686e-001 4.853189e-002 -4.480120e-001 7.139253e-002 -2.355033e-002 1.844843e-001 9.693336e-002 -7.149134e-001 -1.549680e-001 1.159002e+000 4.969417e-001 7.914798e-001 -1.236709e-001 -1.596750e-001 2.851651e-001 -6.525614e-001 4.222140e-001 1.137693e-001 8.743755e-001 -1.252370e-001 -9.658008e-001
<VARIANCE> 39
 1.032240e+001 3.718179e+001 3.669541e+001 4.110475e+001 5.919211e+001 5.594058e+001 5.778052e+001 4.679256e+001 5.078929e+001 5.570712e+001 3.298536e+001 4.311811e+001 2.118794e+001 7.767096e-001 2.547949e+000 2.487209e+000 2.108002e+000 3.358892e+000 3.447875e+000 3.198394e+000 3.408093e+000 3.524062e+000 3.417521e+000 2.891385e+000 2.675527e+000 1.245360e+000 2.517145e-001 2.985954e-001 3.759793e-001 5.162311e-001 6.071416e-001 6.762387e-001 6.436189e-001 6.871393e-001 7.833558e-001 7.129464e-001 6.100010e-001 5.201545e-001 2.654593e-001
<GCONST> 1.221560e+002
<STATE> 4
<NUMMIXES> 4
<MIXTURE> 1 2.269206e-001
<MEAN> 39
 -3.031101e-001 -3.126354e+000 -4.699933e+000 -8.678012e+000 -1.241629e+000 -4.680580e+000 -4.395590e+000 -2.106343e+000 -1.875213e-001 -8.054397e-001 -6.801910e+000 -5.309594e+000 6.990973e+001 -1.771464e+000 2.996218e+000 1.207967e+000 2.827681e+000 1.331159e+000 1.002684e-001 1.782275e+000 3.915567e-001 1.150535e+000 3.279388e-001 1.377083e+000 9.213023e-001 -3.232831e+000 -7.998302e-001 -2.007298e-001 4.498120e-002 2.124420e-001 2.400928e-002 3.859999e-001 4.057463e-001 4.802739e-001 3.652292e-001 1.706958e-001 4.821691e-001 2.600010e-001 -2.986786e-001
<VARIANCE> 39
 1.382891e+001 3.136596e+001 3.240958e+001 4.596475e+001 4.720278e+001 8.108629e+001 5.491832e+001 4.918197e+001 4.335892e+001 6.525846e+001 6.789750e+001 4.283767e+001 4.733284e+001 2.504930e+000 2.562205e+000 2.381661e+000 3.466266e+000 3.543778e+000 4.944911e+000 5.150741e+000 4.230688e+000 4.814384e+000 3.757115e+000 4.530568e+000 3.480676e+000 3.622688e+000 4.511461e-001 5.349956e-001 4.186480e-001 6.273994e-001 5.908219e-001 8.020471e-001 6.754604e-001 6.397878e-001 6.605720e-001 7.774091e-001 7.493529e-001 5.127298e-001 5.364456e-001
<GCONST> 1.312535e+002
<MIXTURE> 2 2.779752e-001
<MEAN> 39
 2.293316e+000 -7.454450e+000 -4.332202e+000 -8.946424e+000 -6.594942e+000 2.186688e+000 -9.277560e+000 -1.286976e+000 1.902159e+000 2.492297e+000 -3.722546e-001 -9.289685e+000 7.197550e+001 -1.632381e-001 2.090689e+000 8.022512e-001 1.499769e+000 3.927501e-001 -6.436102e-001 6.269711e-001 -1.007687e+000 -8.566481e-001 -8.863948e-003 4.847760e-001 1.136249e+000 -1.953305e+000 -3.475809e-001 4.325150e-001 2.142420e-001 4.196384e-001 2.370223e-001 -2.358670e-001 3.166603e-001 -6.134189e-002 -1.219014e-001 -1.257616e-001 -1.943027e-001 3.020996e-001 -4.260029e-001
<VARIANCE> 39
 1.798504e+001 3.166637e+001 3.525252e+001 6.805045e+001 6.005097e+001 6.747328e+001 6.373162e+001 5.392797e+001 4.244812e+001 5.664336e+001 5.938779e+001 3.123892e+001 5.089985e+001 7.700766e-001 1.816243e+000 1.819615e+000 2.814064e+000 3.141350e+000 2.936169e+000 2.878134e+000 3.315550e+000 3.261117e+000 2.850334e+000 2.769577e+000 2.091479e+000 1.483872e+000 1.449073e-001 2.581471e-001 3.027948e-001 4.010594e-001 4.295723e-001 5.008094e-001 4.923969e-001 5.532143e-001 5.063812e-001 4.719989e-001 4.727475e-001 3.927277e-001 2.334896e-001
<GCONST> 1.195208e+002
<MIXTURE> 3 2.495373e-001
<MEAN> 39
 -2.701243e-001 -8.120526e+000 -6.721106e+000 -1.253885e+001 -4.215392e+000 1.513429e-001 -8.073744e+000 -1.341145e+000 -1.634265e+000 -1.575602e+000 -6.101923e+000 -6.295901e+000 7.168016e+001 2.419872e-001 1.555876e+000 1.068615e+000 8.650261e-001 -8.827553e-001 -5.852525e-001 1.595888e-001 -8.186666e-001 -5.278214e-001 2.656466e-001 6.469716e-001 3.835691e-001 -1.526578e+000 -6.459778e-002 2.249982e-001 3.585034e-001 2.472896e-001 -9.617458e-002 -1.385469e-001 -2.435737e-002 -1.526780e-001 -1.476916e-001 6.967267e-002 4.314524e-002 3.905402e-002 -2.109578e-001
<VARIANCE> 39
 2.110536e+001 4.605827e+001 5.532060e+001 6.523382e+001 6.748326e+001 1.068975e+002 8.654123e+001 6.254581e+001 6.205152e+001 6.892148e+001 6.589098e+001 4.015385e+001 6.811053e+001 9.291709e-001 1.818726e+000 3.219136e+000 2.994379e+000 2.894022e+000 3.886846e+000 3.277262e+000 3.956809e+000 4.210417e+000 3.654839e+000 3.254763e+000 3.021142e+000 1.213103e+000 1.401127e-001 2.551509e-001 3.821069e-001 4.238759e-001 4.427989e-001 5.384487e-001 5.284401e-001 6.009346e-001 6.063965e-001 6.085209e-001 5.203716e-001 4.383179e-001 2.510615e-001
<GCONST> 1.260872e+002
<MIXTURE> 4 2.455015e-001
<MEAN> 39
 -2.174743e-001 -4.209229e+000 -1.383219e+000 -8.914360e+000 -3.581396e+000 -5.370489e+000 -9.027266e+000 1.376025e+000 -2.513102e+000 1.703228e+000 -7.349953e+000 -3.549083e+000 7.014967e+001 -5.160527e-001 2.810761e+000 4.881048e-001 2.441689e+000 6.701838e-001 -2.680343e-001 1.209990e+000 -1.119713e+000 6.460637e-001 -4.000271e-001 1.032176e+000 1.667221e-001 -3.284214e+000 -2.976780e-001 -1.635372e-001 -2.831061e-001 3.898004e-002 -1.824759e-002 4.182431e-001 3.452282e-001 -8.979136e-002 3.001343e-001 -1.822730e-001 2.298535e-001 -2.159202e-001 -2.059396e-001
<VARIANCE> 39
 1.629786e+001 3.859187e+001 5.375086e+001 6.676395e+001 7.259390e+001 8.427303e+001 7.131049e+001 7.014951e+001 6.141882e+001 6.219419e+001 6.398684e+001 4.104311e+001 4.319054e+001 1.870570e+000 2.425493e+000 3.519392e+000 3.032342e+000 3.760834e+000 4.170671e+000 4.217138e+000 4.568954e+000 4.432971e+000 3.645626e+000 3.516519e+000 3.170092e+000 2.102667e+000 3.075799e-001 4.556767e-001 5.138632e-001 7.015941e-001 8.159649e-001 7.326485e-001 7.848777e-001 8.812869e-001 8.655735e-001 7.032173e-001 7.159797e-001 5.438140e-001 4.717592e-001
<GCONST> 1.328992e+002
<TRANSP> 5
 0.000000e+000 1.000000e+000 0.000000e+000 0.000000e+000 0.000000e+000
 0.000000e+000 5.514756e-001 4.485243e-001 0.000000e+000 0.000000e+000
 0.000000e+000 0.000000e+000 6.389994e-001 3.610006e-001 0.000000e+000
 0.000000e+000 0.000000e+000 0.000000e+000 5.311922e-001 4.688078e-001
 0.000000e+000 0.000000e+000 0.000000e+000 0.000000e+000 0.000000e+000
<ENDHMM>
~h "b"
<BEGINHMM>
<NUMSTATES> 5
<STATE> 2
<NUMMIXES> 4
<MIXTURE> 1 1.585743e-001
<MEAN> 39
 -9.876117e-001 8.591362e+000 5.989843e+000 5.283283e+000 -4.527010e-001 -2.139234e+000 -4.874564e+000 -6.188229e+000 -3.631722e+000 -7.034231e-001 9.930143e-001 -3.132129e+000 5.696340e+001 6.218913e-001 1.509241e+000 2.564141e-001 6.855005e-001 8.122227e-001 3.128067e-001 2.763188e-001 -4.865074e-001 -5.705107e-001 -1.679644e-001 -2.064055e-001 -3.576353e-001 -1.382362e+000 -3.815167e-001 -4.184987e-001 -2.715760e-002 -3.186814e-001 -3.080951e-001 -1.134546e-001 4.833369e-002 2.363984e-001 9.257840e-002 -7.357134e-002 -1.236609e-001 5.166615e-002 5.438475e-001
<VARIANCE> 39
 2.438350e+001 2.270526e+001 3.221954e+001 3.580448e+001 3.458158e+001 3.107817e+001 4.138434e+001 3.034356e+001 3.091254e+001 2.692697e+001 2.666299e+001 2.206643e+001 6.139822e+001 2.540880e+000 1.976497e+000 2.109020e+000 2.148979e+000 3.181904e+000 3.124601e+000 3.691383e+000 3.277660e+000 3.495859e+000 2.530073e+000 2.336308e+000 2.469200e+000 3.380459e+000 2.672797e-001 3.209226e-001 3.434384e-001 3.133391e-001 4.336973e-001 4.248919e-001 4.298959e-001 4.599765e-001 4.734014e-001 4.078000e-001 3.696190e-001 3.534033e-001 3.616441e-001
<GCONST> 1.167493e+002
<MIXTURE> 2 2.800568e-001
<MEAN> 39
 3.722065e+000 5.968816e+000 2.668144e+000 -1.259013e+000 -2.459175e+000 -8.911372e-001 -5.416966e+000 -7.012775e+000 -5.624712e+000 -2.998065e+000 -1.181582e+000 -5.777369e+000 5.944724e+001 -4.420213e-001 2.704494e+000 1.048311e+000 2.931442e+000 1.829088e+000 -1.721438e-001 1.548338e+000 -4.045271e-001 -1.497880e-002 -9.746919e-001 -5.968299e-001 -4.048603e-001 -2.977478e+000 -4.197866e-001 -7.622251e-001 -1.125760e-001 -7.275792e-001 -5.007629e-001 -1.828681e-001 -2.625777e-001 3.590334e-001 2.307392e-001 2.713483e-001 -5.766534e-002 1.535363e-001 9.820123e-001
<VARIANCE> 39
 9.463429e+000 2.323479e+001 2.576900e+001 3.902999e+001 3.140918e+001 4.932409e+001 4.097336e+001 3.178607e+001 3.963065e+001 3.285429e+001 3.783545e+001 2.161166e+001 3.674247e+001 8.318006e-001 1.660202e+000 1.757452e+000 3.474414e+000 2.716866e+000 2.804058e+000 2.629663e+000 3.037127e+000 3.848408e+000 2.997014e+000 2.901171e+000 2.379003e+000 1.221182e+000 1.570539e-001 3.632494e-001 2.464241e-001 4.340299e-001 3.923687e-001 4.090988e-001 4.685289e-001 4.950664e-001 5.626319e-001 4.578592e-001 5.099202e-001 3.361137e-001 3.548276e-001
<GCONST> 1.142546e+002
<MIXTURE> 3 3.452105e-001
<MEAN> 39
 6.804496e-001 8.010655e+000 4.134047e+000 1.898699e+000 -3.590569e+000 -2.268035e+000 -4.202820e+000 -5.605600e+000 -5.042454e+000 -2.459447e+000 -1.441001e+000 -5.087083e+000 5.745621e+001 -2.824537e-001 6.054980e-001 1.597245e-001 4.775423e-001 5.748405e-001 3.330383e-002 3.993233e-001 1.104635e-001 7.875825e-002 -1.657776e-001 -1.585432e-001 1.761960e-001 -7.215846e-001 -1.928119e-001 -6.973026e-001 -1.075242e-001 -4.420928e-001 -3.278793e-001 -1.165642e-001 -4.063788e-001 5.569896e-002 1.687561e-001 1.455576e-001 8.127597e-002 1.475088e-001 7.772793e-001
<VARIANCE> 39
 2.165036e+001 2.317927e+001 2.586084e+001 3.387694e+001 3.488742e+001 3.580812e+001 3.688912e+001 2.931557e+001 3.756177e+001 2.553063e+001 3.567733e+001 2.465581e+001 4.833414e+001 2.832360e-001 6.201179e-001 6.826826e-001 9.825780e-001 1.126051e+000 1.168892e+000 1.473762e+000 1.387990e+000 1.718177e+000 1.646180e+000 1.520575e+000 1.305426e+000 3.383849e-001 1.306133e-001 2.450119e-001 2.683801e-001 3.809827e-001 3.736119e-001 3.648570e-001 4.319490e-001 3.839352e-001 4.964260e-001 3.996883e-001 3.813740e-001 3.225089e-001 2.397026e-001
<GCONST> 1.011512e+002
<MIXTURE> 4 2.161176e-001
<MEAN> 39
 3.350717e+000 6.964657e+000 2.045330e+000 -2.474743e+000 -4.977117e+000 -6.867112e+000 -8.811592e+000 -7.661901e+000 -5.517596e+000 -5.264350e+000 -9.151490e+000 -1.034675e+001 5.983369e+001 -2.869506e-001 1.392584e+000 5.089180e-001 1.015222e+000 5.997699e-001 1.484552e-001 6.464990e-001 -1.715063e-001 1.530663e-001 -7.356030e-001 -7.942703e-002 -3.281710e-001 -1.368534e+000 -6.441100e-001 -9.763756e-001 -1.139535e-001 -6.367399e-001 -4.345953e-001 -1.088837e-001 -9.095552e-002 2.853178e-001 9.981772e-003 3.615960e-001 4.845104e-001 8.063892e-001 1.266915e+000
<VARIANCE> 39
 1.298671e+001 2.737927e+001 3.934952e+001 3.067115e+001 3.677407e+001 4.648778e+001 3.403799e+001 3.603373e+001 3.580002e+001 3.929062e+001 3.298586e+001 2.247258e+001 2.498580e+001 1.179012e+000 1.941299e+000 1.513831e+000 2.196327e+000 2.420215e+000 2.250440e+000 2.377934e+000 2.534764e+000 2.456970e+000 2.563400e+000 2.406928e+000 2.584732e+000 1.753139e+000 2.446575e-001 4.497502e-001 5.028726e-001 6.651074e-001 7.634788e-001 6.174902e-001 6.544134e-001 7.315734e-001 6.343752e-001 6.878072e-001 4.842097e-001 4.505787e-001 5.186416e-001
<GCONST> 1.182296e+002
<STATE> 3
<NUMMIXES> 4
<MIXTURE> 1 3.123405e-001
<MEAN> 39
 8.008482e-001 1.051808e+001 6.527730e+000 3.859347e+000 1.061603e+000 -4.128141e-001 -1.715879e+000 -5.645541e+000 -4.492700e+000 -2.887333e+000 3.738110e-001 -2.951229e+000 5.518072e+001 -1.449982e+000 -1.166811e+000 -1.477017e-001 2.470798e-001 3.819072e-001 -5.161349e-001 -1.849674e-002 3.566984e-001 7.914221e-001 1.787447e-001 -2.820908e-001 3.155422e-001 1.127726e+000 -1.030136e-001 -1.414640e+000 -3.946720e-001 -9.188201e-001 -9.734511e-001 -4.141939e-001 -6.852870e-001 1.376786e-001 3.084920e-001 3.804610e-001 1.351071e-001 -5.144700e-002 1.735598e+000
<VARIANCE> 39
 1.768387e+001 1.501644e+001 1.756446e+001 2.603716e+001 2.424547e+001 2.721402e+001 2.899596e+001 3.171058e+001 3.237035e+001 2.395960e+001 2.182263e+001 1.730585e+001 3.938661e+001 1.314428e+000 2.272151e+000 1.690777e+000 2.360772e+000 1.973201e+000 2.519152e+000 2.569749e+000 2.452238e+000 2.749390e+000 2.184427e+000 2.132857e+000 1.471137e+000 2.736414e+000 2.897125e-001 3.214071e-001 5.209277e-001 5.829159e-001 5.429471e-001 5.730078e-001 5.898871e-001 6.568285e-001 7.462193e-001 6.012604e-001 5.491661e-001 4.191434e-001 2.918118e-001
<GCONST> 1.136432e+002
<MIXTURE> 2 1.443221e-001
<MEAN> 39
 -3.022396e-002 8.207092e+000 3.989108e+000 3.859084e+000 -1.777998e+000 -2.441496e+000 -7.376247e+000 -8.903086e+000 -6.631522e+000 -1.472615e+000 -1.916908e+000 -6.323751e+000 5.455525e+001 -1.068907e+000 -1.606506e+000 2.456463e-001 -4.754141e-001 -5.709859e-001 -1.420248e+000 -3.497828e-001 2.527376e-001 7.958934e-001 1.643777e-002 -3.032257e-001 5.838908e-001 2.399808e+000 -2.412192e-001 -1.161099e+000 1.331247e-002 -9.026296e-001 -8.469129e-001 -2.886856e-001 -1.262330e-001 4.982293e-001 2.867450e-001 5.387859e-004 2.007304e-001 4.038347e-001 1.334454e+000
<VARIANCE> 39
 2.747065e+001 3.573943e+001 3.925458e+001 4.983379e+001 4.433807e+001 5.306910e+001 6.474789e+001 4.412534e+001 7.429636e+001 4.041504e+001 6.800193e+001 4.206861e+001 7.294667e+001 4.524457e+000 6.124683e+000 3.279986e+000 4.952454e+000 6.298649e+000 4.929126e+000 6.912219e+000 5.253554e+000 7.385003e+000 4.193268e+000 5.148130e+000 4.588824e+000 4.417127e+000 5.507880e-001 6.693260e-001 7.528244e-001 7.511979e-001 1.198889e+000 9.633320e-001 1.172824e+000 1.035663e+000 1.524649e+000 8.948196e-001 9.506339e-001 8.353855e-001 7.607477e-001
<GCONST> 1.419173e+002
<MIXTURE> 3 3.744343e-001
<MEAN> 39
 1.049187e-001 8.946283e+000 5.594885e+000 2.274038e+000 -1.048337e+000 -4.398602e+000 -5.099319e+000 -7.054290e+000 -4.465819e+000 -4.187817e+000 -3.693818e+000 -6.348289e+000 5.683652e+001 -1.727550e+000 -2.501633e+000 -6.863521e-001 -9.794966e-001 -7.691157e-001 -6.715280e-001 -2.063862e-001 7.946262e-001 9.709572e-001 3.933197e-001 4.290631e-001 9.947336e-001 3.302365e+000 2.202056e-001 -1.143299e+000 -3.737235e-001 -1.170529e+000 -1.050195e+000 -1.686693e-001 -4.796140e-001 3.020654e-001 -7.151963e-002 5.477439e-001 1.655267e-001 2.107550e-001 1.458334e+000
<VARIANCE> 39
 1.520110e+001 1.630898e+001 1.667204e+001 2.163116e+001 2.370155e+001 2.752221e+001 2.651040e+001 2.241796e+001 2.296914e+001 2.407783e+001 2.698317e+001 1.983458e+001 3.732039e+001 1.770675e+000 2.294856e+000 2.739130e+000 3.541272e+000 3.165565e+000 3.355975e+000 3.434781e+000 3.180443e+000 3.082919e+000 3.141840e+000 2.707484e+000 2.392146e+000 2.684052e+000 2.507891e-001 3.720204e-001 6.619647e-001 5.767479e-001 5.708992e-001 6.445887e-001 4.971856e-001 6.711501e-001 6.854749e-001 6.086097e-001 6.029692e-001 5.153754e-001 3.156235e-001
<GCONST> 1.170899e+002
<MIXTURE> 4 1.688892e-001
<MEAN> 39
 3.693384e+000 8.971735e+000 2.550749e-001 -3.088046e+000 -6.954037e+000 -1.902313e+000 -7.502073e+000 -7.759734e+000 -7.509264e+000 -5.947135e+000 -5.177042e+000 -5.899479e+000 5.650874e+001 -1.821464e+000 -2.094429e+000 4.911259e-001 3.137671e-001 1.319705e-001 -1.299923e+000 -6.300244e-001 -5.773881e-002 7.942529e-001 5.476328e-001 5.849738e-001 8.127276e-001 2.164909e+000 -2.589271e-001 -1.357146e+000 1.570417e-001 -6.208460e-001 -5.467161e-001 -2.020309e-001 -5.915471e-001 9.316949e-002 1.228971e-001 5.252591e-001 3.557268e-001 1.664634e-001 1.422089e+000
<VARIANCE> 39
 1.731925e+001 3.774578e+001 5.031173e+001 5.297148e+001 4.638029e+001 7.989076e+001 4.394166e+001 4.118389e+001 4.017229e+001 4.082922e+001 5.350432e+001 3.482714e+001 3.813232e+001 2.390559e+000 5.834398e+000 5.829187e+000 6.875069e+000 7.751679e+000 6.975516e+000 6.104638e+000 4.489155e+000 4.751498e+000 4.876136e+000 4.466208e+000 3.406501e+000 3.511910e+000 3.423076e-001 8.456051e-001 1.130427e+000 1.058469e+000 1.157704e+000 1.131495e+000 9.373168e-001 9.425212e-001 1.087620e+000 9.157240e-001 8.245639e-001 7.824594e-001 4.116371e-001
<GCONST> 1.388443e+002
<STATE> 4
<NUMMIXES> 4
<MIXTURE> 1 2.579656e-001
<MEAN> 39
 -5.524377e+000 3.204364e+000 3.708906e+000 2.973629e+000 7.897851e-001 -2.302217e+000 -1.808241e+000 -3.204115e+000 -7.310770e-001 -1.067501e+000 -8.968945e-001 -1.708946e+000 6.126949e+001 -1.457997e-001 -2.894151e+000 -7.641407e-001 -2.041173e+000 -2.066831e+000 -9.189818e-001 -1.479193e+000 -7.934278e-002 5.356308e-001 5.867916e-001 5.668333e-001 1.635580e-001 3.999959e+000 8.645647e-001 -5.629460e-002 1.521035e-001 -6.752154e-001 -1.077144e+000 1.283770e-001 -6.956205e-001 -2.482286e-001 -4.479247e-001 -2.556038e-002 2.050052e-001 -3.176258e-001 3.214217e-001
<VARIANCE> 39
 2.391541e+001 2.802741e+001 2.795128e+001 3.603855e+001 2.806015e+001 2.474581e+001 3.224294e+001 2.846001e+001 3.012431e+001 2.453961e+001 2.136446e+001 1.768648e+001 7.051667e+001 2.888401e+000 3.578150e+000 5.278053e+000 6.106560e+000 4.833312e+000 5.445795e+000 5.212811e+000 4.479663e+000 5.217259e+000 4.780678e+000 3.978028e+000 3.023393e+000 3.149636e+000 3.914573e-001 7.753177e-001 6.496680e-001 7.415386e-001 7.141647e-001 8.193406e-001 7.082581e-001 7.419576e-001 8.425403e-001 7.006880e-001 9.299741e-001 4.725519e-001 6.302078e-001
<GCONST> 1.294284e+002
<MIXTURE> 2 2.691144e-001
<MEAN> 39
 -2.765169e-001 -3.027954e+000 -4.692458e-001 -5.450011e+000 -7.640922e+000 -5.413685e+000 -1.185351e+001 -5.956721e+000 5.047353e-001 3.062770e+000 5.403543e-001 -4.717510e+000 7.185442e+001 8.448483e-001 -3.459715e+000 -8.293203e-001 -2.781333e+000 -2.918020e+000 -3.046912e-001 -2.341749e+000 1.070026e+000 1.239014e+000 1.477931e+000 1.180319e-001 -5.913708e-001 3.668264e+000 2.240748e-001 6.551924e-001 4.515024e-001 3.910023e-001 1.332350e-001 4.099191e-001 5.384905e-001 1.460243e-001 -4.782286e-001 -5.825778e-001 -3.528995e-001 -4.150868e-002 -9.634341e-001
<VARIANCE> 39
 1.889304e+001 2.665801e+001 3.273779e+001 6.082493e+001 3.787580e+001 5.087560e+001 5.669791e+001 3.886951e+001 3.385494e+001 3.418897e+001 4.431977e+001 2.381410e+001 5.455768e+001 2.117169e+000 3.629990e+000 4.871932e+000 6.685391e+000 4.417579e+000 6.218848e+000 5.752939e+000 6.013639e+000 5.268295e+000 5.355505e+000 5.306095e+000 4.080466e+000 2.594245e+000 3.102245e-001 4.563122e-001 3.331524e-001 6.284858e-001 6.752012e-001 5.428137e-001 7.567189e-001 6.285294e-001 6.402150e-001 5.672351e-001 6.051179e-001 5.200043e-001 4.400945e-001
<GCONST> 1.302646e+002
<MIXTURE> 3 2.746769e-001
<MEAN> 39
 -7.061449e+000 -8.138342e-003 3.069664e+000 -1.013529e-001 -2.569228e+000 -7.177790e+000 -4.620171e+000 -4.958380e+000 -1.709727e+000 -4.557627e+000 -4.060429e+000 -4.091696e+000 6.901698e+001 -4.488938e-001 -3.223653e+000 -7.301688e-001 -2.779911e+000 -2.711644e+000 -1.179479e+000 -1.218613e+000 9.247207e-001 -1.664338e-001 1.337093e+000 6.695749e-001 1.381853e+000 4.644817e+000 1.014980e+000 2.271173e-001 8.546862e-002 -8.577429e-001 -7.404137e-001 2.233061e-001 -4.846866e-001 -8.552507e-002 -6.162455e-001 4.739789e-001 -4.935936e-002 -1.183194e-001 -3.405690e-001
<VARIANCE> 39
 1.387901e+001 2.179758e+001 2.370048e+001 2.466583e+001 2.123202e+001 2.513671e+001 2.713961e+001 2.471176e+001 2.907082e+001 2.248533e+001 2.164006e+001 1.855748e+001 4.000072e+001 2.658981e+000 3.311832e+000 6.797934e+000 5.649404e+000 5.397363e+000 6.319179e+000 4.236666e+000 5.654242e+000 5.936974e+000 5.019122e+000 4.288603e+000 3.765046e+000 2.416950e+000 3.069286e-001 7.147750e-001 5.750472e-001 8.048016e-001 7.100660e-001 7.920368e-001 6.826622e-001 7.159093e-001 8.593503e-001 6.736408e-001 8.374954e-001 4.931774e-001 4.786138e-001
<GCONST> 1.265567e+002
<MIXTURE> 4 1.982179e-001
<MEAN> 39
 -3.715787e+000 -4.404848e+000 7.858710e+000 -1.716490e+000 -1.081512e+001 -1.291159e+001 -9.963027e+000 -2.932097e+000 -3.877290e+000 -2.962250e+000 -9.143184e-001 -1.680153e+000 7.213482e+001 -1.385469e-001 -2.700545e+000 2.098295e+000 -2.752109e+000 -4.234729e+000 -1.125286e+000 -1.206076e+000 7.436975e-001 -1.808858e+000 9.366589e-001 7.112315e-001 1.023397e+000 3.646577e+000 4.047040e-001 1.148359e+000 2.696740e-002 -3.833893e-001 2.576113e-001 1.027534e+000 1.818390e-001 -4.420067e-001 -3.932845e-001 1.222075e-001 -2.830708e-001 -4.660506e-001 -1.159558e+000
<VARIANCE> 39
 2.289675e+001 3.908958e+001 7.192831e+001 7.981899e+001 5.465324e+001 5.617643e+001 5.480492e+001 4.495932e+001 5.160557e+001 3.911723e+001 4.146496e+001 2.835268e+001 4.880795e+001 2.830741e+000 5.361307e+000 8.435930e+000 6.270896e+000 6.105790e+000 6.729084e+000 4.751299e+000 6.820744e+000 7.452007e+000 6.683730e+000 5.606660e+000 4.196684e+000 2.993716e+000 3.109839e-001 5.933135e-001 6.127053e-001 1.063244e+000 1.042561e+000 7.848760e-001 1.015246e+000 8.153507e-001 9.104887e-001 8.052707e-001 7.199332e-001 5.808040e-001 4.933667e-001
<GCONST> 1.391844e+002
<TRANSP> 5
 0.000000e+000 1.000000e+000 0.000000e+000 0.000000e+000 0.000000e+000
 0.000000e+000 6.991752e-001 3.008248e-001 0.000000e+000 0.000000e+000
 0.000000e+000 0.000000e+000 4.910149e-001 5.089850e-001 0.000000e+000
 0.000000e+000 0.000000e+000 0.000000e+000 5.354450e-001 4.645550e-001
 0.000000e+000 0.000000e+000 0.000000e+000 0.000000e+000 0.000000e+000
<ENDHMM>
~h "d"
<BEGINHMM>
<NUMSTATES> 5
<STATE> 2
<NUMMIXES> 4
<MIXTURE> 1 2.516393e-001
<MEAN> 39
 -2.129137e+000 6.240241e+000 8.392480e+000 4.285529e+000 -3.747003e+000 -5.712217e+000 -5.661929e+000 -2.296874e+000 8.832957e-001 -8.470238e-001 -1.584131e+000 -3.465417e+000 5.876613e+001 3.880813e-003 1.599084e+000 -1.051178e-001 1.255315e+000 1.664676e+000 7.446187e-001 1.146299e+000 1.247040e-003 1.803586e-001 5.799656e-003 -2.921191e-001 -1.302896e-001 -2.425980e+000 -3.234833e-001 -8.165442e-001 -2.269790e-001 -6.621715e-001 -4.310010e-001 1.928754e-002 -6.422850e-002 -1.236024e-002 -2.803051e-001 -2.292323e-002 6.593177e-002 1.213432e-001 1.088010e+000
<VARIANCE> 39
 2.500838e+001 2.734356e+001 3.712901e+001 3.182775e+001 4.176290e+001 3.709679e+001 4.000824e+001 3.166845e+001 3.360546e+001 2.665602e+001 2.473353e+001 2.411654e+001 5.512403e+001 1.562352e+000 3.033665e+000 2.381938e+000 2.939421e+000 3.537235e+000 2.713416e+000 3.149957e+000 2.786134e+000 3.038415e+000 2.502877e+000 2.199457e+000 1.909779e+000 2.992471e+000 2.504537e-001 4.611085e-001 2.930214e-001 4.883238e-001 5.485595e-001 5.015762e-001 5.418532e-001 5.169248e-001 4.920445e-001 4.121146e-001 3.985680e-001 3.680137e-001 5.661162e-001
<GCONST> 1.187136e+002
<MIXTURE> 2 2.705677e-001
<MEAN> 39
 3.405746e+000 8.375893e-001 3.605253e-001 3.062454e+000 -3.850040e+000 -3.260036e+000 -1.202367e+001 -1.081916e+001 2.431493e+000 2.590603e+000 -3.726050e+000 -7.950734e+000 6.233374e+001 -7.575259e-001 1.801585e+000 1.172163e+000 1.951283e+000 1.883832e+000 -7.441255e-001 1.584725e+000 5.395612e-001 2.304599e-002 -6.279964e-001 -1.147588e+000 -2.723437e-002 -2.312435e+000 -4.581217e-001 -6.440833e-001 1.032639e-001 -1.282218e+000 -7.536951e-001 2.619462e-001 1.128332e-001 6.031321e-001 -5.625761e-001 -4.301428e-001 5.664093e-001 5.574185e-001 1.114154e+000
<VARIANCE> 39
 1.363406e+001 3.463155e+001 3.893051e+001 4.697845e+001 6.618935e+001 4.833209e+001 4.767569e+001 5.179239e+001 4.394486e+001 3.879802e+001 5.281882e+001 3.245172e+001 4.758827e+001 1.513711e+000 3.946179e+000 2.945637e+000 4.529367e+000 4.810964e+000 4.166368e+000 4.849555e+000 5.381515e+000 4.751635e+000 4.509558e+000 4.646677e+000 3.666392e+000 2.981307e+000 2.654091e-001 8.408375e-001 4.877322e-001 7.760065e-001 1.504250e+000 8.976600e-001 9.501809e-001 8.792894e-001 9.987500e-001 9.279650e-001 8.203367e-001 7.111056e-001 7.665947e-001
<GCONST> 1.343776e+002
<MIXTURE> 3 2.731251e-001
<MEAN> 39
 -1.090615e+000 6.171072e+000 6.323040e+000 5.990841e-001 -7.086284e+000 -6.491966e+000 -6.095378e+000 -3.431857e+000 -2.909033e+000 -4.771353e+000 -6.626930e+000 -5.697831e+000 6.044788e+001 2.616172e-001 1.102800e+000 4.636797e-002 9.077670e-001 1.156599e+000 5.123771e-001 8.949525e-001 -6.113748e-002 1.272952e-001 -4.407888e-001 -2.241420e-001 -4.190961e-001 -1.718845e+000 -5.910631e-001 -9.415329e-001 -1.116705e-001 -5.816110e-001 -2.601814e-001 -5.394935e-002 -2.940207e-001 -4.125036e-002 -2.656145e-003 3.750105e-001 3.618788e-001 3.847298e-001 1.164208e+000
<VARIANCE> 39
 2.658014e+001 3.634187e+001 3.686194e+001 3.574950e+001 4.788884e+001 4.148747e+001 3.928478e+001 3.049455e+001 3.576254e+001 3.605785e+001 3.428551e+001 2.587232e+001 5.158508e+001 1.550582e+000 2.279018e+000 1.893190e+000 2.045530e+000 3.050205e+000 2.317604e+000 2.744177e+000 2.503177e+000 2.685689e+000 2.227251e+000 1.987196e+000 2.142317e+000 2.393508e+000 4.030358e-001 4.570193e-001 4.136437e-001 4.510073e-001 6.189657e-001 5.443174e-001 6.622702e-001 5.794194e-001 5.794129e-001 4.538714e-001 4.574635e-001 4.040405e-001 5.644693e-001
<GCONST> 1.199067e+002
<MIXTURE> 4 2.046394e-001
<MEAN> 39
 -8.592124e-002 3.851114e+000 4.938299e+000 -1.368488e+000 -8.081995e+000 -6.795392e+000 -9.119953e+000 -5.301428e+000 -2.948663e+000 -6.026569e+000 -7.696400e+000 -5.568495e+000 6.017379e+001 -1.639988e-001 1.038255e+000 7.321944e-001 1.515109e+000 4.546722e-001 -2.785999e-002 7.841895e-001 -5.403621e-001 -1.700494e-001 -8.048242e-001 5.570075e-002 -4.808846e-001 -1.160887e+000 -5.668592e-001 -1.129088e+000 -1.923347e-001 -8.176500e-001 -1.568699e-001 9.175677e-002 -6.734915e-002 1.915120e-001 5.272791e-002 4.458830e-001 4.832306e-001 4.269206e-001 1.245512e+000
<VARIANCE> 39
 3.531536e+001 5.842990e+001 8.235666e+001 5.860514e+001 7.013417e+001 7.220126e+001 6.651628e+001 5.266838e+001 5.332512e+001 5.257842e+001 6.138095e+001 4.049557e+001 5.585759e+001 4.260726e+000 6.354242e+000 4.258430e+000 6.163438e+000 7.538337e+000 6.708628e+000 6.610377e+000 6.052105e+000 5.423954e+000 4.687059e+000 5.213221e+000 4.211640e+000 5.764092e+000 5.995119e-001 1.111275e+000 8.260577e-001 1.257349e+000 1.360339e+000 1.152345e+000 1.163660e+000 1.111760e+000 1.112265e+000 1.026137e+000 9.691952e-001 7.707600e-001 1.119634e+000
<GCONST> 1.468096e+002
<STATE> 3
<NUMMIXES> 4
<MIXTURE> 1 3.010918e-001
<MEAN> 39
 -2.580099e+000 8.519956e+000 7.147231e+000 5.550349e+000 -3.154671e-001 -3.280802e+000 -4.063505e+000 -3.668391e+000 -3.219676e-001 -7.249263e-002 -1.227182e+000 -3.558083e+000 5.580903e+001 -1.435162e+000 -1.974450e+000 -4.638631e-001 -9.087532e-001 1.294312e-002 1.822993e-001 8.775131e-001 3.164932e-001 -8.075469e-002 -3.463074e-001 2.207388e-001 8.995612e-001 1.902634e+000 -3.884348e-002 -1.063806e+000 -9.847773e-002 -8.445899e-001 -1.147283e+000 -4.560688e-001 -6.713327e-001 -7.640526e-002 8.963651e-003 -8.152948e-003 1.649332e-001 7.608122e-002 1.719125e+000
<VARIANCE> 39
 2.603708e+001 2.165392e+001 3.094011e+001 2.825521e+001 3.455578e+001 2.950565e+001 3.584216e+001 2.868153e+001 3.000237e+001 2.586412e+001 2.072005e+001 2.062182e+001 5.340965e+001 2.118196e+000 4.483674e+000 3.123009e+000 4.182891e+000 4.365559e+000 4.011776e+000 4.045240e+000 3.585803e+000 3.965140e+000 3.224200e+000 2.468531e+000 2.505315e+000 4.244246e+000 3.981914e-001 5.464495e-001 5.001900e-001 6.527857e-001 8.129564e-001 6.847872e-001 7.565565e-001 6.786459e-001 7.328308e-001 5.452411e-001 5.282975e-001 4.238098e-001 4.495595e-001
<GCONST> 1.244013e+002
<MIXTURE> 2 2.139583e-001
<MEAN> 39
 -3.845221e+000 1.549438e-002 5.092378e+000 1.928793e+000 -2.785054e+000 -2.856451e+000 -6.252215e+000 -5.624482e+000 6.992455e-001 -1.293045e+000 -3.152259e+000 -3.373197e+000 6.348296e+001 -1.079848e+000 -1.793093e+000 4.061162e-001 -1.220635e+000 -1.307385e+000 -6.981376e-001 -6.818309e-001 3.829156e-001 1.483261e-001 -4.975667e-001 5.549955e-001 1.076910e+000 2.546066e+000 4.773460e-001 -4.751304e-001 -1.149403e-001 -9.233629e-001 -1.155234e+000 -1.743097e-001 -9.310092e-001 1.576434e-001 -2.199943e-001 2.553532e-001 3.929109e-001 -1.885554e-001 9.702554e-001
<VARIANCE> 39
 3.388848e+001 3.425407e+001 4.442807e+001 5.178213e+001 4.641837e+001 5.003311e+001 5.629506e+001 5.650742e+001 4.401438e+001 3.507099e+001 3.282702e+001 2.659718e+001 6.792818e+001 2.169891e+000 3.422214e+000 3.264852e+000 4.185935e+000 5.155503e+000 4.187365e+000 4.706073e+000 5.415159e+000 4.660667e+000 3.957813e+000 3.436324e+000 3.103741e+000 3.752803e+000 2.958863e-001 5.826118e-001 6.057792e-001 9.179214e-001 1.014940e+000 1.241976e+000 1.085606e+000 1.164599e+000 1.154856e+000 9.394045e-001 1.205905e+000 6.492519e-001 3.498898e-001
<GCONST> 1.350650e+002
<MIXTURE> 3 3.184312e-001
<MEAN> 39
 -1.071420e-001 7.293921e+000 6.937643e+000 1.507072e+000 -4.918873e+000 -7.628615e+000 -5.589139e+000 -4.011930e+000 -1.833453e+000 -5.338327e+000 -7.667733e+000 -6.867445e+000 5.793845e+001 -2.022532e+000 -1.890728e+000 2.622103e-001 -8.792682e-001 5.052751e-001 7.111899e-001 6.341626e-001 -2.761199e-002 -1.743066e-001 1.100028e-001 1.447874e+000 9.975745e-001 2.137508e+000 -3.030583e-001 -1.470289e+000 -2.863795e-001 -1.254578e+000 -1.156206e+000 -3.940639e-001 -7.663978e-001 2.105118e-001 -1.305787e-001 5.649919e-001 3.786937e-001 6.583292e-001 2.040430e+000
<VARIANCE> 39
 1.425354e+001 2.279973e+001 2.872370e+001 2.794182e+001 3.690402e+001 3.388311e+001 3.136935e+001 3.104996e+001 3.459338e+001 3.557189e+001 2.981663e+001 2.428730e+001 3.462231e+001 1.956510e+000 3.965749e+000 3.538867e+000 4.285951e+000 5.524851e+000 4.780072e+000 4.231722e+000 4.332455e+000 3.908927e+000 3.801088e+000 3.803691e+000 3.135096e+000 3.786756e+000 4.267627e-001 4.951910e-001 5.066206e-001 7.763158e-001 9.203726e-001 7.593271e-001 8.648478e-001 8.872614e-001 7.899935e-001 6.855962e-001 7.220987e-001 5.434234e-001 4.262567e-001
<GCONST> 1.273534e+002
<MIXTURE> 4 1.664966e-001
<MEAN> 39
 -2.647436e+000 -4.514960e+000 7.048680e+000 7.696761e-001 -1.002602e+001 -3.777717e+000 -9.475428e+000 -6.321829e+000 -1.974648e+000 -6.759009e+000 -5.020756e+000 -3.179159e+000 6.513975e+001 -1.204753e+000 -2.785425e+000 9.050449e-001 -1.252756e+000 -1.737391e+000 -4.852349e-001 -1.264030e+000 5.467469e-001 3.843958e-001 -1.474220e-001 1.387780e+000 1.141178e+000 3.048769e+000 4.129860e-001 -6.467559e-003 -5.803281e-001 -1.049953e+000 -2.405350e-001 -1.572817e-001 -7.407973e-001 1.370045e-001 -7.703914e-002 7.261919e-001 1.879541e-001 -1.874692e-001 6.041960e-001
<VARIANCE> 39
 3.370395e+001 6.347989e+001 9.091360e+001 9.187767e+001 7.874902e+001 7.201416e+001 7.055711e+001 6.040321e+001 5.664661e+001 4.328894e+001 3.990165e+001 3.936365e+001 4.171457e+001 2.896221e+000 6.141219e+000 5.218615e+000 6.851103e+000 7.851516e+000 5.901478e+000 7.195696e+000 7.904329e+000 6.418220e+000 5.407469e+000 4.800207e+000 4.088683e+000 3.927979e+000 3.729945e-001 1.094338e+000 8.894147e-001 1.377998e+000 1.454100e+000 1.796357e+000 1.672028e+000 1.246647e+000 1.270902e+000 9.443151e-001 1.147019e+000 9.870738e-001 4.357046e-001
<GCONST> 1.469730e+002
<STATE> 4
<NUMMIXES> 4
<MIXTURE> 1 2.160945e-001
<MEAN> 39
 -7.430948e+000 1.347178e+000 3.504644e+000 1.023188e+000 -2.956613e+000 -5.662299e+000 -2.707688e+000 -3.519759e+000 -9.852462e-001 -1.148443e+000 -1.426427e+000 -1.105808e+000 6.543167e+001 -9.930047e-002 -9.121850e-001 -3.097350e-002 -5.983666e-001 -1.390251e+000 -7.876462e-001 -8.721461e-001 -6.034872e-001 -1.723603e-001 2.214927e-002 2.908549e-001 1.539428e-001 2.195732e+000 6.575475e-001 1.053473e-001 2.603280e-001 -1.384213e-001 -5.589368e-001 9.671003e-002 -7.953130e-001 -1.486610e-001 2.709486e-002 1.173712e-001 4.767606e-002 -4.131998e-001 -2.642319e-002
<VARIANCE> 39
 4.802942e+001 4.113367e+001 4.246765e+001 5.208923e+001 4.302534e+001 4.887508e+001 4.805866e+001 3.949336e+001 3.719557e+001 2.872883e+001 3.032113e+001 2.542917e+001 7.441300e+001 3.845145e+000 4.045796e+000 3.475542e+000 3.458420e+000 5.140513e+000 4.281963e+000 5.828762e+000 4.397429e+000 4.616395e+000 3.236571e+000 2.847797e+000 2.723955e+000 4.014310e+000 5.039304e-001 8.874707e-001 5.866359e-001 8.642784e-001 8.414752e-001 9.120519e-001 8.910530e-001 7.732167e-001 7.142414e-001 6.180797e-001 6.060821e-001 5.049778e-001 8.067536e-001
<GCONST> 1.334702e+002
<MIXTURE> 2 2.908399e-001
<MEAN> 39
 -9.493147e-001 -5.398241e+000 5.817175e+000 -1.381312e+000 -1.301263e+001 -6.699312e+000 -1.631129e+001 -5.692173e+000 3.524688e+000 -1.129238e+000 -8.494374e-001 -3.034925e+000 7.214675e+001 1.410320e+000 -5.318788e-001 -7.413025e-001 -1.735272e+000 -1.463655e+000 3.618106e-001 -2.997820e+000 1.538936e-001 1.588770e-001 1.186467e+000 1.216112e+000 -1.287812e+000 1.261218e+000 1.796670e-001 8.482369e-001 -3.253238e-001 -5.077927e-002 8.493965e-001 5.777089e-001 7.323449e-001 2.404862e-002 -6.486972e-001 2.278301e-001 -2.396713e-002 -3.967047e-001 -9.911071e-001
<VARIANCE> 39
 2.314100e+001 3.646244e+001 4.253011e+001 5.003819e+001 5.600061e+001 4.308216e+001 5.378933e+001 6.378226e+001 3.707669e+001 3.855614e+001 3.954565e+001 2.801678e+001 4.376707e+001 1.814847e+000 4.530380e+000 3.617979e+000 5.363214e+000 6.002077e+000 5.079033e+000 6.569128e+000 6.110533e+000 5.744654e+000 4.952394e+000 5.415287e+000 3.767296e+000 2.865362e+000 3.033311e-001 4.725192e-001 3.723831e-001 7.001446e-001 7.833959e-001 6.975439e-001 9.106170e-001 7.784211e-001 6.806315e-001 6.245298e-001 5.904503e-001 5.327229e-001 3.568527e-001
<GCONST> 1.323818e+002
<MIXTURE> 3 2.909029e-001
<MEAN> 39
 -9.654158e+000 -3.477226e+000 6.771309e+000 -4.271879e+000 -3.705939e+000 -5.259544e+000 -3.248717e+000 -4.098280e+000 -1.620394e+000 -3.728764e+000 -6.686593e-001 -1.648604e+000 7.122055e+001 -3.572746e-001 -2.696867e+000 -1.340708e-001 -2.563926e+000 -2.752460e+000 -1.489012e+000 -1.702313e+000 3.716087e-001 -1.814559e-001 7.562009e-001 7.388883e-001 1.082567e+000 4.399206e+000 1.168787e+000 3.613276e-001 -1.725927e-001 -4.835124e-002 -9.026539e-001 -2.847735e-001 -8.519638e-001 2.167443e-001 -1.142140e-001 3.845761e-001 -5.177076e-001 -3.032600e-001 -4.148186e-001
<VARIANCE> 39
 2.053744e+001 3.692953e+001 3.229419e+001 4.627127e+001 4.797867e+001 5.982978e+001 4.629425e+001 4.078910e+001 4.135483e+001 3.111289e+001 3.003231e+001 2.519520e+001 4.227915e+001 2.708277e+000 3.044744e+000 3.430295e+000 3.798281e+000 5.145791e+000 4.477418e+000 5.193903e+000 5.845241e+000 5.190704e+000 4.262843e+000 4.060552e+000 3.225447e+000 2.526127e+000 3.319435e-001 9.373683e-001 7.996125e-001 1.121309e+000 1.259598e+000 1.389536e+000 1.122831e+000 1.025439e+000 9.980425e-001 9.510370e-001 1.197423e+000 8.333544e-001 6.143141e-001
<GCONST> 1.353623e+002
<MIXTURE> 4 2.021266e-001
<MEAN> 39
 -3.787220e+000 -6.086324e+000 6.923019e+000 -8.987095e+000 -1.420336e+001 -1.173945e+001 -1.127215e+001 3.851601e-001 -1.978688e+000 -3.114081e+000 -2.856699e+000 7.395125e-001 7.542506e+001 1.119048e+000 -1.920879e+000 -1.081866e+000 -2.231131e+000 -2.591343e+000 -1.796031e+000 -1.607477e+000 2.002780e+000 -2.850931e-001 1.332752e+000 -1.121402e+000 5.056971e-001 2.441729e+000 4.875832e-001 8.400397e-001 -5.209075e-001 5.442939e-001 8.550910e-001 4.795348e-001 3.417402e-001 -3.722610e-001 -5.576403e-002 1.087281e-001 -6.968077e-001 -7.898360e-001 -1.212514e+000
<VARIANCE> 39
 1.474596e+001 3.229059e+001 3.547886e+001 4.617863e+001 4.898712e+001 5.085838e+001 5.817239e+001 4.038109e+001 3.924392e+001 3.747940e+001 3.558018e+001 2.386781e+001 2.644382e+001 2.281372e+000 3.863693e+000 4.274678e+000 4.905895e+000 7.317592e+000 5.903311e+000 7.143739e+000 5.229038e+000 5.359385e+000 4.972301e+000 5.892179e+000 4.002517e+000 3.309988e+000 2.962324e-001 4.935416e-001 5.256378e-001 7.069783e-001 9.176213e-001 9.987390e-001 8.305854e-001 8.157771e-001 7.248527e-001 9.217474e-001 7.644353e-001 5.814373e-001 3.784233e-001
<GCONST> 1.328107e+002
<TRANSP> 5
 0.000000e+000 1.000000e+000 0.000000e+000 0.000000e+000 0.000000e+000
 0.000000e+000 4.951960e-001 5.048041e-001 0.000000e+000 0.000000e+000
 0.000000e+000 0.000000e+000 4.036720e-001 5.963280e-001 0.000000e+000
 0.000000e+000 0.000000e+000 0.000000e+000 5.520895e-001 4.479106e-001
 0.000000e+000 0.000000e+000 0.000000e+000 0.000000e+000 0.000000e+000
<ENDHMM>
~h "e"
<BEGINHMM>
<NUMSTATES> 5
<STATE> 2
<NUMMIXES> 4
<MIXTURE> 1 2.739360e-001
<MEAN> 39
 -1.241987e+000 -8.032835e+000 6.249040e+000 -4.587604e+000 -1.594519e+001 -7.113888e+000 -1.311172e+001 3.766064e+000 1.418820e+000 -1.555594e+000 -3.007078e-002 -5.246298e+000 7.496588e+001 2.444098e-001 -7.983325e-001 -3.653992e-002 -2.322245e-001 -3.820534e-001 -1.929067e-002 -2.979519e-001 1.357319e+000 1.279960e-001 -3.881695e-003 -3.051898e-001 -2.650033e-001 3.417079e-001 -4.970924e-001 9.500721e-001 -1.138040e-001 4.399495e-001 1.018484e+000 1.403158e-001 8.049093e-001 -7.519804e-001 -2.319996e-001 1.026945e-001 -9.486677e-002 2.649773e-001 -8.098515e-001
<VARIANCE> 39
 1.827274e+001 3.515059e+001 5.996827e+001 4.849899e+001 5.833815e+001 4.779284e+001 5.521920e+001 4.386452e+001 6.156720e+001 5.464267e+001 5.461986e+001 3.523676e+001 4.542891e+001 7.410725e-001 1.589647e+000 2.367862e+000 1.649791e+000 3.049608e+000 2.587992e+000 2.632303e+000 2.760887e+000 3.031511e+000 2.616206e+000 2.575986e+000 1.931287e+000 7.124261e-001 3.696525e-001 3.513333e-001 3.956917e-001 3.841644e-001 6.489699e-001 5.465970e-001 7.213731e-001 6.727046e-001 7.682316e-001 6.332284e-001 6.041815e-001 4.827415e-001 2.196822e-001
<GCONST> 1.211019e+002
<MIXTURE> 2 2.156162e-001
<MEAN> 39
 -2.423795e+000 -4.400338e+000 4.487469e+000 -4.590271e+000 -1.117841e+001 -1.100735e+001 -1.095365e+001 -8.034308e-002 1.940357e+000 3.670935e-001 -2.966981e+000 -3.888352e+000 7.413648e+001 2.985066e+000 -2.099780e+000 5.513812e-001 -1.006897e+000 -2.341797e+000 -3.521556e-001 -2.724850e+000 6.698190e-001 -5.833480e-002 5.469052e-001 6.291606e-002 -1.060906e+000 1.417474e+000 -1.400636e+000 3.755737e-001 -2.693979e-001 1.609392e-001 8.052101e-001 6.178215e-001 9.765518e-001 9.202929e-002 9.814922e-002 1.827032e-002 3.822960e-001 4.108666e-001 -6.529385e-001
<VARIANCE> 39
 1.511432e+001 3.809562e+001 5.268954e+001 5.317632e+001 6.087055e+001 3.255605e+001 4.629531e+001 3.834503e+001 4.838256e+001 4.113954e+001 4.591644e+001 2.791710e+001 4.608083e+001 2.645987e+000 2.683412e+000 3.108016e+000 2.563030e+000 3.506106e+000 3.550824e+000 4.365895e+000 4.568360e+000 3.699513e+000 3.725124e+000 3.440855e+000 2.715626e+000 1.138999e+000 3.721396e-001 5.724491e-001 4.393942e-001 4.903200e-001 7.213027e-001 4.967902e-001 6.034486e-001 6.022254e-001 6.576058e-001 5.888978e-001 5.871891e-001 4.333242e-001 3.375904e-001
<GCONST> 1.256420e+002
<MIXTURE> 3 3.347970e-001
<MEAN> 39
 -3.604399e+000 -7.952100e+000 4.866909e+000 -1.377167e+001 -1.387617e+001 -1.009574e+001 -6.389053e+000 3.454249e+000 -6.006990e+000 -1.528450e+000 -7.930391e+000 -1.746609e+000 7.604612e+001 6.106687e-002 -8.682694e-001 -3.598599e-001 -1.821364e-001 -7.114057e-002 -3.658247e-001 6.754746e-001 1.266252e+000 -2.132122e-001 -3.091073e-001 -7.565195e-001 4.461425e-001 4.372807e-001 -7.975205e-002 7.641301e-001 3.875890e-002 7.335312e-001 5.381629e-001 2.500071e-001 -7.037991e-002 -7.484930e-001 2.237522e-001 -6.265424e-003 3.641615e-001 -1.770765e-001 -7.462804e-001
<VARIANCE> 39
 1.723211e+001 4.669988e+001 6.834530e+001 5.275315e+001 6.689787e+001 6.665244e+001 7.263011e+001 6.066553e+001 6.030119e+001 5.523577e+001 5.369496e+001 3.235891e+001 3.647902e+001 8.303432e-001 1.772816e+000 2.680727e+000 3.042097e+000 3.512768e+000 3.362395e+000 3.356278e+000 2.946776e+000 3.665903e+000 3.472311e+000 2.850130e+000 2.284983e+000 8.476548e-001 2.891282e-001 3.369205e-001 4.405627e-001 5.782117e-001 7.040114e-001 7.514036e-001 7.119825e-001 7.442181e-001 7.447196e-001 7.606257e-001 7.008038e-001 4.358750e-001 2.284791e-001
<GCONST> 1.258186e+002
<MIXTURE> 4 1.755991e-001
<MEAN> 39
 -4.836078e+000 -2.096583e+000 1.447350e+000 -1.005128e+001 -1.176893e+001 -1.483290e+001 -4.796690e+000 -1.840668e+000 -2.989134e+000 -3.943462e+000 -7.035716e+000 1.905535e-001 7.443565e+001 3.538087e+000 -1.904621e+000 9.845405e-002 -2.693918e+000 -2.193103e+000 -2.557882e+000 -1.948688e+000 2.399019e-001 -1.563157e+000 -9.331458e-002 -2.839885e+000 -4.328257e-001 1.834166e+000 -1.106683e+000 1.828633e-002 -9.346829e-002 5.020983e-001 7.687979e-001 1.095027e+000 5.277618e-001 4.786254e-001 4.843804e-001 4.867671e-001 7.062652e-001 5.867510e-002 -5.118451e-001
<VARIANCE> 39
 1.436701e+001 3.260839e+001 5.047118e+001 4.502364e+001 4.654408e+001 4.896824e+001 5.426926e+001 4.149482e+001 3.460269e+001 3.343969e+001 3.238596e+001 2.497342e+001 3.530384e+001 3.385008e+000 2.994522e+000 3.483054e+000 3.570266e+000 5.240031e+000 5.948477e+000 6.535200e+000 5.424184e+000 4.619674e+000 4.571135e+000 4.586674e+000 3.080493e+000 2.191088e+000 4.160962e-001 5.275112e-001 3.878334e-001 6.542011e-001 7.286090e-001 6.599195e-001 5.866110e-001 6.509817e-001 5.908235e-001 5.703049e-001 6.307790e-001 4.109804e-001 6.472058e-001
<GCONST> 1.291908e+002
<STATE> 3
<NUMMIXES> 4
<MIXTURE> 1 2.408805e-001
<MEAN> 39
 -1.681904e+000 -6.062420e+000 6.445093e+000 -5.396895e+000 -1.410114e+001 -9.692370e+000 -1.178740e+001 1.789759e+000 -9.888309e-001 -1.160586e-001 -2.602278e+000 -3.518883e+000 7.419486e+001 -1.284547e-001 1.323398e+000 -1.537507e-002 8.198265e-001 1.205604e+000 -8.937222e-003 7.168949e-001 -6.059131e-001 1.283674e-003 2.623267e-001 -1.162414e-001 1.893969e-001 -1.285251e+000 -9.764316e-001 1.035038e+000 -2.040358e-001 5.685722e-001 1.104562e+000 4.306882e-001 1.100574e+000 -4.287734e-001 2.515030e-001 -5.764439e-002 3.003253e-001 2.591658e-001 -9.112557e-001
<VARIANCE> 39
 1.683824e+001 3.923267e+001 6.036841e+001 5.675479e+001 6.481679e+001 4.936736e+001 5.837064e+001 5.362519e+001 7.048728e+001 4.854489e+001 6.344638e+001 3.602931e+001 4.196507e+001 1.360974e+000 2.433520e+000 2.650368e+000 2.363234e+000 3.794719e+000 2.845043e+000 3.366724e+000 3.074268e+000 3.458775e+000 2.959701e+000 2.949611e+000 2.126886e+000 1.747160e+000 6.752836e-001 5.287822e-001 5.248411e-001 6.286286e-001 7.683516e-001 7.998753e-001 8.024754e-001 9.519946e-001 1.125935e+000 7.294438e-001 9.781242e-001 5.826303e-001 3.647462e-001
<GCONST> 1.298449e+002
<MIXTURE> 2 2.477857e-001
<MEAN> 39
 -1.721056e+000 -6.933545e+000 3.364620e+000 -5.785171e+000 -1.311315e+001 -7.430592e+000 -9.430767e+000 5.280769e+000 7.106400e-001 -8.986044e-001 -4.415773e+000 -4.263690e+000 7.323150e+001 7.263014e-002 2.668372e-001 -1.357818e-001 3.280105e-001 4.630840e-001 9.468487e-002 1.116169e-001 -4.651852e-003 5.205891e-003 -1.430004e-001 -1.834274e-001 1.566861e-003 -4.626354e-001 -8.574313e-002 4.859048e-001 1.207302e-001 2.872715e-001 3.597252e-001 8.452577e-002 8.751120e-002 -6.127270e-001 -1.120965e-001 4.805750e-002 2.068900e-001 2.881691e-002 -4.476290e-001
<VARIANCE> 39
 1.821618e+001 3.341095e+001 5.199733e+001 5.259193e+001 6.517654e+001 5.032288e+001 6.238695e+001 4.470031e+001 6.121466e+001 5.276439e+001 6.165494e+001 3.624791e+001 5.213287e+001 3.090625e-001 8.857443e-001 1.389955e+000 1.119305e+000 1.885916e+000 1.614608e+000 1.748250e+000 1.782051e+000 1.879406e+000 1.744088e+000 1.732316e+000 1.363618e+000 3.960176e-001 1.065887e-001 1.716592e-001 2.030699e-001 2.372776e-001 3.129670e-001 3.407239e-001 3.560650e-001 4.023418e-001 4.030543e-001 3.495796e-001 3.747084e-001 2.707470e-001 1.068835e-001
<GCONST> 1.065947e+002
<MIXTURE> 3 2.137828e-001
<MEAN> 39
 -3.826405e+000 -9.237784e+000 3.101654e+000 -1.377811e+001 -1.137897e+001 -1.320133e+001 -1.375675e+000 2.176975e+000 -4.598010e+000 -3.250179e+000 -8.957015e+000 -1.446467e+000 7.711412e+001 2.688053e-002 1.174274e-001 -1.243331e-002 2.244746e-001 6.204891e-002 1.868689e-002 1.323204e-001 -9.864481e-002 -9.008277e-002 -2.262777e-001 6.844443e-003 -1.425968e-002 -2.589852e-001 8.458132e-002 4.037964e-001 1.123694e-001 3.499782e-001 1.126478e-001 1.020167e-001 -4.150965e-001 -2.839947e-001 9.482654e-002 9.746350e-002 1.759781e-001 -9.330390e-002 -3.849470e-001
<VARIANCE> 39
 1.085422e+001 4.045480e+001 5.094791e+001 4.099924e+001 5.109037e+001 1.035130e+002 8.791297e+001 5.897245e+001 5.542350e+001 4.415160e+001 4.306877e+001 3.085271e+001 2.907038e+001 3.208162e-001 8.912399e-001 1.198800e+000 9.884449e-001 1.595560e+000 1.392380e+000 1.893988e+000 1.535273e+000 1.692230e+000 1.621902e+000 1.308529e+000 1.144836e+000 3.478388e-001 7.814002e-002 1.574970e-001 1.740444e-001 2.334665e-001 2.417617e-001 3.548042e-001 3.201826e-001 3.223388e-001 3.045361e-001 3.087865e-001 2.595297e-001 2.172764e-001 9.178873e-002
<GCONST> 1.020829e+002
<MIXTURE> 4 2.974705e-001
<MEAN> 39
 -3.356535e+000 -8.458088e+000 4.995907e+000 -1.367564e+001 -1.377296e+001 -1.238191e+001 -6.243419e+000 3.802892e+000 -6.286690e+000 -2.309453e+000 -8.275400e+000 -6.236031e-001 7.663208e+001 4.618899e-001 1.234548e+000 3.063129e-002 1.411931e+000 8.155162e-001 1.549519e-002 -3.481339e-001 -8.844911e-001 4.179526e-001 -6.962197e-002 2.190946e-001 -2.875547e-001 -1.543328e+000 -1.226475e-001 9.803994e-001 -2.292258e-002 9.123580e-001 5.518901e-001 4.109798e-001 5.191067e-002 -7.581217e-001 3.629260e-001 5.137699e-002 4.570985e-001 -3.447288e-001 -9.758441e-001
<VARIANCE> 39
 1.373760e+001 3.669966e+001 5.599451e+001 4.679255e+001 5.511214e+001 6.641204e+001 7.390084e+001 5.740555e+001 5.623276e+001 5.095841e+001 4.963378e+001 3.350095e+001 2.475838e+001 9.676905e-001 2.175863e+000 3.061737e+000 3.223765e+000 3.744766e+000 3.248673e+000 3.668166e+000 3.294400e+000 4.327246e+000 3.738795e+000 3.096544e+000 2.547838e+000 1.513732e+000 2.948762e-001 3.360577e-001 4.623076e-001 5.732570e-001 6.344599e-001 9.284196e-001 7.633030e-001 9.040885e-001 7.934329e-001 7.917447e-001 7.240630e-001 5.028679e-001 2.570569e-001
<GCONST> 1.268301e+002
<STATE> 4
<NUMMIXES> 4
<MIXTURE> 1 2.244195e-001
<MEAN> 39
 -2.501281e+000 -1.089401e+000 4.605252e+000 -4.821330e+000 -9.429583e+000 -1.204660e+001 -6.392302e+000 5.146468e-001 -1.589488e+000 -1.418972e+000 -6.080085e+000 -1.452198e+000 6.985372e+001 -1.797556e+000 2.869940e+000 -1.061047e-001 2.384980e+000 2.591850e+000 8.261434e-001 2.037210e+000 -4.894090e-001 1.569550e+000 4.520388e-003 1.270221e+000 3.882230e-001 -2.882304e+000 -9.383678e-001 -2.025416e-002 -2.015160e-001 -2.419522e-002 2.608441e-001 5.762312e-001 4.966662e-001 2.115263e-001 3.343722e-001 2.064106e-001 6.310806e-001 1.401254e-001 -1.895674e-001
<VARIANCE> 39
 1.369612e+001 2.984069e+001 3.884907e+001 4.616216e+001 5.364125e+001 4.291111e+001 5.877039e+001 4.644795e+001 5.026056e+001 5.005165e+001 4.739491e+001 3.351886e+001 4.715026e+001 2.457145e+000 2.394157e+000 2.497136e+000 3.637204e+000 3.196238e+000 4.015535e+000 4.144393e+000 3.765132e+000 4.300331e+000 3.497431e+000 4.209146e+000 3.001542e+000 4.142720e+000 4.573171e-001 5.136256e-001 3.856650e-001 5.305199e-001 6.849182e-001 5.893973e-001 5.908290e-001 7.060713e-001 6.609343e-001 7.309484e-001 6.043597e-001 5.235468e-001 3.908608e-001
<GCONST> 1.282019e+002
<MIXTURE> 2 2.740330e-001
<MEAN> 39
 -1.345231e-002 -5.463191e+000 2.407187e+000 -3.024323e+000 -1.048652e+001 -6.402645e+000 -1.316827e+001 1.421997e+000 3.437654e+000 2.849240e-001 -1.513190e+000 -6.741968e+000 7.045632e+001 1.648476e-001 1.917157e+000 -1.977327e-001 1.366824e+000 1.485114e+000 6.039636e-001 1.006498e+000 -1.981418e+000 -8.184053e-001 3.287023e-001 4.663592e-001 -7.401753e-003 -2.255586e+000 -2.762789e-001 3.532842e-001 1.521652e-001 8.424270e-002 5.782294e-002 2.833785e-002 5.864720e-001 -2.016051e-001 -4.587974e-001 -7.913242e-002 1.718143e-002 3.195308e-001 -2.372533e-001
<VARIANCE> 39
 1.909446e+001 3.019667e+001 4.054440e+001 4.944737e+001 5.240550e+001 4.669289e+001 5.350878e+001 5.132963e+001 4.653576e+001 6.014241e+001 5.112333e+001 3.012864e+001 4.991508e+001 8.435041e-001 1.756978e+000 2.217992e+000 2.588626e+000 3.097179e+000 3.042373e+000 3.210926e+000 4.018478e+000 4.249713e+000 3.149484e+000 3.349722e+000 2.580117e+000 1.600816e+000 1.346069e-001 2.425742e-001 2.961174e-001 3.054155e-001 4.607135e-001 4.335569e-001 4.456041e-001 5.901929e-001 5.838544e-001 5.589488e-001 4.448281e-001 3.643305e-001 2.035044e-001
<GCONST> 1.194055e+002
<MIXTURE> 3 2.495947e-001
<MEAN> 39
 -2.142378e+000 -6.971632e+000 3.683633e+000 -1.034594e+001 -1.174363e+001 -7.614845e+000 -9.407454e+000 2.629921e+000 -3.800738e+000 -4.059921e+000 -6.748607e+000 -3.517798e+000 7.260928e+001 4.966889e-001 1.341057e+000 7.673108e-003 1.177625e+000 6.683154e-001 1.637059e-001 -4.341831e-001 -1.653718e+000 8.937965e-002 4.970427e-001 9.178872e-002 -6.144366e-001 -1.618343e+000 -3.837079e-002 2.819551e-001 1.057177e-001 1.762715e-001 -4.655859e-003 -7.146303e-003 1.336858e-001 -4.364644e-001 -1.344691e-001 2.299308e-001 1.348258e-001 -4.965498e-002 -2.129257e-001
<VARIANCE> 39
 2.103068e+001 5.495104e+001 7.509253e+001 6.260764e+001 7.328458e+001 7.131607e+001 8.198513e+001 5.596376e+001 7.006761e+001 6.141369e+001 6.693300e+001 3.675457e+001 4.854205e+001 9.447519e-001 2.029271e+000 3.073215e+000 3.442019e+000 3.829809e+000 4.421497e+000 3.821108e+000 3.781628e+000 3.868953e+000 3.795440e+000 3.610366e+000 2.894184e+000 1.307686e+000 1.185545e-001 2.316934e-001 3.783348e-001 3.741221e-001 5.027807e-001 5.421160e-001 5.038062e-001 5.352985e-001 6.092042e-001 5.927449e-001 5.517795e-001 3.735566e-001 1.199574e-001
<GCONST> 1.251679e+002
<MIXTURE> 4 2.518995e-001
<MEAN> 39
 -3.896779e+000 -4.568573e-001 8.071733e+000 -5.393538e+000 -1.216763e+001 -1.136347e+001 -5.242150e+000 -1.569570e+000 -5.034125e+000 -4.664170e-001 -3.707817e+000 -9.899610e-001 6.844898e+001 -3.983525e-001 2.170640e+000 -3.937826e-001 2.022516e+000 1.706474e+000 7.445467e-001 1.043533e+000 -6.778479e-001 7.628933e-001 -3.518619e-001 3.649745e-001 -1.987205e-001 -2.911775e+000 -2.396829e-001 -2.533090e-001 -3.514021e-001 -8.448621e-002 1.710809e-001 3.309108e-001 4.402499e-003 2.350073e-001 3.152758e-001 -4.392501e-002 1.327752e-001 -9.539501e-002 -1.786819e-002
<VARIANCE> 39
 1.654085e+001 3.387398e+001 6.083965e+001 6.276846e+001 6.452297e+001 6.677647e+001 7.453298e+001 6.557732e+001 6.708241e+001 5.050116e+001 5.294736e+001 3.468904e+001 5.267243e+001 1.829700e+000 2.339556e+000 3.027627e+000 3.404598e+000 3.980493e+000 3.976954e+000 4.210442e+000 4.332267e+000 3.883826e+000 3.345078e+000 3.279867e+000 2.917733e+000 2.644686e+000 3.522289e-001 3.957631e-001 5.236377e-001 6.667008e-001 7.429962e-001 7.177494e-001 6.778046e-001 7.562781e-001 8.558213e-001 6.157582e-001 5.746635e-001 4.968164e-001 4.434289e-001
<GCONST> 1.309450e+002
<TRANSP> 5
 0.000000e+000 1.000000e+000 0.000000e+000 0.000000e+000 0.000000e+000
 0.000000e+000 4.519777e-001 5.480223e-001 0.000000e+000 0.000000e+000
 0.000000e+000 0.000000e+000 4.970728e-001 5.029271e-001 0.000000e+000
 0.000000e+000 0.000000e+000 0.000000e+000 3.997548e-001 6.002452e-001
 0.000000e+000 0.000000e+000 0.000000e+000 0.000000e+000 0.000000e+000
<ENDHMM>
~h "f"
<BEGINHMM>
<NUMSTATES> 5
<STATE> 2
<NUMMIXES> 4
<MIXTURE> 1 2.071991e-001
<MEAN> 39
 -6.378547e+000 5.022998e-001 2.961094e+000 -2.050107e+000 -1.764824e+000 -4.863999e+000 -1.336468e+000 -2.254784e+000 -2.526859e+000 -4.554976e+000 -4.185007e+000 -2.808938e+000 6.777897e+001 -4.199017e+000 6.414714e-001 1.195170e-001 3.162955e+000 2.472781e+000 1.354042e+000 2.207142e+000 1.607040e+000 2.480651e+000 7.724318e-001 2.299555e+000 1.025054e+000 -1.036101e+000 -5.774410e-001 -6.845648e-001 -4.407650e-001 -6.892014e-001 -5.385723e-001 -3.365679e-002 -1.441486e-001 4.070996e-001 2.568076e-001 6.311010e-001 1.502747e-001 3.209873e-001 3.824724e-001
<VARIANCE> 39
 2.378827e+001 1.260397e+001 3.281763e+001 2.710575e+001 3.479950e+001 3.718181e+001 4.142878e+001 3.565007e+001 3.244830e+001 2.613078e+001 2.893090e+001 2.250976e+001 2.851605e+001 1.260584e+000 3.350542e+000 4.072336e+000 4.508038e+000 3.722760e+000 5.210402e+000 4.838805e+000 4.211205e+000 4.557044e+000 3.978714e+000 4.792661e+000 3.486775e+000 1.352814e+000 3.842148e-001 2.880107e-001 3.068788e-001 5.686966e-001 4.172107e-001 5.104035e-001 6.084931e-001 5.243362e-001 5.415572e-001 5.098789e-001 4.949467e-001 3.962646e-001 1.691381e-001
<GCONST> 1.202235e+002
<MIXTURE> 2 3.142907e-001
<MEAN> 39
 -1.497855e+001 -8.685030e-001 2.015023e+000 1.656501e+000 1.721584e+000 -1.026043e+000 3.672324e+000 3.950273e+000 5.088891e+000 1.647800e+000 2.173525e+000 1.308757e+000 6.421858e+001 -3.064117e+000 -7.305351e-001 -5.776986e-001 6.241615e-001 3.552441e-001 4.953812e-001 7.639731e-001 1.260853e+000 1.585377e+000 1.073489e+000 1.304488e+000 1.130239e+000 -8.232912e-002 6.080871e-001 -2.890709e-001 -1.584506e-001 -7.895518e-001 -6.197617e-001 -3.036735e-001 -5.421634e-001 -4.043197e-001 -5.405906e-001 -6.794826e-002 -3.255561e-001 -2.366823e-001 3.103300e-001
<VARIANCE> 39
 1.848311e+001 1.567841e+001 2.166601e+001 1.953904e+001 2.333391e+001 2.243687e+001 2.235409e+001 2.105524e+001 2.305851e+001 1.974291e+001 1.965741e+001 1.741588e+001 5.255698e+001 2.890265e+000 2.022788e+000 2.294895e+000 2.534522e+000 2.850595e+000 3.285545e+000 3.054111e+000 3.164912e+000 2.768750e+000 2.656873e+000 2.792102e+000 2.250675e+000 2.373928e+000 4.258950e-001 4.802369e-001 4.315411e-001 5.312244e-001 4.714499e-001 5.685515e-001 5.773877e-001 5.205682e-001 5.158238e-001 4.684181e-001 5.420672e-001 4.037881e-001 3.834644e-001
<GCONST> 1.149813e+002
<MIXTURE> 3 2.534716e-001
<MEAN> 39
 -1.373040e+001 -9.141116e-001 6.444759e-001 3.225071e+000 -1.372906e+000 -4.445083e+000 -2.581259e+000 -6.960454e-001 1.174492e+000 2.781099e-001 -1.073925e+000 -2.612384e-001 6.798988e+001 -3.326854e+000 -1.358037e+000 -1.493421e+000 8.105770e-001 9.977266e-001 -2.330022e-001 6.380391e-002 7.136385e-001 1.666809e+000 6.381704e-001 2.419873e-001 4.947246e-001 3.331074e-001 6.032056e-001 -6.710208e-002 9.413071e-002 -8.329170e-001 -7.377263e-001 2.154670e-001 -3.541124e-001 -2.470981e-001 -5.369260e-001 8.158703e-002 5.702774e-002 -1.878234e-001 4.269453e-002
<VARIANCE> 39
 2.097285e+001 2.233754e+001 4.640223e+001 4.295185e+001 3.109023e+001 3.936533e+001 3.387418e+001 2.907766e+001 3.046203e+001 3.063739e+001 2.690519e+001 2.005691e+001 5.686327e+001 2.274141e+000 2.087529e+000 3.496557e+000 2.798761e+000 3.710577e+000 4.009315e+000 2.989968e+000 4.346852e+000 3.899827e+000 3.137470e+000 2.746275e+000 2.332384e+000 1.264844e+000 3.235929e-001 4.801093e-001 4.553831e-001 6.740212e-001 6.842995e-001 6.015632e-001 6.601356e-001 6.662987e-001 6.079066e-001 6.140159e-001 6.207632e-001 4.857328e-001 2.649054e-001
<GCONST> 1.220315e+002
<MIXTURE> 4 2.250344e-001
<MEAN> 39
 -5.448027e+000 1.770139e+000 -1.120189e+000 -1.499912e+000 -1.237069e+000 -6.801635e-001 -2.274834e+000 -1.540285e+000 8.736229e-001 1.303754e+000 -1.561847e+000 -2.597295e+000 6.681450e+001 -4.149125e+000 4.239997e-001 -2.367669e-001 2.274230e+000 1.333990e+000 -8.430163e-001 1.767236e+000 7.497212e-001 1.437480e+000 -1.711316e-001 5.288160e-001 1.004928e+000 -8.004277e-001 -3.379201e-001 -8.154159e-001 -1.076380e-001 -4.843842e-001 -6.005433e-001 -2.049226e-001 -6.044203e-001 1.016293e-001 -9.107935e-002 4.787950e-002 3.432003e-002 -7.912769e-003 4.751740e-001
<VARIANCE> 39
 2.446009e+001 2.156116e+001 3.337510e+001 4.571489e+001 4.350184e+001 4.793844e+001 3.820046e+001 3.171554e+001 2.951090e+001 3.109814e+001 2.846300e+001 2.259594e+001 4.996654e+001 2.017699e+000 2.744096e+000 2.382868e+000 4.600620e+000 4.844893e+000 4.623315e+000 3.722201e+000 4.254386e+000 3.653481e+000 3.725206e+000 3.895950e+000 2.895027e+000 1.159065e+000 3.284746e-001 2.903205e-001 3.002328e-001 5.208988e-001 5.042253e-001 4.971894e-001 4.813516e-001 4.782571e-001 4.699423e-001 4.841110e-001 3.977730e-001 3.834213e-001 1.382169e-001
<GCONST> 1.199782e+002
<STATE> 3
<NUMMIXES> 4
<MIXTURE> 1 2.610737e-001
<MEAN> 39
 -1.850362e+001 -3.187699e+000 -1.608117e+000 1.601653e+000 1.030914e+000 -9.841841e-002 3.306738e+000 4.210067e+000 6.438709e+000 4.355978e+000 3.911833e+000 3.027091e+000 6.478459e+001 -3.940423e-001 -2.231677e-001 -1.627807e-001 -3.721199e-002 8.788512e-002 2.470621e-001 1.679786e-001 1.921388e-001 2.125665e-001 2.859744e-001 2.532900e-001 2.054868e-001 -1.116520e-001 4.946278e-001 1.115332e-001 1.375826e-001 -6.580348e-002 3.779500e-004 -1.228997e-001 -9.829117e-002 -1.739478e-001 -2.638153e-001 -2.568244e-001 -2.353316e-001 -1.720167e-001 -4.293142e-002
<VARIANCE> 39
 1.330112e+001 1.256883e+001 2.413569e+001 2.536872e+001 1.790966e+001 1.715934e+001 2.013128e+001 1.563930e+001 1.615109e+001 1.883619e+001 1.558228e+001 1.433537e+001 4.613902e+001 7.438791e-001 7.395186e-001 8.667286e-001 9.839134e-001 1.111864e+000 1.431405e+000 1.416999e+000 1.500894e+000 1.597092e+000 1.653555e+000 1.483831e+000 1.356348e+000 9.205047e-001 2.214204e-001 1.738698e-001 2.224096e-001 2.053565e-001 2.239983e-001 2.989807e-001 3.044101e-001 2.875652e-001 2.982860e-001 3.143816e-001 2.750399e-001 2.674725e-001 2.241569e-001
<GCONST> 9.374744e+001
<MIXTURE> 2 3.069576e-001
<MEAN> 39
 -1.766662e+001 -2.783431e+000 -2.514771e+000 7.522404e-001 -1.760600e+000 -3.522732e+000 -2.801594e+000 -1.301395e+000 9.219395e-001 2.834634e-002 -1.309079e+000 -6.584043e-001 6.847321e+001 -6.079433e-001 -3.637905e-001 -2.704720e-001 -8.528198e-003 1.632609e-001 2.485649e-001 2.782851e-001 2.955881e-001 3.154837e-001 3.912177e-001 3.985184e-001 3.321280e-001 -2.880018e-002 6.597830e-001 1.549781e-001 1.795346e-001 -1.554201e-001 9.822526e-003 1.056244e-001 1.228725e-001 1.263974e-001 3.485681e-002 1.272435e-001 8.590757e-002 4.004370e-002 -1.381085e-001
<VARIANCE> 39
 1.300331e+001 2.264688e+001 1.855933e+001 2.488963e+001 2.087071e+001 1.933122e+001 2.148659e+001 1.802760e+001 2.085450e+001 2.054945e+001 1.716544e+001 1.432371e+001 3.821843e+001 1.621455e+000 1.104479e+000 1.084379e+000 1.175515e+000 1.461151e+000 1.727963e+000 1.708706e+000 1.847723e+000 1.949855e+000 1.808868e+000 1.737877e+000 1.615013e+000 8.937103e-001 3.136333e-001 2.424875e-001 2.363473e-001 2.904649e-001 3.248866e-001 3.512173e-001 3.530401e-001 3.497629e-001 4.106127e-001 3.498701e-001 3.516127e-001 3.072921e-001 2.293338e-001
<GCONST> 1.005917e+002
<MIXTURE> 3 2.624906e-001
<MEAN> 39
 -1.926184e+001 -4.276449e+000 -7.013727e-001 2.482106e-001 4.515384e-001 -1.347360e+000 3.139380e+000 4.664204e+000 6.461977e+000 2.982744e+000 3.238024e+000 2.727636e+000 6.650633e+001 -2.517146e-001 -4.248696e-001 -3.696998e-001 -4.247848e-001 -1.745972e-001 -2.583516e-001 -1.270723e-001 -7.318604e-002 -8.907443e-002 -4.110568e-002 6.176110e-002 7.912596e-002 2.417553e-001 1.107411e+000 3.491194e-001 2.265976e-001 -3.886661e-001 -3.720206e-001 -2.877563e-001 -4.471337e-001 -6.246813e-001 -7.264118e-001 -3.513180e-001 -4.246768e-001 -4.421307e-001 -1.065295e-002
<VARIANCE> 39
 1.048839e+001 1.337401e+001 1.711856e+001 1.751461e+001 1.925469e+001 1.799728e+001 2.198615e+001 2.061847e+001 1.924312e+001 1.870506e+001 2.047509e+001 1.826800e+001 3.835700e+001 3.490018e+000 1.149761e+000 1.647347e+000 1.477231e+000 1.750108e+000 1.916694e+000 2.017555e+000 2.152464e+000 2.178493e+000 2.140967e+000 1.959932e+000 1.906467e+000 1.637287e+000 3.429782e-001 2.914379e-001 3.875333e-001 4.466718e-001 4.436991e-001 4.397656e-001 4.745664e-001 4.995872e-001 4.944575e-001 4.402962e-001 4.985455e-001 4.135047e-001 3.001779e-001
<GCONST> 1.066170e+002
<MIXTURE> 4 1.694646e-001
<MEAN> 39
 -1.591891e+001 -1.898019e+000 -3.931229e+000 -3.947020e-001 -6.224499e+000 -6.896992e+000 -6.808771e+000 -2.850596e+000 2.140780e-002 -8.138908e-001 -3.367528e+000 -8.057408e-001 6.141595e+001 -1.258515e+000 -5.631003e-001 -3.788336e-001 -1.236567e-001 -1.710365e-001 -2.064608e-001 -1.054651e-001 -1.042446e-001 -2.986465e-002 -1.350169e-002 5.611863e-002 4.068132e-002 -1.651430e-001 5.671220e-001 -2.279290e-002 2.816506e-001 -1.931459e-001 -7.011515e-002 2.904254e-001 9.895197e-002 1.200349e-001 -1.517765e-001 5.648929e-002 1.182183e-001 -4.927224e-002 1.232696e-001
<VARIANCE> 39
 3.201472e+001 4.083627e+001 4.972701e+001 4.708829e+001 4.804483e+001 5.060733e+001 5.300844e+001 3.728196e+001 3.919498e+001 3.887034e+001 3.480968e+001 2.945518e+001 8.851568e+001 2.927441e+000 1.966134e+000 2.130345e+000 1.941327e+000 2.714712e+000 2.743133e+000 2.892497e+000 2.911086e+000 2.545449e+000 2.377535e+000 2.286672e+000 1.924880e+000 1.966207e+000 4.609448e-001 4.623855e-001 4.256627e-001 4.185965e-001 6.320115e-001 6.082256e-001 6.931213e-001 6.360763e-001 6.165285e-001 5.586154e-001 5.046166e-001 4.559399e-001 4.075717e-001
<GCONST> 1.235295e+002
<STATE> 4
<NUMMIXES> 4
<MIXTURE> 1 3.469395e-001
<MEAN> 39
 -1.625929e+001 -1.630420e+000 -3.665818e-001 1.513941e+000 1.943069e+000 6.780916e-003 1.929754e+000 2.904207e+000 4.884221e+000 4.378398e+000 3.708745e+000 2.755258e+000 6.307941e+001 1.390477e+000 1.269410e+000 5.888494e-001 2.849879e-001 6.293080e-001 6.362442e-001 3.717213e-001 1.123316e-001 -1.543432e-002 2.001885e-001 3.358576e-001 1.169707e-001 -2.801838e+000 2.817501e-001 1.999946e-001 2.460505e-002 3.843583e-002 -6.631771e-002 -3.486260e-002 2.792082e-002 1.419118e-003 -3.005385e-002 -1.422665e-001 -1.011933e-001 -8.940165e-002 -4.113404e-001
<VARIANCE> 39
 2.674483e+001 2.502544e+001 3.772307e+001 3.157082e+001 3.037350e+001 2.654841e+001 2.945815e+001 2.360851e+001 2.333217e+001 2.312122e+001 2.204110e+001 1.690734e+001 6.681553e+001 2.110473e+000 1.475549e+000 1.969343e+000 1.975916e+000 2.386312e+000 1.993095e+000 2.223969e+000 2.202540e+000 2.240208e+000 2.129343e+000 1.785680e+000 1.652299e+000 3.688569e+000 4.542326e-001 4.128063e-001 4.154870e-001 3.843787e-001 4.598723e-001 4.429903e-001 4.613528e-001 4.789707e-001 4.305583e-001 4.245586e-001 3.695734e-001 3.553813e-001 8.445787e-001
<GCONST> 1.140015e+002
<MIXTURE> 2 1.621699e-001
<MEAN> 39
 -1.330245e+001 -2.571177e+000 -2.014478e+000 1.168453e+000 2.592756e-001 -1.411667e+000 1.001460e+000 2.030607e+000 3.482272e+000 2.509384e+000 2.920831e-001 3.550705e-001 6.374081e+001 3.623348e+000 7.608136e-001 1.133381e+000 -9.401342e-001 -1.330552e+000 -3.636378e-001 -1.089969e+000 -8.033511e-001 -1.541197e+000 -8.292159e-001 -2.766294e-001 -1.128743e+000 5.816420e-001 7.165216e-001 -3.623663e-003 2.802194e-001 -5.661893e-001 -9.325275e-001 -2.386317e-001 -6.944798e-001 -4.186827e-001 -5.098243e-001 -1.875983e-001 1.244843e-001 -3.023499e-001 5.185335e-001
<VARIANCE> 39
 3.164529e+001 2.788384e+001 4.017894e+001 3.637520e+001 3.432978e+001 3.665256e+001 3.407365e+001 2.727571e+001 2.543077e+001 3.098450e+001 3.189384e+001 2.332153e+001 7.137707e+001 3.477573e+000 3.594016e+000 3.644614e+000 4.173643e+000 3.727720e+000 4.421460e+000 3.389199e+000 3.801279e+000 3.589890e+000 3.341291e+000 3.244322e+000 2.589480e+000 2.957260e+000 5.704022e-001 5.668144e-001 4.842375e-001 6.113747e-001 4.831012e-001 6.805902e-001 5.900331e-001 6.659790e-001 6.845260e-001 5.842518e-001 6.488840e-001 4.802638e-001 4.024941e-001
<GCONST> 1.261861e+002
<MIXTURE> 3 3.310230e-001
<MEAN> 39
 -1.637320e+001 -3.617278e+000 -9.876477e-001 -2.127416e+000 -2.823522e+000 -5.717645e+000 -3.207423e+000 -2.542869e-001 1.844959e+000 6.492348e-001 3.190861e-001 -3.186522e-001 6.485352e+001 2.044605e-001 2.376868e-001 3.717850e-001 -4.905580e-001 -3.059508e-001 1.561124e-001 4.126872e-001 1.690680e-001 -2.038721e-001 1.075890e-001 3.680831e-001 4.461822e-002 -1.930311e-001 3.022783e-001 2.569928e-001 2.139855e-001 6.986261e-002 -9.231350e-003 3.036372e-001 1.391223e-001 -4.313881e-002 -9.749445e-002 -1.317516e-002 -7.999393e-003 -4.164824e-002 -2.035214e-001
<VARIANCE> 39
 5.894837e+001 4.347271e+001 6.391990e+001 6.045647e+001 6.049916e+001 4.264545e+001 6.192993e+001 4.880158e+001 4.503178e+001 3.779669e+001 3.014280e+001 2.830774e+001 1.000386e+002 7.011622e+000 3.334278e+000 3.633662e+000 3.008416e+000 3.848912e+000 3.723757e+000 3.429155e+000 3.596226e+000 3.456750e+000 2.728951e+000 2.488965e+000 2.322968e+000 6.531125e+000 8.609774e-001 5.732068e-001 5.890871e-001 6.850380e-001 7.268264e-001 6.520468e-001 7.337496e-001 8.256736e-001 7.540614e-001 5.601265e-001 4.544622e-001 5.000049e-001 7.547225e-001
<GCONST> 1.335563e+002
<MIXTURE> 4 1.598645e-001
<MEAN> 39
 -1.507064e+001 -3.538047e+000 -2.406576e-001 -9.521056e-002 7.823102e-001 -1.351579e+000 2.998095e+000 2.748986e+000 4.062299e+000 1.076402e+000 1.768641e+000 1.804607e+000 6.576324e+001 4.834024e+000 4.834958e-001 -7.939459e-002 -2.836658e+000 -2.259057e+000 -1.760592e+000 -2.114410e+000 -2.117283e+000 -2.718401e+000 -8.709441e-001 -1.943523e+000 -1.486619e+000 8.776318e-001 7.256629e-001 -7.949731e-002 -1.502359e-001 -1.005283e+000 -8.296122e-001 -3.736138e-001 -7.176303e-001 -3.351936e-001 -6.096624e-001 1.161264e-001 -4.683391e-001 -3.306848e-001 5.270461e-001
<VARIANCE> 39
 1.856249e+001 9.665512e+000 2.408912e+001 1.685860e+001 1.852556e+001 2.272037e+001 2.887738e+001 2.625540e+001 2.506148e+001 2.249788e+001 2.512473e+001 2.092460e+001 3.011679e+001 1.453746e+000 2.688992e+000 3.614554e+000 4.054177e+000 3.674069e+000 4.564349e+000 3.979059e+000 3.671049e+000 3.852849e+000 2.710402e+000 3.930539e+000 2.277371e+000 1.743762e+000 4.312197e-001 4.468685e-001 3.524070e-001 4.866990e-001 5.057412e-001 6.084706e-001 6.507435e-001 6.342134e-001 6.206243e-001 5.007415e-001 7.434847e-001 4.550740e-001 3.160014e-001
<GCONST> 1.173167e+002
<TRANSP> 5
 0.000000e+000 1.000000e+000 0.000000e+000 0.000000e+000 0.000000e+000
 0.000000e+000 5.800030e-001 4.199970e-001 0.000000e+000 0.000000e+000
 0.000000e+000 0.000000e+000 7.452508e-001 2.547492e-001 0.000000e+000
 0.000000e+000 0.000000e+000 0.000000e+000 5.772652e-001 4.227348e-001
 0.000000e+000 0.000000e+000 0.000000e+000 0.000000e+000 0.000000e+000
<ENDHMM>
~h "g"
<BEGINHMM>
<NUMSTATES> 5
<STATE> 2
<NUMMIXES> 4
<MIXTURE> 1 3.712382e-001
<MEAN> 39
 -8.412487e-001 3.483240e+000 8.625955e+000 2.893425e+000 -8.508032e+000 -7.935721e+000 -4.145396e+000 -3.168211e-001 -6.379403e+000 4.319625e-001 1.698656e+000 -6.338460e+000 6.041172e+001 -1.675029e-001 1.924993e+000 -5.872591e-001 1.466783e+000 1.819991e+000 4.839934e-001 1.095095e+000 -5.458601e-001 1.034250e+000 -2.620037e-001 -4.562906e-001 2.888187e-001 -2.486526e+000 -2.774394e-001 -7.448125e-001 -2.865887e-001 -6.046539e-001 -3.476083e-002 1.377646e-001 -3.625193e-001 9.093854e-002 2.540754e-001 -2.502717e-002 -1.450881e-001 2.866503e-001 9.075285e-001
<VARIANCE> 39
 1.696606e+001 3.015531e+001 5.506635e+001 3.673352e+001 6.829708e+001 5.298101e+001 5.529226e+001 5.198815e+001 5.532650e+001 4.207959e+001 4.286559e+001 2.451075e+001 4.723848e+001 1.175612e+000 2.124626e+000 2.420209e+000 2.786159e+000 3.298506e+000 2.758723e+000 3.179492e+000 3.208253e+000 4.319837e+000 3.558561e+000 2.929163e+000 2.342388e+000 1.856299e+000 1.927139e-001 4.140291e-001 3.656179e-001 3.903351e-001 5.019612e-001 5.445804e-001 6.268055e-001 5.208603e-001 8.697808e-001 5.378793e-001 4.847262e-001 3.757388e-001 4.274713e-001
<GCONST> 1.226772e+002
<MIXTURE> 2 1.350284e-001
<MEAN> 39
 -1.142952e+001 1.567741e+000 8.910074e-001 3.232098e+000 2.269509e+000 3.497709e+000 4.425038e+000 5.584201e+000 3.874988e+000 3.815722e+000 4.376708e+000 2.592982e+000 4.919616e+001 5.157018e-001 4.700345e-001 4.391523e-001 3.779510e-001 -4.215838e-001 -3.496473e-001 -3.555682e-001 -6.384659e-001 -8.129294e-001 -3.238902e-001 -4.567622e-001 -6.377689e-001 1.504340e-001 3.444852e-001 1.090628e-002 1.617964e-001 -1.492152e-001 -4.399475e-001 -5.143885e-001 -4.658189e-001 -3.869781e-001 -4.535149e-001 -2.637666e-001 -2.907173e-001 -3.166617e-001 6.440459e-001
<VARIANCE> 39
 2.027613e+001 2.250517e+001 2.874583e+001 3.450217e+001 3.532653e+001 5.281850e+001 3.984193e+001 3.557124e+001 3.636753e+001 3.616651e+001 3.073840e+001 2.219616e+001 6.331392e+001 2.455132e+000 2.829020e+000 2.052823e+000 2.371036e+000 2.260556e+000 3.486516e+000 3.113168e+000 3.706280e+000 3.420125e+000 2.903352e+000 2.778109e+000 2.688383e+000 2.991573e+000 3.476793e-001 4.469990e-001 3.940876e-001 4.494822e-001 6.161218e-001 7.489479e-001 5.991009e-001 6.424733e-001 7.249241e-001 5.274581e-001 5.192700e-001 4.621917e-001 5.423172e-001
<GCONST> 1.224550e+002
<MIXTURE> 3 3.392508e-001
<MEAN> 39
 8.500245e-001 4.931086e+000 5.164498e+000 -3.117094e+000 -9.579164e+000 -8.157981e+000 -6.111864e+000 -6.543571e+000 -7.571420e+000 -1.677811e+000 -5.920803e+000 -6.637136e+000 6.116153e+001 2.711140e-001 1.350194e+000 9.582491e-002 1.669951e+000 8.108347e-001 1.982796e-002 5.566558e-001 6.309563e-002 6.679595e-001 -9.237801e-001 2.233848e-001 -5.831650e-001 -1.998507e+000 -6.675255e-001 -9.104032e-001 -2.441918e-001 -3.625623e-001 1.177998e-001 8.258095e-003 -2.468134e-001 2.529952e-001 3.218471e-002 2.426850e-001 7.246574e-002 3.923314e-001 1.123793e+000
<VARIANCE> 39
 1.610274e+001 3.660433e+001 4.871574e+001 4.929181e+001 8.463983e+001 6.381721e+001 5.330816e+001 6.532306e+001 5.014748e+001 5.443816e+001 6.767372e+001 3.898211e+001 3.766446e+001 1.440595e+000 1.835130e+000 2.536475e+000 3.314115e+000 3.527084e+000 3.373175e+000 4.077740e+000 3.605989e+000 3.609544e+000 4.112464e+000 3.245336e+000 3.179024e+000 1.685461e+000 3.472324e-001 5.771306e-001 6.107526e-001 6.744068e-001 9.477229e-001 7.808028e-001 8.297809e-001 8.069424e-001 7.965103e-001 8.646594e-001 6.459783e-001 6.448801e-001 5.554821e-001
<GCONST> 1.307944e+002
<MIXTURE> 4 1.544843e-001
<MEAN> 39
 -1.379753e+001 5.480096e-001 -2.987761e+000 1.473094e+000 -6.933650e+000 -2.090350e-001 -4.710460e+000 -4.774189e-001 -1.694432e+000 -1.483759e+000 6.687713e-001 -7.144541e-001 4.613574e+001 -1.161261e-001 1.675270e-001 -4.175062e-002 2.101747e-001 2.031833e-001 1.382029e-002 8.963103e-002 -3.638883e-002 -7.967970e-002 5.539432e-003 -6.213877e-002 -1.946046e-003 -1.949326e-001 3.877410e-002 -1.007088e-001 9.463648e-002 -1.352477e-002 -6.765818e-002 -8.701388e-002 -9.326926e-002 1.174773e-001 -2.162203e-004 7.050118e-002 1.190332e-002 -2.052707e-002 1.683739e-001
<VARIANCE> 39
 6.712057e+001 2.822450e+001 4.204152e+001 3.045183e+001 3.412538e+001 4.742727e+001 2.290785e+001 2.648525e+001 2.826968e+001 2.126722e+001 2.067650e+001 1.886256e+001 2.241394e+002 3.008650e-001 7.370322e-001 8.363531e-001 1.067036e+000 1.544424e+000 1.569939e+000 1.449842e+000 1.819738e+000 1.583425e+000 1.566423e+000 1.317336e+000 1.417777e+000 4.607928e-001 5.889072e-002 1.596687e-001 1.653374e-001 2.049374e-001 3.012989e-001 3.400340e-001 3.332764e-001 3.642374e-001 2.943102e-001 2.862174e-001 2.747584e-001 2.574048e-001 1.172292e-001
<GCONST> 9.924211e+001
<STATE> 3
<NUMMIXES> 4
<MIXTURE> 1 2.740626e-001
<MEAN> 39
 -2.203798e+000 8.047507e+000 7.803429e+000 5.105224e+000 -2.145224e+000 -5.437628e+000 -2.699865e+000 -2.630665e+000 -2.923948e+000 -4.848406e-001 8.250885e-001 -3.734890e+000 5.508541e+001 -1.332693e+000 -1.849520e+000 -1.402976e+000 -5.064173e-001 1.582497e+000 6.960894e-001 -3.159862e-003 5.177942e-001 4.449417e-001 5.564317e-001 -4.483425e-001 7.404921e-001 1.310560e+000 -7.849766e-002 -1.087914e+000 -1.197703e-001 -9.932364e-001 -7.805065e-001 -2.186638e-001 -4.630943e-001 1.295128e-001 -3.354400e-001 1.683992e-001 9.399350e-002 -3.875999e-002 1.527157e+000
<VARIANCE> 39
 1.626922e+001 2.409898e+001 3.280612e+001 2.659315e+001 3.396230e+001 3.428386e+001 3.697261e+001 2.893125e+001 2.945574e+001 2.855738e+001 2.505792e+001 1.773754e+001 3.972226e+001 1.695828e+000 5.058905e+000 4.264316e+000 4.109531e+000 4.118720e+000 4.520804e+000 3.872583e+000 3.743863e+000 4.275614e+000 3.839269e+000 3.145914e+000 2.391223e+000 4.169898e+000 3.098524e-001 6.283391e-001 6.978626e-001 5.348209e-001 6.830308e-001 6.257404e-001 6.496466e-001 5.903201e-001 7.318332e-001 7.394038e-001 5.723817e-001 4.228510e-001 3.997191e-001
<GCONST> 1.244436e+002
<MIXTURE> 2 2.800629e-001
<MEAN> 39
 5.509834e-001 6.694972e+000 6.941775e+000 1.632548e+000 -7.921412e+000 -8.000013e+000 -5.310133e+000 -4.493289e+000 -6.647522e+000 -1.747000e+000 -2.230050e+000 -5.971303e+000 6.045400e+001 -1.069818e+000 -6.743732e-001 -4.113764e-001 7.814154e-001 1.014223e+000 -3.579307e-001 -1.354662e-002 1.226556e-001 2.015013e-001 -2.613433e-001 1.033159e-001 7.351632e-001 8.834695e-001 -6.256946e-001 -8.834823e-001 -2.073773e-001 -4.901091e-001 -1.421527e-001 -7.181091e-004 -1.147212e-001 1.471724e-002 1.368894e-002 3.228808e-001 -7.852507e-002 3.809759e-001 1.188600e+000
<VARIANCE> 39
 1.326314e+001 3.593357e+001 4.495310e+001 4.664281e+001 5.005572e+001 5.097419e+001 3.879057e+001 4.625115e+001 4.090641e+001 3.775803e+001 4.927966e+001 2.380729e+001 4.222188e+001 2.479476e+000 3.433957e+000 3.395824e+000 3.719727e+000 5.610680e+000 4.832393e+000 3.641990e+000 3.958721e+000 4.176881e+000 3.060088e+000 3.340518e+000 2.804030e+000 2.415505e+000 4.470882e-001 6.768062e-001 6.229514e-001 7.119659e-001 8.523042e-001 8.523080e-001 6.333167e-001 7.721567e-001 1.018872e+000 6.689230e-001 6.176121e-001 5.287553e-001 7.275407e-001
<GCONST> 1.304313e+002
<MIXTURE> 3 2.470310e-001
<MEAN> 39
 -6.802119e+000 3.462539e+000 4.155298e+000 3.852995e+000 -8.839251e-001 -2.973886e+000 -1.023214e+000 -6.046637e-001 -1.975858e+000 4.660801e-001 -4.961246e-001 -2.720498e+000 5.449341e+001 -3.458748e-001 -1.789420e+000 -1.403869e-001 -6.407779e-001 -6.267311e-001 -1.341956e+000 -8.849239e-001 -2.714006e-001 -1.017820e+000 -2.672282e-003 -6.400798e-001 -6.930535e-002 3.110752e+000 2.888418e-001 -2.878031e-001 3.290973e-001 -6.691337e-001 -1.027804e+000 -5.553208e-001 -5.284404e-001 -1.554752e-001 -3.818395e-001 2.610087e-002 9.052785e-002 -7.272958e-002 1.033959e+000
<VARIANCE> 39
 2.673652e+001 3.082097e+001 4.041640e+001 3.056722e+001 4.434498e+001 4.412126e+001 4.637004e+001 3.998371e+001 3.971141e+001 3.491762e+001 3.289605e+001 2.731661e+001 5.860183e+001 5.419432e+000 6.392924e+000 5.452621e+000 4.685795e+000 7.890822e+000 6.533735e+000 6.351227e+000 6.373863e+000 5.793412e+000 5.384743e+000 5.000157e+000 4.987947e+000 3.675269e+000 3.412659e-001 5.304167e-001 4.380197e-001 5.976591e-001 8.063621e-001 7.105243e-001 6.260350e-001 6.182600e-001 8.214799e-001 8.257095e-001 7.454106e-001 5.401551e-001 4.871253e-001
<GCONST> 1.345359e+002
<MIXTURE> 4 1.988437e-001
<MEAN> 39
 2.306396e-001 6.880212e+000 5.450421e+000 -3.106614e+000 -1.062024e+001 -8.247527e+000 -4.688713e+000 -8.334220e+000 -8.650474e+000 -3.114248e+000 -9.797474e+000 -8.585986e+000 5.906822e+001 -1.474453e+000 -1.519115e+000 -6.770642e-001 6.546757e-001 1.006926e+000 -7.460771e-001 -2.963168e-001 2.342995e-001 4.004228e-002 1.112906e-001 2.528582e-001 7.363532e-001 2.025099e+000 -4.727028e-001 -8.798504e-001 -4.811255e-002 -5.053200e-001 -2.367381e-001 -5.728072e-002 -4.929383e-001 2.635142e-001 -5.153769e-002 4.649077e-001 6.228874e-001 5.113950e-001 1.085512e+000
<VARIANCE> 39
 1.688282e+001 2.737049e+001 4.677090e+001 3.836457e+001 7.781688e+001 4.743029e+001 4.655986e+001 4.469051e+001 4.281786e+001 4.936546e+001 5.366349e+001 3.703643e+001 3.161552e+001 3.995879e+000 4.387969e+000 5.450254e+000 6.143100e+000 1.198621e+001 6.567746e+000 8.020596e+000 6.624350e+000 4.644189e+000 6.051641e+000 5.498777e+000 5.159232e+000 3.669504e+000 5.200880e-001 5.344744e-001 6.235554e-001 7.163446e-001 1.481985e+000 7.418637e-001 1.343899e+000 1.036827e+000 8.778268e-001 1.075340e+000 7.546793e-001 7.633019e-001 5.872538e-001
<GCONST> 1.397580e+002
<STATE> 4
<NUMMIXES> 4
<MIXTURE> 1 2.297907e-001
<MEAN> 39
 -3.054087e+000 -5.814660e-001 1.114327e+001 1.241269e+000 -1.462300e+001 -1.213714e+001 -8.477941e+000 -1.295946e+000 -7.236225e+000 -3.687653e+000 2.024247e+000 -3.748384e+000 6.889192e+001 1.041420e+000 1.303430e+000 2.201931e-001 4.950953e-001 5.060285e-001 4.213377e-001 -3.227559e-001 -1.187293e-002 1.595352e+000 -6.984621e-001 -2.351441e-001 -4.363276e-001 -1.362956e+000 -3.246992e-001 4.047580e-001 -4.515461e-001 7.923369e-002 1.211971e+000 6.533116e-001 7.179855e-001 -1.184322e-001 3.586581e-001 2.965102e-001 -5.085979e-001 2.487618e-002 -8.682003e-001
<VARIANCE> 39
 1.774731e+001 3.433999e+001 4.393482e+001 5.569604e+001 6.694927e+001 4.402050e+001 4.875006e+001 4.504367e+001 4.923137e+001 4.822300e+001 5.372644e+001 3.346662e+001 4.502292e+001 2.261538e+000 3.601697e+000 3.547052e+000 2.896120e+000 6.259880e+000 3.874136e+000 3.890797e+000 5.236578e+000 4.258003e+000 4.108582e+000 3.101859e+000 2.493741e+000 4.240077e+000 3.637731e-001 6.611753e-001 5.771624e-001 6.864642e-001 1.081355e+000 7.718536e-001 8.910942e-001 7.779549e-001 8.875442e-001 8.996394e-001 7.513391e-001 5.847834e-001 8.478760e-001
<GCONST> 1.335208e+002
<MIXTURE> 2 2.685861e-001
<MEAN> 39
 -4.810700e+000 -2.083299e+000 -3.803836e+000 -2.019719e+000 3.024549e+000 -3.736588e+000 -6.889762e+000 -2.571374e-001 -4.037352e+000 2.391368e+000 -1.382732e+000 -2.699183e+000 6.506477e+001 -6.557494e-002 -8.781416e-001 -3.507574e-001 -1.233239e+000 -7.246342e-001 -4.881244e-001 -1.364773e+000 -3.364859e-001 -9.716813e-002 1.835701e-001 2.210821e-001 3.374977e-001 2.383442e+000 4.619591e-001 6.471457e-001 1.044989e+000 6.593563e-002 -1.383988e+000 -1.900746e-001 8.577501e-002 -4.135863e-001 -8.935602e-002 -3.715886e-001 2.310519e-001 -1.976093e-001 -2.368763e-001
<VARIANCE> 39
 2.843370e+001 4.914911e+001 6.064416e+001 7.270368e+001 4.869417e+001 8.502247e+001 6.267150e+001 5.186261e+001 5.421720e+001 5.209145e+001 4.574147e+001 3.473598e+001 5.849316e+001 3.663467e+000 5.243783e+000 6.282915e+000 5.802773e+000 8.147120e+000 7.505063e+000 5.676073e+000 4.554408e+000 5.789651e+000 4.884947e+000 4.082006e+000 3.132013e+000 3.223232e+000 5.188819e-001 9.126103e-001 6.620747e-001 1.089085e+000 1.138279e+000 1.407542e+000 1.076267e+000 9.162382e-001 1.053155e+000 1.014213e+000 9.187921e-001 6.792726e-001 6.331899e-001
<GCONST> 1.426101e+002
<MIXTURE> 3 2.386991e-001
<MEAN> 39
 -1.043620e+001 -4.526007e+000 3.906044e+000 1.440604e+000 -4.498100e+000 -9.098165e+000 -1.524357e+000 -5.352430e+000 -4.638410e+000 -3.333929e-001 -4.872826e+000 -1.370559e+000 7.051183e+001 -9.156502e-001 -1.486385e+000 6.283803e-001 -1.512656e+000 -2.688067e+000 -1.471382e+000 -8.813918e-001 -5.433289e-001 -1.004954e+000 8.454208e-001 2.187174e-001 7.645640e-001 3.780301e+000 1.107394e+000 1.035384e+000 5.823497e-001 -6.181206e-001 -1.053574e+000 7.603075e-002 -5.947921e-001 1.114075e-001 -2.036906e-001 -4.806384e-002 1.799235e-001 -4.652866e-001 -7.582770e-001
<VARIANCE> 39
 1.890855e+001 3.455911e+001 4.979106e+001 3.846546e+001 5.192436e+001 4.411498e+001 4.480777e+001 5.208783e+001 3.797589e+001 3.613103e+001 3.582652e+001 2.539878e+001 4.013662e+001 3.429297e+000 4.369593e+000 4.127038e+000 4.604142e+000 6.266713e+000 3.860896e+000 4.622718e+000 4.941931e+000 4.219854e+000 5.284135e+000 4.553470e+000 3.263480e+000 2.423138e+000 3.396101e-001 8.934443e-001 5.690386e-001 1.048133e+000 1.321784e+000 9.344737e-001 8.418379e-001 8.951052e-001 8.397118e-001 8.548399e-001 1.014213e+000 6.836644e-001 6.473436e-001
<GCONST> 1.346797e+002
<MIXTURE> 4 2.629234e-001
<MEAN> 39
 -4.872117e+000 -8.755656e-001 9.794340e+000 -2.317567e+000 -1.560485e+001 -1.329259e+001 -6.766033e+000 -4.072608e+000 -9.840272e+000 1.327768e+000 -1.394086e+000 -3.056437e+000 7.061538e+001 9.311853e-001 -7.369696e-001 9.315704e-001 -1.524259e+000 -2.787243e+000 -7.551106e-001 -1.347245e+000 8.510767e-001 -4.340743e-002 -2.846993e-001 8.020291e-001 -2.329376e-001 1.728419e+000 3.517516e-001 2.968626e-001 -4.067568e-001 1.653381e-001 8.240004e-001 7.469135e-001 2.254856e-001 2.964605e-001 7.050716e-001 -4.264793e-001 -2.408138e-001 -2.684962e-001 -9.384020e-001
<VARIANCE> 39
 2.114429e+001 4.211508e+001 5.389960e+001 6.142149e+001 5.622829e+001 4.684374e+001 5.400518e+001 7.881339e+001 4.280123e+001 4.384040e+001 6.639567e+001 3.674910e+001 4.847621e+001 2.121562e+000 3.618651e+000 3.816809e+000 4.636051e+000 7.839864e+000 4.341750e+000 4.061980e+000 4.557976e+000 5.785433e+000 5.104784e+000 5.221139e+000 2.979911e+000 2.566026e+000 4.162925e-001 5.028836e-001 4.214619e-001 5.932367e-001 8.814719e-001 7.213939e-001 6.908326e-001 9.340875e-001 7.088057e-001 8.579317e-001 6.624471e-001 5.325578e-001 6.585062e-001
<GCONST> 1.346564e+002
<TRANSP> 5
 0.000000e+000 1.000000e+000 0.000000e+000 0.000000e+000 0.000000e+000
 0.000000e+000 5.722241e-001 4.277759e-001 0.000000e+000 0.000000e+000
 0.000000e+000 0.000000e+000 5.189671e-001 4.810329e-001 0.000000e+000
 0.000000e+000 0.000000e+000 0.000000e+000 6.430140e-001 3.569860e-001
 0.000000e+000 0.000000e+000 0.000000e+000 0.000000e+000 0.000000e+000
<ENDHMM>
~h "h"
<BEGINHMM>
<NUMSTATES> 5
<STATE> 2
<NUMMIXES> 4
<MIXTURE> 1 2.829915e-001
<MEAN> 39
 1.161078e-001 -1.303527e+000 -1.738829e+000 -6.983929e+000 1.848142e-001 3.780237e+000 -2.705632e+000 1.587712e+000 -1.232183e+000 3.914876e+000 -2.129954e+000 -5.044370e+000 6.891180e+001 -6.175335e-001 1.003994e+000 -1.100733e-001 6.499580e-001 1.914087e+000 8.167723e-001 1.711852e+000 -2.679539e-001 2.771009e-002 2.307309e-001 -5.154360e-002 6.619506e-001 -1.045023e+000 2.841805e-002 -2.832359e-001 1.177897e-001 -1.376638e-001 -5.477148e-001 -1.186266e-001 -3.347545e-001 -1.914459e-001 -5.979957e-002 -2.966165e-001 1.754113e-001 1.504814e-002 2.016296e-001
<VARIANCE> 39
 1.525657e+001 4.343850e+001 3.311814e+001 9.375052e+001 4.937633e+001 6.049134e+001 5.337862e+001 4.724509e+001 5.343568e+001 4.086885e+001 5.980894e+001 3.638200e+001 5.882057e+001 7.188755e-001 1.873247e+000 1.588789e+000 2.185418e+000 2.700396e+000 3.064636e+000 2.520059e+000 3.073574e+000 3.229739e+000 2.762073e+000 2.932143e+000 2.243894e+000 7.015028e-001 7.950430e-002 2.081845e-001 1.880058e-001 3.296915e-001 3.564390e-001 3.443945e-001 3.988058e-001 4.199528e-001 4.651100e-001 3.688541e-001 3.884031e-001 3.577270e-001 1.054486e-001
<GCONST> 1.141655e+002
<MIXTURE> 2 2.231752e-001
<MEAN> 39
 -4.961588e+000 -1.733686e+000 4.128566e+000 7.507412e-001 -2.455682e+000 -5.432093e+000 -4.524522e+000 3.590114e+000 1.353240e+000 7.300054e-001 -4.375582e+000 -2.815528e+000 6.901678e+001 5.355170e-001 -1.245388e-001 -1.658409e+000 -3.109735e-001 2.207163e+000 1.238365e+000 -1.597394e-001 -3.869385e-001 9.042156e-001 1.009928e+000 -6.709383e-001 -7.585638e-001 -1.886454e-001 1.082744e-001 1.969700e-001 1.712789e-001 -6.634766e-001 -5.377447e-001 5.292662e-001 -3.136981e-002 -8.081479e-001 -7.251571e-001 1.498023e-002 4.995899e-001 -1.528752e-001 -1.184331e-003
<VARIANCE> 39
 2.845948e+001 3.708125e+001 4.631197e+001 4.411956e+001 6.568500e+001 5.274384e+001 7.862585e+001 4.857806e+001 4.917614e+001 4.010658e+001 4.595603e+001 3.469606e+001 6.351342e+001 2.155702e+000 1.847345e+000 4.565478e+000 2.729981e+000 6.323476e+000 4.475080e+000 4.380753e+000 5.187482e+000 5.205407e+000 4.811608e+000 3.836176e+000 2.994487e+000 1.114349e+000 2.723129e-001 3.129229e-001 3.704138e-001 5.187880e-001 8.160425e-001 6.707420e-001 8.835219e-001 7.227546e-001 8.282703e-001 6.617930e-001 7.286401e-001 5.664056e-001 1.460263e-001
<GCONST> 1.293396e+002
<MIXTURE> 3 3.388152e-001
<MEAN> 39
 -2.564330e+000 -2.036843e+000 -1.038691e+000 -1.024096e+001 4.524839e-001 -1.255140e+000 -3.308068e+000 -5.639995e+000 -7.082331e+000 -4.689725e+000 -8.201452e+000 -4.070872e+000 7.122644e+001 -7.675000e-001 1.599800e-001 7.029884e-001 1.431469e+000 1.695989e+000 7.520855e-001 8.823788e-001 -3.088473e-001 2.443305e-001 -4.649811e-001 9.332419e-002 -1.535877e-001 -5.548944e-001 8.394977e-002 -2.472995e-001 -1.380935e-001 -2.452521e-001 -3.367526e-001 -9.711886e-002 -1.362841e-001 2.061595e-001 1.695486e-001 1.831428e-001 8.934781e-002 3.641343e-003 1.746271e-001
<VARIANCE> 39
 1.831320e+001 4.490447e+001 5.567853e+001 6.138520e+001 7.707903e+001 7.759382e+001 8.514668e+001 6.518286e+001 5.423270e+001 6.748989e+001 6.411155e+001 4.701042e+001 3.501330e+001 5.877898e-001 1.437817e+000 1.629673e+000 2.264879e+000 2.741327e+000 2.962109e+000 2.985142e+000 3.237958e+000 2.973109e+000 2.906636e+000 2.406956e+000 2.128489e+000 4.620009e-001 8.010065e-002 1.502968e-001 2.091983e-001 3.016995e-001 4.413394e-001 4.387831e-001 5.228273e-001 4.895498e-001 4.227076e-001 4.324220e-001 3.954634e-001 3.506506e-001 5.559583e-002
<GCONST> 1.153832e+002
<MIXTURE> 4 1.550187e-001
<MEAN> 39
 -4.607338e+000 -2.421283e+000 1.754930e+000 -2.591804e+000 -2.570855e+000 -8.657579e+000 -6.111670e+000 -2.601108e+000 -6.425277e+000 -8.561546e+000 -1.309363e+001 -9.368699e-001 7.161353e+001 5.516795e-001 -2.645186e-001 -2.050499e+000 4.423504e-001 3.557779e+000 1.094236e+000 -1.471688e+000 -4.280992e-001 1.715508e+000 2.028239e-001 -1.004274e+000 -6.737614e-001 -3.613797e-001 1.159566e-001 1.906675e-001 -3.954834e-002 -1.107847e+000 -5.718064e-001 6.759826e-001 -2.520302e-002 -7.211797e-001 -1.903581e-001 9.874283e-001 5.450107e-001 -4.412551e-001 4.547336e-002
<VARIANCE> 39
 8.283801e+000 2.145962e+001 2.552147e+001 4.995084e+001 5.023729e+001 4.572662e+001 6.849870e+001 4.577155e+001 3.688760e+001 4.442761e+001 4.594399e+001 3.552479e+001 2.838242e+001 7.701166e-001 1.510636e+000 2.906407e+000 4.153777e+000 4.618333e+000 3.864203e+000 4.150190e+000 4.907652e+000 3.702770e+000 4.151114e+000 3.008214e+000 2.659913e+000 6.477723e-001 1.422534e-001 1.864964e-001 2.908904e-001 7.206999e-001 7.783135e-001 6.809567e-001 8.707067e-001 8.749049e-001 7.140483e-001 5.924479e-001 6.809793e-001 4.580058e-001 6.706055e-002
<GCONST> 1.200328e+002
<STATE> 3
<NUMMIXES> 4
<MIXTURE> 1 2.269955e-001
<MEAN> 39
 -4.602019e+000 -8.674463e-001 -1.287984e+000 -3.469408e+000 4.397941e+000 4.504660e+000 1.375654e+000 7.986654e-001 1.046430e+000 2.317738e+000 -1.192231e+000 -2.106672e+000 6.577149e+001 6.100510e-003 7.716141e-002 5.717717e-002 1.158435e-002 3.017189e-002 1.953493e-001 2.304831e-001 -2.639400e-001 -1.361205e-001 -1.101982e-001 8.074776e-003 7.325943e-002 -4.993238e-002 3.984551e-001 4.838967e-002 1.235619e-001 -3.239996e-001 -8.090104e-001 -2.937035e-001 -5.183112e-001 -2.753370e-001 -3.732384e-001 -1.150546e-001 -5.319912e-002 -1.463035e-001 2.351609e-001
<VARIANCE> 39
 3.069173e+001 3.212097e+001 3.412572e+001 6.531550e+001 5.892721e+001 6.110997e+001 4.910487e+001 4.578687e+001 4.311691e+001 3.643087e+001 4.716484e+001 3.398600e+001 7.859777e+001 1.661541e+000 1.612851e+000 1.823050e+000 2.163410e+000 3.051688e+000 2.947241e+000 2.688603e+000 3.105961e+000 3.294299e+000 2.641508e+000 2.471350e+000 2.548495e+000 8.526435e-001 1.892524e-001 3.307385e-001 3.317842e-001 3.747324e-001 5.110086e-001 4.528697e-001 5.092063e-001 5.367051e-001 5.227676e-001 5.278834e-001 4.875445e-001 4.410409e-001 1.177998e-001
<GCONST> 1.192315e+002
<MIXTURE> 2 2.751193e-001
<MEAN> 39
 -1.459879e+000 -3.249354e+000 -1.751813e+000 -6.037878e+000 3.157223e+000 -1.094971e+000 -6.869227e+000 -2.742610e+000 -8.603576e-001 2.108944e+000 -6.607539e+000 -7.185453e+000 7.076087e+001 7.103862e-001 6.394137e-001 -1.188033e+000 -1.562801e+000 5.906907e-001 1.843589e+000 1.356269e-001 -1.566979e+000 -8.975573e-001 8.314983e-001 1.358380e+000 -2.588571e-001 -3.989793e-001 7.147342e-002 5.052196e-002 2.296728e-001 -4.369664e-001 -1.000265e+000 -2.139913e-001 1.842214e-001 1.188772e-001 -4.921577e-001 -3.826854e-001 3.412474e-001 4.508368e-001 1.101649e-001
<VARIANCE> 39
 1.177338e+001 2.800117e+001 2.524979e+001 5.025764e+001 5.233906e+001 6.276641e+001 7.351459e+001 5.366971e+001 4.610608e+001 6.150091e+001 6.746218e+001 3.314792e+001 3.290827e+001 6.234307e-001 1.036752e+000 1.835892e+000 2.425080e+000 3.077834e+000 3.061945e+000 3.048687e+000 2.811353e+000 3.060617e+000 3.075169e+000 2.773719e+000 2.726424e+000 4.440175e-001 1.202308e-001 1.644744e-001 2.903076e-001 3.474330e-001 5.492902e-001 4.823275e-001 6.061280e-001 4.997061e-001 5.548599e-001 6.084641e-001 5.537845e-001 3.864320e-001 7.312375e-002
<GCONST> 1.150737e+002
<MIXTURE> 3 2.538146e-001
<MEAN> 39
 -5.059385e+000 -5.314292e-001 2.563804e+000 -4.270844e+000 3.831499e-001 2.214042e+000 1.059960e+000 -9.414448e-001 -3.099090e+000 -1.104880e+000 -4.036837e+000 -2.638494e+000 6.684725e+001 3.535524e-001 3.255675e-001 4.096888e-003 -3.424778e-001 -5.683184e-001 -2.337718e-001 -2.506079e-001 -4.031476e-001 -3.881155e-001 -1.357383e-001 3.952190e-002 -3.697800e-002 4.125769e-002 3.906980e-001 -1.068244e-001 -1.721368e-001 -4.857928e-001 -7.694172e-001 -2.482960e-001 -6.849896e-001 -1.599664e-001 -1.187877e-001 3.419521e-002 1.589766e-001 -1.557679e-001 2.738576e-001
<VARIANCE> 39
 3.167090e+001 5.069026e+001 7.015280e+001 7.462636e+001 7.890772e+001 7.357905e+001 6.578623e+001 6.616718e+001 4.847639e+001 5.226264e+001 6.369654e+001 3.693066e+001 6.224936e+001 9.740072e-001 1.419691e+000 1.914680e+000 2.170248e+000 3.272136e+000 2.556608e+000 3.097682e+000 2.850822e+000 3.114852e+000 2.845159e+000 2.600932e+000 2.174039e+000 5.069834e-001 1.666554e-001 3.328339e-001 3.917579e-001 5.008423e-001 6.411272e-001 6.531789e-001 5.880306e-001 6.104816e-001 6.028132e-001 5.501955e-001 5.428540e-001 4.654838e-001 1.477318e-001
<GCONST> 1.228773e+002
<MIXTURE> 4 2.440665e-001
<MEAN> 39
 -3.901977e+000 -3.145555e+000 -2.286070e+000 -8.189241e+000 6.393322e+000 -3.414049e-001 -3.550179e+000 -8.962749e+000 -6.881464e+000 -7.321648e+000 -9.941874e+000 -4.844800e+000 7.198478e+001 4.978611e-001 3.198858e-001 -2.863947e-001 -7.630357e-001 -5.834162e-001 -1.108037e-001 -4.406900e-001 -4.134628e-001 -1.470116e-001 3.516287e-001 3.799912e-002 2.793010e-003 -1.278907e-001 3.104022e-001 3.141566e-002 -2.457960e-001 -6.251106e-001 -8.207684e-001 -4.327535e-001 -2.229169e-001 2.800622e-001 8.465723e-002 3.366122e-001 3.880268e-002 1.248398e-001 1.818361e-001
<VARIANCE> 39
 1.113694e+001 2.561024e+001 2.450689e+001 4.267933e+001 5.867955e+001 6.386910e+001 7.592947e+001 4.153426e+001 4.987806e+001 5.317194e+001 5.013701e+001 4.365611e+001 2.121179e+001 6.954070e-001 8.127079e-001 1.328331e+000 2.476022e+000 3.158081e+000 2.746058e+000 2.950718e+000 2.487627e+000 2.526906e+000 2.595684e+000 2.101418e+000 1.881587e+000 3.156754e-001 7.284002e-002 1.357186e-001 1.882336e-001 3.186859e-001 4.191104e-001 5.014886e-001 5.203843e-001 4.635076e-001 4.665442e-001 4.247486e-001 4.362020e-001 3.542207e-001 5.837439e-002
<GCONST> 1.093339e+002
<STATE> 4
<NUMMIXES> 4
<MIXTURE> 1 2.349041e-001
<MEAN> 39
 2.681828e+000 2.016749e+000 -3.076608e+000 -8.509981e+000 -1.586463e+000 6.545959e+000 -1.010141e+000 -1.952492e+000 -3.734893e+000 4.170037e+000 4.979896e-001 -1.763450e+000 6.793820e+001 4.698147e-001 -1.038867e-001 -1.110317e-002 -8.377466e-001 -1.288110e+000 1.274310e-002 -6.003109e-001 -4.945311e-001 -5.356224e-001 -2.986374e-001 3.695708e-001 6.484909e-003 3.320752e-001 -2.517113e-002 -2.117583e-001 1.286781e-001 9.648050e-002 -2.259179e-001 -1.870104e-001 -3.843771e-001 -1.217428e-002 1.271940e-001 -7.895399e-002 2.132028e-002 -2.412095e-001 1.243364e-001
<VARIANCE> 39
 8.063115e+000 2.446575e+001 1.864674e+001 1.143191e+002 4.557326e+001 3.698782e+001 4.174141e+001 4.121109e+001 3.326026e+001 3.436719e+001 3.696273e+001 3.452828e+001 5.847586e+001 3.661609e-001 9.962894e-001 8.125008e-001 1.496538e+000 1.987486e+000 1.506333e+000 2.036099e+000 1.515753e+000 1.639198e+000 1.922205e+000 1.650194e+000 1.643538e+000 4.352010e-001 5.903238e-002 1.335428e-001 1.418058e-001 2.589632e-001 3.466049e-001 2.595809e-001 2.944683e-001 2.580121e-001 2.681817e-001 3.006229e-001 2.786392e-001 2.690233e-001 7.142515e-002
<GCONST> 9.961155e+001
<MIXTURE> 2 2.497609e-001
<MEAN> 39
 -3.439083e+000 -7.897184e-001 2.931901e+000 -4.722525e+000 -2.986457e+000 -1.513654e+000 -3.384656e+000 -1.458780e+000 -2.940979e+000 6.797276e-001 -3.830665e+000 -3.521603e+000 6.937666e+001 8.335195e-001 1.054867e-001 1.668020e-001 -4.618003e-001 -1.518792e+000 -3.332828e-001 -9.412857e-001 -6.214369e-001 -2.198834e-001 -1.830060e-001 5.380197e-001 -2.120554e-001 2.667247e-001 3.453031e-002 -8.820421e-002 7.890105e-002 -2.944406e-002 -2.813551e-001 1.782616e-002 -1.146952e-001 -1.250451e-001 2.449558e-002 -1.158471e-001 1.436352e-001 6.503473e-002 -3.519469e-002
<VARIANCE> 39
