~o
<STREAMINFO> 1 39
<VECSIZE> 39<NULLD><MFCC_D_A_0><DIAGC>
~h "a"
<BEGINHMM>
<NUMSTATES> 5
<STATE> 2
<NUMMIXES> 16
<MIXTURE> 1 6.088876e-002
<MEAN> 39
 2.365371e+000 -1.064517e+001 -1.455357e+000 -6.437226e+000 -8.997149e+000 -1.184101e+000 -1.055137e+001 1.796881e+000 6.754141e+000 2.297194e+000 -9.168355e-001 -1.076824e+001 7.782409e+001 1.340394e+000 -1.861400e+000 -4.031432e-001 -9.153035e-001 -5.177228e-001 1.593249e+000 -6.095477e-001 7.622469e-001 1.236654e-001 -1.818480e-001 3.651746e-001 -1.328771e+000 6.543648e-001 -9.536892e-001 1.095762e+000 1.731723e-001 5.730711e-001 7.541428e-001 -2.866733e-001 7.943055e-001 -3.684188e-001 -6.175197e-001 -2.483745e-002 1.440478e-001 9.592860e-001 -8.534166e-001
<VARIANCE> 39
 1.206914e+001 3.572927e+001 2.554675e+001 3.810012e+001 3.242081e+001 5.067017e+001 4.358535e+001 4.884275e+001 3.607961e+001 4.896868e+001 4.066631e+001 2.231007e+001 3.441850e+001 1.365690e+000 1.858783e+000 1.974466e+000 1.847238e+000 3.094887e+000 3.226219e+000 2.820791e+000 3.399004e+000 2.704376e+000 2.945074e+000 2.714708e+000 2.265932e+000 8.191310e-001 3.859733e-001 4.506373e-001 3.756074e-001 3.964195e-001 5.604941e-001 5.935017e-001 5.926956e-001 7.667911e-001 6.140836e-001 6.193161e-001 5.611178e-001 4.678626e-001 2.430124e-001
<GCONST> 1.187356e+002
<MIXTURE> 2 4.166883e-002
<MEAN> 39
 -9.532950e+000 -8.405639e+000 -1.669951e+000 -9.923122e+000 6.656822e-001 4.079798e-001 -2.117570e+000 1.919361e+000 1.596511e+000 3.000643e+000 -1.744922e+000 -3.674416e+000 6.062021e+001 2.237065e-001 -7.990228e-002 -3.926659e-001 1.154309e-001 6.144558e-001 5.919017e-001 3.638753e-001 -2.476482e-002 -1.090641e-001 1.056776e-001 -1.452069e-001 -2.038500e-001 1.553729e-001 2.620175e-001 2.138869e-003 2.473062e-001 2.379568e-002 -2.985772e-001 3.503810e-002 -2.139002e-001 -5.880962e-002 -1.918817e-001 -1.490662e-001 9.934511e-002 1.652614e-002 2.031872e-001
<VARIANCE> 39
 7.497073e+001 1.044351e+002 1.291983e+002 1.255181e+002 1.238134e+002 1.389180e+002 9.556086e+001 9.645543e+001 9.601785e+001 7.104351e+001 6.596655e+001 6.381451e+001 1.380614e+002 3.039749e+000 3.971519e+000 3.696429e+000 4.647710e+000 4.967829e+000 5.567218e+000 4.211078e+000 4.269091e+000 4.912437e+000 3.610443e+000 3.696113e+000 3.393362e+000 5.349945e+000 4.603864e-001 7.456313e-001 7.015438e-001 8.927575e-001 9.589697e-001 9.931107e-001 8.274814e-001 8.028283e-001 1.063708e+000 7.787840e-001 6.959546e-001 7.154369e-001 7.278022e-001
<GCONST> 1.467461e+002
<MIXTURE> 3 8.163072e-002
<MEAN> 39
 9.590341e-001 -7.676757e+000 -3.614398e+000 -1.595118e+001 1.050809e+000 -1.716874e+000 -6.962643e+000 2.074653e+000 -4.644429e-001 6.079098e+000 -9.168568e+000 -4.915831e+000 7.555983e+001 1.288832e-001 -7.744388e-001 -4.149194e-001 -9.262298e-001 1.027139e+000 2.839306e-001 3.321325e-001 3.790846e-001 -8.813091e-002 3.936325e-001 -8.962925e-001 2.719567e-002 5.282183e-001 -4.305258e-001 7.410414e-001 3.822822e-001 1.098401e+000 -2.937561e-001 -1.804144e-001 3.445046e-001 -5.110489e-001 1.100625e-001 -5.159175e-001 7.565105e-001 2.055506e-001 -6.901914e-001
<VARIANCE> 39
 1.182678e+001 2.746058e+001 3.396484e+001 6.618032e+001 3.639354e+001 6.192717e+001 5.297309e+001 5.437495e+001 4.365385e+001 6.052102e+001 3.333344e+001 2.710587e+001 2.375598e+001 7.888210e-001 1.603214e+000 1.665154e+000 2.588190e+000 2.439415e+000 3.193047e+000 3.015057e+000 2.897063e+000 2.731628e+000 2.644809e+000 2.291248e+000 1.865286e+000 7.116596e-001 3.174705e-001 3.343505e-001 3.905263e-001 5.784866e-001 4.516514e-001 6.231185e-001 6.240752e-001 6.634351e-001 7.264333e-001 6.703399e-001 4.233353e-001 3.707683e-001 1.856500e-001
<GCONST> 1.175876e+002
<MIXTURE> 4 7.787821e-002
<MEAN> 39
 1.291704e+000 -6.285662e+000 -4.850094e+000 -9.361971e+000 -4.445357e+000 -2.074070e-001 -5.027987e+000 -2.288703e+000 1.516567e+000 4.852878e+000 -1.608235e+000 -8.134136e+000 7.158179e+001 2.968761e+000 -2.029206e+000 -2.217714e-001 -2.029559e+000 -1.537883e+000 1.125667e+000 -1.164483e+000 -6.704864e-002 -1.260853e-001 5.178776e-001 -4.534681e-003 -1.836977e+000 2.226504e+000 -8.681146e-001 2.461680e-001 2.589960e-001 5.933822e-001 3.005756e-001 -3.659878e-002 2.828089e-001 3.411637e-001 1.228917e-001 -1.579778e-001 2.624426e-001 6.191893e-001 -7.609280e-001
<VARIANCE> 39
 1.715417e+001 3.246300e+001 3.033228e+001 6.594133e+001 5.079123e+001 7.970635e+001 5.480083e+001 4.531836e+001 4.021467e+001 4.246471e+001 4.470506e+001 2.615140e+001 6.322010e+001 2.504174e+000 3.494515e+000 3.232681e+000 3.970242e+000 4.750896e+000 4.849730e+000 4.398026e+000 4.449564e+000 4.168620e+000 4.403101e+000 3.662827e+000 3.845999e+000 2.296627e+000 4.295444e-001 5.472378e-001 4.996296e-001 6.909156e-001 6.789955e-001 7.913708e-001 6.625984e-001 6.001849e-001 6.402150e-001 5.869756e-001 6.164203e-001 4.920155e-001 5.470285e-001
<GCONST> 1.307668e+002
<MIXTURE> 5 1.005318e-001
<MEAN> 39
 2.749257e+000 -9.358092e+000 -5.194703e+000 -1.222857e+001 -7.568924e+000 7.061114e+000 -8.278748e+000 -1.774845e+000 1.293584e+000 1.102173e+000 1.552620e+000 -9.096915e+000 7.352711e+001 -5.932730e-002 -1.027792e+000 -3.381662e-001 -2.001477e-001 7.184877e-001 3.498568e-001 -3.587394e-001 6.768202e-001 6.291470e-001 1.652351e-001 -6.010074e-001 -1.034606e+000 7.210577e-001 -2.290180e-001 6.017832e-001 4.317881e-001 5.912099e-001 1.225470e-001 -6.563187e-001 1.375418e-001 -2.128249e-001 -2.487953e-001 6.637434e-002 -2.068839e-001 4.194399e-001 -4.454186e-001
<VARIANCE> 39
 1.848844e+001 4.151451e+001 3.276818e+001 8.023817e+001 5.465511e+001 6.764112e+001 6.160627e+001 5.078693e+001 5.007884e+001 6.099015e+001 5.723738e+001 3.890682e+001 4.852369e+001 5.092546e-001 1.221203e+000 1.573277e+000 2.215469e+000 2.151307e+000 2.912554e+000 2.709228e+000 2.635878e+000 2.737327e+000 2.381197e+000 2.375030e+000 1.965840e+000 6.318200e-001 1.286089e-001 2.408130e-001 2.823106e-001 4.842787e-001 4.559162e-001 4.991613e-001 4.726139e-001 5.303621e-001 5.465308e-001 5.187649e-001 4.181078e-001 4.447588e-001 1.392092e-001
<GCONST> 1.163613e+002
<MIXTURE> 6 6.533957e-002
<MEAN> 39
 -1.453746e+000 -1.062987e+001 -5.226604e+000 -1.196782e+001 -9.143265e+000 -7.196408e+000 -6.170406e+000 5.817555e+000 -5.523926e+000 -4.082570e+000 -1.428032e+001 5.772778e-002 7.683547e+001 8.025790e-001 -1.666386e+000 -9.622944e-001 -7.120804e-001 6.448664e-001 7.075512e-001 -1.921306e-001 8.577033e-001 -1.133043e+000 1.293522e-003 -1.579743e+000 1.604046e-001 6.657816e-001 -7.289927e-001 1.071550e+000 5.956966e-001 8.650773e-001 5.320010e-001 1.762489e-001 4.308822e-001 -7.850195e-001 5.045595e-001 3.424450e-001 1.177932e+000 -1.124256e-001 -9.114954e-001
<VARIANCE> 39
 1.045802e+001 3.620876e+001 3.739684e+001 3.564414e+001 5.545412e+001 4.671222e+001 5.076659e+001 4.015173e+001 5.500594e+001 3.790286e+001 3.196049e+001 3.666309e+001 2.797065e+001 1.327791e+000 1.979441e+000 2.688574e+000 2.604668e+000 3.888203e+000 3.398928e+000 3.342312e+000 3.161629e+000 3.763816e+000 3.207296e+000 3.138243e+000 2.913142e+000 9.102393e-001 4.822545e-001 5.479337e-001 4.601648e-001 5.818515e-001 8.169234e-001 8.560060e-001 8.195077e-001 7.105813e-001 8.870989e-001 6.750134e-001 8.049697e-001 5.425997e-001 3.282740e-001
<GCONST> 1.247879e+002
<MIXTURE> 7 5.124343e-002
<MEAN> 39
 -1.862007e+000 -1.217486e+001 -8.290788e+000 -1.406458e+001 2.258372e-001 1.181276e-001 -5.606946e+000 -2.257446e+000 -2.275937e+000 -1.015049e+000 -9.741283e+000 -5.690688e+000 7.513965e+001 1.969838e+000 -1.928821e+000 -9.517099e-001 -2.386973e+000 -5.281066e-001 -1.951589e-001 -1.246309e+000 -4.446409e-001 -1.226536e+000 -5.437109e-001 -2.339086e+000 -1.350197e+000 3.608020e+000 -6.290316e-001 1.263611e+000 7.284023e-001 1.200333e+000 -9.039727e-002 -1.201652e-001 6.489884e-001 4.341558e-001 5.623321e-001 2.040319e-001 9.797168e-001 5.699084e-001 -1.648787e+000
<VARIANCE> 39
 1.539652e+001 4.183110e+001 2.809034e+001 4.742874e+001 5.045734e+001 8.356486e+001 6.597480e+001 5.266072e+001 5.765813e+001 5.350461e+001 4.557576e+001 4.934226e+001 5.328405e+001 1.993660e+000 4.404041e+000 3.077556e+000 4.082249e+000 4.435724e+000 5.351253e+000 3.774291e+000 4.933497e+000 4.543653e+000 4.229214e+000 4.183454e+000 3.144583e+000 5.101052e+000 4.773944e-001 8.994157e-001 4.983292e-001 7.509613e-001 9.321269e-001 1.027367e+000 9.216019e-001 8.472330e-001 1.071275e+000 8.999972e-001 7.905778e-001 7.091540e-001 9.693541e-001
<GCONST> 1.367589e+002
<MIXTURE> 8 2.391646e-002
<MEAN> 39
 -1.198885e+001 4.932144e-002 -6.504570e+000 5.960074e-001 -3.084258e+000 2.735369e+000 -2.723201e+000 1.782158e+000 1.961242e+000 1.972043e+000 -8.875719e-001 -2.933991e+000 4.682067e+001 2.154618e-001 -3.854174e-001 -4.197768e-001 -3.572328e-001 2.751788e-001 6.265710e-001 6.720514e-002 4.164724e-002 -1.304960e-001 3.387168e-001 1.822333e-001 -4.566381e-001 2.906826e-001 1.746704e-001 -2.429728e-001 4.519918e-002 -2.714544e-001 -8.026276e-002 -9.925588e-003 -1.266420e-001 3.099530e-002 -1.465083e-002 -3.681521e-003 -1.709781e-002 -8.204609e-002 4.286622e-001
<VARIANCE> 39
 7.829384e+001 1.831688e+001 2.401194e+001 4.449854e+001 4.184079e+001 3.645060e+001 3.233791e+001 2.453361e+001 2.734469e+001 3.879708e+001 3.090944e+001 2.993912e+001 1.826345e+002 1.266071e+000 1.568050e+000 1.551394e+000 2.231113e+000 1.958083e+000 2.327030e+000 1.988147e+000 1.841754e+000 2.267606e+000 2.072150e+000 1.881302e+000 2.519705e+000 1.723895e+000 1.607957e-001 2.222862e-001 2.407115e-001 4.069488e-001 3.346383e-001 3.305854e-001 3.654040e-001 3.465157e-001 3.951249e-001 3.721251e-001 3.469719e-001 3.832127e-001 2.914800e-001
<GCONST> 1.122297e+002
<MIXTURE> 9 9.028583e-002
<MEAN> 39
 3.346107e-001 -1.028032e+001 -7.520099e+000 -1.423258e+001 -8.064888e+000 6.217649e+000 -1.161924e+001 -1.566694e+000 -8.616143e-001 -7.459463e-001 8.526877e-002 -1.102430e+001 7.265891e+001 -3.065685e-001 -1.196953e+000 -4.771581e-001 -2.403587e-001 8.639553e-001 3.573807e-001 -3.227587e-001 7.668555e-001 6.372571e-001 7.627762e-002 -7.926607e-001 -1.109098e+000 9.589462e-001 -1.237393e-001 5.635870e-001 4.821887e-001 5.490211e-001 8.004504e-002 -6.699234e-001 1.788222e-001 -2.408996e-001 -1.915403e-001 4.682770e-002 -2.880820e-001 5.152248e-001 -4.847996e-001
<VARIANCE> 39
 2.407347e+001 4.061053e+001 4.487121e+001 7.088340e+001 5.088307e+001 7.277380e+001 6.067202e+001 5.638268e+001 6.173839e+001 6.226904e+001 7.964016e+001 3.717995e+001 4.073848e+001 5.242117e-001 1.243269e+000 1.695172e+000 2.403864e+000 2.072167e+000 2.947244e+000 2.579936e+000 2.803162e+000 3.139419e+000 2.465181e+000 2.552482e+000 2.152592e+000 6.879413e-001 1.367427e-001 2.314057e-001 3.247904e-001 4.961535e-001 4.582860e-001 4.786919e-001 4.396750e-001 5.281427e-001 5.498242e-001 5.236478e-001 4.674700e-001 4.614234e-001 1.446625e-001
<GCONST> 1.181092e+002
<MIXTURE> 10 8.699550e-002
<MEAN> 39
 -7.084003e-001 -1.065015e+001 -8.211707e+000 -1.646065e+001 -1.100616e+000 -2.606606e+000 -9.857274e+000 3.738018e-003 -2.058243e+000 7.041543e-001 -1.230524e+001 -6.386043e+000 7.696793e+001 -1.986636e-001 -1.153404e+000 -6.986647e-001 -4.362327e-001 9.507374e-001 2.803996e-001 3.254381e-001 5.818065e-001 6.041301e-002 -4.517024e-001 -1.071483e+000 -4.482392e-002 8.686239e-001 -1.648074e-001 7.830262e-001 5.910404e-001 8.208825e-001 -3.537482e-001 -2.701210e-001 2.086841e-001 -4.886970e-001 -5.137553e-003 -2.356095e-001 6.547660e-001 2.316774e-001 -6.749931e-001
<VARIANCE> 39
 1.296142e+001 3.184132e+001 3.343760e+001 4.810998e+001 3.542944e+001 8.080077e+001 7.437917e+001 5.415837e+001 4.640472e+001 6.296872e+001 3.556965e+001 2.630121e+001 2.325144e+001 6.807164e-001 1.513350e+000 1.917730e+000 2.418585e+000 2.327864e+000 3.353968e+000 2.906695e+000 3.344430e+000 2.819753e+000 3.070277e+000 2.509818e+000 2.401933e+000 7.231993e-001 2.447708e-001 2.743391e-001 4.218998e-001 5.196735e-001 4.354265e-001 6.630116e-001 5.629725e-001 6.833391e-001 6.406150e-001 6.984394e-001 4.576774e-001 3.848524e-001 1.700987e-001
<GCONST> 1.181074e+002
<MIXTURE> 11 7.372215e-002
<MEAN> 39
 -2.598648e-001 -7.025089e+000 -5.955773e+000 -1.184474e+001 -5.503315e+000 -3.646456e+000 -6.748227e+000 -2.402275e+000 4.136129e-001 1.777847e+000 -2.840008e+000 -8.736651e+000 7.183895e+001 2.789383e+000 -2.369099e+000 -8.799092e-001 -2.858177e+000 -8.779682e-001 9.176267e-001 -1.542497e+000 2.173902e-002 -3.793527e-001 2.589820e-001 -5.935174e-001 -2.526073e+000 2.668790e+000 -8.630885e-001 1.090502e-001 2.568240e-001 6.433628e-001 3.602515e-001 1.439406e-001 3.507396e-001 3.037687e-001 1.003448e-001 -6.356962e-002 1.445852e-001 5.397899e-001 -7.345375e-001
<VARIANCE> 39
 2.231435e+001 3.134042e+001 3.944797e+001 6.310405e+001 5.069046e+001 1.179994e+002 8.508466e+001 5.649642e+001 4.902257e+001 4.433722e+001 6.338331e+001 2.874598e+001 5.180917e+001 2.445880e+000 3.260119e+000 4.320770e+000 3.818813e+000 5.108957e+000 7.594674e+000 6.151424e+000 5.168850e+000 4.925610e+000 4.371175e+000 5.485180e+000 3.844190e+000 2.577613e+000 4.136948e-001 4.667947e-001 5.878829e-001 6.898955e-001 6.031656e-001 1.099475e+000 7.305387e-001 6.666061e-001 6.873474e-001 6.020083e-001 7.971206e-001 4.803382e-001 5.960628e-001
<GCONST> 1.353860e+002
<MIXTURE> 12 6.227504e-002
<MEAN> 39
 -2.780172e+000 -1.265615e+001 -4.273232e+000 -1.490208e+001 -8.908772e+000 -9.108695e+000 -6.671822e+000 6.303668e+000 -5.066165e+000 -5.473433e+000 -1.452396e+001 -7.071500e-001 7.886071e+001 9.046600e-001 -2.039451e+000 -1.176673e+000 -1.189023e+000 7.027407e-001 9.117284e-001 -5.253895e-001 7.789011e-001 -1.201357e+000 -4.215814e-001 -2.123638e+000 -2.703940e-001 8.942500e-001 -4.164829e-001 9.745225e-001 3.401152e-001 9.414698e-001 3.830203e-001 2.704509e-001 2.579293e-001 -8.681200e-001 3.155584e-001 4.063909e-001 9.239715e-001 -1.571981e-001 -9.360627e-001
<VARIANCE> 39
 9.721471e+000 3.822906e+001 3.050226e+001 2.958812e+001 5.477975e+001 4.034818e+001 5.562183e+001 3.888691e+001 4.598141e+001 3.615506e+001 2.875177e+001 3.105791e+001 1.968446e+001 1.487105e+000 2.063949e+000 2.480036e+000 3.689627e+000 4.441663e+000 3.422757e+000 3.803866e+000 3.303457e+000 4.177250e+000 3.256043e+000 3.971540e+000 3.203135e+000 9.044430e-001 4.252372e-001 5.123804e-001 4.212731e-001 5.778794e-001 8.947687e-001 8.232712e-001 7.560588e-001 6.651531e-001 6.940190e-001 6.895515e-001 7.920355e-001 4.764500e-001 3.767603e-001
<GCONST> 1.239942e+002
<MIXTURE> 13 6.705900e-002
<MEAN> 39
 2.047577e-001 -1.166762e+001 -9.747905e-001 -8.610872e+000 -1.048486e+001 -2.857619e+000 -1.397311e+001 4.268489e+000 4.929044e+000 2.756543e+000 -2.024646e+000 -1.095492e+001 7.524116e+001 1.249003e+000 -1.976298e+000 -4.987921e-001 -1.386359e+000 -5.172284e-001 1.684883e+000 -9.839807e-001 1.105615e+000 6.787253e-002 2.866446e-001 -7.544855e-003 -1.703595e+000 1.031707e+000 -8.195979e-001 8.837608e-001 1.674164e-002 5.769238e-001 7.391001e-001 -1.225877e-001 9.906504e-001 -5.629898e-001 -4.582255e-001 -1.321190e-001 9.740310e-002 8.623122e-001 -8.340935e-001
<VARIANCE> 39
 1.758920e+001 4.029380e+001 3.467453e+001 4.534357e+001 3.848310e+001 5.351606e+001 4.309351e+001 5.069708e+001 4.207611e+001 4.696012e+001 4.486729e+001 2.506914e+001 4.920073e+001 1.346529e+000 1.883417e+000 2.246189e+000 2.047128e+000 3.035046e+000 3.426103e+000 3.240087e+000 3.629616e+000 2.795591e+000 2.842603e+000 2.627060e+000 2.512675e+000 9.335359e-001 3.272234e-001 4.545245e-001 4.519450e-001 4.266313e-001 5.315533e-001 6.673098e-001 5.814015e-001 6.910362e-001 6.396253e-001 6.089213e-001 5.962654e-001 4.684522e-001 2.139658e-001
<GCONST> 1.213241e+002
<MIXTURE> 14 4.171110e-002
<MEAN> 39
 -3.276222e+000 -1.185168e+001 -7.316436e+000 -1.276430e+001 -7.875666e-001 -1.746325e+000 -6.839620e+000 5.384417e-001 -3.239026e+000 -1.659954e+000 -9.838497e+000 -2.502876e+000 7.387047e+001 2.468652e+000 -3.372976e+000 -1.684958e+000 -3.501395e+000 -5.599788e-001 -1.318332e-001 -2.751349e+000 -4.381496e-001 -2.668917e+000 -1.025517e+000 -3.783181e+000 -1.773523e+000 5.023954e+000 -4.021917e-001 8.926550e-001 3.782515e-001 7.088450e-001 -1.802298e-001 2.674581e-002 6.229193e-001 1.759399e-001 4.550765e-001 1.111420e-001 6.138859e-001 1.228359e-001 -1.148428e+000
<VARIANCE> 39
 1.467053e+001 5.060868e+001 3.165408e+001 4.063245e+001 5.732990e+001 6.883128e+001 4.808501e+001 4.344042e+001 4.354487e+001 4.209245e+001 3.437797e+001 4.721537e+001 4.659156e+001 2.359271e+000 4.139795e+000 3.393379e+000 4.383861e+000 5.606143e+000 6.154319e+000 4.274970e+000 5.341058e+000 5.009268e+000 4.811769e+000 4.346510e+000 4.083877e+000 6.232096e+000 4.401849e-001 9.169661e-001 5.050122e-001 6.977679e-001 9.629768e-001 8.638983e-001 6.938422e-001 7.344581e-001 8.150526e-001 8.218065e-001 6.627762e-001 6.339724e-001 9.088971e-001
<GCONST> 1.354834e+002
<MIXTURE> 15 4.478555e-002
<MEAN> 39
 -9.139536e+000 -5.180867e+000 -3.556726e+000 -7.056446e+000 -3.837305e+000 -7.786612e-001 -3.909716e+000 1.521604e+000 1.692434e+000 1.467843e+000 -1.433753e+000 -3.271015e+000 5.644835e+001 2.960401e-001 -1.314444e+000 -8.773343e-001 -7.131143e-001 1.155410e+000 1.084559e+000 -2.951307e-001 -3.147069e-001 -1.715288e-001 -5.750598e-002 -7.382653e-001 -9.302740e-001 1.232539e+000 3.470812e-001 -4.279225e-001 1.510925e-001 -4.606842e-001 -3.151292e-002 1.777932e-001 -3.092581e-001 -8.136766e-002 -3.576953e-001 -5.911094e-002 -1.224962e-001 -2.622643e-001 8.156443e-001
<VARIANCE> 39
 6.543715e+001 9.840501e+001 8.509530e+001 1.116075e+002 1.141095e+002 1.308555e+002 9.197450e+001 8.196272e+001 8.220078e+001 6.583132e+001 7.111645e+001 5.786351e+001 1.587999e+002 3.443916e+000 6.557898e+000 4.893950e+000 6.049452e+000 6.634084e+000 8.143380e+000 5.406426e+000 5.697319e+000 5.940366e+000 5.206207e+000 4.470078e+000 4.634176e+000 7.819438e+000 4.542761e-001 1.041548e+000 7.071947e-001 9.799421e-001 1.010608e+000 1.215131e+000 9.284593e-001 9.376774e-001 9.790885e-001 8.898816e-001 8.561236e-001 8.545179e-001 1.239070e+000
<GCONST> 1.512887e+002
<MIXTURE> 16 3.003479e-002
<MEAN> 39
 -1.892549e+001 -1.255170e-001 -8.362893e+000 2.078403e+000 -6.925012e+000 3.209728e+000 -5.178031e+000 1.043242e+000 5.895249e-001 -1.666247e+000 -1.410327e+000 -1.932976e+000 3.586669e+001 3.697154e-002 -5.333798e-002 -9.170283e-002 -9.521857e-002 6.435507e-002 2.242679e-001 -2.165351e-001 -1.928096e-001 -1.415385e-001 -1.219010e-001 -1.278995e-001 -3.129888e-001 5.194115e-002 8.016418e-002 -1.228773e-001 3.898949e-002 -1.067493e-001 3.220130e-003 7.319088e-003 -9.439265e-002 1.579296e-002 3.645331e-002 3.516557e-002 -2.200470e-002 -8.000293e-002 2.154699e-001
<VARIANCE> 39
 7.274603e+001 2.203019e+001 1.771323e+001 2.495628e+001 2.192506e+001 2.410453e+001 2.031640e+001 1.980605e+001 2.275474e+001 2.403253e+001 2.337982e+001 2.387146e+001 1.510681e+002 6.067233e-001 1.147138e+000 8.984742e-001 1.367564e+000 1.370163e+000 1.616353e+000 1.828758e+000 1.723594e+000 2.039436e+000 1.676090e+000 1.371497e+000 1.828502e+000 1.070489e+000 1.052770e-001 1.670946e-001 1.485890e-001 2.160599e-001 2.238315e-001 2.291897e-001 3.431356e-001 3.012116e-001 3.472363e-001 3.112319e-001 2.580256e-001 3.091466e-001 1.933801e-001
<GCONST> 9.994984e+001
<STATE> 3
<NUMMIXES> 16
<MIXTURE> 1 4.226494e-002
<MEAN> 39
 3.496714e+000 -1.103536e+001 -3.475958e+000 -7.950983e+000 -7.577030e+000 2.256978e+000 -6.811218e+000 -1.427121e+000 4.411236e+000 2.057681e+000 5.618191e-001 -1.028951e+001 7.588410e+001 3.167408e-002 1.052285e+000 1.298411e-001 2.964655e-001 9.469848e-001 -1.879881e-001 3.270931e-001 -9.300862e-003 -5.929822e-001 2.818828e-001 2.254462e-001 4.384746e-001 -7.235504e-001 -1.160322e+000 1.471001e+000 3.288057e-001 7.865062e-001 8.324479e-001 -6.179733e-001 6.383265e-001 9.404966e-003 -2.285561e-001 9.328878e-002 -7.940880e-002 9.636328e-001 -1.104335e+000
<VARIANCE> 39
 1.304585e+001 3.343846e+001 2.864791e+001 4.789196e+001 4.521014e+001 7.259943e+001 6.110778e+001 5.478531e+001 4.921573e+001 7.314194e+001 5.292670e+001 2.940083e+001 5.424654e+001 1.238450e+000 2.500908e+000 1.948388e+000 2.291036e+000 3.815788e+000 3.532908e+000 3.190303e+000 3.742214e+000 2.898598e+000 2.920581e+000 3.121475e+000 2.138815e+000 1.540134e+000 5.001807e-001 4.670280e-001 3.851447e-001 6.347898e-001 6.134958e-001 7.367759e-001 9.152632e-001 8.750419e-001 8.506023e-001 9.643248e-001 6.963044e-001 5.628395e-001 4.626954e-001
<GCONST> 1.271135e+002
<MIXTURE> 2 6.702933e-002
<MEAN> 39
 3.056398e+000 -9.685918e+000 -3.939276e+000 -7.677572e+000 -6.830633e+000 2.901498e+000 -1.116832e+001 2.773344e+000 3.817899e+000 2.062395e+000 -4.061683e-001 -1.170629e+001 7.621459e+001 2.028780e-001 4.353736e-001 -1.142443e-001 -2.170325e-002 3.585580e-001 3.395219e-001 2.929875e-001 -5.369768e-001 -5.095941e-001 3.009476e-001 3.872768e-001 2.457257e-001 -4.723218e-001 -2.764829e-001 8.201321e-001 3.501617e-001 4.778289e-001 1.238124e-001 -4.826239e-001 3.820457e-001 -5.717379e-001 -2.802460e-001 8.279251e-002 1.078390e-001 7.049443e-001 -5.820476e-001
<VARIANCE> 39
 1.129929e+001 3.193439e+001 2.490080e+001 5.910479e+001 3.346817e+001 5.276667e+001 4.716233e+001 3.507860e+001 3.587862e+001 4.107655e+001 4.243113e+001 2.154703e+001 4.335618e+001 3.469632e-001 9.517885e-001 1.270460e+000 1.439301e+000 1.935421e+000 2.560465e+000 2.001236e+000 2.156079e+000 1.777834e+000 1.783364e+000 2.176686e+000 1.460617e+000 3.238538e-001 1.215424e-001 1.959691e-001 2.035671e-001 2.777001e-001 3.619021e-001 3.419855e-001 3.740282e-001 3.940873e-001 4.115371e-001 3.423748e-001 3.586037e-001 2.807557e-001 1.072941e-001
<GCONST> 1.042700e+002
<MIXTURE> 3 6.768563e-002
<MEAN> 39
 -2.975169e-001 -8.896247e+000 -6.577385e+000 -1.539975e+001 3.270552e+000 -5.250634e+000 1.541900e+000 -6.033101e+000 3.616205e+000 -7.418308e-001 -6.386233e+000 -7.640836e+000 7.747920e+001 1.752949e-001 6.247297e-001 2.192368e-001 4.432964e-001 4.550565e-002 -6.650942e-002 1.063836e-001 -1.116579e-001 2.679757e-002 5.162401e-002 3.046756e-001 1.208134e-001 -4.765244e-001 -1.739514e-001 6.874077e-001 4.791562e-001 8.641743e-001 -4.850031e-001 2.353600e-001 -4.475436e-001 3.964851e-001 -2.646973e-001 1.458295e-001 4.352084e-001 3.196071e-001 -8.019220e-001
<VARIANCE> 39
 1.095874e+001 2.138825e+001 2.237452e+001 4.907830e+001 2.788618e+001 1.035555e+002 4.454576e+001 4.122705e+001 3.616531e+001 6.157864e+001 4.427924e+001 3.776815e+001 3.316868e+001 6.871886e-001 1.632075e+000 1.348405e+000 2.098746e+000 2.383360e+000 2.972261e+000 2.667084e+000 2.511479e+000 2.321623e+000 2.343232e+000 2.324154e+000 1.503392e+000 1.087840e+000 2.218173e-001 2.718515e-001 3.149999e-001 4.289032e-001 3.480018e-001 5.394485e-001 4.071527e-001 4.226240e-001 4.949796e-001 4.670454e-001 3.923264e-001 3.919197e-001 2.774247e-001
<GCONST> 1.134333e+002
<MIXTURE> 4 5.801006e-002
<MEAN> 39
 -1.742547e-001 -9.512661e+000 -5.988212e+000 -1.500202e+001 -2.183321e+000 -3.679792e+000 -7.146759e+000 1.516860e+000 -4.379524e+000 1.065459e+000 -1.382468e+001 -2.075673e+000 7.565057e+001 5.387292e-002 2.115642e+000 5.789120e-001 1.304778e+000 2.992330e-001 -4.296709e-001 5.730137e-001 -5.967708e-001 6.355319e-001 -2.217357e-001 7.244381e-001 1.596499e-001 -1.474321e+000 -7.346808e-001 1.111473e+000 5.647219e-001 1.305795e+000 1.531637e-001 1.153575e-001 7.732769e-001 -1.139171e-001 7.887387e-001 -1.856813e-001 1.365805e+000 8.216514e-003 -1.254867e+000
<VARIANCE> 39
 9.929808e+000 3.915680e+001 3.733810e+001 4.900060e+001 5.972698e+001 6.306419e+001 5.456096e+001 5.010587e+001 4.704261e+001 7.512354e+001 3.314901e+001 3.943097e+001 2.669946e+001 1.156774e+000 2.294947e+000 2.049897e+000 2.739463e+000 3.513493e+000 3.228626e+000 3.529439e+000 3.024190e+000 3.694615e+000 3.478358e+000 3.064438e+000 2.139558e+000 1.654475e+000 4.526878e-001 5.222944e-001 4.963036e-001 6.021362e-001 8.148941e-001 7.601739e-001 8.912588e-001 8.162755e-001 9.004752e-001 9.040034e-001 6.033863e-001 5.807923e-001 5.300362e-001
<GCONST> 1.270296e+002
<MIXTURE> 5 7.635151e-002
<MEAN> 39
 2.225344e+000 -1.044555e+001 -4.491748e+000 -1.403148e+001 -5.552653e+000 5.224297e+000 -9.120912e+000 1.151311e+000 -1.746994e-001 3.250773e+000 -2.304102e+000 -8.992559e+000 7.401798e+001 -7.633907e-002 7.917935e-002 4.584123e-002 6.026451e-002 3.031082e-001 3.606123e-002 3.656597e-002 -7.679760e-003 -3.430407e-002 4.258141e-002 -2.140654e-001 1.415142e-001 -1.120529e-001 -1.903508e-002 3.116296e-001 1.957282e-001 2.594287e-001 -1.385613e-001 -2.464754e-001 -5.405606e-002 -1.787278e-001 2.032430e-002 -7.265829e-002 1.655478e-001 2.247002e-001 -2.240716e-001
<VARIANCE> 39
 1.862133e+001 4.899935e+001 3.335452e+001 9.478680e+001 5.048635e+001 5.919603e+001 6.888915e+001 4.417396e+001 4.702447e+001 4.184216e+001 6.496944e+001 3.453077e+001 4.766113e+001 2.343663e-001 6.397625e-001 6.875044e-001 1.034966e+000 1.245407e+000 1.574790e+000 1.411666e+000 1.382260e+000 1.262055e+000 1.251188e+000 1.315700e+000 1.132366e+000 2.400332e-001 3.904773e-002 1.127845e-001 1.171529e-001 1.824480e-001 1.931125e-001 2.125591e-001 2.276542e-001 2.341377e-001 2.455527e-001 1.983414e-001 2.287971e-001 1.860145e-001 4.462960e-002
<GCONST> 9.558872e+001
<MIXTURE> 6 7.869399e-002
<MEAN> 39
 -1.088167e+000 -1.179475e+001 -6.954406e+000 -1.159481e+001 -4.970941e+000 -2.878383e+000 -7.961924e+000 4.526445e+000 -6.916804e+000 -5.085786e+000 -1.472832e+001 -7.331732e-001 7.695082e+001 1.144469e-001 5.013038e-001 1.610878e-001 2.711472e-001 1.306620e-001 -1.594587e-001 2.008355e-001 -4.388230e-001 1.419041e-001 1.000473e-001 1.849376e-001 6.836597e-002 -3.983311e-001 -4.251952e-002 9.865350e-001 5.970365e-001 3.719286e-001 -1.871769e-001 -4.142753e-001 1.242933e-001 -6.212528e-001 4.592373e-001 3.008873e-001 7.265036e-001 -2.841852e-001 -7.051141e-001
<VARIANCE> 39
 8.735087e+000 3.146336e+001 2.828375e+001 4.228490e+001 6.036610e+001 3.876075e+001 4.549022e+001 3.783577e+001 4.605256e+001 3.970430e+001 2.685600e+001 3.634536e+001 2.829271e+001 5.319652e-001 1.282492e+000 2.024425e+000 1.325155e+000 3.029989e+000 2.872228e+000 2.753263e+000 2.606946e+000 2.860753e+000 2.783250e+000 2.034152e+000 2.205925e+000 4.135428e-001 1.430500e-001 2.424004e-001 2.517533e-001 3.459173e-001 4.715550e-001 4.559773e-001 4.816558e-001 5.102235e-001 5.757426e-001 5.159984e-001 4.518711e-001 3.910323e-001 1.474810e-001
<GCONST> 1.111539e+002
<MIXTURE> 7 5.491237e-002
<MEAN> 39
 -6.129041e-001 -9.081795e+000 -9.772570e+000 -1.350189e+001 1.886106e+000 -8.365608e-001 -4.478574e+000 -5.245069e+000 3.127263e-001 -3.462309e+000 -9.100813e+000 -5.911242e+000 7.694090e+001 8.925853e-002 1.569199e-001 -4.676151e-002 1.634966e-001 2.207978e-001 1.023588e-001 9.031300e-002 -2.206572e-001 1.387212e-001 -7.069802e-002 1.460299e-001 7.013952e-002 -2.495325e-001 8.356567e-002 2.527330e-001 3.438183e-001 5.165087e-002 -3.544095e-001 -1.272617e-001 -1.793137e-001 2.107373e-001 -9.198792e-002 1.902559e-001 1.815858e-001 -2.080686e-003 -2.550948e-001
<VARIANCE> 39
 9.955178e+000 2.334286e+001 2.510587e+001 4.894863e+001 3.570628e+001 8.743729e+001 7.444228e+001 4.267859e+001 4.186627e+001 4.945223e+001 5.252419e+001 3.790628e+001 2.964982e+001 2.765696e-001 6.087786e-001 7.214218e-001 1.014489e+000 1.394925e+000 1.486956e+000 1.305103e+000 1.576272e+000 1.264471e+000 1.463875e+000 1.225271e+000 1.107004e+000 2.468676e-001 6.573595e-002 1.215350e-001 1.644483e-001 1.729704e-001 2.206311e-001 2.316531e-001 2.769815e-001 2.446219e-001 2.641690e-001 2.551975e-001 2.320793e-001 2.192442e-001 6.472041e-002
<GCONST> 9.538171e+001
<MIXTURE> 8 5.829165e-002
<MEAN> 39
 5.953408e-001 -1.298965e+001 -1.816357e+000 -1.205198e+001 -5.242779e+000 1.646710e-001 -1.230480e+001 5.676420e+000 9.345596e-001 3.057636e+000 -3.604201e+000 -1.124513e+001 7.659473e+001 -1.041411e-001 4.903395e-001 1.103347e+000 1.067217e+000 -3.512948e-001 -1.160527e+000 -2.705969e-001 6.702459e-001 1.410318e-002 -3.102210e-001 -2.841580e-001 7.761603e-001 -3.716331e-001 -3.998252e-001 1.233894e+000 2.277142e-001 8.323945e-001 8.383796e-002 -3.383358e-001 8.209324e-001 -8.807669e-001 -1.329352e-001 -2.102435e-001 3.733816e-001 8.519679e-001 -1.030940e+000
<VARIANCE> 39
 1.583265e+001 5.438750e+001 4.707512e+001 6.029507e+001 3.839967e+001 7.031013e+001 4.006294e+001 4.471384e+001 5.420724e+001 4.746655e+001 4.901465e+001 2.783479e+001 2.631523e+001 8.487747e-001 2.095006e+000 2.382619e+000 2.489902e+000 3.476027e+000 4.267459e+000 3.473027e+000 4.177211e+000 3.591215e+000 3.250726e+000 3.828662e+000 2.626064e+000 1.356387e+000 2.501362e-001 3.503197e-001 4.421203e-001 5.257631e-001 5.766500e-001 6.795464e-001 5.153697e-001 6.194499e-001 9.114217e-001 5.875494e-001 5.518814e-001 4.692233e-001 2.969895e-001
<GCONST> 1.237552e+002
<MIXTURE> 9 7.531500e-002
<MEAN> 39
 -2.071271e+000 -1.456013e+001 -6.556324e+000 -1.399178e+001 -4.292349e+000 -4.147166e+000 -9.567258e+000 4.960103e+000 -7.566181e+000 -6.912508e+000 -1.484271e+001 -1.728841e+000 7.870569e+001 1.583615e-001 3.872631e-001 -5.781408e-002 1.206626e-001 8.382358e-002 -9.450430e-002 -9.116611e-002 -6.179407e-001 5.831129e-002 1.127668e-001 -4.559608e-002 -2.125320e-001 -3.134728e-001 1.077213e-001 9.287359e-001 5.017662e-001 2.822698e-001 -4.013999e-001 -4.544072e-001 8.001719e-002 -5.951307e-001 3.765139e-001 3.997587e-001 4.778861e-001 -2.693750e-001 -6.316763e-001
<VARIANCE> 39
 7.536098e+000 3.719089e+001 2.911860e+001 3.774290e+001 5.412576e+001 3.471326e+001 4.435433e+001 3.688612e+001 4.053499e+001 3.374361e+001 2.608715e+001 3.330042e+001 1.832157e+001 5.434963e-001 1.192097e+000 1.935063e+000 1.252939e+000 2.714602e+000 2.626952e+000 2.719145e+000 2.333274e+000 2.495709e+000 2.810996e+000 1.926704e+000 2.277524e+000 4.348861e-001 1.097741e-001 2.248673e-001 2.580946e-001 3.192783e-001 3.967753e-001 4.031881e-001 4.156868e-001 4.725214e-001 5.244719e-001 4.840078e-001 4.833639e-001 3.746924e-001 1.321084e-001
<GCONST> 1.082460e+002
<MIXTURE> 10 6.125572e-002
<MEAN> 39
 -3.057101e-001 -1.354587e+001 -3.995987e+000 -1.471603e+001 -7.895091e+000 5.079112e+000 -1.130493e+001 3.250988e-001 -4.659391e-001 2.386721e+000 -3.696757e+000 -1.037296e+001 7.193484e+001 -1.011046e-001 -4.834225e-002 -3.095302e-002 2.433047e-002 2.419984e-001 -1.723754e-002 -2.622203e-002 3.925336e-003 -1.562265e-002 6.140091e-002 -2.904218e-001 -1.278674e-001 4.938957e-003 7.885490e-003 3.652835e-001 1.721387e-001 2.379162e-001 -1.651723e-001 -2.815859e-001 -3.210334e-002 -1.764600e-001 -3.003280e-002 -8.968516e-002 1.843784e-001 2.460254e-001 -2.411416e-001
<VARIANCE> 39
 3.436407e+001 5.891326e+001 4.815639e+001 8.158254e+001 4.630217e+001 6.517753e+001 5.529537e+001 5.697652e+001 5.878853e+001 5.496987e+001 8.559312e+001 3.451090e+001 8.875508e+001 2.077924e-001 6.935457e-001 7.361760e-001 1.094144e+000 1.195965e+000 1.663452e+000 1.359727e+000 1.609393e+000 1.366254e+000 1.325773e+000 1.420577e+000 1.169495e+000 2.236249e-001 3.649962e-002 1.218278e-001 1.205836e-001 1.837222e-001 1.952945e-001 2.174441e-001 2.255576e-001 2.495995e-001 2.673319e-001 2.161453e-001 2.289710e-001 2.027657e-001 4.856681e-002
<GCONST> 9.890569e+001
<MIXTURE> 11 7.024228e-002
<MEAN> 39
 -2.124414e+000 -1.116120e+001 -9.431241e+000 -1.583190e+001 2.784463e+000 -1.074139e+001 2.619756e+000 -7.630888e+000 3.015813e+000 -2.962328e+000 -7.005808e+000 -9.915719e+000 7.781804e+001 2.582844e-002 1.321253e-001 -1.929312e-001 7.999787e-002 1.457940e-001 -1.275835e-001 8.427785e-002 -2.712723e-001 1.023877e-001 -2.532577e-001 -3.155051e-002 -2.975246e-001 1.751893e-002 6.223202e-003 6.571572e-001 5.805410e-001 5.546423e-001 -5.360327e-001 1.656402e-001 -4.590411e-001 2.774413e-001 -3.182879e-001 1.983719e-001 2.737888e-001 4.063570e-001 -6.693814e-001
<VARIANCE> 39
 9.622579e+000 1.800954e+001 2.075360e+001 3.100849e+001 2.748379e+001 1.206228e+002 6.762869e+001 3.514650e+001 2.829131e+001 4.017166e+001 4.595957e+001 3.730428e+001 2.379964e+001 6.104982e-001 1.458915e+000 1.561845e+000 1.705539e+000 2.182689e+000 2.587033e+000 2.308352e+000 2.491712e+000 2.006646e+000 2.112735e+000 2.129179e+000 1.635335e+000 9.358400e-001 1.927450e-001 2.455744e-001 3.167281e-001 3.687891e-001 3.238525e-001 4.405722e-001 3.680182e-001 4.009626e-001 3.733034e-001 3.611946e-001 3.891505e-001 3.500367e-001 1.880929e-001
<GCONST> 1.090751e+002
<MIXTURE> 12 7.494697e-002
<MEAN> 39
 6.043886e-001 -1.217492e+001 -5.050888e+000 -1.065844e+001 -7.995305e+000 2.329896e+000 -1.322293e+001 3.317870e+000 2.062441e+000 9.488225e-001 -3.795207e+000 -1.216289e+001 7.380086e+001 2.522513e-001 4.783553e-001 -3.554096e-001 -2.229139e-001 4.239331e-001 4.734179e-001 2.771230e-001 -7.812390e-001 -4.850129e-001 3.648473e-001 4.727758e-001 -1.182980e-001 -4.464805e-001 -1.090892e-001 7.839468e-001 3.408523e-001 4.493001e-001 -2.222264e-002 -4.995382e-001 3.171990e-001 -5.711268e-001 -2.238822e-001 2.758677e-002 2.012116e-001 6.351856e-001 -5.821062e-001
<VARIANCE> 39
 1.914477e+001 3.067864e+001 3.422134e+001 5.259680e+001 4.044729e+001 5.529624e+001 4.628115e+001 4.166357e+001 4.686508e+001 5.575147e+001 5.050017e+001 2.269982e+001 4.501271e+001 3.449225e-001 9.365270e-001 1.333421e+000 1.512833e+000 1.975135e+000 2.632555e+000 1.972325e+000 2.248775e+000 1.925478e+000 1.897593e+000 2.079898e+000 1.471747e+000 3.338299e-001 1.014603e-001 1.734415e-001 2.086566e-001 3.074631e-001 3.409614e-001 3.217148e-001 3.372031e-001 3.919492e-001 4.271136e-001 3.784899e-001 3.583978e-001 2.622007e-001 9.541547e-002
<GCONST> 1.060154e+002
<MIXTURE> 13 6.484074e-002
<MEAN> 39
 -1.144162e+000 -1.239621e+001 -6.547593e+000 -1.662894e+001 -3.418767e+000 -5.201091e+000 -9.507845e+000 2.636778e+000 -5.218712e+000 -4.709213e-001 -1.626125e+001 -2.592928e+000 7.816113e+001 4.976798e-001 2.029326e+000 4.579353e-001 8.916469e-001 -1.611556e-001 -6.456173e-001 -8.700697e-002 -1.089316e+000 3.925695e-001 1.187561e-001 5.693789e-001 -2.377404e-001 -1.479673e+000 -2.864384e-001 1.203233e+000 4.965230e-001 1.153166e+000 -1.761566e-003 -1.868884e-002 4.737671e-001 -4.522838e-001 5.127303e-001 -2.600341e-001 1.106454e+000 -1.009919e-001 -1.160324e+000
<VARIANCE> 39
 1.064930e+001 3.720735e+001 3.527123e+001 3.682378e+001 5.295253e+001 5.635192e+001 5.338765e+001 4.714620e+001 4.446482e+001 5.943048e+001 2.716141e+001 3.462915e+001 1.919917e+001 9.332546e-001 1.877084e+000 2.254824e+000 2.400349e+000 3.214022e+000 3.374984e+000 3.148638e+000 3.196261e+000 3.258501e+000 3.852809e+000 2.941857e+000 2.593228e+000 1.343220e+000 2.870798e-001 4.208935e-001 3.960540e-001 4.535311e-001 5.959352e-001 6.622846e-001 6.992135e-001 7.781627e-001 7.481838e-001 7.307222e-001 4.904334e-001 4.745201e-001 3.471856e-001
<GCONST> 1.216522e+002
<MIXTURE> 14 5.393226e-002
<MEAN> 39
 -3.944975e-001 -1.476097e+001 -4.936800e+000 -1.557097e+001 -5.493937e+000 3.311552e+000 -1.546446e+001 3.829165e+000 -1.975821e+000 7.417818e-001 -4.369936e+000 -1.225207e+001 7.568591e+001 -6.670217e-002 2.370456e-001 7.839493e-001 7.740313e-001 -2.899428e-001 -1.063771e+000 -2.765013e-001 6.145000e-001 8.212970e-002 -3.200970e-001 -6.518735e-001 5.825495e-001 -1.463328e-001 -1.421702e-001 1.107661e+000 3.495110e-001 7.038167e-001 -1.144430e-001 -5.442736e-001 7.515571e-001 -7.440022e-001 -8.109458e-003 -1.444407e-001 2.033022e-001 8.760049e-001 -9.788399e-001
<VARIANCE> 39
 2.593905e+001 5.713383e+001 6.575961e+001 7.147147e+001 3.422355e+001 7.135204e+001 4.833525e+001 4.742319e+001 6.151387e+001 5.104737e+001 6.905950e+001 3.125489e+001 2.194674e+001 7.445366e-001 2.136333e+000 2.027403e+000 2.752217e+000 2.969944e+000 4.409075e+000 3.247097e+000 4.196772e+000 3.482385e+000 3.208825e+000 3.657685e+000 2.952371e+000 1.356325e+000 2.410955e-001 3.330411e-001 5.703181e-001 5.455910e-001 5.564929e-001 7.187561e-001 5.485858e-001 6.596508e-001 8.942332e-001 6.113898e-001 6.299369e-001 5.304113e-001 2.986522e-001
<GCONST> 1.257238e+002
<MIXTURE> 15 4.890367e-002
<MEAN> 39
 -1.936567e+000 -1.033895e+001 -1.208603e+001 -1.403548e+001 1.083022e+000 -4.669956e+000 -3.146317e+000 -6.992314e+000 -1.621455e-001 -5.277806e+000 -9.171930e+000 -8.546406e+000 7.687791e+001 3.713956e-002 1.253392e-001 -1.856015e-001 7.204407e-002 1.648514e-001 1.079328e-001 -7.920626e-002 -3.051575e-001 4.947199e-002 -7.555626e-002 3.718822e-002 -1.913012e-001 -1.552062e-001 1.141363e-001 2.382532e-001 3.488984e-001 -3.273109e-002 -3.043618e-001 -2.182470e-001 -1.533053e-001 1.753036e-001 -9.319916e-002 2.191434e-001 8.692796e-002 5.521183e-002 -2.421609e-001
<VARIANCE> 39
 7.446176e+000 2.167780e+001 1.934266e+001 3.637556e+001 4.145236e+001 1.336880e+002 1.130361e+002 4.422639e+001 3.552775e+001 3.639513e+001 3.943737e+001 3.902043e+001 2.235161e+001 2.686560e-001 5.215761e-001 7.315311e-001 8.219241e-001 1.191589e+000 1.279306e+000 1.126830e+000 1.377180e+000 1.032635e+000 1.208249e+000 1.120861e+000 9.858065e-001 2.188881e-001 5.640490e-002 1.002835e-001 1.580545e-001 1.558785e-001 2.062460e-001 2.051270e-001 2.406881e-001 2.330738e-001 2.108720e-001 2.190846e-001 1.951581e-001 2.045678e-001 5.308845e-002
<GCONST> 9.110061e+001
<MIXTURE> 16 4.728502e-002
<MEAN> 39
 2.579877e+000 -1.178581e+001 -4.468071e+000 -8.275500e+000 -1.029777e+001 3.972369e+000 -8.772230e+000 -2.027640e+000 3.078469e+000 2.664229e+000 -1.299024e+000 -9.678066e+000 7.429328e+001 2.145930e-001 8.509282e-001 1.627707e-003 1.529515e-001 6.752136e-001 -1.080652e-002 2.750515e-001 -3.839485e-001 -5.009565e-001 2.883303e-001 1.174653e-001 1.346736e-001 -6.341857e-001 -8.351088e-001 1.345021e+000 4.162980e-001 6.665911e-001 8.065308e-001 -7.589362e-001 6.693095e-001 -1.045355e-001 -2.481550e-001 -7.866002e-002 -4.678388e-002 7.910963e-001 -9.944832e-001
<VARIANCE> 39
 2.022684e+001 3.734964e+001 4.032900e+001 5.549490e+001 6.566875e+001 9.365530e+001 6.402619e+001 5.776051e+001 4.622096e+001 7.603384e+001 5.912140e+001 3.543095e+001 6.238768e+001 1.116826e+000 2.564669e+000 2.173477e+000 2.671744e+000 3.826595e+000 4.071054e+000 3.584005e+000 3.667876e+000 3.270623e+000 2.801820e+000 3.256142e+000 2.214740e+000 1.472755e+000 4.171346e-001 4.123478e-001 4.776372e-001 6.554941e-001 6.825196e-001 7.967421e-001 8.842415e-001 7.391956e-001 7.861514e-001 8.344350e-001 6.454257e-001 5.972087e-001 3.413388e-001
<GCONST> 1.292086e+002
<STATE> 4
<NUMMIXES> 16
<MIXTURE> 1 4.119026e-002
<MEAN> 39
 -1.201429e+000 -2.579136e+000 -4.678432e+000 -8.893005e+000 -4.350418e-001 -9.405652e+000 -1.338820e+000 -3.556466e+000 9.150494e-001 -3.656904e+000 -7.902731e+000 -5.287084e+000 7.042068e+001 -1.821642e+000 3.105772e+000 1.720833e+000 3.642783e+000 1.061338e+000 1.341852e+000 1.513292e+000 1.319442e+000 1.504647e+000 9.304261e-001 2.111887e+000 1.127682e+000 -3.728089e+000 -7.582623e-001 -4.299107e-001 9.445612e-003 1.522786e-001 5.438228e-002 7.853698e-001 3.590755e-001 7.505769e-001 3.046905e-001 4.642289e-001 5.466825e-001 3.570997e-001 -3.764375e-001
<VARIANCE> 39
 1.010090e+001 2.346607e+001 3.073228e+001 3.961325e+001 4.276085e+001 8.493248e+001 6.181340e+001 4.662761e+001 3.867212e+001 5.504781e+001 4.177539e+001 4.395858e+001 3.337247e+001 2.661540e+000 2.301419e+000 2.619371e+000 3.810667e+000 3.611030e+000 6.035451e+000 6.823603e+000 4.462972e+000 5.466755e+000 3.571784e+000 3.935729e+000 3.604821e+000 4.128636e+000 4.226139e-001 4.741956e-001 4.529434e-001 6.548042e-001 6.525929e-001 8.072051e-001 7.151117e-001 6.340095e-001 6.609207e-001 7.638146e-001 6.201375e-001 4.993255e-001 4.680574e-001
<GCONST> 1.298835e+002
<MIXTURE> 2 5.659550e-002
<MEAN> 39
 3.423699e+000 -6.492795e+000 -3.545177e+000 -7.789454e+000 -4.122134e+000 2.029551e+000 -8.509405e+000 -6.748917e-001 1.928815e+000 3.569408e+000 2.070327e+000 -1.062034e+001 7.326793e+001 -1.431718e+000 3.183769e+000 4.270522e-001 1.640561e+000 2.143140e+000 -1.072675e+000 1.502572e+000 -3.751538e-001 -2.601141e-001 7.751334e-001 -3.793019e-001 1.686515e+000 -2.530533e+000 -9.506029e-001 5.120522e-001 1.032211e-001 5.076678e-001 2.154718e-001 -2.711019e-001 6.528237e-001 8.290041e-002 3.240817e-001 -9.507422e-002 -1.421003e-001 6.513838e-001 -5.877316e-001
<VARIANCE> 39
 1.191722e+001 2.815306e+001 2.578931e+001 5.239098e+001 3.619559e+001 4.941005e+001 5.319781e+001 4.492502e+001 3.940556e+001 4.873724e+001 4.489932e+001 2.660552e+001 4.680411e+001 1.857401e+000 1.902460e+000 1.679670e+000 2.391279e+000 2.582120e+000 2.850124e+000 3.619230e+000 3.646313e+000 3.009267e+000 3.106239e+000 2.792556e+000 2.146231e+000 2.355404e+000 4.191521e-001 3.628272e-001 2.858150e-001 3.960693e-001 4.559886e-001 5.573585e-001 5.876012e-001 5.729768e-001 5.604796e-001 5.347768e-001 5.229440e-001 4.963241e-001 3.302186e-001
<GCONST> 1.203906e+002
<MIXTURE> 3 5.359641e-002
<MEAN> 39
 2.563513e-001 -9.447022e+000 -3.598505e+000 -8.091316e+000 -3.978229e+000 -5.347546e+000 -3.307528e+000 -1.061548e+000 5.260270e+000 -3.799184e+000 -4.946001e+000 -8.071082e+000 7.738194e+001 -1.186254e-001 1.394775e+000 1.924921e+000 1.571300e+000 -9.731158e-001 -1.238721e+000 -5.372342e-001 6.412339e-001 -8.442125e-001 -5.459443e-002 8.073513e-001 1.016232e+000 -1.279846e+000 -2.074923e-001 6.565564e-001 4.300056e-001 3.300816e-001 2.212278e-002 2.449106e-001 -1.570195e-001 -1.986126e-001 -6.052874e-001 3.440087e-001 3.086744e-001 2.710354e-001 -6.466313e-001
<VARIANCE> 39
 1.284233e+001 2.104588e+001 3.447366e+001 5.319467e+001 5.949605e+001 9.931172e+001 6.894591e+001 7.302266e+001 4.686114e+001 7.802240e+001 5.514060e+001 3.517616e+001 3.822884e+001 7.801672e-001 1.667795e+000 2.071715e+000 2.423602e+000 3.112107e+000 4.320702e+000 3.503558e+000 4.093547e+000 3.553336e+000 3.690899e+000 2.899523e+000 2.890135e+000 1.334214e+000 2.143657e-001 2.518224e-001 3.530853e-001 4.600414e-001 5.200592e-001 8.078574e-001 5.724215e-001 8.166451e-001 6.174896e-001 6.486365e-001 5.384701e-001 4.432308e-001 2.783909e-001
<GCONST> 1.235533e+002
<MIXTURE> 4 5.103081e-002
<MEAN> 39
 1.074259e-002 -6.899765e+000 -3.170272e+000 -1.105392e+001 -5.812380e+000 -6.650607e+000 -7.272723e+000 4.373651e+000 -5.186900e+000 -1.294531e+000 -1.292029e+001 -8.382394e-001 7.214670e+001 -1.160185e+000 3.638721e+000 1.490476e+000 2.878443e+000 1.415115e+000 -4.749730e-001 1.992544e+000 -9.587884e-001 2.261084e+000 -2.783168e-001 2.312136e+000 6.415475e-002 -3.252590e+000 -7.922866e-001 2.584638e-001 5.760861e-002 5.389320e-001 4.458705e-001 5.680319e-001 7.656872e-001 1.703603e-002 7.843102e-001 1.547860e-001 1.008851e+000 -1.072170e-001 -7.706080e-001
<VARIANCE> 39
 9.382266e+000 3.237229e+001 4.284313e+001 4.491281e+001 5.531289e+001 5.394689e+001 4.961670e+001 3.197554e+001 5.036703e+001 5.746770e+001 3.817387e+001 3.908311e+001 2.541304e+001 1.877532e+000 2.246879e+000 1.999622e+000 3.009157e+000 3.576971e+000 3.202045e+000 4.292601e+000 3.263205e+000 3.541396e+000 3.280387e+000 2.951392e+000 2.883265e+000 2.679314e+000 3.864410e-001 4.203637e-001 5.313253e-001 5.197597e-001 6.880372e-001 7.211934e-001 6.765908e-001 6.907704e-001 8.883939e-001 8.269191e-001 6.721333e-001 5.471812e-001 4.168212e-001
<GCONST> 1.259815e+002
<MIXTURE> 5 8.808441e-002
<MEAN> 39
 -2.223600e-002 -5.027769e+000 -8.881370e+000 -9.546090e+000 -6.902137e-001 4.732288e+000 -5.137138e+000 -1.715446e+000 -4.964661e-001 4.039869e-001 -4.041278e+000 -5.829016e+000 6.809971e+001 5.620005e-002 8.349418e-001 5.217079e-001 2.865144e-001 -2.543000e-001 8.694839e-002 1.815506e-001 -1.867027e-001 -8.296624e-002 -8.416848e-003 4.844518e-001 4.952219e-001 -9.355037e-001 -5.211246e-002 1.265723e-001 4.363346e-001 1.405644e-001 -1.874370e-001 -2.350949e-001 -4.021747e-002 -1.491279e-002 1.024579e-002 5.888919e-002 5.789850e-002 9.345278e-002 -1.108036e-001
<VARIANCE> 39
 2.067416e+001 2.406541e+001 2.583858e+001 7.409894e+001 6.578696e+001 4.741795e+001 5.904046e+001 4.645391e+001 4.822239e+001 5.836871e+001 6.106543e+001 4.071825e+001 6.044110e+001 6.962683e-001 1.392317e+000 1.535929e+000 2.139317e+000 2.840033e+000 2.653759e+000 2.420700e+000 2.889690e+000 2.786501e+000 2.511264e+000 2.290415e+000 2.054693e+000 9.263645e-001 1.400526e-001 1.772168e-001 2.550786e-001 3.191268e-001 3.894368e-001 3.706802e-001 4.441133e-001 4.479247e-001 4.637220e-001 4.253363e-001 4.114659e-001 3.745634e-001 2.267033e-001
<GCONST> 1.150784e+002
<MIXTURE> 6 7.148126e-002
<MEAN> 39
 3.147541e+000 -8.401418e+000 -3.871202e+000 -1.267806e+001 -6.618900e+000 5.099020e+000 -1.022202e+001 -1.990842e+000 9.808371e-001 4.447293e+000 -7.401178e-001 -7.676225e+000 7.370910e+001 2.820147e-001 2.033697e+000 6.283926e-001 1.459051e+000 -2.041524e-001 -3.266503e-001 7.084697e-001 -1.603092e+000 -1.311151e+000 -2.857046e-001 1.261945e+000 1.113539e+000 -1.860578e+000 -2.778203e-001 5.132423e-001 2.475611e-001 7.277521e-001 1.990847e-001 -5.305969e-001 2.602701e-001 -6.308926e-002 -1.788031e-001 -3.337918e-001 -1.902051e-001 1.358556e-001 -4.229624e-001
<VARIANCE> 39
 1.510926e+001 3.394939e+001 2.962502e+001 6.461371e+001 5.019977e+001 6.035637e+001 5.102512e+001 4.057853e+001 4.118271e+001 4.250530e+001 5.957645e+001 3.000941e+001 3.520369e+001 4.938119e-001 1.351837e+000 1.496780e+000 3.580256e+000 2.147418e+000 2.795553e+000 2.685647e+000 2.434662e+000 3.676385e+000 2.501669e+000 2.641894e+000 2.080784e+000 8.820156e-001 7.999238e-002 2.072848e-001 2.657857e-001 3.509824e-001 3.516409e-001 4.541107e-001 3.794814e-001 4.176823e-001 4.763289e-001 4.057715e-001 4.621468e-001 3.516895e-001 1.366423e-001
<GCONST> 1.127871e+002
<MIXTURE> 7 9.663524e-002
<MEAN> 39
 2.236825e-001 4.746937e-001 -4.698748e+000 -5.729761e+000 2.411555e+000 2.409643e+000 -3.659487e+000 -2.291808e+000 1.029325e+000 4.165054e+000 -2.453099e+000 -5.051773e+000 6.415082e+001 -1.232609e+000 1.691683e+000 6.093221e-001 2.136695e+000 1.140170e+000 -5.944708e-002 1.741453e+000 5.505261e-001 9.610378e-001 4.298274e-002 8.511240e-001 9.281546e-001 -3.241426e+000 -3.249440e-001 -4.991699e-001 -5.429916e-002 -1.060655e-001 -2.824638e-001 2.733209e-002 1.238526e-001 3.463109e-001 2.264208e-001 -1.699245e-001 1.156858e-001 4.520655e-002 1.484495e-001
<VARIANCE> 39
 1.283409e+001 1.865612e+001 2.241231e+001 5.220299e+001 4.294271e+001 4.722424e+001 4.106487e+001 3.775248e+001 3.618139e+001 4.617252e+001 5.142482e+001 2.929379e+001 4.681280e+001 1.260540e+000 2.041453e+000 1.855826e+000 2.843343e+000 2.674213e+000 3.150052e+000 3.169213e+000 2.948146e+000 3.298286e+000 3.248492e+000 3.457025e+000 2.971239e+000 2.706407e+000 2.293662e-001 2.441183e-001 2.775866e-001 4.318728e-001 4.379192e-001 4.962870e-001 5.118868e-001 4.667304e-001 5.114273e-001 4.883247e-001 5.563210e-001 4.075392e-001 3.263098e-001
<GCONST> 1.184836e+002
<MIXTURE> 8 5.625505e-002
<MEAN> 39
 2.826980e-001 -1.028831e+001 4.267304e+000 -6.930881e+000 -9.277727e+000 -5.374661e+000 -1.170202e+001 7.965299e+000 -8.339898e-001 -9.140760e-001 -2.902336e+000 -4.932699e+000 7.387219e+001 -4.797022e-001 2.788260e+000 1.175009e+000 1.853138e+000 4.987838e-001 -7.720101e-001 7.903448e-001 -1.111017e+000 -7.907341e-001 -2.873118e-001 6.226673e-001 1.143332e+000 -2.443709e+000 -2.018705e-001 5.438480e-001 -4.761776e-001 1.857247e-001 4.453515e-001 3.722891e-001 5.926722e-001 -9.285402e-001 2.162113e-001 1.917640e-001 -1.308314e-002 -1.848088e-001 -5.997794e-001
<VARIANCE> 39
 1.511879e+001 5.522260e+001 4.376382e+001 8.097755e+001 7.481049e+001 7.532471e+001 6.498743e+001 5.482080e+001 6.275427e+001 5.404220e+001 4.854237e+001 2.916924e+001 3.764823e+001 1.252548e+000 1.829496e+000 2.647258e+000 3.439082e+000 3.812182e+000 3.838794e+000 3.687298e+000 4.102461e+000 5.024945e+000 4.072154e+000 3.157276e+000 3.023630e+000 1.920773e+000 2.482903e-001 4.090775e-001 4.479755e-001 5.392480e-001 7.666050e-001 7.611088e-001 7.662001e-001 6.525648e-001 9.507257e-001 6.493590e-001 5.434906e-001 4.811973e-001 2.734028e-001
<GCONST> 1.287108e+002
<MIXTURE> 9 9.078598e-002
<MEAN> 39
 -3.038211e-001 -7.993700e-001 -6.693717e+000 -7.618930e+000 -5.737856e-001 1.701534e+000 -6.783353e+000 -3.196735e+000 4.703880e-001 4.418157e+000 -4.364738e+000 -6.784811e+000 6.382024e+001 -6.605555e-001 1.421808e+000 -2.571988e-001 1.630132e+000 2.849784e-001 -1.084200e-001 1.523052e+000 -7.921945e-002 5.766690e-001 -5.259732e-001 6.389764e-001 4.501331e-001 -3.012817e+000 -2.409240e-001 -5.755286e-001 -8.331526e-002 -3.639850e-001 -3.077596e-001 -1.096858e-002 -1.262798e-001 2.642009e-001 1.947284e-002 -2.590397e-001 -3.023881e-002 1.245780e-002 3.909566e-001
<VARIANCE> 39
 1.785192e+001 2.213345e+001 3.029974e+001 4.563179e+001 4.626813e+001 5.632393e+001 5.780335e+001 4.635344e+001 4.805473e+001 4.952075e+001 5.213640e+001 2.879871e+001 4.517782e+001 1.713821e+000 2.000671e+000 2.814351e+000 2.750024e+000 3.211230e+000 3.587461e+000 3.594730e+000 3.361542e+000 3.656294e+000 3.018344e+000 3.019360e+000 2.778977e+000 2.013138e+000 2.380417e-001 2.356935e-001 3.358603e-001 4.312052e-001 4.946666e-001 5.514918e-001 6.096618e-001 5.710526e-001 6.413734e-001 4.945106e-001 5.694795e-001 4.550171e-001 3.663469e-001
<GCONST> 1.223192e+002
<MIXTURE> 10 6.311999e-002
<MEAN> 39
 -1.513600e+000 -6.436355e+000 -1.142086e+001 -1.197793e+001 -2.985243e+000 4.228382e+000 -8.529818e+000 -3.062778e+000 -1.679101e+000 -1.454529e+000 -5.175455e+000 -6.827697e+000 6.828989e+001 3.010938e-001 9.855632e-001 3.942429e-001 -3.871438e-002 -6.749250e-001 -4.184256e-002 -4.911738e-002 -4.339905e-001 -2.430194e-001 4.679644e-002 4.213437e-001 3.010730e-001 -1.054841e+000 2.576880e-002 1.259267e-001 4.857243e-001 6.474275e-002 -2.307025e-001 -2.497148e-001 -9.810498e-002 1.050086e-002 -9.388005e-002 2.318477e-002 -1.177443e-002 8.666708e-002 -7.686051e-002
<VARIANCE> 39
 3.047477e+001 3.168567e+001 2.900939e+001 6.707066e+001 5.698008e+001 5.917990e+001 6.252658e+001 4.770305e+001 5.336361e+001 5.944542e+001 6.699269e+001 4.099838e+001 1.162346e+002 8.236811e-001 1.450144e+000 1.928669e+000 2.125318e+000 2.408265e+000 2.694890e+000 2.621690e+000 2.878296e+000 2.975671e+000 2.757842e+000 2.409148e+000 2.604195e+000 1.046942e+000 1.508972e-001 1.709822e-001 2.581011e-001 3.197013e-001 3.785838e-001 3.745382e-001 4.283536e-001 4.583970e-001 4.863854e-001 4.376530e-001 4.196109e-001 4.357523e-001 2.682048e-001
<GCONST> 1.181545e+002
<MIXTURE> 11 6.271499e-002
<MEAN> 39
 -1.908007e+000 -1.073737e+001 -5.616386e+000 -1.077547e+001 -5.544794e+000 -8.025727e+000 -4.860376e+000 -2.237812e-002 8.703572e-001 -5.357579e+000 -8.524954e+000 -6.626063e+000 7.663434e+001 2.889078e-002 1.355112e+000 2.086698e+000 9.068281e-001 -1.421916e+000 -1.165121e+000 -2.932280e-001 1.680188e-002 -7.781712e-001 2.736667e-001 4.405767e-001 7.645106e-001 -1.117148e+000 -2.892739e-002 5.958049e-001 5.203037e-001 2.091551e-001 -6.573430e-002 1.535596e-001 -1.403124e-001 -3.874014e-001 -4.477849e-001 3.964967e-001 2.468401e-001 8.908564e-002 -5.560696e-001
<VARIANCE> 39
 1.433691e+001 2.566100e+001 3.841842e+001 4.314201e+001 6.638449e+001 9.432421e+001 7.820871e+001 6.281477e+001 5.422805e+001 5.925352e+001 5.150751e+001 3.939206e+001 3.192680e+001 8.101946e-001 1.694686e+000 2.018183e+000 2.203898e+000 2.782422e+000 3.557499e+000 3.656908e+000 4.168964e+000 3.330992e+000 3.597201e+000 2.931467e+000 2.976732e+000 1.150074e+000 1.797532e-001 2.503560e-001 3.356457e-001 4.103115e-001 5.474168e-001 5.967690e-001 5.623377e-001 6.764642e-001 5.684215e-001 6.189184e-001 5.463315e-001 4.194717e-001 1.916672e-001
<GCONST> 1.216704e+002
<MIXTURE> 12 6.277000e-002
<MEAN> 39
 1.651314e+000 -9.680168e+000 -5.500051e+000 -1.473725e+001 -7.637176e+000 3.920379e+000 -1.361964e+001 -2.706991e+000 -1.141993e+000 3.023902e+000 -3.094482e+000 -9.181271e+000 7.188752e+001 4.705563e-001 2.103545e+000 6.770126e-001 1.563485e+000 -4.786658e-001 -6.234468e-001 5.118675e-001 -1.852464e+000 -1.058161e+000 -1.851692e-001 1.017963e+000 6.909688e-001 -2.001285e+000 -2.013338e-001 4.044271e-001 1.754497e-001 5.756634e-001 1.563985e-001 -4.273556e-001 2.972079e-001 -2.693461e-002 -1.379906e-001 -3.528350e-001 -2.216907e-001 1.485326e-001 -3.365090e-001
<VARIANCE> 39
 1.979908e+001 3.976576e+001 4.290142e+001 6.306559e+001 4.584594e+001 6.081242e+001 5.299469e+001 4.453490e+001 5.378864e+001 6.099866e+001 7.971162e+001 2.938582e+001 3.826731e+001 6.942039e-001 1.316483e+000 2.005364e+000 2.876602e+000 2.046585e+000 2.704538e+000 2.535758e+000 2.477903e+000 3.633725e+000 2.883796e+000 2.791958e+000 2.529222e+000 9.195412e-001 8.075012e-002 1.958714e-001 2.890978e-001 3.010726e-001 3.180662e-001 4.163592e-001 3.847361e-001 4.082348e-001 4.841839e-001 4.694217e-001 4.883266e-001 3.671444e-001 1.269525e-001
<GCONST> 1.151543e+002
<MIXTURE> 13 5.519739e-002
<MEAN> 39
 -9.047959e-001 -7.337548e+000 -3.020168e+000 -1.222503e+001 -7.143842e+000 -9.107961e+000 -9.047986e+000 3.677102e+000 -5.518888e+000 -6.426436e-001 -1.435018e+001 -1.771307e-001 7.469772e+001 -1.582459e-001 3.329258e+000 1.527093e+000 2.436125e+000 4.235516e-001 -8.533845e-001 6.154721e-001 -1.757562e+000 1.009932e+000 -4.650889e-001 1.612671e+000 -4.026610e-001 -2.970506e+000 -3.831815e-001 3.404849e-001 -1.920611e-002 5.017021e-001 3.810224e-001 5.917752e-001 4.516879e-001 -3.030158e-001 3.924589e-001 -2.416965e-001 6.884181e-001 -4.122213e-001 -6.161340e-001
<VARIANCE> 39
 1.040044e+001 3.033276e+001 4.094693e+001 3.622577e+001 5.594620e+001 5.044165e+001 5.506515e+001 3.701360e+001 5.093205e+001 5.515454e+001 3.397327e+001 3.857779e+001 2.361415e+001 1.755531e+000 1.837632e+000 2.107025e+000 2.574133e+000 3.398782e+000 3.199759e+000 3.905659e+000 3.679687e+000 3.393754e+000 3.212985e+000 2.790677e+000 2.984276e+000 2.107686e+000 3.334044e-001 3.875713e-001 5.054441e-001 4.432923e-001 6.439059e-001 6.484113e-001 6.230050e-001 7.154447e-001 7.546577e-001 7.284836e-001 5.665254e-001 5.271137e-001 3.153840e-001
<GCONST> 1.235628e+002
<MIXTURE> 14 5.645364e-002
<MEAN> 39
 2.419853e+000 -7.487470e+000 -4.511324e+000 -9.298731e+000 -6.365098e+000 1.318758e+000 -1.063477e+001 -1.447616e+000 8.708557e-001 4.192586e+000 8.068345e-001 -1.153117e+001 7.140199e+001 -7.987657e-001 3.194745e+000 4.872728e-001 1.914312e+000 1.626209e+000 -1.137748e+000 1.330079e+000 -1.073507e+000 -3.981655e-001 3.512416e-001 -2.623753e-001 1.373235e+000 -2.699292e+000 -6.744523e-001 4.685268e-001 9.714024e-002 4.502893e-001 2.727083e-001 -1.547658e-001 5.948310e-001 6.855001e-002 1.832429e-001 -2.933703e-001 -2.436513e-001 5.492941e-001 -5.776266e-001
<VARIANCE> 39
 2.035451e+001 3.079461e+001 3.392127e+001 5.134826e+001 3.966480e+001 5.229047e+001 5.671973e+001 4.333102e+001 4.475397e+001 4.728726e+001 5.819070e+001 2.836145e+001 4.926097e+001 1.518180e+000 1.588419e+000 2.173332e+000 2.595243e+000 2.405223e+000 2.969577e+000 3.395918e+000 3.306365e+000 3.035936e+000 2.779442e+000 2.889019e+000 1.996281e+000 2.056058e+000 2.899928e-001 3.491198e-001 3.919461e-001 4.294046e-001 4.748873e-001 5.361593e-001 5.864016e-001 5.575907e-001 5.882699e-001 5.219895e-001 5.600853e-001 4.554622e-001 3.817713e-001
<GCONST> 1.215207e+002
<MIXTURE> 15 4.189904e-002
<MEAN> 39
 6.718185e-001 -1.153747e+001 1.309670e+000 -1.413710e+001 -6.862059e+000 -3.188260e+000 -1.406033e+001 4.938146e+000 -4.734776e+000 -2.657501e+000 -4.945879e+000 -5.406596e+000 7.195007e+001 -4.007371e-002 2.995903e+000 4.521115e-001 2.091740e+000 -1.803705e-001 -1.035415e+000 6.294841e-001 -1.901591e+000 -8.646835e-002 2.304552e-001 6.212524e-002 2.147750e-001 -2.645581e+000 -1.028144e-001 3.344543e-001 -3.848512e-001 3.626590e-001 3.351382e-002 2.536117e-002 4.347484e-001 -6.581044e-001 2.150689e-001 1.922380e-001 -1.655347e-001 -1.710381e-001 -3.725890e-001
<VARIANCE> 39
 2.545931e+001 6.152439e+001 5.509074e+001 8.986402e+001 7.545890e+001 1.080534e+002 9.489201e+001 6.440520e+001 6.969348e+001 5.871361e+001 6.160406e+001 3.874248e+001 3.295777e+001 1.179749e+000 2.202246e+000 4.883240e+000 3.996022e+000 4.135709e+000 4.608373e+000 4.012734e+000 4.424368e+000 5.602215e+000 4.964815e+000 3.857909e+000 3.560103e+000 1.501066e+000 2.000507e-001 3.979009e-001 5.337353e-001 6.482424e-001 8.479778e-001 7.972432e-001 8.301901e-001 7.396629e-001 8.782136e-001 7.226464e-001 6.442967e-001 5.667006e-001 2.450878e-001
<GCONST> 1.336169e+002
<MIXTURE> 16 5.215770e-002
<MEAN> 39
 -1.170558e+000 -2.649979e+000 -6.500719e+000 -1.029851e+001 -1.061059e-002 -8.553880e+000 -4.201089e+000 -5.793509e+000 8.541975e-001 -2.538436e+000 -8.433329e+000 -4.777099e+000 7.212205e+001 -1.189636e+000 2.991065e+000 1.259403e+000 3.272744e+000 3.991567e-001 8.432751e-001 6.834869e-001 5.071537e-001 1.065125e-001 1.620100e-001 1.442083e+000 3.282180e-001 -3.340877e+000 -6.561254e-001 -2.710662e-001 1.180213e-001 2.701744e-001 -5.193499e-002 6.321110e-001 3.538600e-001 6.585274e-001 7.609581e-002 1.637973e-001 3.839087e-001 1.425801e-001 -3.797188e-001
<VARIANCE> 39
 1.407969e+001 2.588401e+001 3.354116e+001 4.346363e+001 4.224447e+001 7.832108e+001 6.463176e+001 4.652113e+001 4.023246e+001 6.269771e+001 6.342252e+001 4.503319e+001 3.520697e+001 2.995460e+000 2.045560e+000 2.441030e+000 3.075093e+000 3.432471e+000 4.349202e+000 5.378080e+000 3.943487e+000 4.663261e+000 3.389204e+000 3.463763e+000 3.111126e+000 3.348509e+000 5.116925e-001 4.662617e-001 4.946878e-001 6.972393e-001 6.327572e-001 7.114050e-001 7.507057e-001 6.559698e-001 6.661590e-001 7.970416e-001 7.405308e-001 5.310957e-001 4.822129e-001
<GCONST> 1.299573e+002
<TRANSP> 5
 0.000000e+000 1.000000e+000 0.000000e+000 0.000000e+000 0.000000e+000
 0.000000e+000 5.264900e-001 4.735100e-001 0.000000e+000 0.000000e+000
 0.000000e+000 0.000000e+000 5.836950e-001 4.163050e-001 0.000000e+000
 0.000000e+000 0.000000e+000 0.000000e+000 5.490432e-001 4.509569e-001
 0.000000e+000 0.000000e+000 0.000000e+000 0.000000e+000 0.000000e+000
<ENDHMM>
~h "b"
<BEGINHMM>
<NUMSTATES> 5
<STATE> 2
<NUMMIXES> 16
<MIXTURE> 1 4.540610e-002
<MEAN> 39
 -1.251067e+000 7.044374e+000 7.397438e+000 5.441166e+000 -1.090412e+000 -3.041705e+000 -5.456855e+000 -6.324563e+000 -2.307897e+000 -6.908329e-001 1.700282e+000 -2.495612e+000 6.049148e+001 8.432246e-001 2.106983e+000 -3.576428e-001 5.652470e-001 1.648288e+000 1.439663e+000 1.134683e+000 -5.261704e-001 -4.601591e-001 1.385279e-001 2.254645e-001 -2.277315e-001 -2.829183e+000 -5.878503e-001 -1.721092e-001 3.005822e-001 -2.366114e-001 -3.847305e-001 -1.930622e-001 1.509142e-001 2.489662e-001 -1.332902e-001 -1.723892e-001 -2.022971e-001 2.824381e-002 5.105171e-001
<VARIANCE> 39
 2.248302e+001 2.485526e+001 3.267879e+001 3.450148e+001 3.671016e+001 2.602535e+001 3.775342e+001 2.820560e+001 2.828642e+001 2.522395e+001 1.979007e+001 1.980791e+001 5.128729e+001 1.832542e+000 1.743221e+000 2.499444e+000 2.008942e+000 3.164670e+000 2.420397e+000 3.210033e+000 2.679048e+000 3.418174e+000 2.608701e+000 1.805803e+000 2.072282e+000 1.478074e+000 2.296553e-001 3.881336e-001 3.895495e-001 3.376344e-001 5.308681e-001 4.434047e-001 5.188876e-001 4.459414e-001 3.881423e-001 3.880027e-001 2.864880e-001 3.273537e-001 4.049375e-001
<GCONST> 1.136833e+002
<MIXTURE> 2 7.988710e-002
<MEAN> 39
 3.990673e+000 7.681706e+000 3.242920e+000 -4.976906e-001 -2.131198e+000 1.601342e+000 -3.607035e+000 -6.316307e+000 -4.813971e+000 -2.602370e+000 9.733818e-001 -3.727433e+000 5.959465e+001 -6.128833e-001 2.538503e+000 9.400245e-001 3.015922e+000 2.279696e+000 -6.246509e-001 1.625261e+000 5.375497e-002 -8.299128e-002 -4.667194e-001 -9.290996e-001 -1.615971e-001 -2.762321e+000 -2.363759e-001 -6.555035e-001 -5.381422e-002 -6.614256e-001 -5.120490e-001 -8.344324e-002 -4.045051e-001 1.886121e-001 1.852183e-001 2.889842e-001 1.225229e-001 -9.013546e-003 7.682132e-001
<VARIANCE> 39
 1.026131e+001 1.797840e+001 2.103420e+001 3.469195e+001 2.726048e+001 3.284343e+001 4.059413e+001 2.998720e+001 3.441322e+001 2.933060e+001 2.503687e+001 1.877863e+001 3.710226e+001 4.946201e-001 1.495052e+000 1.467324e+000 3.511579e+000 2.315163e+000 1.946445e+000 2.126536e+000 2.404176e+000 3.606952e+000 2.460459e+000 2.484532e+000 1.957153e+000 7.308970e-001 9.020257e-002 2.124657e-001 1.605212e-001 3.775418e-001 2.982056e-001 3.036233e-001 3.191395e-001 3.992384e-001 4.403312e-001 3.717625e-001 4.302851e-001 2.782116e-001 1.635833e-001
<GCONST> 1.050358e+002
<MIXTURE> 3 7.256133e-002
<MEAN> 39
 1.569983e+000 1.077324e+001 6.154148e+000 4.570456e+000 7.807745e-002 -7.913349e-001 -3.584633e+000 -7.281413e+000 -4.840001e+000 1.346787e-001 1.920520e+000 -3.048416e+000 5.650178e+001 -1.754724e-001 5.040795e-001 3.306095e-001 4.623509e-001 5.538408e-001 1.989411e-002 6.981213e-002 2.337760e-002 9.577210e-002 -1.366636e-002 2.787301e-002 1.348376e-001 -6.114727e-001 -2.201274e-001 -5.666275e-001 -1.837732e-001 -3.206395e-001 -3.075317e-001 -8.918492e-002 -9.298090e-002 1.995019e-001 1.035971e-001 -1.067870e-001 -1.213007e-001 9.343739e-002 6.166963e-001
<VARIANCE> 39
 1.434300e+001 1.163254e+001 2.795404e+001 3.142850e+001 2.719500e+001 2.863109e+001 2.615922e+001 2.856538e+001 3.336333e+001 2.255971e+001 2.098598e+001 2.438289e+001 5.015263e+001 3.406032e-001 4.379991e-001 6.881914e-001 8.733988e-001 1.015613e+000 1.079128e+000 1.343500e+000 1.342080e+000 1.431666e+000 1.462536e+000 1.267956e+000 1.414289e+000 2.646386e-001 1.303141e-001 1.983015e-001 2.520922e-001 3.093718e-001 3.070863e-001 3.147012e-001 3.176390e-001 3.350223e-001 4.061952e-001 2.978201e-001 2.452111e-001 3.462891e-001 2.186591e-001
<GCONST> 9.500343e+001
<MIXTURE> 4 5.364304e-002
<MEAN> 39
 2.145401e+000 8.575528e+000 5.647919e+000 1.576786e+000 -6.340368e-001 -5.993037e+000 -5.196482e+000 -5.601899e+000 -1.620615e+000 -1.289841e+000 -3.459140e+000 -8.110034e+000 5.666583e+001 -8.696084e-001 1.606011e+000 9.015685e-001 1.619469e+000 1.123573e+000 4.537424e-001 9.011570e-001 3.188875e-002 3.459857e-001 -6.911698e-001 -5.406168e-003 5.804053e-002 -1.852641e+000 -6.385422e-001 -1.436261e+000 -3.339080e-001 -9.878516e-001 -7.067398e-001 -1.523889e-001 -7.986218e-002 3.819351e-001 -1.403295e-001 1.302802e-001 1.274599e-001 6.828680e-001 1.761218e+000
<VARIANCE> 39
 1.169216e+001 1.808813e+001 2.033877e+001 2.651622e+001 2.440847e+001 3.139915e+001 2.865177e+001 2.781271e+001 2.748114e+001 2.636468e+001 2.094618e+001 1.615334e+001 2.996837e+001 9.890734e-001 2.029469e+000 1.551164e+000 2.853582e+000 2.315330e+000 2.360632e+000 1.975928e+000 2.387984e+000 2.671741e+000 2.329699e+000 2.503482e+000 2.090284e+000 1.558186e+000 3.150188e-001 2.624158e-001 3.732110e-001 5.451993e-001 5.210013e-001 5.886364e-001 4.670509e-001 5.760632e-001 5.273396e-001 5.467612e-001 4.778200e-001 3.197929e-001 3.266037e-001
<GCONST> 1.109939e+002
<MIXTURE> 5 8.561204e-002
<MEAN> 39
 6.091697e-001 7.466275e+000 4.602515e+000 1.215875e+000 -3.371898e+000 -2.166689e+000 -2.527294e+000 -2.892026e+000 -3.157728e+000 -3.990946e+000 -3.930306e+000 -5.981308e+000 5.943854e+001 -2.291854e-001 6.093228e-001 1.398603e-001 5.271731e-001 6.139184e-001 1.154369e-001 5.612779e-001 2.233540e-001 1.277068e-001 -1.731656e-001 -1.634094e-001 1.443020e-001 -7.423122e-001 -1.640060e-001 -5.729213e-001 -1.576269e-001 -4.757589e-001 -3.223402e-001 -9.784491e-002 -5.751338e-001 -1.887959e-001 4.682921e-002 3.362134e-001 4.072543e-001 2.711090e-001 6.866127e-001
<VARIANCE> 39
 2.337639e+001 2.350669e+001 2.242678e+001 2.577897e+001 2.850185e+001 3.065824e+001 3.505569e+001 2.449011e+001 3.173528e+001 1.812023e+001 1.842558e+001 2.054524e+001 3.280676e+001 2.203027e-001 5.136650e-001 6.340223e-001 9.265165e-001 1.121627e+000 1.181660e+000 1.424693e+000 1.400787e+000 1.860782e+000 1.556544e+000 1.558425e+000 1.365553e+000 2.485308e-001 1.196886e-001 1.748356e-001 2.243209e-001 3.637703e-001 3.642015e-001 3.375759e-001 3.559533e-001 3.134516e-001 4.235926e-001 3.429413e-001 3.099435e-001 3.048226e-001 1.847365e-001
<GCONST> 9.570467e+001
<MIXTURE> 6 9.176256e-002
<MEAN> 39
 4.698678e+000 1.945960e+000 1.145818e+000 -3.532303e+000 -4.278865e+000 -2.726426e+000 -8.782620e+000 -6.280960e+000 -4.878001e+000 -4.911768e-001 -1.581638e+000 -6.247323e+000 6.319363e+001 2.487240e-001 3.439467e+000 8.696662e-001 3.124474e+000 2.113788e+000 4.093102e-001 1.599313e+000 -1.039065e+000 -6.140970e-002 -1.312161e+000 2.533369e-002 -6.640621e-001 -3.918599e+000 -5.238158e-001 -1.470417e-001 1.431793e-001 -2.808716e-001 -2.308705e-001 -1.020884e-001 2.600498e-001 3.808548e-001 1.052696e-001 -1.360018e-001 -3.104186e-001 1.928476e-001 4.036798e-001
<VARIANCE> 39
 7.435897e+000 2.378631e+001 3.554317e+001 5.506551e+001 3.750227e+001 5.789108e+001 3.972683e+001 3.647054e+001 3.944085e+001 3.704604e+001 4.821936e+001 2.292173e+001 3.247459e+001 9.303346e-001 1.552388e+000 2.426702e+000 3.817027e+000 3.070970e+000 3.573606e+000 3.503288e+000 3.582286e+000 4.301278e+000 2.898649e+000 3.373152e+000 2.708994e+000 9.176112e-001 9.384219e-002 2.418329e-001 2.800125e-001 4.352071e-001 4.629812e-001 3.986617e-001 4.336081e-001 4.907805e-001 5.034686e-001 4.737371e-001 4.700116e-001 3.828302e-001 2.261939e-001
<GCONST> 1.155747e+002
<MIXTURE> 7 5.054990e-002
<MEAN> 39
 4.117247e+000 7.705552e+000 1.276892e+000 -3.254306e+000 -4.054669e+000 -6.331479e+000 -8.525808e+000 -8.310229e+000 -7.008627e+000 -6.623462e+000 -1.146970e+001 -1.114155e+001 6.184723e+001 -2.134882e-001 9.493540e-001 5.555067e-001 7.060012e-001 6.390874e-001 1.093094e-001 7.188392e-001 1.837949e-001 4.290953e-001 -4.987644e-001 3.465505e-001 -9.727209e-002 -1.033978e+000 -7.175086e-001 -7.995583e-001 -1.244740e-001 -4.537820e-001 -5.223289e-001 -1.251544e-001 -1.897704e-001 1.998745e-001 9.244709e-002 4.926631e-001 6.435184e-001 8.794166e-001 1.157284e+000
<VARIANCE> 39
 7.270868e+000 2.048673e+001 2.603247e+001 2.127689e+001 2.893051e+001 3.436134e+001 2.306403e+001 3.749269e+001 3.072597e+001 3.663776e+001 2.410887e+001 2.058797e+001 1.078335e+001 7.897039e-001 9.326102e-001 9.810622e-001 1.452692e+000 1.841978e+000 1.541499e+000 1.847678e+000 1.969553e+000 2.086498e+000 2.233471e+000 2.176854e+000 2.108176e+000 9.089019e-001 1.841351e-001 2.502141e-001 3.445291e-001 5.287517e-001 5.690112e-001 5.091224e-001 5.047592e-001 5.651562e-001 5.333354e-001 6.343567e-001 3.752690e-001 3.628618e-001 3.423510e-001
<GCONST> 1.062015e+002
<MIXTURE> 8 3.156529e-002
<MEAN> 39
 -1.203435e+000 9.622852e+000 6.933794e+000 7.501251e+000 7.563727e-002 -2.624033e+000 -1.228602e+000 -5.373559e+000 -6.893912e+000 -2.942817e+000 -1.332277e+000 -6.051250e+000 5.540091e+001 1.923274e+000 1.257151e+000 8.455774e-001 5.689711e-001 -4.885142e-001 -9.106789e-001 -1.056986e+000 -1.250683e+000 -9.618263e-001 -9.019437e-002 -3.203522e-002 -8.612507e-001 5.628628e-001 -5.452446e-001 -5.153387e-001 -4.670029e-001 -4.103937e-001 1.476354e-001 3.114263e-001 1.941129e-001 4.091720e-001 7.658011e-001 3.901688e-001 2.888785e-001 5.239419e-001 -2.531304e-003
<VARIANCE> 39
 2.103486e+001 2.001023e+001 2.371006e+001 2.889701e+001 3.709623e+001 4.008558e+001 3.599301e+001 3.197662e+001 4.472782e+001 3.293742e+001 3.681153e+001 2.635516e+001 5.184226e+001 2.012653e+000 1.667522e+000 1.762937e+000 2.115745e+000 2.228856e+000 2.911369e+000 2.552378e+000 3.555364e+000 4.357286e+000 2.858619e+000 2.606481e+000 2.278354e+000 2.574027e+000 3.576124e-001 3.298343e-001 2.558290e-001 3.492675e-001 4.425511e-001 6.432015e-001 5.019280e-001 6.185419e-001 6.316253e-001 4.937883e-001 5.900467e-001 4.443942e-001 3.517400e-001
<GCONST> 1.180475e+002
<MIXTURE> 9 8.991927e-002
<MEAN> 39
 2.886635e+000 5.817189e+000 1.741985e+000 -5.403163e-001 -3.641946e+000 -4.026985e-002 -5.749894e+000 -7.372700e+000 -7.270073e+000 -3.782612e+000 -5.008432e-001 -5.562136e+000 5.827935e+001 -5.649815e-001 2.377951e+000 1.115355e+000 2.656521e+000 1.520355e+000 -4.875306e-001 1.608804e+000 -1.325763e-001 -7.417741e-002 -8.580287e-001 -1.053864e+000 -3.273726e-001 -2.570373e+000 -2.387119e-001 -6.990404e-001 -1.735160e-001 -7.625104e-001 -4.490612e-001 -1.540748e-001 -4.364336e-001 3.023358e-001 3.850481e-001 4.177701e-001 1.566241e-002 7.924201e-003 8.649566e-001
<VARIANCE> 39
 1.179134e+001 2.111639e+001 2.096744e+001 4.239159e+001 3.542688e+001 4.380059e+001 4.016424e+001 3.075864e+001 4.175863e+001 3.545301e+001 4.243346e+001 2.165222e+001 4.559909e+001 6.689734e-001 1.173215e+000 1.535733e+000 2.991122e+000 2.401397e+000 2.190979e+000 2.321128e+000 2.476664e+000 3.850198e+000 3.043750e+000 2.485205e+000 2.109991e+000 8.058219e-001 1.008583e-001 2.107859e-001 1.755754e-001 3.597305e-001 3.337864e-001 3.978993e-001 3.888471e-001 4.427270e-001 5.388160e-001 4.129338e-001 5.214723e-001 3.071834e-001 1.589119e-001
<GCONST> 1.094231e+002
<MIXTURE> 10 7.606842e-002
<MEAN> 39
 3.555528e+000 1.659333e+000 1.021993e+000 -4.933233e+000 -5.619688e+000 -5.744811e+000 -1.088677e+001 -7.595767e+000 -6.417614e+000 -3.562558e+000 -7.131142e+000 -8.729411e+000 6.272661e+001 4.163774e-001 3.381082e+000 5.548034e-001 3.034674e+000 1.619517e+000 3.470563e-001 1.164223e+000 -1.108326e+000 6.263521e-002 -1.723360e+000 -5.903831e-001 -1.496376e+000 -3.651685e+000 -5.383372e-001 -3.337119e-001 7.696850e-002 -5.763159e-001 -3.312419e-001 -6.292240e-002 2.409317e-001 4.026873e-001 6.212709e-002 4.194919e-002 -2.781452e-002 3.987630e-001 6.224368e-001
<VARIANCE> 39
 1.167714e+001 3.138931e+001 4.281621e+001 3.615432e+001 3.583318e+001 7.064100e+001 3.986939e+001 3.609422e+001 4.221307e+001 4.036098e+001 5.084179e+001 2.850589e+001 2.346430e+001 1.017785e+000 1.716001e+000 3.495440e+000 3.678350e+000 3.808244e+000 4.106043e+000 4.110318e+000 4.399278e+000 4.007474e+000 3.381181e+000 3.117554e+000 3.232678e+000 1.037278e+000 1.285446e-001 2.851385e-001 3.536458e-001 4.051190e-001 4.952605e-001 4.733349e-001 5.094503e-001 5.593544e-001 6.245980e-001 5.534721e-001 5.667921e-001 4.720944e-001 2.311284e-001
<GCONST> 1.198180e+002
<MIXTURE> 11 7.266336e-002
<MEAN> 39
 -2.215385e-001 5.872173e+000 2.674315e+000 -3.868254e-001 -6.446691e+000 -3.700289e+000 -4.246285e+000 -4.890066e+000 -5.100187e+000 -4.249265e+000 -5.968524e+000 -7.151173e+000 5.778704e+001 -2.069007e-001 5.954741e-001 3.205708e-002 4.066547e-001 5.372943e-001 4.399226e-002 5.895293e-001 2.323493e-001 2.726969e-003 -4.394215e-001 -2.996712e-001 1.061095e-002 -6.876584e-001 -1.654092e-001 -5.810858e-001 -5.124359e-002 -4.019738e-001 -2.998583e-001 -5.263487e-002 -5.808319e-001 -1.228918e-001 1.327825e-001 3.698045e-001 3.198084e-001 2.101032e-001 6.649014e-001
<VARIANCE> 39
 2.620378e+001 2.270017e+001 1.765723e+001 2.340373e+001 3.417821e+001 3.970094e+001 3.092294e+001 2.325809e+001 2.735587e+001 2.407689e+001 2.615272e+001 2.240631e+001 4.310921e+001 1.965154e-001 5.538918e-001 6.727439e-001 8.776118e-001 1.172741e+000 1.186792e+000 1.348386e+000 1.227429e+000 1.567018e+000 1.455364e+000 1.418670e+000 1.126218e+000 2.350746e-001 1.232440e-001 1.707857e-001 2.537169e-001 3.573332e-001 3.892920e-001 3.445124e-001 3.716816e-001 3.043027e-001 4.050443e-001 3.506786e-001 3.126234e-001 2.493301e-001 1.847211e-001
<GCONST> 9.580035e+001
<MIXTURE> 12 8.363110e-002
<MEAN> 39
 1.322555e+000 9.032578e+000 4.314426e+000 2.413712e+000 -2.103967e+000 -2.732802e+000 -6.394001e+000 -8.035354e+000 -5.199852e+000 -4.598012e-001 6.602377e-001 -5.212783e+000 5.718972e+001 -2.819956e-001 6.047851e-001 2.804142e-001 4.824585e-001 4.905556e-001 -3.970855e-002 1.282686e-001 -4.889022e-002 9.116139e-002 -1.456091e-001 -6.306743e-002 1.643516e-001 -7.162262e-001 -2.947565e-001 -8.236102e-001 -7.355496e-002 -4.167627e-001 -3.827514e-001 -1.732269e-001 -1.107372e-001 3.566099e-001 1.214926e-001 -1.454416e-001 -2.286144e-001 1.805099e-001 9.055356e-001
<VARIANCE> 39
 1.519391e+001 1.566718e+001 2.706660e+001 3.740921e+001 2.759888e+001 3.373467e+001 3.273268e+001 2.657285e+001 3.254646e+001 2.158465e+001 2.250995e+001 2.256040e+001 5.435479e+001 3.154314e-001 5.034361e-001 6.175155e-001 8.987241e-001 9.854744e-001 1.087471e+000 1.160490e+000 1.344580e+000 1.592703e+000 1.521466e+000 1.390021e+000 1.308364e+000 2.324507e-001 1.536506e-001 2.102547e-001 2.807873e-001 3.796539e-001 3.400344e-001 3.615777e-001 3.546690e-001 3.567659e-001 4.469705e-001 3.024080e-001 2.598393e-001 3.310501e-001 2.134034e-001
<GCONST> 9.673073e+001
<MIXTURE> 13 5.181556e-002
<MEAN> 39
 9.646084e-001 6.237148e+000 5.148536e+000 -3.811317e-001 -2.919250e+000 -8.626641e+000 -7.408254e+000 -7.952141e+000 -3.128903e+000 -3.319954e+000 -6.807240e+000 -1.069934e+001 5.628708e+001 -1.018582e+000 1.554477e+000 8.742362e-001 1.724459e+000 6.939995e-001 3.111301e-001 7.148271e-001 -4.535717e-001 1.088713e-001 -1.117078e+000 -1.445505e-001 -1.453901e-001 -1.573336e+000 -4.905288e-001 -1.539086e+000 -3.481990e-001 -1.255567e+000 -6.836610e-001 -2.661917e-001 -7.044361e-002 7.421790e-001 -1.502461e-001 2.894967e-001 2.212145e-001 9.256181e-001 1.927974e+000
<VARIANCE> 39
 8.922686e+000 1.653739e+001 1.832134e+001 1.567544e+001 2.129037e+001 2.757206e+001 2.956944e+001 2.938287e+001 2.654835e+001 2.648328e+001 2.684536e+001 2.076484e+001 1.751537e+001 8.624685e-001 2.041584e+000 1.206637e+000 2.314744e+000 1.832738e+000 2.049683e+000 2.126837e+000 2.626325e+000 2.560424e+000 2.068901e+000 2.020356e+000 2.253936e+000 1.946392e+000 2.908620e-001 2.704695e-001 4.044571e-001 5.015345e-001 5.790924e-001 5.298637e-001 5.252638e-001 7.404463e-001 5.839237e-001 5.372241e-001 5.434868e-001 4.484631e-001 3.053811e-001
<GCONST> 1.096807e+002
<MIXTURE> 14 5.298130e-002
<MEAN> 39
 -3.322687e-001 6.382174e+000 6.160579e+000 3.870149e+000 -5.287979e+000 -4.636048e+000 -8.541289e+000 -6.227836e+000 -3.825672e+000 -1.142632e+000 3.847920e-002 -4.591261e+000 5.885952e+001 7.700014e-001 1.852852e+000 -5.327199e-001 3.266013e-001 1.092230e+000 9.613325e-001 9.971306e-001 -3.403657e-001 -3.167400e-001 2.134907e-005 -2.209243e-001 -3.666610e-001 -2.366184e+000 -6.179017e-001 -2.793110e-001 1.532166e-001 -2.348164e-001 -1.965923e-001 -1.706548e-001 5.371596e-002 1.040729e-001 -1.286450e-001 -2.110811e-001 -2.233665e-001 1.165805e-001 6.764397e-001
<VARIANCE> 39
 2.303885e+001 3.393456e+001 3.924290e+001 4.148739e+001 5.420466e+001 3.499289e+001 4.772972e+001 2.888933e+001 3.010978e+001 2.533011e+001 2.699768e+001 2.432513e+001 5.911091e+001 1.581756e+000 1.431045e+000 2.005835e+000 1.976133e+000 2.759902e+000 2.478158e+000 3.209739e+000 2.753474e+000 3.218713e+000 2.633627e+000 2.059434e+000 2.115131e+000 1.462963e+000 2.429614e-001 4.235128e-001 4.336958e-001 3.358460e-001 5.439060e-001 5.134590e-001 5.338553e-001 4.778220e-001 4.285595e-001 4.019606e-001 3.422032e-001 3.359984e-001 4.260971e-001
<GCONST> 1.163826e+002
<MIXTURE> 15 3.851209e-002
<MEAN> 39
 4.604198e+000 6.782800e+000 -7.028112e-001 -4.313803e+000 -5.421977e+000 -8.079514e+000 -1.077010e+001 -8.357075e+000 -6.959397e+000 -7.597026e+000 -1.205166e+001 -1.085510e+001 6.152929e+001 -2.079172e-001 1.353456e+000 5.449653e-001 7.190073e-001 3.474098e-001 -8.688879e-002 5.503881e-001 -1.718486e-001 9.921151e-002 -8.402900e-001 -1.732475e-001 -4.556045e-001 -1.191935e+000 -6.284651e-001 -8.918393e-001 -3.450251e-002 -6.250953e-001 -5.200490e-001 4.623178e-002 -4.794746e-002 2.528629e-001 5.495821e-002 6.099111e-001 6.669629e-001 7.360253e-001 1.161160e+000
<VARIANCE> 39
 1.319443e+001 2.363995e+001 5.163261e+001 2.462059e+001 3.351435e+001 3.496643e+001 2.982269e+001 3.812900e+001 3.118444e+001 3.807360e+001 2.427134e+001 2.109896e+001 1.154280e+001 7.480835e-001 1.349919e+000 1.410204e+000 1.840272e+000 2.649473e+000 1.958675e+000 2.529954e+000 2.050871e+000 2.368100e+000 2.515114e+000 2.271442e+000 2.378285e+000 1.001282e+000 2.101855e-001 3.440156e-001 6.118358e-001 5.708814e-001 7.333397e-001 5.750297e-001 5.918591e-001 6.039273e-001 6.528403e-001 6.660221e-001 4.301947e-001 4.826599e-001 3.686281e-001
<GCONST> 1.131896e+002
<MIXTURE> 16 2.338682e-002
<MEAN> 39
 -2.242661e+000 8.097884e+000 5.462537e+000 3.156587e+000 -3.622757e+000 -5.457109e+000 -5.763042e+000 -8.552941e+000 -6.977102e+000 -4.283856e+000 -4.810286e+000 -6.791610e+000 5.529960e+001 2.450576e+000 1.379179e+000 2.698472e-001 -2.675236e-002 -1.133737e+000 -1.512540e+000 -1.573393e+000 -1.612010e+000 -1.454230e+000 -6.148381e-001 -1.544885e+000 -1.995101e+000 7.767954e-001 -6.090320e-001 -6.719320e-001 -4.333373e-001 -4.169238e-001 2.305374e-001 3.172626e-001 3.963992e-001 7.532237e-001 7.902849e-001 3.715987e-001 5.074573e-001 5.085527e-001 3.421921e-001
<VARIANCE> 39
 3.108957e+001 4.883255e+001 3.299594e+001 3.515649e+001 6.962548e+001 5.533194e+001 5.644123e+001 4.946078e+001 5.412603e+001 4.237302e+001 5.465430e+001 4.548617e+001 6.383148e+001 3.768717e+000 2.995094e+000 2.232610e+000 3.199322e+000 4.648473e+000 4.208696e+000 5.010989e+000 6.193573e+000 5.807635e+000 3.872655e+000 4.328459e+000 4.104904e+000 5.899980e+000 6.985268e-001 6.736537e-001 4.790362e-001 5.391665e-001 8.764604e-001 7.248353e-001 8.972393e-001 1.154214e+000 8.446344e-001 7.912202e-001 8.453847e-001 9.025019e-001 7.305142e-001
<GCONST> 1.370124e+002
<STATE> 3
<NUMMIXES> 16
<MIXTURE> 1 7.454450e-002
<MEAN> 39
 2.798202e+000 1.132391e+001 6.914589e+000 3.090627e+000 1.909684e+000 9.940837e-001 -6.409853e-001 -7.067970e+000 -6.129869e+000 -4.572484e+000 1.076085e+000 -2.136172e+000 5.692384e+001 -8.838282e-001 4.339841e-001 4.563828e-001 1.014659e+000 9.313989e-001 -1.530530e-001 4.946656e-001 1.995275e-001 7.474150e-002 -7.224614e-002 -2.810355e-001 3.920249e-001 -7.038189e-001 -4.928381e-001 -1.550373e+000 -4.897220e-001 -8.609490e-001 -8.248780e-001 -4.370819e-001 -7.004480e-001 2.923151e-001 7.183697e-001 5.919250e-001 9.981509e-002 -8.046039e-002 1.810090e+000
<VARIANCE> 39
 1.308913e+001 1.120487e+001 1.335281e+001 2.432643e+001 2.304260e+001 2.495584e+001 2.812008e+001 3.005481e+001 2.311884e+001 2.092432e+001 1.992854e+001 1.327236e+001 3.043137e+001 9.810722e-001 1.916290e+000 1.170088e+000 2.211239e+000 1.776833e+000 2.024294e+000 1.996021e+000 2.405768e+000 2.672898e+000 1.791348e+000 2.085455e+000 1.310627e+000 1.346165e+000 2.050208e-001 2.388850e-001 3.134318e-001 4.786363e-001 5.134230e-001 4.561996e-001 5.480998e-001 5.877973e-001 5.337852e-001 4.813154e-001 4.994800e-001 3.217926e-001 2.463786e-001
<GCONST> 1.059319e+002
<MIXTURE> 2 2.290240e-002
<MEAN> 39
 -3.796941e+000 7.201461e-001 9.120689e+000 -3.796705e+000 -1.784355e+000 1.464611e+000 -7.996553e+000 -9.565762e+000 -8.268567e+000 -2.935902e+000 -1.923903e+000 -4.591074e+000 5.666959e+001 -1.086933e+000 -4.403099e+000 1.067947e+000 -2.536178e+000 1.095491e+000 -1.159884e+000 -1.831485e-001 -2.785245e-001 1.423259e+000 1.322341e+000 1.535348e+000 1.029130e+000 4.051483e+000 2.440029e-001 -1.044300e+000 -2.146531e-002 -8.696054e-001 -8.458177e-001 3.197925e-001 -3.521916e-001 3.483785e-001 2.397261e-001 1.464887e-003 6.692894e-001 -3.987355e-003 1.004258e+000
<VARIANCE> 39
 4.412084e+001 1.255787e+002 1.044659e+002 1.437650e+002 9.561858e+001 1.240582e+002 1.185733e+002 6.728276e+001 1.440005e+002 5.838705e+001 7.419178e+001 4.318582e+001 7.692756e+001 3.983298e+000 1.663613e+001 7.593854e+000 1.560045e+001 1.237975e+001 1.251515e+001 1.360546e+001 6.243357e+000 1.245659e+001 6.480590e+000 1.048573e+001 3.891141e+000 7.601778e+000 6.802203e-001 2.552986e+000 1.175841e+000 1.916726e+000 2.314533e+000 1.970691e+000 2.326717e+000 1.285763e+000 2.065452e+000 1.079221e+000 1.608320e+000 8.500184e-001 1.287784e+000
<GCONST> 1.636582e+002
<MIXTURE> 3 9.519938e-002
<MEAN> 39
 7.334612e-001 1.155326e+001 7.929238e+000 5.139809e+000 2.603514e+000 -7.003235e-002 -1.176282e+000 -6.183426e+000 -5.153448e+000 -3.767414e+000 -7.151098e-002 -2.247256e+000 5.559230e+001 -1.808634e+000 -2.952771e+000 -1.265619e+000 -1.040072e+000 -5.988533e-001 -1.015484e+000 -6.279243e-001 6.184229e-001 1.610163e+000 9.293727e-001 4.350460e-002 3.619489e-001 3.532500e+000 2.898733e-001 -1.250824e+000 -5.236419e-001 -1.166197e+000 -1.154640e+000 -2.398210e-001 -6.417843e-001 1.093301e-001 3.002577e-001 5.318918e-001 2.476324e-001 -1.958650e-001 1.577938e+000
<VARIANCE> 39
 1.335717e+001 1.062553e+001 1.073855e+001 1.952170e+001 2.107115e+001 2.063055e+001 2.577904e+001 2.502634e+001 2.612145e+001 2.182446e+001 1.838617e+001 1.408938e+001 3.460762e+001 1.690399e+000 1.632535e+000 1.920150e+000 3.494933e+000 3.133668e+000 3.314872e+000 4.204518e+000 3.543858e+000 3.545511e+000 3.184589e+000 2.672679e+000 2.151581e+000 1.890364e+000 2.129465e-001 3.341122e-001 4.970785e-001 5.943606e-001 5.390922e-001 6.431026e-001 5.503035e-001 6.176293e-001 7.448472e-001 6.023335e-001 5.851427e-001 4.097815e-001 2.610231e-001
<GCONST> 1.131664e+002
<MIXTURE> 4 5.474580e-002
<MEAN> 39
 4.462888e+000 1.048942e+001 2.293114e+000 1.863631e-001 3.114474e-001 1.292683e+000 -4.213285e+000 -8.074210e+000 -4.765480e+000 -1.245071e+000 -1.054874e-001 -5.366026e+000 5.802644e+001 -2.634131e+000 -2.317280e+000 9.022343e-001 1.091367e+000 -4.579020e-001 -2.524240e+000 -9.581714e-001 8.407258e-001 1.067171e+000 1.433555e-001 -3.688730e-001 7.400052e-001 2.934992e+000 -3.858984e-001 -1.273585e+000 4.308876e-001 -3.276944e-001 -1.294257e+000 -8.296543e-001 -7.172192e-001 3.259703e-001 -1.358274e-001 6.389522e-002 7.513790e-002 1.703169e-001 1.598226e+000
<VARIANCE> 39
 6.961681e+000 1.470389e+001 2.179254e+001 2.460258e+001 2.661110e+001 2.388799e+001 2.653399e+001 2.577947e+001 2.864292e+001 2.689587e+001 3.185303e+001 2.567526e+001 3.902465e+001 1.235037e+000 2.206434e+000 2.082391e+000 2.517091e+000 3.799896e+000 3.143314e+000 3.872999e+000 3.000223e+000 3.678683e+000 3.054936e+000 2.803029e+000 2.473976e+000 1.991965e+000 2.236090e-001 2.970072e-001 5.700917e-001 4.506614e-001 6.200476e-001 5.287330e-001 5.373930e-001 6.018313e-001 7.706869e-001 6.428333e-001 6.363049e-001 5.458819e-001 2.313568e-001
<GCONST> 1.156892e+002
<MIXTURE> 5 8.463485e-002
<MEAN> 39
 3.863363e-001 9.348281e+000 5.840749e+000 1.168847e+000 -1.839006e+000 -7.497012e+000 -6.769430e+000 -7.709577e+000 -3.853606e+000 -5.696668e+000 -7.495407e+000 -9.618673e+000 5.599620e+001 -2.456157e+000 -2.219284e+000 -2.781529e-001 -4.839669e-001 -3.611858e-001 -8.794875e-002 9.857138e-001 1.201131e+000 5.537181e-001 -2.754710e-002 1.249891e+000 1.975238e+000 3.225617e+000 -1.856838e-002 -1.316214e+000 -4.426936e-001 -1.255977e+000 -9.905536e-001 -3.619021e-001 -1.723043e-001 4.176893e-001 -1.980887e-001 6.932513e-001 2.774169e-001 7.795717e-001 1.786517e+000
<VARIANCE> 39
 1.415596e+001 1.234177e+001 1.426651e+001 1.280374e+001 2.018032e+001 1.885161e+001 2.299492e+001 2.307447e+001 2.527452e+001 3.002790e+001 2.333549e+001 1.698800e+001 2.718597e+001 1.384620e+000 1.949499e+000 2.099473e+000 2.797431e+000 3.579567e+000 3.224421e+000 2.662023e+000 3.213050e+000 3.235826e+000 3.399374e+000 2.995273e+000 2.232204e+000 2.727869e+000 3.724394e-001 3.653202e-001 5.671204e-001 5.220813e-001 7.128608e-001 6.324868e-001 5.015073e-001 7.470915e-001 7.463851e-001 6.166735e-001 6.395671e-001 4.330686e-001 3.868562e-001
<GCONST> 1.148380e+002
<MIXTURE> 6 1.107568e-001
<MEAN> 39
 -4.202927e-001 8.621251e+000 5.630673e+000 4.141564e+000 -5.771918e-001 -2.226714e+000 -3.502156e+000 -3.637297e+000 -1.618317e+000 -7.478369e-001 -4.567372e-001 -4.236997e+000 5.677911e+001 -1.136348e+000 -8.386237e-001 -2.444479e-001 -2.006559e-001 2.603325e-001 -1.965495e-001 2.044269e-001 2.976622e-001 3.795627e-001 -5.170648e-003 -6.793668e-003 6.338447e-001 8.635284e-001 4.861554e-003 -1.045158e+000 -2.037887e-001 -7.690572e-001 -8.289052e-001 -1.504539e-001 -5.024681e-001 -1.035740e-001 -1.597708e-001 2.145321e-002 2.160223e-001 1.496829e-001 1.373399e+000
<VARIANCE> 39
 2.023913e+001 2.325534e+001 2.388288e+001 2.959753e+001 2.663070e+001 2.998436e+001 3.582673e+001 2.703563e+001 3.039835e+001 2.390537e+001 2.401699e+001 2.134941e+001 4.643233e+001 1.148333e+000 1.178782e+000 1.395332e+000 1.858620e+000 1.847114e+000 2.043855e+000 2.025181e+000 2.088227e+000 2.209420e+000 1.997766e+000 1.922930e+000 1.555992e+000 1.166652e+000 2.413763e-001 3.153884e-001 5.647966e-001 5.337524e-001 5.787106e-001 5.913982e-001 5.745989e-001 5.809330e-001 5.685272e-001 5.279539e-001 5.203001e-001 4.082774e-001 2.608236e-001
<GCONST> 1.113377e+002
<MIXTURE> 7 3.901463e-002
<MEAN> 39
 7.042857e+000 1.246653e+001 -3.461016e+000 -4.610186e+000 -9.935595e+000 1.145351e+000 -3.973613e+000 -6.567477e+000 -8.958350e+000 -4.367013e+000 -3.688645e+000 -4.813715e+000 5.361752e+001 -6.213517e-001 2.408908e-001 1.442366e-001 8.563721e-001 6.155821e-001 -1.930416e-001 -3.544836e-002 1.033204e-001 7.336439e-001 -2.435314e-001 -2.577130e-002 6.701992e-001 -5.819857e-001 -4.600827e-001 -1.382863e+000 2.986644e-001 4.055063e-002 2.331672e-001 -4.644481e-001 -1.027720e+000 -3.260439e-001 4.336118e-001 3.201362e-001 1.349199e-001 2.645075e-001 1.115494e+000
<VARIANCE> 39
 1.252376e+001 3.140545e+001 4.154949e+001 5.785170e+001 3.931416e+001 8.532551e+001 4.907601e+001 3.968094e+001 3.745061e+001 4.503028e+001 3.647270e+001 2.831298e+001 1.747958e+001 9.628225e-001 5.195271e+000 2.376679e+000 3.277956e+000 3.898601e+000 3.860967e+000 4.660911e+000 3.946078e+000 4.144423e+000 3.810700e+000 2.846208e+000 2.722270e+000 1.571711e+000 3.303532e-001 6.137804e-001 7.774691e-001 7.545750e-001 7.859384e-001 9.783133e-001 8.432195e-001 7.111618e-001 7.931495e-001 9.110041e-001 6.319379e-001 6.368181e-001 2.821571e-001
<GCONST> 1.275019e+002
<MIXTURE> 8 2.700292e-002
<MEAN> 39
 -6.415344e-001 1.026902e+001 2.191641e+000 8.215377e+000 -2.590494e+000 -2.233383e-001 -7.652190e+000 -9.584336e+000 -1.224892e+001 -1.035458e+000 9.189229e+000 -4.389765e-001 4.872513e+001 -9.638180e-001 -1.912501e-001 1.689911e-002 7.611347e-002 5.332649e-001 -4.541417e-001 -3.328825e-001 -2.950612e-002 1.189197e+000 6.752732e-001 -1.004712e+000 2.724416e-001 2.854171e-001 -2.767971e-001 -1.291510e+000 2.363020e-002 -8.908245e-001 -5.081710e-001 -3.691569e-001 -2.076426e-001 4.849549e-001 1.120811e+000 -2.483216e-001 -6.131255e-001 -3.479571e-001 1.398004e+000
<VARIANCE> 39
 2.017475e+001 1.704803e+001 2.600315e+001 2.505093e+001 3.561306e+001 2.943436e+001 5.439532e+001 2.713571e+001 5.083841e+001 4.228276e+001 3.487896e+001 2.708688e+001 7.281437e+001 1.116337e+000 4.759017e+000 1.429679e+000 3.314209e+000 2.998262e+000 3.096208e+000 4.624860e+000 3.290320e+000 5.480472e+000 3.766827e+000 3.167278e+000 2.256824e+000 3.986340e+000 2.318073e-001 4.538310e-001 2.994367e-001 4.317935e-001 6.636550e-001 5.082237e-001 8.802743e-001 7.073097e-001 7.683311e-001 7.065465e-001 5.858985e-001 5.318252e-001 4.109287e-001
<GCONST> 1.230898e+002
<MIXTURE> 9 1.027428e-001
<MEAN> 39
 -2.173529e-001 6.314877e+000 3.503485e+000 1.643495e+000 -3.446883e+000 -3.356291e+000 -5.313447e+000 -4.716249e+000 -3.722157e+000 -2.319794e+000 -2.349013e+000 -5.532742e+000 5.848671e+001 -8.530472e-001 -8.993890e-001 -2.029601e-001 -3.893302e-001 -1.958764e-001 -3.593278e-001 -3.105284e-001 -1.390225e-001 3.623570e-001 5.912169e-002 8.379794e-003 4.800000e-001 1.135587e+000 3.095823e-002 -9.659307e-001 -3.666397e-002 -8.172432e-001 -8.983881e-001 -7.861922e-002 -7.119409e-001 -2.790394e-002 -3.518896e-002 2.668777e-001 2.978342e-001 1.091866e-001 1.237942e+000
<VARIANCE> 39
 2.256870e+001 2.546412e+001 2.282104e+001 3.244934e+001 3.028425e+001 3.387986e+001 4.300057e+001 2.925536e+001 2.981887e+001 2.469740e+001 3.254498e+001 2.043373e+001 4.480878e+001 1.124316e+000 1.329728e+000 1.643512e+000 2.142445e+000 2.238761e+000 2.036546e+000 2.804090e+000 2.136016e+000 2.198468e+000 2.130255e+000 2.011462e+000 1.495843e+000 1.020405e+000 2.083049e-001 3.474323e-001 6.424404e-001 5.233458e-001 5.484031e-001 5.719904e-001 6.258256e-001 6.090121e-001 6.452585e-001 5.980503e-001 5.295527e-001 3.938045e-001 2.564948e-001
<GCONST> 1.135267e+002
<MIXTURE> 10 9.920324e-002
<MEAN> 39
 -2.110089e-001 1.000416e+001 6.847427e+000 3.930980e+000 3.225120e-001 -2.472589e+000 -3.708059e+000 -7.532136e+000 -5.988630e+000 -4.249729e+000 -1.494587e+000 -4.083164e+000 5.482650e+001 -1.486969e+000 -3.325783e+000 -1.344459e+000 -1.461791e+000 -8.974871e-001 -9.714760e-001 -7.773592e-001 8.844228e-001 1.631734e+000 9.482175e-001 1.426556e-002 3.103233e-001 4.000535e+000 3.847851e-001 -1.250116e+000 -5.446364e-001 -1.257877e+000 -1.127727e+000 -1.731297e-001 -6.091223e-001 3.872096e-001 2.196168e-001 6.316787e-001 7.888950e-003 -1.688825e-001 1.498750e+000
<VARIANCE> 39
 1.165110e+001 1.394030e+001 1.516124e+001 2.531972e+001 2.403654e+001 2.626570e+001 2.593790e+001 2.345633e+001 2.401634e+001 2.075835e+001 1.985019e+001 1.410316e+001 4.286289e+001 1.989028e+000 1.836880e+000 2.577615e+000 4.093832e+000 3.304411e+000 3.709617e+000 3.825406e+000 3.584550e+000 3.036808e+000 3.449424e+000 2.793533e+000 2.258058e+000 1.890078e+000 1.947676e-001 3.532193e-001 6.245592e-001 5.995709e-001 5.984507e-001 6.960732e-001 5.583865e-001 6.624904e-001 7.064968e-001 6.065383e-001 6.498370e-001 4.603812e-001 2.404962e-001
<GCONST> 1.157765e+002
<MIXTURE> 11 7.892592e-002
<MEAN> 39
 9.616549e-001 7.861845e+000 4.292885e+000 -9.446714e-001 -4.155513e+000 -8.555929e+000 -8.315989e+000 -8.818669e+000 -5.467623e+000 -6.953229e+000 -9.319793e+000 -9.974436e+000 5.891694e+001 -1.982805e+000 -2.115131e+000 -5.791395e-001 -9.866230e-001 -9.485037e-001 -5.876083e-001 1.246226e-001 8.799571e-001 5.418344e-001 4.593937e-001 1.261541e+000 1.741653e+000 3.415661e+000 -1.551060e-002 -1.252075e+000 -4.411856e-001 -1.349433e+000 -8.569195e-001 -1.135426e-001 -2.332180e-001 4.712768e-001 -1.809793e-001 8.313952e-001 2.142859e-001 7.240165e-001 1.524730e+000
<VARIANCE> 39
 1.321461e+001 1.850176e+001 1.911887e+001 1.600723e+001 2.386292e+001 2.178858e+001 2.752644e+001 2.738569e+001 2.505361e+001 3.111620e+001 2.454947e+001 1.904674e+001 2.512259e+001 1.466838e+000 2.483122e+000 3.506076e+000 4.365401e+000 4.541936e+000 3.722307e+000 2.558803e+000 4.004989e+000 3.346092e+000 3.538605e+000 2.786695e+000 2.474123e+000 2.114152e+000 3.047539e-001 4.603015e-001 7.246606e-001 5.378550e-001 7.626839e-001 7.292579e-001 6.309099e-001 8.918619e-001 8.067973e-001 6.861855e-001 7.107904e-001 4.893873e-001 4.019103e-001
<GCONST> 1.195088e+002
<MIXTURE> 12 8.274363e-002
<MEAN> 39
 2.091683e+000 9.188812e+000 5.762720e+000 2.144153e+000 -1.352998e+000 -3.795796e-003 -2.706409e+000 -8.816964e+000 -7.902555e+000 -5.398094e+000 -7.227922e-001 -3.759607e+000 5.600830e+001 -1.081144e+000 1.071860e-001 3.006999e-001 8.472347e-001 8.394040e-001 -3.946783e-001 2.567988e-001 1.674972e-001 3.117394e-001 -1.335524e-001 -3.266154e-001 1.420895e-001 -1.708483e-001 -3.290531e-001 -1.628085e+000 -5.622804e-001 -1.017396e+000 -8.046044e-001 -4.549516e-001 -7.486123e-001 4.579993e-001 7.315138e-001 7.183995e-001 7.897322e-002 -3.523669e-002 1.868504e+000
<VARIANCE> 39
 1.272390e+001 1.784342e+001 2.015438e+001 3.847327e+001 2.819724e+001 4.095868e+001 2.714887e+001 3.173942e+001 2.736954e+001 2.282521e+001 2.528712e+001 1.610851e+001 3.423953e+001 1.060753e+000 1.774959e+000 1.376500e+000 1.883777e+000 1.697742e+000 1.890239e+000 1.606781e+000 2.013015e+000 2.367012e+000 2.023895e+000 1.924969e+000 1.262426e+000 1.471465e+000 2.433413e-001 2.347435e-001 3.841839e-001 6.232033e-001 5.931782e-001 4.766535e-001 5.300049e-001 5.737513e-001 5.223540e-001 4.998533e-001 5.298827e-001 3.805103e-001 2.261520e-001
<GCONST> 1.091365e+002
<MIXTURE> 13 4.599773e-002
<MEAN> 39
 4.520433e+000 9.144098e+000 -1.301190e+000 -3.704078e+000 -2.632759e+000 8.122738e-002 -7.421603e+000 -8.449638e+000 -5.872736e+000 -3.100830e+000 -3.567650e+000 -6.263536e+000 5.684195e+001 -2.647116e+000 -2.405807e+000 1.251961e+000 1.681250e+000 -4.304736e-001 -2.706742e+000 -8.340327e-001 3.465851e-001 8.845726e-001 -1.068380e-001 8.339882e-002 8.074017e-001 2.686058e+000 -4.473234e-001 -1.225511e+000 4.295395e-001 -3.819013e-001 -1.137016e+000 -7.190964e-001 -6.807340e-001 2.808102e-001 -2.481816e-001 2.811920e-001 1.740813e-001 1.758489e-001 1.581838e+000
<VARIANCE> 39
 7.077778e+000 2.257705e+001 2.472011e+001 3.126300e+001 3.808131e+001 3.466707e+001 3.364874e+001 3.559350e+001 3.258680e+001 3.419995e+001 3.635175e+001 3.084221e+001 3.841887e+001 1.489739e+000 3.142229e+000 2.623313e+000 3.239417e+000 5.179299e+000 4.111394e+000 5.219918e+000 3.506559e+000 3.882698e+000 3.548171e+000 3.387846e+000 3.223040e+000 1.965301e+000 2.093963e-001 3.154785e-001 7.741613e-001 5.200217e-001 6.853072e-001 6.735147e-001 6.203206e-001 7.370915e-001 1.018473e+000 8.169814e-001 6.379272e-001 6.913431e-001 2.142747e-001
<GCONST> 1.229739e+002
<MIXTURE> 14 3.607801e-002
<MEAN> 39
 5.835289e+000 1.225896e+001 -2.399673e+000 -8.317127e+000 -1.271600e+001 1.180624e-001 -7.491293e+000 -7.035483e+000 -1.023139e+001 -7.777684e+000 -4.603204e+000 -5.817056e+000 5.368699e+001 -7.207318e-001 6.656742e-001 3.772492e-001 7.769279e-001 6.173107e-003 -6.866705e-001 4.259025e-001 -9.338909e-002 5.970611e-002 -3.538384e-001 -3.558136e-001 4.498469e-001 -7.388848e-001 -3.821881e-001 -1.503266e+000 1.058627e-001 -2.623398e-002 3.427180e-001 -2.490380e-001 -6.559720e-001 -2.836324e-001 4.823041e-001 3.948417e-001 2.580085e-001 2.332909e-001 1.102399e+000
<VARIANCE> 39
 1.378828e+001 4.010918e+001 4.291436e+001 4.985253e+001 3.493821e+001 1.341675e+002 3.991850e+001 3.682825e+001 4.011964e+001 3.511179e+001 4.077196e+001 2.416139e+001 1.613578e+001 1.036468e+000 5.914247e+000 2.660651e+000 3.919122e+000 4.213526e+000 3.683489e+000 3.812947e+000 3.523706e+000 3.594786e+000 3.235167e+000 2.836885e+000 2.309444e+000 1.662719e+000 4.413597e-001 8.241277e-001 9.500361e-001 1.089203e+000 9.469972e-001 1.238051e+000 8.871422e-001 8.093832e-001 7.727747e-001 8.938242e-001 7.127980e-001 5.102380e-001 3.482926e-001
<GCONST> 1.290848e+002
<MIXTURE> 15 2.140766e-002
<MEAN> 39
 -3.176190e+000 1.104099e+001 1.139998e+000 8.338621e+000 -4.154721e+000 -3.581200e-001 -1.070968e+001 -9.358546e+000 -1.151360e+001 -2.081819e+000 6.566243e+000 -3.671446e-001 4.396677e+001 -1.608224e+000 -1.941046e+000 1.184450e-002 -8.348032e-001 5.771627e-001 -1.167522e+000 7.565393e-001 1.689168e-001 2.108514e+000 4.449478e-001 -2.044500e+000 -4.993572e-001 1.948718e+000 -7.787848e-002 -1.560095e+000 -1.519412e-001 -1.053007e+000 -6.250778e-001 -5.208129e-001 -1.204302e-001 4.277720e-001 1.023008e+000 -4.398724e-001 6.499823e-002 -3.797889e-001 1.943788e+000
<VARIANCE> 39
 1.907275e+001 2.106295e+001 2.143935e+001 3.216430e+001 3.492461e+001 3.111829e+001 5.019598e+001 3.289772e+001 4.063292e+001 3.682713e+001 4.721925e+001 2.627221e+001 3.605121e+001 1.462163e+000 6.521358e+000 1.984212e+000 4.739141e+000 3.375778e+000 3.660497e+000 4.709018e+000 2.851978e+000 6.155562e+000 3.630181e+000 4.183377e+000 2.903387e+000 6.001081e+000 2.356045e-001 4.267215e-001 4.368120e-001 3.915170e-001 6.492640e-001 7.151681e-001 8.442183e-001 6.721175e-001 8.919554e-001 8.865079e-001 1.037669e+000 6.430893e-001 3.649592e-001
<GCONST> 1.265875e+002
<MIXTURE> 16 2.408287e-002
<MEAN> 39
 -3.321423e+000 4.336957e+000 7.575162e+000 -2.054028e+000 -5.707951e+000 1.463212e+000 -8.345982e+000 -8.348548e+000 -5.748389e+000 -5.403256e+000 -4.287566e+000 -3.523625e+000 5.378438e+001 -1.278022e+000 -2.645790e+000 8.104001e-001 -7.994864e-001 1.275377e+000 -1.430144e+000 -2.815800e-001 -7.147113e-001 5.621523e-001 2.767648e-001 -3.412352e-002 2.369217e-001 2.682542e+000 1.194910e-001 -9.553542e-001 8.467817e-002 -9.139098e-001 -4.892736e-001 1.968390e-001 -5.319968e-002 1.549425e-001 -5.371251e-002 6.124084e-002 5.527757e-001 1.300762e-002 1.064315e+000
<VARIANCE> 39
 5.815194e+001 9.274220e+001 1.569894e+002 1.491149e+002 1.439688e+002 1.889710e+002 1.166217e+002 7.489493e+001 9.731894e+001 6.999814e+001 6.590661e+001 6.177444e+001 6.742625e+001 5.509239e+000 1.268245e+001 1.388652e+001 1.202155e+001 1.715155e+001 1.666858e+001 1.173679e+001 6.505377e+000 9.586080e+000 7.737553e+000 7.035582e+000 4.393374e+000 5.772372e+000 9.479575e-001 2.518831e+000 2.066581e+000 2.216070e+000 3.187963e+000 2.850384e+000 1.904026e+000 1.398705e+000 1.969030e+000 1.291828e+000 1.291894e+000 9.567223e-001 1.177003e+000
<GCONST> 1.666989e+002
<STATE> 4
<NUMMIXES> 16
<MIXTURE> 1 5.715784e-002
<MEAN> 39
 -6.205787e+000 5.193922e+000 6.126132e+000 4.487922e+000 3.064326e+000 -9.643035e-001 7.760037e-001 -6.447531e-001 9.860909e-001 -1.121646e+000 -5.622575e-001 -2.224234e+000 5.602078e+001 -8.946420e-001 -3.133486e+000 -9.169595e-001 -1.748533e+000 -1.484226e+000 -1.223169e+000 -7.627625e-001 2.701005e-001 7.538237e-001 5.922852e-001 4.604971e-001 7.063797e-001 4.178672e+000 9.984114e-001 -2.934814e-001 -5.827808e-002 -9.451997e-001 -1.168577e+000 -2.428961e-001 -8.640788e-001 -4.628370e-001 -6.092206e-001 1.229172e-001 4.578567e-002 -1.580572e-001 9.228818e-001
<VARIANCE> 39
 1.330080e+001 1.774894e+001 1.694872e+001 2.113131e+001 2.057586e+001 2.153175e+001 2.298591e+001 2.304618e+001 2.256417e+001 2.370784e+001 1.840575e+001 1.800239e+001 6.244339e+001 2.271567e+000 1.870206e+000 3.705712e+000 4.045058e+000 4.023120e+000 4.053152e+000 4.552251e+000 3.930652e+000 3.515644e+000 3.218183e+000 2.940056e+000 2.486727e+000 2.305551e+000 2.698494e-001 5.005587e-001 7.457841e-001 6.730723e-001 6.235800e-001 8.298436e-001 6.010159e-001 7.259431e-001 7.469697e-001 7.023069e-001 9.361562e-001 4.518846e-001 5.322984e-001
<GCONST> 1.203732e+002
<MIXTURE> 2 5.171934e-002
<MEAN> 39
 1.419924e+000 -4.228938e+000 1.466562e+000 -3.599952e+000 -9.387402e+000 -2.922724e+000 -1.385355e+001 -7.924881e+000 1.649878e+000 6.049397e+000 2.726421e+000 -5.014933e+000 7.298631e+001 1.097986e+000 -3.276893e+000 -1.642256e-001 -1.860495e+000 -3.175364e+000 -2.034734e-001 -2.832816e+000 5.931668e-001 2.007184e+000 1.613640e+000 1.014138e-001 -1.002421e+000 2.969075e+000 3.854940e-002 8.183262e-001 4.518167e-001 5.800775e-001 4.063500e-001 2.946942e-001 7.270057e-001 3.147769e-001 -3.941718e-001 -8.185778e-001 -5.278068e-001 5.716665e-002 -1.058541e+000
<VARIANCE> 39
 1.523319e+001 2.829022e+001 2.274414e+001 4.205228e+001 4.227598e+001 5.114267e+001 3.824005e+001 4.455364e+001 3.462285e+001 2.548371e+001 3.620928e+001 2.151323e+001 6.617628e+001 1.945255e+000 2.846847e+000 2.385607e+000 4.398770e+000 3.366409e+000 4.701035e+000 4.177289e+000 5.989976e+000 4.322976e+000 4.070368e+000 4.351153e+000 3.023185e+000 2.122944e+000 2.729966e-001 4.033844e-001 3.193122e-001 4.799614e-001 5.811149e-001 5.027806e-001 6.183569e-001 6.633179e-001 6.190065e-001 5.014172e-001 5.193813e-001 4.795988e-001 3.278733e-001
<GCONST> 1.237213e+002
<MIXTURE> 3 7.470962e-002
<MEAN> 39
 -7.732275e+000 -1.650183e+000 1.668143e+000 2.649712e-001 8.309167e-001 -3.552938e+000 -1.498509e+000 -2.991692e+000 1.425954e+000 -5.761213e-001 -2.331933e-001 -1.394010e+000 6.994493e+001 6.949398e-001 -2.460686e+000 -1.326840e+000 -2.891113e+000 -2.186323e+000 -3.822087e-001 -1.265775e+000 -1.506021e-001 3.254381e-002 8.084555e-001 7.956623e-001 3.644897e-001 4.040059e+000 1.245708e+000 7.937415e-001 3.543629e-001 -5.578542e-001 -8.240168e-001 2.973755e-001 -4.177119e-001 -3.957344e-001 -7.542794e-001 -1.346634e-001 4.996696e-002 -3.150983e-001 -7.920254e-001
<VARIANCE> 39
 1.676702e+001 1.669849e+001 1.998127e+001 2.535954e+001 1.949530e+001 2.026151e+001 2.812084e+001 2.462210e+001 2.588159e+001 2.783364e+001 1.844476e+001 1.710663e+001 3.735988e+001 3.084714e+000 3.579702e+000 4.482732e+000 6.369039e+000 4.793766e+000 4.924656e+000 4.180023e+000 4.442749e+000 5.296851e+000 5.134696e+000 4.223126e+000 3.017963e+000 2.859242e+000 3.116574e-001 5.726863e-001 5.622303e-001 9.725367e-001 6.093205e-001 8.548296e-001 7.329692e-001 7.763436e-001 8.696400e-001 7.830176e-001 8.975055e-001 5.198513e-001 3.622362e-001
<GCONST> 1.250439e+002
<MIXTURE> 4 4.725357e-002
<MEAN> 39
 -3.697933e+000 -2.827087e+000 6.722000e+000 5.321421e+000 -5.651758e+000 -1.055442e+001 -1.301291e+001 -4.543536e+000 1.401745e+000 -7.536339e-001 -8.470789e-001 -3.234688e+000 7.149831e+001 -1.585091e-001 -2.465352e+000 2.475833e+000 -2.529096e-001 -4.346574e+000 -1.845097e+000 -1.972360e+000 7.705615e-001 -3.850559e-001 -9.757110e-001 8.801054e-001 2.869678e-001 3.225323e+000 3.749205e-001 1.156141e+000 4.278906e-001 -5.020722e-001 -3.644272e-001 1.044029e+000 8.137128e-001 -1.207543e-001 -9.473614e-001 -3.147770e-001 3.791147e-001 5.920810e-002 -1.056363e+000
<VARIANCE> 39
